-0.938613
-1.094753
-0.694238
0.241919
0.518994
-0.921267
-0.344083
-0.071918
0.180063
0.907361
1.357448
0.997954
-0.362398
-0.601575
-0.514953
-0.132240
-0.596515
0.098339
0.404548
-0.213888
0.577268
-1.471929
0.805066
-0.109785
0.140078
0.288357
0.160460
-0.535312
-0.979051
1.053412
0.297995
0.124864
1.089323
-1.041831
0.156436
-0.173661
-0.821153
0.432213
-2.241287
-0.680523
1.981622
-1.524451
-0.332139
-1.455132
2.429932
0.137767
-0.414831
1.920021
-2.143222
-0.388084
0.732804
1.667067
-0.028249
1.128763
-0.496452
-1.090215
0.041784
1.219454
0.486887
-1.578309
0.971587
-2.374311
-0.877732
-0.385166
-1.262724
-0.241913
1.442684
-0.005227
0.155617
-0.956039
0.027342
-1.035893
0.524325
-1.237986
-1.055313
-0.301319
-0.013129
0.590162
-0.844496
-1.820385
1.633094
0.999571
-0.865795
-0.400482
0.430237
-0.004089
0.913550
0.040277
-0.121525
-0.205738
0.566725
0.578049
0.660050
0.019214
0.832578
-1.331151
-0.754072
0.498074
-0.773805
-0.685052
-0.312894
0.266837
-2.125385
0.643606
1.075150
0.493419
-0.088862
0.695400
-0.436367
-0.489303
0.516159
-0.299491
-0.950131
-1.380777
-0.641618
-1.633339
-1.151408
1.302707
0.134657
1.109630
-0.719659
-1.416764
-1.808639
-0.269532
1.240728
-1.648785
-0.210276
0.413393
-0.699211
0.622493
-0.467163
0.020954
0.965756
-0.213045
-0.389212
-1.482553
-1.173061
1.370032
1.942783
0.465535
0.445643
0.324980
1.667386
0.979333
0.893915
0.101345
-1.196101
-0.983367
1.185947
-0.705472
-1.032164
-0.850436
0.012784
-0.449067
0.001084
0.788474
0.260560
-0.555644
1.644959
0.806189
-0.680588
-0.278496
0.513970
-0.297865
-0.471890
-1.787354
-1.466157
-0.351304
0.592752
0.919919
-0.217330
0.810153
-0.494688
-0.169072
0.631609
-2.059348
-0.107692
2.142404
1.365030
0.258228
0.094429
0.313155
1.214439
0.387029
0.841500
-1.537700
-0.254860
-0.925534
-0.286870
1.856917
0.507882
-0.744392
0.349084
-0.189021
0.008510
0.402986
-1.022056
1.057741
-2.053181
0.416101
-0.162225
-1.025351
0.458198
-2.104843
1.080278
0.390870
-0.201205
-0.748932
-0.120038
1.084578
1.682698
0.067203
-0.415638
0.086569
-0.731012
1.422891
-0.141675
0.759037
0.286783
-0.278953
-1.706305
-0.739053
1.814933
-1.031889
-0.542554
-2.439085
1.167357
-1.193885
0.605178
0.390514
-0.954966
-0.641758
0.432141
-0.580700
-1.047476
-0.039996
0.303277
-1.119607
0.874237
-0.114442
-0.769863
1.542711
2.757637
0.025355
2.978551
0.403831
2.068099
0.523018
-0.638490
0.064542
-1.316703
0.332471
-0.401767
-1.912198
-0.359232
1.606735
1.415435
0.071029
0.426352
-0.761271
0.017535
-0.176453
-1.027596
0.296757
-0.453475
-0.606050
0.292394
0.356130
-0.358899
-0.506044
0.361879
0.104551
-0.514286
0.773019
-1.467029
0.220384
-0.171363
1.955322
0.803937
1.722048
-1.233811
0.402993
-0.344214
0.606425
1.453799
-1.578537
-0.264236
1.629054
0.255823
0.688765
-0.170583
2.057674
1.983457
0.319500
-0.036941
-0.461466
0.137573
1.743931
-0.724761
0.067700
-0.723234
0.766758
1.226514
1.412731
0.618354
0.625172
-0.122113
-0.592724
0.773951
0.851513
0.522950
0.148138
0.464425
-0.744417
0.588921
-0.038614
-0.110493
-1.173183
0.188786
1.074480
-0.043565
-1.598453
1.808475
0.395388
-1.512600
-0.711141
0.846158
0.953792
1.471824
0.485008
0.356156
-0.043150
-0.575578
0.732285
1.336822
0.264464
-1.363275
-0.752849
-0.854101
1.612410
0.747379
1.386871
-0.376808
-0.610551
0.409562
1.481012
1.326503
-1.759675
0.667670
-1.114382
-1.468635
1.604693
-1.237580
0.949153
-0.704070
-1.515375
0.194829
1.638947
0.577311
1.425712
-0.435741
0.771964
-1.605083
0.135352
0.211293
-1.393976
-1.281648
0.627001
0.638904
-0.332262
-1.063972
0.641066
0.913354
-0.354377
2.106932
0.805859
0.168655
-1.244736
0.894329
0.244139
-0.948434
1.887688
0.320364
0.376012
-0.119003
1.018023
-0.567036
-2.053790
-1.903669
-0.534057
-1.178838
1.905081
0.736617
0.626176
-0.228001
0.012053
-1.902130
-0.479484
-0.535901
0.150304
-0.523181
0.819746
0.895840
0.215326
1.421789
-0.223731
0.611349
-0.108760
0.828524
-1.500072
0.819054
-0.390444
-0.277000
-0.465255
-2.538651
0.717325
0.487741
0.345553
1.978648
-1.965055
0.283877
0.548675
-2.374741
-0.838160
-1.497305
0.913557
-0.014452
-0.583351
-0.123344
-0.802299
1.605845
-0.933450
-0.489658
1.198262
-0.009361
0.984666
-0.651403
-0.119047
-1.090223
0.024990
0.122928
0.462668
-0.077307
-0.121621
0.626829
0.484158
0.898061
0.075072
-0.966198
-0.710265
-1.777368
-0.902760
-1.494774
-0.269977
0.147821
0.397353
-0.602258
-1.046222
-0.329182
0.096653
-0.043193
0.522157
0.162815
0.111530
0.361203
-0.139429
0.898649
-0.844456
-0.649528
-0.726036
0.665063
0.610648
1.070997
-0.127730
-1.377531
0.353702
-0.656824
0.204064
0.399560
0.389065
-1.264379
-1.587112
-0.879364
-0.180998
-0.304297
-0.503451
-2.226092
-2.137590
0.122438
0.976907
0.944361
-1.238120
-2.110092
1.798688
-1.673844
0.114604
-2.152938
1.798979
1.370814
-2.638063
1.251578
-0.403084
0.271143
0.263746
-2.332095
-0.721294
-0.386583
0.477811
-0.689267
1.013195
0.117179
0.326849
0.104755
1.649933
-0.718731
0.054482
0.274948
0.633910
-0.374196
0.136794
0.365495
-0.381702
-0.296342
1.312585
-1.646488
0.830495
-1.559386
0.155802
-1.463603
-0.620535
2.579065
0.581053
0.889733
-0.133504
-0.256185
-0.626127
1.840526
1.629555
-0.139387
-0.703725
-1.073957
0.339569
1.245792
1.379946
-1.360090
1.198221
-0.229354
1.441751
0.388820
-1.327699
1.248497
0.451325
-1.666965
0.169764
0.059960
-0.931415
-1.419652
-0.591039
-0.016313
-0.175202
-2.037424
-2.801683
1.167013
-0.126333
-0.138523
-2.563365
-1.358791
0.939501
-0.261081
1.035842
-0.008386
0.062270
-0.886078
-2.263840
-0.711597
1.209679
-0.217177
1.151371
-0.997037
0.316623
0.590561
1.460405
0.673629
-1.222353
-1.307291
-0.458785
-0.576972
0.347943
-0.565345
-0.807816
-1.484088
-0.706695
-0.575148
-1.347813
1.340422
-0.225683
-0.615957
-0.249248
-1.615356
-0.090115
0.437613
1.274459
2.217549
0.658694
-0.939582
-0.179344
0.394230
0.884383
-0.741555
0.157561
-0.222198
1.474095
-0.307710
1.820540
-0.296627
0.175374
0.023502
0.794614
-0.559932
0.054736
-0.288468
-0.052524
1.215383
-0.162224
-0.305891
-1.222177
-0.702842
2.653842
-0.617606
0.201530
1.031065
0.106866
0.061167
-0.326437
-1.256078
-0.609479
0.624732
-0.650039
-0.221695
1.424975
0.220838
0.517055
0.301976
-0.015582
0.048948
0.331717
-0.772939
-0.613997
-0.124584
1.160341
-0.589258
1.707825
-0.784856
1.464050
-0.616119
1.960309
-1.975994
1.086534
0.060136
0.917832
2.705277
-1.943409
0.407257
-0.482362
1.439745
0.810367
-0.003757
0.473711
-1.068076
-1.121701
0.734607
0.160223
-1.293562
1.405030
0.050000
0.033495
1.287996
1.446176
-0.853778
2.265914
-0.582078
-2.017514
-1.100105
-0.400612
0.668648
-2.160164
-0.170492
-0.596080
0.827750
-0.046831
1.078408
1.754385
-0.479193
-0.044949
-1.706862
-0.695009
-0.135823
1.313502
-0.172260
0.909713
-0.727118
0.361641
0.775751
1.307229
-0.583856
-0.176891
0.973332
1.286931
0.611479
1.462860
-1.319408
0.317086
-0.697748
-0.512133
0.452397
0.313948
2.383787
-0.846608
-0.613888
-0.044241
0.334721
0.367036
-0.715737
-0.247510
0.514883
-1.200518
1.172691
-0.123520
-2.503890
2.253879
2.199069
0.241229
0.769852
-0.150453
0.663531
-1.250415
0.133178
1.212004
1.153307
0.105393
0.535895
-2.086471
-0.381647
-1.922775
-0.854000
-0.063091
0.326709
-0.595172
0.871987
0.963172
1.742989
0.988934
-2.668603
-2.093083
1.059238
1.177595
0.374489
-0.110691
-0.872617
1.714314
-0.657108
-0.543543
-1.236548
0.771422
-0.564696
0.737024
0.085493
-0.559707
1.170070
-0.181935
0.441675
1.786614
1.566265
-0.685111
0.968436
1.505643
1.354024
-0.240219
-0.803695
0.504331
-1.316988
-1.464225
-1.383877
0.634584
0.330640
-1.398315
-1.732871
1.767400
-1.456494
-1.612898
0.275721
0.009250
-0.040807
-0.543160
0.508801
-0.493298
-0.447250
-0.431562
-0.885277
-0.960226
0.413864
-1.040402
-0.692841
0.203459
-0.881562
0.550658
1.990775
-1.119690
0.460500
0.713731
-0.713963
1.360338
-0.273649
-1.919891
-1.507295
-0.184348
1.415958
-1.361442
0.047424
-0.146463
-0.678146
0.969396
0.534983
0.292867
0.159212
0.926587
-1.501223
0.029003
1.530782
0.637356
0.125650
0.797839
1.880827
-0.724441
0.582351
-2.227521
-0.221053
-1.184466
-0.246474
0.192727
0.311587
-0.762192
-1.102021
-0.418218
0.077660
0.001104
0.766461
0.624288
-0.052511
-0.191179
0.622988
1.451733
0.739307
-1.001487
1.554176
-0.777810
-1.623486
0.125703
0.488679
-0.212714
-0.228681
-0.051641
0.604286
0.740974
1.194064
-0.071672
-0.383601
0.179376
1.313981
0.441328
0.415340
-2.290413
-0.157158
-0.164069
-0.456060
-1.288721
-0.238001
-1.235424
1.470554
-0.441368
-0.199699
-1.010901
0.884142
-1.699025
-0.427204
0.907835
-0.060823
0.172646
0.043889
-0.989610
-1.667480
-0.961547
0.894153
0.656040
1.073127
-1.339499
-0.202799
0.012652
-1.063797
-0.263381
0.500849
-1.210831
0.745213
0.471120
0.448328
-0.508827
-0.059088
0.040464
-2.221918
0.268286
1.154549
1.374714
0.343255
-0.686584
0.358578
0.724207
-0.259729
-0.592397
0.255999
0.877330
-2.010500
-1.159034
1.168357
1.396051
0.199271
-1.594727
-0.330380
0.544640
0.041795
-0.381961
-0.404225
2.096422
0.630116
1.075593
0.697259
0.080879
0.637321
0.350586
1.439226
-0.371035
0.750128
-0.952040
0.380482
-0.572047
-0.474925
-1.663360
0.434493
-0.489703
-0.654144
1.077335
-0.765296
0.799282
0.424470
-1.127878
-1.960840
0.950662
-0.035967
0.577589
-0.288401
0.274359
1.815030
0.691210
-0.716086
1.257095
-0.617415
0.095097
0.337028
-1.625661
-2.215454
-0.172525
-1.559631
0.105843
-1.935868
-0.241206
-0.108061
0.436215
-1.546986
-0.193759
-0.743648
-1.706471
-0.224889
-0.272204
1.294977
0.525975
-1.170749
-0.348765
-0.600570
-0.923561
1.990152
-0.139355
0.251557
-0.350539
-0.238214
0.379870
0.324445
0.445945
-0.989757
0.328747
1.694518
0.758055
1.066931
0.197830
-0.211615
-0.427771
0.364790
-0.510167
1.981078
-1.034702
-0.565954
-0.219736
1.306234
0.099338
-1.186240
-0.575214
-1.432111
2.315213
0.874180
1.844478
1.198087
-1.135873
1.277476
-1.709912
0.230856
0.357928
0.855650
-0.792773
-1.625091
0.072800
0.829939
0.583877
-0.775367
-0.254465
-0.569271
0.961444
-1.235586
-0.920665
-0.651679
-1.162987
-0.365191
1.338671
0.966715
1.743443
0.513685
-1.273805
-0.205687
-1.842668
0.715493
-0.505851
0.263617
1.208386
-1.047210
0.414978
0.986183
0.172178
-0.276287
1.459327
0.370092
0.058607
-0.003036
-0.169467
0.466975
-1.707708
-1.052921
-0.638307
0.584532
0.427403
0.600314
-1.315218
-1.282650
0.323627
-0.211424
1.707278
0.001605
-1.719052
0.658295
-1.295855
-1.427680
0.704074
0.420221
0.089742
0.652311
0.154148
-0.353227
0.539416
0.332163
-0.751255
0.259813
-1.042005
0.661330
0.068942
0.238722
-1.342738
1.261891
-0.600295
-0.894397
-0.575608
1.270614
-0.146982
0.351521
-0.091235
-1.511443
-0.868917
0.540673
1.157748
-0.565541
-0.674163
1.455393
-0.360367
0.950565
-0.327201
-0.786832
-0.941449
-0.613082
-1.220963
-0.359123
0.061626
-0.754568
0.414346
-0.220612
0.895403
0.298959
0.466883
-0.847996
-0.720838
0.426702
-0.126939
-0.421433
0.497295
1.015963
-0.856542
-0.589840
0.499012
-0.712674
0.891583
1.510882
-0.469463
0.497403
-0.380267
0.756114
-0.026866
-0.098122
1.088578
-0.069549
2.066991
-0.864226
1.617249
2.056963
-0.497702
1.858301
-0.580645
-1.207411
1.106939
-0.085512
0.709138
1.182756
-0.108658
0.693086
2.080790
-0.056469
2.419716
-0.733387
-0.329870
1.405192
1.856306
-2.135445
-1.172346
0.940426
-0.398085
-0.343776
1.593403
1.337639
0.235401
-0.792862
-0.801865
-0.545760
1.290048
0.184917
-0.100992
-0.924240
0.805604
1.933246
2.609269
-0.437714
-0.364132
-1.008701
-1.227853
0.708320
-0.999995
0.853503
0.647365
0.407848
0.235471
-0.888205
-2.241062
0.801808
-1.347316
-0.781922
-1.576696
-0.216148
1.322922
-1.351980
-0.133905
1.435580
1.507783
-0.257192
-0.381411
1.549505
1.117347
0.202074
0.737813
-0.701833
-0.905693
-0.405480
0.256377
-0.661366
-0.111594
0.084592
-0.409333
-1.164012
0.238823
-0.570010
-0.257207
-0.205712
-0.181792
-0.890459
1.153490
0.974090
-0.982513
0.451553
0.307738
0.289688
-0.621045
-0.733610
0.772650
0.239385
0.659747
-0.643840
0.725710
1.882660
-0.412278
-0.503777
0.017857
0.269600
-1.336545
0.332979
-0.068068
0.545051
-0.875511
1.319416
1.092254
1.305534
0.928737
1.466193
0.985338
1.225906
0.374860
1.043199
0.799330
0.180157
1.110737
0.510552
-0.635214
0.961539
1.208043
1.204399
0.504965
-0.292831
2.244456
0.299169
3.253909
-0.074164
-0.025777
0.809564
0.333580
-0.793486
-0.460340
-1.033191
-0.296675
-0.774299
1.086040
0.648071
0.327126
0.630443
-0.941559
1.541379
-0.023370
1.483156
-0.849405
1.331432
1.163388
0.734051
0.231489
-0.671029
-0.316958
-0.171545
0.287655
1.809174
-0.431485
1.679172
-0.454455
0.486143
-1.196349
1.502491
-1.998382
-0.949955
0.403745
0.592825
0.958352
3.436197
1.621513
-0.683053
-0.676314
-1.694292
0.867696
0.148502
0.103990
-2.058379
-0.542444
0.192236
-0.741502
0.355873
0.473064
1.100302
-1.581126
1.324674
1.081994
-0.360851
-2.576030
0.100119
-0.237249
-0.910194
1.396160
1.251083
1.359765
-1.447206
0.989231
1.222072
-0.285087
0.308332
-0.827372
-0.872412
-1.987350
0.563080
-0.617546
0.828975
1.234574
0.592099
0.877387
2.085500
-0.941770
0.395434
-0.477365
-0.063724
-1.022051
1.218654
-0.566477
-0.361791
0.717415
-0.125706
-1.053321
0.895153
0.474097
1.063444
-1.376325
0.838565
0.704000
-0.746493
1.337724
0.484946
-1.243723
0.389049
1.449589
-1.074273
-0.891207
-0.573102
-1.613040
0.510322
-0.035293
0.030657
-0.299587
0.741399
0.730229
-0.376500
0.751099
-0.484432
-0.882778
-0.941839
-0.857972
-0.785571
-0.416719
0.168909
1.066255
1.442492
0.214989
0.703861
0.195864
0.286520
-0.670793
-0.657579
-0.211457
0.965084
1.353956
0.022779
-1.283921
-0.116407
-0.668860
-1.456942
0.739271
-0.981610
-0.003318
0.546955
2.329685
1.753674
-1.443893
0.560405
-0.116882
0.604871
0.471655
-0.034688
-0.807872
-1.458285
-0.612652
0.367501
-1.592313
0.661233
0.358873
0.986365
1.286931
2.024721
0.330798
0.852125
-0.484858
0.989588
0.168021
-1.527990
0.902509
0.012846
-0.179106
-0.652463
-1.461740
0.481816
0.287356
-1.953138
0.712501
0.238743
-1.112778
-0.794997
1.021053
-0.506407
0.746815
0.002160
-2.279498
-0.045763
-0.112061
-1.345836
0.276285
-0.990429
0.594558
-0.135874
-0.672062
1.016074
-0.763252
-0.224262
-0.195365
-0.649063
1.880025
-1.887565
0.911401
0.169527
0.978287
-0.191957
-0.321171
0.446368
0.293704
0.866701
0.824686
-0.682500
1.799468
1.093514
-0.251237
-0.339220
0.548147
-0.088696
0.193784
3.379652
-0.608089
0.124628
-0.354886
-0.751341
-0.302373
-1.850740
1.281709
-0.780932
0.623987
0.554060
-0.238489
0.238624
0.982547
0.890460
1.263761
-0.166814
-1.004503
-0.518693
-0.481928
-1.048566
1.022755
-1.370276
0.721901
-0.758198
1.119621
-0.183544
1.982993
0.680043
-0.313755
0.480247
1.459186
0.497737
-1.392580
-0.881812
-0.928737
-0.276934
-0.994117
0.295226
1.543949
-0.593667
0.353530
1.408017
-0.356952
-0.121132
1.129511
2.153287
-0.832276
-0.905544
-0.019016
0.624414
0.368255
-0.898861
-0.772329
0.692685
-0.911530
0.395412
0.983741
-0.049355
-0.110934
0.735985
-0.794996
-1.361732
0.851976
0.177553
-0.508583
2.054597
0.586691
0.369509
0.567318
-0.620109
-0.216146
-1.823353
-1.108815
1.334764
-1.829194
0.487676
-0.084416
-0.337242
-0.595656
0.923208
0.874185
0.619342
0.475130
0.577003
0.895114
0.161154
0.236750
0.384844
0.255101
1.290591
2.697397
0.489775
0.258047
-2.791572
-0.492154
0.491961
-1.879805
-0.339042
2.235621
-0.950616
-1.229268
-1.144532
-1.565912
1.358229
-1.603229
0.616798
0.274387
0.282660
-2.119020
-0.007622
0.077336
0.808228
-2.014924
0.286323
0.502497
1.214392
-1.525363
1.964311
-1.186577
-1.430894
-0.522331
-0.110700
-0.561590
-1.183014
1.997686
0.005738
1.238501
-1.308984
0.470413
0.646758
-0.004924
0.825851
0.420149
0.385006
-0.748811
0.190923
-0.586260
-0.697532
-0.057037
1.461821
-0.839216
0.617756
-0.905830
1.714425
1.350940
-0.626922
-0.483242
-0.437320
0.477185
0.259600
-0.555265
0.521817
0.770329
-1.522061
-0.417489
0.550961
0.340589
0.399409
-0.547599
-0.877864
-0.354895
-0.751907
0.375778
-0.807755
0.724413
-0.112440
-0.203931
-1.388972
-1.682570
0.537078
0.214975
0.137417
1.015351
-0.620949
1.597376
-0.424489
0.196787
-0.393434
-0.792000
1.081922
-0.630146
0.057079
0.456230
-0.108559
-1.358248
-0.278651
-0.531996
-0.724751
1.745693
2.366485
0.239840
-0.596229
1.137972
1.263546
2.363630
-0.123726
1.311971
-0.968433
0.054371
-2.470078
-0.763406
-0.656191
1.309092
0.991212
1.528972
0.878568
0.853776
-0.828329
-0.892041
-0.513637
-0.647871
-1.470060
0.214795
0.124806
-0.453600
0.041341
-0.053180
-0.490417
0.472264
2.296414
-0.433849
-2.233388
-1.305051
0.841455
-0.997800
-0.316105
0.716164
-0.689086
-0.773129
2.704124
-0.561974
-0.212904
0.809950
-0.857802
-1.618263
0.644351
0.579232
-0.218942
-0.587427
0.051733
1.459742
-0.387647
0.101081
-0.779418
0.530350
-0.186699
1.465720
-1.484994
0.032819
1.265287
-1.034983
-1.762461
-2.600587
-1.304403
-0.210281
0.461508
0.158926
0.678075
0.325029
-1.201395
0.448144
-1.043473
-1.685235
-0.767040
0.832652
-1.175719
-0.870764
1.802831
-0.682426
0.848929
-0.147515
1.072423
0.142216
-1.302942
1.019175
1.327561
0.255008
1.726016
0.266093
1.488595
-0.406758
-0.837452
-0.291011
-1.772083
-1.300538
-1.260910
1.963393
0.962338
-0.313276
-1.640462
-2.416916
0.139964
0.611710
0.064103
1.053143
-0.799506
0.944256
-0.059803
-0.046198
1.591367
0.029526
-1.533706
-0.295944
0.373239
0.247353
0.307861
-1.006881
0.953689
-0.376576
0.369453
0.759191
-0.844116
-0.196054
-2.906991
1.339229
0.788428
-1.497217
0.786436
0.007704
-1.326822
0.406153
-0.913386
-0.994676
-1.587558
1.058450
0.356656
0.972033
0.947950
-0.519555
0.233177
0.801785
-0.343145
0.343756
-0.235841
0.133578
-0.113513
-1.012399
0.552572
0.219239
-1.740896
-0.778094
1.196679
-0.206302
-0.765122
-0.224651
0.025858
-1.629757
1.989218
-0.196116
-1.186363
0.930168
-1.075824
1.096992
1.503457
1.718859
1.753299
0.634017
-1.111264
-0.287708
0.301257
0.157341
0.133038
1.416302
-0.432617
0.661076
-0.953248
1.387460
0.557934
0.444935
1.980121
1.061778
0.192909
-0.929200
0.177828
-0.624717
0.940957
-0.653200
-2.060749
-1.585998
-0.233726
1.778282
-0.631632
1.373725
1.378656
0.363309
-0.720067
-0.721069
0.177625
0.235810
1.423700
-0.261812
2.278807
0.314590
1.492116
-0.022400
0.034777
-0.381810
0.575703
-0.858918
0.026446
-0.374848
0.828597
2.605224
0.267132
0.104685
0.543432
-0.219680
0.258426
-0.385867
-0.466311
1.202400
1.279252
-1.955840
-2.509832
0.014388
-1.196435
0.068560
-0.037100
1.265362
1.283127
-0.631024
1.155366
0.186684
-0.057495
1.403723
-1.373920
0.067538
-1.131409
-1.138262
2.040890
-0.277246
-2.388756
-0.370903
0.560237
-0.574640
0.123216
-0.276582
-0.642235
0.191998
2.372272
0.227494
0.927945
0.123893
0.608519
1.919789
1.031116
-0.148290
0.076304
-0.305516
0.871861
0.725090
-0.372125
-0.400829
0.194930
-0.907112
-0.025521
1.025754
0.632141
0.298417
-0.594238
-0.753126
-0.498591
0.943124
1.211600
-0.867993
-0.402754
2.222701
0.355529
-0.110821
-1.774826
0.664563
-0.503593
-0.031032
-0.475642
0.728930
-0.210346
0.763143
-0.861985
0.691597
-0.304755
-0.974861
-0.427390
0.181321
0.109433
-2.715143
0.788951
-0.586943
0.580115
1.266436
-1.172288
0.291572
0.465901
-0.602593
-1.358956
-1.318098
-1.440623
-0.531349
0.048843
0.403009
0.191108
-0.620748
0.535209
-0.287149
0.487580
-1.024246
0.448849
-2.734641
0.056959
0.529064
0.166817
0.977512
-1.134176
0.012221
-1.617803
0.538157
1.861449
0.207515
1.093646
0.167176
-0.090935
-0.671988
-0.983429
0.202584
-1.031792
0.767625
0.887066
0.252689
0.013308
-0.447020
1.863130
-0.751420
-1.174933
0.996679
0.824870
1.972052
-0.891638
0.094453
-1.881045
0.258314
1.602993
0.469652
-0.293769
-1.056754
1.821170
-2.014139
-0.257557
0.771899
-0.436532
0.085875
0.764036
0.340852
-0.049409
1.634235
0.720625
-0.323676
0.065942
-0.811342
-1.437316
1.532403
-0.154132
-0.128076
1.432388
-0.873364
-0.274274
0.137467
-0.706694
-0.595928
-1.125537
-1.413134
-1.760812
-1.765202
-1.475244
0.140525
-1.628708
0.092398
-0.133490
-1.469353
0.728413
0.132597
-0.412069
-0.478113
-0.512271
1.423616
1.244346
-1.768533
-1.072558
-1.209584
-1.106088
0.394176
0.300165
-1.057678
-0.556579
1.541605
0.511813
1.573484
-0.093056
1.423890
1.072773
0.856587
0.067123
-1.952968
-0.962764
-1.114951
0.715712
-1.039184
0.615319
-0.754603
1.898872
-0.826219
0.487811
1.067089
-0.245251
-0.565654
-1.533818
0.186285
-1.317598
-0.084036
0.883479
-1.179808
1.594748
-0.119554
-0.479293
1.111672
-1.305926
-0.506977
-0.508164
-0.218683
0.032339
1.220856
-1.016592
0.239381
0.981428
1.006366
-0.779958
1.359882
1.048572
-0.575585
-1.236340
0.129497
-0.679555
0.154090
-0.415807
-0.206787
1.088415
1.487758
-0.448107
0.080148
-0.153432
0.462856
0.561784
-1.787191
0.435706
0.587199
1.274399
-1.035724
-0.128028
0.881703
-1.166105
1.013327
-0.183867
-0.752404
-1.895516
-0.413668
1.531562
-1.424654
0.741604
-0.375631
-0.155934
-0.058030
-0.981300
0.511636
-1.783654
1.237324
1.371952
0.302824
1.103940
0.154405
-1.070501
0.314883
-0.299474
-0.084341
-0.655157
-1.370818
2.206514
-0.183785
-0.557794
-0.406672
0.523566
-2.454235
-0.166182
-0.027069
-1.703478
-0.679417
0.704659
-0.005730
-2.050679
0.406814
-2.265570
1.772381
0.047273
0.499118
0.625972
0.363191
-0.080956
-0.716203
-0.358078
-0.314307
0.240035
-0.820813
-0.831803
-0.158315
0.631364
-0.894701
-1.159851
0.024405
0.519081
0.326593
-0.957720
0.337881
1.125121
-1.878318
0.440950
0.061468
0.527550
1.427578
-2.254626
0.769776
-1.807417
-2.296671
-0.717070
0.119320
0.336209
-1.705229
0.734448
0.632314
1.329166
0.158789
-0.018651
-1.087883
-0.554372
0.179882
-0.146057
-0.459561
0.154482
-0.016608
-0.271653
-0.062371
-1.541611
-0.240547
-1.092263
2.376570
0.160688
1.492143
1.117191
0.558288
0.314710
0.134524
1.191719
0.359944
0.833925
-0.544985
-0.008632
-0.696221
-1.362017
1.316813
0.169450
-0.210152
-0.799389
-0.100966
2.025786
-1.399659
0.046460
-0.875121
-0.496109
-1.742724
-1.125562
1.051191
0.161357
-1.383495
-0.898948
0.243934
-0.907937
0.240690
-0.884219
-0.779543
1.030602
0.618616
-0.301675
-0.157341
-1.194542
-0.372979
-0.774299
-0.679241
-0.150765
-0.260581
0.503896
-0.700259
0.249555
1.165707
-0.007144
2.940802
-0.171925
2.596150
-2.084370
0.363968
1.429503
-0.292325
0.665096
-1.169338
0.707581
-0.266013
0.760396
-0.647083
0.447401
1.729404
-0.311919
-0.896013
0.170717
1.900659
-1.738585
-0.703320
0.457221
-0.339629
-0.594954
0.441580
0.701186
0.561485
-0.866994
-1.609924
0.170726
-0.513722
1.126528
0.014876
-0.803706
0.815744
-0.222369
0.618752
0.170940
0.455325
-0.183684
-1.888267
-0.604832
0.198373
-0.330918
-0.306762
0.868974
-1.019662
-0.850219
-0.349876
-1.634970
-1.569482
1.604589
-0.787815
1.551624
-0.637884
0.779369
-1.348712
-0.666038
-2.254218
-1.827857
0.560336
-0.269882
-0.805504
1.702003
-0.503999
0.328288
-1.244859
-0.190834
-0.507218
-1.717425
-1.522589
-1.131880
-0.078919
-1.414358
0.951620
-0.336904
-2.120540
0.011622
0.787765
-0.116775
-1.485282
-0.274664
0.048229
0.292802
-0.743891
0.933008
-0.164086
0.525018
0.192053
0.364098
-0.791611
1.059439
-1.201498
-0.759666
0.733524
-0.510404
-1.558222
0.868304
0.287318
0.912957
0.839566
-1.220483
-0.506519
0.681731
0.419187
-1.240847
1.218823
0.007315
1.382885
-0.530591
1.439550
-0.837372
0.979762
-1.041905
0.003885
1.213437
-0.816196
-1.252254
1.132583
-0.228049
-0.405618
0.335126
-0.577129
-0.150130
0.927701
-0.636866
0.790242
-0.360433
-1.889219
0.871057
-0.610689
-0.821281
0.399558
0.371809
-0.391492
-0.792485
-1.216315
1.145497
0.899110
0.513698
0.185105
-0.632180
1.234499
-0.363056
-0.456917
0.658487
0.557690
0.623736
1.831948
-0.504554
1.209900
-2.056070
-1.223667
0.468505
-0.080500
-1.172835
0.609823
0.498043
-1.773928
-0.488476
0.626163
-0.517967
3.920527
0.155703
0.074862
1.436000
-0.506955
0.124020
-0.037505
0.195031
0.233165
0.597753
-0.896826
-0.570032
-1.074851
-0.852934
0.957197
-0.314641
0.188852
-1.125255
2.296006
0.528314
0.296874
0.102669
-1.291031
-0.595289
1.666032
0.248321
-0.108687
0.107962
-1.201484
-0.539143
0.715294
-1.456226
-0.116662
0.005858
1.368049
0.118318
0.148268
-0.454785
-0.280506
-0.769782
0.125156
-1.059642
0.971289
0.734888
-0.120567
-0.558153
-1.278570
0.830959
-0.785170
1.088823
-2.187063
-0.696353
1.059241
1.648829
0.807936
1.217642
0.997728
-0.640081
0.384582
-0.253310
0.703350
1.203357
-1.316401
0.045829
1.803481
0.709546
1.039001
0.873963
0.206065
0.400847
1.598740
-0.598279
-0.575597
0.217703
0.771975
0.669104
-1.473908
0.267813
-1.180558
-0.262232
0.015549
-0.026287
2.955875
-0.144660
1.190552
-1.707961
-0.042055
-0.157343
1.028999
0.944564
2.285511
2.123621
-0.386774
1.170063
-1.002849
0.702703
-0.218749
-0.035108
0.710882
0.372657
0.300230
-1.441774
-1.288795
2.345839
-0.740377
0.245800
0.646299
-1.467452
1.710974
-0.401610
0.914603
-0.627908
-1.362245
-1.745006
0.109101
1.020778
-0.118016
0.026257
1.455914
0.388070
-1.741593
-1.122892
-0.587308
0.704685
2.020145
-0.827030
0.835351
-1.946141
-1.209705
1.159375
0.865611
0.400659
0.018645
-1.116621
-0.723585
-0.566401
-0.207760
-1.235303
-1.502334
-0.367014
-1.944992
0.194977
-0.065324
2.322314
1.527722
1.423713
-0.422601
-0.742708
0.656123
0.409379
-0.763533
1.074121
-0.300529
0.096390
0.256654
-1.159315
0.660937
-0.617065
-0.993270
-1.173275
1.410867
-0.400240
-0.595672
-2.112223
0.968079
0.977732
-1.229502
-1.233794
-0.797226
-0.009016
0.369747
1.778499
0.611118
0.665709
0.995797
1.257198
-0.720901
1.637659
0.681747
0.698545
-0.616434
-0.083518
0.775201
1.441887
0.829317
-0.803345
-0.265742
0.460599
-0.726429
-1.105871
0.798691
-0.733163
0.115954
1.149759
-0.643787
0.254382
1.037997
0.929972
0.468860
1.055402
0.779907
0.700286
2.240301
-0.652901
-0.576213
1.522875
-1.983226
-0.355780
0.038358
0.164729
-1.087406
1.148616
-0.418495
-0.561777
-0.482804
-0.622287
0.349603
-0.958468
-0.127308
0.734638
-0.125418
0.962730
0.211081
-0.692298
-0.850864
-0.426795
-0.312697
1.101116
0.795975
0.855735
-1.508070
0.166133
1.177526
0.136684
0.141381
-0.129809
-0.496813
-1.315046
-0.501835
-0.262507
-0.261830
-1.527713
1.144625
-0.827494
0.464025
1.072667
0.014657
-2.095261
-1.152821
1.607471
0.745891
0.377727
-0.633332
-0.364556
-0.391691
0.587051
0.803863
-0.766065
-0.841007
0.704797
0.075988
1.304735
-0.944188
-1.018885
0.419771
-1.533378
-1.158091
0.087379
0.907862
0.435582
1.525038
1.518140
0.079211
0.860043
0.454812
0.227682
-0.237888
-0.318939
-0.551331
0.177215
1.817319
1.334607
0.896137
0.510660
0.245226
-0.171961
1.326666
-1.802869
0.540593
0.655222
-0.403128
0.080702
-1.683763
0.633281
-2.239022
-0.899425
-1.214230
-0.230223
0.008791
0.548785
-0.308801
-0.197952
-0.580547
2.013435
0.042048
-2.052777
1.155080
-0.663063
-1.504706
-0.261278
1.374944
0.167311
-0.241594
-0.579008
0.866854
-0.418680
0.057409
-1.446860
1.776790
-1.154888
-0.914253
-0.011458
-0.285101
-1.180996
-0.065829
0.669947
-0.169655
0.026384
-1.589331
2.015103
-0.585527
1.220501
-0.849379
0.656173
-0.257819
0.460818
-2.833742
0.486734
0.894991
-0.896517
0.863042
-1.342959
1.187288
-0.384959
-1.761384
0.219567
-0.851772
-0.469015
1.402599
-1.186688
-0.061522
-0.118839
0.489116
0.395312
0.419661
1.199545
1.047634
0.509209
-0.541040
-0.110253
-0.216388
0.088696
-0.588033
-1.443908
-0.015974
0.065871
-0.446357
0.627697
-0.305847
-0.253724
0.377754
1.193084
0.793112
-1.205801
0.159944
-0.476575
-0.207923
0.309697
-0.687723
-0.915811
0.484291
0.273768
1.128384
-0.201285
-1.939633
-0.430567
0.089224
1.051835
-0.887588
1.482799
1.288495
0.478026
-0.878118
0.212417
0.741151
0.073959
-1.071610
0.503331
0.207502
-0.469768
0.589491
0.273905
-1.041626
0.349703
0.088695
0.124708
-0.619270
0.557696
-0.502571
0.634755
1.485571
-0.020957
1.101545
0.512221
0.140530
-0.207830
1.722886
0.331660
2.259849
0.412784
0.465846
-0.540996
-0.293881
0.526812
-0.190337
0.186285
1.226265
0.786141
1.151095
-0.004831
-0.286206
2.037144
-0.119358
1.137984
1.124730
-1.037853
-1.097867
0.004342
1.518246
0.175002
-1.022068
-0.059913
0.465171
-0.492677
-0.572217
-0.955983
-0.087503
1.138925
-0.153894
-2.494147
-0.153089
-1.221874
0.345436
-1.310163
-0.442699
1.200360
0.640871
1.337599
0.018496
-1.395969
0.477759
-0.252527
0.544961
-0.430796
-2.501373
-0.883502
0.016404
0.877006
-0.041317
0.389880
0.641945
1.653056
2.318569
0.136577
-1.877626
-0.249684
0.152994
0.563472
-1.615399
-0.512365
-0.379840
-0.051926
-0.921902
-0.327050
0.364436
-0.041291
1.937385
-1.189075
-0.887143
-1.327060
0.833676
1.340919
-2.513050
0.128401
0.166351
-0.869494
0.528287
0.525939
-0.061756
0.277226
0.571686
0.595702
1.998829
-0.805349
1.936623
-2.163779
0.152291
0.448148
0.087527
-0.762049
-0.788977
-0.435320
-0.327831
-2.119337
1.477042
0.338581
0.449868
-1.655843
0.596818
0.569544
-0.850258
0.357832
0.977880
0.192078
-0.391825
-0.039475
1.770030
0.338799
-0.776228
-0.617109
0.187209
0.443408
-0.576468
-0.540003
0.971128
2.403436
-1.476742
0.045872
-1.107366
0.891782
0.985402
0.510205
0.105048
0.648589
-0.844856
1.015687
-0.464145
-0.296617
-0.664115
-1.741511
-0.375436
-0.339182
1.052836
-1.629000
-0.551047
-0.864486
0.831449
-0.324567
-0.900480
-1.904735
-0.891917
-1.307397
-0.586373
1.012130
0.823334
1.477180
0.453733
-0.098993
0.201011
0.587589
1.626518
0.277910
0.491761
0.313521
0.878344
0.300618
-0.026296
-0.424380
0.730425
0.653376
-0.278452
-0.126760
-1.012513
-1.085295
-1.365983
0.237621
-0.555903
0.667689
0.009207
0.296084
1.482432
-0.141611
-0.869618
-1.356600
0.412939
-0.574154
-0.014622
-0.569769
0.513063
0.275667
-1.422828
0.305391
-0.830573
3.075442
0.432372
-2.330736
0.415128
0.463098
-0.126987
-1.587401
-0.820333
-0.442150
-1.197256
0.686466
1.701856
-0.012888
0.018958
-0.716537
0.417448
-1.317698
-0.188194
-0.793283
-0.364071
1.854553
-1.399619
0.607644
1.010671
0.639690
1.170844
-1.794178
1.197088
0.984750
-0.335164
-0.522724
0.137865
0.426950
-1.184477
-0.358425
0.193683
-0.193360
0.414463
-0.599709
-0.768428
-1.415915
1.725073
-0.218753
-0.679974
0.746126
0.276254
0.547753
-0.394545
-0.331871
-0.659290
0.869464
-2.019921
0.039134
0.597456
0.900092
-0.374688
-0.485306
-0.741340
0.968330
-1.324851
0.376253
-1.217454
1.096735
-0.607665
0.281944
-0.909873
-0.567173
-0.486901
2.094209
0.499617
-0.176337
0.477227
-0.497991
-0.278742
-0.115759
0.296776
1.323436
0.549712
1.407006
0.427970
-0.858668
-1.336119
0.160799
-0.440987
-0.323149
-1.098083
0.480415
0.025028
-0.180145
0.294545
1.667498
-1.085614
-2.464902
1.639475
-1.382510
-0.246589
-2.051799
2.333909
1.120078
-0.580604
0.604165
-0.053560
0.148110
-0.605662
-0.344112
-1.721515
-0.857135
-0.189450
-0.024626
-1.595281
0.616581
1.304695
-0.651150
-0.817857
0.841642
-1.101362
-0.008247
0.679741
-0.608994
0.607379
-0.429323
0.536867
-0.358958
-0.831307
0.290829
0.785542
-1.382163
3.303033
0.315197
-0.627066
0.939896
-0.356072
-1.026192
1.518191
-1.130171
0.391774
1.017043
-2.257025
2.054412
-0.372817
-0.447219
-0.249816
-0.628030
1.056484
0.258359
-2.297079
0.241302
-1.174989
-0.167040
-1.271189
0.558035
1.345879
-0.474459
0.481045
0.583745
0.072634
-0.317271
-0.598957
0.592194
0.164045
-0.611895
1.251640
-1.376993
-0.581961
1.799347
0.480708
-0.489674
0.483475
-0.938913
1.436169
0.038789
-0.764593
-2.094997
-1.045731
-1.022539
0.447783
-1.076586
-0.274979
0.144671
-0.042205
0.397121
-0.167236
-0.643117
2.177862
0.565572
-1.337255
0.548324
-1.988680
-0.312819
-0.821112
-0.176070
0.848286
0.243760
-0.105177
1.369912
0.812841
0.881176
2.134233
-0.556341
-0.173919
0.833371
0.589792
0.613329
-0.300927
-0.050643
-0.311390
1.467699
1.214915
-1.220775
-0.606541
-0.041187
-0.143010
-1.590455
0.191603
0.604756
0.844888
1.225471
1.210275
0.944886
-0.240774
0.849675
1.696767
0.681520
-0.753195
0.405925
0.429660
2.228370
1.525699
0.291385
-0.340133
-0.482886
1.290602
-0.500683
-0.252288
-0.601370
-0.567304
-0.360064
1.941959
-1.625237
0.611118
-0.893862
1.481958
-0.811640
-1.273621
1.016605
-0.025791
0.913147
-0.860954
-0.325340
0.760348
-0.729982
-0.912455
-1.362489
-0.777820
1.213104
1.316667
-0.217790
-0.859596
-1.426547
-0.727925
0.409105
-1.371431
-0.294422
-0.387938
-0.032465
0.637381
0.629446
-0.231698
1.110187
0.703949
1.624572
-0.496460
0.877172
1.578227
-0.245871
0.056719
-0.146215
0.685180
0.129382
0.251798
0.341399
0.609089
-0.784115
1.524336
-0.132031
-0.636527
1.406937
-0.137691
1.515450
0.060990
0.198740
1.084225
0.282586
-0.426090
0.957158
1.248553
0.329626
0.007585
2.861554
0.080269
-0.241274
0.073551
-1.075781
0.911747
1.026277
-0.592555
1.642244
0.095313
0.690500
1.236184
-1.140400
0.555449
1.356822
0.833241
0.192749
1.510573
0.734738
0.066350
0.756949
-2.548792
1.008158
-0.989349
-0.754314
1.008689
0.772634
-0.372141
0.917846
-0.146602
0.296758
-0.332456
-1.601539
1.745344
-0.285572
1.306274
-0.723146
-1.026344
-0.297752
-1.402980
0.162424
-0.027476
-0.864542
-1.485200
1.527577
0.357392
-0.174807
-0.986277
0.253275
-0.450785
0.887981
1.382485
-0.574064
-1.271814
1.014830
-0.819340
-0.099859
-1.078817
-0.775935
0.199171
-0.080980
-0.426598
0.468150
0.797269
-0.810863
1.819205
-0.710879
-0.520734
0.593879
-0.237357
-0.015667
0.308111
0.604643
0.431873
-0.690536
0.272274
-0.623783
0.268799
0.081355
0.394963
-0.141444
-1.077073
-0.344651
0.702849
-1.449859
-0.477130
-0.039077
-0.906565
-0.315666
0.988419
1.770955
-0.279497
-1.521344
-0.602162
0.895463
-0.189002
-0.257854
0.024007
1.033341
0.707925
-1.003321
1.085429
0.987023
0.266080
-1.675990
-1.407058
0.706710
-1.321275
-0.626682
-0.573970
-0.055757
1.501299
-0.598477
-0.590608
-0.018366
0.623543
0.651516
-0.514717
-0.539417
1.210681
0.127953
-2.008929
-0.755860
-0.406611
-0.743540
0.217889
-0.754960
-0.667530
0.471687
2.396025
-1.733492
0.502624
1.409884
-0.910089
0.818841
1.574232
-0.005707
1.260634
0.721025
-0.614175
-0.951901
-0.721556
0.627206
0.384991
1.403641
0.236166
-0.305882
-0.462760
-1.336956
-0.842581
-0.418993
1.500337
1.105468
-0.956839
-1.329385
-0.768809
-1.704998
-0.042846
-1.422887
-1.868707
-1.016410
0.163145
0.491123
1.153047
-0.622512
-0.553977
-0.546842
0.656707
-0.646518
0.568938
-0.250446
-1.383943
-1.673994
0.858559
0.466059
0.094680
0.498831
-2.220575
-0.617312
0.810826
-0.421244
0.692441
0.632839
-0.765298
0.066229
0.149219
-0.013075
-0.284717
-1.017766
0.180277
-1.556478
0.253008
-0.374190
0.930987
-0.210341
0.208122
-0.038780
0.867015
-0.353831
-1.730247
-0.029798
-0.655619
-0.075850
-1.375252
-0.339213
-0.611876
0.775275
1.431996
-1.727745
-1.191915
-1.698301
1.007636
-0.501470
0.385742
0.538376
-1.320168
-0.046535
-1.360358
0.102744
1.841867
0.630173
-0.963612
-0.154399
-0.290737
1.712344
-2.923675
0.126707
1.085383
0.355172
0.902771
0.389127
1.784832
1.044832
0.017940
-0.266546
0.756359
0.611032
0.872820
0.415292
-0.428021
-0.487245
0.159056
-1.418388
0.322161
-0.338028
-0.465080
-1.184298
-0.443062
0.829825
1.258475
-0.201774
-0.759585
-0.041892
-1.217070
0.433928
-0.081903
0.099670
-1.502481
0.604338
0.685514
-1.455274
-0.840522
1.809359
1.143513
0.872096
0.610517
1.624959
-1.085455
-0.465278
-1.030305
1.812280
0.075633
1.519050
-1.923618
0.133447
0.419502
-0.259111
0.314695
0.589713
-1.236097
-1.064197
-0.658660
0.177365
-0.161481
0.050932
-0.512163
0.097277
0.026443
0.566230
0.736266
1.604733
0.477529
-0.407542
-1.849345
0.019868
-1.536402
0.899032
-0.522046
-1.252735
0.143773
0.384400
-0.755359
-1.098183
-0.117497
-0.172612
-1.503074
-0.183991
0.095127
1.677261
0.146718
1.696432
-1.343289
0.572816
-0.723873
0.027162
-0.378277
2.177503
-1.267912
-0.769343
0.282988
-0.986926
-0.021436
-3.324172
0.609624
-0.826756
0.048338
-0.959634
0.851820
-1.114903
-0.913103
0.369077
-0.352052
-1.013708
0.893138
0.294906
-1.608314
-1.502492
-1.783775
0.760530
0.417809
-1.360121
0.194391
-0.422044
-0.074064
0.721488
-0.382560
-0.477622
0.077129
0.155640
0.405979
0.234771
-1.625537
0.308692
-1.039145
-0.969154
1.868351
0.735538
1.707001
-1.117954
0.698188
-0.108262
-0.096081
0.763749
-0.429424
0.954818
-0.797099
1.075112
0.102858
1.874299
-0.285797
-0.321084
-1.136003
-0.817401
0.339406
1.920087
1.591353
-1.315502
-0.372982
-0.434988
0.084489
-0.247469
-2.276483
0.715798
0.451217
0.741742
1.249587
0.675501
-0.489495
-0.805907
0.955612
-0.012982
-0.491107
0.410767
0.934173
-0.219608
0.665280
-0.050109
0.096744
-0.744716
-1.416244
0.258991
2.231553
-0.937574
0.469695
-2.220572
-1.159609
-0.008838
-1.521690
1.054467
-0.252043
-1.137348
-2.261389
1.817266
0.329237
-0.932361
0.349859
0.038075
0.276066
-0.024154
-0.030123
-0.995856
0.576315
0.377825
0.233080
0.179277
-0.653173
-1.241297
0.027245
0.908389
1.343670
0.660798
-0.520860
-0.931911
0.612379
-0.984234
-1.285521
-0.686019
-1.562514
-0.348193
-0.022248
-1.788796
0.750144
0.582139
-1.601744
0.236193
-0.145943
-2.100177
-1.422467
0.872866
-1.298202
1.130603
-0.212942
-0.705387
-0.697381
-1.022495
-0.637629
-0.685056
-0.940627
-0.206534
1.002390
-0.196625
-0.477841
-0.493619
-1.270469
0.607611
-0.173393
-1.218910
0.790172
0.323502
1.549075
-0.581271
0.263674
0.679723
-0.606662
-0.914034
0.306916
-2.250311
1.634422
0.736401
-0.608176
-0.455526
-0.003837
-0.868570
1.254709
0.812870
-1.420355
1.127189
-0.635865
0.728479
0.219697
-1.601806
0.644973
0.362060
-0.332854
0.196734
-1.717196
0.824229
-0.428488
0.846645
1.282676
-0.411584
-0.563350
-1.119885
0.686240
1.293069
0.424549
-1.908839
-1.221809
0.372848
0.697938
-1.137336
-0.291039
1.407635
-0.310367
-0.402892
0.431982
0.650804
1.167891
-0.252277
0.074728
0.648087
1.003672
1.792885
-0.378309
-0.567056
1.479010
-0.607691
-1.513719
0.980140
-0.136308
-1.678725
1.809269
1.305393
0.608620
0.369387
-0.729171
1.068339
-0.247931
-0.794977
1.120423
-0.635724
-1.367098
0.412169
-0.187191
0.584431
1.809364
-0.345574
0.347864
-1.153480
-0.270336
-1.090585
0.681132
-0.058240
-0.489843
-0.826804
-0.072202
-0.369513
-2.211841
0.277006
0.572720
-0.306555
0.476990
-1.363414
-0.448718
0.435398
-1.344899
0.572427
-0.057532
0.701682
-1.404291
0.674873
1.658274
-1.064559
0.870390
-0.837568
-0.643779
1.357945
-0.142262
-0.321252
0.156271
-0.600418
-0.362636
0.499299
-1.247259
0.276485
-0.628732
1.431401
-0.031111
-0.497050
2.037545
1.496508
1.870885
-1.227714
0.640024
0.542367
1.346275
1.051723
-0.173191
1.335245
0.711937
-0.605236
-0.122960
0.323064
-1.248536
-0.012137
0.815515
-0.678300
0.420519
-0.015333
0.077785
1.094966
-0.892222
-0.665469
-0.200177
0.787178
-0.536266
-1.786532
0.097759
1.538844
-1.527829
-0.316657
-0.122759
0.713173
-0.516680
0.454981
-0.522253
-0.102210
-0.127959
-0.108142
1.135134
-0.041907
-0.003141
-0.366893
-0.516635
-0.028872
-0.023248
-2.937773
1.835075
0.317512
-2.261758
-1.148003
0.550364
1.910446
-0.392496
-2.088109
-0.944994
-0.100791
-1.235847
-1.349531
-1.047245
-1.588382
0.631427
1.054984
-1.164595
1.156662
0.353616
1.146179
-0.909782
-0.097217
0.112971
-1.088484
0.848423
-0.812727
0.308729
-1.699860
0.219517
0.117282
0.564348
1.350696
0.018530
1.464665
-0.904635
1.295049
-0.111529
1.302893
-0.869580
-0.273532
0.826697
1.165184
-0.339587
1.730879
-0.716526
0.121652
-0.484931
-0.532851
0.162760
-0.248793
-0.157623
-1.504345
1.058542
-0.461917
-0.379709
-0.934919
-0.659799
0.621522
1.140603
0.861942
1.313672
-0.896858
1.850545
0.149668
1.163993
-0.549918
1.063309
0.856251
0.286644
-0.496326
-0.527949
1.054070
-0.892379
0.115568
-1.134496
-0.269956
1.350214
2.745534
-0.818344
2.175525
0.068182
-0.587481
0.258917
-1.597584
-2.242806
1.099367
0.042678
1.405337
-0.641676
-0.218491
-0.368360
-0.649028
0.817257
1.911764
-3.300911
-0.074742
0.857698
0.367310
1.020081
-0.822660
0.876731
-0.087656
-0.505688
2.924090
-1.123667
2.226918
0.284339
1.352424
0.201210
0.568449
-1.329551
