2.125496
-0.293991
-0.969690
-0.821423
-1.295083
1.150514
-0.157690
0.610614
1.091336
1.274776
0.642243
-0.391701
0.118565
-0.692424
1.548148
0.380890
-0.979925
-0.376709
2.277076
-0.848787
-1.705867
-1.044808
0.587886
0.611327
2.008430
-1.079167
-0.712919
0.441512
0.190785
1.247171
-0.941678
-0.980137
0.489171
3.053910
-0.884172
1.600405
-0.661675
0.787411
-1.045770
0.649626
-0.800768
-0.060376
0.729937
-0.769450
1.824490
-0.800750
0.632809
-0.862765
0.857300
0.279512
-1.132580
-0.197983
-1.442919
-0.081333
-0.441847
0.308234
-1.174006
0.277813
-1.198608
-0.707638
0.745877
-1.071514
-1.781727
-0.328225
-1.091273
-0.349429
0.560579
2.788242
-0.036033
-0.103424
-0.514559
0.136277
-2.003750
-0.714944
0.112562
0.519613
0.768663
-1.478752
0.474784
0.034199
-0.004291
0.800095
-1.701786
-1.282177
-0.984692
0.667771
1.190201
0.025425
-0.709117
-0.721495
-0.723499
-0.180293
-1.353750
-0.656944
-0.824548
2.242511
0.092665
1.025079
-1.032218
-3.145612
0.266210
0.449109
0.464168
-0.738764
1.251070
-0.670480
-0.278114
1.291983
-0.091658
-0.138490
0.966088
1.699824
0.163771
0.172478
-0.764489
-0.126695
0.469359
0.085664
-0.609018
-1.231629
-0.186390
-0.721033
0.617472
0.248139
0.120705
0.152298
-0.476279
0.935205
-1.370310
-0.559125
-0.973414
-0.347973
0.898634
0.146318
2.259529
-0.070240
1.755287
-0.030420
0.505515
0.193997
-0.900937
-0.301444
0.374137
-0.268933
1.681519
-1.444532
-0.273376
0.376635
-1.141471
-0.534434
-1.716346
-0.719267
0.428087
-0.242676
2.227013
2.089638
0.066884
0.871949
0.180567
-0.554262
-0.661065
-0.352264
1.499902
1.117802
-0.273730
-0.930439
-0.132295
-0.771758
2.458035
-0.372267
0.760786
0.061169
-0.995085
0.190168
0.533384
-1.395510
-2.982650
0.065256
-1.110208
0.259407
2.213544
-0.407769
-0.618768
-0.818922
1.077646
-1.371957
-1.844219
0.975380
0.567269
-1.223245
-0.160627
0.898027
1.521026
0.574789
0.293201
-1.263374
-0.865415
-1.333175
-1.178599
0.975421
1.275142
-0.311775
1.990419
1.119549
1.785258
2.213609
-0.150922
0.687575
-0.076855
0.475668
1.266457
0.822524
-0.892405
-0.907543
0.735595
-1.596142
-0.560918
-0.974463
-0.013162
1.343783
0.501687
-0.077295
1.162278
2.976612
-0.937114
0.572402
2.317456
-0.201512
-0.026262
-0.472545
1.456822
-1.014161
2.119136
-0.359405
0.357319
0.208253
0.201492
2.038516
-1.667682
0.892337
-0.836701
0.130020
1.282541
-0.739379
0.397308
-1.155572
-1.449989
1.541510
-0.508306
-1.672546
2.157837
-0.269692
1.206897
-1.414874
0.842330
-1.464113
-0.488848
0.766138
-1.175626
-0.944521
0.035461
-0.421299
0.357013
-1.659077
-0.087104
-0.352106
-0.659276
-0.997398
0.510254
0.837693
-1.000371
-2.211316
0.505751
1.097155
1.023619
1.349758
0.406434
0.554022
-1.874197
0.158055
1.133330
1.523417
-0.728166
-0.404435
1.391236
1.201891
-0.339815
0.427331
-0.885714
1.238670
0.058009
0.315319
0.138282
1.881146
-1.018305
-0.048662
0.348185
1.506529
0.451241
0.118199
1.115596
0.445781
1.065040
-0.583546
-0.091633
0.162389
1.417050
1.818018
-1.006511
-1.329191
-0.112870
-1.760587
-0.650233
-0.838943
-1.304372
1.356631
-1.189658
-2.668282
1.162538
-0.151541
0.476564
0.068883
-0.847964
-0.084833
-0.204596
-2.557390
0.608957
0.580624
0.816393
1.255987
1.563680
-0.661799
0.151604
1.182021
0.017195
0.757052
0.525213
0.911135
0.195612
-0.086493
0.253759
0.109921
-2.881707
0.839174
1.518050
-1.514826
0.483564
-1.477949
-0.240400
0.623164
-0.863548
0.990353
-1.816263
-0.258260
0.700398
-1.718998
1.062156
-0.491850
-1.755320
0.030266
-1.528876
0.578895
-0.543491
0.037466
-0.783151
0.884665
-0.338100
-0.006771
0.499006
-1.607402
0.520356
-0.752121
-0.624828
-0.960359
-1.107168
-0.184088
1.689888
0.992236
-0.963108
-0.652800
-0.308879
0.228012
0.932095
0.458318
-0.666201
1.630968
0.223642
0.383773
-0.220732
0.465889
-1.944378
1.676332
0.950773
0.001405
0.057397
0.209175
1.618529
1.000088
0.019592
0.026100
-1.746280
-0.568927
-0.603685
0.153345
0.630493
1.075823
-0.296802
-0.150618
1.441057
-1.173254
-0.450461
-0.067963
-0.844822
-0.819144
0.855040
1.036809
0.705682
-0.907652
2.174446
0.142801
0.953188
-0.805010
-1.424163
0.407505
-1.838703
0.565227
-0.504190
-0.366577
0.236626
-0.268999
0.411325
1.141083
2.237872
1.093260
0.517209
-0.077572
0.140767
0.687651
-0.362346
-0.206641
0.680409
2.225545
0.294077
0.246962
0.272105
-0.773168
0.384858
0.049716
0.569166
1.637952
-1.390024
0.381559
0.306377
-0.461741
0.209623
0.100737
-2.051880
-1.293303
-0.440619
-0.379195
-0.272473
-1.453864
-0.319565
-3.161993
-1.024930
0.023192
-1.653520
0.820753
-0.775598
0.979175
0.474232
0.612208
-1.364333
0.902619
-0.317015
0.383202
0.728468
-2.274504
-1.427931
0.755474
1.002687
1.632251
-0.505657
0.551102
0.530662
-2.098800
0.105145
2.208187
0.361265
0.878026
1.349126
-0.092713
0.140468
-0.264387
0.152766
-2.255236
-0.934912
1.602560
-0.789581
-0.510028
-2.231561
2.533442
0.727236
-0.819129
-0.322654
-0.009734
0.004347
-1.485505
1.041544
0.151653
-0.150566
-0.487198
0.524623
-1.145983
-0.133836
-0.491078
0.942502
0.946932
1.544581
-0.503882
-0.289820
0.583901
-1.155696
-0.450353
-0.164829
0.410103
-0.815564
0.115924
-1.194577
0.727808
0.542091
0.573028
0.091234
-1.303265
0.832311
0.363860
0.475695
-0.139413
-1.129959
1.014581
0.583319
-0.686405
-0.257611
-0.138128
-0.007533
-1.435307
-0.124555
1.011265
-0.816166
-0.382975
-1.622140
0.799072
0.573103
0.502750
1.425115
-1.949651
-1.219924
0.556785
-0.940081
1.233825
-0.376363
0.808645
0.197639
-2.177413
1.949445
-0.993575
-0.192465
-1.565431
-1.460863
0.580824
-0.207108
0.616865
0.940906
-0.556161
-0.412257
-0.414001
0.676532
1.404641
-0.043027
-0.705757
0.696161
0.205245
0.613353
0.625013
0.239456
-0.930548
1.098010
-0.076741
0.369018
0.171845
0.804864
0.644592
-0.489340
-0.457799
0.503323
1.365073
-0.334991
-0.774187
-1.290810
2.069509
-0.563909
-0.636489
0.233819
1.532859
-0.963318
-0.656544
-0.297576
-0.017749
-0.910551
-0.252191
-1.746604
-1.708951
-0.161901
0.580812
0.398947
-2.194602
0.178920
0.652837
-0.722969
-1.060338
0.904784
-0.687619
-0.798209
-1.495202
-2.008018
1.424258
0.292616
-1.634650
0.148701
0.533545
-0.409700
1.067468
-0.299451
0.672878
-1.257839
-1.565102
0.344798
-0.430682
-0.025423
2.196473
-0.202403
2.374990
-0.484434
0.489422
-1.269578
0.968934
0.145925
2.264713
-0.083609
-0.383642
1.544261
-1.628058
0.548203
-0.009107
-1.812755
0.550218
-0.365905
-0.363170
0.939461
0.095807
-0.631376
-0.874303
-0.880010
-0.585685
1.144692
1.868969
-1.068253
-2.771333
0.895646
0.096543
0.161382
1.047449
0.498471
-1.306038
0.588758
-2.000635
-0.593534
-0.952158
-0.703604
0.880226
-1.139160
0.941534
0.518773
0.989467
-0.361051
0.483846
-0.486640
-0.690236
0.027558
-0.281380
0.082496
0.339115
0.846569
-0.224417
-0.144793
-1.108840
-0.173116
1.395070
1.024651
-0.052933
0.285808
-0.309964
0.465200
-1.120630
1.252736
-0.030983
-0.801638
-1.298610
0.263356
-0.375535
1.660578
-0.527953
-0.517523
1.828063
-1.544569
0.713557
1.440770
1.725430
-0.641752
1.218801
-1.096642
-2.049041
0.617017
-0.296750
-0.114767
1.029457
0.139495
0.203976
1.307526
1.269353
0.113747
-0.667496
-0.307724
1.825666
0.123395
0.001954
-1.087646
-1.031340
0.114490
-1.503975
-0.034853
-0.772281
0.722132
-1.321812
1.666119
1.218185
-0.901612
1.065194
-1.015474
0.205672
-0.681003
-0.740197
0.463906
-0.073306
-2.336256
-1.892723
0.162509
-0.940785
0.858996
0.371989
0.703802
0.563937
0.403135
-1.611851
-0.447415
1.435324
-0.319266
0.857838
-0.741077
-2.096822
-0.521626
-0.674134
-0.394987
-0.247680
-0.969336
1.490903
-1.011863
0.729174
0.313663
-0.303575
0.380383
1.396222
-1.125237
0.329672
-0.460173
0.641093
-0.754935
-0.713834
0.217293
-0.583881
-2.700692
-0.158128
1.684164
-1.268821
1.670704
-0.173992
-1.286637
-0.511458
0.022031
-0.188622
-0.911086
1.079432
-1.302369
2.525567
0.435447
0.257463
0.254759
-0.114797
1.032744
0.563621
0.290065
0.209338
0.879782
-0.107132
1.445861
0.093757
1.336511
0.940456
1.371377
-2.330762
0.417392
-0.720993
0.649286
1.077263
-1.229452
1.553247
-0.857082
-0.474478
-0.173926
-0.291162
-1.002349
0.442581
-0.991729
0.259780
-0.159301
-2.551191
-0.526934
1.535015
-1.090634
0.047740
-0.558520
0.969572
0.184434
1.369144
-0.022986
-0.115362
2.995462
0.129978
-0.666114
-2.250120
0.281188
1.422354
-1.717504
-0.254788
-0.464430
0.624181
0.016759
1.135095
-1.024464
0.956532
-0.480170
0.590069
0.726285
-0.915411
-0.416905
0.858816
-0.655140
-0.453008
-0.028398
0.190801
1.459711
-0.380185
-0.007304
1.210335
-0.345512
-1.220866
0.568497
-2.084686
0.578421
-0.134205
-0.509381
0.563143
0.838876
-1.838723
1.778208
-1.040571
1.300419
-1.718197
-0.160505
-0.272479
-0.631748
-0.948629
0.515736
0.105286
-1.047367
-1.388224
-0.517738
0.316022
0.283646
-0.275431
0.493298
0.257019
-0.074081
1.555226
-0.233517
-1.108468
-0.259257
-0.596797
-1.247872
-0.873508
-0.635115
-0.579219
-0.135718
0.077350
1.125454
-1.153082
-0.435316
-2.177304
-0.963838
-0.844114
-0.209499
-2.204414
-0.545457
0.032754
-1.767257
-0.042330
0.998359
-1.106230
0.105101
-0.548905
1.467132
0.100187
-1.514028
1.414094
0.583915
0.704165
0.508890
-0.193523
-0.477918
-0.504278
1.706620
-1.739540
0.199751
0.807535
1.046791
-0.376357
0.183402
-0.403196
-0.563073
0.910429
-1.734223
-0.347511
0.955776
0.670680
-0.162109
-1.547358
0.406118
1.672139
0.690265
-0.463289
-0.470399
-0.241503
-0.028455
-0.905787
-0.737252
-0.171304
0.043931
0.429986
-0.549130
1.220116
-1.022698
2.195193
0.770063
1.609384
-0.535948
-1.759233
1.032741
0.412300
0.327776
0.163048
-1.497624
0.488831
-0.564583
0.491512
0.607789
0.144903
0.127043
1.787098
-1.180660
1.406743
-0.055299
-1.069343
-1.288807
0.547923
-0.301022
1.182311
-0.980037
-0.951651
3.437154
0.064751
0.971143
-0.502978
1.267110
0.421289
0.011037
0.659797
0.723632
0.584947
-1.433620
1.631500
-0.136363
0.955138
-0.367629
0.089643
-0.515227
-0.452867
1.410760
-0.342227
-0.123861
-0.278358
-0.310634
0.146429
0.954880
0.036694
2.024017
-0.309703
0.310157
-0.586300
2.769264
-1.031883
0.642766
-0.097779
-0.697444
-0.426284
0.620701
-0.464190
0.816396
-0.899801
0.560165
-1.240163
-0.643626
1.297107
0.340658
1.421289
-0.516136
-0.429085
-1.357238
1.674919
0.520265
-0.303264
1.803535
0.550124
1.156438
0.207565
-0.017935
0.409372
-1.169672
0.862125
-0.573742
-0.732534
0.289751
0.056789
-1.433161
-0.185545
1.590426
0.593881
0.619569
-1.378362
1.335774
-1.575953
-0.876695
-0.118586
0.267718
0.500598
0.588244
-0.084368
1.649365
-0.611584
-0.505739
-0.803164
-2.058216
-0.038187
-0.304938
0.441645
0.008262
-1.812246
-0.240859
-0.057804
0.929860
-0.410329
0.922585
1.169591
-0.432065
-0.439031
-1.985407
-0.521591
-1.005897
-0.064552
-0.560918
0.378598
1.778420
-1.572078
0.069295
1.154965
-0.303502
-0.844204
-0.818276
0.481520
-1.520385
-0.889510
-0.964246
-0.156549
0.829274
-0.113039
1.042208
-0.085490
-0.034035
-1.378409
1.109260
-0.418814
-0.685815
-2.474666
0.151375
-0.725766
-1.122204
1.163495
0.341277
-0.481951
0.994315
-0.763144
0.164906
-0.839966
0.283354
-0.687031
0.875617
1.179468
-0.218352
-0.000980
1.104923
-0.053530
-1.549175
0.526154
-0.625221
1.450150
-0.267987
-0.223209
1.619011
0.744264
0.117261
-1.535469
-0.151098
1.118189
0.480706
0.386784
-0.443773
0.088414
-0.633863
0.450438
0.501398
-0.400491
0.046827
-0.344572
-0.811821
-1.698078
0.458535
-0.241071
0.077512
0.125102
-1.523751
0.251660
-0.964844
-0.191809
0.835059
0.515333
-0.505834
1.184031
-1.803082
-1.298640
-2.388272
0.724062
-1.565998
0.488469
-1.154162
-0.593757
0.279891
-1.195747
0.081939
0.924132
0.392212
-0.357180
0.729935
0.384119
-0.344078
-1.099156
2.931262
0.939655
-0.277184
0.724075
1.629965
-1.571361
1.088556
1.959268
-0.399181
0.135913
0.265748
0.518851
2.924470
-0.097320
0.205339
1.064361
1.032783
2.394851
0.143950
-0.467706
-0.940993
-1.057903
-0.744028
-1.048024
1.654293
-1.502011
-0.475051
-0.127887
-1.103480
0.790262
-1.535088
0.784098
-0.014884
0.763191
0.154714
1.154214
0.772113
0.032728
-1.609567
0.348439
1.582091
-0.037659
1.599038
0.148062
1.396660
-1.564479
-0.191291
-0.133211
1.679699
0.210560
-0.275597
0.095074
-0.222616
0.558569
-1.550000
0.020986
0.278109
-0.250429
-0.319939
0.478139
-0.711551
-0.021988
-2.071605
0.411321
-0.295129
0.824548
-0.082852
-0.386715
0.751983
0.464210
-1.070953
-0.527300
-1.409936
-1.201843
-1.093017
-1.279616
1.448306
0.461920
-1.729662
0.638775
0.501879
1.763207
-0.123293
-0.391102
-0.325089
0.414444
-0.514129
0.374375
-0.213047
1.202996
0.194197
-1.990721
-0.967835
0.019162
0.599110
0.506385
0.419658
1.478232
-0.100588
-1.008965
-1.063599
1.451839
-1.239100
0.512833
-0.559397
-0.490186
0.378354
1.298421
1.415503
-0.286794
0.842525
-0.587756
-0.062524
0.424433
-0.986670
-0.524781
-0.926123
-0.255338
1.101213
-1.773499
-0.903488
0.177027
0.301193
0.074758
-1.301265
-0.893400
0.098450
1.514454
0.367066
0.567455
-1.507070
-1.027122
-0.620366
0.079667
-0.753418
0.004855
0.472295
-0.901933
-0.236086
0.753889
-2.064492
-0.438835
-1.104798
0.421849
0.505553
-0.804470
1.305622
-1.049633
-2.052755
-0.000726
0.237717
-0.641127
0.639806
0.151153
2.680082
-1.919095
0.165912
0.052588
1.862521
-0.707608
0.147221
2.179896
0.183294
-1.552636
0.616148
0.451921
0.184629
0.441098
-0.363619
0.144062
1.390303
-0.815383
-1.868718
0.024604
0.440426
-0.759020
0.817939
1.781976
-2.161456
-0.281980
0.265136
0.493991
-0.682125
-0.697027
1.727894
0.264417
-1.222624
0.908036
0.089759
-1.574406
-1.302299
-1.123740
0.490668
0.801368
-0.256760
0.259308
-1.556063
1.196179
1.715695
-0.044253
-0.815554
-0.613753
-1.086721
1.056635
1.131853
-1.472607
-0.667941
-1.164437
-1.111206
1.004531
-0.164197
-1.920048
-0.355627
1.612708
0.123247
-0.598402
-0.669537
-1.071768
-0.033792
-0.529824
-1.393286
-1.332228
0.044171
0.017450
-1.064437
0.713338
0.243568
-0.882798
-1.808344
0.729739
0.339295
1.051850
0.836454
-0.408707
-0.954838
0.905693
-0.351662
0.889926
2.096106
0.953811
-1.474440
1.480849
-1.427518
1.497233
-0.333425
-0.037578
0.654248
-0.536621
-1.166464
-0.474195
-1.881399
0.174782
-0.432130
-0.509676
1.507956
-1.323209
1.177006
1.091751
0.361991
-1.257482
0.123735
-1.135037
0.171133
0.837231
-1.148393
1.133069
1.144717
-1.238584
1.331401
0.896318
-2.330707
0.385248
-0.957403
1.416065
-1.482491
-0.242270
-0.266758
0.101330
0.909081
-0.738646
-0.580889
-0.196714
-1.346302
-0.042522
-1.856923
-0.295279
-1.137797
-1.519795
0.742056
1.451327
0.816651
-0.152226
-0.546934
0.156587
1.896251
0.589123
0.022396
-1.052341
-1.838503
1.023410
-1.234603
1.394415
-0.721942
2.035871
0.004774
-0.367535
-0.838814
0.671155
-1.524154
0.639367
0.525740
1.047519
1.703482
-0.906259
-0.219860
0.642572
-1.193632
-0.175159
0.988158
0.167550
0.056957
0.626880
-0.798970
1.174608
-0.095121
-2.795203
0.376599
-1.304665
-0.564339
1.190574
1.146091
-0.209465
-1.744960
0.060032
-0.052566
-0.128742
0.265281
-0.308214
1.128213
0.662912
0.086301
-1.603124
0.657612
0.512955
-0.163843
-1.218006
1.921466
0.651848
-0.330268
-1.160203
-0.426630
-0.057496
-0.475124
-0.529566
1.059206
1.418574
1.485717
-0.389450
-1.182124
0.676162
0.390212
0.265498
-1.748285
1.333341
-2.124458
-1.315174
1.344448
0.002057
0.205363
0.855396
-2.016112
-0.180346
0.319745
-0.831669
0.001545
-0.021195
-0.678451
0.634851
-0.792390
-1.644709
0.656333
-0.645932
-1.051185
0.454562
0.918586
-0.332269
1.254435
-0.960710
-0.317391
0.869520
2.087954
1.718857
0.423098
0.496372
-0.726405
0.717840
0.326479
0.500580
-0.081047
-0.363030
-0.772884
0.336277
-1.086814
1.072333
-0.999962
1.646237
-0.898544
-1.840716
0.107176
0.610519
1.561026
1.022020
-0.826356
0.289859
-0.430517
1.332983
1.340449
-0.646301
-1.743842
-0.281476
0.443879
-2.181086
-1.075081
-1.158900
1.374251
-1.688605
-0.870094
-0.727682
0.650067
-1.059233
-0.009934
-1.503059
-0.605534
0.718507
0.005331
-2.016726
0.003650
0.903721
-0.158451
-0.512675
0.054634
0.517983
0.031386
0.176076
-2.676263
-0.474161
1.282287
1.556893
-0.722612
0.474991
0.289818
-0.846038
-0.582664
-0.727452
-0.372286
0.066371
0.580571
-1.069830
1.251130
-1.285670
0.943178
-1.126329
1.890276
-0.113148
1.048772
0.576062
-0.460735
-0.022192
-1.210073
1.680588
0.756561
2.053687
-0.174509
-0.142052
0.651730
-0.056601
-1.533980
-0.751490
-0.607200
-1.680681
0.382956
0.596540
2.196548
1.210966
0.283450
1.381686
-0.163581
-1.532191
1.261375
-1.830280
-0.046867
-0.191791
-1.537207
1.231497
-0.404559
-0.215660
-0.450499
0.094097
-1.501664
-0.819678
-1.684639
-0.065871
0.879900
0.516811
1.670025
-0.478620
1.344434
-1.471296
0.861401
-0.629786
-1.153210
0.128743
1.303727
0.933748
-0.663960
-0.883312
1.860684
1.004732
-0.236319
-0.957017
-1.516577
-1.422855
-0.094902
0.158401
0.509649
0.159106
0.624952
1.053486
1.382054
0.659699
-1.362168
1.870390
1.311611
1.051942
0.741801
-0.897250
-0.683864
0.200617
-0.017075
1.354393
0.465623
0.490116
0.744471
-0.838588
-0.847059
-1.689816
0.155556
-0.037070
-1.705446
-1.451689
-1.145860
0.075636
0.903155
0.302602
2.959484
0.492984
0.214544
-0.309678
-0.499681
-0.450931
1.874477
-0.670310
-1.190619
-0.445855
1.811615
1.972649
-0.811236
0.669216
1.059789
-1.461955
1.617170
-1.238186
-1.536616
0.179838
0.135114
-0.074043
-1.102001
-1.228313
-1.094055
-0.174776
-0.174700
1.783289
1.024199
0.117884
1.296734
-0.695638
0.127424
-0.511698
-0.389284
0.607648
0.815236
-0.389652
0.127485
0.546113
0.135469
-0.896551
1.473144
0.340026
-1.057107
-0.588536
-0.990798
0.169123
-1.009171
1.489148
1.346559
-2.030064
1.645372
-0.417012
-0.181014
-1.129050
-0.330166
-0.187066
0.979928
-0.755741
-1.668700
-2.079756
2.258096
0.824019
0.990903
-0.587886
-0.051131
-1.140775
-0.633690
0.367283
0.479498
-1.130316
-1.039870
-0.134858
0.710444
0.075064
-0.221080
-1.712007
0.041397
2.313656
-0.054896
1.141511
0.635005
-0.904141
-1.116449
-1.063289
0.024008
-0.703127
1.351606
-0.200415
0.069580
0.389030
0.073271
0.295581
0.610483
1.103962
0.685422
-1.321921
-0.489556
-0.898364
-1.022750
0.838811
-0.342485
-0.621168
-0.419689
-1.542130
-2.365883
1.108473
-0.272305
-0.516960
1.243532
1.229752
1.912427
0.164555
-1.145011
-0.435364
-0.041294
1.019351
-1.955606
1.573061
1.069360
1.458456
-0.221456
-0.593440
0.018689
-0.445734
-1.347137
-0.663109
1.106269
-1.194559
1.162168
0.406392
1.917578
0.128349
-0.165271
0.311949
-0.050419
1.350438
-1.383592
1.798513
-1.108123
-0.600471
1.250234
-0.302623
-0.650721
1.503137
1.948617
1.345799
0.237691
0.163832
-0.484197
-0.636598
0.516933
0.031361
-0.636513
0.609776
0.203439
0.645710
0.656280
-0.066678
1.045752
-1.216950
0.368787
0.162512
1.316372
-1.749229
0.476444
0.110838
1.009347
1.869254
0.744595
-1.110165
1.478166
0.602313
0.877825
0.234903
-0.037520
-1.682732
1.629029
0.464933
-0.250922
0.906078
0.869681
0.306787
-0.971497
0.008277
1.046541
-0.117387
2.380866
-2.200343
0.028344
-0.838910
-0.190862
-0.136379
-0.041827
1.239195
0.455159
-1.517072
-1.055488
0.953835
-1.259664
-1.876211
-1.299495
0.080105
0.728225
-0.107636
2.181899
0.556694
-2.148727
-2.186142
-1.001433
1.022150
-0.626689
-0.336002
0.735319
-0.076255
0.240428
-0.533347
0.030785
1.028340
0.268882
0.797176
1.231384
0.040516
-0.342041
-1.529483
-0.346863
-0.475284
0.433477
-0.232805
-0.953080
1.305525
0.877648
0.313802
-0.452612
1.077598
-0.052942
0.720604
0.259530
0.712029
0.334247
0.368290
1.186603
1.571346
1.864935
-0.372757
1.248744
0.125423
1.059368
-1.532042
0.679161
0.157502
0.285969
-0.309855
-1.071419
-1.049912
0.316837
-0.462700
0.822531
-0.390116
1.139977
-0.949192
0.238517
-0.445391
1.313428
-0.877711
-0.171928
-0.747532
0.105682
1.984940
0.890130
-0.098535
-0.507172
0.222622
0.773283
1.591885
0.695369
-0.766266
0.090037
0.655798
-0.603490
-0.747420
0.327229
-0.373836
-1.619269
1.335095
0.232882
0.289842
-1.605667
-1.461411
0.009380
0.012902
-0.539018
-0.615088
1.139901
1.475647
0.602083
1.330603
-0.516973
-1.302203
-2.816239
-0.086389
-1.350504
1.662113
-0.679796
-1.108498
1.213765
-0.750598
0.412065
0.185314
0.656120
1.117082
-0.130658
1.173528
1.617992
-2.065612
-0.394607
0.419414
-1.148370
-1.126620
0.738263
-0.170355
1.377648
-0.927689
-0.242525
1.599697
0.021151
1.194887
1.818613
-0.249829
1.583311
2.150472
-0.292260
1.376907
0.327490
-1.615825
1.448801
-0.583382
1.487295
0.273508
-0.736781
0.462224
0.086691
0.695763
0.790830
-0.736591
-0.207350
-0.900313
-0.663292
-0.900550
-0.745972
0.587663
-0.823089
-0.466179
-0.339590
-0.198748
-0.395870
2.481974
-0.333354
0.662446
-0.537199
-1.432055
0.378059
1.234463
-0.072658
1.436220
0.039497
-1.132875
0.892510
1.353669
-1.305754
0.523368
0.429112
-0.242867
-0.881920
-0.379432
0.193415
0.248946
-1.938880
0.425931
1.091511
0.783502
-0.041795
0.514286
0.841257
1.339138
0.665128
0.236449
-0.057526
0.054046
-0.904453
-0.979009
0.678073
1.459786
-1.182117
1.069484
1.111823
1.121527
-1.118518
-2.912843
0.742322
1.291511
0.667553
1.266888
-0.545450
0.644691
0.076782
0.545029
-0.843687
1.259392
1.705173
0.926739
-0.252706
-0.791112
1.111675
0.200531
1.625636
-0.610142
0.626457
0.394742
-0.205567
1.312703
-0.110536
-0.384313
0.575919
1.511333
0.244181
0.207165
-2.875740
-0.919059
-0.047793
1.081307
-0.103622
0.692517
-1.941242
0.962630
-0.582169
0.027010
-0.037948
0.562766
1.116251
1.402373
-0.520200
1.269604
0.173449
-0.080852
-0.783765
0.545299
1.123739
-0.124023
-0.671249
-0.188633
-0.356645
-1.749553
-0.098323
0.096826
-0.953028
-0.682425
-0.531574
0.079419
-2.000151
0.026235
-0.283052
0.043161
-0.473769
-0.912470
0.982836
-0.787161
-0.409978
-0.458436
0.096429
-0.061284
1.437914
0.955686
-0.961543
-0.265835
0.760707
0.925175
0.567480
0.661777
-1.856957
-0.662873
0.514809
0.243563
-1.876176
-0.240571
-1.126381
-1.004742
1.621490
-1.330966
1.647302
-0.366139
1.994965
0.869735
0.221541
0.789572
-0.962621
0.272113
-0.093039
-1.295392
0.341699
-1.560292
-0.721576
-1.023422
0.873357
-3.699663
-0.670386
0.215232
-0.883249
-0.617088
-0.398148
0.227800
-0.055104
-0.128702
1.547322
-0.907148
0.323342
-1.138232
-1.157474
0.014438
0.470875
1.737659
1.358361
-0.614884
1.907879
0.266383
-0.354714
-0.654583
1.398006
-0.317525
0.434412
0.295611
0.675222
0.345726
0.503984
0.063967
-1.439214
-0.493478
0.177079
-0.046737
-0.641080
0.374112
0.547615
0.555715
2.087839
0.471812
0.692960
-0.580990
-2.893527
0.535194
-0.926047
-0.427175
-1.152514
-0.385264
-0.291113
-0.357422
-0.130220
-0.037490
0.416353
0.431902
-0.912059
1.411915
1.471767
0.686105
-0.335241
-1.538123
-1.432840
-0.095460
0.859390
0.018942
1.834740
-0.181088
0.956671
-0.744648
0.974291
-1.768995
0.285277
0.762936
-1.207700
-1.708688
1.489265
2.021198
2.588515
0.408230
1.122770
-1.360085
1.330559
0.873752
0.704959
-0.507332
1.308068
1.862493
0.655292
1.969265
-1.792262
0.614430
-0.080350
-0.898616
3.518990
-0.185703
0.009262
-0.853329
-1.502041
-0.048985
-0.531836
0.251493
-1.291068
1.264386
-1.192207
-1.561948
-1.369333
-0.723996
0.506321
-0.713721
-1.128132
-0.007039
0.176777
0.087487
-1.355984
0.581277
1.302546
-0.600226
1.538961
1.253523
-0.188255
-0.987643
-0.573304
-0.096502
0.563083
0.398195
-1.109645
0.630947
-0.240018
-0.698835
-1.001398
-0.296238
1.648930
-0.116608
0.892357
0.436594
-0.638352
-1.098342
-0.988452
0.800381
-0.705721
1.750479
-1.158789
-0.455852
1.137530
0.551924
0.242843
0.119385
1.367677
0.524467
-0.647181
1.051337
1.590737
2.042725
0.415700
0.677501
1.983530
1.163029
-1.172688
0.901792
0.621346
-0.056103
0.057641
1.970878
-0.625340
-0.136036
1.588022
-0.087039
0.348461
-0.423341
-0.488533
-2.058920
-0.300597
0.176123
-0.340031
0.211052
0.582844
-1.386810
1.219359
0.800744
-1.844148
-0.264964
-0.552387
1.302341
-2.043410
0.833042
-0.009231
-0.234905
0.406318
-1.092427
-0.507951
1.084555
-0.553586
0.548368
-0.368955
-0.005093
-1.201829
-0.188364
-0.656160
-0.673439
-0.349414
1.157802
0.388460
-1.502213
-0.579524
1.109911
-1.585667
-1.895262
-0.744057
-0.627381
0.932690
0.084172
0.289085
-0.774161
0.919659
-1.759808
-1.744824
0.379150
-1.099199
1.048347
0.097684
-1.716318
0.099556
-1.726224
0.863934
0.484192
-0.905626
-0.117688
0.270050
0.521979
-0.873334
-1.163601
0.214433
-0.390739
1.950529
0.210227
1.260692
0.816121
-1.064219
0.086189
0.239754
-0.988846
0.399509
0.037799
-0.015718
-0.312929
-2.372901
0.484254
0.377512
0.665050
-1.170967
0.221867
-0.569554
0.595911
1.936868
0.133621
-0.762658
-0.267330
0.138718
-0.146962
0.576013
-0.388848
0.198996
-0.215337
0.921936
-0.287024
0.083847
0.277364
1.399685
1.318444
-0.696846
-0.940573
-0.234267
-1.529379
-0.645489
-0.733949
3.118028
-0.152922
-0.765234
-1.532100
2.265234
0.202650
-0.651149
-0.723282
-0.681129
-0.218794
0.966629
0.939008
0.054852
0.562095
0.833987
-0.672109
0.004876
-0.378903
-0.810696
-0.025110
1.285087
-0.686948
-0.472883
0.296813
-1.395285
-0.541480
0.837441
0.084207
-1.840008
0.253900
-1.859067
-0.282840
-0.682695
1.144446
-0.449376
-0.466345
1.247132
0.475778
0.851224
0.339753
0.114139
-1.482716
0.802042
-0.593714
1.338868
0.260796
0.204927
1.774631
0.322944
-1.686172
1.088027
1.028781
-0.785277
-1.015175
1.207767
0.179977
-0.208291
0.214406
1.456378
-0.337559
-0.624530
-1.019189
-0.690351
0.717374
-0.561844
-0.489840
-1.703950
0.844671
-1.035219
-1.561862
-1.555155
-1.746332
-1.183952
-0.222640
1.118071
0.730504
-0.693154
-0.011763
1.083320
-0.272820
1.177777
0.704693
-1.097026
0.377435
0.210882
0.812794
-0.002278
-0.034964
0.768055
0.999278
0.450078
0.165037
0.225504
-0.518958
-0.247405
0.062870
1.075194
-1.543513
0.488583
-0.122940
-0.208854
0.532929
0.111600
-0.580305
-1.272033
-2.359074
-1.688904
1.163957
0.774134
-0.788423
0.540500
-0.271558
-0.606738
-1.237087
0.025161
-0.487028
-0.122313
-0.175742
-0.375788
1.040326
0.790972
1.461182
0.815290
0.792122
-0.681386
-0.843125
-1.136909
1.252467
0.958364
-0.474272
-0.136825
-1.233745
-1.192258
-1.023305
-0.534402
-0.045254
-1.224990
1.101227
0.636864
0.715911
-1.279653
-0.851881
-0.828842
0.593562
0.469464
0.016648
-0.776143
-0.168865
1.303335
1.303306
0.164373
-0.893803
1.038096
-1.004763
-0.101221
-2.264861
0.998043
1.800318
-0.396643
0.187608
-1.567688
-0.376197
0.529608
-0.442467
0.342821
0.801141
-0.881645
0.006503
0.809737
0.695709
-2.023699
-0.766495
-2.258089
0.843889
-0.452061
0.753386
-0.079341
0.289788
-1.238948
-1.959891
-0.014058
0.027863
-0.018406
-2.016332
0.212508
0.534023
0.222902
-0.369000
0.667095
-0.643902
0.666902
-0.413422
1.087814
-0.118437
0.000905
-0.270894
-0.388381
0.168719
-1.054437
0.845752
-0.779364
1.476223
0.780725
-1.022393
-0.135809
0.664728
-0.625786
-0.074671
0.906860
-1.077229
-1.305261
-1.294437
-0.076611
1.435831
1.611369
-0.952680
-0.985600
0.524175
2.328646
-1.348077
1.514884
-0.158271
-1.207078
1.528198
-1.615914
-1.451706
-0.332871
0.244265
0.888528
0.259719
-0.715615
-0.290002
0.722026
0.584978
-0.966494
-0.537503
-1.222099
-0.707326
1.549662
-0.160510
-0.506434
0.245446
0.755003
0.717531
-0.509453
-1.124839
0.253860
0.033533
0.733618
-0.814703
-1.112673
0.696744
0.794767
-1.648754
-0.706298
0.183089
-0.244798
0.337332
-0.132686
1.014825
-0.684816
0.207202
-0.243058
0.353558
1.531934
-0.317636
1.612502
0.802632
1.656074
-1.905855
-0.852704
0.930779
1.637416
0.521886
0.042181
-0.618771
0.126277
-0.798115
-1.009511
1.407343
-0.263324
1.575646
-0.201023
0.615572
0.654997
0.578374
-1.048123
0.684704
1.303643
0.507418
0.439552
0.246052
-0.607685
-0.143938
-2.083128
1.364563
-0.117743
-0.827871
-0.645677
0.253181
-0.231672
-0.777077
0.720545
-1.549780
-0.173529
1.659381
0.220409
-1.475893
-0.215871
-1.343359
0.600095
-2.105190
0.358759
1.404703
-3.645949
0.165607
-2.143749
0.439664
-1.654614
-0.318133
1.208035
1.548580
0.175224
0.235644
0.776619
0.820734
-1.233583
0.388385
-0.199691
0.007099
-0.668601
-1.987679
-0.879418
-0.931888
0.219019
1.328610
-1.550822
0.601182
0.097963
-0.257505
-0.773646
-0.003366
-1.119111
-1.715722
-2.107381
-0.363754
1.387783
1.755422
-1.488704
-0.332129
-1.694123
1.145858
0.431014
-0.840030
0.656367
-2.190284
-1.136224
-0.542883
-0.226999
-0.185096
-1.811099
0.774242
0.830789
1.547553
0.202327
0.902648
1.411238
0.089569
-0.150953
-0.125869
-0.512222
0.456545
0.457660
-0.790552
0.193182
-0.886923
-1.118394
-0.597997
-1.338392
0.313790
0.725162
-0.276625
0.127201
-1.515359
0.067792
-0.969615
1.363355
-0.311683
1.031674
0.624041
-0.921044
-0.646407
0.393631
-0.610777
1.358948
1.309762
0.347657
-0.031219
0.535734
-1.144334
1.147385
-0.228218
0.685784
0.096193
0.596927
0.322786
-0.706946
2.498828
-0.452914
0.058460
-1.704408
0.571768
2.732162
1.067959
0.162917
-0.546541
0.769226
0.777105
-1.482027
2.467953
0.267265
-0.198477
0.850175
-1.481800
1.921785
-0.271793
-0.717581
-2.467017
-0.094559
1.363364
0.364447
-1.544706
-0.604830
2.151644
0.956911
-0.685353
0.212087
-1.326305
1.240077
-1.546259
0.753651
-0.988484
0.085389
1.140601
-1.705952
0.889087
-0.513338
-3.080069
0.290033
-0.455913
0.619259
0.736546
1.081852
0.894357
0.417405
1.599299
1.008107
-0.349081
-0.325154
0.053597
-0.981690
0.294521
0.389153
0.599498
1.034655
0.689127
-0.364959
0.910919
-0.371191
0.586575
-1.317792
2.639508
-0.776084
-0.450805
-0.238074
0.317389
-0.432791
-0.768364
-0.981176
-0.599394
0.063938
0.776674
-1.902973
0.444012
0.785296
-1.928833
-1.437881
-0.431527
0.132934
0.450903
-1.551965
1.271350
-0.558148
-1.644753
1.463163
-1.031524
-0.762885
-0.245735
0.744729
-0.391502
2.476075
-1.574062
-1.101205
0.166979
0.794949
-1.326661
1.490463
1.436042
-0.927528
-0.866754
0.078328
0.021441
1.591184
-0.204923
-0.512395
-0.613458
1.318120
0.581527
0.351826
0.931106
-0.699433
0.914211
2.025965
-0.653793
-0.417313
-2.143039
-0.582570
0.235362
0.043958
1.189267
0.961436
-0.326694
0.291458
-0.903808
-0.210690
-1.530387
-1.206755
-1.674281
-0.116638
0.779158
1.012509
0.055213
-0.038283
-1.779424
0.552283
-2.210387
0.596643
0.927639
0.140456
-0.696375
-1.231450
0.123540
1.129068
-0.152984
0.270001
-1.734836
-0.175618
0.303608
-0.456100
0.769304
-1.873515
1.436002
-1.926952
-0.863428
0.548119
-0.260311
-1.244225
0.517157
0.248358
0.281500
0.194802
-1.766658
0.494519
0.675250
-0.436804
-0.472033
-0.578650
0.580685
-1.173499
-0.927441
0.161470
-0.774352
0.652210
1.189464
0.414668
-1.866230
-0.562250
0.402016
-1.190275
-0.526879
-1.405857
-0.869503
2.098541
1.374759
-1.859260
-0.352999
0.533215
0.764686
0.551888
0.614635
0.798438
-1.086329
-0.093406
0.466830
1.668476
-0.263428
0.804488
1.738127
-1.153942
0.387605
-1.272509
-1.037881
0.434672
-1.069287
0.780547
0.272144
-0.192528
-1.371052
0.667031
0.340612
-0.374685
1.333845
0.135466
1.756528
0.387505
1.801228
-0.005571
1.136960
-0.345725
-0.766039
-1.071753
1.166487
1.762688
1.713664
-1.348584
-1.392760
-0.618607
0.903760
-0.742320
0.456512
-0.936378
0.597821
-0.733377
0.793664
-0.740468
0.490301
-1.974096
0.270604
1.408789
-2.425378
-0.019445
1.302813
1.196035
0.522404
-0.317355
0.516048
0.039718
-1.226862
0.587446
2.218342
0.423039
0.491108
-0.341153
-0.986473
0.373687
0.476248
-1.009290
0.609365
-1.683676
-0.640570
0.349863
0.866734
0.270860
1.607919
0.587865
-0.430379
0.182234
-0.056830
-2.031115
0.097791
0.309896
-1.108750
-0.930026
-0.055262
-0.443645
0.695424
0.361698
-1.436581
0.068417
1.378683
-0.899911
-1.145186
1.336504
0.305449
-1.751429
0.832982
-0.589240
1.418053
0.095169
-0.662270
0.945091
0.175454
-0.777597
-1.134593
-0.241690
-0.192285
-0.858734
0.737596
0.795435
-0.390975
1.281492
0.643229
-0.718777
1.720776
0.431781
0.658621
0.079402
-0.871041
-0.454187
-0.550084
-0.653241
-0.883554
0.118091
0.700359
0.576756
0.908425
0.065042
0.433724
1.910022
0.702219
0.443735
-0.704559
-0.346405
-0.670593
-0.491228
-0.771209
0.805516
-0.605811
1.453120
0.292842
-1.188099
-1.101013
1.075124
0.265427
-0.218598
0.809697
-1.853118
0.608568
-0.117114
-1.497269
-0.008527
0.649160
0.647263
2.229794
-1.601547
0.743668
0.314942
-1.993569
1.156926
-0.660761
-1.200082
1.629627
-0.538245
1.470658
-2.067554
0.763345
0.051665
0.050876
0.176510
-0.474389
-0.854666
-0.135964
0.267303
-0.944997
-0.904846
0.854245
-0.806506
0.531152
-0.779143
0.578587
0.921133
0.147365
0.303641
-0.230054
0.101968
-1.218285
0.407556
-2.042358
-0.258529
0.193239
-0.007233
-0.735738
0.454001
-0.001443
2.316499
1.042210
0.469308
0.584005
-0.684156
-0.015921
0.900809
0.251366
-0.571744
-1.095123
-1.870191
1.240951
-1.545865
-0.233991
0.569495
0.745676
1.092216
0.163875
0.304530
0.255742
0.353243
0.016432
2.045301
1.417635
1.055170
0.971879
0.575608
-0.114015
-1.770608
-0.714689
-1.764464
1.919015
-0.645793
0.494654
-0.095310
-1.446857
0.074767
-0.632838
0.234487
1.378794
1.404470
-1.601418
-0.446529
0.708683
0.018360
-1.195500
-1.301364
0.222287
-0.183051
-0.879234
-0.532821
-1.239099
0.396993
0.218575
0.765997
-1.178383
0.236614
-2.125715
0.218133
-0.671625
-0.280758
-0.028516
0.516510
-0.908113
-1.051768
1.651879
0.384218
0.818860
0.382867
-0.686946
1.256651
-0.926097
-0.825762
1.432630
0.517034
0.437255
0.192738
2.257010
0.536360
1.617867
0.750498
-1.176615
-0.688253
-0.602782
0.529848
-0.746834
0.353504
0.157380
0.807564
-0.238446
-0.043830
-0.237021
-0.511110
0.763670
-0.139065
0.467011
0.336457
-0.620717
-1.238670
0.242223
0.022144
-0.448137
0.528891
1.465735
0.130601
-1.326350
-0.867161
0.352201
-1.322143
0.356222
-1.314181
1.631848
1.642143
2.029226
0.772850
1.132033
-0.559174
-0.085315
1.918644
-0.733913
-1.585520
0.306492
1.819947
0.742083
-0.224601
0.148210
-1.912351
0.333332
-0.143515
-0.848513
0.005401
0.008900
-0.988111
-0.737060
0.077226
0.058493
-1.062623
-0.251056
-2.098994
1.662352
-1.160007
1.658271
-0.358542
1.244406
-0.206502
0.318896
-0.011618
0.053260
-0.827296
-1.087615
-0.533228
-1.974366
-0.397800
-0.238725
-1.378353
-1.553491
-1.120275
-0.133900
0.679348
1.337793
-1.553086
2.187717
1.338928
0.661806
0.646945
-0.011097
0.115206
-0.784520
0.068474
1.174616
0.688868
-0.215099
0.062489
0.244738
0.334618
-1.438098
0.688357
0.518440
-1.639743
1.485177
-1.570828
-1.029586
0.386573
1.173215
0.013313
0.549724
-0.279129
-0.744126
-0.335427
-1.409324
-0.900990
-1.283020
0.572174
-1.775920
-0.621108
-1.686524
-0.652906
2.248554
-2.218896
-0.893431
-1.017642
-1.021328
-3.011172
0.892547
-2.065202
0.528225
-1.084082
-1.167192
-0.123822
-0.121747
0.053376
0.675786
-0.683325
-1.042223
-1.149292
0.239336
0.626818
0.237891
0.061240
-1.715670
0.013100
-0.666209
0.524477
-1.477737
-0.525619
-0.273224
0.680377
-0.227622
1.222720
0.825531
-0.287282
-0.131264
-1.664626
-0.043739
-0.647589
0.503327
-0.727052
1.765536
0.549926
-0.686216
0.192730
-0.919756
0.215835
-1.553843
1.034185
0.687817
-1.459509
0.972885
0.370529
1.926851
-0.497032
-0.491417
0.421825
-0.627599
0.442844
-1.257547
-0.623945
-0.430137
-0.579182
-0.464595
-2.014990
-0.257193
0.588736
0.773319
0.765673
-0.578141
-1.289154
-0.427890
0.952204
-0.237036
-1.275705
-0.533000
-0.686917
0.643822
-1.402737
-1.064099
0.615482
-0.922775
-0.209188
-0.620931
1.026729
-0.469478
0.346610
0.391075
-0.543996
1.003686
-1.597801
-0.120482
-0.818652
-0.130661
0.407933
-0.359504
1.083482
1.285550
-1.750550
0.047060
0.597403
-1.592924
-0.808878
-0.688868
-0.711907
-0.770140
0.063322
0.745091
-0.527578
-1.092285
0.653458
-0.051639
-1.705265
-1.026462
-0.383372
0.216750
0.927640
0.871865
-1.710062
0.763132
-1.852000
2.275496
-0.075689
0.164032
-0.869322
0.360419
-0.027816
1.222813
-0.717810
-1.357056
-0.637229
-0.345988
-2.039252
-0.087643
1.426858
0.153056
-1.946292
0.462842
0.445324
2.048111
-0.058447
-0.408786
-1.675303
0.135520
-0.702718
1.361408
-0.513700
1.038564
0.905713
1.820163
1.073131
1.126773
-1.059411
1.083588
-0.311571
-1.662225
0.946170
0.204670
0.008137
0.848211
0.488429
2.821713
-0.371721
-0.127288
0.592076
-0.435566
-1.710145
1.060245
-1.021043
0.861090
0.320589
0.468287
2.446552
0.461832
-3.230659
0.557887
-0.487322
-0.223201
0.516381
0.751648
0.627449
-0.955815
0.145861
1.464216
0.247029
0.023885
0.410848
0.111196
0.907932
0.701234
0.350873
-2.379718
-0.162559
-0.750899
-2.279808
-1.091684
1.057601
0.242062
-0.565038
1.029484
-0.080896
-2.307085
0.728690
0.196740
0.156412
0.597807
0.429877
-0.801377
0.396720
1.787665
-1.443317
-0.303143
0.163026
0.794370
-1.335424
0.504061
-1.736774
0.009749
1.042811
-0.600148
0.148071
-1.550700
0.923230
0.867848
-0.288608
0.770514
-0.018081
1.084391
1.140772
0.244177
-1.442167
-0.317672
-0.529878
0.500605
-1.024979
0.368306
1.784733
-1.222312
-0.351299
-0.340606
1.036866
-0.585015
-0.479334
-0.291643
-0.810874
-0.081540
-1.011132
-0.250691
-0.292121
1.096556
-0.195583
0.567225
1.021347
-2.495936
1.272595
-0.284808
-0.042634
1.846875
-1.572940
0.245903
1.249838
-1.403788
2.082306
-2.775887
-1.500318
-0.040652
-0.324530
1.305357
0.548509
1.050906
0.154264
-0.938654
-1.172934
0.931442
0.842304
1.783016
-0.652868
0.649504
0.298097
0.693624
-1.056900
-0.023496
0.545196
2.260626
-0.390063
-1.425871
0.303106
-0.459492
0.011192
1.016558
1.445154
-0.105361
-0.266936
0.700466
-0.850786
-1.901606
0.929010
1.427605
0.986789
0.764851
-0.489813
0.666542
1.310182
1.332266
-1.557921
-0.005489
-0.033246
0.468198
-0.105645
1.162981
-0.067652
-0.279413
-0.530864
-1.273299
-0.437061
0.728214
1.424205
1.296387
0.434726
0.138105
0.366664
0.173932
-0.614994
1.831974
-0.213440
-0.531705
0.261183
-1.114315
-0.966738
-0.189405
0.457146
0.224752
-1.100306
-0.542960
0.056019
-0.727853
0.309073
-1.215891
-0.364201
0.310975
-0.762585
1.119151
0.974539
-0.401132
0.466221
-1.266652
-0.686825
1.554624
0.389278
-0.480035
-0.876012
-0.358778
-0.186951
-0.094370
1.049837
-0.384201
-0.677859
0.385400
-0.163132
0.922280
0.003304
-0.419345
0.916841
-0.380254
-1.650247
-0.540483
-2.239825
1.766781
-0.135532
0.582489
0.439302
0.380704
-0.415077
-0.192175
-0.992962
-0.044237
0.827188
1.261216
0.737485
-1.258533
1.375602
-0.376599
0.192644
0.521406
0.606475
-0.650773
-0.158311
-0.408432
1.650738
-0.339080
1.201133
0.818723
0.564946
1.078155
0.107848
-0.672740
-0.542777
0.975825
-0.103679
-1.181633
2.096523
-0.249603
0.852913
1.481944
1.086313
0.371046
-0.965594
1.205130
0.511373
-0.440967
0.077330
-0.641183
1.337072
0.251018
1.137371
1.233078
0.984635
-1.958058
-1.358145
0.416966
-2.885902
-0.758895
-3.060278
1.902214
0.639924
0.615942
-0.161301
0.825274
-1.058210
-0.811031
0.133225
1.309561
-1.259537
0.328836
-1.049540
0.097074
0.964127
-0.167924
-0.710768
-0.713539
0.282439
1.504448
1.898848
0.315136
-0.533063
-0.664549
-1.048176
1.279371
0.670178
-0.903787
-1.819362
0.755325
-0.024668
-0.390225
0.568327
0.289717
-1.223274
-0.169469
-0.014027
-0.202541
-1.138192
-0.722775
-0.431176
-0.648996
-0.155061
0.920992
-0.449837
0.832904
-0.447268
0.847859
0.114211
0.017839
1.862787
1.211198
0.476132
1.602871
-0.426297
1.014058
-0.311028
-0.568221
-0.123676
1.393719
-0.220861
0.124645
-0.457866
0.158715
-0.479938
-2.182597
-0.497756
-0.632250
-0.177803
0.121573
0.512942
-0.978648
-0.181940
-0.790470
-1.257156
-0.362698
-2.806949
-0.143804
0.533515
-1.089639
-0.266606
1.278910
-0.882283
0.219831
0.271398
0.079607
1.148252
-0.106241
1.524201
1.311051
-0.810874
-1.268894
0.313048
-2.081680
0.016968
0.957217
-0.027324
-0.764503
0.487573
0.599793
-1.185476
-0.009505
-1.473207
1.866965
0.210907
0.939103
-0.070019
1.602157
-1.428702
1.505963
1.204250
0.582297
-0.232692
1.772483
0.381139
1.040337
0.879944
-0.631165
-0.375661
-0.251107
-0.454375
1.218319
0.640100
-2.872507
-0.739208
-1.046189
0.975458
-0.547019
0.407894
-0.268107
-0.430035
2.014497
-1.929416
-0.214035
-0.180370
0.525037
1.135013
1.349636
0.002268
0.641660
-0.459935
-0.056645
-0.263480
-0.269986
-2.304997
1.038429
-1.120308
-1.345492
-0.143385
1.142889
-0.245964
-0.243506
-0.661737
0.777050
0.735171
0.668918
0.761382
-0.729115
0.363844
-0.651500
-0.639179
0.470474
0.364731
0.841765
0.699393
-0.387700
-0.025812
1.635702
-0.919443
0.022063
0.341111
0.703564
1.057037
2.594957
-0.796604
-0.347342
-2.329370
0.675130
0.110161
-1.111229
0.161026
0.001192
-1.173058
1.772878
0.992422
1.031991
-0.193611
0.283687
-0.153821
0.469204
-0.217649
0.810419
0.285699
-1.584786
-0.525166
1.447101
2.587377
1.609389
1.514942
-0.562443
1.643393
0.069644
0.129519
-0.802204
-0.585295
-0.865304
0.516499
0.796850
1.921019
0.224753
0.178007
0.629040
-0.086279
0.582473
-0.337687
-0.183292
-0.355069
1.476436
1.353430
0.648694
-2.295570
-1.575096
-0.798007
0.325245
1.396046
1.063580
-0.935237
0.637622
-0.336412
0.515243
-0.824757
0.068417
1.720248
0.742381
-0.806740
-0.836211
-0.011444
-0.215596
-0.835809
1.872170
1.020950
-0.628635
-0.654203
-0.492934
1.598964
-0.320964
-2.911472
-0.188709
0.612373
-0.547271
-1.878550
-1.714513
-1.735182
-1.220663
-1.594806
-0.579534
-0.686478
1.211681
0.534950
-0.645929
-0.039505
2.640078
1.115189
0.947232
-0.759247
-0.140987
-0.344858
-0.303693
-0.149686
0.873604
0.851034
-0.810981
-0.477245
-1.194308
-0.222483
0.684516
1.376117
1.385213
-0.259391
-0.280988
1.641874
-1.636490
-1.542832
-0.335080
-0.601788
-2.867182
-1.925661
-0.430947
0.469927
-0.309793
0.136310
-2.676271
-1.988132
-0.188228
-0.608538
-0.273580
-0.236564
-0.174690
-0.766157
2.215722
0.524341
-0.248748
0.031864
-0.615586
0.192262
-0.432424
-0.447451
0.273768
0.280428
0.594558
-0.327746
0.554412
1.244958
-1.161677
0.418560
0.510708
-0.035987
-0.203062
0.046231
-0.844559
-0.017216
-1.518504
-0.778142
-0.424601
0.924665
0.122676
-0.220601
-0.767659
-0.678566
-0.137569
2.178341
-0.935736
-0.469684
1.404371
0.522532
1.337082
-0.435545
-1.507499
0.293417
0.380320
-1.068316
-0.131406
0.740511
0.485589
-1.748803
-1.596123
-1.272168
-0.072718
0.871062
0.084138
-0.364973
0.549383
1.338652
-0.660208
-0.258602
-1.614023
-0.089131
0.942864
-1.689304
0.653037
-0.229851
-1.262069
-1.089956
0.191193
0.323588
-0.841262
0.652154
-0.453236
0.532735
1.450045
1.493547
-0.396649
1.480196
0.296896
-0.779794
-0.853736
-0.357850
1.176560
0.963326
-0.744345
-0.173084
-1.082231
-0.050587
-0.116518
-0.865622
0.128289
0.446638
-2.321499
-0.138047
1.827374
-0.668542
0.552310
0.576451
1.070648
1.802829
-0.372370
1.349691
-0.508062
0.097352
1.170138
0.923702
-0.124866
-0.404196
0.871578
2.335024
0.780994
1.729987
0.306347
1.881151
-1.279297
0.927078
-1.691969
0.020851
-0.167126
-1.585934
0.569909
-2.387763
0.665328
-0.388982
1.416572
1.823495
-1.556429
0.023402
1.731772
-1.459705
-0.696538
-0.538127
-0.162436
0.257588
-0.344867
0.089772
-0.234729
1.834052
-2.224113
0.289715
0.473356
1.104776
0.288843
-2.280284
0.777554
-1.457544
0.494903
1.147517
-1.947030
0.395007
0.154652
-0.723827
-0.893652
0.041039
-0.900776
0.287810
1.406062
2.108061
0.548830
-1.234605
-0.394773
-0.814165
-0.394423
-0.551694
-0.086041
0.361351
0.626045
0.225119
1.143292
-0.285828
-0.128542
-0.150871
0.122146
-0.672618
-0.956497
0.296563
1.192962
0.025642
-1.033213
0.401355
-0.408218
-0.295680
-0.602961
-0.176534
-0.331293
-0.785914
0.179118
2.008686
0.920028
2.771021
-2.239009
1.118115
0.905090
2.571947
-0.628683
0.414169
-0.617027
-0.180737
-0.668285
1.217198
0.908940
-1.735854
-0.733022
-0.875515
0.947100
-0.058497
1.612459
-2.337619
2.540105
1.348536
0.622684
0.959587
-1.074876
-0.465201
-0.521579
-0.967688
-0.832637
-0.296179
-0.522505
-0.231801
0.592274
-0.912061
-0.175790
-2.356559
-0.191572
2.406581
-0.323867
-0.292083
1.465320
-0.447129
0.221837
-0.534951
-1.837227
-0.879384
-0.606024
-0.959057
-0.431117
-0.685344
0.437072
0.194360
-1.047852
-0.161646
0.404598
-0.645341
0.586216
-1.422752
1.152840
-0.351513
0.257041
0.919855
0.691453
1.060947
-0.230957
-0.130977
1.273131
0.565008
0.771478
0.142668
0.033667
0.719222
1.442632
-1.889871
1.197842
-0.546494
1.111198
0.296047
-1.246861
-0.438991
0.687421
1.503066
-0.477681
-2.250453
-0.967002
-1.767425
0.442471
-1.124889
-1.305923
0.671406
-1.186822
0.132746
-0.615858
-1.263265
-1.436106
-0.080830
0.985688
1.843850
0.271902
-2.005047
1.786984
-1.851340
-1.294906
1.925400
0.841211
0.030804
-0.388897
-0.584709
0.919798
-0.710735
2.169672
-1.401645
-1.443640
-0.024363
-3.200460
0.732871
-0.203134
0.146628
0.972982
-0.764956
0.605092
0.738011
-0.060172
1.027255
1.025757
0.036708
0.463155
-0.356957
-0.080206
1.152992
0.911834
0.317345
1.100369
0.311940
0.121160
0.571488
0.716572
3.032817
1.999711
1.047076
-0.475792
0.350897
-0.987461
1.056946
1.044402
-0.384778
-0.139853
0.118180
-0.640805
-0.800134
2.124902
-1.072286
-1.876884
-0.127149
-0.489228
-2.540943
-0.555577
-1.446051
1.260311
-0.491667
-0.111004
0.499599
-1.633168
-0.625809
1.798117
-0.380601
-0.605339
-0.340761
-1.265666
-0.411566
0.724070
0.538544
2.824932
-0.110538
1.533196
1.471004
0.733523
0.337004
-0.714486
-1.188564
0.498055
-0.950251
-0.038992
-0.070623
0.849670
0.591937
1.307878
-0.457460
-0.337280
0.374022
1.667483
-0.615904
0.437620
-0.403284
1.558385
-1.091482
0.825175
0.323405
-0.402096
-1.223981
-0.090253
-1.485910
0.478613
-1.071644
-0.194455
0.027538
-1.085019
-0.749868
0.471761
-1.325014
2.077746
-0.748447
0.387525
1.606455
-0.512905
-0.041981
-1.166671
1.408689
1.440795
1.248928
0.181040
0.144891
0.045023
0.101818
0.538211
-0.439448
0.295120
0.072291
-0.732285
-1.333236
0.433968
-0.590887
-1.030534
0.385042
-0.054694
1.385393
0.368117
1.608034
2.450304
-0.684274
0.047019
0.239809
-0.376695
-0.759509
0.168895
0.372097
0.902911
-0.753315
-0.848970
-0.918200
0.306045
-1.558031
0.149691
-0.880386
-1.593401
-1.096478
-1.293243
-0.735932
0.937248
0.547109
-0.378201
0.587776
-0.432744
-0.858130
-1.028517
0.047778
-0.638553
0.825628
0.097556
0.669596
0.079659
0.447721
-0.466952
0.371423
1.091667
-0.860542
-0.268882
0.420011
-0.215501
2.511725
0.375629
0.967614
-1.567942
0.336302
-0.765525
-0.581335
-0.083097
0.506966
-0.906168
0.891069
-0.269678
0.782122
1.650157
0.854082
0.129424
-1.182896
2.274124
1.623783
-0.614188
0.042995
-1.675378
0.402142
-0.426037
-0.732343
-1.619903
-0.774676
-1.964707
-0.762832
-0.005429
0.150262
0.530993
-0.279154
0.202753
1.641518
0.919413
-0.598325
-0.534701
-1.086735
1.453286
-1.630513
0.435063
0.448606
-1.250868
-0.027586
-0.183416
-0.309721
-0.127285
-0.046300
-0.184392
-0.894542
-1.017922
-1.279207
-0.564873
1.019791
-0.022809
-0.076334
-0.543634
-0.398066
-0.247727
1.344900
1.126713
-1.021325
-0.206383
0.828987
0.497534
0.956538
-0.271330
-0.594366
-1.325302
-0.201854
-0.434442
-1.244303
0.443997
0.589003
-0.940478
0.043142
-0.323171
-0.359750
-0.985919
-0.443060
-0.030149
1.459410
0.077857
-1.906290
0.320330
1.932551
0.188089
1.119859
1.041374
-0.486670
0.307478
1.222424
0.848380
-1.034500
-2.188176
0.720017
1.225627
-0.652077
0.884845
0.550850
-1.435389
0.279765
-0.074177
0.270373
-1.027439
-0.573162
0.991316
3.221308
0.899113
0.470741
-0.003511
-0.477682
1.494421
0.575191
-1.733946
-0.400617
0.610905
-0.270003
0.753482
2.208994
0.175165
-0.400884
0.726597
-1.127589
-1.129670
-0.175484
0.577599
0.402202
0.659403
1.475683
-1.135922
-0.983666
-1.354857
0.723896
0.812980
1.838460
0.026854
0.274971
0.833237
-0.655838
0.493806
-0.655108
0.539703
0.761985
0.174567
-0.327853
-0.158984
-2.224954
-0.157780
0.059868
-0.334092
-0.435183
-0.216089
-1.742578
1.894128
1.732316
1.629430
-1.443005
-1.769151
1.515967
-0.365159
0.470567
-0.308987
1.385970
-0.655311
0.277102
-1.375020
-0.007663
0.708457
0.992224
0.193915
-0.584772
0.468776
-1.237586
-0.796248
1.340511
-1.727930
-0.355875
0.660478
0.085468
-1.217187
-0.130672
-0.398769
-0.625948
0.421063
1.254548
0.619936
0.706084
1.278383
-0.344013
-2.202918
-0.953689
1.319011
1.169399
-0.685298
-1.392092
-0.994524
-0.437690
1.585869
1.181609
1.168482
-0.570129
0.098486
0.257993
1.603360
-1.756933
-0.452841
0.190137
1.331628
1.024809
2.284022
-0.031116
-0.273742
0.558335
0.051467
0.339413
-0.255983
-0.608753
-1.013499
0.144485
-0.752530
-1.073720
0.601590
0.342421
-0.467313
-0.369760
-1.034672
0.289116
0.552114
0.645260
-0.200258
-0.008738
0.259332
-1.217563
1.688756
-0.491336
-1.239436
-0.850519
0.995882
-0.364433
0.666280
1.458624
1.445519
0.491659
0.383275
-1.547996
-1.183703
0.512390
0.164950
-1.035085
-0.552259
-0.978253
0.122989
0.416931
-0.293807
-1.004452
0.168537
-0.077620
0.550240
-2.310944
1.788484
0.045256
0.431793
0.004102
1.112030
0.861896
2.202571
-0.502612
-1.183010
-1.654014
1.380858
1.062842
-0.575253
-0.563581
-0.686662
0.234192
0.375330
-0.251808
-0.912044
0.559073
0.712360
-1.548709
-0.565824
-0.204903
-0.768902
1.086416
1.506314
0.079546
-0.331469
-0.383784
1.089306
-0.747627
1.106015
-0.781629
-0.513931
0.385242
-0.229205
1.182281
-1.018279
-1.650776
-0.211094
-1.754010
-0.604437
-0.307233
-0.524684
-0.641412
0.194552
0.188153
0.174111
0.738325
-0.532973
-0.916842
0.229312
-1.346298
0.495053
1.775514
1.159377
-0.442930
1.020980
1.133684
1.349306
0.895786
-1.863610
-0.136322
-0.697447
1.727658
0.859685
0.232273
0.853721
0.023140
1.187210
1.856660
-0.576735
0.548529
-0.200565
-0.936470
0.243243
0.284928
0.211644
0.689528
1.063347
-0.201754
-0.798521
0.030276
0.879120
1.131855
0.191548
-1.149765
0.054689
0.504584
0.954895
-0.858625
-0.995851
-1.409358
-0.693928
-0.072225
-0.724009
0.674778
-0.885454
-1.391774
-0.537623
0.799193
-1.329678
-0.805362
0.108674
-0.624553
0.860964
1.211160
0.133968
1.217891
0.088866
-0.356658
3.612784
-1.624338
-0.115180
0.378658
-0.417069
-2.081281
1.386534
-0.817746
1.136386
0.291735
1.145272
-0.309136
-2.069217
1.499689
-1.163037
-0.550615
-1.796360
-1.340939
0.267327
1.040760
0.409745
-1.213221
-1.281496
-2.098394
-0.916321
0.669312
-0.604816
0.985615
-0.867041
0.633337
-0.816141
0.114009
-1.115033
-1.049502
-0.516001
-1.156021
-0.256708
-0.204502
-0.791785
0.521818
-0.603099
-0.343592
-0.683594
-0.409849
1.631237
-0.239348
0.362223
-1.224862
0.627526
-1.888899
0.604058
1.636456
-1.321051
-1.067082
0.239518
-0.340532
-1.456087
0.670288
-0.197223
-0.112514
-0.429821
0.532177
-0.318077
0.068704
-0.038823
1.494827
0.147911
1.412567
-0.664426
0.005327
0.664603
0.438928
1.355917
-0.437536
0.657871
-0.805720
-1.038540
-0.909890
-0.501275
0.417593
1.227198
-0.132198
2.288455
-0.794541
0.830219
1.713409
-1.290869
0.267001
0.772801
1.699080
0.448354
-1.271656
0.295303
-1.463894
-0.864964
0.733500
-0.928875
-0.010992
0.060717
-1.113259
-1.095444
0.997553
-1.376364
-0.481661
1.000500
0.357758
0.023873
-0.024966
1.760694
2.322443
2.773453
0.980036
0.447643
0.253919
1.422734
-0.198867
0.828557
-0.155988
-1.493520
0.418791
-0.887966
0.310948
-0.343148
0.422213
-0.135297
-0.086147
1.009755
1.249495
-1.336403
-0.764420
-1.271116
0.231933
-1.331792
0.733764
1.124629
0.260232
-0.188226
2.257909
-0.767713
0.000606
-0.840666
0.956890
-0.563676
-1.121065
-1.195574
0.264582
0.064899
0.342683
0.098294
-0.695130
1.214523
0.473822
-0.521199
0.950412
-1.327397
0.082435
0.495413
0.081245
0.043323
0.629743
1.538180
-0.250668
1.191138
-1.015329
1.819784
0.401315
0.707328
0.202217
0.245855
0.932594
-0.496964
-1.527712
0.586257
-1.434280
-0.626994
1.070624
-0.431315
-0.748428
-1.366875
-1.206406
0.072459
0.716355
-0.650171
-1.456434
1.364604
1.370665
-1.273544
0.424559
-0.747164
-1.412400
0.933950
0.481790
0.656721
-0.831678
-1.552195
0.589919
0.122810
0.015850
-0.916676
-0.160576
1.624975
-0.325329
0.206249
1.138567
-1.107485
-1.799801
0.128222
-0.196612
2.045829
-0.666299
0.654209
-0.914037
-0.934200
-0.117772
0.486994
-1.217967
0.772556
2.202094
2.006227
0.525089
-1.298561
-0.049938
0.096291
-0.383513
1.755909
-2.825810
-0.859690
-0.883735
0.584251
1.156559
0.533463
-0.773877
-0.567896
-0.654034
0.122989
-0.450699
0.443231
-0.070697
0.367757
-1.479698
-0.017446
0.446509
-1.126340
-0.125364
-0.536088
3.338072
-0.070949
0.727441
-0.236324
-0.726855
-0.002810
-0.395719
0.807846
1.740697
-0.428507
-0.048789
-1.810943
-0.848276
-1.654113
-0.140716
0.449156
-0.390820
-1.069953
0.864825
-1.101227
1.441119
0.229617
1.657087
-1.006863
-0.024153
-2.308353
0.110878
0.592420
0.921437
-0.100129
1.530003
-0.626908
-0.303826
0.020158
-1.789664
1.143070
0.718315
0.188755
0.280762
-0.552255
1.141727
1.029486
0.903053
2.706110
-1.358180
1.909446
-0.439539
0.779165
0.304119
0.140633
0.741741
-0.857343
-1.444738
-0.834210
0.121729
1.066136
-0.496433
0.229579
-0.107541
-1.407339
0.920623
0.468672
-1.694475
1.965294
0.621300
-1.716001
-1.393667
1.975595
-0.339277
1.098902
0.952872
1.082193
-0.714901
0.542019
-3.255986
1.024727
0.892179
-0.981801
1.059763
-0.366481
0.404252
-1.627320
-1.091233
0.307138
0.046354
-2.244278
-0.863214
-0.106974
2.066299
-1.104543
-2.122626
1.191885
-1.386580
-0.969898
1.088244
-0.206345
0.976015
-0.057641
0.572757
-0.717956
-0.118624
1.740832
0.542082
0.624580
-0.827806
1.330317
1.138704
-0.663410
-0.009062
0.417825
-1.681192
-0.224520
-0.042493
-1.904294
-0.345991
1.737590
0.620054
-0.234694
-0.577387
0.049636
-1.689905
0.826180
-0.416574
-0.504720
-1.206345
0.993252
-0.602951
2.814515
0.734729
-0.068436
0.094835
-0.169243
0.027582
-0.106163
0.593422
1.192547
-1.029529
-0.283653
0.133163
-0.439861
-0.253860
-0.696085
-0.292853
0.021485
-0.516660
1.044392
1.471818
0.445888
-0.126035
0.263308
-1.015164
-0.803717
0.479500
0.439264
-0.326388
-2.171856
-1.252313
0.401470
0.330536
0.100866
-0.098396
-0.644867
-0.563646
0.695949
-0.449395
-1.242649
-1.475621
0.978481
1.670667
0.365282
-1.402431
-1.168361
0.528820
1.206283
0.053487
-0.937148
-0.788613
-0.537463
0.173782
0.646382
1.390172
-0.383597
-0.482034
-0.268361
-0.705091
1.098324
1.085559
1.205426
-0.940328
1.097024
-0.120691
-0.825665
1.322489
0.004112
0.354291
-0.826085
1.086145
0.593023
-1.104842
-0.388128
0.767942
0.908829
0.076345
-0.110456
-0.358788
0.759924
-0.471103
0.322161
0.421428
-0.770215
-1.329776
-0.349834
0.722560
1.265071
0.659852
-0.355250
-2.483088
-0.366673
2.057800
0.280852
-0.464423
0.189590
-0.276722
-1.694357
-0.041036
-0.060948
-1.599371
-1.915148
-2.399808
1.487634
-0.166534
-0.911830
0.505955
-0.467535
-0.993364
-1.136690
1.104365
-0.567176
0.564029
-0.202520
-0.041908
0.102094
0.275623
-0.037591
-1.986787
-0.544027
-0.298356
0.214275
-1.795985
0.856918
-2.329360
-0.142056
2.160456
-0.517424
-2.083124
-0.388546
-0.544466
-0.399322
0.192242
-0.146724
-1.915187
-1.834368
-0.772867
0.089386
-1.593611
-0.837096
-0.670690
-0.839826
2.485616
1.834019
-0.422925
-1.887029
-2.518472
-0.348984
0.587690
0.354582
-0.785028
1.246321
-1.385691
0.159104
-1.198331
-1.161810
0.251880
0.978056
-0.135936
-0.829257
0.343088
-0.228417
-0.754246
0.595109
2.181054
-1.583597
-0.555862
-0.127006
0.404328
-0.572278
0.107446
-0.825729
-0.014041
0.729295
-1.528195
-0.083888
1.249651
-0.378236
0.743743
-0.227162
0.847104
0.579659
2.416682
0.100462
0.023477
-0.002687
-0.038914
1.231324
-1.326706
1.027795
0.055949
-1.618148
0.212610
-0.699050
-0.290368
1.169563
1.008348
-0.150047
-0.220396
1.999255
-0.093650
0.045691
0.740129
-1.861175
1.547184
1.039446
-0.082927
-0.146728
-0.906820
-0.119804
0.381578
2.000730
1.186248
0.485059
-1.156445
-0.932397
0.474082
-1.293764
-0.558839
-0.427595
-0.632490
0.053155
1.104591
0.010188
-0.390163
-0.362057
0.655192
1.271350
0.549889
-0.872812
-0.072246
-1.871615
0.429071
-1.275156
0.478576
-0.345757
2.198013
-0.554747
-0.361021
-0.029150
-0.773718
-0.572063
-0.143115
-0.815156
0.948331
0.179488
-1.111030
0.313910
0.627325
1.357325
-0.208132
-2.044971
-0.656060
2.369468
0.492278
0.599322
-1.362381
-1.824451
0.360623
0.566458
0.788727
0.316188
-0.736110
-1.134005
0.381133
-2.214841
-0.303116
0.854813
-1.002189
-0.207829
-1.242453
-0.963483
-1.191522
-1.089288
1.063730
-1.545168
0.802443
-1.633356
1.531303
-0.011843
-0.361469
0.639720
1.502727
0.221623
-0.882567
0.921443
-0.422621
-0.064687
0.053894
-2.197068
-0.682920
0.836387
-0.458493
-2.026078
0.377559
0.490859
-0.393467
0.571772
0.752902
1.419677
0.289189
-1.951749
0.155932
-0.061491
-0.662770
-1.408470
2.082223
0.948879
-0.074563
-0.639934
0.883999
0.779469
0.601777
1.159196
-2.201820
0.761686
1.420008
-0.554334
-0.730154
0.358288
-0.771730
-1.106010
0.798378
-0.671890
-0.090519
1.120220
0.271549
1.518355
-0.807709
0.764606
-1.006332
0.411369
-0.876248
-0.960593
0.633655
-1.253026
-1.152241
-1.177720
0.986375
0.937358
1.276825
1.122490
-0.198014
0.827656
-0.951709
-0.134490
0.887207
-0.816356
-0.281641
-0.566816
-0.998540
1.603545
0.793393
-0.615880
-0.867260
0.855393
0.692134
-1.660243
-0.007386
0.196275
-0.719862
2.579392
0.970406
-0.794294
-1.257794
-0.065532
-0.117661
1.296671
0.749160
-0.855651
0.477297
-1.378119
1.896665
-0.800883
1.005637
-0.519182
2.101432
0.015747
-1.144434
0.680379
-0.128400
-0.536232
-1.477392
-0.737119
-0.895820
0.683213
0.010487
-0.544804
-0.818015
0.612458
-0.248414
1.016744
1.082125
-0.687514
0.178039
1.950939
1.101218
-1.723492
-0.961008
-0.801491
-0.465349
-1.414662
-0.263085
0.611882
1.333592
0.698585
-0.846233
-0.599339
-0.407465
-1.284518
-1.891723
-0.532090
-0.502978
0.152701
0.028542
0.452857
0.239993
0.958442
-1.152673
-0.333282
-2.187861
0.680491
1.557887
-0.348271
0.318227
-0.101696
-0.763095
-0.097918
-1.037169
-0.635337
0.447910
1.927633
-0.097210
-0.700265
0.117687
-1.330304
0.107038
-0.922816
-1.972386
-0.785065
0.632620
0.974009
-1.063370
-1.858388
-0.596685
-0.859555
0.258643
-2.196207
-1.200195
0.014057
0.042003
-1.921368
-2.406467
1.827944
0.181531
-0.293542
-0.317892
-1.224416
0.366865
0.788499
0.472932
0.900044
-0.035863
0.390722
0.496686
-0.021939
0.503972
-0.483376
-1.108545
0.913191
-0.902987
-0.217853
-1.471099
-0.195145
0.639723
0.066632
-1.383459
0.661586
0.078466
-0.310248
-1.371199
-0.468260
-0.937437
2.021718
0.325960
0.184366
1.857006
0.320869
1.565784
1.800475
-2.217009
0.756192
-1.108128
1.516883
0.119371
0.322467
0.033068
0.602368
-1.438154
1.387164
-1.069387
-0.555325
2.220644
-1.796104
0.462141
1.451973
1.802429
0.192008
-1.192716
-1.840591
-0.245771
-0.001991
-1.088115
-2.042291
0.421675
-0.201471
0.889178
-0.658811
-1.122762
0.838604
-1.709350
-0.549152
-0.043319
-0.461613
-0.698355
-1.517989
0.593500
-0.736630
-0.332303
-1.088357
0.120853
1.263786
0.105024
0.610764
0.897000
-0.698766
-0.282688
0.315003
0.837560
-0.939712
2.169714
-0.727347
0.177792
-0.713761
-0.010772
1.218672
-0.812108
0.724217
-0.147043
-1.439427
-0.767215
0.856123
-0.766466
0.702327
-1.248075
1.166957
0.203649
0.419648
-2.181313
0.377616
-0.466112
0.070966
-0.032498
0.187463
0.514605
0.116232
0.790965
-0.263871
0.340621
-0.190387
-0.390522
-0.170447
-0.269726
0.145545
-1.994937
0.280017
0.140540
0.342655
-0.617124
-0.311943
1.074509
-2.052409
0.624514
0.956930
-0.201729
1.869156
1.165960
0.159910
-1.113648
0.057127
1.168009
-0.852630
-0.596289
0.367708
0.870965
-0.734612
-0.066652
0.329606
-1.110295
-0.585527
0.079049
1.763324
-0.007463
0.498866
-0.689013
-0.551833
0.353581
-0.197604
0.283077
-1.356925
1.618199
0.552653
0.245198
0.320602
0.232684
0.121033
1.418246
-0.180216
-0.520606
1.107289
-0.093684
0.191488
0.382322
0.567876
0.389803
1.277950
1.677856
-2.215583
-0.023582
0.338243
-0.114762
-1.044109
0.410064
1.792739
0.475926
-0.823542
1.661314
0.040153
-0.589244
-0.477262
0.104335
0.445991
-0.318903
-0.985567
-1.784827
-0.277932
-1.217553
0.908957
0.681489
-0.389792
-0.435884
-1.753099
0.863884
0.850422
0.672846
1.169271
-1.041288
-0.329609
2.523205
-0.010333
1.016764
1.530709
0.742246
-0.247450
-0.623735
-0.098119
0.027364
1.363820
0.577236
-0.640089
-0.690926
0.460637
0.249558
0.401198
0.093970
-1.269051
0.166763
-1.176523
-1.227115
0.416193
2.092686
-1.310745
1.034115
-0.256553
-2.249243
-0.434627
0.876334
2.180058
-0.895828
-2.427288
0.472219
1.370800
0.988554
1.895460
-0.823797
1.075668
0.965882
-0.465719
-0.899987
0.988558
-0.638789
-0.029428
0.432080
-0.896258
-0.650856
-0.550933
-0.053337
-2.069406
0.650346
-0.071275
-0.721140
1.302995
0.984503
-0.221818
-2.990684
-1.849315
0.853951
0.719992
-0.677525
-0.512208
-0.871986
-0.693466
1.205365
0.109844
-0.363944
-0.334893
-0.043269
2.059986
-0.668017
1.078295
-0.471936
0.966137
-0.524598
-1.404154
-0.078462
-0.887323
0.897188
-1.040253
-1.282250
0.324091
0.226887
0.160656
-0.272565
0.124984
1.690549
-0.775535
0.458540
2.738571
1.681562
0.135802
1.616564
0.995514
-1.099094
0.899426
-1.057048
-0.277609
0.217284
-0.672217
-0.359687
-0.525644
-1.956777
0.280038
0.905371
0.013355
-0.035673
-1.933491
-0.761196
-0.886342
-0.366486
0.649515
0.871243
-2.067306
0.720418
0.678297
1.343366
1.221672
0.119302
1.010427
-1.278569
0.155251
-1.440713
-1.547273
-0.025770
0.883204
0.085660
2.644845
-0.916893
0.626994
-1.727754
-0.522754
-0.018887
-1.053965
-0.821876
-0.273853
-1.526811
1.566001
-0.251408
0.112300
-0.249334
-0.221439
0.462257
1.001687
0.293242
1.291988
-0.200706
-0.797564
1.799650
-0.763940
0.589981
-0.074443
-0.186042
0.062685
0.770242
1.164837
1.816263
0.033984
1.042674
0.092887
0.419234
0.185656
-0.766776
0.454905
0.260724
-0.629080
-0.982265
-1.416132
0.186984
-0.876377
2.689014
-1.905394
0.936496
0.639889
-0.155444
-0.796215
-0.336511
0.745654
-1.393793
0.236044
-0.410051
0.938475
-0.230057
1.188486
-0.879725
-0.291000
0.054420
-0.695506
-0.007148
-1.112313
-2.418339
-0.700754
-1.540882
-0.831039
0.891052
0.740133
1.275286
-0.634468
-0.682744
1.085045
-2.484314
-2.186748
-0.281377
-1.587456
-0.627185
-0.226388
-0.572016
2.124926
-1.731383
1.098878
-0.145612
0.131181
0.166952
-0.217339
0.152330
-0.089699
-1.090519
0.999173
1.077899
0.326780
1.391592
-0.125908
-1.423342
-0.422442
0.886587
-1.892567
-0.744303
-0.943132
-0.431540
-1.222814
0.076768
-0.476671
0.406774
-0.678939
-2.157316
0.922879
1.015054
-0.310137
0.929477
-0.432583
0.458771
-0.158456
-1.352431
1.774993
0.097713
1.836974
-0.562274
-1.039985
-0.687042
-0.003424
-0.582019
-0.810371
0.351563
0.000771
-0.084903
0.331845
0.382524
-0.427329
0.640930
2.724203
-0.864950
-0.377581
0.314801
0.577991
0.049060
0.620944
-0.766641
-0.916624
-0.782910
1.063931
0.533431
-0.264429
0.363518
-1.110178
-0.695467
1.204585
-0.694409
1.640664
-0.843214
0.004575
-0.043568
1.188228
1.457526
0.134816
0.183602
-1.141695
-1.291392
1.470680
-1.906552
0.476209
0.818667
-0.757365
0.168986
0.377054
0.467811
2.084044
-1.433581
-1.642281
0.090221
0.066615
-0.452658
-0.117712
-0.456604
-0.244514
-0.408518
-0.973506
0.525588
-1.340009
0.396650
1.319770
0.840743
0.517320
-0.101879
-0.948871
-2.049067
-1.254722
-0.332833
0.542049
-0.519581
-1.809505
-1.937719
0.053271
0.440221
0.122368
-1.951556
-0.311898
0.429860
0.067652
-1.375586
0.366583
-1.108288
0.924449
-0.795598
1.463601
0.677771
-0.494015
-0.233204
0.446318
1.465876
0.060055
-1.670848
-0.272123
1.320072
0.247340
-0.831850
-0.242764
-0.459911
2.075026
0.565867
0.374940
-0.085940
0.497439
1.367354
-0.083812
0.668669
0.731616
-1.092776
-1.006783
-0.760722
1.019831
-0.816707
0.027767
-0.954180
0.699300
1.013507
1.013248
0.643173
0.328113
0.318938
-0.876691
0.616275
0.303533
-2.051675
0.283774
1.522874
-0.347395
-1.766111
1.297517
-0.679936
-1.384043
-0.350312
0.353976
-0.390774
-0.648823
-0.793346
-0.775256
-0.504379
1.954461
-0.944141
0.395654
0.494265
-1.028548
-0.694806
-1.232443
-0.445668
-0.707844
-0.505114
-1.875637
-0.357352
-0.499805
0.666484
0.359788
2.256363
-0.427371
0.205001
-0.112723
1.177060
-1.183226
-0.117146
-1.021630
-0.436203
-0.077492
-0.280602
-0.652196
-1.212461
1.431188
0.272281
-0.396023
2.017524
1.619348
1.778705
-0.796384
0.913690
0.560860
-2.900200
-0.957500
0.587134
1.209224
1.010372
0.068196
0.339627
-0.761216
0.870944
-1.826209
-0.288878
-0.132035
1.625265
0.129827
0.714166
0.243431
0.985940
1.097455
1.442846
1.503667
1.223046
-0.408980
0.496695
-0.292363
-0.314398
-0.720741
1.159544
0.204406
-1.396853
0.743353
1.019393
0.736619
0.538554
-0.060217
0.708555
-0.220021
0.508573
-1.955827
0.714014
1.234951
0.332398
-0.476855
-0.098641
-0.738061
-2.026464
0.779838
0.345287
0.520041
-0.524364
0.536270
-1.075293
-0.149067
-1.174968
0.115382
0.173717
-0.548837
0.628245
0.528466
-0.645116
0.204054
0.289872
0.448915
0.779942
0.751825
1.555037
-0.226263
0.958454
0.193489
-1.777518
-0.445458
-0.096350
0.165423
-0.929168
1.387117
1.538457
1.204808
2.443059
0.842177
-0.816558
-0.240807
0.631163
1.185794
-0.832443
0.090736
0.143570
-0.286224
-2.007523
-1.594422
-0.285155
1.714779
0.225387
-1.148209
-0.649975
-1.088841
-0.403829
1.223774
-1.425870
-0.712244
0.461033
-0.853889
-0.145639
0.834778
1.216685
-0.533506
2.348615
-0.404660
0.067890
-1.141257
-1.854637
-0.703340
0.987601
0.141890
1.381576
0.760257
-0.795618
-0.088028
-0.623410
0.677569
-0.366370
-0.672106
-0.358788
-1.087969
-0.883504
-0.881041
0.142478
-1.568107
-1.029570
0.170577
0.560330
0.353348
0.122311
-1.213213
0.606275
-0.507514
1.616121
0.366157
-0.871822
-1.970317
1.099785
-1.187031
-0.770584
-1.453163
0.186362
-0.424276
0.764953
-0.696650
2.780527
-0.450705
0.528664
-1.029934
0.091741
0.531331
-1.110219
0.372410
-0.143229
0.166294
-1.560892
-0.766590
-0.389292
-0.934165
1.445108
-2.055127
-1.457327
-1.198345
2.182506
0.516458
0.354686
-1.256771
0.306994
0.566507
0.434155
-0.599180
-0.224494
0.372166
0.384172
0.124157
-0.003667
-0.359994
-0.711140
-0.979604
0.753998
-3.067684
-1.934879
1.104572
-0.547560
1.045188
-0.302442
-1.975185
0.011404
-0.263385
-1.064254
-1.457114
-2.059159
-0.226583
0.052648
0.194102
1.576308
-0.892992
-0.348084
0.187446
-0.123706
-2.138434
-0.908497
-0.982184
-1.401479
0.087158
0.735737
-0.642240
0.956342
-0.488841
-0.926055
-0.928900
-1.217133
-1.326548
-0.875761
-0.074865
-1.216238
-0.548970
-0.655677
-0.160841
-0.160315
0.680405
-0.541165
-0.253127
0.679262
0.007121
-0.177111
-0.754527
0.120492
1.701898
-1.178305
0.464793
0.594438
0.627422
-0.523025
0.158917
0.224744
0.104434
1.086338
-0.590100
-0.340084
0.038618
0.553532
1.788731
0.305515
-0.441196
0.108999
0.135813
-0.576933
-1.566023
-0.102495
-0.331135
-0.863628
-1.483429
0.538958
-0.585714
-0.740526
0.176619
-0.935669
-0.188606
-2.283914
-0.551475
-2.078796
0.028139
-2.068972
1.146959
-0.531268
-2.909053
-0.370251
-0.036824
-0.372782
0.103858
-0.051153
-0.352229
0.973363
-0.770772
-0.187764
1.604616
-0.435629
-0.155647
-0.137817
1.126311
-1.067356
-0.133854
-0.576141
0.363266
-0.367827
-0.820829
0.610549
1.403505
0.532679
-0.928058
-0.966083
0.229307
0.415104
1.472953
-0.338131
0.532260
-0.931658
0.189515
0.287975
-0.602303
0.002123
-0.446102
2.475137
0.990411
-0.507942
-1.269287
-0.399686
0.853929
-0.266177
0.316233
2.059592
-0.046138
-0.501074
-0.220706
-1.335615
1.889797
-2.366751
0.793059
1.582945
-0.439250
-3.016702
-0.605804
0.405624
1.219656
-0.827043
-0.523293
-1.405808
0.573269
1.799597
-0.897984
-1.201882
2.513569
-2.178810
-2.142948
-0.109367
-3.498233
0.274819
1.175766
1.216642
0.450123
-2.193358
-0.083033
0.782706
0.876790
-0.173511
-1.121351
0.115822
0.668818
0.959677
0.241926
0.342356
-0.191200
-1.089469
0.445236
-0.747292
0.279773
0.013776
0.216330
-0.176643
1.658374
0.241582
0.172888
-0.288255
0.044357
1.122212
-0.023246
0.763829
1.151698
1.171615
0.770048
0.739315
0.672671
1.733957
1.157690
0.388469
-0.623032
1.194979
0.315287
-1.273175
-0.370153
-0.404879
0.392428
-0.467380
-0.606968
1.305030
0.675381
0.798464
0.140423
-1.649550
0.294051
0.630225
-0.591112
-1.391635
-0.371200
2.657363
-1.304869
-0.807255
0.751133
0.831519
-0.334411
-0.073609
-0.644127
0.145557
-1.010573
0.669945
0.664686
2.095806
-0.602197
1.487354
-0.197680
0.550173
-0.315883
-0.750738
1.791895
-1.204304
-0.087610
-0.711737
1.174821
-0.132995
0.625148
-0.793230
1.472190
-1.300224
0.589331
-1.749323
-0.462719
-0.870034
-0.408683
1.140333
-0.520487
-0.905040
0.345261
-0.354493
-0.564807
-0.566086
0.136263
0.119073
0.415488
-0.059634
0.993549
1.312095
0.144575
-0.340519
-0.986150
-0.519491
1.605396
0.373030
1.334558
0.153747
0.804062
0.184808
0.809752
-0.497772
0.863835
-0.593289
2.056803
-0.218833
1.473079
1.031220
0.394346
1.509408
0.741519
1.624452
0.494234
-1.356875
-1.007959
-0.070955
0.332965
-1.006962
-0.811136
-0.187506
0.335546
1.604259
0.377695
0.014825
1.134895
1.410490
0.316814
0.527650
1.274980
2.278129
-0.112522
0.093526
-1.349244
0.121449
0.306794
-0.820019
-0.151830
2.551931
-0.518637
-0.162206
1.231955
1.004330
-0.744682
1.573081
0.223763
-0.297299
1.192215
1.164214
1.181259
0.154847
0.753254
-0.049404
0.401506
-1.133500
0.082518
0.982708
0.070300
0.371774
0.852058
-0.388115
-0.027502
0.123317
-0.930192
0.717312
0.011351
-0.097493
1.980677
0.236668
-0.514220
-1.589128
-0.166879
-0.318880
2.303556
-0.327111
0.874618
-1.035158
-1.837770
-1.265927
-0.386340
-0.201536
1.352547
0.098670
-0.138451
1.740424
-1.186440
-0.493492
1.787273
-0.213515
0.467373
-0.554776
-0.846383
0.347300
1.383968
0.981217
1.620911
-1.878609
-0.562255
-0.906639
0.437589
1.797552
0.670814
0.736440
1.560926
0.355641
-0.311906
-0.605820
-1.843144
1.301344
1.375463
1.628291
-1.200262
0.129696
-0.588008
0.112983
1.110761
-0.367568
-0.039533
0.281136
-1.473840
-0.530082
-0.508178
1.396192
0.433055
-0.180784
-0.577246
0.501399
-1.087315
-1.090756
0.723304
-0.558890
0.890219
-1.407025
2.329055
-0.929497
0.288329
-0.910086
2.410417
-1.146654
0.980766
0.247662
0.136726
-0.387488
1.304784
-0.478865
-1.304540
-1.511397
-0.252019
-0.824182
-0.796530
-0.404071
-0.953246
-0.612722
0.102866
0.416994
-2.223740
0.353769
0.631328
0.410056
-0.084476
-0.032233
-0.237266
-0.433260
0.117931
-0.525019
0.800331
-0.888590
-2.976198
-0.837063
0.176379
-0.559429
0.738806
0.396018
-1.294071
0.859371
0.315399
0.230512
0.008320
-1.134047
-0.660152
-1.064102
0.336689
2.486974
-0.639049
0.651996
1.666273
0.607387
-0.347556
0.915288
1.049863
-1.388040
0.015398
0.028107
0.161770
-0.367869
0.104603
-0.304862
2.809709
-1.636800
0.612772
0.476562
0.924489
-0.140622
1.007175
0.013756
0.834840
-1.084462
-0.017654
-1.469576
1.396643
0.872691
1.710066
-1.433540
-1.630267
-1.144875
0.300483
0.025597
1.172260
0.414401
-0.416669
0.559381
0.470923
0.336608
1.113413
-0.538238
0.553464
-0.505549
-0.476469
0.492813
0.221578
-0.180630
0.069403
-1.077934
0.344490
-0.032458
-1.101899
-1.693863
0.167640
-1.206968
0.326337
-0.269985
-0.690641
-0.028101
0.989145
-0.546539
-2.941832
-0.619766
-0.737958
0.524011
1.857574
-1.230479
0.153333
0.577024
-2.708479
0.239293
-0.265994
-0.235928
0.055716
0.581070
-0.888943
0.720719
1.565022
0.527134
-0.070833
0.830537
0.776592
1.206535
-1.520959
1.742094
-0.748266
-0.757705
-0.622482
0.838432
0.636181
-0.844713
1.194585
0.244833
-0.353678
-1.309115
0.586207
0.556848
-0.398848
-0.526265
0.371128
-1.008977
0.203244
-2.168541
0.045142
1.339235
0.606549
-0.080410
0.633848
-0.159292
0.564101
1.425684
-0.588101
-0.976230
-0.985222
0.767380
0.008000
-1.467949
0.929716
0.613989
0.738132
-0.647510
0.319608
-0.028044
0.958949
0.050397
0.092273
1.162725
-2.413944
1.163801
-0.623755
-1.270255
0.655280
0.369095
1.718714
1.004672
-0.564026
-0.438170
0.694332
-1.537486
-0.020300
-1.209293
-1.488444
2.215670
1.319445
0.313081
1.087648
-0.269071
-1.137999
-0.872676
1.472703
1.293901
-0.628476
-0.121963
-0.253667
-1.130678
1.191278
-1.922377
1.462276
-0.201012
-0.747758
-0.153409
-1.053197
-0.260585
0.062351
-0.395222
-1.316392
0.025649
1.210876
0.246025
0.695586
0.820329
0.280154
-0.889251
0.452695
0.973083
0.596722
-0.321739
-0.664106
2.780571
0.622674
-0.442671
-0.866989
1.787512
0.422501
1.897190
1.052931
-0.601427
-0.427708
1.885220
0.487872
-1.352165
1.043165
1.010592
-0.803243
-0.127458
1.129318
-0.663514
-0.276433
-2.405154
-0.339836
-0.749654
-0.198684
-0.666637
-0.098860
-0.192640
2.027924
-0.740951
0.154782
0.539677
0.806785
1.129928
2.318466
0.373713
2.144702
-1.012057
0.184178
0.280923
2.569633
-0.159352
-1.098443
-0.692120
-0.161770
0.722757
-0.575926
0.459596
2.680452
-0.832039
-0.837196
-0.819864
0.386788
-1.519950
-1.024720
-0.138709
0.278045
-2.443650
-1.840639
-0.836600
-1.837266
-0.095788
-0.965413
0.283420
1.018104
1.862397
-0.786084
-0.157427
1.530816
-1.314229
-0.788991
-0.668198
0.021815
-0.521667
1.120121
0.311178
0.004704
-1.295515
-0.610058
-0.605822
-0.228599
-0.496740
0.646729
-0.723192
-0.534339
-0.476139
1.561911
0.552144
2.397033
0.020715
-0.537996
-0.901422
-0.891497
1.668575
1.201181
0.571929
2.229220
0.369582
-1.644031
-0.369906
1.162845
0.952408
1.598208
-0.527194
0.193914
1.715541
0.050307
-0.093694
0.045120
-0.771116
-0.085807
-0.087648
-1.428786
0.097678
-0.917639
-1.815350
0.779298
-1.467273
0.469257
0.719827
-1.426439
0.137512
-1.297572
0.867519
-0.670406
0.674134
0.867798
-1.530869
1.715612
-0.551684
-0.479102
0.553523
0.074924
0.320444
-1.528763
-2.335435
0.355731
0.915545
-0.224085
0.474892
-1.051009
1.142461
-0.642785
-0.998950
1.001676
1.100305
0.781428
0.299755
-0.790775
1.309002
-1.026401
0.711888
0.282218
1.945873
-1.493824
-2.088354
0.092043
-1.258437
0.654801
-1.654156
-0.587123
2.157428
-2.599562
1.234439
0.465399
2.339827
0.719524
0.199273
0.631472
-0.279344
-1.280331
0.719015
-0.285712
2.393846
-0.440692
0.819580
1.823068
1.261520
-1.557913
0.657407
-2.231831
0.932426
-0.008288
-1.086532
-0.410283
0.601761
0.078880
-0.054402
-1.457775
-0.449287
-0.518544
0.071029
1.039778
1.216741
0.108801
2.421905
0.487976
0.788971
0.355185
-0.096930
0.284375
0.375437
0.491529
0.349261
0.501863
2.815518
-0.751058
0.322378
0.094397
0.430001
-0.317027
-1.335116
1.417994
0.085460
1.018554
-1.072538
-0.648852
0.896145
0.455640
-0.794754
2.097498
-0.872553
0.138329
0.289327
-2.042220
-0.432552
1.355598
0.481610
0.047616
0.744503
0.464546
-2.398292
0.917407
-0.624370
-0.024007
1.529208
-1.657228
0.337573
0.167994
0.599177
0.227570
0.561393
0.776506
0.547511
0.318282
1.481295
0.677579
-0.568013
0.843241
0.191975
0.004186
-0.027149
-0.232617
-0.141378
-0.769430
-0.105918
1.243474
-0.084411
1.040095
-1.978805
1.230059
-1.563509
1.343334
0.260058
0.259342
0.000270
-1.559316
0.634683
-0.873665
0.942354
0.613682
-0.458858
0.557990
0.911472
-0.758339
0.820145
1.022844
0.335324
1.498290
-1.853995
-0.369657
1.654478
0.821655
0.318765
3.156894
-0.243850
-0.218085
0.066430
-1.257488
0.717562
0.503367
-1.873130
0.984319
0.365900
0.708286
0.396651
-0.132827
1.338217
0.696906
0.367486
-2.700288
0.429908
-0.411821
1.241184
2.503466
0.526441
-0.363721
-0.682441
0.497411
-0.331989
-1.641303
1.312052
1.454437
-1.033316
0.568446
-2.608839
0.965420
0.777515
2.609498
-0.099363
-1.077470
-0.326882
-0.457989
-3.454607
-1.190113
-0.355200
0.352952
0.172901
0.998052
-1.214354
0.400085
-0.090654
-0.424448
0.975918
-1.642016
1.020929
-1.180861
0.838851
-0.558625
0.912397
0.999016
-0.355749
-1.468160
1.454564
-0.645171
1.084860
-0.269834
-0.815175
-0.961859
1.945285
-1.051094
-0.099019
-0.783926
-2.185516
0.002206
0.111703
-0.246789
-0.611377
0.853086
0.945395
-0.535321
-0.177921
0.422085
0.772751
0.643771
1.201652
0.563061
-0.198622
0.416300
0.385313
-0.235300
-1.700712
-0.405855
-0.589109
-2.041343
-0.082934
1.189210
-0.934835
-1.268596
1.775259
0.127364
-0.809584
-1.046637
0.898174
0.064419
0.736351
-0.245242
0.118923
1.108310
0.399886
0.867925
0.775871
-0.609110
1.237872
0.648195
-0.380949
-0.849940
0.102464
-2.231427
-0.538732
-0.945582
0.984199
-0.988767
1.898960
0.331445
1.514543
0.234350
1.178142
0.107633
-0.401795
0.996984
0.450454
-0.165148
0.376285
0.571446
-0.351112
1.740622
0.029398
0.086460
-0.126885
0.475974
-0.310919
-1.316018
0.913001
1.385963
0.842229
0.533816
1.841229
0.629335
0.545927
-0.920238
0.515255
-0.049665
-0.795826
0.762689
0.276654
-0.021651
1.492465
2.951025
0.638399
-0.530930
-1.083618
-0.068002
0.584659
-0.894469
2.530496
-1.420870
0.356830
0.290184
1.627535
0.083873
0.193406
1.078146
-1.282212
0.154075
0.658921
0.712957
0.878929
1.820841
-0.047010
-0.322219
-1.030259
0.140268
-0.011262
0.439723
-1.036391
-0.169328
0.935164
1.993319
-0.745580
-0.306795
-1.570521
0.166711
1.376842
-0.224043
0.718787
0.842721
-0.517446
-0.593858
-0.119670
-1.207466
0.196803
-1.861172
-0.509570
-1.883373
-1.258084
2.201095
0.547116
1.017588
3.192402
-1.009543
-0.302071
-1.421000
-0.855783
-0.458833
0.095298
-1.530769
-0.411843
0.058542
-1.104415
0.046414
0.484670
0.052110
-0.933994
-0.606381
1.347097
-0.922123
-0.024933
0.273960
-1.293150
0.078654
0.579998
-0.608096
-0.729718
0.973933
0.078813
0.202721
1.657442
0.979426
-1.330735
0.446387
-0.329590
-0.729894
1.643887
-0.233824
-0.295728
0.597232
0.942125
-0.600949
0.191978
1.573317
0.794159
-0.171034
1.360533
-0.051103
-0.063829
0.491988
3.413761
1.342458
-1.125108
-0.114298
0.040922
-0.520783
0.988094
-0.515687
-1.278937
-0.239509
-0.325355
-0.869696
0.363864
0.587285
-0.353142
-0.610887
0.657424
-0.185167
0.252785
-0.774479
-0.651488
1.118992
0.630291
-2.564649
1.021131
2.472869
1.148540
-0.565841
0.716337
-1.171469
-0.936124
0.476945
-0.901179
0.914986
0.581567
-0.587384
0.887261
0.810558
-1.629157
0.350997
1.231870
-0.641471
-0.466438
-0.960245
1.159541
-1.022601
-1.904245
1.022980
0.365094
0.839747
-0.316669
-0.860076
0.048432
0.387589
-1.500879
-1.144574
-0.035584
-0.971320
0.166380
0.882665
1.933587
-0.627052
-0.058203
-0.587945
0.546738
0.571793
0.286851
-1.206090
1.741988
0.413034
-1.370023
-0.602158
0.763052
-3.038646
-1.639796
0.932274
-0.348216
2.186995
-1.186337
-1.446002
-0.739984
1.059911
-0.425990
1.055182
-0.008414
-1.292112
1.341988
1.111765
0.314903
1.286145
-0.134435
0.808211
1.066197
-2.052082
0.166785
-0.178102
0.629830
-1.286648
1.597842
-1.930343
-1.562723
0.677024
-0.652858
0.451332
-0.249172
0.061967
0.492419
1.069556
0.932764
-0.443952
-1.006533
1.486166
-1.164368
0.423003
-0.096421
-0.759180
-1.115006
-0.189729
-0.607209
1.588974
-1.225105
-2.026329
0.543886
-1.126533
1.415587
0.379008
0.715151
0.289021
0.737839
-0.476669
-0.509952
-1.865167
-0.060327
0.876644
-0.349759
-0.555315
1.520838
2.314715
0.988879
0.206756
-1.645163
0.305974
0.292115
-0.043977
-0.809159
0.690194
-0.442091
-0.337814
-0.181913
-0.877454
2.129753
-0.009147
-0.766744
0.585405
0.464790
0.088863
0.038775
0.699898
1.342615
0.159104
0.840561
-0.317553
0.008113
1.412008
0.891217
0.328180
-1.028432
0.444321
0.387561
-0.464089
2.313191
0.386740
1.736566
-0.134517
-1.160697
-0.225086
0.499823
-0.074767
2.169528
-0.276613
0.074184
-1.252275
0.690413
-1.510751
-0.603330
1.259095
-1.358674
-0.200804
0.641636
0.479287
0.270161
-1.038497
-0.522298
-0.234131
-1.481592
-1.308002
1.183423
1.472754
-0.638220
0.282803
0.309415
-0.213970
-0.106648
-1.211063
-0.071176
0.586408
0.997515
-0.713343
0.209946
-0.718185
1.127877
-0.464391
-0.923728
1.422018
-1.361804
-0.580979
-0.173425
1.693498
-1.108642
-2.109829
-0.230089
-2.263262
-0.363197
-1.068123
-0.454172
1.215154
-0.015637
-0.223709
-0.214900
-0.224800
-1.974827
-0.034832
1.191914
-0.658010
-1.386266
-0.414131
1.493206
2.237192
1.021745
-0.201973
-0.278263
-0.807279
0.599136
-2.380798
-0.929889
0.499484
-1.130092
0.775972
-0.602669
-0.523989
1.264950
0.105665
-0.456609
0.246413
1.058792
0.126139
-1.883141
0.028160
-1.792955
-1.387889
0.100864
0.139736
-0.455756
0.098995
-2.293153
-1.917012
0.374882
0.243613
0.344854
0.056260
-0.056825
-0.744768
-0.048396
-0.302410
0.851910
0.846590
-0.155347
-2.095214
0.037701
-2.509707
1.381232
1.198702
-0.308652
0.723465
-0.172149
0.321627
0.647489
0.628781
-1.819607
1.338759
-0.210089
-1.013050
-0.374740
1.428741
-1.361535
0.001115
0.707105
-0.507800
0.820076
-1.271833
0.290766
1.701687
0.653616
-0.747501
-0.880678
-0.365307
1.602440
0.172485
-0.175821
-0.885507
0.182342
1.923104
0.179017
-0.278195
-1.607288
0.127034
-1.685431
-0.061879
0.624535
-0.163130
2.319472
-1.893860
-0.193568
-2.337178
-0.857165
-1.495799
-0.939337
-1.012604
0.918309
1.138274
-1.545382
0.107995
-0.705082
0.176999
1.130785
-0.380149
-0.257913
1.171495
0.246914
1.096214
0.390181
0.565285
-1.043544
0.702255
-1.302854
-1.139878
-1.300429
-0.350465
0.761896
0.970908
-1.475569
1.398938
0.799119
-0.743433
-0.062462
0.025947
0.824912
-1.432608
-0.153378
1.340465
-1.417361
-0.534936
-0.715457
-0.027413
1.866058
-0.963343
-0.331984
-0.472310
1.258761
-1.590998
-0.266010
-0.075723
1.126123
0.577055
-0.207214
-0.002650
2.730202
-0.536660
1.140876
0.212958
-0.303581
-0.901756
-0.677553
-0.356427
-0.065634
1.214013
0.321051
-0.481529
-1.969183
-1.570103
0.093497
-1.157471
0.486398
0.916765
0.618264
0.633240
1.267516
1.600150
0.297956
0.290520
1.115623
0.439094
-0.296385
0.783818
0.409947
-0.756638
-0.909367
0.780187
-1.118934
-0.275083
0.155316
1.142780
2.549104
-1.157471
0.733136
0.260166
-0.004913
1.018774
0.168975
0.881597
-0.719263
-0.255629
-0.082621
0.538537
-0.438980
1.349638
0.660491
-1.279348
1.573289
-1.307930
-0.310252
1.805713
1.225662
-0.810590
-0.471670
0.790751
-0.287888
0.158230
1.244813
0.424455
-0.257175
0.301757
-0.155631
-0.690968
-0.721828
-1.945914
2.658208
-0.624539
0.769379
0.144758
0.017434
0.813133
-1.075362
2.516456
-0.127386
-0.362180
-2.038836
-1.051151
1.410772
-0.326385
-0.755744
-1.461710
1.171450
0.374677
-0.416961
-0.506452
0.915858
1.636212
-0.542207
0.730674
0.923072
-1.257388
0.283385
-0.079548
0.206948
-1.208805
1.915950
-0.173239
-0.785106
-0.900359
0.074137
0.393836
-0.403152
-1.281152
1.349688
0.367301
0.735660
-0.628963
-0.384288
-0.607766
-0.997702
0.269580
0.939277
1.140877
-0.112773
1.364293
-0.175713
-1.107000
-1.777374
0.264954
-0.349137
0.030250
0.836655
-0.961847
-1.659369
1.337615
0.782927
1.787091
-1.403661
-0.196959
-1.135126
0.112105
1.557807
0.681491
1.370871
1.832450
0.322796
-0.627854
0.162435
-0.367563
0.112582
1.287431
-3.444356
1.300258
-1.230812
0.724334
0.675215
-0.081629
1.405430
0.147342
0.888839
-0.170537
-1.978697
0.419298
0.948740
-0.505147
-0.912327
0.041509
0.667173
-1.056162
0.574393
-2.500646
0.034152
1.662434
0.031669
-0.769779
0.086767
-0.088698
-0.008709
-1.539949
-0.478796
0.926048
1.106713
-2.139637
0.359514
-0.565788
-1.447476
-3.092944
-1.430971
0.778072
1.282923
-0.574077
-1.299839
-1.074241
-1.658709
-0.688763
-0.097078
0.133006
-0.602061
-0.764828
-0.065553
-0.131745
-0.010131
-0.974872
-0.192828
-0.305996
0.526298
1.194769
-1.859490
0.223804
-0.058827
-2.243655
0.244495
-0.531969
-0.195844
-1.169835
0.262865
0.718408
-0.320732
-1.159502
0.790690
0.047038
-1.797084
-0.044755
0.617099
0.584956
-0.068824
1.264034
-1.181479
0.774665
0.581732
-1.354600
-1.898483
0.954348
0.484550
0.405809
0.570022
-1.564881
1.879864
0.721541
-0.286312
1.453507
-0.664245
-1.706598
0.825243
-0.166648
1.150150
-2.699474
0.125787
0.632275
1.046091
0.504205
-0.033565
0.626562
-2.169653
1.056390
-1.820536
0.189535
0.283929
-0.037670
-0.345358
-0.661517
-0.496352
1.051109
-0.653635
0.965242
-0.945933
-1.697155
0.192625
-0.730615
-0.476719
0.978011
-0.719172
2.451581
0.319701
-0.163005
-0.467931
0.046715
-0.938252
0.776002
0.081425
-1.085654
-1.435926
-0.675608
-0.128658
-1.701463
-1.046720
-0.845117
-0.889275
0.428541
0.490244
0.742167
0.546759
1.306158
1.179640
0.838710
-0.504639
-0.740822
0.405840
-0.228977
0.974998
-1.275466
-2.684780
-0.136099
-0.451136
0.516389
-0.199045
-1.148911
0.414056
1.165356
0.475827
-0.199625
-1.437352
-0.235831
0.450421
-0.265635
2.302465
0.349378
-0.747676
-0.948394
-0.901100
1.014969
-1.359313
0.390790
-0.178373
-0.298274
-1.172220
0.505038
0.744159
1.743095
-0.844820
-0.371138
-1.764475
-0.552130
0.977399
0.001553
1.110612
-2.209406
-1.374519
1.175667
-0.933058
-1.089784
-1.863129
-0.381592
-0.517860
-1.647212
-0.102499
0.399553
-0.164176
1.385848
0.351997
0.560062
-0.270981
0.290898
-0.836204
-0.155458
0.886675
-1.313143
0.628418
-1.666902
0.412564
0.068447
-0.483197
1.237356
-0.295348
-0.917930
-0.936558
1.664413
-1.386169
1.586689
1.028456
1.710834
-1.611702
1.360663
-0.205289
0.556441
-0.361665
-0.161785
-0.030489
1.318105
0.311177
1.381582
-0.163029
-0.299319
1.128779
0.764661
-1.469580
-0.009899
0.221667
0.064142
0.365086
0.755133
-0.341191
-1.766006
0.795731
-0.532742
-0.545281
-1.238243
1.055348
1.680136
-0.215068
1.133866
0.848531
0.240754
-0.764682
0.050807
-1.261617
1.249530
0.549228
-2.176220
0.554088
1.546844
0.674235
-0.080460
-1.210289
-1.011749
0.215215
-0.773351
0.959853
-1.378094
1.305097
1.324211
-0.379512
0.461145
-0.248872
-1.263074
0.228044
0.294179
-1.553138
0.773483
0.161589
-1.452558
0.467037
-0.362287
1.347430
-0.737804
0.429713
-2.114208
0.420321
-0.442188
0.551399
-0.468850
-0.587153
-1.176345
-1.442998
-0.219075
0.803424
0.737828
0.119234
1.801762
-1.091571
0.282230
1.084330
-0.393178
-2.298782
-1.820234
-1.721992
-1.287459
1.304329
-1.134118
1.110566
2.020349
-0.415345
-1.539495
-0.702033
0.351659
-2.312551
0.566967
1.182944
1.237478
0.544458
0.870868
-1.514764
0.217921
0.756544
-0.529298
-0.258682
-0.130766
2.287201
-1.017534
-0.063102
-0.362296
1.336525
0.813482
1.314688
-2.067075
-0.754575
-1.368743
-0.370346
-0.417935
-1.402460
-2.199560
0.473803
0.436737
0.700055
-1.171114
-0.368374
1.058993
-0.948682
1.661220
-0.683202
-0.748760
-0.795643
1.038438
0.242243
-1.041661
-0.185748
0.890041
0.024560
1.678701
1.852316
0.981116
-0.141227
1.172280
0.320360
0.882143
-1.038656
-1.361603
0.740013
-0.934593
-1.161794
1.606646
-1.646195
0.846623
0.806474
1.709623
-1.883577
0.341409
0.307771
1.557602
1.010470
-0.216668
-1.229834
0.968800
0.728410
-1.293628
1.271971
-0.386959
-1.524594
0.278603
-0.047004
-0.238056
1.258174
-0.568787
0.058150
1.712739
-1.057063
-0.115771
1.313735
0.732482
-0.353386
0.079705
-1.126212
-1.324377
0.944682
0.918388
-2.138607
-1.240657
1.125733
-0.734738
1.481307
1.768126
0.320437
-0.190607
-1.660184
-0.110055
-0.312636
0.142118
1.176250
-0.564906
1.990233
0.251196
0.323495
-0.579908
-0.352763
0.846150
-0.387123
1.243159
0.037704
1.216574
-1.281075
-0.240976
0.471608
-0.042525
-0.139342
-1.396819
-0.329700
0.600069
0.317419
-2.468866
-1.284977
-0.080511
-1.738647
1.136928
-0.259570
-0.365473
-1.857897
-0.133591
-1.278832
0.990037
-0.193225
-0.106181
-1.177251
0.508405
-1.678449
0.480267
0.091328
0.321587
1.450658
0.674032
0.132675
-0.213658
0.585363
2.854449
0.931791
0.415950
-1.543404
-0.996274
-0.736921
-1.232834
1.055906
-0.073355
0.401026
0.530708
-0.427505
-0.990431
1.729967
-0.585893
-0.114393
0.334374
-0.567576
-2.020835
-0.017989
-1.012890
1.777198
-0.102368
-0.692046
0.403973
1.222573
0.350141
-0.815013
-1.371778
-0.438781
0.446301
0.227307
1.024884
1.190592
-1.697191
0.715656
0.562066
1.354388
-1.137008
-2.078305
0.154461
0.345243
-0.730243
1.226597
1.310079
1.221714
0.559232
0.514555
-1.028038
0.513975
0.011957
0.592495
0.003679
0.758477
1.219999
-0.290689
-0.064143
1.399632
-2.068545
-0.530665
0.420716
0.592028
0.992726
0.622623
0.128790
0.510710
-1.136935
0.973511
-0.440966
0.089120
-0.868053
0.209915
-0.088601
2.029536
0.527303
-0.851744
-0.625188
-1.422901
-0.855657
-0.086090
-0.500469
2.338273
-0.848561
-2.412529
-0.854058
0.554720
0.588754
-1.354004
-0.959735
-1.497039
-0.929281
-0.443432
1.850379
-0.950172
0.055337
-0.884060
0.870334
-2.243535
-0.113954
-0.267945
-0.809769
0.023990
-1.186653
-2.329020
-0.151875
-0.278127
-1.219254
1.632259
-0.173828
0.534276
-0.730513
-0.866313
2.482150
-0.577692
1.097216
0.535046
1.409115
0.729484
0.764357
-0.375671
-2.284027
-0.487770
2.135362
-0.981946
0.362446
0.457886
0.718083
0.283574
-0.350602
-1.185575
-1.076072
-0.555616
0.062649
0.095160
1.412528
-0.657785
-0.289129
1.144590
-1.021718
0.092417
0.012290
-0.194475
0.407304
-0.084913
1.122404
-1.196119
1.483509
-0.444087
0.617564
-1.867724
0.658876
2.036866
1.339228
-0.581590
1.776762
0.280241
0.658794
1.564717
-0.339184
-1.440965
-2.141414
0.912362
1.512854
-0.212919
0.275800
-1.145670
-0.537475
-0.079647
1.206960
-0.161338
0.693593
-1.120359
-0.320581
1.279203
-0.737889
-1.183546
-0.826855
0.961482
1.302562
-0.102180
1.194532
-2.196496
0.301030
2.399470
-1.213034
-0.112402
1.742288
2.269594
1.352208
-1.024512
-0.630514
-0.514228
0.185034
-0.972512
-0.632891
-0.546317
0.513614
-0.854887
0.065965
-2.006318
0.982828
-1.616279
-1.500553
0.255862
-1.927203
-0.603368
-0.779454
-0.200505
0.415567
-0.027932
-0.480026
-1.209429
0.137959
-1.053392
-1.365979
0.203322
0.440923
0.540280
-0.800614
0.058259
1.395108
0.270015
-0.556265
-0.983573
-0.489845
-0.795749
1.089870
1.317771
1.946589
-0.334486
-0.718100
-1.661079
-0.379610
0.319299
-1.575442
0.907061
0.432239
-1.745816
-0.006551
-0.619672
0.678425
-0.049034
-0.864413
0.636083
0.030511
0.036405
0.060909
0.849275
0.034758
0.648602
-1.154408
0.100975
0.139674
-0.359682
1.185720
-0.439996
0.797549
1.471505
2.316161
0.268560
-1.125318
1.587341
-2.021140
0.296571
0.895305
-1.226831
1.846047
-0.296080
-0.069885
0.852824
-0.656775
1.993813
-0.147082
1.039258
1.067032
-0.323912
0.408063
1.032559
-0.654648
-1.491875
-1.746998
1.356294
0.699276
0.722780
-2.004413
0.731671
0.494703
-0.345422
0.477344
-0.458940
-0.784526
0.146218
-1.684312
-1.293848
0.044795
1.507220
2.430394
1.871718
1.164150
1.237030
1.984085
0.085636
1.397276
0.550015
1.019406
-0.631598
0.221384
2.283630
0.539622
1.416208
1.203282
-0.692892
2.007243
0.561615
2.494745
-0.213611
1.696031
1.097488
-1.048686
-0.140509
0.225684
-2.588494
-1.043730
0.157480
0.587991
-1.948374
-0.716504
-0.122759
1.844231
-0.032461
-2.017867
1.070984
-0.176178
0.205252
0.971239
-1.079158
-0.518488
0.082271
-0.449113
1.465084
0.281807
0.905628
-0.288116
1.276259
0.654240
-1.707597
-0.916683
-0.488170
-0.155315
0.004116
0.077090
1.766969
-0.245152
-1.440358
0.014993
1.480296
-0.190962
-0.853444
1.075856
-1.596937
0.038255
-0.110277
-0.902585
-1.206130
1.234586
0.827039
0.062641
-0.684326
-0.703599
1.775253
2.685365
-0.320076
0.023552
-0.946430
0.627402
-0.467502
1.053270
-0.873441
0.682728
-0.267256
1.703366
-1.666312
-0.500691
-0.544623
-0.969649
-0.190813
0.743441
-0.948158
1.580791
0.770359
1.635453
0.595453
0.920204
-1.590777
0.606532
-2.261911
0.153776
-0.291771
-1.171321
0.773679
0.215058
-0.237464
-0.284584
-0.093040
-0.819871
2.449067
-1.951719
1.892913
-1.514408
-1.635988
0.334969
0.206776
-0.343974
-0.212700
-1.249980
-0.468221
0.724450
-0.833997
0.213542
-1.413959
2.220280
0.119885
-0.215023
2.055004
1.567809
0.162845
-0.720890
0.740695
0.649597
-1.078900
-1.141830
0.606022
0.619650
0.184553
1.366435
0.423634
0.149567
1.911295
-0.509135
-0.855153
0.529147
-0.221170
-1.049491
0.183678
-1.326660
2.137765
0.641286
-0.734991
0.001309
-0.752330
-0.123902
0.302667
1.173082
-1.151296
0.353483
-0.075823
-0.322824
1.620242
0.806999
-2.379378
1.365147
0.963594
-1.130138
0.589139
0.430956
-0.782313
-0.389325
-0.232314
-0.464895
-0.176199
0.487908
-0.882344
-0.417439
-0.451277
0.811157
-1.756301
-0.074744
0.456892
0.365440
-0.087394
0.851559
0.915469
1.137239
0.205287
0.634852
0.454768
0.012300
-1.157051
0.099004
-0.418404
0.259372
2.455624
0.955056
-0.818994
0.969346
-0.509316
0.569505
0.170703
1.582082
-0.752487
0.111513
-0.218227
0.567742
-0.520554
-1.003984
-0.755716
0.360790
-0.744239
-1.592333
-0.357728
0.414057
0.968096
-2.661842
-1.376095
0.906342
-0.024574
-0.840434
-0.878926
-0.278865
0.363896
-1.873278
0.616545
-0.169497
0.911698
0.286581
0.452514
0.477509
-1.147361
-0.167681
-0.478525
1.682139
-0.058462
0.820671
-0.254477
0.059228
-0.530809
-0.410824
0.120558
0.093946
-1.355996
0.392747
-0.155527
0.112950
0.194437
-0.198319
-0.777635
-1.096831
-0.275769
0.346773
0.232952
-1.315845
-0.909269
-1.029465
-1.467338
-0.731989
-0.054439
-1.550000
-0.617900
0.529070
0.789036
0.454980
-0.175563
-1.240778
1.116724
1.136171
0.452930
0.288308
0.872856
0.192379
-0.500860
-0.408732
-0.623324
1.072654
-0.692688
-0.100926
0.521443
1.348104
0.114845
-0.934969
0.343195
-1.230378
0.176185
-0.952808
0.425136
-0.048222
0.805631
-0.220160
-1.161641
-1.176842
-0.630871
-0.771793
-1.516500
-0.919216
-0.578171
1.152884
1.705708
1.079340
-0.162905
0.407661
0.748767
-0.145340
-2.254937
-0.876149
-0.320260
1.734117
-0.212503
-0.584321
2.666103
-1.522719
0.894560
0.538186
-0.143735
0.626572
-0.430484
1.252380
-0.097332
0.551193
-0.588249
1.135685
-0.395682
0.806511
-0.427158
0.405630
-1.634804
0.929539
-0.494095
-0.653086
-0.661225
-0.516916
0.091678
0.823534
-0.073673
0.733386
-0.054017
0.492736
-1.406757
0.060002
-2.544538
1.443544
-2.763960
-1.073044
1.805049
-1.467363
0.712568
0.045349
0.290968
1.037239
0.358329
-0.951336
1.199382
-0.438004
-0.005885
-1.004571
0.048919
-0.206664
-0.358862
0.597005
0.216570
-1.477444
1.148064
-2.143583
0.222886
-2.306081
-0.262055
0.186319
-0.679468
-0.047358
-0.759285
0.233039
0.448917
0.535523
0.076604
-0.716067
-1.137349
1.801871
-0.391684
-1.535963
0.110477
1.288295
-0.082997
2.626088
0.690081
1.187104
0.168148
1.863034
1.417470
0.179293
-0.219217
1.813057
-0.600177
-0.869071
-0.173625
0.385940
-0.098612
-0.752728
-0.904235
-0.576511
0.528085
-2.499743
-0.432549
-1.041753
-1.104813
-1.754711
-0.234774
-0.579397
-1.196046
-0.731688
1.496529
0.250743
0.720566
0.923279
-1.227770
0.197472
-0.018192
0.001409
0.167870
0.235706
-0.997278
0.509930
-0.457209
-0.711263
-0.454933
0.680524
-2.598022
0.996693
1.944551
-0.544979
0.750330
0.513042
-1.193578
-0.302671
0.612854
0.391275
0.042236
-0.484515
-1.828984
-1.003402
1.004232
-1.519728
-0.167079
-0.502145
1.319918
-0.408062
-0.383712
-2.233001
1.852344
0.008394
0.008752
0.512583
-0.009005
0.170587
1.123662
0.130651
0.499662
-0.844738
-0.546411
-0.856498
1.952973
1.158300
-1.034105
-1.839615
-0.591003
0.331239
-0.355186
0.177630
-2.250362
-0.165442
0.261201
-0.481917
-0.552764
-0.149119
0.569118
-0.865626
0.478122
-1.789897
0.155224
0.678681
0.425574
0.789918
-1.515816
0.971523
0.008236
-0.302035
-0.465630
-2.400434
0.792758
0.433127
-1.824772
1.842042
1.028169
0.348911
-0.346850
0.177324
0.696249
1.085195
0.961292
0.108033
-1.094753
-0.521093
1.080824
-0.859284
-1.245258
-0.221821
-0.098749
-0.158898
0.503417
0.188591
1.611339
1.314287
-0.447632
-0.120109
-0.443892
-1.221282
-0.707732
-0.588456
-0.567590
1.342221
1.046420
-0.044679
-0.440547
-0.104815
-0.220790
0.525816
-0.981472
-0.217622
1.441742
-1.215234
-0.067205
1.602612
0.415718
0.443356
-0.386502
0.536052
-0.456216
0.639631
0.484128
0.051251
0.067270
0.396119
-1.505563
-1.433012
-0.378369
1.396479
-1.269253
0.562531
-1.261756
-0.672314
1.008182
-1.255134
-0.580485
0.188614
-1.561059
1.151840
0.856763
-0.760592
0.266360
-1.689845
0.666615
1.598981
0.207628
-1.494940
0.250025
0.496192
1.282208
0.881682
-0.009829
-1.122950
-0.410197
-1.130354
1.162764
0.713009
1.580450
-0.909776
0.861576
-1.014636
-1.675126
1.099446
-0.579813
2.553860
0.377435
0.685966
-0.084625
-0.196926
-0.654246
1.054227
0.691193
-0.126297
-0.623479
1.225283
-1.413986
0.513796
1.654593
-0.359775
-0.731163
-1.432083
-0.582754
-0.639730
1.380829
-1.379265
-1.376367
-0.021611
0.128471
1.370277
0.284595
-0.009616
-0.921332
1.408487
2.032932
-0.131832
-0.955752
-0.000658
-0.429785
0.836523
-1.856093
-1.805499
-0.038644
-0.797528
-1.938149
-0.155685
-1.779941
0.614150
1.547246
-0.160597
0.973828
0.951494
1.121500
-2.518874
-2.077002
-1.252743
-0.486212
-1.583237
0.151901
-0.557207
-0.185595
-0.284263
-0.505375
0.360737
1.635549
-0.566942
-0.648955
0.306255
-0.007927
-1.207698
-1.381266
1.506339
0.037454
-1.321356
-1.144150
1.278623
0.611295
0.301100
-1.176023
0.588984
-0.269543
-0.538770
-0.429760
1.167069
0.100341
-0.698914
-1.165390
-0.533487
-0.487453
-0.002687
1.022998
0.608333
-0.784305
0.510242
-0.537409
-0.550576
-0.204811
0.051457
0.220507
0.188220
-1.026762
1.576951
-1.056368
-2.296940
-0.437177
0.441893
0.523862
0.925569
0.299090
1.549829
0.309044
1.492448
-1.840420
-0.807169
0.076274
-0.479692
-1.015045
0.561248
0.587367
0.658069
-0.089691
2.020862
-0.079931
-0.390370
-0.032044
1.565500
-0.983165
-0.748912
0.529167
0.558549
0.079275
0.874021
0.168676
0.742447
0.501799
0.538197
-0.081311
-0.483653
-2.487792
0.408356
0.663363
0.832085
-0.018076
0.315933
-3.096305
-0.097609
-0.825856
-0.454135
-0.623904
0.628705
-0.554914
-0.242721
-0.021272
0.407829
1.159359
0.003070
0.242495
1.823115
-1.589860
-0.700319
-1.182137
0.483821
-0.079424
-0.666341
-0.695345
0.601291
-0.637331
0.467730
-0.532792
1.313675
2.759856
0.978173
-0.060274
0.532115
-0.234317
1.021033
2.052714
-0.850403
-0.109645
1.297969
-0.066874
-0.464343
-0.754008
-0.249923
-1.144135
-0.742064
-0.208763
1.769940
0.099121
-2.332155
0.429835
0.088402
1.727134
-0.619109
-0.397205
0.618760
0.528862
-2.235810
0.167310
0.402603
2.087991
1.244579
0.003324
-0.581040
0.857264
-0.116893
-0.994496
-0.177558
0.269457
-0.854911
-0.493451
0.282088
0.690200
-0.816664
1.330423
-1.293267
2.371505
0.999887
2.012799
-1.169960
-0.351208
0.378551
-1.860995
-1.591051
0.721100
-0.141271
2.596763
0.057383
2.013929
0.671224
0.404909
0.364818
-0.825164
1.450977
-2.672647
-0.723780
0.255859
0.266539
1.390970
-1.811144
0.367463
0.346643
0.330673
-0.848227
0.796274
-0.355249
-1.273902
-1.028993
0.061875
2.192561
1.481362
0.052956
-0.643794
-0.121077
1.376257
0.096765
0.477237
1.746426
-1.407977
-1.153520
0.797478
0.659473
-0.686940
0.606828
-0.628199
0.006240
-2.344776
-0.591885
-1.175948
0.077826
-1.489763
0.187372
0.089716
1.464933
-0.472687
-0.208969
-0.851576
0.792651
-0.876622
1.368888
0.907773
0.385391
0.524693
-0.310422
0.295594
1.349091
-1.729425
-0.516573
-0.582546
0.841706
0.816122
0.324407
-0.328187
1.694692
-2.029485
-0.828444
-0.421793
2.009492
-0.323683
-0.900477
2.025418
-0.878456
1.468983
2.023369
0.209223
-0.388174
-0.274500
0.268135
0.171038
0.176414
-1.198752
-1.754117
-0.169994
0.913160
0.239040
0.031896
-0.724618
-0.002756
0.029146
0.134696
0.606519
-0.603909
0.250969
-0.494829
-0.700544
1.413684
-0.084540
-1.296104
-0.178640
0.286937
0.201598
0.071099
-1.354422
-1.156040
0.526102
-0.194697
0.117193
0.768767
-0.102659
-0.454004
-0.705893
1.234991
1.911248
0.563295
-1.119457
-0.368435
-0.273586
-0.915997
-1.018306
1.286298
0.618547
1.029215
-1.998304
-1.344879
0.336898
-0.625246
-0.153999
0.286529
0.609864
1.241579
1.199319
0.874759
0.179215
0.884850
0.720682
-0.262864
0.375030
-1.849436
2.985412
0.724520
1.149035
0.367277
0.940433
0.806125
1.289931
0.112440
0.297700
2.132750
0.059920
-2.015437
-1.689718
-1.648769
-0.098765
0.666833
-1.023047
-0.280075
0.432928
-0.992759
1.723796
-0.283294
-0.385745
1.202368
0.324275
0.717586
1.083227
0.698876
-0.404892
1.478158
-0.360892
0.066754
-0.899031
-1.065160
0.218963
-1.085369
-0.230082
-0.661882
1.088234
0.463489
-1.401421
-1.321800
-1.501234
0.955088
1.398180
0.915941
0.760118
0.200719
-0.000806
1.169304
0.447110
-0.246253
0.121259
0.543702
-0.236425
0.794643
0.613334
-0.776996
-0.075521
-1.606982
-0.985884
0.862265
0.701906
-0.141447
1.184438
-0.553469
0.502544
0.095319
1.205806
-1.395046
0.942363
-0.760194
0.654099
1.022591
-2.417547
-0.710029
0.465626
1.039066
1.446687
-1.452100
-1.330759
0.127666
-0.733155
0.549072
0.655059
-0.131457
0.306512
-0.084352
-1.728749
-0.854629
-0.222016
-1.668837
-1.729600
1.645776
0.238325
-0.762969
-0.154540
0.074425
-1.113301
-0.505963
0.443508
-2.258590
-0.188855
-1.091553
-0.078915
-0.501155
-1.018621
2.159916
1.405515
1.654982
0.677758
0.457422
-1.645094
0.304113
0.830944
-0.133845
-0.798909
-1.865278
-0.354827
1.837882
-0.235211
0.150011
0.113280
0.362524
0.040234
-1.638621
0.582582
1.083737
1.521520
0.763957
-1.565940
-1.167968
-0.769887
1.802444
-0.760542
-0.716142
-0.858763
-1.107724
-1.308441
1.633740
1.735439
-0.030116
-0.876143
-0.119735
0.282933
2.799566
1.419078
0.805228
-1.392848
0.098212
-1.209406
-1.374650
-0.712467
-1.783726
2.995907
-0.279899
-0.074711
0.445756
-0.788772
-1.316263
-0.955010
-0.183851
-0.630400
-2.319776
-0.483841
1.300907
-0.612591
-0.096752
-0.354888
-0.712488
1.568967
-0.949847
0.090115
-1.594306
0.065205
-1.053680
1.041293
0.071448
-0.921958
0.750353
0.908148
0.332373
-0.724552
1.302400
-1.548840
1.628629
1.024620
0.271788
0.349313
-1.029724
1.093271
-2.385643
1.040680
-0.492368
-0.435091
0.455088
-0.060332
-1.756330
-0.288730
0.001033
-0.591944
-0.244304
0.430391
0.426191
-0.914681
-0.657326
-1.013507
-0.003806
0.879395
0.540238
0.109156
0.674509
0.612608
-0.124869
-0.475129
0.545839
-0.177228
-0.631587
1.151246
0.591372
0.062179
0.945564
1.243641
0.084273
-0.460246
0.554366
-1.397483
0.731619
1.804017
0.107693
0.900558
-0.359435
-0.572604
1.802896
-0.472850
-0.666116
-0.874613
1.193501
1.032810
-1.302582
0.959619
-0.583693
0.372762
0.558451
0.669845
0.258054
-0.309318
0.414886
-2.553011
-0.353742
-0.638072
1.584334
-0.827110
-0.412155
-0.082283
-0.470457
0.845023
0.474689
-0.669852
0.346256
0.094397
0.904939
-0.387992
-0.584035
-0.613162
-0.900949
0.219626
-1.805012
0.947563
-0.150556
-0.839538
-0.883474
0.105571
-1.166849
-0.071874
-0.463769
-0.250310
0.349126
0.065568
-0.155277
0.697674
0.599911
-0.037189
-0.788197
-1.693920
-0.555599
0.580532
3.053715
0.362393
0.636935
1.367391
-0.730474
1.529271
-0.194718
-0.334296
-1.275294
0.522704
-2.029087
-0.644472
-0.393768
0.305853
-0.323562
0.165127
-0.217591
0.661638
-0.844881
-1.124010
2.331866
-1.332013
0.867129
-0.573839
0.559104
-0.882781
1.017329
0.369945
-2.132362
0.384689
0.514577
-1.521922
-1.026260
1.837299
-0.284490
-0.078707
0.265649
0.399976
-1.025343
-0.092525
0.297948
0.538142
-0.582214
-0.053136
-0.294928
1.033735
0.446469
-0.727889
-0.609541
0.327313
-1.831056
-1.203734
-0.215297
-0.698633
0.391238
2.213142
-1.039545
0.462900
0.985211
1.897963
0.554973
-0.864696
1.369050
1.547135
0.625308
-0.896552
0.166076
0.932315
-0.080938
0.430232
-0.130150
-0.929052
-0.001374
0.898183
1.074891
0.122692
-0.221963
1.322303
0.908848
0.639350
0.656287
-1.870053
1.549426
-1.695698
0.735115
-0.897835
0.979462
1.958516
2.347250
-0.582410
0.532681
-1.689383
-0.189525
1.321131
-0.537826
0.911296
-2.043172
0.861754
-2.279356
-0.122867
-0.978850
-2.836500
0.218829
0.053830
0.364533
1.370138
-0.707241
-0.972569
0.812385
0.220803
-0.383613
0.377004
1.035271
0.223811
0.219205
0.483710
0.211481
-0.757525
1.325687
-0.021523
-0.867161
0.669648
0.607925
-0.301581
-0.327222
-0.154413
-1.770114
2.378368
0.910087
-1.105019
-1.651348
0.953550
-0.173022
0.908094
