-2.637527
0.531881
-0.331692
1.391843
1.962201
-0.520148
0.285349
-0.925688
-1.116719
0.435463
-0.653189
0.169760
0.271349
1.925903
-0.737016
1.113234
0.127544
-0.417657
-0.112459
0.866019
-0.065759
-1.390012
-0.620518
-0.620308
0.890712
0.065618
-1.924853
0.396142
2.195464
-0.768114
1.583657
1.365076
-0.419081
-0.057025
-0.072041
-2.116793
0.127422
-0.162992
0.560476
-0.216286
0.266666
-0.736033
0.369072
-1.638388
-0.293870
0.941666
-0.853768
-2.240572
-2.229709
-0.331266
-2.232138
-0.597799
0.693473
-0.180910
0.355146
0.600706
-0.101890
-0.169433
0.159705
-0.726402
0.802451
1.444923
1.447387
-0.613863
0.564488
-0.574138
0.116054
-0.149123
-1.921622
-0.834875
-0.169204
-1.402147
-1.606185
1.102762
-2.342080
0.916559
1.008699
-0.171297
-1.041009
-0.324838
0.299386
0.447313
2.331336
-0.176261
0.080911
-1.195549
-0.621607
0.772662
0.868845
1.908207
0.447294
0.461326
1.378901
2.065823
0.282962
-0.212988
-1.544416
0.867868
1.256127
-0.963632
-0.348835
-0.783986
0.821343
-2.640604
-0.041334
-0.994176
1.170183
0.531878
-1.588701
-2.524086
-0.981097
-0.168798
-0.136973
-0.803154
1.182473
1.121088
1.989207
-0.987389
0.787280
-0.473402
-0.515445
0.244258
0.507540
0.207367
-0.729804
-0.815900
-0.884421
1.092823
0.809290
1.230151
1.266783
-0.788981
0.178157
1.476382
-0.837684
0.203878
-0.335200
0.393444
-0.838359
-0.575541
0.254047
0.064575
0.638282
-1.008775
-0.375443
-2.129521
0.088434
-0.252585
-0.407843
1.156471
1.119690
0.265616
0.282070
-0.625424
-2.563760
-0.309096
-0.176240
-1.628358
0.997625
-0.492758
1.085567
-0.605165
0.003765
0.409538
0.737817
-0.951219
-2.286529
-2.483195
0.562681
-0.862018
-0.288032
-0.783672
-0.594935
-1.437784
-0.730389
1.015693
0.776294
1.610956
-1.681488
0.370978
0.224328
-1.869441
0.281372
0.312794
-0.061579
0.890698
0.577301
-1.491320
0.204454
-0.186838
-0.265876
-0.164078
