-0.875288
1.650402
0.279266
1.244975
0.699711
1.086793
-0.666697
1.909568
1.509210
-0.273629
0.197843
1.287259
-1.550385
-0.308177
2.469876
1.048905
0.563932
0.051625
0.411737
-0.554301
-0.031250
0.613531
0.249264
-0.908070
-2.009295
0.915373
0.190459
2.175934
1.990234
1.399621
-0.705687
-0.971204
0.264282
-2.327837
-0.543526
0.064523
1.271046
0.721380
0.519582
-0.944226
-0.139886
1.127573
-1.731708
0.147447
-0.490063
1.089559
-1.603137
1.805774
1.039343
0.526237
0.445986
2.480260
-0.743392
0.046317
-0.958495
0.513986
0.580307
-1.132776
0.096775
-2.487828
0.130373
-0.900756
0.388712
-0.230578
-0.902184
-0.337157
1.121752
2.477777
0.816757
-0.611859
-0.027240
-1.923908
-0.556551
0.382217
0.585077
0.409539
-0.006288
-2.128037
0.391788
-0.199869
0.306176
-0.285416
-0.201191
1.368183
1.475927
-0.413430
1.152620
-0.282521
1.029907
-0.113468
-1.495368
1.434855
-1.255926
0.116621
1.397882
-0.041142
2.012067
0.470166
1.232931
0.077327
1.109694
-0.045619
-0.102690
-1.874201
0.773950
-1.654338
0.217674
0.279550
-0.390664
-0.009944
0.183133
-0.953844
1.823387
0.366140
-0.101594
-1.477471
0.306313
0.301114
-1.478023
-1.193558
1.652791
0.861417
-0.768592
-1.279528
1.394501
1.032384
2.339983
-0.153459
0.806791
-0.649744
-0.654719
-0.283896
0.027165
1.034341
1.510505
1.164067
0.798457
1.235683
-0.546378
0.591374
-1.790321
-0.856804
-1.172919
0.054671
0.884098
1.034008
-1.370853
0.308151
0.105187
0.513296
-0.681545
-2.403134
-0.591411
-0.093340
0.295225
1.258182
-0.611645
1.452496
1.260828
-0.381337
0.993841
-0.783084
0.120680
-0.910927
0.477850
1.357414
-0.103305
-0.897233
-1.389022
0.040845
0.647151
0.674775
-0.184713
-0.117533
-0.386158
-0.100967
-1.814941
-0.393755
1.075840
0.154743
1.500139
-1.435206
-0.150948
-0.459581
1.069323
0.153352
-1.953612
1.595344
1.023888
0.643066
0.878383
0.387842
1.453871
-0.303928
1.362435
-0.163617
-1.329585
-1.598801
-1.109984
0.922211
-1.207331
-0.739463
0.826290
0.741550
1.314537
-0.354541
0.478370
1.003753
0.561974
-0.148902
-0.336431
-0.744885
1.590548
0.550484
-0.668259
-1.049845
0.572713
0.295268
-0.174618
0.550863
0.255525
-0.288747
1.450161
1.866290
1.731810
0.264981
-1.618866
-0.869235
-0.155357
0.463070
1.341591
1.425070
-0.211241
-1.833091
0.426149
0.725201
0.211254
1.346921
-0.618306
-0.945521
-1.325784
0.451291
0.309984
0.457447
0.421818
-0.413199
-1.418671
0.257019
0.758009
0.869529
0.500267
-0.270827
-0.135595
-0.674265
-0.827151
0.439287
-0.859479
1.339433
1.446307
-0.308349
-0.962752
0.191887
0.925952
-0.109056
0.613889
0.283563
2.068544
-0.651792
-0.509335
0.064582
0.879561
-1.283562
1.631757
-0.131471
-0.613173
0.312182
-1.384707
-2.136008
-0.198118
-1.464703
0.176701
0.012282
-1.316909
0.461955
0.395424
-0.373527
-0.384182
0.631616
0.605006
0.340281
0.566936
-0.063305
1.187806
0.966571
0.572493
-1.187967
-0.082016
0.437975
0.701981
1.571873
-0.163654
0.853757
1.299878
-2.492343
0.505380
0.892974
-0.126075
-0.141310
2.263439
-0.540629
-1.027114
0.984812
0.201576
0.627742
-0.716376
-1.007363
-0.971937
-2.088986
-0.904370
0.852883
0.617176
1.320951
-0.349917
0.438194
-0.133763
0.119548
-0.359853
-0.435635
0.842435
0.886709
0.509052
0.725199
0.379032
0.337936
-0.037980
-1.053271
0.865056
-0.529068
0.301239
1.069703
0.688216
-0.871434
1.041015
0.871911
-0.316185
-0.790337
0.564465
-0.689075
0.856704
-0.411301
1.398819
-0.730186
0.607585
-0.678395
-1.347740
-1.767864
0.393339
-2.153255
0.677139
-0.476780
0.543517
-0.511856
0.778537
-1.476156
0.979726
0.656428
-1.361903
1.148387
1.360695
0.494362
1.126789
-0.369600
-1.457339
-2.447235
1.689187
-2.022711
1.105486
-1.278487
0.342453
0.179663
-1.410659
0.832640
-1.213543
0.795301
1.111743
-0.441632
1.531568
0.927123
1.002342
1.019178
-0.778766
-1.103652
-0.541299
2.204109
-1.123859
-1.847530
0.470459
-0.671293
0.037922
-1.223827
0.019280
0.126762
-1.016187
0.085791
1.475989
1.865295
-1.969148
0.457709
-2.448622
0.215654
-1.611685
0.892991
-2.007463
0.205565
-1.604979
-1.446775
-1.455145
2.031644
0.340494
0.534270
0.914762
0.782843
0.437902
-0.727151
-0.293919
-1.476704
0.962604
-1.044905
0.316654
-0.416792
-0.126273
0.044313
-0.120942
1.163752
-1.354994
0.102659
0.940158
0.302467
-1.442165
0.405559
-1.085255
0.441370
-0.434774
-0.714209
-0.423886
-0.169036
0.818791
-1.033378
0.102257
1.863189
-1.554412
0.914400
-0.735791
0.815112
1.902128
0.369733
0.195532
0.390505
-0.895243
0.750507
-1.530432
-0.096528
-0.394984
0.572568
-2.509241
-1.873412
0.889189
0.844519
1.697725
-1.693469
0.096866
-1.130803
-0.651675
1.123480
0.454351
-0.134886
-2.285048
-0.797518
0.388305
-0.799173
0.472374
-0.801173
-0.972076
0.771020
0.538915
0.251846
-0.488119
1.553543
0.033353
1.773343
-0.158861
-1.450572
0.474734
-0.067268
-0.545261
-0.324002
1.223338
-1.107525
0.055851
0.825183
0.110594
-0.388531
1.479558
0.555831
-1.314929
-0.089409
-0.776540
0.152775
1.141912
0.833041
-0.590332
-0.998931
-0.365202
-0.264404
-0.338536
1.335423
-1.382010
-1.422051
-1.617154
1.035013
-0.390088
0.211729
-0.926598
1.691613
0.177088
-0.994750
-0.993602
-0.136312
-0.080167
0.445321
-0.505031
-0.023084
-1.802318
-1.351847
-1.084783
1.001439
-1.101837
0.132506
-1.235778
0.379035
-0.359384
-1.095511
-1.936932
0.454233
0.360982
-0.391432
0.355401
-0.068207
1.845608
1.713201
-0.570966
0.844859
1.217167
0.303296
-0.689412
-0.757842
1.572616
-0.385474
1.870417
-0.280906
-0.338998
-0.245192
-1.156395
-0.927507
-0.968638
-1.449807
0.642451
-0.603452
1.678496
1.179021
0.554565
-0.490664
0.623411
-2.012150
1.966160
-1.304469
-1.019804
-2.082284
-0.813770
1.181641
0.747056
0.038773
0.413656
-0.308517
0.252069
-1.659793
0.785733
-0.165596
1.786459
-1.071203
-1.477285
-0.149430
0.085940
-0.585219
-0.311965
0.345151
0.032543
0.465542
1.117928
0.863003
-1.614527
0.093770
-0.482059
-2.315104
0.213828
-0.048948
1.643479
-0.621179
0.126223
0.287905
-0.040559
-0.550929
1.680094
1.193365
2.029747
1.886361
0.903047
0.061992
0.670973
-0.106515
1.800225
-0.507650
0.050237
-0.512728
0.070192
0.476354
0.093606
-0.247544
-0.523517
1.331749
0.679819
-0.228358
1.968699
0.188975
0.531020
0.944669
0.076658
1.105393
-0.492437
-0.325060
-2.758320
0.283856
0.892976
-0.690842
-2.336867
-0.950530
-0.203074
-0.516955
0.249685
-0.597351
1.337701
1.276406
0.860011
0.795475
0.265449
-0.474227
-1.425925
-1.155076
1.734796
1.789041
-0.423376
0.131029
-0.464140
0.460567
-0.677274
1.250696
-0.651806
-0.369130
-0.264461
0.044803
-0.437442
1.428903
0.339568
-0.521840
0.317350
-0.941759
0.110765
-0.490581
0.134868
0.224757
0.408895
-0.875220
0.924081
0.433506
-0.774175
2.572141
-0.564097
-1.081139
0.998870
-0.802974
-0.073796
0.251196
-1.317362
0.551086
-1.043474
0.026100
-0.502853
-0.087957
-2.386476
-0.199225
-0.322293
-0.100108
-1.210542
-0.307081
1.218096
-0.495186
-0.588793
-0.530264
0.992778
-0.218067
0.009135
-0.155955
-0.654453
0.653812
-0.544360
-1.061900
-0.091883
0.419216
-0.923176
-0.078423
1.404344
0.273853
-1.150416
0.180322
0.587374
0.102288
1.057738
1.371737
0.963990
1.668051
0.015678
-2.374828
0.608245
-0.134044
-2.099799
-0.106424
0.022735
1.626104
-1.868325
-0.291126
1.230038
-0.039652
0.370658
1.002737
-0.666577
-0.278998
-0.161527
-0.080943
0.306257
0.722617
0.720368
-1.367417
-0.692380
0.422024
-0.903699
0.120607
0.327094
-0.624918
-0.745040
0.185206
0.010728
0.260403
0.697299
0.788755
0.478279
-0.014026
-0.131396
0.989438
-0.026358
0.641770
0.001398
-0.295936
0.342178
0.088037
2.383430
-1.819719
-1.216721
-0.484592
1.243949
0.083212
-0.411371
0.084497
-0.908612
-2.430576
0.099799
0.400924
0.736093
0.228957
0.184844
-0.182236
-0.553666
0.835919
-0.958695
1.750540
-1.131876
1.698466
0.502735
0.133949
1.073025
0.195509
-2.266764
0.632709
0.720637
1.160672
-2.279946
-1.223682
-2.019522
0.959943
0.678612
-2.911223
-0.481881
-0.437565
1.442598
0.451229
0.915387
0.404231
1.145493
-1.437948
-0.064392
-0.713760
-0.085218
0.244521
0.262667
0.371026
1.385720
-1.128270
0.725159
2.505178
-2.636683
-0.523656
-1.220363
-0.593099
-0.525798
0.474510
0.557516
0.059064
1.040534
-0.744183
0.791089
0.855066
0.426948
-0.568127
-1.063165
-0.674642
1.081567
0.342573
0.011462
-1.589196
-0.625545
1.078021
0.505035
-0.250679
-0.716807
1.628734
0.983191
0.204133
1.065871
-0.151710
-1.460390
0.526779
0.799127
-0.809621
0.568168
-0.309873
-2.456189
-0.160614
-0.692250
-0.336305
0.458424
-1.276292
-0.938437
-0.519947
1.374881
-1.982864
0.050972
0.106535
-2.004082
0.701951
-1.043499
1.442323
1.147712
-0.714647
1.279048
0.899230
1.120179
0.450289
0.540040
-1.719497
-1.506320
-1.249113
0.928236
-0.328238
-1.095353
-0.270331
-0.497077
-0.714994
1.438512
0.351352
-0.792129
-0.590543
0.137374
-0.033036
0.823766
-0.880464
0.236199
-1.539095
-0.149751
0.824751
0.804336
0.050007
0.250833
-0.131542
-0.008897
-1.973510
-0.826173
0.140980
-0.551859
1.412500
-0.063191
0.869996
-1.188886
-0.475016
-1.149516
-0.374976
0.056656
-1.547905
-0.306281
-0.690259
1.119490
0.902808
1.812061
-0.771165
-1.204503
0.967621
-1.100151
0.336099
0.864306
0.582704
-0.318551
-0.382160
1.821677
0.373685
-0.039783
-0.455183
-0.164422
0.159033
-0.452862
0.531971
0.253492
0.030328
0.485353
-0.419117
-0.737075
-0.135487
0.479154
0.784976
1.424034
0.190771
-0.022009
0.382063
-0.782748
1.812047
-0.844907
0.055319
-0.473885
0.319789
0.383838
0.928799
-0.351067
-0.711157
-0.120729
-1.000068
0.093583
0.766117
1.326226
1.549408
-0.262500
-0.465808
0.362296
0.075172
-0.996023
-0.907553
0.242925
-1.166992
-0.074814
0.430867
-1.101208
1.698807
-0.580475
0.258402
1.256798
1.930166
0.980758
0.249328
-1.637814
0.248159
0.923497
-0.700589
-0.837845
-0.776670
0.421332
-0.637456
-0.362983
0.204842
-1.389119
0.921853
-0.661167
-0.438371
-0.057551
0.851242
0.652906
-0.781939
-0.588243
-0.298832
-1.810804
1.470514
0.283151
-0.337037
0.805109
-1.477023
-0.892612
-1.481245
-1.359740
0.113909
1.399011
-0.422566
-1.532450
-0.128584
-0.916782
-1.805089
-0.692469
-0.559264
-0.790368
-0.323030
-1.232202
0.792463
2.182225
-0.342647
0.677689
0.870414
0.896593
1.177632
-1.087287
-2.404135
0.256757
-2.319862
-0.256929
1.478372
1.005486
1.501512
-0.343644
0.885526
0.864503
0.721788
1.047282
-1.452712
0.187129
-1.156211
0.434831
-1.004028
-0.156548
0.511678
-1.258415
-0.024022
-1.608518
-1.422860
-0.241497
0.594898
-0.715086
-0.059063
1.166114
-0.462591
1.820304
-0.309952
-0.838569
1.385423
1.058651
-1.007745
0.915180
-0.376552
0.299293
-0.220118
0.914806
-0.825990
-1.381343
-2.290223
-0.443321
0.858492
-0.622447
1.175104
3.245669
-0.138961
-1.916405
0.768018
1.401794
1.354208
-0.259792
-2.070485
0.823060
-0.305179
0.106530
-1.240724
-0.078823
0.496188
-0.223021
-0.300947
0.263768
-0.313162
0.583279
0.914557
0.876536
-1.277366
-0.272876
0.498908
-0.153685
1.541627
-0.808372
-0.035326
-0.019418
0.260387
0.026032
-0.016433
0.763746
0.427052
-0.655701
-1.063369
0.678476
0.694977
-0.906251
0.137626
0.254382
0.681725
0.251244
-0.221359
0.745099
-1.077887
0.228641
-0.138775
-0.365982
1.362503
1.406675
2.238418
-0.005757
0.568821
0.583798
-0.047526
0.677906
0.955153
-0.694075
-1.612633
1.493003
-0.976382
-0.870493
0.658455
0.611091
-0.181034
-1.165611
0.359718
0.261232
0.567512
-0.274442
0.762764
1.084297
1.225359
0.264146
-1.336993
-0.585994
0.895037
0.207112
0.281616
-1.112062
0.764991
-0.240638
-0.655166
0.996335
-0.541703
-0.938518
0.774128
-0.231620
1.145923
-0.401938
0.977358
0.665811
0.426468
0.573428
-0.815770
-1.518682
0.135238
0.649163
0.947159
-0.190643
-0.628401
0.692744
0.969089
-1.261765
-0.303915
-0.614479
-1.783803
0.652875
0.906426
0.587700
0.618053
0.726734
-1.300786
2.088953
-1.062918
0.289509
-0.438860
-0.947323
-0.937171
-0.026424
-0.105017
-0.746241
0.599503
0.513920
-0.277971
-0.477779
-0.625719
-1.250113
0.775540
-0.361397
-0.589885
2.935401
-0.404738
1.444923
1.039635
-0.555151
-1.486792
-0.039017
0.576903
0.485131
-0.610530
-0.596690
-0.141475
0.770011
-0.401607
-2.371953
-0.502304
-0.296626
0.247419
-0.486466
-0.631888
0.160790
-0.086565
0.114455
0.320025
0.611088
-0.849453
0.713474
-0.032345
1.762774
-0.152630
1.434795
1.763391
0.977187
1.210098
1.270727
0.399380
-0.470436
-0.165313
1.141653
0.458834
-2.975002
0.198523
0.832456
0.282247
1.944592
-1.658597
-0.469037
-1.280261
-0.928315
0.795727
-1.770158
2.275971
0.307874
0.028803
0.269106
-1.062102
1.471561
-0.643944
0.402643
1.227451
0.716205
-0.550628
-0.886204
-2.019866
-1.076155
1.675024
0.891895
0.793475
0.459652
-0.823993
-1.133028
-0.915135
0.672107
0.566488
-0.166521
-0.141130
-0.507246
1.083959
0.358491
1.633181
1.590003
2.691500
1.949562
-0.119062
1.498410
-0.482481
-1.510757
0.311642
1.756611
0.057941
-0.110055
0.855061
-0.225105
0.321845
-1.435035
-0.595256
-0.753400
-1.406614
0.532115
0.349544
-1.263477
-0.008555
-0.201796
2.351995
-0.239458
-1.054760
-0.130490
-0.685239
-1.057252
0.052808
-0.936485
0.086911
1.479900
-0.277242
0.843447
-0.900143
1.243935
0.502613
-1.075406
0.585468
-2.337202
-0.141871
-0.049453
2.172833
0.696127
-0.652579
-0.488657
-0.738043
1.517969
1.103372
1.050389
0.024801
0.791524
0.043655
0.769512
-0.789325
0.040726
-2.799059
-0.178313
-0.829431
-1.367105
1.639605
-0.544281
-1.055507
-1.598492
1.498640
-0.570809
-0.266973
-1.607011
-0.584261
-0.687568
-0.811172
0.816714
-1.408552
-0.385193
0.179528
0.249728
-1.022417
-0.868380
-0.003312
-1.290535
0.599730
0.302041
-0.905122
-0.312404
0.098086
1.378278
0.208039
-0.359729
-0.705355
0.192588
-1.801795
0.293105
0.995488
0.728410
-0.661206
0.825704
0.521708
0.061803
-0.809611
1.200743
-0.221241
-0.389452
-2.482226
0.395166
0.086220
-0.530550
-0.509004
-0.319970
0.882472
-1.082396
0.396054
-0.992739
0.667246
1.316691
-0.942987
1.479300
-1.167884
0.640866
-1.269647
-0.540950
-0.996435
-1.419552
-0.914395
-1.081187
0.272476
-0.410293
1.856160
-0.366732
1.604863
0.508741
0.624293
1.282006
-2.734910
-0.662598
-0.595239
0.011725
0.232039
-1.159838
-1.667994
1.615027
0.681490
0.375202
0.051043
-0.116673
0.888257
0.259408
0.100204
-0.183985
-0.303626
0.442558
-1.518443
1.169567
-0.502877
0.469748
1.790616
0.054490
-0.137554
-0.480385
1.530570
-0.510791
-0.634951
0.395682
0.825801
-0.966957
-1.453413
-0.968045
1.735224
0.517296
1.311844
2.006587
-0.425843
1.251229
1.514115
-0.388382
-1.282171
0.438231
-0.184500
-0.117626
0.382149
-0.308563
-0.108531
0.572306
-1.190989
0.245291
0.843362
-1.095083
0.966201
-0.748977
-0.921375
-1.722881
-1.056778
0.305008
-0.210518
-1.399301
-0.308307
0.300285
1.025496
-0.531469
0.575593
-1.515014
-0.296979
-0.119075
-1.785452
0.554186
0.351918
-1.570638
1.572975
1.112488
0.748928
0.142210
-0.353401
0.171882
1.881313
0.216190
0.449577
-1.421640
-1.556250
0.987496
3.394802
-0.143077
-0.949201
1.108529
-0.369507
0.338170
0.654016
-0.369927
1.160023
-0.437369
0.613419
0.187672
0.709845
1.243337
-1.131068
1.802575
1.531649
0.432419
-0.267472
-0.885101
-1.673097
-0.743797
-0.043765
2.051742
-0.006122
0.044574
-0.171518
2.164431
-0.413558
1.221398
0.267091
0.489409
-0.559674
-0.762807
-0.599396
0.133937
-0.820255
1.499127
1.311300
0.430541
1.143648
-0.232403
-0.829126
0.552025
2.724647
0.137154
-0.636302
0.027746
-0.418910
-0.051578
0.444377
0.019938
-0.550669
-0.724758
-0.165547
0.254787
0.120335
-1.062776
0.518844
0.484655
0.263882
-2.478958
1.370105
1.986523
-0.545995
1.850461
-0.855312
0.451107
0.913303
0.299576
0.000237
-0.943564
0.892277
-0.516194
-0.304620
0.442202
0.300154
0.383562
0.834771
-1.696246
0.184526
-1.203426
-0.756591
1.364954
0.185746
-2.384531
0.860637
1.346713
1.032201
0.154855
0.617212
-0.881227
-0.442549
-0.995379
-0.026082
0.727035
-0.187610
0.942546
-0.015829
0.398015
-1.003209
-1.785746
-1.351344
2.534773
2.051199
0.370911
-0.623937
-0.553799
0.336166
-0.786002
0.423617
0.361456
-0.586376
0.914094
0.997152
0.164524
-2.557870
1.661965
1.289493
1.022004
-1.068987
0.791559
-0.524993
0.772442
-0.113317
-1.494763
1.032278
0.115036
0.712687
-0.093563
0.749490
0.451342
1.663725
-0.162379
-0.564931
0.629138
0.174281
0.885986
0.057645
0.518532
0.369728
-2.121231
-0.484809
0.844885
-0.281939
1.191087
1.554542
-1.396255
-1.251477
-0.015411
-0.453032
1.231868
-0.332398
-0.367913
-0.187807
1.184558
-1.386529
0.346784
1.585436
0.673343
0.097430
0.150556
-0.051724
0.851287
1.454091
-0.273756
0.189240
-0.138058
0.560412
0.912610
1.134301
1.051099
1.152472
2.359720
-1.535008
-1.157099
-0.193480
-1.074082
0.375116
1.694560
-0.753245
-0.973087
-1.769256
-0.122927
2.627767
0.673290
0.990158
0.149201
0.111577
0.491337
0.468528
0.295921
1.634765
-0.511548
-0.237724
0.441166
-1.144934
1.463111
0.847860
0.033383
-0.033019
-0.025926
1.348604
-0.926525
0.267989
-1.503899
0.099271
-0.358149
1.047524
0.341923
-0.995126
0.949562
1.132800
0.605554
-0.912720
-0.624917
-0.887672
-1.661980
-1.004959
0.093453
1.950605
-0.271777
-0.458764
-1.209879
0.084212
-0.760080
1.379155
-0.242096
-0.961203
2.696186
1.353548
0.093407
-0.328871
-1.264627
1.451828
1.348204
-1.042096
-0.788847
-0.647755
0.501355
2.593141
-1.490771
-1.607160
0.115178
1.624727
-0.737178
0.456079
-0.979930
0.534320
1.431034
-0.250226
1.025439
0.878513
0.360181
-0.919457
-0.690826
0.231208
-0.378970
-1.667344
-0.154113
0.722111
-0.981916
-0.772728
1.210353
1.112075
1.005592
-0.368288
1.523389
-0.235845
0.399434
0.404967
1.200584
-1.714665
1.126326
-0.390778
0.423183
-0.143177
-0.413578
1.010613
-0.370796
0.142367
-0.241916
1.431064
-1.162390
-0.942377
0.506647
-0.294948
-0.328886
0.111039
-1.177440
0.998019
-0.915792
0.747769
0.112467
1.104825
0.911265
-0.263624
0.716323
-0.535330
0.586092
-0.510773
-1.036429
0.960285
-0.107817
-1.595517
-0.536220
1.314234
0.555133
-1.656329
-0.662336
0.198674
0.774825
1.040885
-0.625289
0.316387
-0.172546
0.046483
-0.564301
1.115275
0.318391
1.244977
0.671822
0.641151
0.060859
-0.485526
-0.344164
-0.186035
-1.224811
0.659361
0.384585
0.835825
-0.727121
-0.905768
-0.175170
1.278516
0.236212
1.378867
-1.459832
0.350070
-0.620062
0.112465
-2.191865
1.677337
0.035970
-0.714527
0.562815
0.796512
0.367818
0.683123
1.467563
-0.839781
0.213203
-1.409212
0.240989
0.261992
-1.054104
0.369425
0.117346
-0.869263
2.401833
-0.871796
-1.062373
0.801476
-0.678289
-1.040954
-0.210996
-0.970045
-0.490989
0.494799
0.245445
0.404006
-0.624032
-0.722970
0.620603
0.821410
-1.914575
-2.178589
1.417931
0.835680
-0.911505
0.173513
-0.084386
1.618272
1.114840
0.040469
-0.357626
2.774144
-0.248961
-1.906156
0.814276
-0.547809
-0.339357
-0.214471
1.237534
-0.231418
0.143935
0.128056
1.286325
0.904898
1.296651
-0.243026
-0.348149
0.201996
1.324361
0.031178
0.094050
0.340328
0.066780
0.315856
-0.381264
-0.067182
-0.466731
0.495933
0.328780
0.303216
-0.528395
0.876276
1.305089
0.238753
0.159616
-1.386023
0.610124
1.255352
1.108775
-0.480762
-1.499150
-0.615185
0.423571
-0.318975
0.575821
0.632883
0.485428
-0.927844
0.166171
-0.665291
-0.176706
-0.403839
-1.066137
0.645540
-0.316586
1.388824
-1.605805
-0.388229
0.580951
-1.335141
1.049176
-0.004781
-0.766293
1.520793
-0.152298
0.342987
-0.819989
-0.482259
-1.011640
-0.647718
-0.823575
-0.703603
-0.393600
1.098504
0.061932
-0.288950
-1.902787
-1.311293
1.704100
0.031625
0.241856
1.325134
0.796424
0.116308
0.290855
1.252175
-0.642308
-0.080160
0.077564
1.709440
0.020643
-0.098375
-0.439204
-1.404403
-0.120466
2.005971
0.004078
-0.925098
-1.089591
1.821647
1.586940
-1.067576
0.386503
1.933337
-1.083436
0.911172
-1.918622
0.627540
0.909445
0.086767
1.540849
1.431686
-1.283279
-0.090188
1.997456
-1.035811
-0.716365
-0.379525
-0.116026
0.894828
-0.282848
0.631575
-0.724414
0.563951
-0.083962
0.308174
0.217584
-0.282400
-0.590594
-0.882023
-0.261655
0.307188
0.902684
0.429238
-1.821141
-1.301719
-0.714752
1.522067
-0.001987
-2.225995
0.296815
-1.244737
-0.000844
-0.046446
1.432604
0.411925
0.198143
0.449860
0.295135
1.445719
0.217110
0.664299
0.261530
0.055601
1.065663
1.720406
-0.305982
0.447596
0.150886
-0.343340
-0.377619
-0.567954
1.183763
-0.347709
-0.073458
-0.327832
-1.535306
-0.508402
-0.038703
0.565379
-0.800495
-1.123059
0.988978
-0.235177
-0.698945
0.257085
0.483753
-0.947955
-0.326477
0.583138
1.955558
-1.675427
0.690128
-1.688063
-0.519521
-1.075974
-0.715481
0.353196
0.219060
2.556527
-0.422457
1.942528
0.831926
0.595330
0.287734
-0.307851
0.038520
0.173292
0.226373
0.121330
0.989841
-1.306901
-1.106161
-0.933095
0.089973
1.435993
-0.961204
0.625619
0.935129
-0.908180
-0.252452
0.413777
-0.459679
1.995265
-0.466802
1.400215
-1.185171
0.882614
2.165079
-0.860696
-1.836148
0.022365
0.812412
-0.553792
-0.420983
-0.728135
0.544821
-0.339168
-1.259473
0.076579
1.524726
1.842389
0.509500
0.284710
0.660316
0.023344
-0.580234
0.305860
0.506303
-1.388565
-0.625552
0.815753
-2.186154
0.434846
-1.212825
-0.427231
-1.558985
-1.096511
-0.340043
1.033460
-0.808770
-1.264442
0.198877
-0.801164
-0.606473
-0.355713
0.175572
-1.134848
-0.922938
-0.868398
1.177122
0.339531
0.019086
0.037705
-1.500553
-0.531807
-0.672223
1.262306
-0.480488
0.123502
-0.779297
-0.670463
-1.912590
0.157792
0.960990
1.671315
0.187061
0.624283
0.242995
-1.518656
-0.451482
-1.929806
0.259588
0.302283
-0.494565
1.031237
-1.079309
1.728177
0.444371
0.764559
0.681359
0.957292
-1.031020
1.656301
-0.238589
1.471629
-0.631795
-0.236804
-0.102370
-0.714259
-1.336359
0.707706
0.940497
2.077971
-1.146288
0.096219
0.063851
-0.244926
-1.617278
-0.448500
0.884239
-1.128820
1.355607
-0.333093
0.342231
-0.219989
-0.743772
2.007109
0.139136
-0.019853
0.269911
-1.188556
-1.601381
0.074957
-0.251163
-0.134095
-1.665126
-0.560359
0.068179
-0.891668
-0.672252
-0.686802
-1.437985
0.263876
0.704181
0.470941
0.564278
0.294294
-0.168803
0.905944
-0.529009
-0.188031
-0.258968
0.905604
-0.685800
0.376923
1.755396
-1.289185
0.617064
0.226548
0.574561
-0.224955
-0.418613
-1.275638
-0.015743
0.023743
-0.016243
-2.019768
0.765780
-0.556771
-0.658134
0.936973
-0.135908
1.900736
-0.755500
-0.668976
-2.478535
1.668862
0.350368
0.567066
1.576687
-0.652881
0.805882
-0.660504
-0.598101
-1.475793
-2.230498
-0.197149
-0.491736
-1.307708
-1.428737
1.167969
-0.894914
-1.594890
-0.819302
1.021866
0.696869
0.166686
-0.251819
0.213821
2.834898
0.260374
0.433613
0.088545
1.833768
0.727281
0.591523
1.547039
-0.642832
0.382352
0.776713
1.235170
-0.169131
-0.613426
0.791191
-0.253838
-0.668524
-0.402836
-1.859845
0.770516
-0.582387
-1.784232
-0.164871
0.292787
-0.875626
0.906760
0.673313
0.957198
0.539980
0.256376
0.863975
-0.078527
0.740160
-0.006678
-1.476138
-0.865835
1.264289
-0.325858
-0.492938
-1.339968
1.200226
-1.085440
-0.762034
-0.817256
0.054875
0.947624
1.454328
0.291787
0.462249
0.297727
0.783009
-0.580159
0.161977
0.744726
0.337040
-0.259993
1.206910
1.743680
-1.629713
-2.292144
-0.502930
-0.980042
1.046699
0.946060
0.386939
-0.482921
-2.556172
1.835693
0.797613
0.845082
1.323317
-1.382220
-0.608462
-0.939950
-0.373322
-0.404043
-1.287893
-0.577689
0.557746
1.869581
1.228622
-0.972190
-0.955950
-0.175767
-0.002228
-1.199392
-0.578845
0.775588
-0.778313
0.071477
0.529615
1.964407
-0.228361
0.598425
-0.873380
-0.567986
-0.325375
1.430104
-0.256247
-0.982061
1.356527
0.020158
0.458362
1.849952
0.831667
0.991291
2.417430
1.414139
0.483689
-0.494186
-1.658080
-0.699087
-0.914498
0.205493
0.938655
0.222725
1.220707
0.950323
-0.534042
1.474399
-0.498565
0.141043
0.643857
-0.324435
0.325088
-0.560274
0.682432
-1.675097
1.785695
-0.849498
-1.405638
-0.847889
-0.820845
0.019594
0.175035
-1.925919
-0.285302
0.174803
-1.459017
-0.847894
0.331255
-1.706368
-0.404488
-0.767255
-0.768680
-0.732749
-0.590172
0.484963
-0.758426
1.037487
0.162719
0.892794
-0.200239
-1.704297
1.530176
0.818919
-0.803169
0.363739
-1.587582
-0.991163
-0.530891
0.077687
-2.142874
-1.039356
0.072840
-0.698929
-0.817142
-0.082275
-1.471305
-1.291069
1.493400
-1.325389
-0.027810
-0.570908
-0.864294
-0.165389
-0.397859
-0.794151
-0.181788
-1.487607
0.330171
-0.484438
-1.136110
-2.140738
0.360487
-2.194080
-1.203081
0.090831
0.582356
1.774389
-0.055345
-0.967802
-0.098980
-0.818769
-0.919315
0.060323
0.711559
-1.187191
-0.775804
-0.198893
-0.129257
-0.256657
-0.623134
-0.818668
-0.375679
1.011668
-2.064559
-0.866299
0.865819
0.790989
1.161319
-0.280399
1.567681
0.543878
-1.583960
-0.470592
0.176163
0.296332
-0.481646
-0.628633
0.937119
-0.625046
0.004036
0.495987
1.268296
-0.456919
1.123519
-1.456532
-1.143882
1.274936
0.429295
-1.218505
-0.961144
-1.438495
-0.597923
-1.004203
-0.958319
-0.682749
0.263930
0.170476
0.498255
1.031454
-1.142830
2.233470
-2.239225
0.200949
0.659231
-0.927326
-1.549138
0.423628
1.108395
-0.036070
0.684903
0.949679
-0.865468
-0.864303
1.245977
-2.363047
-0.794596
0.196755
-0.004921
0.600660
1.273744
0.568250
-0.563285
-0.515851
0.655883
0.553336
0.834871
1.147713
0.086106
1.199644
-1.365515
1.049017
-0.767545
-0.327189
0.420840
1.021786
-0.096025
0.516144
0.713792
0.575444
-0.989099
0.280978
-1.956125
-1.103738
-1.242782
0.390821
-0.614537
0.442854
0.154124
-0.083008
1.317571
0.687457
0.103520
1.242332
0.400595
1.244499
-0.177613
-0.849423
-0.151186
-0.285287
1.838202
0.273078
1.254542
-0.176363
-0.437079
0.193022
0.054941
1.203684
-0.040613
-0.113030
-0.470373
-1.430971
-1.997811
1.829399
0.735839
0.413238
1.897134
1.296563
0.498723
1.649682
-0.159529
0.180947
-0.235729
-0.654739
-0.813965
-3.083217
-0.665679
-0.214189
-0.612291
0.082478
-0.383506
-1.165341
-1.708618
1.597017
-0.070144
0.257869
0.505526
-2.370034
0.315986
0.121250
1.755055
-0.081286
-1.827744
-0.734748
1.072528
-0.266433
-0.244792
0.600157
-0.243690
1.057711
-0.605103
-0.065854
-2.129813
0.187246
-0.527610
-0.406272
-0.118731
0.047162
-0.059500
-0.950896
-0.695880
-0.952247
0.213658
-0.216195
0.427622
-0.862497
-0.677103
0.098046
-1.355490
-0.639045
0.321006
0.467038
-0.956166
0.512041
-1.091554
-0.737023
1.647848
-0.373588
-0.069364
0.846290
1.478207
0.424561
-0.473481
-1.557249
-0.009442
1.255803
0.085134
-0.749329
-0.390417
0.393940
0.625073
-0.207372
0.467570
-0.562396
1.124089
0.068820
-1.251021
0.355979
0.417731
-0.276330
0.382783
-1.299480
-0.425609
1.159826
0.860126
-0.003484
-0.361520
-0.981361
-0.735182
0.551418
0.480104
-0.093825
0.297818
-1.143664
-0.390429
0.039032
1.034907
1.154124
-0.294023
-0.177281
-1.016639
-0.583230
-0.696476
1.736380
-0.594605
-0.024349
1.263705
0.325905
2.111738
0.902542
-1.007444
1.267794
-1.357071
-0.906385
0.729018
-0.231084
-0.539616
0.534764
0.344169
-0.054388
-0.598575
-1.814098
-0.176578
0.462502
0.499673
2.114371
1.010732
-0.561409
1.889353
1.235714
-1.503789
1.030634
1.279139
2.252131
0.130753
-0.166414
-1.469415
-2.412307
1.121849
-0.650753
0.765739
-1.180706
2.209339
-1.531140
0.798185
-0.227737
-0.132337
-1.171802
0.248310
-0.021542
0.542035
-0.102026
-1.549292
-0.465411
-0.660036
-1.883703
-0.807009
0.870733
-0.334976
-1.861895
-0.421505
-0.877731
0.700002
-0.394458
-0.573669
-1.049041
0.384499
1.287951
2.019432
1.173696
-0.047579
-0.764053
-0.534014
-0.688921
-1.138655
-0.388893
-0.191244
-1.094946
-0.050534
-1.405236
1.140215
1.288970
1.119998
-0.716244
-0.174284
0.452336
1.508005
0.532527
0.350797
0.187680
1.530400
-0.840341
0.968909
-0.353578
-0.279234
-0.435207
0.982381
-0.622371
0.878651
0.281821
-0.642280
-1.631375
0.785998
0.924616
-0.322471
-0.632377
-0.546457
-0.749024
-0.594696
2.556515
1.692711
-0.034696
1.876003
0.805665
-1.030847
-0.308493
-0.669048
-2.237155
-1.093187
0.713191
-0.634609
-1.814556
-1.273257
-1.131114
-0.242804
-0.998343
0.040786
-1.641603
-1.263031
-0.281881
0.914883
0.476165
-1.901353
0.135410
0.025102
-1.053122
-0.404615
-0.037847
-0.742912
0.766021
1.582779
-0.587303
-0.376559
0.270285
-0.302178
-0.295888
-1.349085
0.375406
0.215585
-0.495464
0.397305
0.528195
-1.230518
-0.690813
0.304019
0.716383
-0.697031
-0.038343
2.197216
0.872057
0.241184
-2.287622
1.082074
1.952217
-1.038742
-0.129371
-1.652979
1.211633
-0.712219
-0.386231
-0.371849
0.940893
1.260081
-0.737868
0.673079
0.710684
0.689441
1.178895
1.010801
0.143234
-0.356873
0.584659
-0.495178
-0.886738
-1.389794
0.859861
0.400505
-1.057930
1.383080
-1.390858
-0.646028
-2.573349
-1.558195
-0.483211
-0.207890
-0.424595
0.462217
-0.971778
-1.195657
-0.963438
-1.139857
-0.266239
-0.106871
1.453452
-1.899924
0.427617
1.593761
0.279898
-0.946539
1.267576
-0.387122
-0.059052
0.190695
-1.616492
1.493369
1.874564
-2.185641
0.257253
0.012454
0.580845
0.213398
0.810396
-0.906415
2.368032
0.386867
-0.467711
-0.651343
-1.174756
-0.104321
0.587031
0.876731
1.356331
-0.456097
1.701958
0.313801
2.020465
0.641112
-0.232964
-0.955761
0.087142
0.778270
0.301758
2.013814
-0.558354
0.236589
1.087375
-0.595207
-0.523728
-0.295665
-0.338560
0.414969
0.442101
0.893211
-0.672017
1.276577
-0.488622
1.170640
-0.730212
-0.084100
0.362926
1.382622
-0.730568
-0.673672
-0.936855
-2.168515
1.500457
1.862976
-0.768048
-1.659026
-0.178981
-1.866127
-1.608657
0.266382
0.152866
0.340348
-0.596389
-0.107708
0.657396
0.451952
2.453488
1.436159
2.195976
0.626797
0.474109
-0.470055
-1.190091
1.447994
-0.399419
0.998248
0.772117
0.500570
-2.335623
0.387343
-0.038903
-2.485252
1.503662
2.080004
-1.017180
0.295799
-0.644479
0.907547
0.852770
-0.619521
0.170684
-0.313379
0.655741
-1.267159
0.591281
0.721118
-0.329370
-0.143850
-0.051462
-0.828405
1.081988
1.570321
0.486382
-1.176449
0.709834
-0.458532
-0.202414
-0.312133
-1.388585
-1.250790
-0.110198
-0.049093
0.897905
1.143740
0.148935
-1.987645
1.954295
0.005159
1.205507
0.215977
0.269311
1.335625
-0.558218
0.900116
1.295658
-2.424502
-0.190477
-0.386131
0.871329
-1.744045
-1.945091
0.059937
-0.235914
-1.545020
-0.910066
1.073969
0.690550
-0.704463
-0.730008
0.275119
0.315308
1.220920
-0.960686
-1.813080
0.141943
0.305101
0.972580
-1.155612
-1.067533
2.502120
0.252656
-0.218481
0.935722
2.071191
-0.059231
-3.327610
-0.811927
1.149983
0.793400
1.391878
-0.655695
-0.738276
0.541782
0.321109
0.394897
-0.825141
0.268283
0.684168
1.483576
1.195601
0.173838
0.418443
-0.665143
-1.354083
-1.718855
0.224107
-1.565486
0.531558
0.519461
0.587519
1.378671
1.793241
0.166354
-0.782870
-0.116231
1.157508
2.165167
0.143502
-0.488375
-0.103161
-0.351428
0.642142
-1.458040
0.017653
-0.269030
1.841649
-1.516939
-0.616880
1.378422
-0.480660
0.753041
-0.308891
-0.620685
0.584026
1.086906
0.325952
-1.540182
0.997073
0.067309
0.888743
0.728869
-1.426940
1.096121
-1.073611
1.566356
2.110818
1.072970
0.287311
1.641231
0.285681
0.315584
-1.137288
-0.206076
-1.305422
1.199130
-1.495778
1.129847
-1.071105
0.513908
-0.722641
-0.809296
-1.466665
0.672031
0.991326
1.645589
-0.327896
-0.138580
-0.565904
0.741504
-0.034145
0.822477
1.165417
-0.151962
0.253679
0.907720
0.516011
-1.052497
1.121825
-0.455737
1.159920
1.373410
0.575358
-0.343491
0.734664
-0.410460
1.533013
-0.390661
-1.384625
0.369431
0.026579
0.271255
0.919843
-0.546331
-0.963809
-2.094716
-0.113807
1.831203
0.329683
-0.078113
0.987457
0.655474
0.973944
0.131205
-0.847076
0.358942
-0.209782
-1.040070
-1.121480
0.141980
-1.354938
0.600172
-0.727670
-0.778343
0.419681
1.213460
0.989728
-0.143995
0.524091
-1.389924
1.343627
0.140881
2.236049
0.283836
0.643855
-0.373751
-1.114991
-0.048294
0.041840
-0.494002
-1.289888
-1.447549
-1.173577
0.366864
-0.455404
0.297098
-0.232755
1.278106
-1.806870
1.866513
0.006619
-0.930683
-1.900966
0.604229
0.340650
-0.972174
0.522964
2.610472
-0.427347
1.866431
1.094344
1.575604
0.711655
-0.453365
-1.382705
0.423635
-1.469153
-0.423527
0.216256
-0.603283
-0.134483
0.526583
0.838503
1.234511
0.264114
1.679844
0.361180
0.056956
-0.394070
-0.381009
-0.016636
0.594070
0.321834
-0.623842
0.512797
0.507278
0.106794
-0.190637
0.079792
0.775346
-1.907926
0.295824
0.879064
0.180725
0.553757
-0.028756
-1.575682
-0.158206
0.324245
0.949662
-1.159574
-0.164585
-0.883928
1.537414
2.633907
-0.350588
0.753485
-0.588903
0.113037
0.688185
1.226500
0.048584
1.279408
-0.722998
-0.102000
-0.492859
0.408189
0.304891
-1.604687
0.139615
1.164960
-1.042942
0.073656
-0.491929
0.633721
0.263385
-0.309610
-0.441226
-1.358099
-0.286309
2.559896
1.068018
-0.640355
0.236654
-0.361569
-1.196546
-0.801561
-0.461090
-0.498555
-0.624975
0.042862
-0.015173
0.479493
1.050303
0.275879
0.637276
-0.759348
0.653028
0.821534
-0.170337
0.295989
-0.404004
-0.038787
1.463078
0.346145
0.408398
-0.723985
-2.041298
0.441692
1.756415
-0.357049
0.701060
0.058291
0.649037
-0.489648
0.928128
-1.143869
0.405553
-0.153827
-1.425066
-0.604458
1.506548
-0.085759
0.038250
-1.212479
-0.509384
-1.716414
0.188800
1.518431
-0.408831
0.688664
0.315118
0.435397
0.972126
0.306541
-1.252187
1.065389
-0.125271
-0.727511
0.254805
-0.276146
-0.039097
-0.669675
0.500237
0.387908
0.475327
0.295552
-0.995955
0.705039
0.741760
0.057319
-0.705758
2.199372
-0.609670
1.035268
0.707999
-0.077824
0.476317
-0.123362
2.222904
0.341413
-1.557003
0.355579
1.141153
0.098350
0.104146
0.296633
-0.532573
2.238930
1.638858
0.475185
-0.027280
-0.231949
-1.952158
-0.002870
0.316390
1.162499
1.303313
0.682397
1.342348
1.271874
0.798054
0.043462
1.457782
1.269312
0.927511
0.526186
-0.550622
-0.818651
0.051349
-0.741739
0.177901
-1.848371
1.047057
0.098353
-0.899821
0.773168
0.011642
0.625007
0.625845
-0.618183
-0.961899
-0.430128
-0.227127
1.355436
-1.137963
1.528505
-0.628500
-0.684832
-1.072002
0.374144
1.240081
0.440682
0.235167
-1.582415
-0.743399
-0.751019
1.235784
0.555536
0.308486
-0.039641
0.288204
-0.335458
1.209338
-0.633387
0.571901
0.071328
1.482288
-0.011736
1.269273
1.962578
0.513448
1.332097
0.309815
0.498362
1.229040
-0.025912
0.729779
0.031113
0.945299
1.235306
1.102635
-1.434509
1.832170
0.372342
0.535585
0.313633
-0.866387
0.730161
-0.302678
-0.086435
-0.118167
1.444867
0.526971
-0.889930
0.535794
-0.741005
-0.048290
0.590486
-1.293668
-0.814946
0.687383
-0.650046
0.482818
0.149062
-2.026518
-1.646701
-3.220296
1.373016
0.179790
0.510748
0.679855
-0.950217
0.283318
-0.452582
0.225298
0.155217
-0.786798
0.358525
-0.650074
-1.245082
0.487560
-0.845162
1.558119
0.867617
0.813166
1.864355
-0.029883
1.087234
0.096273
-0.408511
-0.740125
-0.527208
-0.095812
0.454347
-0.146451
-0.398216
0.709662
-1.125687
0.589252
-0.719973
1.761167
-1.813909
1.329231
-0.709151
-0.667308
-0.512006
2.390397
-1.472315
-1.651784
-0.869625
0.388566
0.190632
0.255144
-0.555048
-1.531127
-0.949506
0.983293
0.289566
-0.171586
-1.220599
0.554049
-1.269690
0.880645
-0.664916
0.244178
-0.715371
-0.038432
0.022000
-0.169582
0.093564
0.334978
1.072478
-1.001448
-0.560816
-0.293775
0.604653
-1.672258
0.671321
-0.260667
-2.420454
-0.028992
-0.643097
0.207738
0.769027
0.402293
0.816761
1.349855
1.786897
-1.456601
0.962516
0.754777
-0.413601
1.840218
-1.368142
0.098598
0.776123
-1.210662
-0.363577
-1.746590
0.037139
0.821198
-0.895044
-0.058663
-0.770544
0.665663
0.227921
-0.771913
-0.447311
-0.182735
1.379434
0.944604
1.205595
0.667329
1.306437
-1.230987
0.755877
0.081982
0.537822
1.962460
-0.370398
1.382145
0.822429
0.262389
-0.098094
-0.440136
1.030798
0.556061
-0.440489
-0.343552
0.584143
1.094463
-0.279346
-1.369568
1.515176
-0.050538
-0.973535
0.086281
0.491648
1.677826
0.323615
0.766725
-0.891110
-0.041609
-0.054250
-0.702937
-0.302391
1.048035
1.203537
-0.536102
1.119675
-2.509620
-1.086689
-0.230838
-0.285400
-0.863272
0.183892
0.199888
-0.245309
-0.265155
-1.071936
1.969800
-0.110328
0.922644
-0.915726
0.158536
-0.583991
0.177213
1.104252
0.943811
2.085808
0.399942
-1.124641
0.203339
-0.383177
0.192489
-1.290645
-0.553284
-0.232858
0.327871
2.159867
1.134905
0.668436
-0.323319
-0.845766
-0.307332
-0.574868
0.964080
-0.431358
-1.772477
0.448584
-1.460213
-0.299549
-0.854037
-0.294332
-0.401013
0.397383
-0.103720
0.066785
0.840051
0.661058
1.812883
-0.263656
-1.116794
-0.260469
-0.757155
-0.505742
-0.007762
-0.533434
-0.054350
0.060179
0.723617
-0.318905
-0.641285
0.454479
0.679446
1.392350
-0.985390
-2.223696
-0.160183
0.071580
-0.582859
0.760635
-0.407705
-1.077056
-0.754896
0.465303
1.300650
-1.177955
1.482089
1.583409
1.697389
1.110939
-0.150091
0.159812
0.151227
-0.371751
0.273269
-0.280308
0.223271
0.980898
-1.027407
-0.502171
1.200117
1.468914
-0.540382
0.326200
0.719290
-1.486411
0.116411
1.217855
-0.309662
0.464125
1.458279
1.200939
-1.279336
-0.183892
1.710510
0.208883
0.471894
-1.131582
-0.108988
2.122104
0.902646
-1.257961
1.512240
0.578959
-0.105561
0.662403
-0.336108
-0.687026
1.127230
-0.498653
-0.684805
0.072839
-2.085038
0.163509
0.005478
0.780040
1.958394
-0.148061
0.173349
-0.543720
0.587805
-0.969055
0.050174
1.452167
-1.102813
0.927826
1.195559
0.204539
1.174190
1.724459
1.448472
-0.790191
0.518026
2.128858
2.054898
-1.744143
0.191319
0.391126
0.619805
-0.259504
-0.275236
-1.314412
-0.410088
-0.839418
0.209104
1.342138
-1.455388
-2.521821
0.351618
0.225346
-0.524879
-0.531291
1.514465
0.819377
-1.045735
0.461847
-0.866143
-0.129752
1.538412
0.144300
0.166928
1.327931
-1.477466
0.492642
0.897565
-1.198393
-0.165563
-0.848020
-1.338231
1.762352
-0.805587
-1.888955
0.100552
-1.281927
0.560910
-1.204420
-1.246153
-1.123046
0.309380
0.323280
-0.080354
-2.861418
0.407747
-0.133779
-0.724836
1.287683
0.625457
-0.141233
0.218707
-0.042559
-2.059946
-0.303953
1.364377
-1.735612
-1.110671
0.365878
0.461404
-0.484236
1.061308
-1.084900
-0.725774
-0.171696
1.306925
-0.073449
1.736082
0.774945
-0.882058
-0.310477
-0.047364
-0.998409
0.280882
2.029080
1.928617
0.936607
-0.254960
-1.439422
-2.454903
0.723228
-1.813863
-0.283129
-0.354125
-1.048543
0.038205
1.052589
-1.155489
-0.621414
0.984505
-1.404627
-1.183692
1.220567
0.316543
0.252680
-1.064003
-0.444021
0.138937
-0.110326
-0.823225
-0.114897
1.895924
2.745216
0.400127
-1.254666
0.058357
1.306061
-0.033392
1.761199
-0.383730
0.424850
0.921614
-0.698476
1.711044
-0.707903
-0.557840
-0.702371
-0.320329
1.301674
-1.114475
-0.697647
0.112432
-1.378640
-0.174884
-0.136450
-0.531835
-1.057041
1.166576
0.883930
-0.035061
0.013869
-0.428514
1.933522
0.244933
-1.051958
-0.061716
1.045364
0.785747
0.520804
-0.574409
-0.969750
0.646596
-1.403905
0.418305
-0.198075
-0.147931
-1.098911
0.477627
1.647569
1.100012
0.202912
-1.551407
-2.147638
0.219687
-0.029598
-0.435476
-0.535835
-0.043804
-1.042190
0.883953
-1.651005
-1.635476
-0.092851
-1.469527
-0.701187
-0.215525
-1.004853
-0.157180
1.180754
0.233976
-0.102018
0.797060
-1.242287
1.033986
-0.435947
0.504017
-0.987552
-0.357703
1.144101
0.032452
-1.201800
0.589024
-0.453702
-0.060298
-0.910936
0.723273
-0.570632
-0.442464
-0.357974
-0.605665
-1.009492
0.074622
-0.965486
0.604998
-0.945445
-0.484905
0.339280
0.290648
2.103263
0.057214
-0.330391
-1.260460
1.371242
0.052131
1.885404
0.485923
-0.823244
-0.063403
0.928906
0.261562
1.454008
-0.293425
0.319899
1.756567
0.111709
-0.293148
0.542048
0.379233
0.285000
0.526144
-0.024877
-0.751634
0.169438
0.531578
-0.339169
-0.435144
-0.928046
0.891244
-0.587937
-0.459785
-0.444312
0.494848
-1.560088
0.453582
0.395303
0.459983
-0.011608
-1.061864
-0.175424
-1.505298
0.797496
0.895445
1.121010
-0.907459
-0.430546
0.674058
0.469570
-0.885802
-1.546549
0.002513
-0.385567
0.847367
0.759461
0.731330
-0.699921
-0.782772
0.371341
-2.260694
1.696449
-0.421995
0.993742
0.850110
0.529800
-1.079131
-2.044279
-1.068487
0.573712
-0.336945
1.117736
-0.338071
-1.554974
0.523986
0.409238
1.433556
-0.544181
-3.389151
-0.593812
0.475373
0.179514
-1.144210
-0.533151
1.419022
1.811242
0.481467
-0.639730
0.078248
-0.378435
-0.547683
0.672499
0.533467
1.277808
-1.348152
0.577174
0.499210
0.253356
1.811246
0.551804
0.464408
0.529143
0.516671
0.557685
2.744023
-1.664134
0.212913
0.793668
-0.470411
1.264576
-2.094596
-0.543310
-0.577313
0.292806
-0.430211
0.661789
-1.541370
-0.831092
1.774446
0.280567
-0.338332
-0.863356
-0.813037
0.572282
0.429701
-0.209112
-1.102128
-0.037631
-1.413940
-1.194363
1.575908
-0.084668
0.715419
0.198831
-0.169805
-0.388707
0.509192
-0.475367
-0.357102
-0.790266
1.594000
-1.139284
3.045595
0.292124
-1.311559
-0.738212
-0.306149
-0.323045
-0.055881
2.889998
0.477637
0.698519
1.095523
-1.918736
0.183427
0.099627
0.083088
-0.149949
1.068603
0.550498
-0.286322
0.510212
-1.266633
0.734427
0.708208
0.913929
0.089481
0.260298
-3.003367
-0.491937
-0.436303
-0.793095
0.109346
-0.295092
0.722411
0.013262
1.260575
-1.145356
1.486532
0.707566
0.003046
-0.958879
0.232131
1.127133
-0.499639
-0.661722
-1.931872
-1.635571
-0.915948
0.079428
0.663354
0.519117
-0.210744
-0.503012
0.268250
-1.206298
-0.394932
-0.699833
-0.927916
-0.632262
-1.494497
0.412154
0.634162
2.033113
-1.041762
-1.087361
2.293780
-0.410486
0.855728
0.746957
0.668681
-0.335332
-0.902901
-0.058780
0.100617
-0.112582
1.343440
0.435911
-1.188243
-0.032072
-0.014223
0.211838
1.782890
2.364592
-0.587545
-1.405585
-2.070914
-0.686203
0.050709
1.735637
0.602775
0.289205
0.123586
0.508602
1.912076
-1.414684
-1.642459
-1.350666
1.340862
0.677137
0.874557
-0.106468
-0.605077
0.673916
-1.373126
1.436119
-0.007419
-0.026103
0.583991
1.320231
-0.274020
1.773634
-0.492105
0.566266
1.689911
0.300684
-0.329189
-1.380791
-0.856919
0.013997
2.011530
1.131365
-0.727443
-0.245717
0.375561
-0.285625
-1.128122
1.788147
0.983933
1.742800
-0.652010
-1.408023
1.217937
0.273809
-1.186101
-0.358755
-0.756693
-2.426435
0.523550
0.643082
-0.578792
-1.757816
0.592517
0.395016
0.216537
-0.057703
1.489411
0.493120
1.446723
0.092783
-0.805264
-0.868746
1.251966
-0.791020
-0.031601
0.806438
1.214074
-0.183391
-0.498818
-1.481073
0.394512
-0.762021
0.448138
-0.480975
-0.147522
-2.687350
1.054319
-0.420871
0.574671
1.670690
-0.006380
0.255136
-0.661518
1.690996
-1.131092
0.892434
0.673328
-1.040934
-0.920364
-0.069587
0.815367
-0.671339
2.527624
0.297033
0.842940
1.041849
1.383970
-0.201568
0.162583
0.823083
-1.942001
1.844679
0.434834
0.123586
-0.122024
0.454684
-0.551147
1.903152
-0.726171
-0.348061
0.293890
1.108382
-2.078662
0.648374
-0.591504
0.762119
0.910013
1.652837
-0.725210
-1.295092
-0.248516
0.803892
0.139876
-0.742089
0.130570
-0.278610
-0.632537
-0.775901
1.307274
0.002967
-1.119725
-0.517134
0.819090
-0.671211
-0.166157
-0.150046
0.118837
1.040081
-0.445570
0.911680
0.699268
0.375807
1.060461
-1.332233
-1.370096
0.396880
1.170734
-0.304886
0.956272
-0.008782
0.953274
1.168532
-0.105581
0.799377
0.717596
-1.045055
-0.709236
1.197679
-0.489550
0.008311
-2.012250
0.049242
-0.624296
-0.512845
-1.376198
0.047945
-1.711323
-0.802358
0.534038
0.038524
0.891355
-0.746348
0.458433
-0.426258
-1.010056
-0.001468
0.505978
-1.452836
0.360666
-0.933331
-0.061289
0.949109
-0.629511
-0.261588
2.656898
-0.357113
0.850430
-0.234277
-0.187225
-0.402839
-1.613745
0.689745
-0.106355
-0.574440
-0.381599
-0.101876
-1.711991
-1.528882
0.649818
-1.112192
0.210681
1.855024
-0.955362
0.086391
0.470714
0.183086
0.869179
0.649695
-0.675510
-1.104475
-0.225887
0.058039
0.314544
-0.319542
0.561785
0.848686
0.516453
1.937991
-0.834024
-0.015036
0.475415
0.921071
-0.685343
0.367578
-1.390683
0.929328
0.969214
0.139861
-1.154915
1.548159
0.599218
1.770486
-0.837695
-1.580802
-0.932602
0.199987
0.572614
-1.212307
-0.696586
0.958267
-0.691800
0.735863
-0.021974
-0.118151
1.276831
0.149838
-0.924276
-0.903015
-0.362974
0.698345
0.310225
-1.606181
-0.643944
-0.526856
1.460992
0.023880
0.033890
-0.781268
-0.485069
0.786670
0.390495
2.205111
0.832613
0.557025
-0.323951
-0.132666
0.635738
0.080391
1.663565
0.242054
0.272693
-0.187872
-1.670569
0.997347
-0.001620
0.079014
1.099233
0.277160
-2.129010
-0.889439
0.121923
1.406746
-1.204157
0.362952
-1.614528
0.430863
-0.199566
0.375459
-0.942847
1.080728
-0.317153
-0.422725
-1.022001
-0.288481
1.215056
0.093076
0.625579
0.130978
0.961996
-1.188532
-2.318259
-0.714150
-0.079239
-0.327002
0.020961
0.678573
-0.328150
-1.267659
-1.302304
3.162578
-0.290225
-0.433561
1.617057
2.017982
0.588776
0.125097
-0.209222
0.852979
-0.516344
-0.505070
-0.182291
-1.576222
0.196574
0.113557
0.196303
1.849519
-1.068946
-0.763541
-0.233362
-0.645958
0.913331
-1.715473
1.653960
1.392712
-0.436007
0.046634
-0.704706
-0.917967
2.174394
0.586677
-0.628948
0.330197
-2.140947
-0.453920
-0.275902
0.072928
-1.069472
-0.035523
-0.584165
0.275526
-0.655070
1.193301
-0.186902
-0.513973
0.497164
-0.536487
0.455725
-1.360298
0.658210
-0.246714
-0.372302
0.195234
-0.100473
1.068403
-0.556080
-0.393786
-1.612614
0.669418
1.762222
0.285703
-0.143365
-0.155728
-0.034394
-0.078538
-0.176350
-0.233766
1.754686
-1.669748
0.206957
0.028858
0.602826
-0.711411
-1.034441
3.263230
0.451509
-0.787892
-0.941215
-0.136840
0.542005
-0.435160
0.030992
0.130468
1.082609
-0.275446
0.573009
0.757002
0.570172
0.004155
-0.277343
0.826485
1.336338
0.767726
-0.109514
-0.474759
-1.024006
-1.039829
0.162907
0.497798
0.892272
0.077266
0.786997
-1.089127
-1.157980
0.779953
-0.551611
1.050500
-0.780913
-0.698294
-0.368496
-2.799639
0.525461
-0.096496
1.721093
-1.015358
-1.201569
-0.685881
0.979854
0.933415
-0.020346
0.658816
1.234814
-2.086906
-0.183006
0.525086
-0.458232
0.324183
1.054743
-0.638061
0.099898
0.002523
-0.322680
-0.504519
0.662758
-0.634170
0.313665
0.112787
0.651818
-0.088971
0.319620
-0.479147
-0.091755
-0.135770
0.418813
0.088298
-0.013245
1.502950
1.536730
-0.620234
-1.459670
0.562140
0.713094
0.262976
0.869892
1.557497
1.217265
-1.470148
-1.092591
0.051419
-0.041204
-1.086562
0.319243
0.239375
0.537361
-1.224100
-0.698980
-1.461814
0.069627
1.614040
-0.562594
-0.175201
-1.331736
0.650651
1.590304
0.309376
-0.863352
0.475687
1.014773
-1.958797
-1.825071
0.528333
-0.895461
0.349224
0.419093
0.833413
0.046716
0.606081
0.237318
-0.740932
-0.547638
-1.816418
-0.092089
1.108149
-0.252738
-0.286245
0.200354
0.254944
0.081680
0.209094
-0.455714
0.119480
-0.009337
-1.735234
1.132098
1.561880
1.423597
-0.995503
0.750177
0.851783
2.172170
2.044566
-0.273092
-1.134191
-1.004457
0.611599
0.808042
-1.816126
-0.391518
2.026965
0.523938
1.044891
0.080273
0.369772
1.524564
-2.229416
0.265066
1.208911
-0.130629
0.460983
0.566506
0.567871
0.933098
1.806493
1.321685
0.313231
-0.319683
0.387453
-1.752846
-0.924541
-1.846066
-1.196796
-1.371265
-1.439587
-1.775744
-0.351430
0.413587
-1.036122
0.070757
-1.824212
0.428222
-0.204965
3.369380
-1.173796
-0.594479
1.099960
-0.849328
0.493807
-2.336967
-1.826270
0.290864
0.792282
0.152631
-1.327150
-0.514394
0.770520
0.119461
-0.294122
0.740316
0.466100
-0.737256
0.050548
0.917145
-1.395145
-0.181836
0.984236
-0.477764
0.349073
0.370299
-1.103894
-0.456855
-0.215162
-0.057091
-1.329345
0.136155
0.354951
-1.272673
0.489075
-0.075008
-1.461887
-1.118810
-0.423773
1.482237
-0.966778
-1.048311
-0.167469
0.948131
-0.199975
2.379884
0.770100
0.045602
-1.099983
-0.369455
0.613096
-0.876849
-2.265941
0.127629
2.004715
-0.160568
1.006050
-0.478373
-0.637757
1.027480
-0.398734
0.510874
0.283116
0.700583
-1.273659
0.888812
-0.704477
2.373732
1.073641
-0.260512
-0.984357
-2.486297
-0.668969
0.301057
1.187992
0.035390
-0.803214
0.651127
1.715781
-0.511105
-0.411770
0.043608
0.510627
-0.511135
-2.606159
0.828607
-0.227999
-0.132970
-0.829300
0.549504
2.076340
-1.129101
0.201195
0.377131
-0.417368
-0.165869
-0.671838
-0.421236
-0.267086
-1.040845
-0.605739
-0.678675
-1.192974
-0.163456
0.757470
-1.687467
-0.238197
-1.245263
-0.377519
-1.222634
-0.005657
-1.184500
1.238820
-0.937318
-0.997741
1.308345
-0.876858
-1.801721
0.908258
-1.543123
-1.484697
1.676626
0.493995
1.168312
0.466289
0.673921
-0.139298
0.393619
-0.777555
-0.370119
-1.086953
-2.351173
1.023553
-0.783616
-0.249665
1.030369
-2.390224
1.108461
0.813645
-1.067966
-0.117347
-1.301165
0.992236
0.838961
-0.274233
1.219666
-0.621996
1.374149
-1.381418
-0.222300
0.327319
-0.116301
-0.713939
0.942977
-0.678396
0.550285
-0.876047
0.042789
-0.800269
0.849550
-3.581141
-1.041420
-0.129709
0.834311
0.480374
0.831935
1.237952
-1.243931
-0.149486
0.717145
0.495002
0.333129
0.744616
-0.165856
-0.033235
-1.572137
-0.381742
-1.235994
-0.364556
-0.070059
-1.901168
-0.076240
0.320579
1.103816
-0.361742
0.954370
0.364965
-1.735006
0.842003
-0.202703
-0.513470
1.399133
-0.163043
2.157017
-0.181771
1.057637
-0.760204
1.725273
0.623751
0.816801
-0.975589
1.657290
1.848527
-0.385423
1.040979
-0.086455
-0.164437
-1.745675
1.856327
0.130904
0.080163
0.383585
-0.492746
0.433142
-1.773119
1.294405
-0.334355
-0.319608
0.752902
-1.255003
0.468365
-1.164030
-0.073248
1.487528
-0.498449
-0.717069
-0.201919
1.248373
-0.292971
0.475346
0.496450
-0.331814
-0.351151
0.228477
-0.689835
-1.638793
0.940159
-1.060767
0.373356
0.299558
-1.832103
-0.956964
0.142292
0.635874
-0.305177
-0.493805
-0.399579
-0.171289
-1.969423
-1.452314
0.479210
-0.667778
-1.433036
-0.696556
-0.810119
-1.685493
-0.285830
2.610283
0.414459
0.155303
-0.399936
-0.281799
0.080572
-2.522599
0.037284
1.486355
0.022286
0.047778
-1.170275
0.433138
-0.831189
0.305666
1.974107
0.212128
1.026804
-0.243191
-0.098827
0.740274
-0.708634
-1.006139
-0.107276
0.201195
-1.390088
-0.549499
-0.563080
0.061620
-0.723674
0.508060
-0.146382
-0.653378
-0.535750
-2.296220
0.878149
-0.495929
-0.156346
0.718702
-0.973325
1.076728
-0.445529
0.257271
-0.339084
-0.828498
0.160298
-1.620692
1.136812
-0.672427
-1.559895
-1.683962
0.252890
-1.834275
-0.053601
1.122409
-0.897189
-1.005089
0.326619
0.885566
-1.758279
-0.681124
1.114248
0.980253
0.865881
0.369793
-0.033747
0.130129
0.502098
0.261559
0.828336
0.126207
1.178512
-1.680553
-0.202342
-0.938371
-0.930477
-0.232458
-0.780732
-0.070729
-0.344719
-1.116308
-0.624543
-0.694768
-0.559723
-0.615042
0.221936
0.189212
-0.449623
1.250248
-0.290826
0.369202
0.943787
1.455788
0.853838
-0.351751
-0.103678
0.866170
-1.185876
1.383467
-0.456108
0.673241
0.155553
-0.711813
0.895772
-1.475859
-0.204798
1.378438
0.894540
0.685011
-1.230217
0.220060
-1.951700
1.569421
-1.505975
1.173039
-0.627545
1.396520
-0.509607
-0.388470
2.500140
1.310595
0.358150
-2.139347
0.333619
0.134927
-1.331751
0.874473
0.711367
1.421714
1.221215
-1.011320
1.812065
0.641942
1.109479
-0.611900
-0.662180
0.058616
-1.391018
-0.055074
0.037045
0.470821
0.499387
-0.164142
-0.363728
0.396886
0.922097
-1.124871
0.377587
0.524725
0.513527
-0.218258
-0.527353
-0.430636
1.095303
-0.159310
0.277464
1.076626
0.663774
-0.459514
-0.295855
0.409093
0.829913
0.490721
-0.586423
0.782966
-1.191327
-0.872363
-0.510960
0.889815
0.779353
0.763252
-2.333256
-1.299302
1.823983
-0.422249
-0.795430
-0.915565
-0.490571
0.490136
0.580742
-0.718298
0.852191
-2.857828
-0.277154
-0.237972
0.045753
0.588524
-0.321666
0.531457
-2.171380
-0.362267
0.530641
0.991312
-1.162206
-0.613442
0.381143
0.083788
0.538223
-0.545468
-0.092456
0.714777
-1.069748
0.137179
0.782012
-0.403878
-0.320966
0.069090
1.179563
1.456325
1.640447
1.373923
-1.262279
-0.513679
-1.524392
0.726452
-0.518764
-1.015080
-1.553916
-0.690295
-0.519403
1.473799
0.729640
-0.082239
0.920517
-0.986072
-0.851838
1.708539
0.622450
-0.811716
-1.824169
-1.205173
2.016650
-0.681447
1.316695
-0.530744
0.436862
1.157182
0.067947
0.372400
1.324042
0.353919
-1.967044
2.232960
-0.020950
0.006247
-1.272683
-0.411616
0.509725
1.335175
1.220873
-1.394440
0.222741
0.231153
-0.131640
0.230649
-0.946602
0.559782
-1.876586
-1.389379
0.205331
-0.122911
1.494040
1.135470
0.923906
-0.671836
0.076470
-0.718345
0.923803
-1.295715
-1.523797
-0.602864
0.360761
0.132992
-1.732151
-2.363460
-0.189333
1.073663
0.515298
0.519967
-1.085928
0.473776
-1.146867
0.328646
0.741152
0.530448
0.948052
0.448781
1.387620
0.072049
-0.741317
-1.380569
-0.685448
0.171421
-1.137529
-0.345716
1.669761
-0.382400
0.527966
-0.649547
0.699929
0.835217
-0.869868
0.206214
0.376053
0.092989
0.413589
1.154008
1.293525
0.130784
0.180135
-0.301773
0.436509
0.816017
-1.516114
0.618697
-0.537108
-0.471236
0.293521
0.529255
-0.958959
0.323220
-0.835931
-0.454383
-0.321475
-0.964897
1.340039
1.026255
0.045509
-1.965657
-1.968353
0.315322
0.088871
-0.056021
1.654303
-1.224198
-0.332020
-0.168959
-0.359052
0.542925
1.290117
-1.255501
1.137099
1.684168
-0.487900
0.142283
-0.844541
-0.078681
1.063294
-0.533796
-0.238459
-0.008269
1.418803
0.864309
1.456198
-0.964684
0.412989
-0.261010
0.081897
0.272531
-0.068079
-0.805034
-2.523983
-0.051837
1.115202
1.297002
1.803040
1.064032
-2.650213
-0.338141
-0.607739
2.228895
-0.790817
-0.080651
1.695593
-0.830020
1.660102
-0.053622
1.391598
-0.580028
-0.266331
-2.622627
-0.366914
-1.827221
-0.036939
0.524471
1.350969
-0.001147
-1.788801
1.009230
0.242061
0.998814
-0.798889
-1.834896
0.145331
-1.190735
0.307163
-0.858857
0.111223
-1.358609
0.765719
0.193292
0.969091
-0.016692
-0.232256
-2.031160
0.229166
0.598966
1.013480
-1.495036
-2.077120
0.537195
-0.236088
0.087249
-0.730856
1.162651
1.266579
-0.513016
-1.245083
-0.987637
-0.471838
0.306899
-0.951432
-0.768330
0.010390
-0.039552
-2.108898
1.579967
-0.454928
-0.719288
1.320946
-0.841480
0.335952
-0.798138
0.521198
0.665196
-0.206322
-1.658611
1.841763
0.567223
-1.242283
0.153648
-0.550413
-0.859222
1.694027
-0.791584
-0.549884
-0.342787
0.245387
-1.372735
-1.576802
1.089638
0.535223
-2.518873
1.037894
-0.510661
-0.086491
-0.771858
0.055122
0.465650
0.154643
-0.080666
1.007184
1.319785
-0.692092
1.130503
-0.453467
-0.876575
0.658120
0.122870
0.842733
-0.914645
-0.501450
0.316542
-1.772385
0.337008
-1.155696
0.478417
1.159835
1.849931
1.049989
1.273930
-1.347679
0.120976
-0.855469
1.802907
-0.457692
-1.128344
1.219177
-0.122881
-0.891295
-0.937827
1.428623
-0.491596
-0.102585
0.716944
-0.716018
0.801360
-0.224973
1.646392
-0.371177
0.026853
0.715895
0.780105
-1.543404
-1.068275
1.006414
1.106359
-0.338144
-0.703066
2.226663
-1.550950
-1.123464
0.238333
-0.124060
-1.422408
1.034289
-0.538557
0.967516
-0.236282
-1.000293
1.099414
0.932553
-1.239640
-1.307869
0.969960
-0.733087
1.840753
-0.564403
-0.816340
0.687971
-0.316782
-1.813358
-1.054744
-0.830764
0.204591
-0.863905
0.132725
0.610988
0.580429
0.252900
-0.741128
0.236090
-0.761540
0.583027
0.340929
0.047745
1.267140
-1.433706
-0.487247
0.966674
-0.175741
0.271303
-1.820456
-0.546452
1.879778
0.373063
-0.596101
0.870600
1.077798
-0.916652
0.581464
0.879440
-0.724277
0.077468
0.903765
1.775064
-0.392620
-1.047574
1.215942
0.785014
-0.289387
-1.342401
0.357202
-0.818656
2.585970
0.228473
-0.677487
-2.168837
1.406128
1.467793
-0.036376
2.239250
-1.322371
0.102121
-0.559898
-0.018427
-0.553886
0.104469
-0.034345
-0.180572
0.920668
-0.688183
1.083437
0.851541
-1.199868
-0.539578
0.701046
1.203891
0.966056
0.403684
-0.121036
1.342783
-0.444631
0.281655
0.427674
-1.506018
-0.789889
1.948910
-0.506774
1.473378
0.536569
1.479254
1.529152
0.168000
-0.456444
-2.318699
1.063888
0.481105
-2.256573
1.362703
0.060240
-0.762204
-0.977578
-2.381020
0.716269
0.643905
0.685977
-1.377511
0.214650
1.083503
0.946290
0.602394
0.623556
1.017516
0.677264
-0.256055
2.080960
1.361162
0.340722
1.939381
0.939955
0.398751
0.980512
1.862139
-1.361927
-0.283072
0.885419
-0.311801
-0.895995
0.570858
0.187188
1.080174
-0.213664
-0.090792
1.025302
0.928714
0.852507
0.114047
0.416464
0.768386
1.567098
-0.240459
0.029071
-0.352455
1.247925
1.365071
-0.832049
0.837543
-0.874998
-1.525741
0.222699
0.896743
0.524118
0.112007
-0.987754
-0.594187
-0.221889
-1.283116
1.814072
0.876376
0.825710
-0.561247
-0.943401
-0.143931
-0.271322
-0.160619
0.770514
1.137150
0.775648
-1.747748
-0.054466
-0.837057
-0.501559
-0.735035
-0.150830
1.194081
-0.594836
-0.227510
-0.361423
1.852722
1.911566
-1.136213
-3.224539
0.185771
0.108520
-1.140470
-0.435332
0.362221
-2.096091
-1.068107
-1.915690
-0.892889
-1.593242
0.097219
-0.798718
0.103437
-0.856902
0.679774
-0.138652
1.933007
-1.693618
-0.240855
0.901124
0.933792
-0.778371
0.927629
1.302433
-0.379828
-0.079782
-0.081819
-1.305766
-1.532804
-0.424385
-0.885772
-0.611957
-0.275658
0.571528
-0.729867
-0.242251
-0.026206
-1.248216
-2.933641
0.931886
-0.038337
0.364470
-1.827492
-0.300885
1.449594
0.190487
1.006365
0.908189
-1.022167
-1.164732
1.638669
-0.607897
0.192202
-0.402874
0.959605
-0.331291
-0.459988
0.452368
1.341672
0.536465
-0.451184
1.351032
-0.783280
-0.662088
1.283710
-2.688105
-1.172922
-0.609863
-0.053277
0.070311
-1.079185
0.130832
-0.630158
1.270768
-0.228077
0.080602
0.993308
0.103899
-0.106764
-0.179916
-0.964398
-0.181245
-0.643987
-0.406098
0.647370
1.335338
0.899346
0.988713
-0.862628
1.548542
1.553059
-0.193452
0.450289
1.631979
-0.728879
-2.284906
0.931753
-0.982654
0.035918
0.913191
-1.578767
-1.795063
2.730424
0.323365
-0.509036
-0.896788
0.544755
0.424713
-0.158968
0.217260
0.290964
-1.566701
0.162939
1.149055
0.687985
1.730069
-0.312018
1.531586
-1.556386
0.721396
-0.636759
-0.432889
-1.259179
1.244332
0.368251
-2.261674
-0.412069
-0.807111
1.399652
-0.379987
0.567071
-2.266625
-0.140140
1.175996
1.023686
0.694646
0.095650
0.457889
0.376722
0.564894
1.155436
0.970445
1.983430
-0.059948
0.409024
-0.905080
-0.306684
0.472176
-0.901330
0.153737
2.489325
1.111247
1.161242
0.444419
0.218699
-1.057218
1.264325
0.160722
-0.163982
0.492294
-0.335347
-1.550292
-1.297871
0.331790
-0.028409
2.531502
2.351663
-0.343174
-0.732846
1.406205
-0.151179
-0.517264
1.674577
1.349799
0.661685
0.123621
-0.125874
0.836574
0.379080
1.499092
2.341121
0.327310
1.259169
0.153091
-0.063622
-0.081913
1.175112
-0.483288
-0.304211
-0.447378
-0.192108
0.754656
0.358791
0.167812
-1.761390
-0.831758
0.803831
-0.004793
1.562776
1.287506
0.431802
-0.540720
0.156406
-2.007686
-0.820384
-0.821014
-0.313992
0.409513
-0.012005
-0.151105
-0.165296
1.361498
-0.580108
0.118534
-0.449419
1.097578
0.162539
-0.841336
-0.543932
-0.174637
-0.041770
0.025131
0.676522
-0.635589
-0.439148
0.550204
-0.860658
-2.144288
2.037086
-0.891471
-1.708556
-0.885921
-0.728935
0.347070
-0.457162
-0.039331
0.897116
0.024905
0.639053
-0.197803
0.862150
-1.346001
-0.805408
-0.742722
-0.942328
3.229909
0.645477
0.648434
-2.085629
1.266876
0.134124
-0.537265
-0.757353
-0.024934
-1.263601
-0.297862
2.419134
1.236578
-1.313286
-1.585656
0.036076
-0.310140
-0.256201
-0.079000
-0.241172
-0.961139
0.266604
1.374288
-1.458205
0.096773
1.550894
1.992725
-0.565106
-0.098362
-1.254732
-0.783855
-0.238389
-0.453848
0.875384
-1.456574
-0.422487
0.756692
-0.203273
0.082730
2.591841
-1.071316
-1.331473
0.159721
0.005628
-0.985620
-1.351610
-0.804735
0.652587
-0.721053
-2.449964
-0.287412
0.185391
-1.109447
-1.038210
0.093297
2.302882
0.696236
-0.658057
1.163689
0.882335
-0.588958
-1.383967
0.609079
1.086911
-1.016306
-0.649743
1.971447
-1.653719
0.096781
-0.493306
-0.053661
-0.919408
0.057982
0.008416
1.220126
-1.181347
0.074130
-1.471027
-0.648952
1.619870
0.709995
0.272096
-0.817228
-0.329812
0.081966
0.331873
-1.165505
0.422104
-1.882522
0.471469
-0.139313
0.410153
-1.789614
-0.090744
-1.072252
-2.261531
-0.156203
0.118020
-0.767838
0.929527
-0.905310
-1.120488
1.773944
0.317553
1.101777
-0.770671
0.944453
0.861732
-0.383075
-1.374716
0.326819
-1.124632
-1.600262
0.200868
-0.161320
0.848310
0.027866
0.036058
-1.187474
0.950339
0.652552
1.289846
-1.059282
-0.050815
-0.937090
-1.513975
-0.296759
0.209399
2.204274
-1.026167
-0.497537
-0.564627
1.944573
-0.408205
0.219479
0.690039
0.442309
0.858170
-0.643189
-0.938500
0.781140
-0.200961
1.274977
0.591226
0.457167
-0.403181
-2.131302
1.178875
-1.414042
-1.342585
0.542934
0.609264
-0.244622
-0.747965
2.088604
-0.542504
0.332751
0.234814
-0.274539
0.973142
-0.651573
-1.542030
0.924740
-0.712053
-1.321963
1.233118
-0.270173
-0.393755
1.070356
0.417310
-0.490510
1.349020
0.384168
1.410834
-0.478858
-0.106086
0.058310
-0.337647
0.720438
-0.649271
-0.062982
0.223200
0.698086
1.408895
-0.113110
1.517870
-1.045815
-0.397635
0.535213
1.275195
0.681714
-0.830581
-1.120732
-0.025882
-0.647696
-1.549837
-0.547235
0.417764
-0.568108
-0.335935
-0.427365
-0.358216
-0.171280
1.002116
-1.163720
0.345083
-1.668813
-0.823651
0.033354
1.083082
0.180863
-1.563082
-0.838338
-1.625818
-0.575216
-1.379030
0.248538
-1.308752
-1.708478
-0.722854
-0.339662
-1.541108
-0.081406
1.828880
0.218027
1.070853
-1.029063
-0.497765
0.893133
1.344930
-1.466790
-1.945653
1.047076
1.081075
0.648008
-0.962225
1.295896
-0.786670
-0.788371
0.355865
-0.245431
-0.902561
0.075441
-1.238175
-0.326067
0.580801
1.106542
-0.229994
-0.352423
0.061052
-0.438332
1.420832
0.215014
-0.484599
-1.346593
-2.479553
0.379879
2.241865
0.326421
-0.642360
-1.446754
0.490173
0.124313
-0.905311
-0.756793
0.421650
0.152561
-0.763652
0.950337
0.174817
-0.220980
0.209503
2.006070
0.479356
-0.205455
1.841067
0.561467
-0.401137
0.582790
-0.997646
-1.167501
-1.383456
-0.917862
0.727717
-2.121393
1.101219
-0.292770
-0.071562
-0.107870
-0.390051
-1.903330
-1.001599
0.225914
0.573836
1.885509
-0.093058
-1.588393
-1.865838
-0.112086
0.106836
1.884059
0.155848
0.571486
-0.810896
-0.220444
-1.843817
-0.053996
0.958672
-0.312562
-1.482293
-0.524153
-0.314119
1.520969
0.657429
0.239944
0.122587
-0.332601
-0.265465
0.189576
2.030333
0.271334
0.569784
-0.155570
-0.237571
0.172800
-1.497240
2.116121
-0.549881
-1.461759
-0.524841
0.027881
-0.111126
0.259405
-0.403166
1.232563
0.559437
-1.828599
-0.808575
-0.304160
2.444937
0.791953
-0.871896
-2.183012
2.393358
0.079812
-1.328984
0.518761
0.747726
-0.579195
0.294449
0.677371
0.999725
2.261519
0.028670
0.135116
-1.662032
1.945594
0.118890
0.825525
-0.118033
0.052442
0.400319
-1.202820
0.455487
-0.014362
-0.779195
-1.878793
-1.494681
0.762048
0.258033
-0.486475
-0.533626
0.563007
-0.542576
-1.067295
0.662353
-0.749003
0.363536
-1.161954
-0.640619
0.562331
-0.216802
2.339541
-0.974528
0.975520
-0.628219
-0.100083
1.538396
1.754905
-0.481283
-0.459968
-0.053128
0.974717
1.103205
0.023508
1.412997
0.029906
1.826751
-0.487276
0.415137
2.446187
-0.663568
0.599052
-2.063781
-0.691430
1.079068
1.690464
2.111936
2.254577
0.178494
1.441978
1.065800
-0.978999
1.890717
-1.378908
0.248548
0.483456
-0.742761
0.201241
-0.075207
0.206076
-1.331746
-0.581113
1.896517
1.219513
0.777875
-0.888551
-0.990058
-1.905667
-0.425282
-0.740902
0.345568
0.443464
-0.879553
-0.652042
1.193977
0.070270
-2.050145
0.120005
-0.433050
0.092994
1.440639
0.280470
0.645189
0.328038
-0.142060
-1.796282
0.477250
-0.791743
-0.130676
-1.258185
-0.093567
-1.478253
-0.567611
-1.465209
0.284075
0.140140
0.587555
0.428277
-0.025315
-0.787663
0.117801
0.809200
2.806467
0.039770
-0.218327
0.362223
0.562740
-2.325944
-0.555725
-0.699228
1.074419
0.051394
-1.169896
0.850643
-2.744921
0.835697
1.040218
1.658333
0.247470
0.697986
0.965170
0.645095
1.049769
1.405146
0.451458
0.051167
-0.571868
-0.624753
-0.257342
0.490631
-1.571810
-1.226760
1.404769
-1.331987
3.342712
0.017760
0.404028
0.527364
-0.889043
0.001064
0.126033
-0.792504
1.301531
-0.826356
0.184549
-0.005183
-1.288587
1.417767
-1.197165
-0.496875
-0.960866
0.668137
1.504785
-0.975281
-0.428036
-0.599526
0.974572
-0.623125
0.534350
0.174114
1.260062
1.188841
1.152914
-0.773213
0.997700
1.391288
-1.525825
-0.077774
0.423401
-0.014510
0.548896
-0.250482
-1.183693
-1.301838
-0.045682
-0.958240
1.635118
-1.481339
1.340160
0.787315
0.469744
-0.440938
0.881156
0.866581
0.216772
1.483972
-0.583387
-0.303834
0.586429
0.416979
-0.082154
-0.637917
1.691361
0.842576
-0.030559
0.016874
1.900028
1.344012
-0.519835
0.868873
-0.822755
1.195828
-1.580600
0.357964
-0.605221
-1.092521
2.147852
-1.026042
3.575985
0.508485
0.921226
-0.056364
-0.373840
-1.238355
-0.862457
-0.270862
-0.836875
0.886713
0.779678
-0.078018
-1.201001
-1.200781
-1.108524
-1.835172
0.309408
0.273253
-0.590694
0.606491
1.017813
-1.044717
-0.407352
0.132333
-0.721625
0.980109
1.090572
-0.983240
0.672513
1.394122
-0.724404
1.212610
-0.624182
0.600944
0.243802
1.291973
-1.765982
-0.389429
-0.356518
1.791893
1.177888
0.120927
2.432601
0.181516
-0.156174
1.094487
1.351641
0.909987
1.018792
2.392389
0.711168
0.292936
0.420372
-0.963521
0.997193
-1.168667
-0.416860
-0.135397
-1.330183
2.304682
-0.721763
0.701313
0.729098
0.672324
-0.671828
1.596469
-1.083358
0.608395
0.393551
-0.349465
0.089905
1.202402
-0.622466
0.194067
0.248621
0.004397
0.013438
0.759782
0.590211
-1.452133
0.224920
-1.734105
0.380632
1.386074
0.188685
0.554311
0.795742
-0.969876
0.830281
1.961591
-1.039219
-0.427428
0.604125
-1.896989
-2.208427
-1.591608
-1.101811
1.101653
0.626417
0.664554
0.819562
-1.588194
0.559724
1.643665
-0.756246
-2.011976
-1.816848
-1.452188
-0.053359
1.358405
0.573886
-1.245887
2.012038
1.196235
0.676577
-0.069175
-0.451412
0.464561
0.521622
-1.557638
-0.758370
1.142119
-0.003941
-0.667081
-0.333941
-0.943396
-1.350064
-1.912603
0.433568
0.273837
0.401117
-0.780339
0.316438
-0.982034
-0.313472
1.067064
1.611557
0.566260
0.315943
-1.357748
1.174824
1.145819
-0.140140
0.285872
-1.582500
-0.295945
-1.009152
-1.391148
1.934669
1.344929
0.895545
-0.561305
0.123509
-0.134633
-1.217564
0.935363
-0.304206
-1.423844
-0.092851
-0.119583
0.411688
0.641528
-0.331584
0.450845
0.669681
1.935118
-0.979724
0.352472
-0.548925
-0.743198
-0.210232
0.911669
-0.993874
-1.898579
-0.025936
-1.062900
-0.033581
1.042620
-0.774113
0.048299
0.557695
-0.552959
1.961290
0.128185
0.319492
0.769344
-0.926926
-0.068908
0.962448
0.989255
-0.373071
0.664664
-1.214155
0.988962
0.855592
0.390624
-1.170219
1.158206
-0.553281
-1.114689
-1.324389
1.568851
1.396637
-0.133936
0.210226
1.765222
0.592224
0.349640
-1.269825
-0.566827
-2.075105
0.622005
-1.559396
1.156307
-0.260390
-0.894629
1.077990
0.761411
-0.108854
1.103140
0.665814
1.226683
0.076834
0.945985
-0.111088
1.304737
1.335648
0.704031
-0.203030
-0.688353
1.397281
-0.775242
1.820759
0.018505
-1.082785
-0.653882
0.682413
1.205823
0.333251
1.492920
-0.196487
-0.691673
-0.924115
-0.308102
0.046343
-0.380687
-1.557092
0.346515
1.258886
0.024586
0.131523
-0.312625
-0.010786
-0.780453
0.621293
-1.146820
-0.727308
-0.036307
-1.984060
0.651806
0.707105
0.284767
-0.019755
0.150780
0.312158
-1.793104
0.833704
-0.407526
-0.181873
0.793115
0.546793
-0.057638
0.088668
-2.096503
0.817464
0.229047
-0.552457
-0.696421
-0.250562
1.601376
-1.439159
-0.201392
1.572724
1.047171
-0.785193
1.257484
-1.254429
0.700250
-3.147299
0.183413
0.438166
-0.365443
0.128655
-1.046387
0.267624
-1.679971
1.759336
0.835031
0.327784
-0.568007
0.172027
0.818090
1.612406
-0.797077
-0.615284
-2.378815
-1.493125
-1.393359
0.658520
1.117584
-0.145547
-0.838329
0.258361
0.188694
1.043670
0.132472
-1.113379
-1.218660
-0.863451
-0.328718
0.678644
1.039222
-0.186175
-0.815263
-0.696784
-0.932099
0.376766
0.109340
1.247394
-0.775584
0.817156
-0.708088
-0.792252
2.061088
0.756330
1.262874
-1.785613
-0.652303
1.623603
-0.316397
-0.317797
-0.574942
-0.238072
-0.939293
0.647433
-0.068221
-2.231055
-0.544362
0.149506
0.225530
-0.749605
-0.773909
0.768610
-0.570667
-1.046647
0.310129
0.200080
0.300641
-0.905309
-0.358586
0.095925
0.454702
0.927159
0.497554
-0.830068
0.634189
1.077055
0.468131
-1.021984
-1.360988
0.425432
-0.895735
-1.368904
-3.199484
-1.194263
-0.765925
0.159702
-0.821076
0.142053
-0.575178
1.838487
-1.119159
0.855682
-0.184239
-1.777761
-0.388878
1.055655
1.220375
0.710361
-1.148032
-0.765651
0.898907
-0.109713
-0.273463
-1.867550
-0.086853
-0.465975
0.821376
-0.381391
-2.182092
-0.683689
-0.459006
0.673601
-0.141011
-1.374124
-0.115700
0.080269
-1.037300
0.940459
0.793066
0.789426
-0.399374
0.542048
-1.093490
0.158360
0.610404
1.434574
-1.496182
-0.975891
0.781498
0.263485
-0.172029
1.783546
-1.188743
2.203973
0.459609
0.244620
1.466878
0.799610
-0.309540
-0.729046
0.405687
0.874215
-0.660557
-0.674123
-1.853999
1.953600
-0.879308
-0.158830
-0.501151
0.655262
0.653060
1.047692
-2.250239
-0.686513
-0.263046
-0.007913
0.935001
0.294775
-1.375834
-0.149687
0.066533
-0.132757
1.291738
-0.349722
-1.136141
0.033852
-0.365081
1.268724
-0.059180
1.436218
0.199033
0.526663
-0.150968
0.757460
0.216881
-0.312946
0.523624
0.579919
0.518639
-1.006718
1.650980
0.187770
1.961395
-0.749149
-0.795850
0.757255
-0.438268
0.549118
-1.138752
0.498628
-0.953880
0.614756
0.904308
-0.695146
0.055273
-0.322930
2.205510
0.210390
1.163999
0.715537
1.564342
-0.066219
-0.062798
0.642218
0.118094
1.990834
0.756320
-0.626698
0.885335
0.416865
-0.811219
-1.234406
0.395926
-0.140168
0.111031
1.841890
-0.136238
0.975984
-0.117470
0.048321
0.916862
-0.415052
-1.063164
0.000527
-1.158260
0.929463
0.720391
-0.001380
1.448512
-0.204540
-1.110200
-0.471724
0.529138
-0.123854
-1.166617
1.007684
-0.270514
0.125499
0.111806
-0.096158
-2.401434
-0.368483
-0.398474
-0.662099
-0.424057
0.152517
2.370656
-0.137856
1.367147
0.050055
-0.346380
-0.215731
0.285255
0.508035
1.743450
1.661667
0.469998
1.100649
0.633597
-0.708158
1.414019
0.012077
0.565700
1.071619
-1.131235
3.186116
0.122803
-0.974818
-0.317084
1.093617
-0.868297
-1.297770
-1.203980
0.272302
1.582546
-0.911844
2.095788
0.035998
1.394511
0.716091
0.872055
-0.396640
-0.924948
0.936857
-0.621579
-0.308500
-0.994255
-0.066810
-1.486963
-1.326656
-0.770262
0.212284
-0.222442
-0.756132
-0.063500
-0.575993
-0.311143
1.836808
0.640683
-1.785045
-2.323117
0.955891
-0.927783
0.645271
1.204551
-1.557785
-0.925219
0.251282
1.816822
-0.732100
0.788285
0.925421
-0.491331
-1.461662
1.277006
0.693249
-2.400115
-1.065192
-0.090604
0.233171
-1.337522
1.290125
-0.834956
-2.000355
-0.666154
0.955361
0.931801
0.304636
-0.256795
-0.650029
0.118824
0.742843
-0.296421
1.719686
-0.229159
0.044353
-0.217375
0.773892
0.506724
-0.469237
-0.092421
-1.676329
-0.912792
0.542472
-0.409070
0.293651
1.253888
-0.937311
-0.240943
-0.524676
-0.115961
-0.245089
0.255331
-0.922931
0.015102
0.405024
-1.257977
1.591730
0.951644
0.887429
-0.778544
-1.185714
-0.694476
1.614431
-1.291280
-0.329323
-0.622732
0.211182
-0.024413
0.877458
-0.228344
0.122488
-1.577201
0.246626
-0.100637
-1.484038
1.779966
1.512066
-0.349165
-0.624946
0.271390
2.251460
-0.341445
0.223605
1.648439
1.324386
-1.777812
0.337222
0.252505
-0.271548
-0.957622
-1.464585
-1.152026
-0.881706
1.816985
-0.828253
2.399267
-2.912366
0.357317
0.792118
0.081421
-0.092519
0.520622
-0.718485
-0.930660
1.129152
-0.104739
-0.584208
-0.293223
-0.211512
1.441191
-0.176622
0.958365
0.877573
-0.041210
-0.140995
0.307541
-0.270661
0.390977
-1.510556
0.245789
0.590553
1.390773
0.251293
0.817730
-0.460085
-0.359533
-1.395854
-0.474388
0.686669
-1.825312
-1.548230
1.506490
-0.553744
-1.593303
1.433250
0.280469
-1.386222
1.485917
1.971628
0.449150
-0.017064
0.127587
-1.056697
0.155680
-0.397518
0.307393
-0.521279
-0.762560
0.393606
-0.903883
1.472360
-1.468735
0.382832
-1.307645
1.037900
-0.504835
0.025426
0.032441
-0.123744
1.875965
1.885140
-0.578381
-1.261129
-0.367334
0.635005
0.897632
0.269299
1.430554
1.020942
1.060931
1.599534
0.283893
1.131511
-0.671384
0.748341
-0.174042
0.121334
1.501589
-1.595306
0.968503
1.088076
0.115900
-1.108994
0.345158
0.173598
-1.486126
-1.178561
0.541675
0.443448
0.302554
-0.253270
0.402654
-0.840688
-1.383737
-1.312586
0.069385
1.336584
0.920391
-0.669529
1.827327
-1.587648
0.001783
1.921250
-0.325987
1.538774
-1.264653
-0.363458
-0.344698
-0.864263
2.237737
-1.084029
1.056118
-0.447796
-0.465118
-1.271812
-0.157114
1.170143
0.613902
0.611795
-0.761944
-1.348507
-0.075537
1.020538
-0.143245
-0.370614
-1.752755
-0.554764
0.350146
-0.102604
-0.623479
0.571216
-0.268637
0.308315
0.606629
0.339354
0.687614
0.675522
0.596744
-0.726636
-1.760003
-0.302417
0.769269
-0.389431
-0.374642
0.754463
-0.181538
-0.375425
0.194793
0.287581
0.512074
1.124660
0.219247
1.514511
-0.615723
0.784660
0.012440
-0.537893
-0.760879
-0.189840
0.249626
-0.808562
1.212913
-0.344918
1.461061
-1.327501
-0.269681
-2.015707
1.010336
0.451654
-1.188720
-1.145157
-0.168079
-0.717919
-1.060294
0.817981
-0.572538
0.584423
-2.155549
0.852091
-1.604337
-2.015848
1.380795
0.539053
1.837611
-0.476037
1.843850
1.403286
0.459106
1.843610
-0.066287
-0.708649
-0.863962
-0.012744
0.161498
-0.388829
-1.096904
0.046615
-1.520126
2.028675
0.419868
0.893010
0.396046
-1.230250
2.663457
-0.132386
0.872578
0.151221
0.407476
-1.142455
0.357395
-0.606063
0.293719
1.274598
-0.197445
-0.765494
0.937916
-0.350739
-0.348143
-3.132171
0.121990
-1.681246
1.882741
-1.500499
-1.162643
0.541962
0.827006
0.339085
0.301980
-2.129122
-0.388166
0.287463
-0.842532
-0.378416
-2.104524
-0.250585
-2.407759
0.507888
1.562072
-1.524763
1.159595
-0.906426
-0.370143
0.074300
-0.387723
-1.987437
0.317359
0.874944
0.169749
-0.468477
0.839948
0.630130
-0.021285
0.879541
0.138124
-0.874982
-0.004475
0.097196
1.640990
1.834779
-1.299509
0.124919
0.204194
0.785883
0.510870
-2.134669
-0.625498
0.512432
0.093236
-0.246338
0.267898
-1.579387
-0.125424
-1.118471
-0.525426
0.341159
0.683811
-0.609230
-0.833857
1.257525
-0.038321
1.386764
-0.078795
-0.727969
1.679871
-0.213756
-1.660682
-0.107732
-0.683944
1.667049
-0.820679
-0.281918
0.348080
0.315749
1.416013
-0.189818
-0.248005
0.429937
-1.389727
0.362868
-0.131927
-0.578866
-0.242406
0.781850
-0.491710
1.004515
2.660667
-0.172213
-0.364759
-1.733491
0.486983
1.122471
-0.273701
0.440919
1.406471
-0.840844
-0.636522
0.668563
1.064701
-2.316815
0.974669
0.095856
-0.988762
0.035068
0.889036
0.381787
-1.655061
-2.372013
1.317820
-0.867070
2.500955
0.771822
-0.675136
-0.638195
-0.010233
-1.422570
-1.254475
-1.808721
-0.666470
2.141369
1.663325
0.651649
-0.595321
-0.045932
-0.707392
-0.349899
0.081314
0.381288
1.952697
-0.556716
0.877120
-1.356645
1.218086
0.768550
0.649873
-0.745157
-0.657545
-0.641838
0.977879
-0.400846
-0.176690
-0.314796
-0.688172
-0.323946
-0.116073
-0.522701
0.007119
1.686347
0.642313
-1.216711
-0.443145
-0.486229
-0.951380
-0.158870
-1.506050
-0.427108
1.233057
-0.311581
-1.181373
-0.767805
0.181361
0.217386
1.655144
-0.316960
-0.025665
1.017938
-0.080461
-0.801895
0.347096
1.962526
-1.708347
0.427895
0.833058
-0.548280
-0.971330
1.851251
0.515867
1.996367
0.281208
0.927920
-0.014266
-0.426081
1.020793
0.916115
0.150168
0.125582
-1.161109
0.550089
-0.830635
0.412667
-0.425269
0.859801
0.369860
-0.946829
-2.067540
0.337408
-0.671144
-1.983449
-0.439642
1.056669
0.892058
-0.328475
-0.227692
-1.595222
-0.572604
-0.746034
1.259707
0.562019
0.026535
0.841283
0.918100
-0.135081
-0.299361
0.123392
-1.907520
0.283035
-0.086587
0.569882
-1.378234
-0.904044
-1.485853
0.275847
-1.351018
1.357745
-0.442354
2.101992
0.009070
-0.687150
0.076134
0.011224
-1.478254
-0.516732
0.343202
-0.112151
-0.332292
-0.131963
0.333426
0.439720
-3.748046
0.023208
-0.243717
0.667159
0.463108
0.018998
-1.007986
1.123938
0.881960
-0.636382
0.742823
0.438861
0.297659
-0.992969
-0.490954
-0.407759
0.801994
0.832636
-0.358672
0.151470
-0.866616
-1.121614
-1.708886
-0.925981
2.398969
-1.197908
-1.288148
-0.884293
-1.271760
0.303775
-1.608170
0.790673
0.856751
-0.503249
-1.792444
-1.096881
1.024176
0.359077
-1.184981
0.780249
0.223670
0.193155
0.268957
-1.227150
-0.871278
0.248198
-0.230575
1.261248
0.479575
-0.009404
-0.047082
-1.342939
-1.355552
0.387254
1.655070
1.111514
0.185650
1.190009
0.487882
0.114900
0.029072
0.694142
0.668522
0.145453
0.928659
0.110453
0.022677
-0.735663
-0.631918
0.769897
0.199898
-1.162445
0.746715
1.424593
-0.733131
0.898229
2.349553
0.917850
1.134487
0.916917
-0.021692
-0.051328
0.143815
0.491298
0.295326
-0.890107
1.106504
2.050410
0.533320
-2.231424
-0.939232
1.422688
1.378708
-0.374905
0.019012
-1.020492
-0.851366
-0.335339
2.242600
0.023868
0.433416
-0.020117
-1.410127
-0.321554
0.134427
3.042487
0.392515
-0.599371
-1.595929
0.600283
-0.463089
0.692913
-1.040607
0.207234
2.305792
-2.715710
-1.499835
-0.317348
0.064119
-1.115605
1.653330
-0.710342
0.565412
2.348477
1.541768
-0.698532
0.379734
-2.529044
0.548807
-0.678604
-0.216833
-0.844819
0.788076
-0.196626
0.084149
1.559351
2.422811
-1.117124
0.665426
-0.717473
-0.411358
-0.415755
0.793245
-0.444726
0.972843
-1.822306
0.081939
-0.367510
1.203715
-0.912094
1.053905
-0.713826
-0.866384
-0.190748
0.802455
-1.286135
0.694563
0.945784
-1.210230
-1.526151
0.928276
-0.141718
-0.674005
0.058412
0.562915
-0.092590
-0.208932
1.254568
-1.617453
-0.320845
1.339489
1.636408
0.484308
0.022857
-0.356594
0.336272
1.341287
0.967093
-1.219690
-0.848556
2.311703
-1.184719
-1.384284
-1.881356
0.897369
-1.154992
-1.316156
-0.931817
-0.519496
-0.430810
0.598348
0.117300
-0.743294
-1.900094
1.316787
-1.600456
-0.401470
1.731601
-0.225570
1.053182
1.019431
-1.423237
1.695298
0.177615
0.264692
-1.718060
-1.003273
-0.302650
0.329774
2.576614
1.593761
1.309699
-0.775137
-0.543218
-0.235798
-2.171753
1.532403
0.356502
-0.779342
0.611673
-1.369708
-1.439532
0.537434
-0.771650
0.030333
-1.603561
1.655803
0.299390
-0.437845
2.590673
-0.399592
0.257614
-0.555887
-0.499246
0.872644
1.339692
1.850094
-0.775198
-2.023099
-0.576450
-0.268337
-0.199778
-1.015705
1.618870
-0.182536
-0.596813
0.958557
-1.068579
0.797262
-0.828348
-0.449388
-0.853146
0.922186
-0.258458
-1.460058
1.116725
1.760086
-0.278083
-0.403612
2.043622
-0.085120
1.225518
-0.974243
-0.243451
-0.029196
-1.486688
-0.709059
-0.427649
1.051486
0.192350
-1.328713
0.178368
-0.998793
-0.581555
-0.785301
-1.317990
-1.528182
0.565314
0.595365
1.042824
1.812218
1.243876
0.839937
-1.008404
-2.402659
-0.071108
0.825165
0.557329
-0.243110
-1.121796
-0.207727
-1.218291
1.759415
-1.100200
0.218749
0.146086
0.807772
-0.156561
-0.077943
2.842175
0.277185
-1.042976
0.191517
-0.981774
-0.502517
1.164271
1.100923
-1.228208
1.656838
1.014672
0.748354
1.082908
-1.714226
0.442846
0.468495
0.388591
0.188833
-0.664728
-0.019705
-1.590727
-0.075611
-0.947710
-0.057576
-0.585021
0.748835
0.433337
-0.663987
-0.464316
-0.507554
-2.334259
0.946699
0.378838
-0.191091
-0.559921
0.514347
-0.722748
2.585038
0.101147
-0.305126
-0.276880
-0.801895
-1.694005
0.502171
-0.598937
0.723465
-1.558440
0.683718
0.476272
1.260125
1.971321
0.419593
0.744687
-1.524960
-0.531105
0.697016
0.311654
-1.098241
0.896717
0.971824
-2.062470
-1.745349
-1.021794
0.152788
-0.499380
-0.256327
-1.429434
0.274756
-0.579730
0.211525
0.924585
-0.680969
0.092192
0.091773
-0.424755
-1.143354
-0.216740
-0.455946
-1.062238
-1.426624
0.870197
-1.308025
-0.164564
1.376490
0.508934
0.296490
-1.236177
-0.485474
0.104179
0.317318
-0.762031
-0.470536
0.026717
-0.344174
-0.134322
-0.752866
-0.005036
-1.524922
0.823402
-1.146614
0.620672
0.283051
-0.006676
-0.425385
-1.084339
-0.622091
-0.512498
-0.568816
-0.059158
-0.658132
0.096168
-0.075003
-2.414582
-2.522257
-0.890287
-0.086516
-0.147407
-2.461498
0.880742
-0.347509
-2.242001
1.882040
-0.435347
1.957239
0.835669
0.984935
-0.071453
0.889109
0.166878
-0.026582
0.007802
-0.659568
1.132105
0.296054
-1.107339
1.397701
-0.326107
-0.351662
0.911494
1.207951
0.170216
1.320139
1.641355
-1.269170
-0.657561
0.113017
-0.880499
-0.689495
-1.286360
0.066055
-0.768404
0.547881
-0.723589
-0.924733
-0.227986
-0.129376
-0.313984
1.443029
0.787440
-0.345988
0.023854
0.719424
-0.428799
0.901958
-0.027858
0.175826
-0.873907
-0.378572
-0.916800
1.191147
-0.609450
0.655402
-1.350510
0.328067
0.167336
-0.569549
-1.323227
-0.711062
-0.496017
1.010855
-0.122517
-0.031189
0.359141
0.052897
1.384983
0.523529
-0.447588
0.912484
-0.613460
-1.042302
-0.138307
-0.869582
0.492534
-0.097958
0.490681
0.251959
0.867158
-1.313647
0.387016
-1.874594
0.433537
-0.554117
-1.129171
-0.367645
-1.854952
-0.033572
-0.599635
-1.215339
-0.672114
-0.774722
1.294026
0.367334
0.149355
1.493214
1.388436
-0.094134
-0.758516
0.722533
-2.268891
0.746290
-0.345750
-0.315261
1.447045
0.990149
-0.806408
-0.630782
2.444714
-1.310838
1.117205
-0.605874
-0.085320
-0.950388
2.093349
1.127100
-1.144279
-0.482840
-0.067311
0.957925
1.788343
0.723977
1.391665
1.324125
0.132582
-0.653880
-1.188103
0.652501
-0.031271
-0.280223
0.318275
-0.420810
0.198473
-0.727030
0.488037
-0.915495
0.658693
0.406096
0.435308
0.337633
-0.420547
-0.755973
-1.202747
1.151248
-0.011386
-1.005444
0.230738
0.652858
1.299355
1.577522
-1.424891
-0.317011
0.378657
-0.859407
0.184764
-0.909003
-0.007085
-2.406084
-1.158810
-1.648598
0.020707
0.614833
0.233250
-1.146599
1.105428
-0.780984
0.848294
-0.192398
-1.590833
1.429834
-0.081118
-0.228744
-0.068494
0.271785
-0.398398
0.737561
1.314278
-0.174510
0.612519
-1.465697
-0.135356
-0.255037
-0.290585
0.778316
1.272554
0.224357
0.382163
-1.235797
-1.534430
-0.481827
0.008787
0.928423
0.019785
-0.389552
-1.023269
-2.498420
0.232939
1.585380
0.224819
-0.093070
1.014323
-0.178988
-1.661594
-0.171866
0.045892
0.064828
1.730275
-0.923329
1.173337
0.783588
0.986731
-2.247838
0.220790
0.601176
-0.455430
0.830148
-2.409334
1.048271
-0.990992
1.498337
1.479463
-0.616611
0.865310
1.309284
0.092619
0.749092
0.873039
0.439816
-1.489761
1.075196
0.603032
-0.230392
-0.278030
0.549427
-3.665918
1.185760
-1.011903
1.059637
-0.260075
1.258203
-0.299734
-0.171811
-1.771395
-1.987651
-1.279975
-0.209948
0.139325
-0.722870
-0.879530
-0.986418
-0.965058
-0.112261
0.450489
-0.245088
0.879514
-0.251400
-2.004526
0.234713
-0.027693
-1.218515
-1.381362
-1.028421
-0.911768
0.310257
0.078033
0.852503
-0.218050
-0.892827
1.859586
-0.568278
0.735455
1.156950
0.378653
0.068014
0.164851
1.284722
-0.463615
-1.604025
1.253560
-0.768243
1.226892
-0.893367
2.876647
0.498119
-1.653355
-1.085214
-2.182421
-0.489523
-0.672945
1.115240
-0.017889
0.973095
-1.051271
1.490248
0.549301
-0.697422
-1.777475
-1.465316
-0.869353
1.050616
-0.381101
0.232036
1.229291
0.435025
0.610212
0.305432
0.654959
0.325062
0.232587
1.151243
-1.089855
1.082447
-0.499632
-0.587561
0.063662
3.138421
-0.786270
-0.332361
0.369719
0.271676
-0.751229
0.092469
1.886469
-0.914753
-0.658933
-0.746474
1.113891
0.403477
-1.266642
2.082103
0.939410
-1.654327
2.171648
1.101965
-1.599039
-0.082752
0.706362
0.958345
-0.069720
0.232584
0.596174
1.117414
-1.256799
1.002823
-0.135554
0.718209
0.503692
-1.266751
-0.346496
1.551924
-1.027492
-1.413147
1.639134
0.660918
-0.999806
-0.553157
-1.276473
-0.477382
-0.694998
-0.523531
-0.705322
-1.527017
-0.928795
-0.515182
0.130285
-0.073604
1.069913
-0.219614
1.690202
0.949378
0.566690
0.349965
0.982465
-1.034583
0.088834
-2.178086
0.756799
0.919996
0.677398
1.269102
-0.657889
-1.031852
-1.078902
-0.357706
1.239605
-0.217044
0.982173
2.851752
0.176183
0.033577
1.437355
-0.430883
-1.855253
0.276504
-1.171280
-2.202207
1.463046
0.472726
-0.362799
-1.848867
0.042308
1.245419
-0.631415
0.169525
-1.053633
-0.864263
1.463797
1.265309
2.666143
-1.479056
1.766499
-1.274804
0.597994
0.495564
1.273167
0.169148
0.870911
-0.463459
-0.366998
-0.654500
1.218512
0.935395
-0.659806
-0.203320
0.663916
-1.106046
-0.275575
0.749712
-2.164030
0.098149
1.833539
-0.583839
1.046821
-0.353294
-0.965164
-0.550505
-1.734625
0.749822
1.057466
1.001308
-1.123401
0.276508
-0.316309
0.500033
0.912084
-0.332278
0.233069
0.190426
0.339035
-0.892395
-0.306474
1.218114
0.616050
1.816975
0.843330
-0.139583
1.554447
0.459621
0.670362
-0.167485
-1.369204
1.662167
0.890791
-0.777643
-0.798368
-0.035032
0.060232
0.876172
-0.139533
0.074199
0.497950
-1.691546
-0.538584
-0.537767
1.444605
0.587705
0.743976
-1.180774
-0.495446
-2.954516
0.201471
-0.138158
0.443950
1.605178
0.091255
0.630732
-1.342449
0.131010
-1.103949
0.452836
0.523276
1.156217
-0.806800
0.336461
1.915366
0.580270
-0.339750
-0.409979
0.135801
0.509199
-1.492051
0.749206
0.508356
1.025960
0.346656
0.782234
-0.558953
1.087367
-0.010498
1.134613
-0.370137
-1.728356
0.049320
0.820357
0.493612
0.516371
0.803643
1.333902
0.545396
1.795013
-0.471955
-1.006312
1.314215
1.969574
0.392999
-0.838525
0.690327
1.084483
-1.087847
-0.772816
0.185114
2.065494
-0.486870
-0.704885
0.878591
0.062679
-1.839926
1.183287
1.222122
0.354461
0.472587
-0.934606
1.568488
0.621244
0.031402
-0.188799
0.543509
1.026188
-2.575550
-2.249135
0.428851
-0.795747
2.424500
-0.386585
-0.458484
-0.183818
-0.501520
0.660404
-0.285725
0.599889
-1.004168
0.934866
1.361270
-0.467092
-1.271053
-0.535718
0.838510
1.057443
0.546914
-0.037371
-0.791661
0.734469
0.204950
-0.493849
-0.820819
-0.020874
-1.342340
0.522212
0.625418
-0.563717
-0.528319
1.151507
-0.933292
0.268174
-0.195429
0.625615
-1.730292
0.211810
-1.511241
-0.032648
-0.328217
-1.487418
1.653255
-2.500235
-2.234457
-0.314618
-0.155350
0.061828
0.455671
1.013151
-0.731226
0.403557
0.275681
1.161593
0.392833
0.189335
-0.692786
-0.623210
1.468544
0.239658
-0.705445
-0.142579
-1.364577
-1.392294
-0.215228
-0.964495
-0.417765
-1.380904
-2.002755
0.609663
0.945620
-2.008659
0.115457
0.285000
0.315503
-1.457411
-0.424532
-0.905482
0.649898
-0.219493
-0.833214
-1.216170
0.568711
-0.354227
-0.282952
-0.453234
1.351819
0.027644
0.094203
1.587097
0.539156
-0.162077
0.296173
-0.998620
-0.021024
-1.825192
0.333010
-0.241756
-2.241557
0.637761
-1.624434
-1.788088
1.460038
-0.163636
0.644441
-0.394028
0.932196
-0.877793
0.424676
0.706265
0.223292
-0.996101
0.683787
0.660273
1.179044
-0.920520
-0.825564
-0.715471
-1.000768
0.872275
-0.416542
0.306449
-0.880399
0.696268
0.178653
-0.660631
-1.697201
-1.112498
0.187965
-0.667083
-0.844511
1.610294
-1.136590
0.185587
-0.273582
0.271833
0.003529
2.241937
1.084340
-0.930678
0.033060
1.233322
-0.962585
1.367040
-1.047689
-0.660291
1.194394
-2.381087
0.374654
-1.096380
1.298053
-2.117863
-0.686488
0.618620
0.213395
-0.787793
3.005426
1.040540
0.449833
-0.272585
0.368288
-1.005549
0.173605
0.700685
0.719811
-0.378492
-2.311061
0.816148
0.985758
0.712548
-1.762648
-0.800713
-1.705250
0.563485
0.237030
-0.471942
-0.846681
1.333622
-1.101511
-0.096980
-0.022636
0.192227
-0.235672
-1.237378
0.116221
0.959373
0.764343
1.669243
1.234674
2.207983
0.017522
0.280227
0.272685
1.298132
-0.049544
0.419940
0.645200
-1.916271
0.283180
0.086037
0.300797
0.793391
1.035414
1.211257
0.107311
-0.379323
0.592173
-0.538343
0.383556
-0.723693
0.623650
0.019058
-1.554116
-0.914241
0.780997
1.079397
-1.355048
0.956214
-1.016686
0.055008
1.521147
-0.013275
-0.525540
-1.252061
0.813948
0.889615
-0.236990
-0.613153
1.018973
-1.427716
0.909141
-0.688344
-0.502184
-1.462895
-0.463056
-1.466149
-0.309440
0.801954
-0.186730
0.895328
0.044090
0.152944
1.306575
0.103807
-0.367718
0.341532
0.411281
-0.495532
0.274259
-0.638700
-1.613215
-1.650140
0.788358
0.253247
0.223449
0.773351
-0.730714
-0.225457
1.623526
-0.320214
-0.652893
1.155128
0.704986
1.621385
-1.236939
0.349944
-1.446880
-2.258686
-0.655120
2.461336
-0.090032
0.718398
0.770676
0.833451
-0.658331
-0.553272
0.254162
-1.281389
0.330326
-0.951338
1.119589
-1.302301
0.739913
-0.756671
-0.261415
-0.396056
-0.353725
-0.091092
1.957126
-1.190163
-1.538726
0.115110
1.187351
0.599257
1.252847
0.208266
0.185565
0.385457
0.968925
-0.935501
-1.179799
0.727839
0.360474
-0.697881
0.388235
-0.058711
0.836774
-1.628712
0.220592
0.150969
0.041580
1.251069
-0.572697
-0.374753
0.652778
1.400860
-0.022638
-1.120877
0.098565
-0.547798
-1.148045
-0.497008
0.607005
0.963709
-0.723008
-0.899494
0.289994
-0.190614
-1.528697
0.799466
-0.475387
-0.318116
2.800661
0.653166
1.003887
-1.052666
-0.124002
-0.851529
-0.833161
-0.421445
0.110093
-1.089711
-1.045080
-0.532090
0.131937
-0.117532
0.296993
-0.669198
-0.372020
0.577653
0.178294
0.733722
-0.786558
-1.431531
-0.717719
0.182678
0.883266
1.536711
-1.542943
-1.001321
-0.552131
1.149917
-0.768285
-0.591992
1.184672
-0.814337
-0.412962
-1.095651
-1.073251
0.887366
0.864733
0.265658
0.040091
-0.272594
0.176358
-1.764062
-0.394280
-0.026831
-1.186519
-1.764468
0.458145
-0.236435
-1.820001
-0.147452
-1.224793
1.487785
-0.470354
1.690563
0.821908
1.089639
-0.877572
-2.056715
0.290926
-0.867601
-0.079544
-0.182487
-0.292389
0.293146
1.244503
1.357650
0.956638
-1.331283
-1.150060
-2.221744
-0.990674
-1.053449
0.680750
1.956028
0.149624
0.773776
0.285744
-0.210349
0.565082
-0.111025
0.090302
0.382110
-1.676408
-1.122568
-0.509097
-0.370932
0.644947
0.998477
0.834838
-0.304732
-0.277871
1.528340
0.083145
-0.841820
0.368290
0.143199
0.381586
0.714926
-0.038644
-1.195858
-0.123749
-0.016337
0.417904
-1.355804
-1.277445
0.212360
-2.038390
-1.149092
0.263241
1.631282
-0.359322
-0.046115
-1.397097
-0.883097
0.872224
0.376964
1.535509
-1.520900
-1.043530
0.101633
-0.957434
0.373038
1.776463
-1.916485
-1.689551
-0.110104
-1.210176
-0.295803
0.084602
0.877853
0.386539
-0.512078
0.843310
-2.319567
0.553900
-0.682369
0.558927
-0.065438
-0.849899
-0.798208
-0.213688
-0.295768
0.022665
-0.820744
0.426673
0.157203
-1.088593
-0.184739
-0.837490
-0.294557
-0.080185
-2.534327
-1.528849
-0.749597
-0.452174
0.668114
0.785285
-0.734916
0.933507
0.838560
0.688069
0.678485
0.089882
0.725742
0.778856
1.052563
-0.957893
-0.931506
-1.017084
0.294768
-1.377326
-0.366194
-0.274213
0.311449
0.080246
-0.083291
-0.180716
1.902454
1.118615
1.039394
0.918146
-0.157024
-0.426611
0.651400
-1.206030
-0.695759
0.318442
-1.651163
-1.945840
0.930907
0.815786
-1.115087
0.289944
1.349322
1.498360
1.234562
1.751100
0.578973
-1.671227
-0.497393
0.665043
-0.992761
0.401924
-0.452839
-0.953758
-2.186476
0.714585
0.887102
2.291470
1.990907
0.249288
0.536415
-0.657975
-0.020253
-0.222011
0.144947
0.094853
-0.198847
-0.302125
-0.643961
-0.661461
-0.743642
-1.004015
-0.597631
0.201435
-0.999421
-0.222614
-0.337843
1.094005
-0.509966
0.696943
-0.968144
-0.624583
0.432327
-2.059638
0.713832
-1.675056
-1.061673
-1.536772
1.449615
1.871916
-0.943300
0.342204
-0.357508
0.148441
1.487115
-1.759731
-0.302209
-0.857309
-0.236991
0.371254
1.412483
0.167360
0.704957
-0.159891
0.387548
0.292878
0.069032
1.173927
-0.263658
-0.113863
0.044446
-0.767799
-0.365296
0.494718
-0.823439
1.211466
0.822756
1.426265
-1.771584
0.512303
-0.803899
0.575055
-1.055525
-0.231645
0.933705
-0.472605
0.167150
0.011351
-1.450174
0.218297
0.637053
1.177746
-0.477530
0.335664
0.904841
-0.943970
-2.392088
-1.139962
-0.114799
0.680511
-1.459990
-0.351323
-1.036039
0.966767
1.368492
-0.000666
-0.688205
0.177761
-0.278828
-0.713342
1.074760
-2.400204
-0.394514
0.664535
-0.366411
-0.098502
0.665877
-0.636266
0.738400
0.660872
1.478339
-0.437163
0.678784
-0.987809
-0.501109
0.323391
2.197312
0.183767
2.018395
-0.582332
1.874090
1.638170
-0.384794
0.593175
-1.312778
0.223885
-0.957079
-0.411325
-2.007888
-1.429299
-1.331058
0.096753
0.023723
1.550546
1.491854
-0.017646
-0.016745
-0.088920
1.530281
-0.160334
0.429516
0.520254
0.168527
2.376086
0.438259
0.268745
1.073956
0.085668
1.255329
0.555536
-1.353339
0.609230
0.496527
-1.035467
1.950404
-1.758114
0.625822
-0.773676
-1.713678
-0.210435
-2.347544
1.231616
1.894459
-0.811886
1.809885
-1.030757
0.689424
-0.391350
0.136750
0.872567
-0.721803
-0.267887
-1.265702
1.065884
0.293553
-0.720022
-0.946777
-1.639361
-1.086520
-0.550164
-0.327490
-0.178460
0.554374
0.119886
0.769263
-1.060772
-0.923797
-1.095702
-0.983047
0.413168
-0.486952
-0.424997
-0.629766
0.346303
-0.109479
0.203300
1.393238
-2.442985
0.538032
-0.904258
0.493718
1.184682
0.389671
-0.682474
-0.327055
1.122582
0.100733
-0.134646
-3.145258
-1.054663
-0.301981
0.433440
-0.371732
0.056448
-0.608943
-0.836013
-1.403779
-0.682936
1.531228
-0.855727
0.160573
0.631386
1.931397
0.215944
-1.608787
0.162320
-0.579871
0.461002
-0.181263
1.131664
0.178311
0.351304
0.138819
0.037260
0.302518
-0.257749
-0.232483
-0.010462
-1.247241
0.700098
0.036488
0.075056
-0.658548
-2.128059
0.989379
-0.446435
0.589542
-1.383746
1.097280
-0.075002
-0.219526
1.582725
-1.320043
-0.065084
-0.322693
-0.597028
-0.169315
-0.610793
0.079400
-1.724495
0.092524
0.811169
-0.315478
0.678667
-0.349813
-1.823572
-0.793760
-0.888342
0.686948
0.646589
-0.170075
0.486198
2.263332
0.236654
0.752651
1.210238
0.050080
-0.552027
-1.128738
-1.812555
-0.764279
1.656376
1.366699
0.287978
0.864931
0.666962
-1.024772
1.170414
0.327484
-0.654452
0.837529
-0.835567
0.931437
0.376582
-0.920676
1.320565
1.980012
0.058924
1.226310
0.918090
1.029592
0.223706
0.490724
-0.259238
0.567145
1.606528
-0.977556
-1.130281
-0.013946
-0.970025
1.075971
-0.293024
-0.979087
1.744899
1.239893
-0.667672
-0.416486
-1.363588
0.493629
-0.782955
-0.036573
0.417690
-0.420552
-1.656597
0.287619
-0.059476
-0.415268
-1.150479
-0.277812
-0.458922
0.040677
-1.432548
-0.197988
-1.047140
0.846423
-0.852079
1.162516
2.279724
0.080203
1.046948
2.164634
-1.239480
1.149031
1.164587
0.545104
-0.002157
-0.339318
-0.207557
0.271246
-0.058506
-0.595899
-1.622895
1.215741
-0.906225
-0.356980
0.635907
-0.028083
-0.392176
1.137108
0.136127
-1.446659
-0.004683
0.550753
-1.146092
1.073144
-0.446748
0.678785
0.379748
0.842529
1.484935
-0.837561
0.533826
0.093112
-0.773647
-2.584776
-0.404847
0.269638
-0.988827
-0.668151
0.511028
-0.410293
2.534599
-0.829520
0.319406
0.995026
-1.142406
1.638010
0.656020
0.117127
0.216517
0.164471
-0.112890
1.112351
-0.123436
0.469421
-0.348623
0.607655
-0.721219
-1.274206
-0.374497
-1.302444
-0.466657
-0.076197
-0.031256
-0.193085
1.165138
1.275922
-0.866831
-0.276490
-1.775492
-0.215762
-0.721590
1.254030
-1.339314
-1.149240
-1.009112
0.742424
0.750186
0.360438
1.011661
-0.652626
-0.282822
0.370035
0.441614
-0.808306
1.062707
0.183638
0.990393
0.691286
0.861477
-0.113375
-1.288128
-2.707670
0.535418
-1.139992
-1.887716
2.191694
-0.120651
-0.969219
0.459278
0.002040
-0.090217
0.528589
1.155517
0.654260
0.546187
-0.011311
-0.286076
-1.046521
-1.475113
1.895718
0.509510
0.176848
0.242372
0.366751
0.273273
0.678745
0.853995
-1.108377
-0.728034
-0.450360
1.364879
1.204301
-0.118000
0.974229
0.156440
0.560040
2.328315
0.261079
-1.494227
0.729762
0.936145
0.441760
0.472598
0.061729
0.591111
-0.366688
0.187230
1.064484
0.715795
-1.234109
0.270706
0.221744
0.692388
1.397856
-0.217629
-1.581992
-0.582643
0.406133
0.542012
-0.609231
1.309398
0.301665
1.106798
0.287116
0.222391
-0.694837
0.889690
1.403280
-1.384256
-0.278668
-1.348223
-0.136188
-2.156289
0.356875
1.582209
0.212979
-0.890098
-0.889170
-0.205579
-1.503681
1.317597
0.436343
1.325016
-0.622489
-1.223034
-1.259046
0.168072
-0.132000
-0.479884
0.162048
1.290348
0.318334
0.728643
-0.777561
-0.570874
0.949774
-1.189959
0.695928
0.437726
2.305831
-1.035809
-0.304231
-0.144173
-1.290548
-1.409627
-0.506764
1.671064
0.052677
-0.126218
1.654671
-0.094261
-2.019037
-2.345467
0.550391
0.391992
0.217254
0.744698
0.576549
0.297973
-0.439708
-1.080448
-0.622597
0.194357
-0.960605
0.307597
0.595824
-0.201012
0.551871
-0.258874
-0.035193
-1.740789
-0.098834
0.632552
-0.685855
1.218896
-0.607010
-0.870606
1.498354
-0.663509
0.146195
0.066569
0.465587
-0.585067
0.003359
-0.794479
-0.895308
-0.229708
0.119713
-0.220936
0.523909
-0.304693
0.645550
2.033388
0.092185
0.287711
-0.648446
0.841583
-0.178010
-0.871379
1.382292
-1.789704
-0.234362
-0.659124
0.457563
-0.238198
0.469310
-0.783636
0.318041
0.609051
-0.059890
0.234721
-0.703978
0.350732
-1.080227
-0.340276
0.539560
1.609395
-1.440801
0.216437
0.715701
0.390503
1.417264
-0.926463
2.033046
1.029857
1.226288
1.328191
-0.226620
0.741853
-1.002592
1.205307
-0.774840
-2.130009
-0.426444
-0.415035
-0.198075
1.693004
2.356355
0.812476
-1.491681
0.545582
1.840208
-0.356946
0.538665
0.523098
-2.345963
0.038922
0.751222
1.140782
1.149278
-0.303665
-0.424710
1.821454
1.236971
-0.191317
1.151501
2.119880
0.974869
0.050500
0.410483
1.889238
-0.194586
0.886990
1.565684
-0.962500
-0.582808
-0.455420
-0.812890
-2.264957
1.445340
-0.147951
0.824052
-0.562931
-0.068763
1.339714
-1.141617
1.442697
1.710500
0.474133
1.639084
-0.069823
-1.034903
-1.288872
-2.699510
-1.823363
-2.401978
0.216539
0.725635
-0.607974
-0.068109
-0.393772
1.341987
-1.830688
1.254657
0.609505
0.788096
0.299898
-0.953639
1.791942
-0.290858
-0.631502
0.407220
-1.219719
-1.015231
-0.345992
1.759273
0.966142
-1.115924
-0.273175
-0.579951
-0.148466
-0.256216
0.352635
-0.152322
-0.675535
1.041027
1.268140
1.161967
-0.931187
0.311682
0.581687
-1.122425
0.222153
-1.690263
-1.094485
-1.015483
-0.361286
0.977193
0.850533
-0.981861
0.114743
-0.124975
-1.882000
1.120274
-0.676865
-1.233303
-0.147132
0.618027
-0.612642
0.237186
-0.464328
0.410423
0.019868
0.973770
-1.374045
0.470176
-1.790427
1.168662
-0.247786
-0.476793
0.745030
-0.685534
-1.041178
-0.605589
0.309702
0.117002
0.487743
-0.425920
-1.372407
-0.069922
-0.059688
0.016227
-0.373942
-0.321697
-2.278562
0.561084
1.891079
0.282411
-0.912256
0.286714
0.460106
-0.286013
0.560494
-1.014786
-0.701216
-0.798417
-0.573998
-1.364754
1.168779
1.336753
0.210980
-0.953940
1.021128
-0.028616
0.511879
3.107478
-1.326269
2.815869
-1.142749
1.591445
-0.170166
-0.444194
-1.554634
0.779579
0.365663
-0.800177
1.018648
0.473689
0.656197
0.478105
-0.278042
-0.308761
-0.351843
0.988692
-0.043014
-0.049608
-0.770209
-1.403189
-0.076344
-0.300323
0.920068
0.285044
0.666746
0.291090
-2.124306
2.037038
1.195138
0.001442
-1.335941
-1.825224
0.203624
-0.841481
-0.009875
0.241234
-0.285544
1.286142
0.046694
-0.088997
-0.120462
1.076062
-0.019359
-0.140570
1.460532
0.362909
1.320738
-3.222622
0.663227
0.460297
-1.283875
0.049425
-0.051223
0.748454
0.160636
1.156434
-0.951248
-0.117268
-1.719535
0.955588
-0.800992
0.934252
1.565093
-1.064409
-1.273592
0.599044
0.478420
-0.982475
-0.220434
2.164558
-0.717458
0.734773
0.075083
0.024396
-0.652981
0.024294
-0.544222
0.169672
0.542795
0.824240
0.324367
-0.649612
-2.024798
-0.001496
-0.338018
-0.089686
0.958519
1.169341
1.168807
0.024451
-1.356009
1.086968
-0.956783
-0.279112
0.141557
-0.040501
0.248597
-1.199818
0.328690
-0.554136
0.425631
-0.726198
-0.939601
-0.476073
0.698035
2.186830
-2.046957
-0.751565
-0.398578
-0.383919
-0.182779
0.719867
0.905763
-0.198351
1.764967
-2.716847
1.876325
-0.965264
2.217797
-0.777219
-1.009880
0.118283
1.220229
1.167409
-1.247717
0.017785
1.065335
-0.861370
0.705772
-0.677864
-0.598713
0.075015
1.714648
-2.243402
-0.212101
0.027024
0.367384
-0.721005
0.672267
-1.271021
0.108038
-0.437119
-1.557161
-1.576690
-0.434591
-1.484466
-0.391445
-1.466045
0.329940
-0.507667
0.119069
-1.223432
-1.195874
-0.272021
1.137232
-0.356123
-1.637028
0.433012
-2.353695
0.736929
0.685397
-0.455760
-1.559700
0.258535
0.385592
0.877859
-0.883071
-0.110665
0.422811
-0.076649
1.845471
-0.468305
-0.391169
1.459595
-0.458265
-1.257102
1.380302
-0.664361
0.620447
-0.071912
0.114290
0.745179
1.660599
-0.174891
-0.056107
0.767471
-0.047063
0.370582
0.792683
-0.078946
-0.065418
1.128069
-0.098672
-0.212106
-0.350767
0.306054
1.556154
0.319897
0.073630
0.636824
2.048862
-2.549413
1.731935
-0.489089
-2.037797
0.589601
0.118376
0.140701
-0.080878
0.184865
-0.537360
1.088217
1.259715
-0.946695
-0.925480
1.684905
-0.105211
0.704195
1.065113
-1.133609
0.710830
1.670375
0.911387
0.138143
0.626734
-0.696554
1.283906
-0.199159
1.374780
-1.026585
-1.680210
-0.121259
-1.264812
0.404460
1.636008
0.082219
-0.279093
-0.286346
-2.032947
-0.033715
0.199838
-1.524956
1.016402
0.101220
1.451414
0.268254
1.167564
1.039055
-0.379386
0.000382
0.054683
0.036334
-0.497746
0.714404
-0.188592
-1.713830
1.444002
0.549739
-0.331724
-0.584800
0.954609
1.138203
-0.404090
-1.143952
1.108253
0.529847
0.394608
0.439531
-0.893769
0.255568
0.976074
-0.831326
-0.106729
-0.683983
-1.913963
0.438936
-0.723721
-0.596731
-0.170031
-1.047224
0.845549
-0.242258
-0.382640
0.162701
0.302461
-0.259474
1.174579
0.726063
0.921477
0.611450
-0.353477
0.597350
-0.062679
0.061448
-0.037718
-0.451079
0.478287
0.482890
-0.386483
1.071049
-1.979645
-0.869091
-1.790760
-1.142379
-1.176228
2.146029
-1.659534
1.040216
0.508399
0.357468
0.561200
-0.150231
-0.323711
0.367327
0.619360
0.332508
-0.909890
-0.493658
-0.349637
0.195117
0.266664
-0.116903
1.086040
1.070550
0.826226
-0.596855
0.796836
-0.296091
0.501247
0.423053
0.456855
0.621551
0.257991
0.372189
-0.971918
-1.778092
-0.840863
0.211429
-0.875512
-0.755309
1.003887
-1.657742
1.409048
-0.466649
-0.812667
-1.068750
-0.509667
-0.265505
-0.795612
-0.062330
-0.945171
-2.399433
1.907174
-1.009428
1.346156
0.514225
-0.089285
-1.142127
-1.727953
2.341693
0.006873
-0.940723
0.556041
-0.899504
0.147031
0.500419
0.466039
0.348183
1.076038
-0.202915
0.668233
-1.569157
-0.029662
-1.525200
-0.731539
0.115068
0.061585
-1.057279
0.117529
0.329207
1.450346
-1.042167
-1.077937
1.782083
-0.482059
0.427035
0.770987
-0.568117
-1.362999
-0.634397
0.345558
0.470202
-0.504027
-1.905807
0.599953
0.541148
-0.813798
-0.967941
0.004190
-1.804371
-0.816213
-1.768149
1.637744
1.553773
-1.273899
1.055729
0.095549
-0.613769
-0.772161
1.067013
1.562574
-0.688343
-1.931076
0.706630
-0.118851
1.307300
-0.802335
1.060001
0.415457
-0.554898
-1.294644
2.084852
-1.223671
0.959593
-0.009979
-1.697665
0.165485
0.483628
1.595465
0.659547
-0.484899
-1.048980
0.258886
-1.250256
-0.624045
-0.472947
-0.545514
0.476559
0.408501
-1.333829
-1.152803
-0.992829
0.887945
0.645558
-0.217322
1.545524
0.685221
-1.783421
-0.681562
-0.349379
1.308398
-0.061737
1.534525
0.053285
0.043050
-2.154577
-0.615302
-0.418019
-0.896483
0.989531
1.735363
0.063752
-1.421578
0.213727
-0.438172
2.352397
0.863031
0.164485
0.193272
-0.206877
0.531079
-0.991642
0.090326
-0.159592
0.268163
-0.391698
-1.053492
0.665058
1.344033
-0.087482
-0.511453
-0.365737
-0.077365
-0.387293
0.299190
0.736137
-1.038154
-0.337559
-0.671040
-0.449417
0.171029
1.322258
-1.645141
0.035847
-0.486693
0.611326
-0.659711
0.763575
0.803607
0.411227
-0.234906
0.492545
-0.158912
-0.008350
-0.098328
0.376721
0.889176
0.510828
-0.024608
1.610448
-0.877030
0.289443
-2.182788
0.001673
-1.279942
1.062215
0.404904
0.793495
-1.631244
0.070391
-0.373335
0.914463
0.040398
-1.009764
-1.324518
0.450473
-0.290378
-0.026382
1.186049
0.033304
-0.763478
0.897400
-1.606502
-1.711384
0.032064
-0.627914
1.091463
-1.357735
