1.302254
-1.499629
-0.391873
-0.077057
1.018170
0.998409
0.558275
-1.600393
-0.218288
-1.649277
-0.996089
-0.859128
-0.853603
-0.451313
1.484171
1.172343
1.718180
-0.955352
0.608791
-1.243897
-0.257575
-0.899439
1.124518
-0.178452
0.097493
0.518204
0.009029
1.048907
-0.580579
-0.685258
1.232727
0.599101
-0.211108
-1.009414
0.082684
-0.370631
-1.091792
0.177736
0.860633
-0.953822
0.947549
-0.380964
-0.408215
-2.537670
0.073188
-0.151586
0.026725
-0.499090
-1.109736
-2.092198
1.012624
-2.901383
0.764442
0.827601
-1.454205
0.240646
0.757206
-1.121332
-1.355324
0.811634
-2.101523
0.920389
1.840081
-0.987484
-2.313668
0.611769
-1.368969
-0.129172
0.055706
-1.794182
-0.192106
-0.097214
0.354672
-0.772039
0.622577
-0.257192
0.709468
0.787124
-0.456065
1.078450
0.498773
-0.271873
0.298918
0.239583
-0.120120
1.576529
-0.348688
0.169418
-3.071004
-0.037120
-0.308756
1.889965
0.810179
-0.401237
-0.725635
1.053523
0.261671
2.615655
0.781608
-0.258797
-1.793684
-0.670484
-0.758490
0.188464
1.433672
-2.081274
1.516004
0.891166
1.173378
-0.143355
-0.548755
-0.707128
-0.816109
-1.147124
0.710046
0.871521
-0.047517
-0.734461
-0.825796
0.413117
-0.600232
-0.301935
1.922926
0.332429
-0.159723
0.454028
-0.204173
-0.350002
1.120736
-0.883736
1.277437
-0.117723
0.064098
0.209554
-0.802458
0.185806
-0.091017
-1.035945
-0.063854
-1.160712
-0.885928
0.152772
1.918973
-1.485432
-1.008131
0.722141
0.952951
0.164879
-0.048120
-2.781825
-1.647765
0.227261
1.997138
-0.470726
0.587689
1.773718
-1.098203
-0.144127
-0.362467
-0.517292
-0.524686
0.855227
-0.632073
-0.126497
0.510165
-1.518242
0.778436
-0.134914
0.371074
0.004316
-0.173495
-0.069992
0.338706
2.836147
1.041708
0.399373
0.681422
0.445200
1.824535
-0.565498
0.976694
0.663102
-0.357907
0.501675
-0.443358
0.443237
-1.123699
0.516455
-0.426684
0.623442
0.366714
-1.391031
-1.310606
1.445781
-0.219165
-0.626506
2.966051
-0.017864
-0.541704
-0.304794
-1.667504
-2.066823
-1.477755
0.346642
-1.064150
1.592128
-0.246263
-0.371782
1.808383
-2.047405
-0.199438
0.607146
0.683372
1.486694
-0.040642
-0.743511
0.230811
-0.332540
0.238431
0.465818
-0.280040
3.090857
-1.197486
1.295430
-2.144081
-0.272158
0.653877
-0.952525
-0.032061
-0.336277
1.836646
1.009374
0.236192
-0.916584
1.183503
0.168175
-0.222566
-0.282848
0.047296
-0.249830
0.615501
0.421025
0.636004
0.412167
-0.303684
-0.403865
0.428359
1.464825
0.679490
-0.623122
-0.297827
0.488986
0.113265
-0.428717
-0.968623
0.991962
-0.819842
-0.413934
0.999361
0.144038
0.651145
0.808645
1.993451
-0.630427
-0.968767
-1.120218
0.882352
0.121886
-0.430064
-0.777753
1.205346
0.224577
0.074862
0.759799
-0.533399
-1.286346
-0.539253
1.024688
1.199632
0.338011
-2.627421
0.612639
-1.103391
-1.762840
-0.615820
-1.232521
1.529865
0.499067
0.533961
0.225285
-0.224394
-0.406601
-1.570362
0.420828
0.436111
2.412815
-0.006316
1.590844
0.597902
1.829932
0.886156
1.064390
-0.613133
0.030679
-0.099988
0.947730
0.654878
-0.841785
0.591227
-0.230424
-1.013155
-1.902692
1.290804
-0.678544
0.862266
-0.628712
-0.827082
-0.503558
0.787511
-1.003939
-0.171742
0.180890
-1.191226
-0.054901
0.426853
-0.724088
2.598148
-0.526935
0.941916
0.803042
-0.593603
-0.474330
-0.710700
0.850462
-1.167441
-2.220718
0.019407
-1.943615
0.750957
1.501209
-1.742814
-0.876307
-1.296014
-0.379628
-0.283912
-1.304752
-0.347294
0.875455
-1.400499
0.428351
-0.592623
0.777357
-0.444211
-1.106598
0.604922
1.208387
-0.475195
0.419115
-0.263936
1.424661
-0.766850
0.851691
0.678792
1.002956
-0.542738
-1.041110
-0.651217
-1.644868
-0.529119
0.753938
-1.561660
0.604780
0.454155
0.299939
-1.250081
-0.010821
-0.312431
-0.971724
-0.240797
-0.004765
1.914608
0.160055
0.142366
1.175451
0.398957
-0.113846
-0.419619
-1.822101
0.026313
-0.308361
-1.117182
-0.758105
0.218944
-1.178939
-1.876567
-1.467502
-0.553429
1.091938
-2.473749
0.065003
-0.567352
-0.358665
-0.374305
-1.666712
-0.852929
0.777283
-0.382476
0.879516
-0.685587
0.792199
0.032923
-0.348995
1.576649
0.920379
1.339163
1.391473
-0.941473
-0.108276
0.609891
-0.885122
-0.022489
0.288003
0.810161
-0.150708
0.345788
-0.379012
-0.782885
-0.441922
0.649368
0.801337
-1.282633
-0.457476
0.912504
0.124504
0.824764
0.604731
-0.036339
-0.673873
-0.635226
-2.528576
-0.666965
-0.643590
-0.671352
-0.456025
0.783300
-0.258500
0.119076
0.663973
-0.013413
0.557460
0.787751
-2.132254
0.223608
0.034852
0.443695
0.985136
0.505740
1.630630
0.459896
0.242423
-1.290654
0.748666
1.569232
0.587636
1.319013
0.873407
-0.455254
-1.339724
0.549105
0.129220
0.243640
-0.244721
-0.818946
0.181566
0.687881
-0.324846
0.765141
1.173620
1.440378
-0.659946
0.430484
0.712010
-1.036762
0.571649
0.446016
-0.794032
0.003145
1.099959
-1.257396
0.053788
-0.186109
-0.028102
-0.636995
-0.577163
0.579698
0.512277
1.011089
0.098392
-0.281310
0.829175
0.153855
-1.402097
0.256929
0.164551
-1.614953
-0.210658
0.021030
0.674033
-0.905070
-0.729011
-0.604667
0.499456
-0.936484
-0.175832
-0.163763
-0.985002
0.694226
0.337209
-0.568965
-1.209520
0.712834
1.071820
0.946970
0.289791
0.242153
0.026311
-0.452640
0.055974
1.333673
-2.702147
0.193066
0.125596
-0.960698
-1.704584
0.691967
0.278656
0.528483
2.427170
0.798129
-0.434296
1.061717
-1.859966
-0.919059
1.274653
-1.330796
0.048875
-0.367313
-0.452745
0.564877
0.326546
-1.668835
-1.396792
1.370130
2.239331
1.188208
-0.834253
3.115098
0.242756
0.052004
-0.928308
-0.334794
-2.153143
1.439025
2.112123
-0.320022
2.617459
0.694954
0.509305
-0.776758
-2.893255
0.341283
-0.696542
0.260775
1.027368
0.674547
1.992420
-1.858142
-0.448831
0.913871
-0.560145
-0.562072
-0.764453
1.842581
1.292178
-0.604599
0.236445
0.699275
1.746839
-1.031295
0.823909
-0.095709
-0.278466
2.043536
1.212080
1.149116
-0.451171
0.353430
-0.715111
-0.362940
-0.062497
0.804424
-0.079049
-0.903344
-0.423630
0.419218
-0.687375
1.303645
0.033905
-0.142766
-0.234471
-0.903184
-0.119280
-1.376867
0.386112
0.212300
0.048168
1.749298
0.005021
1.051325
1.493318
-0.555353
-1.518183
-0.687039
0.093963
-0.707687
-0.198295
-0.693958
-0.065826
-2.146644
-0.736030
1.686975
-0.694713
-1.105008
0.056397
-0.888464
1.299533
0.840516
-0.681662
0.234127
-0.239344
0.308534
-1.736307
-0.193805
0.163770
-0.734807
-0.643777
1.401397
0.417482
0.168806
0.188445
-0.316435
0.969334
-0.538098
0.156501
1.606065
-0.186396
-0.319582
-0.599400
-0.140801
-0.143076
-1.720345
0.413705
0.129040
-1.136167
-0.007892
-0.175579
-1.029086
-0.910447
-0.857301
-0.732476
0.096360
2.274313
-0.309941
-0.353641
1.877075
-0.989367
-0.776308
0.659902
1.170173
1.524186
0.057224
-0.166833
-0.036193
-0.469073
0.141152
0.810607
0.436937
-0.923023
-1.503497
0.838220
-0.092499
-0.351764
-0.425091
-0.768771
-0.304107
0.830975
0.621292
0.017638
0.437985
-0.679217
-1.222480
0.226087
1.650619
-0.367254
-0.628604
-1.882908
-1.267864
0.190579
-1.347581
1.996680
-0.403526
-0.627553
-0.012952
0.027271
1.693253
-0.720593
1.093542
3.041423
0.974596
-0.937503
0.872129
-0.564730
-0.313945
-0.654006
-0.144537
0.160010
-0.308852
-0.008510
1.237516
0.495528
0.345701
-0.698408
0.611910
-0.275763
0.901299
0.814752
-1.366414
0.058473
-1.011011
-0.517624
-0.178963
-1.703850
-0.125958
-1.011586
1.842592
-0.866757
-0.652655
-0.468364
-0.460189
0.544708
2.117197
-0.477301
0.386026
0.111087
0.374077
-1.946743
0.550254
-0.455503
-1.106687
1.169710
0.493576
0.922638
1.486848
-0.035713
-1.199396
1.307984
0.171203
1.152063
-0.569670
-0.407666
-0.796798
-0.528357
0.055283
0.614202
-1.176472
-0.678283
0.895671
-0.445595
-1.124275
-1.164425
0.371170
-0.590506
0.674295
-0.491521
1.719177
0.218250
-1.498685
-2.457323
1.196428
1.193242
-0.861269
-0.272228
0.042664
1.030706
0.286578
-1.156076
0.190480
-0.438447
0.243769
-1.613763
1.375112
0.055842
-0.701262
0.000327
1.052658
-0.754552
-0.432572
-0.025785
-0.330852
1.234245
0.392176
2.289270
-0.762808
-0.486216
-0.048239
-0.488968
-1.446208
0.764660
-0.880760
-0.741744
0.563913
-1.808544
0.628680
1.800262
-0.776383
2.016254
0.558680
-1.011422
0.636159
1.311588
0.314171
0.463219
-0.423781
-1.504758
1.811609
-2.186775
-1.508811
0.074391
-0.502974
0.853334
0.045393
-1.237559
-1.865499
0.962564
0.344983
0.095434
-0.445961
1.043665
-0.078868
-1.790857
0.575705
-0.190757
-0.236484
-0.425724
1.187998
0.771901
1.121970
0.415150
0.137125
-0.030914
-1.632989
0.155670
-0.093429
-0.093740
0.263406
-0.434232
2.066764
0.253567
-0.120882
0.655333
0.555383
-0.579842
0.288897
-0.956285
-0.301416
0.677052
-0.744460
0.686971
1.333824
-1.114250
1.745638
-1.529258
0.294602
-0.871337
-1.215361
-0.392531
-1.070995
0.380910
0.719186
0.432871
1.439331
1.010513
1.402261
-0.700627
-0.333472
1.772435
0.346734
0.248561
0.697174
-1.137069
-1.107695
-0.629243
-0.078143
-0.238224
1.757539
-0.465887
-0.007650
-0.250523
-1.053250
-0.626139
-0.343501
1.001024
0.696596
-1.506506
-0.218516
-0.405226
0.647168
-0.045473
0.288341
0.671160
0.654150
2.573817
0.087635
-0.321180
-2.776700
0.724394
-0.527399
-0.638285
-1.792690
-0.599152
-0.535276
2.463158
2.016338
-0.300712
-0.329553
0.195707
-1.619218
-1.228221
1.587773
-1.900515
1.118691
0.199367
1.104180
-1.901485
-1.192595
-0.160746
-0.666619
-0.208845
-1.051579
-1.006507
1.431984
-1.748687
-1.366242
1.698929
-0.103983
1.023016
-1.003783
0.685865
0.049227
-1.227322
-0.592575
0.230720
0.636944
-1.409528
-0.439712
-1.412485
0.575790
-1.135266
0.645652
0.775021
-0.367360
0.236504
-1.013901
0.399081
-1.091573
1.181285
-0.799755
-0.981207
-0.620808
-0.928966
-0.138892
-0.470051
0.829349
0.867929
-1.310357
0.565009
-0.487101
-0.279853
0.105672
-0.371078
0.318467
1.232012
0.809886
1.483965
-0.796957
-0.318891
0.610965
0.113376
-0.156738
0.390030
-1.541553
-1.184711
0.139500
-1.500592
0.218474
0.833359
-0.424588
0.303004
-0.009013
-2.282974
1.632418
-1.538348
-1.449107
1.500033
-1.108730
0.935174
0.572683
0.249010
-0.542475
-1.026414
0.512008
-1.587484
-0.062055
1.518147
2.644967
2.195261
-0.157445
-0.653780
0.436009
-0.310365
-0.096881
-0.792501
-0.181736
1.601638
-0.518367
-1.540557
-0.800751
0.770606
-0.139571
0.912811
0.473994
-1.343358
0.763797
-0.056233
-0.909670
0.651786
-0.994527
0.402715
0.697012
-1.127607
-1.289933
-1.000973
2.372370
0.990040
0.591933
0.637447
0.109332
-0.525278
-0.155511
-1.253804
-0.380554
0.647406
0.099574
2.685571
1.207483
-1.618186
1.560143
-1.441044
0.915188
-0.384317
-0.391165
0.935076
0.670609
-0.123130
0.477466
-1.197861
0.724713
-0.132329
1.589775
0.873711
-0.159184
-0.607268
2.151922
1.450993
-1.270078
0.680744
1.654824
-0.511112
1.655046
0.693533
-0.560860
-0.269329
-0.497519
0.306267
0.835822
0.076925
1.031737
-1.062186
-0.161069
-1.619108
0.826912
-2.257435
1.209727
-1.164019
-1.511740
0.428012
-0.541081
0.857015
0.266901
0.137261
0.937775
-1.439566
0.732093
-0.341755
0.951179
-0.613494
-0.588783
0.357070
0.799058
-0.235579
3.162946
-1.490599
-1.033202
-0.461239
0.146223
0.595435
1.917422
0.191711
-1.616413
-1.006868
0.123752
0.070510
-0.340039
0.999720
0.548274
0.538868
0.422727
0.715139
-0.730157
-1.012592
-0.319803
0.662046
0.452818
-1.489713
-1.114018
1.611568
0.837220
1.310772
0.918031
-1.324411
-0.095703
1.892960
-0.432130
1.003110
-1.759405
-0.521022
-1.188125
-0.911459
0.053994
0.854544
-0.375842
1.595313
0.080295
1.074556
-0.817804
0.575145
0.576631
0.192964
1.323228
1.410271
-1.710911
-0.462139
-0.706742
-0.671975
0.807825
-0.499632
1.527864
1.044942
-0.890691
0.883126
-0.114439
-1.015841
-0.242710
-0.837291
-0.640518
-0.344456
1.470000
0.562774
1.810989
0.795923
-0.537170
-0.239499
0.570232
-0.690486
1.820492
-0.189278
-0.116417
-1.288627
-1.963683
-1.699866
0.937362
-0.717946
-1.586356
0.840018
2.369401
-0.720570
-0.513646
-0.082834
0.407770
-2.006210
1.015418
-0.588795
1.363917
0.362997
0.550841
0.489815
0.885834
-0.970782
-1.183287
-0.021804
0.425421
0.045991
-0.800526
-0.045085
0.674062
0.844899
-2.236100
-1.248058
-0.002754
0.180599
0.556723
0.062509
-0.990947
1.140562
-0.353434
0.485059
1.225961
-1.065040
-0.965291
-0.068017
-0.436147
-0.494252
-0.196055
2.405756
0.075720
-0.990923
-1.041279
0.336536
-0.541919
0.986613
-0.398096
0.925894
0.540275
-0.237833
-0.223915
-0.295529
-1.114790
0.039261
0.544085
0.373646
0.674167
-1.271639
0.591574
0.083685
0.183248
-0.311551
-0.206046
-0.006066
1.110778
0.862289
0.124797
-0.069873
-0.761841
0.017262
1.899710
1.395024
-0.824699
0.380551
-1.820190
2.410765
-0.451355
0.724022
0.653082
-0.174705
-0.515311
-1.122640
1.054808
0.796203
-0.737288
1.033587
-0.173920
0.737218
-0.792717
0.051183
0.428424
0.530982
-0.641773
-0.183198
0.134214
0.364992
0.546189
-2.324396
0.469157
0.172664
0.642064
1.026125
-0.582768
-0.731058
1.646810
-1.468215
0.112116
-2.363394
-1.156754
-0.298324
-0.025941
-0.658545
1.616599
-0.016460
-1.123406
-1.191822
-0.752000
1.719643
-1.380546
-1.021669
0.251873
-0.162122
-0.399108
0.495855
0.707700
-0.314922
0.501469
-1.042515
-0.511146
0.296848
-1.086450
0.601460
-1.549824
0.338526
1.708181
0.686668
-0.675281
-1.213522
1.125020
1.758070
0.584692
0.023100
-1.028336
-0.152441
-0.162117
1.307006
0.230985
-1.595582
-0.735028
0.282014
-1.352070
0.664355
-0.175631
-0.706993
-0.759968
-1.208246
0.375098
-2.188002
-0.364932
-0.168192
-0.123985
0.086280
0.622732
-0.373723
1.452810
0.831506
0.808398
-1.059005
1.765912
-1.105817
-0.045076
1.619758
-0.727662
-1.932316
0.001371
-1.292905
-0.396473
-0.451787
0.053563
0.096905
2.712993
1.603742
-0.527475
-1.041690
1.218352
-2.370881
0.137398
-0.752713
-0.742692
-0.585928
0.238131
-0.685362
2.677202
0.816886
0.212072
0.220077
1.724960
0.333695
0.705017
-0.558144
0.692857
-1.100961
0.319292
-0.231708
-0.457812
0.270127
0.395989
-2.128649
-0.945160
-0.991900
-0.805143
-0.452387
-0.876155
0.108340
1.548917
0.418466
0.096968
-1.895113
2.191421
1.099672
-2.308162
0.826688
0.609557
-0.375989
0.425132
0.304840
1.941923
-0.578987
-0.760977
-0.734989
0.102458
-0.429758
1.576710
0.123113
1.228298
-1.505571
-0.088134
-0.052238
0.494291
-0.535212
-0.200986
-1.063368
-1.576066
1.793140
-2.237274
-0.145120
-0.184063
0.979718
0.590837
1.861166
-0.818846
0.988451
2.070657
-0.581904
-0.383817
-1.618150
-1.789441
-0.318886
-1.554475
0.204372
2.115038
0.413000
-0.764477
-0.703729
-0.725871
-1.299104
-1.115237
-0.298087
-0.394830
-0.077075
-1.211363
-1.525048
0.363190
0.099079
0.782522
0.218759
-1.831025
-0.208773
-0.483550
0.865061
-1.726592
-0.955831
0.010142
1.089107
-1.000266
1.947237
0.078137
1.026555
-0.215787
0.670021
-0.952394
-0.369606
-0.365118
-0.356055
-1.449060
-0.402428
0.936991
-1.647492
1.174837
0.984965
-0.188144
0.106524
-0.114858
-0.022627
0.347010
1.762986
0.282952
-0.566460
1.606560
0.329148
-1.607978
-0.279157
2.616470
0.103079
-0.855118
0.340979
0.516947
-0.356277
-1.667779
-0.035576
0.861211
0.945883
1.134483
-0.165210
-0.360137
-0.394155
-1.053167
1.541341
1.219396
0.432734
-0.635356
0.027382
0.711352
-2.175512
-0.234777
-0.422559
0.884445
-0.135391
-0.009796
-1.115770
-0.584414
0.533415
0.784343
-0.150700
0.157749
-0.831959
-0.499467
1.010724
-0.000154
0.246787
-1.082231
1.074109
0.481282
0.067436
-0.714439
-0.938538
-1.294172
0.098279
1.172421
-0.557606
-0.090477
0.465613
0.575757
-0.108066
-0.975971
0.466936
0.966012
1.590278
1.690492
-0.362838
1.137686
-0.429302
0.014738
-1.157509
0.720865
0.106878
0.686412
-0.397008
-0.681229
-0.715261
0.117768
-0.091440
0.239408
0.729011
0.645811
-1.421434
0.483804
0.429597
0.632677
-0.280865
0.663128
-0.554776
0.530222
-0.864815
0.419593
-1.572250
-0.405142
0.102971
0.648848
0.803943
0.079916
-1.909526
0.060844
-0.266946
-0.808122
0.775841
-0.117633
0.050329
0.764081
0.345536
0.525590
0.170985
0.551847
0.455177
0.070107
0.278176
-1.346300
-0.453995
-1.548365
0.703316
-0.736103
0.713477
0.536522
-0.448971
0.152280
-0.655424
-0.304170
0.830283
-0.495725
-1.870933
-0.198731
0.063724
-1.374376
1.299317
0.208907
-0.427464
-1.253004
-0.125275
-0.085226
-0.009924
-0.382001
-1.154122
-0.584001
-0.675567
1.648427
-0.053720
-0.457531
-0.568683
0.538556
0.795169
-0.046874
-0.850717
1.608493
0.599967
0.549440
-0.109763
-0.906801
-0.740119
0.060506
0.547707
0.159618
-0.554764
1.864388
-1.024286
-0.694915
0.189890
0.582418
0.083806
-1.007619
-1.149430
-0.416256
0.499615
0.181771
-0.423927
-1.568960
0.591612
0.778271
-0.866569
0.810586
0.265033
0.339067
-0.330564
-1.667386
0.391502
0.317358
-0.967425
-0.616576
2.712209
-1.260961
1.859208
-0.458766
-1.442785
0.105237
-2.259319
1.733219
0.413336
0.133482
0.695640
-0.822686
1.065061
-0.670609
1.038714
-0.134798
0.009975
1.185826
3.499275
-0.284417
-0.117059
2.267069
0.782330
-2.204794
-0.585825
-0.091277
-0.340982
-0.782417
-0.373262
-0.587009
0.139790
0.547956
1.513704
0.945925
-0.026398
-0.092499
-0.362150
-0.235171
-1.517697
2.274538
-0.037268
-1.062989
-1.903229
1.157255
-0.833920
-1.276009
-0.312471
-1.048820
0.574340
-0.131819
-0.742590
0.767074
-0.595252
-0.549763
-0.713364
-0.029817
0.932223
0.571958
-1.734486
-1.489715
-0.329122
-0.622211
1.825937
-0.169239
1.311359
-0.461017
-0.998402
0.392156
-0.734377
0.881112
0.746858
-0.505685
-0.514778
-0.498910
-0.010638
-0.709446
2.164262
2.398583
1.861597
1.556458
-0.931825
-0.192424
-0.219959
0.607432
-0.198571
-0.097549
0.141735
0.641051
-0.191711
0.656242
0.717861
0.529216
-0.802543
0.639456
0.927489
-2.306797
-0.223763
-0.713867
-0.452714
0.129526
0.117319
-1.898503
-0.710512
1.950545
0.047284
-0.414552
0.232388
-0.247148
-0.422212
-0.786570
-1.869398
0.034169
-0.210620
-0.388275
1.383097
-1.180822
0.116715
-0.118062
0.332160
0.779355
1.214854
0.299849
0.404329
-2.516726
-0.967398
0.194627
-1.572974
-0.865386
-0.210613
0.050210
0.851071
-0.957596
0.868112
0.483387
0.783194
1.224771
2.618382
0.695488
1.819336
-1.554283
1.205508
-2.093873
0.115428
-0.465527
1.103958
0.463770
-0.209435
0.999020
0.881762
-0.615303
0.427082
-0.140992
-0.441576
-1.315697
0.288366
1.175835
-0.071582
-0.625064
1.315710
-0.502652
1.076302
0.163292
-0.171830
-1.387414
-0.150025
-1.105788
-0.190315
0.716776
0.577045
-0.620556
1.664392
0.518189
-0.766397
-0.328278
-2.475728
0.098313
-1.687240
0.301318
1.318162
0.505847
0.649718
0.304980
-1.077444
-1.933948
0.133442
-0.111812
0.739097
-0.462633
-0.387976
1.483262
0.785802
-0.240199
-1.213863
-0.135964
-2.003869
-1.253192
0.821971
-0.401787
-0.658493
-0.130288
0.022888
-0.102870
-0.622073
0.060161
-0.106247
-0.774195
1.110818
1.485588
0.465580
-2.062972
0.690226
0.961597
0.804562
0.487041
0.024257
-0.468573
0.374678
-0.238023
1.019386
-0.838586
0.105608
-0.111717
-1.256881
1.681820
0.212671
-0.179564
-2.051894
-0.054067
-0.064388
0.590409
-1.138833
-0.994395
0.339731
-0.256517
0.296728
0.682985
1.231620
0.113111
0.480378
1.362236
-2.414925
1.618406
0.054471
1.432325
0.621102
-0.456400
-0.591052
-0.699128
1.072559
-0.307775
-0.302231
1.003677
0.824839
0.555958
1.185491
0.207910
3.365543
0.481466
-1.433920
-0.682008
0.706048
-1.301751
-0.679216
0.174432
-0.556331
1.401976
1.341270
1.874655
0.100664
0.425882
-0.742197
-0.236727
-0.196940
-1.025353
-0.578925
-1.031814
-0.076124
-0.321927
-0.492262
0.717748
-0.112715
-0.030912
-1.528013
0.278249
0.761221
0.075750
0.274935
2.053037
-2.549436
2.307301
0.341581
-0.257901
0.112973
3.042298
0.920866
-0.045286
1.793493
0.879261
-0.043977
-0.956558
1.930598
0.598039
-0.792533
-0.738529
-0.652754
0.125204
-1.543111
0.558232
0.111207
-0.692158
1.282277
-0.394174
-1.006860
0.434578
0.750359
0.839906
0.478387
0.956254
-1.685797
-0.956340
0.116473
-0.018245
0.318834
-0.705461
-0.009158
0.847930
-0.440394
0.798540
-0.736564
-1.187137
-0.770755
0.682086
-2.024425
-0.002452
0.701751
0.445216
-0.947236
1.166275
-1.085323
1.294524
-0.817340
0.274566
0.454469
-1.019175
0.260709
0.597489
-0.664999
-0.344431
-0.529647
-0.645840
0.512331
-1.938638
-0.184043
-1.428136
0.562205
0.651499
-0.782455
0.471835
-0.278193
-0.421713
0.389809
-0.355578
1.031854
1.476853
-0.918642
1.199078
-0.413695
0.410673
-0.968943
0.850769
0.161143
0.664646
-0.645538
0.812192
-1.419787
0.078393
-1.327039
-0.727410
0.096396
-1.891019
-1.520826
0.136594
-0.560517
0.615183
-0.083676
0.934674
-0.645260
-0.807829
1.720703
-1.835786
0.872191
2.733610
0.442011
-1.112682
-0.512319
0.834130
0.012285
1.247417
-0.360614
-1.492846
-1.088076
-1.029710
1.432812
0.159264
-0.803582
0.329056
-0.745470
-0.907802
0.583767
0.215906
0.637313
1.185951
1.981792
0.306350
0.546803
-1.996180
-0.862090
-0.987842
0.785436
-0.960566
-0.554163
-2.890345
-1.291764
0.583421
0.687985
0.558766
-0.066083
-1.180188
-0.171698
1.138746
-0.108445
0.480993
-0.290595
1.370742
-0.279551
0.537671
0.285354
-0.065807
-0.286716
-0.710198
-0.505902
0.702198
0.530347
-1.071326
0.473103
-1.561824
0.676418
-0.949017
0.997968
-0.174080
-0.408647
-1.368299
-0.642241
-0.276812
0.243010
0.432915
1.102260
1.119892
-0.499251
-1.631362
-0.158181
-0.838647
2.888758
0.226886
-0.079993
-0.137709
-0.381232
-0.139415
-0.228516
0.192572
-1.580189
0.315383
-0.729517
-0.477514
1.710724
0.143246
-0.330433
0.196231
-0.579781
-0.739000
1.082057
0.532696
-0.250214
1.165190
0.246160
0.655946
0.605807
-0.820100
1.037680
1.018576
0.617853
-0.346150
-1.365690
-0.019423
0.959873
-0.508909
-1.462010
1.092472
-0.958512
-0.599826
-0.360790
-0.270165
-1.899995
-0.461107
-0.549223
1.719027
2.233218
0.183507
0.471572
0.399178
-0.168940
1.431838
-0.033727
-0.131740
-2.601750
-0.367901
0.552922
-1.431147
1.778067
-1.099172
0.741667
0.792886
-1.055612
0.956414
-0.937128
-0.726574
-0.432326
-0.172234
-0.361645
-0.410909
1.193468
1.842838
0.859336
-0.945806
1.750224
0.452308
0.206551
0.297414
0.799955
-1.525483
2.366740
1.494590
2.350815
0.952785
-0.391830
-1.253836
0.151396
0.189137
0.016948
-0.564133
-0.217115
-0.739726
0.238142
0.425677
-0.927775
-0.050596
0.775783
-0.509345
-0.135220
-1.763140
-0.095801
0.025776
0.832709
-0.381141
0.688938
0.908933
0.345363
2.290263
1.133830
0.778564
0.533047
0.715104
-0.168918
0.973057
-0.622616
-0.421761
0.110101
-1.694621
2.032947
-1.908752
-2.244764
-1.564440
1.507640
-0.164760
-0.193601
-0.749212
0.461734
1.452547
-2.174576
0.227809
1.313465
-0.510344
1.861841
-0.552142
0.899686
-2.610970
0.323560
-0.364320
1.147599
-0.926082
-0.970379
0.294319
-0.244069
-0.064896
0.855711
-0.032502
0.123120
-0.170543
0.174404
0.375609
-1.705700
-0.368167
-1.200028
0.499342
-0.980420
0.166065
2.230067
1.373171
-1.840503
-0.461401
-1.938655
-0.735767
1.418102
0.131251
-0.372998
1.014369
-0.765391
-0.863651
-1.187457
-0.164804
-1.394506
-1.073326
0.085843
0.397368
-0.775477
-0.963895
1.325156
0.382453
-0.923491
-0.483099
-0.687872
0.355320
-0.661060
0.679390
0.184664
0.698005
-0.335012
-1.954932
-0.015871
-0.715687
-0.840997
0.978512
0.181957
0.167666
-0.554342
-0.202418
-2.393812
-1.351153
-0.739524
2.005853
-0.924089
-1.508173
-1.378398
1.298595
-0.545125
-0.487448
1.169653
-0.011348
1.791458
-2.014084
-0.572812
-1.446867
0.695746
0.112294
-0.945628
-0.788326
-0.683292
-1.097774
-1.701629
-0.308482
0.680882
-0.454480
0.197786
-0.364121
0.098504
0.049285
-0.285644
1.778388
-0.420921
-0.240546
0.485317
-0.510089
0.922132
-0.989938
0.835447
-0.409887
-1.657929
0.636488
-0.941945
0.955437
0.157570
0.574080
1.056693
-0.482761
1.729707
-1.105755
0.884670
0.057352
-1.443051
-0.074567
1.704381
-0.569546
-0.278958
0.354069
-0.077866
-0.048747
-1.969400
0.910253
-0.965097
-1.930276
2.158730
-2.375722
-0.086798
0.327610
0.676410
-0.932561
-1.064631
-0.787544
-0.222210
-0.940963
0.403946
-0.492264
0.330316
-0.373567
0.237038
0.334433
0.428904
0.587836
2.735031
0.743636
0.037597
0.534150
-0.284579
0.382337
0.778453
0.957201
0.050166
1.200963
-1.496511
1.327833
-0.471977
-0.817736
0.465114
1.421493
1.680724
0.184160
0.091403
0.235109
-0.245278
0.978617
0.987201
0.770491
2.218315
-0.261292
0.007049
0.181657
-0.747353
-1.900392
0.369552
1.065285
-1.977306
-0.364401
0.297304
0.558041
-0.252611
0.561627
0.298924
-1.121637
-0.542370
0.168523
-0.547179
-0.882586
-0.207177
-0.435955
-0.366946
-1.050118
-0.392143
1.796993
-1.643333
-0.043642
0.487802
0.442286
-1.612526
-0.622582
0.945123
0.837084
-0.272599
-1.399251
0.281679
-0.300791
-0.437797
-1.565284
0.316946
-0.790244
-1.131656
2.191074
-0.073573
0.170417
-0.079273
0.828089
-0.470696
2.104107
0.506623
0.524422
-0.588164
0.584600
-0.746601
0.611598
0.311931
-0.788222
-0.697809
0.719569
1.562016
-0.810567
0.536970
1.106638
0.186052
1.168433
-0.495857
0.801768
1.728989
-1.275673
0.541750
0.653799
-0.177570
-0.410869
-0.114882
1.151191
0.330503
0.253013
0.301195
-0.443296
-0.392482
-0.208036
-0.473826
0.833459
0.917607
-0.268018
-0.966375
-3.092674
1.033555
0.147392
-1.059999
1.136791
-0.476658
-0.849259
0.071707
0.484726
-0.107533
2.569987
-0.515900
-0.812643
-0.283432
-1.953947
0.810961
1.318566
0.085120
-0.231406
0.258704
-2.716043
0.667786
-0.296744
-0.229050
-0.663506
2.019841
1.405852
-0.952608
0.489205
0.443926
0.888588
-0.501482
-1.015125
0.382436
0.813604
-1.157895
0.477774
1.072256
1.394778
-0.321235
-0.072267
-0.795754
-0.460317
1.847943
0.171460
-1.890879
1.763005
0.975737
-0.599709
1.347166
0.783998
0.821241
0.424089
0.386442
-0.856220
-1.480276
-1.591007
-0.088649
-0.716905
-1.467323
-1.545173
-0.910486
1.489219
-0.058026
0.677476
1.669048
1.059337
0.328548
0.944475
-0.599038
0.251903
-0.481015
1.225565
-0.600529
-0.979794
-1.244192
0.512797
1.401222
1.125543
0.829897
-0.351007
0.086897
-1.397279
0.297987
0.775469
-1.466417
0.348139
0.150753
0.679784
-0.129491
-0.272357
-0.520505
-0.398326
-0.448458
-0.144511
0.028020
1.885833
-0.147139
-1.823316
1.256351
-1.042294
1.017895
-0.241101
0.701047
2.297524
0.604030
0.864469
1.461862
1.476657
1.747734
2.202122
1.271435
-0.437400
-0.625583
-0.103176
0.633351
-1.242449
3.259866
-0.831152
-0.235558
1.140889
-1.177565
0.132341
0.777081
-0.273275
-0.167954
0.425668
-0.742476
1.190299
-1.222636
-0.154671
-1.148629
0.370528
-0.997562
-0.530727
-1.213286
-1.064777
-1.036204
0.069938
0.178921
1.415141
1.398914
-2.210045
0.224777
0.415028
1.273316
-1.598302
1.375702
0.396788
-0.616741
-0.969764
-0.934434
1.039960
1.481825
-0.630506
0.148522
0.670373
0.546987
-0.100228
1.142175
-2.328291
0.320090
-0.224323
-1.277351
0.463888
0.655378
0.098372
0.033578
1.146321
1.195514
1.288166
0.734393
0.877243
-1.096823
-0.350360
-0.613748
1.645306
-0.379126
1.138804
1.607400
1.004145
1.710128
2.223582
-0.203719
0.304372
-0.701908
-0.164601
-0.021475
1.926650
-0.584468
0.580768
0.934124
-1.656866
0.221413
0.473707
-0.217948
0.448488
0.421254
0.728386
0.520670
2.429472
0.937687
-0.096387
0.332301
-2.141732
-1.751210
-1.139328
-0.879234
1.266197
1.133312
-1.253579
-1.255871
1.478699
0.135371
-0.224693
0.801558
-1.734013
1.296767
-1.380701
1.275025
-1.348051
0.889711
0.771557
-0.217167
2.406680
-1.776686
-0.205131
-0.659790
-0.324430
1.354220
1.254146
-0.583023
-0.214391
1.229833
0.105476
1.924384
0.823266
0.544692
-2.280448
-0.395032
-0.167418
0.057063
-1.329829
0.447229
2.156734
-0.990665
-1.715517
-0.905802
0.060878
0.501244
0.200282
-0.379868
0.943316
0.511621
-0.708401
0.235752
0.367492
0.804394
1.571587
1.656756
-3.261437
-1.285633
0.887534
0.553362
-2.124839
-1.385476
0.786073
-1.915159
-0.323700
0.807915
-0.391244
-0.200259
-0.160685
-2.206262
1.398107
0.602057
-1.508245
1.021350
-0.056258
0.109595
0.044024
1.274038
1.818143
1.967343
0.064376
-0.861752
-2.195510
0.978295
-1.206430
-1.443476
-1.268544
0.168119
-1.758549
0.500704
-2.421925
-1.381816
-0.704747
-0.078857
-0.642883
-1.773045
0.287993
-0.982978
1.053404
0.942265
0.183625
-1.142834
-0.701447
0.217658
-0.712947
-0.022347
-2.037390
0.950125
-0.954375
-0.173662
1.218820
-0.287904
0.420581
-1.910197
-1.377491
-0.334843
0.680416
0.708656
0.972808
-2.200473
1.194200
-0.228558
-1.299882
0.722937
0.419548
0.289570
0.687111
1.992969
-0.155365
1.202842
2.016917
0.862586
0.511590
0.336697
1.243128
-0.225656
-0.185724
-0.056016
1.840435
-0.169362
-0.476878
-0.475016
-0.315923
-2.069499
-1.702374
-0.493856
0.316546
0.709041
-0.168804
0.967495
-0.772530
-1.378471
0.808055
0.842018
0.247232
-0.764284
0.733584
0.202604
-0.358604
-0.883528
0.907805
-0.081654
1.148073
-2.344872
-0.534414
-0.164069
-1.631093
-0.030203
-1.132283
0.087503
1.493814
-0.506943
0.512718
0.427613
1.283022
2.105643
-0.189679
1.005961
-0.220752
-0.875051
0.383588
1.666610
1.412022
2.475044
-1.277119
-0.926345
1.903028
-1.293491
-0.397577
0.597779
-1.083699
2.422997
1.271801
0.002925
0.520388
-2.585802
-0.609450
2.234987
-0.952554
-0.355476
3.414101
1.064441
-0.724690
0.069396
-0.831512
1.230608
-0.415636
0.075645
0.077027
0.565770
-0.346032
1.692871
-2.437678
-0.036655
-0.016547
-2.098461
0.477470
-1.509789
-1.187485
-0.522872
0.154379
-0.459050
-0.996371
-2.634438
-0.890051
-0.271836
-0.844761
0.512347
0.419785
1.891747
-1.831330
0.283678
-0.437860
0.157008
1.025504
-0.004959
0.703863
0.521188
0.571173
-0.397950
-0.225047
-1.497980
0.325987
-0.039998
0.164942
-0.701989
2.194528
0.849454
0.594020
0.348385
-0.337330
-0.725051
0.283546
1.517637
-2.083830
0.555195
-0.012799
-0.586399
-1.949363
0.524557
0.379177
-0.165912
-0.255791
0.447609
0.729653
-1.144098
-0.244363
0.301308
1.778269
0.152320
-0.092736
-0.837866
-1.051630
0.968337
-0.652693
-0.743212
0.944031
1.692888
-0.349356
-0.832430
0.184383
-0.614128
-0.538531
0.538580
0.494833
-1.427688
-0.405735
-1.217210
0.596018
1.418795
-1.041201
-0.527145
-0.642033
-0.065902
0.142608
2.190846
0.528201
-0.640140
2.220488
-0.203471
-1.275695
-1.447197
-0.506434
-0.564703
-0.503931
1.282460
-0.947755
-0.464421
1.033290
-0.054732
2.042643
0.716067
-1.254297
-0.970424
0.459232
0.164780
-0.829531
1.580064
0.039491
1.441343
-1.094646
-0.592617
-0.854314
0.296332
-0.442503
1.409033
-0.201044
2.069228
-1.137128
0.426815
1.122815
-1.127586
-0.231499
0.188997
0.025282
0.213698
0.526499
-1.122826
-0.134090
-0.627242
-1.648543
0.936364
-0.611352
-0.192874
-1.920233
-0.635512
1.065198
-0.443971
-2.400312
-0.775384
0.407876
-0.754687
-0.226118
0.271204
0.619630
-0.719790
1.686728
-0.946898
-2.018467
0.052825
-1.137312
-0.341866
-0.112688
1.268450
-0.699154
-0.866732
-0.132688
0.176246
-0.885783
-0.050377
-1.438190
-0.897087
0.892137
-0.566769
0.131347
-1.293481
-0.961179
1.075633
0.854873
0.026088
2.166526
1.464182
-2.403987
0.293693
-0.048018
0.989015
0.424691
0.364058
-1.210317
-1.360420
1.248900
-1.638191
1.117574
2.822093
-0.162279
1.324647
0.493778
0.964286
0.277785
0.867531
0.522324
0.686677
0.371477
-1.367080
-1.830780
-2.010911
0.556098
1.924480
-0.837354
-1.722840
0.892887
1.061643
-0.622587
0.553399
0.770840
0.072588
0.699678
0.994698
1.234467
-1.386058
-0.468716
-0.620099
-0.236406
-0.575780
0.521708
0.810978
1.281258
-1.601790
-1.315079
-0.045454
-0.089600
1.145798
0.698151
1.381340
-0.111750
1.542260
-0.304172
0.354916
-0.744770
-1.295410
0.635366
-0.168182
0.143648
1.031974
1.210933
-1.223786
0.052446
-0.013883
0.430996
-0.103758
-0.553382
0.292298
-0.908835
-0.038586
-0.660315
0.221725
-1.332367
-0.016465
1.865928
0.182792
-1.059939
-1.311071
-1.617887
-1.256956
-1.062667
1.821041
0.929897
0.724693
0.511418
-0.565273
-0.959997
-0.166719
-0.223587
0.192186
-0.459641
0.235970
-0.646323
0.126432
0.220166
0.282768
0.412985
-0.660122
0.252972
0.199379
-0.291931
1.520869
0.035099
-0.851986
-1.764786
0.998067
-1.056069
-0.661525
-0.982887
-0.343286
-0.317214
0.782503
-0.586608
-0.058959
0.242348
1.212218
1.224797
0.742945
-1.108575
-0.698436
-1.689363
2.143425
1.178684
-0.218859
0.330833
-0.276759
-0.696116
-0.673402
-1.421221
-0.386549
0.054377
0.430649
-0.008190
0.096892
-0.988724
-1.632098
-0.403415
0.155992
-0.419990
-0.105900
-1.319362
1.536893
-2.002296
1.678309
-0.945349
1.685782
-2.545092
-0.287267
2.447116
0.113391
0.006976
-0.179941
0.509991
-2.118640
-0.603231
-0.311171
-1.057954
0.891323
0.963991
0.143137
-0.498597
0.908677
-0.245304
0.628690
-0.034213
-0.580227
1.098384
1.786353
1.790795
-1.003522
0.629699
1.387410
0.269799
-0.141575
-0.628001
0.688689
1.802763
0.340515
-0.945607
1.035860
-1.105459
0.360134
0.754622
0.444030
-0.207656
0.095743
-0.578260
-1.031476
0.440550
-0.350465
-0.949563
-0.963485
1.463406
-0.544849
1.940255
-0.739471
-0.581741
-0.946290
-0.800286
-0.531236
1.229597
-0.094955
0.046831
0.689712
0.391685
-0.306155
0.193067
-1.364184
0.349757
-0.612268
1.264130
0.593646
1.031129
-0.744737
-2.673550
0.644917
1.115697
0.664173
-0.145928
-0.622341
0.406053
1.372780
0.154736
0.545661
0.314506
0.526735
-0.074647
-0.356229
-0.622712
0.755829
0.139005
0.031442
-0.435856
-0.149941
-0.554829
-1.628348
0.214670
1.760669
-0.830006
-1.274538
0.427787
-0.025862
1.642104
-1.074940
0.546947
1.349603
-0.481771
-0.600508
1.487539
-1.561505
0.080213
-1.725972
1.249518
0.149097
0.903807
0.647643
0.383252
1.645884
-0.083123
1.055263
-1.289471
0.386295
-2.243896
-1.958735
0.452533
0.364787
1.602040
-0.022295
-0.498024
0.146304
1.330708
0.519064
-0.443132
0.206138
0.730731
-1.438868
-0.126192
-0.167702
0.482376
-0.994682
0.706780
-1.658614
-2.524674
-0.860486
1.183342
-1.462825
0.821671
0.475000
0.649524
0.798647
-0.870956
0.386969
-0.460775
1.793507
1.111666
-0.359262
-0.222267
-1.269269
0.168298
0.072554
-1.541296
0.271235
2.447554
0.184717
-0.742553
0.161827
0.661751
-1.584079
0.277728
0.789062
0.523754
-0.019690
0.230852
-0.788837
-0.693974
0.992376
0.612207
-0.605867
-0.412357
-0.251793
-0.805399
-0.790834
1.760504
-0.114300
-0.600385
1.291437
0.960137
-0.618369
-0.392130
0.293784
-1.624022
0.088941
0.730091
0.189150
1.253382
0.622360
-0.465139
-1.459135
0.248202
0.594043
-1.028950
-0.470094
-0.722997
-0.945398
0.683453
0.361398
0.688437
-2.188030
-0.005640
-0.333840
-1.830397
-0.655222
-0.519957
0.638970
-0.827336
-0.083477
-1.965822
0.075083
-0.071338
-0.042048
-0.565365
1.440615
-0.008212
-0.691719
-0.694807
0.359555
-1.514786
-0.555795
-1.093379
0.294904
-1.831677
-0.860119
1.642149
0.167582
0.685344
-1.302738
-1.503967
0.294413
0.685926
0.750619
-0.323553
1.536525
-0.004423
-0.102223
-0.263875
0.511047
0.224127
1.866057
0.470799
1.356487
1.116340
-0.427240
-0.984331
-0.184998
0.620588
-0.277218
-0.009290
0.118692
1.377071
2.504382
-0.251125
-0.887035
-0.780121
1.700068
-2.037366
0.070873
1.316786
-0.391355
0.379687
2.072664
-0.535482
-0.301655
0.976144
-2.423429
-1.300292
-1.586672
-1.293920
-0.983027
0.837366
0.453921
0.851547
0.913241
0.594135
-0.096804
-1.824224
0.537649
-0.185367
0.671646
-0.167828
-0.610413
-0.831545
-0.149664
0.371470
-0.423580
-1.250631
-1.063798
0.987372
-0.024713
0.012504
-1.203873
-0.370114
0.240458
-0.564539
-0.365232
1.966104
1.208836
-0.870254
0.124452
-1.265390
0.046606
-0.945451
3.343514
0.334013
-0.847732
1.540892
0.615120
-1.649879
0.567852
0.989897
0.779632
0.819941
-0.975041
-0.126061
0.540020
0.691530
0.300353
1.646703
-0.135524
-0.131086
0.354258
1.804255
-1.780311
-0.796991
0.664167
1.440732
0.324073
1.056058
-0.337140
0.014728
-0.387539
-0.623997
2.261367
-0.302574
1.430892
0.641402
0.218887
1.125263
-1.890690
-0.489998
1.075999
1.734831
0.290747
-0.242853
1.132089
0.073040
-1.430570
-0.653215
-0.323044
-1.033704
1.660069
1.706788
0.179973
-0.252393
-0.773626
-0.290240
0.245467
-0.266596
-2.200761
-0.938207
0.830615
-0.479503
1.976254
0.423700
0.271560
0.294741
-0.014830
-1.646604
0.633204
-2.084508
-1.526722
0.207637
-0.122682
0.570279
-0.356607
1.870153
-0.381780
-0.129834
1.643327
1.785597
-0.507300
0.753660
-0.701369
-0.820238
-0.339238
-1.223517
1.102980
1.137943
0.915090
-1.149369
-0.922466
-2.037153
0.050148
-1.199074
1.920578
0.044122
1.833777
0.694237
0.280219
0.545773
0.608685
-0.111789
0.062348
0.009856
0.272996
-0.189291
0.759803
-0.054829
0.263402
2.015857
0.779028
0.370185
-0.525935
-0.512421
-2.101376
0.404245
-1.315897
-0.420148
-0.089616
-0.476939
0.468880
-0.900542
1.103597
-0.270389
-2.078525
-0.217997
-0.415583
0.375150
1.124063
0.278882
-1.130122
-0.859843
1.219847
-0.953001
-0.915187
0.278009
1.476849
1.272336
-0.793054
1.518833
0.718314
0.257903
0.887886
0.509788
0.053842
0.291687
-0.310724
-0.426345
-1.862461
-0.402284
0.347950
-0.921050
0.374484
-1.224319
0.966151
0.554678
-0.549912
-0.128042
-0.088472
-0.477579
1.766299
-0.868115
-0.120767
-0.597397
-1.082821
0.087780
-0.839929
0.777436
1.955847
-0.018347
-0.207085
-0.407242
0.839828
1.995688
1.578318
-1.019171
-0.397331
0.447757
1.563642
0.037093
0.108205
-0.746905
-0.185893
-0.530269
0.329371
-0.737246
0.173002
0.864545
-1.534281
0.580408
-0.138557
0.934198
-0.312392
0.006681
-0.224251
-0.130797
1.383428
-2.320067
-0.497401
0.632069
-0.872827
0.588633
-0.822682
0.750697
0.794330
0.370699
-0.095698
-1.660218
1.916761
0.210609
0.541628
1.496800
0.135619
-1.876135
-1.274692
2.634783
0.077861
2.008314
1.313805
-0.734968
0.593739
-0.053208
-0.790890
-1.483170
0.116658
-0.170697
0.817769
-0.759434
-0.332752
-1.452607
-0.278599
1.928028
2.173030
1.174908
-0.030626
1.052884
-0.507618
0.216914
0.849511
0.028468
0.604570
0.520211
-0.933231
0.748860
-1.352547
-0.613861
-0.493032
0.625942
-0.908463
-0.405908
0.633883
-1.930334
-0.194982
-0.653479
-2.116383
-0.240567
1.055248
1.417728
0.780906
1.354192
0.521919
-0.218875
0.320825
-0.098760
-1.355744
-0.918311
-0.514409
0.871950
-0.642345
0.877570
-2.543489
-1.636908
-2.350102
1.775362
-0.040722
-0.513760
1.177933
-1.633629
0.902665
1.619725
-0.633786
-0.399199
-0.497991
-0.221438
-0.371127
1.150570
0.809568
1.379988
0.944424
-0.718546
0.730236
-0.435717
-1.742228
-0.680834
-0.856962
-0.098566
-1.127705
0.936544
-0.869070
0.119687
-1.519485
0.093581
-0.473201
0.610123
-0.420705
0.490819
0.707107
1.882698
1.022075
0.094068
-0.208649
0.723579
0.124618
1.403743
-0.052197
0.388157
1.533504
0.548750
0.650217
0.693560
1.152861
1.309534
1.061858
-0.079764
1.647163
-0.913548
-1.413290
-2.140634
0.738444
1.592346
0.416973
2.059606
0.455385
0.355987
1.252696
-0.065327
-1.201057
-0.502316
-1.635003
0.895514
-0.250833
1.761403
-0.085508
0.589906
-0.837936
0.878064
-1.090817
0.149311
0.275548
-0.528352
1.078118
-1.552397
-0.076120
-0.881126
1.372378
-0.553620
-0.198929
-0.119806
0.366756
-0.029761
-0.755094
-0.306823
0.355470
1.672426
-1.275980
1.937107
-0.485088
1.179991
1.340981
-0.181587
-0.636911
-1.284136
-0.540453
-0.345465
-0.780628
-0.092635
-0.260525
-1.332381
-0.221607
-1.076955
1.703705
0.123139
-0.209396
1.576254
-1.684332
2.316698
0.510835
0.909011
-0.186542
-0.054864
0.407472
-1.087472
0.507500
1.562667
-1.000864
0.814697
-0.259641
-0.900009
0.402909
0.735591
0.669731
0.857993
0.263533
0.873554
-0.658926
-1.190433
-2.537381
0.590372
0.651173
0.184644
-1.573781
-1.047730
-0.948744
-1.066936
0.507860
1.935938
-1.842564
-0.889798
-0.780425
-0.104984
0.312785
0.112605
-0.135090
-0.223828
0.896627
0.724475
0.798772
1.573411
-0.292614
-0.459708
-0.178385
-1.331930
-0.627839
0.331796
0.996580
-0.948479
0.524358
0.411647
0.587782
0.011116
0.204677
0.350338
1.519042
0.205341
-0.732373
0.646186
0.899339
-1.990535
1.167784
-0.744501
0.333465
0.768453
-1.049518
-0.002622
-0.085459
-1.344112
-0.600119
-1.427543
1.351450
3.032636
-1.002697
-2.008289
-0.507734
2.028628
0.621337
0.297747
1.660900
-0.478988
0.059706
-1.544490
-0.181245
0.898713
-0.310623
0.259577
-0.104980
1.853585
-0.040543
0.465878
0.115945
1.329914
1.841125
-0.880826
-1.701342
-0.630894
-1.510455
0.763239
0.068805
1.355588
-2.382320
-0.416031
-0.274518
-0.830510
-1.432963
1.337177
0.356982
-0.712437
0.350136
-0.562291
-0.005645
-0.936507
-0.708957
-0.705093
-0.244829
-0.227559
1.842313
-1.083637
-0.368920
-0.111475
0.729620
-0.282930
-1.812763
0.788782
-1.204086
-2.315430
0.298924
-0.949226
-0.581755
0.294794
-0.188755
-0.769856
2.060563
-0.394253
-1.415873
-1.299002
-1.475676
0.334125
0.468771
-0.028938
0.956199
-0.665391
-1.708173
0.708390
-1.111252
1.177025
-0.413835
-1.559258
-0.188484
-0.423897
-0.885138
0.974806
-1.070102
0.762936
-1.126086
1.262033
1.505586
1.125157
-1.661398
1.229385
1.100957
-0.884832
0.810397
0.066114
0.978954
0.394231
0.679089
-1.931092
0.418175
-0.940306
-2.371534
-0.555911
-2.221056
0.623359
-1.000719
0.396002
0.790012
-0.859426
-2.293437
2.077589
-0.215170
0.110237
1.466203
-0.006886
0.870877
-0.281166
0.119141
0.018840
0.503059
-0.031482
-0.366856
-1.834622
-0.092664
0.518910
0.896452
-0.509892
0.356487
0.036500
0.593059
-0.999187
-0.808145
-0.112716
-0.052872
0.948078
-1.927140
-1.570284
-1.070944
-0.312361
-0.398252
0.138549
-2.121003
0.036553
0.163825
0.111280
0.153586
-0.636123
0.433270
0.246901
-0.034515
-1.016811
0.390760
0.575893
-0.319353
-1.063337
1.314874
-0.244092
0.339656
-0.476717
1.159061
-0.484237
0.842676
-0.110121
-0.961809
1.331510
1.534980
-0.638643
1.359599
-1.887386
0.087162
-1.241359
-0.761827
-0.938961
0.552404
-1.148005
0.418903
0.378977
0.350784
-1.941781
1.002512
-0.014887
1.145328
0.226032
0.513123
0.056761
-0.813898
-0.828766
0.559721
-0.337304
0.207808
1.093970
-0.061360
-0.682541
-0.436850
-1.563853
-0.177541
-0.433867
-1.053459
-1.195724
-0.506210
0.208349
2.601247
0.645307
-1.434485
0.425057
-0.770249
-0.276884
-0.183742
0.192503
-1.339795
-0.677280
0.708398
-0.068645
-0.861714
-0.749263
-2.061401
1.281838
1.849445
0.393685
-0.999447
0.064306
-1.401172
0.332578
-0.400434
0.390309
-0.545174
0.369953
-0.850686
0.193869
0.150944
0.105653
1.043380
-0.442504
-0.083393
-0.164330
-0.592340
-0.326950
-0.138067
-1.063556
-0.861729
0.438450
0.188773
0.272189
-1.122866
0.397249
-0.315155
0.269688
0.193009
-1.444208
1.685488
0.242131
0.410765
2.097488
-1.549926
-0.979723
-1.412195
1.703282
0.487265
0.747541
0.641340
0.062080
0.067910
-2.082963
0.979274
-0.780622
-0.490999
1.141188
0.497872
0.036090
0.581394
0.637009
2.095746
-0.817875
0.252375
-0.141582
0.486690
0.595749
1.313085
-0.421972
-1.708277
0.936153
0.914010
0.364242
-1.354380
0.842359
-0.318353
1.657214
0.082945
-0.217378
0.974344
-0.649779
-0.676382
-1.258932
0.431909
0.795061
-0.661223
-1.269271
-1.031227
-1.915544
-0.711087
-1.530531
2.075989
1.553351
-0.744498
-0.370985
-1.664273
0.652667
0.543628
-0.203870
0.380162
0.081478
-0.844622
-1.046598
1.360940
0.378574
0.926632
-1.351909
1.259804
-0.882908
-0.455483
-0.943019
-1.042690
-0.820508
-0.107692
0.159160
-0.165902
0.091923
-0.273273
0.760504
-1.098607
-0.092608
0.117958
-0.126883
-2.147271
-0.498962
0.104230
-0.659378
-0.104450
1.090791
0.906166
0.919598
-1.488911
0.349005
-0.046108
-0.364845
-2.676214
-1.256688
0.723170
0.627438
-0.208449
-0.316796
0.457141
-0.377585
1.157693
-1.675826
0.844514
-1.175047
-0.312741
0.729719
-0.168340
1.216189
-0.505148
0.645358
-0.552647
1.408560
-0.596480
0.174418
1.831128
1.256355
1.055261
-0.180262
-1.712827
0.458117
-0.336172
0.579626
-1.014927
-1.657881
-1.131807
-0.123693
-1.409831
0.993523
-0.162436
-1.865214
-2.006077
0.609274
2.038828
1.759822
-0.390629
-1.505797
-0.663595
0.108209
1.308229
-0.154565
-1.340762
-0.137930
-0.628403
-0.755926
2.160733
1.482266
1.428369
0.194054
-0.719034
1.353689
-0.382060
0.654689
-0.464174
2.215183
0.490532
1.393428
0.966332
-1.240735
-0.016048
-1.351269
0.092090
-0.625168
-1.046623
0.967971
0.693992
0.107514
1.352394
1.917683
0.133853
1.656348
0.018418
0.016570
-1.566535
-0.355705
0.679216
-0.352157
-0.769667
-1.237015
-0.832020
-1.406851
1.081816
1.904829
-0.256058
0.981640
1.258157
-0.237728
-0.636047
0.673687
0.627419
0.060945
-1.041328
1.127543
0.304053
1.372654
0.323841
1.134250
-1.580978
0.907794
2.146460
0.768846
-1.507949
0.227441
-2.292882
-0.367097
-0.435329
-0.054350
-0.495681
1.231558
0.754009
0.342452
-1.500398
0.683854
0.896213
-1.595807
1.010257
-1.948103
-1.047122
-0.141219
-0.315874
-0.391670
-0.646645
0.764711
0.181416
0.576825
-0.097962
-0.418495
-1.215769
0.960053
-0.527175
1.389292
-0.377625
0.965655
-0.686314
-0.428776
0.444895
0.524249
-0.279073
-1.146536
1.683107
1.056209
-0.314185
-2.059709
0.077248
0.361892
1.333347
0.288279
-1.672861
0.074565
0.239928
-1.300286
0.039642
2.565586
-0.334489
0.214880
-0.371689
-0.268440
0.573833
-0.007062
0.210257
0.101397
0.697976
-0.002729
0.744863
-0.468556
-0.076892
0.230142
-0.975441
-0.339161
-1.065942
-0.280078
-0.842259
0.524880
0.865575
1.758752
-2.438436
-0.227069
-2.719346
0.526618
0.111949
-0.462072
1.464303
-0.200709
1.478825
0.928242
-1.020836
-1.053945
0.881075
-0.789687
1.897529
-0.087638
0.742098
0.334877
1.808005
2.197905
-0.554242
-0.003066
-3.257216
0.083477
1.273390
-0.408374
-0.914361
1.783671
-0.850448
-0.704385
0.409609
0.510481
-0.159449
-1.013214
0.979742
-0.678830
-0.691648
0.061074
-0.804243
-1.068945
-0.019781
0.950169
-0.569242
0.263450
-1.371206
-1.179764
0.831354
-1.059266
-0.732369
-0.883682
-0.594027
0.624462
-1.396665
0.142157
0.874845
-0.667388
0.580354
-1.160323
0.262415
0.394303
-1.518002
-0.857062
-0.578391
-0.390492
0.579212
-1.433655
-0.150219
0.034942
-1.657481
-0.317437
-0.407830
-0.069291
0.038122
-0.420799
-0.718567
-0.810771
0.459381
0.087098
-0.279849
1.150751
-0.557238
-0.764556
-0.208479
1.039780
-0.259822
-0.878687
-0.449564
-1.019950
-0.476054
-0.133816
-1.826319
-0.346877
-0.848837
-0.341479
-0.685697
1.411208
0.445418
-0.266915
1.315378
-0.321056
-1.548390
0.749375
0.117549
-0.075802
0.325202
-1.660789
-1.186212
-1.261032
-0.197843
0.340967
1.511104
0.428271
1.336552
0.584763
1.339174
-0.046143
-0.493347
0.344643
-0.855926
0.035451
1.144509
-0.762865
2.301975
0.053280
-0.556577
3.669443
-1.275915
-1.710663
-0.603943
-0.666062
0.333448
0.446507
-0.226283
0.543364
0.024745
0.092983
-0.576175
-0.424291
0.943167
-0.684608
0.972009
0.844587
-0.913393
0.014095
1.904817
0.995866
-0.601825
0.863771
-0.696801
0.730622
0.981673
1.620321
-0.530699
0.983103
1.485697
-0.311121
0.697872
0.425509
-0.181052
-1.577981
1.441474
-1.573854
1.077394
0.720152
0.324423
0.143936
2.283509
-0.423945
-0.103409
-0.009746
-0.301357
-0.217172
0.995331
0.947888
-0.225728
-0.186865
1.064574
1.264475
0.401856
0.311722
-0.066272
1.562410
0.468560
2.090065
0.322562
0.479592
-0.623185
-0.639264
-1.732474
0.741435
-0.225551
-0.768854
-0.824570
0.941948
1.465191
-0.106452
-1.434608
0.737070
-0.409794
-0.497272
0.995429
-1.272625
0.643277
-0.706700
0.281866
1.818833
0.152821
-1.457451
0.147208
-0.784142
-1.650319
-0.591169
1.683075
0.622278
0.399859
1.556381
-0.764867
-0.289710
-1.009183
1.334050
-0.582972
-0.834723
-0.257859
1.517397
-0.462373
1.456993
-2.940004
-0.827545
0.005387
0.376189
-0.563305
-1.231727
0.594025
0.339891
-0.775365
-0.030480
-1.604513
-2.112926
0.879067
-1.492763
-0.775147
0.725635
0.801355
0.395680
-1.569631
1.082979
-0.009890
0.185108
0.200027
-0.247249
-0.794783
0.161010
-2.000786
0.040353
0.154159
0.241068
0.370044
-1.417165
-0.898135
0.280064
1.482370
1.365193
-0.321066
-0.040208
0.154589
0.265361
-0.683436
-1.721796
0.001023
2.474130
-0.023199
0.372363
2.154680
0.854938
0.652056
-0.630907
1.870700
0.450253
0.839695
-0.892143
-2.404451
0.130973
1.668192
-0.062791
-0.992893
0.138183
0.303114
1.678325
0.581066
-0.269057
-0.400865
0.375135
-1.139982
0.667777
-0.598363
-0.119033
-0.516575
-0.518349
1.428077
0.359744
-2.427596
1.244591
-0.300059
0.964225
0.276964
-0.365749
0.213964
0.162427
0.902437
-0.316078
1.304900
1.866651
-1.178540
1.076048
-0.605288
0.413957
-1.115674
0.513884
0.482888
-0.501691
0.094260
-0.280045
-0.103503
-0.212550
-0.168096
0.726955
1.964320
0.585743
-0.336611
0.085247
-0.677092
0.256948
-0.683057
-1.749990
0.524959
1.946310
0.691231
-0.955111
0.003635
-0.943437
0.597519
0.062812
-0.940543
-1.057046
2.564261
2.309718
0.037135
-2.137645
-0.839319
-0.062708
-1.377272
1.095382
-0.177381
1.076867
1.761055
-1.140863
0.424985
-0.719194
-1.787977
-0.187413
-0.161889
1.998831
-1.636274
-2.657982
1.862881
-0.908703
-0.942363
0.578279
-2.394903
1.196246
1.754820
-0.569975
-2.155549
0.550094
0.018081
-0.134860
-0.783278
0.025340
-0.454747
-0.166541
-0.011937
-1.638361
1.547405
0.701025
-0.515150
1.096979
0.048403
-0.054614
-0.992120
-0.948348
-1.243575
-0.389094
-0.714113
0.298352
0.756431
2.315625
-1.177644
0.532301
1.621964
0.614596
0.909963
-0.936067
0.141108
-0.108546
0.154144
-0.918387
-2.422374
-2.326107
1.028518
0.451224
0.534517
0.581886
1.173228
-0.276553
-1.632329
-0.516788
-0.689639
1.130380
0.016810
-0.278455
1.622378
1.014076
0.586329
-0.006711
2.674516
-1.221075
-0.004640
1.581454
-0.968560
0.555350
1.360640
-0.422048
-1.301931
-0.722267
-0.773043
0.664856
-0.235295
-1.062636
-0.474481
-0.999685
1.354110
0.723334
-1.074685
0.495561
-2.042161
0.887678
-0.147870
-0.623248
-0.252267
0.392838
0.763462
-1.354679
-0.300551
-1.014955
0.001364
-0.322132
-0.215992
-0.015085
-0.685033
0.500322
1.352428
0.711739
0.385080
0.502718
1.094885
-0.226358
0.380027
-0.123747
-0.599416
0.451030
0.244637
1.457031
0.099578
-0.664983
1.021963
0.353144
-1.152979
0.167073
0.595731
0.809240
1.182821
-0.117783
0.077145
-0.637148
-0.328961
1.101596
1.147592
-0.447635
0.289016
-2.277568
-1.378930
-0.440500
-0.934485
0.731657
0.903812
0.662693
-1.130967
0.066326
0.199232
-1.069440
0.244744
-0.411478
-1.972626
-0.090927
0.521784
-2.034363
-1.129271
0.432256
-1.694238
0.106988
0.250116
0.250704
-0.984595
0.504434
-0.239549
-0.245072
-0.169422
0.058834
0.619229
0.535513
0.065630
0.395812
0.391983
-0.117393
-1.172611
-0.438368
0.278836
0.018879
1.471724
-0.321973
-0.262566
-0.949111
0.655223
0.791334
-0.533565
2.343050
0.763877
-1.480084
0.745697
-0.875749
-0.343240
-0.412514
0.029905
-0.204195
0.542004
0.532836
0.513850
-0.290985
-0.022877
0.220866
-0.756079
-0.958182
0.570999
-0.335101
0.155103
-1.686171
0.727050
0.796421
0.184208
-0.073072
-0.698346
-0.571439
-0.655878
-2.045510
0.245159
0.373031
-0.756206
1.488852
1.128971
2.044359
0.751896
1.523611
-0.060658
0.147963
0.111340
1.887469
0.557838
0.077655
1.948732
-0.752781
-1.790000
1.027053
-0.330430
-0.545484
0.767414
-1.297542
0.771678
-0.479034
1.074659
0.914859
-0.036634
0.915818
1.355353
0.562132
0.635370
0.370238
-0.688848
-1.587554
0.434366
-1.313565
-0.562232
-0.614916
0.741454
0.281344
0.132560
0.980588
-0.148718
-0.733299
0.590665
-1.474068
-1.557525
-0.775841
-0.008984
0.144423
-1.079709
1.260215
0.068109
-1.882419
1.018066
1.258232
-0.833797
0.488751
-0.026711
-1.523914
0.732038
1.870364
-0.258980
2.574832
-2.768740
-0.479283
-0.558669
0.294992
-0.342826
-0.226522
0.429323
-0.263042
-0.141040
-0.285295
-0.969326
0.245604
0.913173
-2.226278
-1.478279
-0.059754
-0.335140
0.190466
-0.816558
-0.556760
-1.036046
-0.160093
0.819781
0.415279
0.663951
-0.315264
1.854537
-0.570498
-0.058823
1.901536
-0.448351
0.842287
-0.594543
2.192858
-0.202068
1.215303
0.314432
0.817907
-1.670456
1.527288
1.069378
-0.088201
0.476087
-0.658416
-1.076205
0.631212
0.090836
1.801277
-0.236481
-0.254162
-1.035527
-1.084974
-1.399828
-0.594353
1.898545
0.308523
-0.680071
-0.855700
0.187804
0.962454
-2.045458
-0.663902
0.382872
-0.043945
-1.256339
-0.963961
-0.100030
0.320218
1.917426
-1.727509
0.204429
-0.200993
1.280284
0.927611
-0.427911
-0.363311
-0.910251
1.799770
0.082180
0.003284
0.461410
0.515441
0.525975
-1.365539
-0.653668
0.880585
0.236552
-0.822618
-1.152027
-0.375961
-0.332088
0.498582
-0.502000
-0.175267
-0.153988
-1.259187
-0.282148
-1.116668
-0.265138
-0.966937
1.091127
-1.517888
-1.081684
0.203084
1.471012
-0.012743
1.541277
-0.466590
1.476540
-1.152869
-2.082483
-0.063786
0.129003
0.466537
0.257311
-0.571679
1.080516
0.003801
-1.214526
0.285857
-0.264744
-0.317366
-0.801689
0.709509
0.516475
-0.977808
0.484927
-0.587264
0.494125
-0.277516
-0.660074
-0.597234
0.931283
-1.108616
0.854842
1.368243
0.427213
-1.673308
1.632988
0.667883
0.382917
-0.231710
0.842990
-0.025750
-0.319000
-0.518580
0.347984
-0.338727
-0.246012
0.833115
0.658359
0.986147
-1.860406
1.104591
-0.214238
-0.338263
-1.102249
0.511247
0.284781
0.330838
-0.372688
-1.226767
-0.569992
-1.536608
-0.254378
0.020950
0.642372
-0.404682
-0.399446
1.245273
-0.706849
-1.745166
0.025185
2.227755
1.002035
0.508583
-0.360721
0.137874
0.786098
1.044219
-0.762254
0.562564
0.125969
0.872997
0.687804
2.200363
1.209882
-0.370360
0.766060
-0.551442
0.703876
-0.301257
-0.500223
1.485103
1.838114
0.001816
-2.354056
0.091031
-0.607001
-0.277900
0.339642
-0.875861
-0.532259
0.379239
-1.729168
-2.412701
1.044721
-0.664759
-0.957843
0.282375
0.004466
1.586767
0.862137
0.237786
-1.012815
0.080783
-0.027947
0.208011
-1.466978
0.272370
0.307937
-0.588168
-0.023438
-0.139097
-0.380226
-0.683959
0.298606
0.149648
0.046532
-2.052609
-1.472115
-1.136510
-0.486364
-0.248657
0.431105
-0.071667
0.508229
2.679785
-0.341390
-1.127098
-0.699917
-0.784510
-0.906530
-0.206450
-1.501631
-0.600111
-1.396006
-0.260474
-0.583448
-1.101037
-0.158978
-0.890730
0.494204
-0.441270
-1.906894
-0.569213
0.806090
-2.727031
0.238481
-0.665373
-0.808796
-2.468632
0.024381
-0.693008
1.571404
-2.042290
0.963116
-0.763293
0.423042
0.088061
-0.133677
0.764064
-1.972431
2.395429
-1.076044
-0.526015
-0.837402
-0.561109
-0.721673
0.548840
0.520800
-0.695269
-0.770107
1.122359
-0.186095
-1.570502
-0.109845
-1.342954
0.312453
0.052642
0.527391
-1.403310
-0.003367
1.887311
0.489123
-0.932487
1.228181
0.444191
-0.379123
-0.059141
-0.824179
0.367276
0.111263
0.499867
0.260378
0.234879
0.100724
-0.475330
0.008906
1.149231
-0.008066
1.332242
-1.154505
-1.354605
0.367406
0.776608
-1.960019
-0.283411
-0.073163
0.526074
1.200698
0.238228
-1.957719
0.481498
-1.847712
-0.838676
0.812944
-0.284755
1.352752
-1.187026
1.667133
-0.203212
-0.046532
0.571339
-0.599934
-1.439297
1.012605
-0.146844
0.487771
-0.639298
-0.671734
1.367905
-2.268783
-0.585999
0.042334
0.816524
-0.509328
0.755614
0.236376
-0.621243
-1.247038
0.315937
-0.617811
0.054957
-0.113638
-0.337007
1.070739
-0.501004
0.331409
-1.616798
-0.424142
1.170206
0.534263
-0.550782
-0.852020
-0.255236
-0.354022
-0.796749
-0.176033
-1.395804
-0.482429
-0.473294
-0.081742
-0.293541
-0.460512
0.559735
-0.499265
1.401068
1.340060
0.171912
0.761710
-0.351849
-0.209849
1.195872
0.730390
-0.811778
0.870382
0.094027
0.089717
1.715495
-1.331389
-0.103603
1.030070
0.488207
-0.493007
0.055648
-0.485210
0.461079
-1.542759
0.135914
-0.946900
-1.354730
-0.179360
-1.812092
1.123319
-0.563044
-0.514821
-0.277156
2.982292
0.720570
-0.025116
-1.044823
-0.244477
-0.248956
1.127921
-2.006902
-0.862502
-1.356447
0.928706
0.053328
-1.127270
-0.832154
1.562538
0.013257
1.049753
0.761398
0.726884
-1.319101
-0.808692
1.174870
0.158843
-1.223243
-1.279932
-0.225298
-1.515496
0.129652
0.022317
1.481687
0.745663
1.458992
1.257694
-0.746536
0.499005
1.330008
-0.585220
-1.734566
0.997997
-0.263091
0.237027
1.113298
0.692387
0.356991
0.271244
-0.434344
1.499211
-0.358907
0.046225
-0.631130
-1.323130
0.442385
-0.267547
0.727320
1.120412
-0.040300
-0.075739
-0.132067
-1.471757
0.327933
2.169184
0.530207
0.469122
-1.230918
0.598677
0.717687
1.274578
-0.507215
0.707309
-1.078054
-0.370557
-0.597533
0.622757
-0.901244
-0.210756
-0.060549
-0.297475
-0.515967
1.359928
0.785059
0.011077
-0.721765
1.516611
0.924316
0.575927
-1.663625
-0.599782
0.778554
1.006263
0.202899
0.253725
-1.340558
0.957736
0.527478
-0.090650
-1.302044
0.286992
-0.842976
1.073161
-0.102187
0.456966
0.160690
2.095991
0.149709
0.738385
0.536265
2.009874
0.716455
1.079496
0.073086
0.130947
0.820857
-0.543603
2.619638
-0.850122
-0.601626
-2.841588
0.351571
0.302836
-0.645178
-1.027740
-1.189253
1.129578
1.193241
1.209025
-1.037443
1.845503
1.113835
0.016038
-0.169564
1.137913
0.132582
0.847707
-0.130410
-0.985336
-0.783314
0.169802
-0.559438
1.228127
-1.662473
-0.017722
-0.700022
0.628767
0.819529
-0.416501
0.605084
-1.439988
0.175927
0.777859
-0.205615
-0.642127
0.342135
0.922018
-1.456254
0.494800
0.322684
0.335996
1.061200
0.407811
-1.167910
0.131820
1.081533
-0.206747
0.387695
-1.982756
-1.025982
-0.513903
-1.575125
-0.197625
1.333549
-0.482247
-2.059304
-0.138168
0.226588
0.655990
-1.239814
-0.282339
-0.227424
0.521992
0.494827
0.217748
-2.072278
-1.563876
1.315055
0.015621
-0.700797
1.552563
-0.080885
-1.535865
1.775780
2.282846
-1.583088
0.941906
0.965059
-0.346295
-0.104786
0.596392
-0.487206
-0.579203
-0.379454
0.552207
-2.165924
0.050595
0.560706
-0.640867
-0.370083
-0.567522
-0.437722
0.389404
-0.462682
1.088488
1.288605
-1.031429
0.694429
1.127515
0.121655
0.031820
-0.412066
0.525193
-1.823695
1.425109
1.016926
-0.277322
-0.535406
-1.221632
-0.812399
0.230748
-0.404861
-1.861041
0.405345
-1.226160
-0.482145
-0.385982
-0.296800
-1.600932
0.509105
1.491371
-0.335647
-0.126468
0.853144
0.146079
-0.236965
0.204239
-0.771469
-0.280217
0.680156
-1.424668
1.819291
-0.766553
-2.098836
0.588110
0.013016
-0.325366
-0.003562
0.632676
0.448840
0.494770
-0.339597
-0.118842
-0.509644
0.337796
-0.683361
1.182516
0.770568
0.268748
-0.848312
0.641176
-1.162154
0.514500
-1.757816
0.562246
-0.613947
0.235160
0.217760
0.116769
-2.091472
-0.418948
0.894377
-0.662714
-0.894091
0.291849
-0.540335
2.131762
-0.352732
-3.224496
0.852674
0.070174
0.177730
-0.683540
0.854323
-1.302184
-0.992321
-1.025705
-1.057403
-1.147321
-0.391211
0.035197
0.979442
-0.531474
1.760139
0.335504
-0.035364
-0.500766
0.487688
-1.213967
-0.201597
-1.258675
-0.159246
-0.122775
-0.845442
1.843935
-0.217748
-0.572643
0.075520
1.324847
0.701825
0.106213
-0.736426
-0.217264
-0.333812
0.835242
1.244142
0.326820
0.775255
2.477422
-1.203066
1.156362
-0.707937
-0.928293
1.330615
0.870411
0.098473
0.054424
-0.240500
-0.996246
-1.414884
0.153981
0.452425
0.588308
-1.554761
0.156430
2.435540
-0.219844
-0.136528
-0.222222
-0.293206
-0.404098
0.040645
-1.058681
-1.252352
-1.701688
0.441410
0.525751
0.478250
0.036483
0.046398
1.379650
0.538165
-0.579578
-1.984347
-1.862873
-0.493997
0.798953
-1.549278
-0.236013
1.559974
0.916617
0.027891
1.565668
0.514713
-0.502469
0.493272
0.509605
-0.324185
0.339671
-1.164132
-0.344573
-0.750043
0.995681
1.692220
0.112852
0.340340
-0.000487
0.108597
0.871394
1.004137
-0.264401
0.572386
0.333025
2.058669
0.080884
-0.531741
0.595673
0.141740
1.054914
0.498543
0.660467
0.457902
0.764261
1.216954
-1.347494
0.412457
-0.322866
0.065266
-0.831039
-0.089062
0.032406
0.651075
-0.963681
0.830968
0.455318
-0.138735
0.336708
-0.341995
0.946366
0.502684
0.206969
-0.983166
1.745276
-0.272422
-1.541097
-0.248347
1.087872
1.580819
0.932011
-1.547958
-0.261874
-1.199778
-1.244555
0.280871
-0.706756
0.881027
-0.926431
0.065296
0.207961
1.038344
-0.491145
-0.369434
-0.945808
-1.589458
-1.133328
0.206623
0.079684
1.386473
-1.120405
0.599849
-0.172515
-0.247811
0.266892
0.000781
-0.961176
0.684704
0.965123
-0.878957
-0.976434
-1.318912
-0.403093
-0.301750
-1.703125
-1.672226
-0.472717
-1.781939
-0.580367
-1.579522
-1.314834
1.522324
1.536076
1.104342
-1.074546
0.790631
-0.211750
0.763992
1.471257
0.310647
-1.147512
0.067178
-1.651535
-0.853283
-0.301343
-0.047561
0.730411
0.285906
-0.833985
1.294265
1.304549
-0.805617
0.617807
0.264897
0.980125
0.016690
0.915261
0.531469
-0.408077
1.515019
-0.319332
-0.155921
0.835916
1.143027
-0.519534
0.845829
-1.038910
-0.507061
-0.592752
-0.875739
0.289963
0.475037
0.028177
-1.973095
-0.765553
-0.760404
-1.319879
-0.187805
-0.024560
0.761568
-0.390097
-0.470869
0.928875
2.580477
0.199883
1.868284
1.135005
0.336322
-0.989972
-0.494480
-0.295717
-0.931398
-0.199890
-0.410790
-0.692912
-0.924537
0.955139
-1.285757
0.555381
3.200005
1.140409
0.990488
0.449938
0.792023
-0.634796
-0.303851
-2.086876
0.414659
-0.091555
-0.367768
0.001418
0.957522
-0.211041
1.440284
2.029149
-0.390798
0.630207
-3.014206
-0.026235
-0.987789
-1.480300
0.794553
-1.034923
-1.982803
-0.277475
0.367770
1.440258
0.534017
0.898205
0.782865
0.889811
0.065467
-1.166151
1.667819
1.029897
-0.419055
-2.170163
0.072520
0.376142
-1.055068
-0.427998
0.031670
-0.135122
-2.952566
-0.602583
0.960684
0.170591
-0.055551
-0.596243
0.471847
-0.300464
-0.390915
0.552288
0.304488
-0.112041
2.288087
0.069528
0.042622
-0.307599
0.712658
-0.576728
-1.365039
0.358270
2.638785
-1.389240
-0.878855
-1.394591
-0.336207
-0.756479
-0.238900
0.199149
-0.197347
-2.177399
-0.665561
-0.462187
-1.512559
-0.392846
-0.039258
0.080953
-0.242364
-1.445864
0.494246
0.763840
0.084428
-0.332826
0.056196
0.036168
0.394208
1.811937
-0.163341
-0.832800
-0.349676
1.072973
-1.064165
-0.785480
-0.670107
1.514773
-0.850810
-0.297473
0.506426
0.724595
0.671261
1.187366
-2.228585
1.065728
0.722827
1.032459
0.492307
1.300204
-0.465417
0.114045
0.355760
0.634856
-2.528454
0.971093
0.001053
0.375651
-2.211787
-0.440855
1.576077
-0.685105
0.290989
0.079582
-0.093110
0.959535
-0.350439
-1.398139
0.337268
-2.101997
0.530520
1.338040
-0.898317
0.553381
1.296857
-0.293159
-0.975590
0.145730
-0.599733
1.451532
0.703878
-0.183194
-2.347218
0.040513
-0.879182
2.145993
1.143311
0.257153
-1.707387
0.610340
-0.282270
-0.287167
2.102847
0.984343
0.810238
0.024440
0.824576
0.273860
-0.130786
-0.848643
1.097190
-1.816228
-1.389443
-0.627048
-1.035654
0.175881
-1.490320
-0.404059
-0.675063
-0.123884
-0.279045
-0.797851
-1.100468
-0.618140
-1.033692
0.843074
0.999918
1.305985
2.318138
0.934870
0.544173
0.676849
-2.413008
-0.843910
1.249237
0.722584
0.651222
0.107072
-0.373469
-1.366852
0.981394
0.249790
0.623946
0.411097
1.474694
-0.411686
-1.561186
1.040802
0.664743
-1.917526
-0.775809
0.280173
-2.710757
0.221589
0.767143
0.708098
-0.942785
-0.256116
1.403386
1.293947
-0.309108
-0.299611
-0.895216
1.246626
0.300743
0.603636
0.938776
-2.058184
2.522991
-1.031891
0.466583
0.386325
-1.259279
0.247679
-0.907420
-1.405383
0.220845
-1.003091
0.110662
-1.615675
-0.119670
1.048265
0.556294
0.153942
-0.465188
0.907435
0.559010
0.235614
-0.303672
-0.275019
0.909249
1.266979
-1.198549
0.566439
0.085245
1.077178
-0.830717
1.105421
1.924778
-0.438261
-0.837770
0.999794
-0.367080
-0.432023
0.757528
0.224324
-2.059466
0.072005
0.099447
-0.160936
0.216784
-0.345604
-0.357068
-0.228918
1.663959
0.564018
1.702405
1.147784
0.592157
0.588799
0.788288
-1.052154
-1.294785
0.133494
0.942174
-0.445360
-0.078457
-0.861631
-0.171985
-0.415058
-0.146314
-0.234469
0.752962
-1.668414
-0.115611
0.530433
-0.599225
-0.177928
1.764230
-0.203653
-0.658714
-0.794740
0.727613
0.971823
1.312736
-0.086107
-1.488826
-0.343810
0.974245
0.144689
-1.735443
-0.732107
-0.603654
1.040445
-0.536985
1.283906
-1.920989
-0.748586
-0.106408
-0.019980
0.273176
0.453217
0.968438
0.014004
-1.487905
-0.535966
0.122352
0.248801
0.991256
-1.156706
-0.981804
0.721021
0.907774
1.244964
0.169368
-1.049847
1.443069
0.159410
0.411948
0.015128
-1.460913
0.319751
0.114679
0.871902
-0.631053
1.122097
-1.368479
0.573772
0.124376
0.921775
-0.212523
1.171674
0.612016
-1.570222
-0.797861
-0.493276
-0.485456
-0.128234
-0.176752
0.364547
-0.441346
0.939590
1.552237
0.253427
0.253285
0.595408
1.452516
-0.484721
1.238732
-0.431604
0.262027
1.330192
1.218835
-0.792064
-1.171980
0.330153
0.627530
0.864123
0.187403
-0.069647
-1.439715
-0.157415
1.146885
-0.056276
1.135230
-0.760860
-0.216272
0.568985
1.325124
0.505897
-0.193617
-2.726696
0.691008
1.070189
-0.561660
0.968543
0.429792
0.609434
0.164222
0.512795
0.482837
-0.338922
0.309745
-0.456706
0.489130
-0.642796
-0.910803
-0.320478
-0.943932
-0.784994
-1.168405
0.270848
0.793566
-0.430536
0.106280
-0.403504
-1.627052
-0.576649
0.676790
-2.809064
0.753093
0.557081
0.238056
0.417273
-1.338776
-0.876674
-0.255975
-1.111255
-0.632635
-0.035000
-2.013971
-0.598710
-1.059475
0.575768
0.707790
0.746860
0.511752
-0.222483
0.981431
0.126747
1.003644
0.754980
-0.975207
1.614973
0.441925
-1.610205
-2.549563
1.178046
0.530427
-0.294614
-0.699676
-0.674717
0.874156
2.542631
-0.457483
-2.246986
-0.104204
-0.562222
0.816173
0.676116
0.255776
0.276340
-1.397751
1.661801
1.088274
1.542358
-0.299659
0.762994
0.790732
-0.135622
-1.836695
-0.001733
-1.398878
0.421751
0.040969
0.262200
-0.458288
-0.591765
0.322157
-0.476413
1.221005
1.339459
0.724375
0.288385
-1.219206
-0.502928
-0.413140
0.030435
-0.252160
0.037048
-1.063271
-0.507976
-1.411639
0.655170
-0.129441
-0.105865
0.034451
-0.537970
0.624696
-1.166415
0.711338
-1.059525
0.400430
0.734178
-0.599509
-1.061965
1.216302
0.774537
-2.549252
2.701890
-1.631500
1.016292
0.930805
-0.909397
0.675534
2.278202
-1.753563
-0.266416
0.024051
-1.780939
0.188881
-0.185320
-0.325804
0.569246
0.306023
1.952223
2.341078
-2.052545
-0.992694
0.411464
1.827935
1.755706
-1.523337
0.874889
-1.143045
0.724268
1.242613
0.099733
-1.554084
1.398240
0.080569
1.761122
0.348400
1.128412
-1.040554
1.978780
-1.203849
0.464133
2.209118
0.706505
1.114461
-0.218445
-1.483252
0.820562
0.824148
0.405600
0.778558
-0.110914
0.228699
0.577199
0.160813
-0.037791
1.136278
0.590296
-0.373621
0.289556
-0.515475
-2.311110
-0.504645
-1.599246
0.280581
1.568893
-1.417041
0.905510
-0.221856
-0.533342
0.495641
-0.205071
0.338070
-0.406157
0.364189
-0.220449
-0.454356
1.230125
-0.225670
0.261775
0.478672
-0.872680
-1.277046
-1.648423
0.200746
0.535576
1.677585
0.434239
1.813657
0.823526
-0.279344
-0.106440
0.824304
0.279484
0.411867
-0.864050
-0.172829
-0.110699
-0.889887
0.874550
0.813886
-0.510596
2.520820
1.281658
-0.522479
1.490470
-1.213885
0.292951
1.687217
-1.420726
0.240830
-0.314928
-1.426006
0.928861
0.350283
-0.481523
-0.191917
-0.099332
-2.224109
0.708394
1.549451
-0.145435
0.036279
-0.786437
0.267864
1.493369
1.237424
-0.464932
0.341806
-0.371743
-0.252873
-0.773118
0.006890
-0.482914
1.148820
1.075827
0.152158
-1.408341
-0.116828
-1.289697
-1.036259
-0.421944
0.097581
-0.485359
-2.186888
-1.159994
-1.204842
-0.039645
1.195905
1.128325
-2.035889
1.542009
-1.521682
0.343038
0.482725
-0.304520
-0.048912
1.581326
-0.288355
1.196771
-0.055332
-0.853291
-0.351167
-1.282006
-0.493250
-0.748522
-1.193563
0.062616
0.516990
0.710057
-2.298419
0.476632
0.757563
-1.136798
-0.475603
1.830635
0.429808
-1.000655
0.902594
0.369227
0.317558
-0.466038
1.330490
0.819562
-0.788769
0.009268
-0.547135
0.387741
-0.773441
-1.154898
-2.467463
0.677756
1.151762
2.178191
0.854571
1.801178
-0.742614
-0.288212
-0.524337
0.981760
0.578968
0.751097
0.117868
0.440488
-1.044827
-0.696155
-0.869780
-0.658442
-0.279457
0.342175
0.145207
-1.147297
-0.900118
-0.404966
4.283822
-0.576145
-0.351301
0.132736
0.068102
-0.365456
-2.142996
-0.235916
0.929115
0.742693
-1.921245
-1.400450
1.667343
-0.362701
-0.795216
0.974796
-1.262661
-0.449433
-0.247036
-0.424793
1.133038
0.289237
-0.083279
0.338206
-0.444603
2.347763
0.193780
-1.308075
-0.720745
-0.192853
-0.099855
0.772057
-0.123574
-0.780104
0.732466
0.451039
0.190642
0.737242
0.067877
0.697643
-0.498386
-0.493513
-1.411730
1.811863
0.675183
-0.734819
0.303153
0.510583
-0.413698
-0.200489
0.329166
0.977833
-0.094940
0.438275
1.305431
1.603965
-0.923976
1.096974
-1.288364
0.470811
-0.187284
3.104325
2.395152
0.635187
0.694980
-0.085900
0.465892
0.096156
-0.343825
1.688367
0.393576
0.143156
-0.676384
0.437942
-2.335040
0.550533
0.734262
0.451400
-0.332566
-0.186859
-0.960041
-0.338045
0.901984
-1.191909
-0.352858
-0.876643
0.539547
-0.898789
-1.523694
-0.923625
0.729485
-0.354405
-0.062092
1.992412
-0.237544
-0.589780
-1.426726
-1.314495
0.387113
1.438624
0.710423
-0.368764
1.103230
-1.092844
0.094123
0.650416
0.839417
0.212450
1.223923
1.816578
1.942904
0.284746
2.074373
-0.242493
-1.493852
-1.603882
1.146220
0.233076
0.393888
-0.297271
0.200842
-0.074852
-0.016300
-0.573845
0.056842
-2.642659
-0.329445
1.839021
-0.339294
-0.026673
1.298721
-1.506688
1.430598
0.872510
-1.055870
-1.485768
-0.199594
-0.930274
-0.681191
0.241850
-0.098498
-0.645648
0.255180
-0.934277
-0.440173
-0.951854
0.313210
-0.923486
-0.710411
-0.800631
-0.599205
-0.032384
-1.381480
-1.794398
-0.127328
-0.051214
0.685979
0.215132
-0.368548
0.589413
-0.787645
-1.073295
1.154847
2.038729
0.548301
0.288029
-0.100474
0.315740
-1.482907
0.194703
-0.827532
0.446093
0.058033
-0.466196
0.457563
-0.066583
0.515250
0.143326
-0.850091
-2.057154
1.050704
0.669373
0.948329
-0.502469
-0.961333
1.519128
0.661055
-0.820356
0.675270
-1.730438
1.195301
-0.383261
2.348996
-1.981716
0.998721
-1.691725
-0.256954
-0.960350
0.835583
-0.304798
0.527525
0.460902
0.731823
-0.255772
0.423710
-0.262867
0.945267
-1.575065
0.264173
0.998801
0.203096
0.183182
-0.844200
-0.805506
0.468774
0.261030
0.471998
-1.447734
-0.549504
0.651542
1.135048
0.405445
-0.706955
0.911450
-1.232255
-0.854489
-1.504476
1.025612
1.064720
2.941312
-0.329750
-1.597701
0.172082
-0.444028
-1.299722
0.221823
-0.758845
-0.341386
0.189144
-1.654235
-0.387089
0.759433
0.449293
1.620255
0.236973
0.550109
-0.272395
-0.347260
0.269683
-0.877209
-0.154023
-0.292393
0.984592
-0.948656
-0.353489
-1.126166
0.000904
-0.371780
-0.991133
0.131495
0.989926
1.075436
0.219830
0.434920
-0.497161
-0.587678
-0.331779
0.811973
0.819206
-0.473543
0.412223
-0.117773
0.484959
-1.448156
-1.226977
-0.946282
0.484330
0.079720
1.104350
-0.578248
-0.160453
-0.616273
0.991317
-1.067323
1.443598
0.173418
-1.461430
-1.103206
1.027425
0.850115
0.675322
0.146385
-1.059910
0.152548
0.808842
-1.628642
2.518082
-1.013387
1.914134
-0.661030
0.037901
-0.789032
-0.558073
-0.562865
-0.962373
0.155913
0.926302
-0.352051
-0.962774
-1.011629
0.014237
0.200526
-1.431359
-1.502266
-0.986732
0.152998
1.003189
-0.817139
-0.475492
-0.148117
1.400631
-0.462273
-0.846566
0.315080
-2.010063
2.764091
1.693886
-2.230684
0.619654
0.169145
0.268107
0.768374
0.119904
-0.430319
1.135952
-1.007573
-0.354926
-0.074386
-0.164764
0.998494
1.367166
-0.186077
-0.204210
0.279707
-1.102237
1.086227
1.308552
-0.740852
-1.318274
-0.557213
-0.246570
-0.064871
1.149807
0.778866
0.727504
-0.308689
-0.773260
-0.251482
-1.217577
1.550402
-1.575531
-2.030699
1.312799
1.519581
-0.958236
-0.165617
0.663102
-1.406164
0.279821
0.470952
-0.116314
0.790926
0.559811
1.118437
-0.942405
-0.445393
0.061276
-0.255497
1.771982
-0.112901
0.315424
0.320702
1.272343
-0.674050
-0.191946
1.425010
-0.192555
-0.745262
-0.600003
-1.039721
0.147170
0.856668
-0.623943
0.334296
-0.296815
0.221112
-1.755804
0.366814
-0.579186
-0.435037
-1.742477
0.036760
-0.794158
1.502839
-1.224212
0.092326
0.108465
0.820532
0.778621
1.758765
0.721272
0.801643
-0.365709
0.206491
-0.635277
-0.094874
1.298847
1.466306
-0.729978
1.112861
-0.838605
0.991359
-0.378853
-0.887443
-0.023390
0.619669
-1.624462
0.522957
-0.322634
0.655171
0.636587
-0.061470
0.214581
-0.801303
3.797415
-0.688253
-1.337900
-0.569591
-0.691491
-0.302405
1.273304
1.168252
1.142150
-1.333208
0.460498
0.092482
-0.078425
0.066544
0.369517
0.435728
-0.559733
0.514689
0.882737
0.138809
0.277869
-0.537177
0.287732
1.277280
-1.737324
0.801535
-0.831934
0.424650
0.553994
-0.399858
0.547534
-1.106377
1.079206
-0.017023
-0.380556
-0.604136
-0.638125
-1.106524
-0.634431
-0.903503
0.907040
0.008444
0.951061
-0.339342
-0.450892
-1.210813
1.466781
-0.834315
-0.744086
0.124588
-0.611119
-0.408959
-0.567816
-1.391684
-1.868652
-0.411127
0.251137
0.753916
-0.459564
-1.207488
0.679978
-0.173391
-1.690295
-0.821744
1.366512
0.768462
0.932772
-0.034733
-0.233885
-0.282437
0.879607
1.799327
-0.582647
-0.588366
-0.538753
-1.068704
1.787472
2.380363
0.067259
0.509845
-0.624823
-1.580819
0.911979
-0.407584
-0.870890
-0.329820
-0.652154
0.344392
-0.786885
-0.496529
-1.076906
0.155208
1.768211
-0.361476
-0.328753
-0.017314
0.221791
1.135603
0.591812
-0.201164
-1.651077
-1.154266
-0.311696
1.728247
-0.880461
0.507689
0.234290
-0.333695
0.504501
-0.197787
-0.752054
-0.926606
0.482468
-0.322726
-1.276260
0.594098
1.922842
-1.955146
0.224681
1.789299
-0.742423
-1.920051
-0.292091
1.158530
0.201430
-1.376421
-0.482538
0.997313
0.273115
0.055914
0.454643
0.427921
-0.732198
1.796092
-0.551712
0.892395
-0.185701
1.336002
-0.177981
-1.718906
-0.345871
-0.956903
1.093011
0.808891
-1.378552
-1.197352
0.677386
-0.096038
-0.038535
0.601625
-1.730841
-0.195055
-0.713382
0.894158
0.947904
-0.545961
0.675515
-1.452073
-0.420622
1.926147
-0.252614
1.701713
0.335793
-0.211067
-0.992488
-0.552303
0.355377
-0.163691
-0.248259
0.062197
-0.042014
0.412021
0.818802
1.265571
-0.138609
-0.097920
0.397190
-0.788051
-0.177610
0.394275
-1.147756
0.158779
-0.817393
-0.379996
0.215004
0.250319
0.047145
0.714112
0.546309
-0.465176
0.456033
0.461554
-0.938953
0.599608
0.539590
-0.888961
0.544632
-0.245140
-0.071386
-0.625856
-1.437754
-1.770132
0.311525
-1.367501
-0.991333
-1.917624
-0.291365
0.274509
-1.102406
1.154993
0.008171
-1.122808
0.250433
0.369263
0.075122
0.860246
1.908349
0.551126
0.537966
-0.476500
0.653053
0.913081
0.924811
-1.799185
0.847741
-0.764886
0.592648
0.968359
-0.743447
-0.110878
0.084391
-0.604281
-1.413561
-1.082429
-0.286359
1.133541
0.749342
2.536576
-0.812106
-0.358613
-0.353285
0.743396
0.943336
0.217580
-0.761411
0.684833
0.167889
0.339856
0.761119
-0.404897
-0.117461
1.495022
0.315205
-0.443439
0.262934
-1.605261
0.855758
-0.466508
1.783189
1.000732
-1.107281
-0.357574
-0.044430
0.549214
0.132286
-0.388954
-0.344001
0.753885
-1.113776
0.406890
2.185597
-2.140081
-0.534855
0.314453
2.171024
0.092990
1.838520
0.298550
1.697536
0.428726
-0.125093
0.757178
0.700470
0.526251
0.889325
0.341925
-0.887388
-1.601945
-1.084220
0.235923
-0.293846
-0.019152
-0.080173
-1.176495
-0.416513
1.300665
-0.309431
-0.317545
1.399139
1.143247
-0.050862
-0.961572
2.330815
0.031228
-1.195646
1.011307
-1.982888
0.390487
-0.943321
-0.647871
1.011095
-0.349462
-0.823093
-1.115019
1.165058
0.474099
0.891081
-0.903580
0.624563
0.431677
-0.510915
1.915208
-1.701973
0.824975
0.065585
-0.013929
1.104041
0.615822
-0.431256
-1.547947
-0.456613
0.428546
-0.441932
0.987242
0.059091
0.985606
0.434742
-0.254444
0.232507
-0.139606
0.347185
-0.490146
0.536600
-0.316263
-0.986698
-0.574580
-0.066022
1.309217
-0.331974
0.795204
0.035342
0.588837
-1.481057
-0.876085
-0.144517
-1.603560
2.013218
-0.638064
0.238260
-0.014698
1.014785
0.114341
-1.426703
-0.789062
1.109881
0.136588
0.902149
-0.252069
0.692026
-0.373045
-0.036950
0.219857
0.651092
1.661058
-0.941658
-0.129668
-0.216589
-1.768923
1.040845
0.262564
0.469705
0.231378
-0.460966
1.296554
-1.254827
0.077076
1.864942
0.155975
-1.511028
-1.664286
1.608454
-1.979504
-3.057075
-1.250938
-0.002901
0.738976
1.332935
2.104797
-2.041323
0.917444
0.844976
-0.263845
1.690398
-0.730485
-0.043562
1.298933
1.148321
0.750805
0.580050
-1.098276
-0.937967
1.135583
2.719924
0.391822
0.188942
1.700929
-1.310198
-2.018184
0.091542
-1.254456
0.311815
-0.654397
1.218969
-2.421530
-0.230894
0.650099
0.373219
0.527799
0.418535
-0.234666
-0.863154
-2.010427
0.838892
-0.970588
-0.218269
1.501767
1.039397
-1.402094
0.090642
0.044640
-0.502828
1.205226
-0.991771
-0.375546
0.823795
0.382443
-0.268323
-2.347551
-0.502186
0.165900
0.808077
1.470759
-0.181818
-1.003113
0.304144
-0.097890
0.279075
1.457745
-0.449653
-0.196990
0.812537
-1.123860
-0.571024
0.972520
0.047136
0.206428
-1.178964
1.967311
-0.610024
0.431299
0.140665
0.331966
0.720557
-0.586684
-0.434251
0.390698
-0.916021
0.647853
0.887218
1.894634
0.725210
0.643345
0.484113
0.029465
-0.521938
-0.839276
-2.639210
0.535106
0.930877
0.344361
0.682046
-0.165677
0.130783
0.329968
-2.829365
-1.278513
-2.193023
1.301569
-1.578188
-0.849871
0.293527
-1.051088
-1.443680
-0.075179
1.115328
-0.354344
1.981315
-1.097933
-2.019376
0.151256
0.732631
-0.714332
0.662113
0.811608
-0.344223
2.653028
-1.503681
1.302647
-1.136221
1.865842
1.621051
-1.956833
-0.756857
0.521906
1.064406
-0.834469
1.840860
-0.214255
1.256435
-0.896664
-1.236909
-0.157025
-0.191031
-1.200662
-0.167720
0.441533
-0.715855
-1.747485
-0.220360
0.024792
2.220957
0.475110
-0.548553
0.397082
-0.656528
-0.310262
-0.086036
-0.460647
1.832165
-0.835304
-0.850406
-0.423795
-0.167847
0.888043
0.587403
0.860399
-0.183909
1.417900
-1.144174
1.606707
-0.723972
1.243467
0.117963
0.889807
0.217997
-0.412591
-1.560235
-1.238890
1.002732
-1.774224
0.500721
0.801905
-1.107470
0.117490
1.960114
-1.665086
0.953310
-3.360052
-0.477792
0.118933
1.104391
3.700548
-1.040852
1.949151
0.725865
-1.530086
-0.045160
1.541921
-0.369891
-0.058633
-0.362516
0.737865
1.497712
-0.971754
-0.755110
0.002466
-0.626497
0.096314
0.899144
-0.318095
-0.402735
2.712312
-0.075570
0.037543
1.329507
0.109846
-0.011842
-0.955018
-0.265748
1.285029
-1.097922
-1.150598
0.351059
-0.473722
-1.752623
-0.021099
0.190388
0.983758
-1.006308
-1.072852
0.281886
1.297722
0.491956
-0.628995
1.872122
0.387925
-0.587682
0.396705
0.299739
-0.144302
-1.271548
-0.163375
-0.978481
0.489779
-1.484994
-0.426390
-1.791633
-0.555211
-0.024835
0.635899
-0.775471
0.460914
-0.561677
-2.429949
-0.696417
0.630833
0.118154
-0.025927
-1.366004
-1.800900
-0.337515
-1.229657
0.792318
0.781369
0.146816
-1.324880
0.358711
-0.866443
-0.346636
-0.292068
-0.286079
-1.638568
-1.397376
2.219624
0.916085
-0.624417
-0.932349
1.855768
1.190780
-0.715690
3.523823
0.447808
-1.415377
0.509264
-0.097947
0.969047
-1.415242
0.048350
-1.730712
0.947399
0.379008
0.971036
-0.124876
-0.027653
0.445949
-1.511166
-0.751793
-1.590185
0.118484
0.503252
-2.012971
0.845030
-1.047920
0.242514
-0.873515
0.724504
0.286019
-0.799792
-0.108811
0.731799
0.478146
0.212573
0.363692
0.928274
0.535748
-1.341127
-0.689128
1.395116
0.261530
-1.407984
0.420039
-0.177356
2.734064
1.361407
-0.596969
0.647983
-0.169898
0.862836
-0.091292
-0.437975
0.157462
0.735278
-0.132078
1.082508
-1.564172
-0.203440
0.272473
-0.412077
0.552855
-0.018454
-0.201459
0.351950
-0.147310
-0.012374
0.711165
-1.256131
1.025918
-1.826063
-0.351663
-0.713608
-0.079130
-0.199598
1.076236
0.498970
0.325931
-0.348277
0.205839
1.184958
0.186196
1.352229
-0.050737
-1.636567
1.863683
-0.567796
-1.263808
-1.445593
0.184470
0.900178
-0.815682
2.979534
-1.933047
-1.623512
0.301102
0.803264
2.194078
-0.558302
-0.465467
-1.462854
-0.467141
0.039927
-0.166168
1.357099
-1.669391
1.565980
-1.724377
0.936640
0.428433
0.125075
-1.532779
0.785800
0.147343
0.145644
-0.133509
0.704077
0.806445
-1.956971
0.339537
1.952644
-0.289974
-0.730250
-1.258636
1.931506
0.795545
-0.634638
0.168803
-0.463868
-0.735878
-0.412278
0.077697
0.156069
-0.806479
0.490167
1.291357
-1.466859
-0.746019
-0.235292
-1.061372
0.004387
-0.229591
-0.106853
-1.129875
-0.355213
-0.777615
-0.742229
0.147173
1.345655
-0.689720
0.219798
1.496267
-0.434101
-1.552726
1.454192
-1.771539
1.229124
-1.883691
0.395541
-0.287386
-1.653397
-1.643761
-0.825483
0.065086
-0.936545
1.377233
-1.235305
-0.818591
0.191613
1.948140
0.750267
0.196612
0.315522
-0.378791
-0.659987
-1.429594
-0.486144
-0.345723
0.153095
1.088167
1.847033
-1.021984
-0.876403
0.030260
0.099288
-0.686983
-0.855612
1.868127
0.092202
0.147378
-0.246772
0.525030
0.488050
0.295504
-0.047857
1.605732
-0.026811
-1.224199
0.423786
1.220067
-0.850560
-0.663202
-0.734772
-1.290558
1.690062
-1.407137
0.730142
-0.904930
-1.865564
1.463593
0.454397
0.308382
-1.219227
-1.592478
-1.283041
0.887287
0.574226
0.919434
0.654821
0.136866
0.229955
-1.045194
1.552765
0.366515
-0.339135
0.990094
-0.030487
0.042841
0.311636
-0.107134
-0.276758
0.390181
-0.070824
-0.527054
1.691813
0.068538
-0.848980
-0.791991
0.493861
-0.975065
-2.249807
0.117154
-0.423523
1.148573
0.893212
2.701572
0.628910
-0.237988
0.180714
0.171948
1.110239
0.346312
0.436116
-0.032805
0.547170
-0.625039
0.750517
0.170644
-1.323332
0.122922
0.258183
-0.566329
0.584579
-0.935128
1.441997
-0.803200
0.585359
0.550438
0.992362
0.424736
0.311553
0.920172
0.351901
0.708414
0.749835
0.706539
-0.583622
-0.136499
-0.179059
0.430847
-1.798674
2.077609
-1.364115
1.016174
-0.094665
-0.089293
0.168470
-0.752096
1.527864
0.845309
1.708323
0.862665
-1.263800
0.155680
-1.445374
1.390204
1.357470
-0.536589
-0.083417
-1.126001
-0.627741
-0.170977
-0.659194
-1.054937
1.160743
-0.956393
1.960550
0.506856
-0.405358
-0.059978
-1.053428
1.569720
0.339422
-0.244375
-3.070443
-2.075277
-0.579648
0.087674
-0.774458
0.269912
0.206662
-0.435672
-0.958480
0.051135
-0.100982
-1.110457
-2.111387
-0.564710
-0.627120
-0.505377
0.272402
1.066460
1.584468
-0.317671
-1.286548
-0.729661
0.346236
1.916803
-0.657825
0.405250
-0.119505
-0.573501
0.073195
0.124152
-0.045276
-1.728350
0.587895
-0.527800
0.547060
-0.512722
0.913276
-1.112746
0.649034
-0.735565
-0.032553
-0.398057
-1.985928
-1.089337
0.916084
0.806924
0.214676
-0.641024
-0.101981
0.574543
-2.990173
-2.372316
1.233094
-0.355565
-0.110775
-1.330475
-0.685990
0.667627
-0.056670
0.690507
-0.389972
-0.583648
-0.447861
-0.175637
2.317722
1.680824
-0.172154
1.160578
0.297069
-1.714241
-0.290558
-0.445589
0.805634
0.227674
-0.662493
-0.132596
1.225448
-1.711154
-0.950520
0.585415
0.559493
0.072940
1.302764
-0.837990
0.388031
1.425371
0.333139
-0.683643
-0.040396
-0.362372
-2.513944
-1.848546
-1.803913
1.616357
0.144688
-0.622171
1.129818
-0.790194
0.532217
-0.792495
-1.101898
0.642936
2.140829
0.083560
-0.200430
-1.311922
0.974978
-0.909364
0.043716
-0.782402
-0.695634
1.368535
-0.941680
-0.086754
0.611759
1.879291
-0.526262
1.428840
0.163453
-0.879825
2.533480
1.363003
0.965290
0.921812
1.218914
0.560853
-0.527680
-0.871938
-0.091117
0.569105
-0.391840
0.239033
1.438204
-1.636266
-0.636164
-0.412583
1.030803
-1.601016
1.528418
0.455854
-0.630641
-0.443758
-0.989312
0.114067
0.937219
-0.450906
0.485010
-1.643185
1.343139
0.669183
-1.906298
0.148114
1.647115
1.350045
0.242659
-0.424758
-1.073081
-1.252051
-1.328385
-0.307929
-1.176619
1.220658
0.108265
0.428096
-2.004776
0.142730
0.334317
0.830947
0.147485
-0.745350
-0.790345
0.751742
-1.771817
1.421917
0.028237
-0.455150
0.897150
0.320932
-1.193378
-0.882438
0.191804
0.610077
1.070133
-0.876986
0.669046
-1.370696
0.538785
-0.123171
-0.580231
-0.773032
-0.287801
-0.102224
0.478201
0.588746
1.347966
0.921241
0.221013
-0.604802
0.263017
0.343579
-1.723582
-0.219126
0.842428
0.614328
-0.239822
0.062297
-0.222267
-2.371922
0.000512
-0.128917
1.507624
0.592940
-0.011358
-0.809896
1.406587
0.018408
0.762088
0.367320
1.144320
1.782743
0.196456
1.221975
-0.985702
-2.859766
3.019471
1.381539
0.428158
0.981501
1.253320
-0.680454
1.561968
-2.561058
-1.667753
0.865558
0.581417
-0.322394
-0.271723
1.246175
0.396289
0.682727
-0.087707
0.382411
-1.003599
0.069586
0.393640
0.376905
0.528234
-1.377072
-1.083775
-0.040304
-0.957589
0.974571
-0.242019
-0.769954
-0.561242
-0.902589
1.557466
-0.474864
1.935541
0.680806
-0.595976
0.173474
0.217119
0.234117
0.295534
1.686962
-0.763452
0.562572
-0.567660
-2.041136
1.235996
0.638124
-1.310382
-0.480964
0.053782
-0.570951
0.231658
-0.857800
0.551458
-1.126855
1.434955
-0.274024
-0.064065
0.210777
-0.036985
0.526639
2.391739
-1.629982
-1.670462
-0.496749
-0.142088
-0.141039
0.624902
-2.221196
-0.461140
0.369009
-1.062972
0.061927
-0.633067
0.459786
-0.271837
-0.869263
-1.441297
-0.558177
-1.069414
1.213887
0.522892
-0.898299
-0.709605
0.649150
0.267691
-1.399964
-0.905495
0.314920
0.586695
-0.474171
0.150737
1.148035
-0.124740
-1.061794
-0.038549
-0.726114
0.210896
-2.027458
-0.518806
0.465741
-0.680212
-0.500061
-0.151621
-0.147399
-0.749285
0.873497
-0.457050
-0.077404
-1.293655
0.082408
0.193007
0.559153
-1.577374
-0.985339
0.044937
0.608588
-0.825622
-1.825070
-0.206572
0.299588
0.513995
-0.083869
0.286928
0.419170
-0.467984
-0.533443
-0.104547
0.274324
-0.591258
1.588992
1.131320
0.006717
-0.400867
-0.088024
-0.875648
-0.786775
-0.496202
0.379611
1.195180
-0.105232
0.681004
-0.080560
-0.377533
1.280421
-0.163557
0.263597
0.613296
-1.642401
-1.788138
-0.918567
-0.361423
-0.467763
-0.786954
-0.622404
2.748190
0.815216
-0.187694
0.306890
-1.195384
-0.423947
2.443171
-0.076308
-0.030201
0.533999
-0.082098
-1.358813
-0.381664
1.334860
1.579392
0.631858
0.519726
0.067197
-0.300735
0.707161
-0.089920
-0.932952
-0.868081
0.109732
-0.642766
0.180321
1.516978
-0.047371
0.038652
-0.642920
0.861033
0.345363
-2.507682
0.467627
-0.674027
-1.081174
0.273702
0.386842
0.728827
-2.337598
1.461320
0.899046
-0.390008
-1.852742
-0.299357
-0.577388
-1.406261
-0.643582
-0.193241
-0.268749
0.984049
-0.771940
-1.494443
-0.938060
-0.700209
-0.971750
0.847419
0.495154
0.282597
-0.178644
-0.624258
-0.091005
-0.410963
-1.353821
0.392533
0.200288
0.842143
-0.583363
1.318749
1.662339
-0.518620
-0.394113
-1.223547
0.906238
-1.831573
0.310446
-0.656703
0.143745
0.552732
1.086919
0.126022
-0.266586
2.750980
-0.608725
1.817962
0.276384
-0.882511
1.827100
-0.417454
-1.023535
1.970263
-0.954456
-1.222274
-0.459593
0.873788
-0.580604
1.367369
-1.318851
0.517407
0.660629
-1.221181
0.199413
0.239868
-1.168673
0.823646
-0.049962
-0.816319
-0.779950
1.353099
-0.327748
0.273233
0.490105
0.199016
-0.546989
0.709040
0.568049
0.552196
-0.151946
0.858349
0.634895
-1.399561
-0.549422
-1.883259
-1.417785
-1.309524
-0.339323
0.329211
-0.182244
1.095783
-0.506281
0.079119
-0.298652
-0.090088
1.063467
0.121679
-0.431243
0.001795
-1.436936
0.423268
-0.902590
0.763141
0.232369
-0.466828
-0.566485
-0.197294
-0.331755
-1.234812
0.006715
-1.453677
-1.498004
0.827480
0.770725
0.704098
-0.083929
1.176348
0.829623
-0.245599
0.080452
0.779114
-0.744604
0.523687
0.656444
-0.166243
-0.281827
0.031141
0.969850
0.780263
0.267467
-0.428401
0.164479
-3.377876
0.076842
0.770036
-0.617349
-0.243781
0.415629
-2.417087
-0.268932
-0.333065
-0.787892
-0.258226
0.556724
0.324171
0.398120
0.098567
0.872032
0.743205
0.064504
1.182658
-1.394232
-0.517074
0.627026
-0.690086
-1.215056
0.304354
1.184503
-0.264193
0.186549
1.220182
0.282112
-0.480754
-0.104621
-0.248326
-0.855184
1.178936
-1.490646
2.214181
-0.295935
0.552998
-0.217921
1.263310
0.437377
0.184678
0.700031
-1.180913
0.072987
-1.224478
-1.905478
-0.466630
-0.998503
0.779450
-0.548826
-0.818195
-0.322392
0.020232
-1.658860
0.117839
0.006908
0.794995
-0.787528
-0.222846
0.593666
1.774589
0.410938
-0.655345
-0.209745
-0.328102
-0.739052
0.745970
0.936732
-0.218606
-0.748324
0.385496
-0.272770
0.393182
-0.687587
-0.632509
-1.266424
0.010580
0.671556
0.954660
0.021595
0.203869
-2.449890
2.425779
0.778995
0.365156
-0.494383
0.696086
0.129410
0.821616
-0.082620
0.086952
-0.712193
-1.018999
-1.662927
-0.792318
-0.313839
-0.325351
0.193029
-0.545404
-0.533319
-1.555994
1.965744
0.489332
-0.281240
-0.149123
0.839753
0.618088
0.196099
0.168978
-0.319999
0.033328
0.214797
0.360578
0.089758
0.353017
-0.761644
0.937627
-1.434810
-1.332344
-0.087397
0.554090
0.944425
1.551739
-1.094433
-0.381446
-0.689340
-0.451771
1.054714
-0.607013
-0.326150
-0.928878
1.837943
-1.506525
-0.817452
-1.003481
0.015003
-1.547816
-1.109644
-0.603561
1.382988
0.342147
2.108278
-0.130600
1.249681
0.711608
-0.941459
1.122010
-1.758077
-0.543012
-1.064606
0.846653
1.499441
1.267616
0.416030
-0.177972
0.455597
0.868948
-0.553444
0.819995
-0.242277
1.389461
-0.532937
0.461455
1.353684
-1.069552
-1.928376
-1.235013
0.010091
0.491505
-0.048491
0.563841
-1.575752
-0.007209
1.644183
-1.569788
-1.085122
0.200859
-1.005412
0.452760
1.167976
0.290397
0.081922
1.167685
0.962904
-0.986678
0.976068
0.632231
0.481769
-0.690036
-1.056427
-2.186479
-0.667061
-0.265796
-0.730710
0.647879
-0.748836
0.835770
-1.508380
-0.788091
0.321289
-0.665314
-0.157936
-0.171293
0.125513
-0.385506
1.076084
1.273978
0.160582
0.936636
1.204166
0.599681
0.351658
-0.190865
-0.573156
1.247974
1.698223
0.647724
-0.207998
-0.939908
-1.570601
-0.172698
-1.327812
-0.076129
1.018086
-0.039204
-2.395067
-1.306233
-0.400678
-0.325268
2.204931
-2.493011
-0.341431
0.850969
-0.469853
-0.134446
-0.359568
0.127001
1.252579
0.380895
1.132690
1.629257
-0.740660
1.323184
0.718877
-0.105143
-0.122521
1.566290
-0.712027
0.035135
-0.405162
-1.826159
-0.396885
0.688619
1.530739
0.602171
-0.926090
0.799878
-1.561401
-0.455678
1.064425
-0.922217
0.988594
0.214653
-0.226886
-0.308461
0.836958
-0.778159
-0.993523
0.660847
-1.118297
0.018391
-0.403291
2.102384
-0.143935
-1.040414
0.270824
-0.291824
-0.770090
-0.698774
0.571893
0.236532
-0.166851
0.409516
1.044538
-0.331307
-0.748156
-1.334208
0.023187
-0.403781
-0.629498
1.278380
-0.022336
0.613922
0.341204
-0.159546
-0.892170
-0.061360
-1.093685
1.088843
-0.336429
1.268846
-0.939298
0.874423
1.042022
-1.340758
-0.018892
-0.573811
-0.552471
0.467277
-0.730884
-0.475759
-0.922169
-0.063429
1.835060
-0.944772
0.146305
-0.970419
0.783410
-0.345835
-0.159739
0.570662
-0.913296
0.488303
1.616006
-0.425421
1.094266
-1.195682
0.057079
1.004824
-0.152405
1.788315
-0.090866
-0.258958
-1.350215
0.047797
-0.026375
-1.050921
-2.075843
0.275588
-0.596077
-0.115535
0.311105
0.356109
0.918591
-1.099788
-1.214137
-1.175076
1.781874
0.136710
-1.802353
-0.814333
-0.627103
-1.961420
0.261183
-1.497986
0.018722
-0.424382
0.580746
1.029323
1.173681
0.118284
-0.795317
-1.022437
1.188976
0.485658
1.024539
-0.285632
0.799069
-1.483469
1.755114
0.723553
0.664180
-0.320235
0.605189
0.190323
-1.444892
-1.016374
1.614641
0.188106
-0.347119
-0.609066
-0.598809
0.846782
-0.216301
0.881454
-1.077670
-0.507198
-1.586964
-0.314803
-1.564401
1.724697
0.363049
-0.827327
-1.353923
1.233576
-1.575970
1.246903
0.497626
-1.432143
0.467659
-0.732353
2.663497
-0.420592
-1.660108
0.579913
-1.147966
-0.110423
0.607096
0.073565
-0.994162
1.558562
-0.852285
0.219011
-1.112194
-0.132336
-0.049005
0.688507
0.203657
0.450604
-0.175764
0.539306
-0.105582
0.737086
-0.269929
-0.111959
-1.300392
-0.099961
-1.341370
0.116506
0.143397
1.562993
-0.377215
-1.298565
0.059524
1.311184
-0.503478
-0.975876
-2.056085
1.535546
1.504196
0.669565
0.405760
-0.046364
0.438885
1.060910
1.717665
0.987561
-1.370985
-0.171583
0.327794
-0.169190
-1.915059
1.045811
-0.990813
-0.139913
0.248576
-1.590405
-1.096252
-1.310527
0.368028
0.871554
-0.765739
-0.875063
-0.620501
-0.918148
-2.549087
0.954817
0.155617
-0.509543
0.554992
-0.101963
0.536682
-0.264090
-1.323815
-0.614979
0.770441
0.457929
1.711584
0.657624
0.769811
0.085865
-1.487968
1.344198
-1.029492
-1.984558
-0.055094
0.173891
1.836497
-1.958362
1.747964
-0.465901
-0.311213
1.700557
0.239693
0.900308
-2.163136
2.276121
-0.174315
-1.091256
0.278955
1.943789
1.861773
-0.245995
-1.187432
0.647492
-1.195918
0.452612
-0.202624
0.980064
0.590676
-0.134300
-0.520488
-1.409217
1.822283
-0.642219
-0.077968
-1.049479
1.671560
-0.032799
-0.683941
-0.573175
0.700025
0.221720
0.927149
-0.595049
-0.690717
-0.480871
0.592806
-0.683947
-1.520931
-0.560465
-1.478408
1.824797
0.008488
0.704188
-0.676368
-0.101328
0.650002
-0.609209
-0.141510
1.248574
0.364836
-0.382501
-0.524466
0.106276
-0.420171
-1.235384
1.345959
-0.588235
-0.961766
0.138488
0.558588
-0.359935
-0.952747
-0.370677
-0.117135
0.314082
-1.117849
0.808730
0.348613
-0.537495
-0.745501
1.110341
0.187930
-0.132838
-2.111933
0.055559
0.515189
3.226207
0.530831
-0.890234
-0.397643
-0.256563
-1.374192
0.018784
0.501564
1.810422
-2.132398
0.010209
-1.930343
-0.807853
-0.574059
-0.220687
0.533579
-1.156805
-0.175532
-0.152109
-0.009669
-0.355287
1.756811
-0.094397
-0.025513
-1.464818
-0.508136
-0.355506
0.000826
0.875910
0.227449
-0.542843
-2.004455
-0.569003
0.059606
-0.773142
0.453714
-0.281307
0.222390
-1.138594
1.302623
1.198290
-0.752433
-0.261154
0.444227
0.107597
1.482877
1.004696
-0.667963
0.473853
-0.409696
-1.477778
-0.100509
-1.349510
1.673554
-1.025996
-0.986050
-1.294317
0.135163
0.680846
-1.173413
-0.782243
0.509345
1.047114
-0.420937
-0.814294
0.429332
-0.656480
0.392229
0.351916
-0.226191
-0.132807
0.973350
-0.570565
-1.430892
-0.605873
0.035733
0.153033
-1.246157
-1.694669
0.754900
-0.723042
0.685012
-0.428483
1.609816
-0.946660
-1.257392
0.537917
-0.100396
0.414163
-1.585929
1.324210
-1.955626
0.593712
-1.049390
-1.349869
-1.106758
0.247053
0.589770
0.081885
-0.862493
1.990191
0.237885
0.607240
-0.632446
0.663511
-0.559696
0.025093
0.911022
-0.060584
0.385081
-0.273353
1.166890
-0.980154
0.274091
-0.245007
0.251158
0.569241
0.125067
-0.141676
-0.168450
-0.439172
0.377838
0.380296
-0.474754
0.646500
0.830206
-0.181535
-0.254365
-0.176727
-0.119015
-1.044973
-0.215734
-1.154671
0.614480
1.208494
0.130996
-1.649929
-0.190444
-0.302822
1.261479
0.519963
2.791013
-0.370588
0.407282
-0.300675
0.795427
-0.031224
0.113694
-0.195380
0.513897
0.405647
0.471485
-0.266333
-0.515952
0.783861
-0.172879
-0.028501
0.287985
-2.408316
1.733809
0.262863
-0.573052
-1.696428
-1.470002
-0.651584
0.584790
1.431646
0.018590
0.190593
-0.824408
-0.361777
-2.465775
-1.035216
0.331896
-0.722544
-0.991874
-1.374635
0.918024
1.785825
1.507072
-0.242415
-0.498113
-1.785437
-0.236842
0.554786
0.480101
-0.682803
1.202757
0.075217
0.437019
0.841286
0.287580
0.698205
0.379737
-0.162008
-0.602952
-0.954219
-0.190376
1.065636
-1.001114
-0.952176
-0.558288
0.688490
1.805155
-0.017322
0.409913
-1.350322
-0.540968
0.663165
1.400576
-1.441787
1.609050
-1.029178
-0.517904
-1.433937
1.264825
1.439830
-0.269736
-1.646252
-1.003603
0.515572
0.324831
0.126780
-0.928855
0.705791
-0.722189
-0.486808
0.225616
0.938407
1.440272
0.867037
1.507278
1.393725
0.261337
-1.085669
0.215972
-0.689763
-0.020859
0.774850
-2.632356
0.018133
-2.273448
0.655166
0.596883
-0.167759
0.879293
1.136322
-1.570305
-0.938131
2.864639
0.194836
-1.182501
0.762339
-0.031900
-0.472387
0.878091
0.537477
1.109544
-0.881747
1.627854
0.747085
1.393345
-1.849047
-0.219136
-1.884017
-1.591930
-1.283800
1.778611
-0.037899
-1.317728
2.289295
0.201368
0.408860
-0.802425
0.960085
-0.242108
-1.320616
1.086256
0.798664
-0.513370
0.947745
0.078314
-0.952069
1.578915
0.473577
-1.582128
-0.328959
-1.200245
-0.886189
-1.454893
2.123383
-0.147537
2.181425
-0.565225
-1.309981
-0.316501
0.599282
-0.049920
0.910426
-0.320183
-0.418351
0.545952
-2.224790
-0.677778
-1.295919
0.811175
-0.588350
0.679831
0.001085
1.764314
-0.578335
-0.929803
-0.648522
-0.144331
-0.202374
0.778778
0.868928
1.291458
0.347538
1.853037
0.823201
-0.814561
0.153936
1.150831
-1.182961
1.296162
-1.006333
1.140650
1.037883
-0.426797
1.013962
-0.430539
0.059522
-1.266599
-0.939464
1.485654
1.569254
0.465802
0.108312
-1.159862
0.700795
-0.287848
-1.194781
0.020021
0.602029
-1.459569
-0.361459
1.651636
1.300530
-0.329666
-0.177275
0.192223
-0.815840
0.158223
0.589398
-0.136131
0.626411
1.604149
-0.339717
-0.305337
0.343282
-0.474446
-0.752815
1.103283
-0.269345
-0.843133
-1.101469
1.471998
2.402240
-1.145849
0.713406
-0.674680
-1.100488
-0.237954
-0.457905
0.444319
0.459053
-0.656719
0.102200
-0.086973
-1.214036
-0.193511
-1.457530
-1.585513
0.231449
0.619608
2.655290
1.602930
1.929444
0.285915
0.947079
0.335848
0.325470
-0.339358
-0.139543
-0.756517
0.042700
0.571509
-0.186857
-0.014773
0.890022
-1.249928
0.258204
0.518405
0.843506
-0.616010
0.363978
-1.186601
-0.924828
0.250353
-0.826865
0.126295
0.553511
-0.170218
-0.332854
-1.317526
-0.258130
-1.221516
-0.941288
-0.029074
0.260937
0.595084
1.042318
-0.949994
0.012138
-0.309714
0.787253
-0.328454
0.247685
-0.429055
0.676736
-1.521506
0.521385
0.003066
-0.727080
-2.741928
-0.125012
-0.091953
-0.249105
-0.390933
0.282087
0.466495
0.458567
0.197455
1.125166
0.492792
1.289044
0.556417
-0.929148
-1.304336
-0.325497
0.754095
-0.994148
-1.035434
0.727514
0.747507
-1.664064
0.016324
-1.538222
0.817429
-2.079217
1.808606
-0.356987
0.729901
-0.348172
-0.412431
-0.550649
-0.042197
-0.676385
-0.483390
-0.587475
0.505594
0.022807
-0.165863
1.925982
-0.673460
-1.020999
-0.419462
-0.978219
1.732450
-0.629864
1.347256
-0.824965
-0.019563
0.315991
-0.332251
-0.348890
0.648893
0.073543
-0.917657
0.469214
-0.529246
1.107457
1.186680
-0.079591
0.533740
0.266516
0.667884
-0.688722
-0.089244
0.319863
0.548611
1.402228
1.605413
0.460836
1.395760
-1.129031
1.428844
0.268032
0.739084
0.334343
0.535406
-0.168316
-0.462788
-0.438301
0.061494
0.067139
-2.536191
-0.695599
-0.314476
0.106952
-0.994325
-0.513586
2.357856
1.209901
1.171734
-0.487314
0.992021
-1.234743
0.075993
-0.577952
0.934049
-2.197963
0.054173
-0.640759
0.767586
-0.917628
0.950604
-0.169333
0.432320
-2.175978
0.040062
-0.725067
2.150546
-0.868218
-0.812475
-2.179615
1.286413
1.616752
0.393349
0.326085
-1.275395
-0.133495
-0.667504
-0.304878
-0.187029
0.352949
-0.257796
-0.405683
-1.143391
0.348342
0.327310
0.733124
-1.085528
0.615761
0.944638
-0.740210
-1.057354
-0.167633
-0.192548
0.239257
0.457681
0.186554
-1.472609
0.312895
-0.627071
0.737121
-0.038423
0.313564
-1.492803
0.327009
-0.988279
0.781197
0.352520
-0.846789
1.586875
-0.027827
-1.579074
0.502903
0.570163
0.394938
1.662048
-0.252138
-0.930097
0.945347
-0.156019
-0.399209
0.808815
0.253143
-0.893557
0.336051
-0.965773
-0.298977
-0.319097
1.766618
-0.236587
-0.430741
-1.124902
-0.298246
1.501669
0.124881
-0.284326
1.444925
-0.014348
0.246090
1.543210
-0.090965
2.151740
-0.345148
0.647407
1.316322
-1.940048
1.317743
-1.144859
1.501700
0.247351
-0.489887
1.986387
0.960212
0.270796
0.881359
-0.434734
-0.809350
1.215090
1.513648
1.194387
-0.215910
2.021359
-0.741554
-0.264259
-1.403772
0.382477
-0.337821
0.529716
0.475621
0.761344
0.079405
-1.043686
0.869180
1.036706
-1.863577
1.834986
0.515078
1.070821
0.300233
1.055302
-0.546516
-0.054193
2.169953
1.833627
1.176574
0.102010
-0.172848
1.170725
-0.319277
0.312761
2.313632
-1.944149
0.029150
0.479164
0.114052
0.470019
-0.727748
0.162581
0.930866
-0.428039
1.388188
0.626958
-0.525394
-1.296901
1.201429
-1.705234
0.985337
-0.504993
-1.572134
-0.988732
-1.504636
-0.203507
-1.387557
-0.085227
-0.621246
0.365991
0.821991
-0.153931
0.031998
-0.623236
-1.005763
-1.469702
1.320624
-0.109168
-0.108379
1.194354
0.588170
1.479661
1.332267
0.616408
1.435910
-0.799364
-0.161744
-1.523908
0.131915
0.035420
-0.387847
0.539481
-0.060703
0.096987
1.237698
-1.290360
-1.577600
-0.687930
-0.411980
-1.236403
0.167369
-0.988512
0.182741
-0.956847
1.290635
0.485910
-0.007949
0.635466
-0.295314
-2.050376
-0.014913
-1.268793
0.518752
-0.540313
0.690173
0.449263
0.439183
2.342001
-1.432305
-0.450980
-0.774011
0.981442
-1.403076
0.388569
0.469146
0.564460
-1.657737
0.236289
-0.147599
0.900953
-2.706142
-0.932091
-1.946429
1.880578
0.154960
0.106586
-1.351393
-0.557801
-0.374191
-0.663399
2.089597
0.790317
-0.619465
0.384531
2.472396
-0.532238
-0.004366
-1.144085
-2.036608
0.244249
-0.558382
-2.124558
-0.612806
2.192054
0.704033
-1.022063
-0.635661
-0.232283
0.836040
-0.707571
-0.810535
-0.714888
1.505731
-1.021585
-0.285597
1.638437
-0.844576
1.385808
-0.179559
0.587741
-0.819409
0.887502
-0.073013
1.072381
-0.120169
1.634409
0.466545
0.845247
0.798033
-1.331881
1.606445
-1.129336
-0.391719
-0.496089
1.260718
1.013718
-0.473502
0.711540
0.177115
-1.024766
1.058962
-0.502334
0.088174
-0.523932
-0.401196
-1.620420
0.350856
0.953979
0.241116
0.730026
-0.155694
0.587876
2.840383
-0.133250
-0.804150
0.493463
-1.346013
0.163718
-1.615373
-0.422414
-0.121197
2.288363
-1.443518
1.729872
-1.198587
0.505774
-1.106971
0.006737
-0.715139
-0.104408
0.421721
-0.500763
0.647672
1.052846
-0.065007
0.019082
-0.333788
0.351820
-0.399017
0.342616
-0.154961
0.282228
0.505747
0.702105
1.055283
-0.924913
0.548652
-0.863679
0.096893
-0.578205
-1.464209
0.123070
-0.400690
0.095523
-0.466673
0.083795
-0.531965
0.217574
-1.052898
0.533713
-0.477209
-0.043586
0.520472
0.656829
-1.221455
0.570324
0.308375
-1.113623
-1.054144
-1.194734
-1.406724
0.490884
-0.769976
-0.612871
1.413627
1.318362
-1.518799
0.473675
0.838211
-0.599455
-1.660880
-0.748232
0.908773
0.420849
-0.884231
-0.782296
0.172047
0.547036
0.372037
-0.278829
-2.132131
-1.595310
1.030771
0.467570
0.362674
-1.295668
1.233618
0.175866
1.241383
-1.498437
-0.117599
0.678619
-1.874840
1.354213
-1.118313
-1.933205
1.201058
0.064060
-0.955479
-0.685638
0.674379
1.271965
-0.371322
1.047116
0.478613
0.871121
1.069663
0.248918
-1.148578
-1.703116
-0.485449
0.867311
-0.324571
-0.736394
1.233689
-0.741171
1.089051
-0.315105
-0.582046
-1.336530
0.273010
-0.357484
0.781898
0.989926
-1.424036
-0.609439
1.128864
-0.839884
1.962244
-1.065872
1.591362
0.602630
-0.720310
0.355498
0.883086
0.878704
-1.869017
0.068171
1.121165
-0.910066
0.539731
-1.348125
1.417036
-0.527355
1.466904
-0.185887
-0.870633
-0.124319
0.835095
-0.526925
0.703177
-0.072181
1.354382
1.669966
-1.554869
-0.758983
0.015550
-0.846414
0.218940
-0.712403
0.084572
-1.215287
-0.420667
-1.538987
-0.120318
0.693451
0.810034
-0.146756
0.897744
0.312057
-0.545933
0.357017
0.047781
-1.079106
1.228215
0.514652
0.215115
-1.565230
1.576631
0.622728
-1.285272
-0.469729
-1.562273
0.174693
0.193213
0.895813
1.283779
-0.570084
0.549080
0.475820
0.557111
0.244493
1.581665
0.221103
-0.328782
0.518128
-0.707212
-0.252814
-0.408889
-0.156730
-0.789894
-0.568093
-0.761925
-0.458590
2.452689
0.314064
0.294047
0.870376
-0.446262
-0.561564
-0.044833
2.036546
1.664608
-0.580520
-1.181791
-1.695933
1.588117
-0.833360
-0.005576
-0.340730
0.879608
-0.381072
1.142432
-0.627017
0.733775
-0.961852
0.055655
-0.900044
-0.444347
-0.109800
-0.782484
-0.622202
0.686628
-1.478274
0.084062
-0.283403
-1.063880
1.578441
-2.846055
-0.559205
0.036325
0.691322
-1.516197
0.297742
-0.638791
1.205372
0.280357
-0.552168
-0.276746
-0.344053
-1.686890
0.846539
1.138308
1.218618
0.967069
-0.201027
-3.231417
0.219915
0.427877
-0.879973
1.557183
1.449685
0.238536
-0.124591
0.104525
-0.779111
-1.535041
0.362435
0.695203
1.019519
-0.203369
-0.616483
1.429142
4.522966
0.527384
2.026411
-0.019312
0.680207
-0.001795
1.128656
-0.251752
-1.785908
1.747141
-0.654954
-0.167336
-0.168809
-1.174595
-1.362025
-2.194140
1.774985
-0.126774
-0.060041
2.153486
-2.045588
0.295537
0.919098
-1.335357
2.178890
-0.421730
-0.915532
0.234345
1.158782
1.405462
-0.413673
1.005260
0.480830
-1.142330
-0.751906
-0.033730
0.977901
1.654041
-1.611243
0.140040
-1.544605
0.191559
1.043580
-0.850669
0.967333
0.265481
0.264405
