0.658504
2.134519
1.466491
0.510730
-0.650433
-1.013514
0.018680
-0.026675
0.060586
2.539129
-0.573420
-0.716278
1.276048
-0.000238
-0.962148
-0.765055
1.328085
0.257905
-0.160017
0.742640
1.320897
0.009377
-0.130084
1.192789
-1.615816
-0.170730
0.628989
0.247923
0.520429
-0.527702
0.604901
-0.010947
0.449670
0.071118
0.326309
-1.308579
1.375598
0.310026
-0.577553
1.001260
-0.302285
-1.184632
1.246380
-2.064519
1.021920
0.964177
0.556355
-1.237654
1.124763
0.362534
0.873547
0.285116
1.475519
-0.155472
-1.117450
-0.939471
-0.586129
-0.757172
2.027671
-1.246203
2.119734
0.147021
-1.514763
-0.003111
1.208885
2.328711
1.576603
-0.452605
-0.078244
-0.065699
1.178073
0.874013
0.374845
1.613628
0.027191
0.675671
-0.929601
0.158759
1.601748
0.821679
-1.082595
-0.153297
-0.103237
0.786824
-1.065342
0.775793
1.764188
0.501334
0.640314
0.886558
1.132993
0.622911
-1.396406
-1.548223
1.061562
-0.558700
0.717386
-0.836837
1.316128
1.649125
0.559956
1.718332
-0.338883
-0.407760
0.123301
0.976713
1.593871
-1.138373
0.061042
1.514103
-0.175599
-2.960806
-1.507553
0.392334
0.523050
-0.069771
-0.530519
2.433515
1.463650
0.169926
1.158287
-0.430599
-2.337864
0.248234
-1.376636
-0.228513
0.063647
-0.696521
-0.939384
0.355573
1.692316
0.203582
0.026783
2.109771
1.593671
1.731828
0.453677
-0.851696
0.021729
-0.744663
-1.175978
-0.023595
0.978661
0.691679
0.889266
-1.548403
0.647983
0.780097
0.781282
-0.178252
-1.235585
0.052211
1.125091
-0.733613
0.504791
-0.671847
0.592938
-0.719698
-0.484597
-0.624752
-0.398335
-1.966904
0.266148
-1.003053
2.600173
0.381903
1.319701
-1.189058
-2.373023
-0.175474
1.145072
0.246965
0.844933
-1.292339
0.378977
0.926263
1.161745
-1.604126
-1.542651
1.394465
-0.838621
1.251060
-0.228034
-2.064078
-0.376505
-0.060995
0.920511
-1.237667
-1.967461
-0.171651
0.089206
0.681424
2.899226
1.710201
-0.914643
0.581938
0.993619
-0.566400
-0.350081
-1.076067
2.633466
-2.273164
-0.946883
-0.254860
0.774177
0.089437
-0.811376
1.129923
-1.356218
2.028858
-0.943057
2.243380
1.504688
-1.351397
0.405432
-0.551748
-1.148879
0.212777
0.494797
-0.048488
-0.064450
0.078862
0.015435
0.720895
0.318808
-0.714934
0.116362
-0.208252
0.914751
0.088934
-0.301642
-0.299614
0.084709
2.418613
-1.103359
0.762174
1.352463
1.655188
0.853876
-0.756707
0.535798
-0.114145
-0.279596
-0.791563
1.035554
0.882330
-0.329473
-0.484228
0.855455
-1.122781
2.092232
-0.081388
-0.158787
0.083694
-0.960540
-0.258177
-0.111956
1.153729
0.521902
1.219727
0.324142
1.040428
0.156688
-0.542378
1.277184
-0.757935
-1.259432
1.032605
-0.879397
-1.266790
0.687700
1.025115
-0.008205
0.423544
-1.406104
1.070110
-1.167610
-0.725532
-1.523571
-0.266189
-0.336160
-0.227331
0.921763
0.458195
-0.393038
-0.909354
-1.589179
1.242381
1.745156
1.129443
2.937843
-2.002877
-1.181200
-1.527235
1.123792
0.964359
0.499666
0.871237
0.628507
-0.325342
-1.176526
-0.969719
0.841338
-0.310555
1.128194
2.860014
-0.637020
-0.636946
-1.532297
2.707614
0.027685
1.620517
-1.733080
-1.419142
-1.487058
-0.432936
0.732518
0.909044
-0.011906
0.245345
-0.732232
0.700704
-0.810985
0.662790
1.350909
-1.079099
1.199228
-0.075928
-0.977161
1.395515
1.042536
0.350945
0.551599
1.443536
-1.875530
2.467304
0.037234
0.059444
0.688569
0.608900
0.393206
-0.366183
1.451073
-1.111755
1.040080
-0.118610
0.023082
-0.730539
0.245587
-1.839731
1.246463
0.580246
0.632988
-0.047155
-0.857659
-0.769226
-0.424937
-0.494824
-0.699700
0.423293
-0.470749
0.544772
-1.679922
-0.089163
-0.240198
0.989916
-0.241935
-1.544427
0.369782
-1.349968
-0.515882
0.047462
-0.377400
1.779936
0.495178
-0.089922
-0.395602
-1.040980
-0.475619
-0.557625
-0.473101
-1.430575
0.169606
1.306410
1.020556
0.844273
0.047158
-0.212527
0.076452
-1.608309
0.796035
1.569164
-0.633167
-0.031144
-0.732758
0.527377
0.140892
1.728216
0.510974
-0.177187
0.043436
-0.750634
-0.144159
-0.338395
-1.738062
-0.406023
-1.556831
-0.511199
-0.249308
1.389639
-1.327918
-2.142043
0.208892
-1.570612
-0.547565
0.710599
1.233287
-0.334344
0.756444
-1.660758
0.266244
-1.277765
-0.758612
1.491784
-1.203285
-0.686934
1.064935
0.792879
0.201953
-1.533574
-0.487782
-0.126186
-1.838432
-0.123247
-0.330917
-0.872858
-2.154543
0.525967
-0.783773
-0.894251
-1.326362
-0.410686
0.653355
0.681034
0.621200
-0.020017
1.350863
0.424508
1.018893
-1.860572
-0.290586
0.964830
0.026555
0.473897
0.782346
0.221824
-0.277323
-1.102794
-0.113449
-0.617235
-1.507669
-1.612661
1.019812
1.510526
-1.458218
-1.084396
0.297315
-0.482559
-0.012335
0.273345
-1.569971
0.113965
0.915631
-0.717400
0.420287
1.784494
-2.349541
-0.447008
1.292063
-1.433199
1.721106
0.037871
1.176239
-0.481082
-1.740584
1.453914
1.624138
0.612458
-0.384336
-1.963920
-0.152032
-0.141824
0.620873
-1.788145
-0.702575
-0.661264
-1.729989
0.445100
0.589562
-0.052004
-1.953548
-1.518371
1.506815
-0.119359
0.335763
0.370953
-0.582303
0.540660
1.085939
-0.709211
-0.098303
0.251583
0.485029
1.242887
0.083240
-1.064098
-0.522098
1.062743
0.639378
0.563537
0.004468
-0.209643
0.932733
-0.453074
0.057590
1.546312
1.845287
-0.789536
-0.826801
-0.343179
0.107723
0.535749
-0.385923
0.222188
-0.122965
-1.080759
0.408894
1.573040
0.438191
1.724294
1.127716
-0.921432
-0.725135
0.791446
-2.462750
0.524477
0.646303
0.059010
-1.475880
3.309620
-0.598569
-0.874876
1.057784
0.698063
-1.397199
0.897666
-0.129462
1.201235
-1.119033
-0.472354
-0.128443
-0.158159
-1.016002
2.113739
-0.154981
1.023495
1.009924
0.872471
-1.733853
-0.992942
0.804205
1.162727
-1.373656
0.271438
-0.595750
-0.829831
0.649084
0.330834
0.063292
-0.583320
0.026617
-0.080092
-1.545617
-1.594021
0.869872
2.873815
0.187856
-0.723542
0.646634
-1.197698
-0.264979
1.276277
-1.843265
1.358442
-0.191804
-0.039665
-0.036080
2.538409
-0.174108
1.040193
-0.321740
-0.615319
0.025188
0.399898
-0.873223
0.829039
-0.204750
0.859667
0.535212
0.422567
-0.346875
-1.887856
0.547135
-0.332071
-0.521354
-1.320568
-1.044063
-0.280536
1.321755
-0.114332
0.240967
-0.923064
-0.895664
-1.207458
0.280640
-0.302338
1.121071
-0.094499
1.398090
1.025432
0.718289
-0.020532
0.672635
-0.983717
-0.151813
-0.235403
-0.261673
-0.319112
-2.288838
-0.428037
0.219881
-1.091930
-1.587272
1.178820
0.532361
0.265049
-0.655489
-0.210793
-1.006207
0.969877
1.546358
-0.135754
-1.290902
-0.943047
-0.902740
1.276413
-1.127190
0.259639
0.802610
0.886603
1.080528
0.453005
-0.279121
-1.540742
-2.291148
-0.590638
0.828347
-1.417876
-1.551154
2.009455
0.189899
-0.818497
0.176664
0.603900
-1.713796
-0.871802
1.326500
0.941712
0.133883
0.339754
0.260137
0.586675
-1.075280
-0.092181
-0.000115
0.309548
1.050501
-0.625670
-1.034092
1.177174
-0.288072
-1.062226
0.504806
1.185243
-0.033562
0.734597
-0.473303
0.913165
-0.076059
0.932994
0.387312
0.543857
1.463942
0.966416
-0.959394
-0.054076
-0.184292
-1.703273
-1.155308
-1.378725
0.027724
0.077130
-1.349166
0.835765
-1.938083
-0.495499
-0.423376
-0.419073
0.113880
0.973115
2.261190
1.364486
-1.233025
2.683862
1.559724
1.287191
-0.429101
-0.425085
0.410169
0.703625
-1.615959
0.657526
0.582583
0.128473
0.841159
-0.725001
-0.495821
-0.950704
-0.428057
-1.020675
0.753871
0.330014
-0.334404
0.753242
-1.211552
1.046442
0.666276
0.671377
-0.240458
0.386013
-0.289051
-0.050371
-0.694797
0.420471
0.589967
-0.466524
-1.248519
0.571623
1.974575
1.130529
-0.873862
-0.190335
0.420548
0.830118
-1.037908
0.841084
-0.644075
-1.405547
-0.903859
0.094459
-0.415725
-1.396216
-0.716375
1.021955
0.931188
-0.238191
-2.322124
1.258077
-0.388358
0.079407
0.044658
-0.823240
2.547099
-0.984342
-0.069305
0.603430
1.724877
0.012938
0.620583
-0.373009
-1.067223
-0.066366
0.330635
-0.046416
0.851450
-2.059914
0.017125
0.597840
-0.727806
-0.692719
0.663329
-0.287082
1.107666
-1.583105
-1.919177
2.046225
-1.322878
-0.107809
-1.094672
-0.043465
1.487917
0.773914
-2.230842
0.646576
0.039257
0.108896
-1.765277
-0.458178
-0.786309
-1.850291
-0.283664
-0.816479
-0.494646
-0.307249
-0.845357
1.445701
0.469475
-1.341399
0.448311
0.648536
-0.354223
1.098730
-2.417127
-0.434895
-1.319468
-1.911187
-0.221746
-1.750742
0.224091
0.617634
0.710336
0.639071
-0.812256
-0.068328
0.241190
0.318702
0.681002
0.363935
0.478834
0.463115
1.270912
-0.879341
-0.527124
0.978017
1.113103
2.028454
0.475535
-0.047976
2.440574
1.493448
0.567046
0.604624
0.139645
-0.569235
1.106232
-0.415349
0.704591
0.578080
0.355931
0.450100
-0.352265
-1.772698
-0.025192
0.084621
-1.091431
0.683193
0.812216
0.681459
0.127685
-0.957591
0.445769
1.454033
-1.441569
0.297905
-0.383717
-0.519861
-0.600374
0.637333
0.937598
-0.764268
-0.123554
1.128594
-0.783136
1.907247
-0.113915
0.140513
-0.472253
-0.993727
-0.368245
-1.820930
0.056700
0.309431
0.295899
-0.844503
1.654522
-0.785379
-0.450066
0.108201
0.697535
0.766345
-0.026149
0.716461
-0.314086
-0.119684
-0.350163
0.636818
-0.683082
-0.748139
1.514623
0.305727
-0.335725
0.398878
0.133844
-0.031073
1.203069
-0.805312
-0.183952
-1.173130
-0.333220
0.568833
-0.245034
-0.491578
0.386606
-2.100442
-0.187824
-0.493720
-0.611647
-0.474583
0.371513
0.494680
0.128210
-0.148848
1.357658
1.214149
-2.090779
-1.836408
-0.832123
-0.025859
-1.390353
0.996914
-1.255120
-0.138659
1.418571
-1.150000
-1.682601
0.268314
-1.319845
-0.330175
-0.086937
-0.464742
0.268634
-0.417181
-0.788436
0.154049
-1.188521
-1.134969
1.080026
-1.064880
-0.837041
-1.429544
-1.064715
0.423678
0.917277
-2.876616
1.982566
0.098266
-0.553965
1.005158
-0.279662
0.619434
0.226499
0.613218
1.237984
0.264351
-0.698403
-0.416714
-0.390675
1.013486
0.398698
-0.246638
0.415131
-0.501178
0.106167
-0.674542
1.028586
0.760985
-0.185090
0.104772
1.763049
-0.724854
0.596643
-0.134757
-0.007894
-1.011513
0.084754
-0.993841
0.548750
0.230437
-0.306382
-0.951191
1.405139
-0.413249
1.335347
-2.113705
-0.314719
-2.236467
-0.403707
-0.471833
-0.563042
1.830740
0.083080
-0.621526
0.369198
-0.768888
1.632021
-1.277393
0.466065
0.294238
0.475798
-0.311453
-0.794138
0.213849
0.731089
-0.074727
0.220481
0.620018
0.428805
-0.352394
-1.731550
0.630168
0.713763
-1.312758
0.183288
0.143869
-0.748890
-1.099115
-2.815322
1.067834
-1.408260
0.888291
-1.320824
1.960519
-0.950476
-0.114845
-0.316557
0.168514
-1.255035
2.270958
0.406484
0.518839
0.221035
0.605315
-0.983450
0.906889
-0.818935
-0.129106
-0.670468
-0.124152
0.321367
0.142491
-0.172275
-1.037594
-0.402383
-0.411657
-1.425625
0.505636
2.411807
0.840578
-0.139910
-0.777905
-0.612973
-0.951259
-0.256886
-0.500953
0.194066
-1.073087
-0.512723
-1.631626
1.371568
-0.563185
-1.140111
-0.931979
-0.327335
0.795425
0.239535
1.264859
0.231824
-0.170588
-0.330879
0.414489
-0.657851
-0.857589
-0.831025
-1.389317
-1.704092
0.256777
0.654072
0.862070
-1.628449
-0.529555
0.661405
0.655035
1.574911
-0.166527
-0.119251
0.120562
-0.076906
-0.640304
-0.345941
-1.835708
0.508029
-0.269437
0.961459
0.966200
0.933291
1.097162
0.085042
0.294973
-0.174106
-0.374403
0.884564
-0.444199
-1.341111
-0.697426
0.949329
1.061383
2.021311
0.148486
0.964794
-2.270035
0.458822
0.072220
-1.678147
0.514961
-0.091913
1.085575
-0.971921
-0.317645
-0.162501
0.581883
0.338526
-0.689954
0.210568
-0.352602
0.435537
-0.712305
-1.361944
-0.800543
0.381060
1.866728
-0.446150
0.003943
0.450159
1.778023
-2.560069
-1.016927
0.972988
1.225407
-0.636916
-0.322254
-0.086004
-0.624412
-1.094071
0.724011
0.437600
-0.858171
-0.082923
-0.613948
1.476450
2.468464
-0.119378
-0.121542
0.138686
-0.479298
-0.517242
3.091089
-0.433459
-0.994906
-0.112378
-1.895089
-1.073402
0.997860
1.199695
-0.837254
-0.308660
0.261831
-1.084907
0.986572
0.512286
-0.363352
1.129941
0.728123
1.313882
2.011833
-0.640241
2.933429
-0.273633
0.404759
-0.669377
0.361692
-0.187715
-0.494978
-0.378354
-0.050166
1.239721
-0.159873
0.021539
-0.262084
1.333840
0.419750
0.326987
1.005805
1.531695
0.209658
-0.304804
-1.597126
0.849367
-1.189835
-0.051584
-0.816983
-0.728938
-1.517614
-2.127641
1.048231
-1.026800
0.505015
0.189898
1.506382
0.036091
-0.840187
-0.060842
0.863250
-0.032337
2.359941
2.424676
0.347982
-0.198465
0.352915
0.756213
-0.839119
0.307318
0.316213
0.983046
0.741446
0.277590
0.009730
-1.829331
0.606414
0.667568
2.326331
0.003886
-0.433126
-1.555156
0.430751
-0.637560
0.813450
-0.050906
-0.876562
-2.132930
-1.764360
-1.552837
-0.598879
-1.083834
-1.751987
-1.533117
1.183940
0.030564
-0.468377
-1.209201
-0.016389
0.142251
0.463724
0.791000
0.616679
0.669279
0.552210
-1.514838
-0.846398
2.329784
-0.488151
-1.472688
0.147562
0.788913
-1.172139
-0.283495
-0.149599
-0.332218
1.979131
2.241315
-2.263851
-0.786658
0.537083
-0.225834
-1.314772
0.653442
-0.453570
0.818839
-0.722423
0.627077
0.535763
-0.404070
-0.550867
-1.629797
0.351811
0.159638
-1.180820
0.443788
0.334769
-0.613197
0.662674
-1.451454
-0.348060
-0.447672
1.037768
1.525664
0.683408
-1.429192
-0.925103
1.442744
-0.988012
-0.810843
0.440642
-1.633319
0.147234
0.073638
0.566090
-0.737638
0.666159
1.393505
-0.509167
-0.216521
1.091619
-0.595309
-0.341565
0.646872
2.258063
2.197044
-0.006877
-1.940440
0.422898
0.823750
-0.514830
0.572402
-0.241557
1.091632
2.515957
1.233733
-0.147688
1.124079
0.739973
1.351165
-1.120721
0.387010
-0.517625
-1.530561
2.568039
-0.719970
0.179076
-0.566245
0.812886
-0.955837
0.365812
-0.788637
0.936832
-1.968866
-0.748576
-0.742055
-1.584831
-0.720759
-0.375762
-0.756753
0.146906
0.723886
0.938437
0.111630
0.532029
-0.683506
1.973617
0.781870
0.836338
0.862939
-0.084805
-1.461048
0.163151
-0.497338
-0.147452
-0.286257
-1.339417
0.073507
-0.063103
-1.066810
0.718048
0.318478
0.075780
-1.311781
0.262511
1.397494
-0.214302
0.766576
0.390560
-0.056994
-0.202032
0.901908
-0.882152
1.366190
0.050139
1.313598
-0.396513
0.087281
0.304340
-1.100776
1.200236
-0.296315
0.469346
1.845896
0.510587
-1.665702
-0.904376
1.420342
1.855483
-1.037011
2.088794
0.519169
0.203470
1.077274
-1.874333
-0.048132
0.168302
-0.759573
0.216625
-1.381499
1.979858
-0.365633
0.971158
0.367922
-0.987755
1.197376
1.316653
0.174814
0.495946
-1.849526
-2.168974
-1.967978
1.065194
0.782608
-0.786062
-0.293715
-0.276189
-0.844679
0.758657
0.126624
-0.586252
0.540250
-0.725342
-0.671002
0.945214
0.319730
-1.198126
0.310789
-1.475853
0.324223
-0.828789
-1.177870
-0.211862
0.287383
-0.964663
-0.241254
0.187678
0.719209
0.231770
-0.399099
1.157635
0.133244
0.529624
1.097045
0.085675
0.542610
0.656349
2.354328
-0.874258
0.144583
-1.429540
-0.212874
0.354348
0.915821
-0.324758
0.288537
1.853840
0.904677
-0.185522
0.098536
-0.970666
-0.786304
0.217844
-1.519821
-1.346042
0.318453
1.546110
0.331357
0.914598
-0.829735
0.568781
-0.381740
0.922711
1.575414
0.516286
1.075374
-0.023963
-0.741761
-0.763504
-0.907483
2.241177
-0.380449
-0.050934
-1.178501
1.683972
1.381097
-1.185561
-1.341373
0.231791
-1.002232
-2.318542
-3.083684
-1.520769
-0.699026
1.223418
1.616700
0.679054
-0.710623
0.215184
-0.370358
-1.860434
0.599222
-0.707927
-0.974656
-0.706787
0.451869
-0.481893
-0.766350
-0.856166
-0.667587
-0.911799
0.771917
-1.546182
-3.030297
0.548914
-0.926620
-1.186159
0.416934
-0.303227
-0.505697
-0.368450
0.224601
1.643353
1.480529
1.620728
-2.461179
-1.590747
0.017117
-0.058788
-0.432836
0.668132
-0.258511
-2.077325
0.672318
-1.775137
-0.349650
1.855688
0.373399
0.368263
0.589118
-1.223017
-1.035696
1.561954
0.007914
1.587798
-2.693841
0.550740
1.788928
1.721772
-0.655687
-0.862164
0.878458
-0.073397
-0.628274
-1.453629
1.309289
-0.072958
0.260421
1.571779
1.881519
-0.810628
-1.995824
-1.945568
-0.089047
1.207050
0.503126
0.356606
2.504999
-0.320565
0.195213
-0.857737
-1.689290
0.653879
2.236254
1.105181
-0.378374
0.591351
0.599429
-0.171154
1.596611
0.686970
0.930119
2.367882
1.202392
-0.300283
1.604295
-0.872149
0.527637
0.755528
1.533020
0.011888
-2.136908
-0.458616
3.916640
-1.164011
0.532058
2.390881
-1.360656
0.047495
0.055278
2.244917
1.968848
0.752248
0.571049
-0.193995
-1.435296
1.015189
1.714457
0.526297
-0.545313
-1.732118
-0.514815
0.297138
0.127064
1.749722
-1.137941
-0.186105
0.211385
0.441080
1.349837
-0.198219
-0.969968
-1.744040
-1.710840
-0.529956
-0.812132
-0.506442
-1.645036
0.591503
0.439906
-0.958185
-0.925899
-0.901832
0.884974
0.526390
-1.241435
-0.557271
2.362417
-1.359189
-1.629258
-0.400916
-2.042709
-2.033338
0.659249
0.747827
-1.035148
-0.866085
-0.054350
1.088341
-0.096645
-0.787652
-0.159648
0.776393
0.395048
0.016619
-2.324312
2.274546
0.633069
-1.539146
-0.324151
-0.530979
1.108596
1.138362
-0.536575
1.361383
0.303024
0.336467
0.056176
0.965501
0.145714
-1.241630
-0.397695
0.616284
-0.592131
-0.448223
-1.873663
1.581384
-0.074251
-1.449102
0.608178
-0.572331
-0.611672
-0.356357
-1.633296
-0.432020
1.019969
-1.145558
-0.788813
-0.201876
-1.075746
0.754433
-0.866478
0.368031
0.902444
0.949905
-0.194833
0.491224
-0.491065
0.891103
0.139730
0.763500
0.282377
0.621054
-0.974761
-0.886468
-0.379844
0.224864
0.939184
-0.275528
-1.087711
0.073323
-0.094226
-1.862749
2.360234
0.356646
1.021779
2.816209
0.517699
-0.804289
-0.048821
-1.188891
0.018168
-0.852538
0.803968
0.864089
0.421253
0.165109
0.029284
1.118284
-2.065209
-0.842133
-1.075181
-1.857156
0.642587
-0.194059
1.119289
-1.107319
-1.005741
-0.437343
-0.321241
-0.108140
-0.256653
-0.612626
0.382519
-2.330340
-0.655673
-0.421815
0.259710
-0.439970
-0.844870
-1.131296
2.102502
0.926996
-0.123932
-1.889687
-0.585251
-0.479589
0.964731
0.026328
0.124830
0.301885
0.265434
-0.614930
-0.556084
-0.371456
2.280020
0.861801
0.559230
-0.342391
1.006777
-0.314128
1.420900
-0.773693
-1.277902
-0.290298
1.269128
0.779444
-1.401462
-0.184156
-0.303409
-0.246603
-0.303371
-1.832338
1.455096
-2.813166
1.113493
-0.040957
0.744965
0.955371
-0.032852
0.442465
-2.485897
-0.453086
-0.324352
-0.432932
0.377282
2.034398
-0.696813
0.464593
0.094895
0.592855
-1.569563
-0.000119
1.048072
-0.385488
-0.749337
0.182560
-0.838208
-0.239056
0.643420
-0.324979
0.967928
-0.009882
-1.212073
0.152413
-1.317106
-0.940197
0.566162
-0.098076
2.033642
1.264675
-1.198559
-0.463659
0.410093
-1.091284
1.690509
-0.095257
-0.403254
0.327863
1.859416
-0.356526
-0.862454
1.236078
-0.720527
0.789843
0.105490
-0.014081
0.742577
-0.082600
-1.698687
0.675214
0.215884
0.230039
-1.955503
-0.112805
0.646403
1.267344
0.452566
-1.440128
-0.542424
0.318331
0.875207
0.329052
0.666700
0.119372
0.004049
-0.690771
0.789604
-0.111161
0.857912
1.041602
1.504481
-0.514966
0.080105
1.905581
0.791467
-0.246002
0.834621
0.907805
1.201161
1.091133
-0.024356
1.667452
-1.631009
0.138404
0.710059
-0.773205
-1.435799
0.946832
1.185249
-0.407897
-0.125879
0.274620
0.339339
-0.338807
-0.636685
1.538942
-0.610220
-0.516099
-0.823837
-0.555297
1.484105
0.397132
0.513682
0.107853
-1.178604
-1.157113
0.293388
0.804335
-0.512419
-1.183733
-1.153885
0.986418
0.886141
0.328874
-0.973441
-0.402125
-0.091869
-0.096821
0.073157
1.238772
-0.451405
-0.660763
0.813628
0.261426
1.662634
-1.646097
1.169007
0.003343
-1.527097
-1.922233
0.812113
-0.770904
-1.306812
0.609368
-0.698909
-0.446617
-3.336789
0.597701
0.431493
0.852895
0.204372
0.205445
-2.531152
-0.179380
-0.596111
-0.284883
0.372040
0.558901
-0.317338
-0.352163
0.559099
-0.185763
0.855171
1.250919
-2.079034
0.232908
-0.990728
-0.284384
-1.144409
-2.388253
-0.250282
0.355347
0.080900
-1.052172
2.447854
-1.330143
-0.921260
-0.196316
-1.103810
0.960476
1.153488
-0.843331
0.207190
-1.784402
-0.231078
0.954241
0.222439
-0.587371
1.036841
-2.128588
-0.790024
-0.250481
0.565428
-1.381143
-1.123456
-2.458428
-0.714164
0.021805
1.083926
-0.201568
-1.273316
0.234282
-0.962085
0.371069
-0.863649
1.111273
-0.323017
-0.825957
-0.421733
0.204047
1.152200
-0.272094
-1.306106
-0.184540
-0.509237
-0.521747
-0.803156
-2.261170
1.276264
-0.288558
0.320892
0.909876
-0.560520
1.906471
1.723586
-0.299105
-0.445952
-0.219759
0.675770
1.154612
-0.522103
-0.122184
0.772053
-0.604826
-0.927302
-0.152822
-0.884202
-0.638731
0.919443
0.226549
0.433717
0.800720
0.219744
-0.173377
1.854773
-0.039513
-0.683226
-0.618877
-0.972247
1.598360
0.838808
2.008813
0.775021
-0.521997
0.270993
-1.022676
-0.653788
-0.861142
-0.386226
-0.061616
0.551404
0.030205
0.248012
0.061050
0.689358
-0.403024
0.588799
0.530999
1.366744
-1.171863
-0.573946
-0.376184
0.648886
-0.929398
-1.287722
-0.535959
0.629466
0.436320
-0.103103
-0.502285
-1.278936
-1.171353
-1.753704
0.735197
1.412506
-1.765392
1.265256
0.126713
-0.739233
1.250042
0.233320
1.566979
0.393388
-0.608926
-0.663964
-0.100102
-1.637896
-0.643828
1.193520
0.259719
0.389753
-1.723461
1.071244
-1.404833
-2.230724
1.686747
-0.974579
-1.745352
1.163627
2.073150
-0.385698
0.039882
-0.631954
1.251901
-0.520532
0.337710
2.266784
0.134139
-0.403859
0.110733
1.049892
-0.848040
-0.570300
0.263807
1.677663
0.631469
-0.904531
0.413889
-1.017428
-0.977660
-0.413541
-0.314912
-0.989833
-2.280186
-1.151126
-0.449946
0.930050
0.821656
0.751984
-0.321737
0.868995
0.929621
0.304829
1.502364
-0.738901
1.328384
-0.698954
-0.635851
-0.987494
-0.369318
-1.717726
0.355501
0.897520
0.154961
-1.313900
-0.130336
0.272858
-0.167572
1.577487
0.908781
1.423903
0.870326
1.399432
-0.696135
-0.512519
0.967794
-0.726409
-1.017430
0.093225
-0.116852
0.152504
2.019046
1.092326
0.634425
-1.117795
0.082851
-0.708163
-0.501868
-0.882913
1.430571
0.962190
0.100000
0.351147
-0.220500
0.677915
0.956154
-1.939822
-0.457333
-0.601125
0.003611
0.927021
-0.105241
1.004762
-0.141405
-1.555089
0.135609
-1.576587
-0.338334
-0.726418
-0.284750
-0.459459
1.004673
0.938166
-0.509968
1.675746
-1.008145
0.742526
-0.780851
1.358184
-0.408889
-0.401057
0.882678
-0.798344
-1.091619
0.080198
1.598163
-0.594618
0.165344
-0.457562
-1.264522
0.132033
-0.521526
0.491745
1.934817
-1.971115
-0.273225
0.408859
0.446925
0.800025
-1.417966
1.116006
0.080090
0.838344
-1.081098
-0.015267
-0.566470
-0.579315
1.381799
0.203870
0.406576
1.219830
-1.291199
-0.363442
0.040987
-0.917054
-1.490460
0.269249
1.459021
-0.756298
0.698618
0.248540
-0.442585
1.221311
0.214745
0.168736
-0.152568
-1.063304
-1.549534
0.118704
0.824525
-1.102170
0.620929
-0.273950
-1.637122
0.224134
-1.782064
1.447681
-0.388485
-0.345909
-1.209153
0.362489
-1.277393
-0.565038
-1.788546
1.453826
0.596983
-0.047714
1.705506
-0.073626
0.886763
-1.216394
-0.519695
1.307900
0.083751
0.238125
1.323460
1.551517
1.327321
-0.349955
-1.556409
0.242072
0.773532
-0.470742
0.345665
-0.713582
0.406948
-0.640441
0.995286
-1.114223
-0.527802
-0.911167
-0.184496
-1.071800
-0.606098
0.366989
-0.523645
0.871328
-0.612415
-0.901467
-0.295726
-0.047838
-0.024220
-1.279151
-1.585131
0.049528
1.371311
0.533119
0.446408
0.254938
1.883610
0.416286
-0.701098
-0.644530
0.856248
0.469411
1.496093
0.273268
0.217167
-0.823731
1.309306
-0.419803
1.995458
0.052879
-0.685705
0.591730
0.491421
-1.503615
-0.260219
0.379907
0.164800
1.097802
1.198543
-1.905899
1.622608
-0.772597
0.009636
-1.209704
-0.560235
-1.293188
-0.778854
0.664763
1.315665
-0.547634
-1.361811
0.385447
0.963290
-0.600868
-1.009473
-0.051876
1.407617
0.430904
2.210082
0.573716
1.606845
-0.525509
0.151993
-0.256945
0.641934
-0.440722
-0.441260
-0.546420
0.139858
0.237090
0.314219
1.749990
-0.360918
2.288721
-0.984309
-1.368552
-1.369442
0.301418
0.273498
-1.570839
0.451335
0.700719
-1.821956
-1.443359
-0.961492
0.260844
1.011412
-0.509389
0.232090
0.815095
-0.886058
0.579752
0.633216
0.734159
0.697877
-1.239169
-0.241321
0.935687
-0.830818
0.146328
-0.202532
-0.352257
0.484465
-0.804978
0.264041
-2.180606
-0.463816
-1.808020
2.044369
0.535447
-1.441753
-0.179323
-1.741403
1.090898
1.759622
0.143859
0.795717
0.344514
0.910251
1.966965
-0.495764
0.211591
0.040647
0.113810
2.073069
-0.063927
-1.071452
1.093237
0.024006
-1.476965
-0.386125
-0.028487
-0.943918
1.331337
-1.100728
0.090407
2.196597
0.651919
0.241827
-0.556748
-2.095273
0.348540
0.597802
-0.956045
2.112282
-0.158480
-0.349969
-0.646881
0.855886
-1.436882
-0.121164
-0.048962
1.193624
-1.089366
-0.460768
0.615427
-1.513479
0.512433
0.965257
-1.152835
0.337811
-0.717776
1.412076
1.158080
0.572855
-0.848769
-0.695347
-0.900438
-1.809486
0.483031
1.070739
-1.734273
0.375831
0.689280
0.522688
-0.551005
0.358844
-1.508967
2.233577
0.735885
0.591860
0.974027
-0.331787
-0.025284
1.194628
-2.678513
0.314334
1.477438
-0.535637
-0.175693
-0.487134
-1.215375
-1.823240
-1.816601
-0.488716
0.233718
0.736190
-1.274477
-0.780341
-0.189231
-0.195264
1.290932
-0.518512
-0.835146
-0.672233
-0.829973
1.141549
-1.103949
-1.549160
0.836702
1.585737
-0.685260
0.828184
0.138443
0.313210
-1.823915
-0.776981
-0.256841
1.621093
0.938536
1.739638
-0.936114
-1.933206
0.844532
-0.680662
0.073098
1.368659
0.889780
-0.171078
-1.546183
0.884080
-1.141998
-0.124589
2.227803
-0.377696
-1.056799
-1.272396
0.808922
2.615778
0.278029
0.366752
0.475085
-0.282333
-0.879237
-0.223664
0.015977
0.316131
-1.970224
-0.521331
-0.229557
-0.169503
0.795261
1.423224
0.046868
-1.492612
0.707804
0.689191
-2.056607
1.813271
1.584044
0.780812
0.290647
0.157685
-0.616696
-0.640642
-1.690221
-0.908782
-1.275177
0.218454
-3.552313
2.309008
0.284397
0.051920
0.450659
-0.179337
-0.828400
-1.085213
0.146751
0.229322
-0.839910
0.630770
1.543659
-0.319194
-0.108015
-1.279678
-0.766090
-0.221232
0.564388
-0.395924
-0.874338
-1.196653
-2.021974
-1.683138
0.898988
-1.206954
-2.067103
0.169882
0.198759
0.563882
-1.087648
0.454007
-1.078956
0.071131
-0.149468
0.822365
0.715473
-0.012426
0.431836
0.233870
-0.678134
0.180823
-0.592597
-0.250766
0.461682
-1.195114
0.983978
0.869902
0.550681
0.455080
-0.128354
-1.338644
-0.767723
0.020684
-0.277773
0.614889
0.436652
0.643632
0.950720
0.802246
-2.129433
-1.088949
0.821885
0.961452
2.490956
-0.416455
-0.529009
-0.731542
-0.273129
-0.285705
1.115311
-1.256695
-0.121868
2.783836
-1.914510
-0.262889
-0.012262
-0.316764
-1.461244
-0.598707
-1.744680
-1.368742
-0.050888
-0.065405
-0.715428
0.853947
-2.099050
0.718459
-1.238325
-0.678434
-1.353664
-1.012767
1.593423
-0.132553
0.370111
-0.283130
1.094808
0.363001
2.610957
0.682116
0.647646
1.283800
-0.752791
-0.358321
0.340448
0.406121
0.546108
1.467942
2.124154
1.917206
0.201803
0.338271
1.309159
0.449414
2.106285
0.399074
0.297048
-0.168545
0.793734
0.405263
0.784960
0.801267
0.592800
0.584328
0.359975
-0.364229
0.428742
1.368234
-1.419568
-0.991879
-1.776729
3.121356
-0.389321
-0.543868
-1.323812
1.199290
1.028196
-0.816109
-0.416834
0.427130
-0.194660
-0.234541
-1.049573
0.204268
-0.706434
0.193781
-0.116347
-0.574282
-0.670099
-0.489557
0.562325
-0.033141
-1.217873
-1.213133
0.772870
0.082402
-0.024890
-0.280890
-0.392544
0.318096
2.510970
-0.920431
-0.853288
-1.431026
0.304856
-0.614010
0.212194
-1.336674
-0.814870
-0.259865
-0.405525
1.042062
0.223060
-0.613164
-0.025554
-0.531603
1.295811
-1.116427
1.475197
0.115361
-0.687314
-2.021332
0.996211
-0.595442
1.495292
0.289251
0.343995
-0.148928
-0.598223
0.019792
-0.248651
-0.752099
0.996602
-1.543299
-0.572248
-1.112826
0.422895
0.301636
1.853787
0.656227
-0.087492
0.066817
-0.952899
0.351957
0.640488
0.751271
-0.171301
0.059642
1.031698
0.410793
-1.902073
0.232018
1.629948
0.543582
-1.790665
0.657697
1.309944
-0.016818
1.893606
-0.355237
-0.179472
3.040610
0.649370
-0.542737
-0.207008
0.241619
0.374633
-1.983178
1.499062
0.044336
0.477640
0.014505
-0.850578
-0.572935
-0.974027
0.678812
0.045726
-0.049827
0.626095
0.746103
-1.421783
1.480848
0.413722
-0.514743
-1.003376
0.627588
-0.000364
0.680516
-0.700550
1.025537
0.952583
0.587623
-0.347666
2.010484
-1.571538
0.904920
0.056477
-0.825683
-0.537655
-1.790757
-0.208121
1.495424
0.604067
1.178857
0.480774
0.806794
0.492600
0.375075
1.851535
0.978723
-1.132572
-0.527715
-0.395812
-0.001137
1.017909
-0.874709
0.024309
0.420264
1.385798
-0.061506
-0.663512
-0.036461
-1.390112
-0.080639
-0.072666
-1.162979
0.087315
-1.183721
-0.253399
1.202620
0.647045
-0.357939
1.204497
-0.196893
-0.848041
0.540325
0.558976
-1.599675
-1.098213
-0.502738
-1.087896
0.943644
2.019295
-0.293420
2.159462
1.567595
1.029074
0.280731
-0.517693
-0.248665
-0.271051
0.395197
-0.161947
0.319836
1.221918
0.150581
0.771793
0.582833
0.616957
0.108424
1.418205
-0.137117
-0.208469
-0.055452
-1.157809
0.167390
0.747975
-0.920265
-1.282216
1.519400
-0.035124
-0.891741
-0.642226
0.131186
0.107668
0.469958
-0.970379
-0.094518
-0.795521
0.353750
1.149214
-1.053872
0.791589
-0.731849
0.236943
0.762596
-0.638327
0.723266
0.082446
-1.259454
-1.732811
0.609835
-0.642859
1.627901
0.749215
-0.015258
-0.086662
0.055273
-1.058143
-1.228751
-1.559750
-0.328999
1.493541
0.242338
-0.664119
0.141833
0.742787
0.040738
0.025720
0.399414
0.851791
0.939685
-0.946154
-0.518361
1.851221
-0.215650
-1.528882
0.415771
-0.126021
-0.423682
1.413584
-1.358661
-0.716197
-0.846712
0.452507
1.445816
-0.452318
-0.258092
0.349062
-0.390778
0.129724
1.409590
1.311669
-0.925019
-0.391154
-0.026414
-0.603655
0.695742
0.283594
0.436686
-0.449781
0.982083
-0.635776
0.540190
0.753033
-1.301535
-0.421408
-0.548369
-1.293750
-0.787754
-0.757977
-0.043345
0.541481
1.483340
-0.064643
-0.734877
-0.642813
0.184775
1.040104
0.577703
-1.110292
0.860337
1.380277
-1.331885
-0.523947
-0.383412
0.432317
1.048940
-1.890199
1.243138
-0.104332
1.225906
0.076675
-1.389861
-0.639141
-0.692955
-0.212071
-0.573528
0.588769
-2.504759
-1.756048
0.100091
2.591872
1.383078
-0.002853
1.666998
0.743702
1.038572
1.282033
1.653885
-0.237548
0.195984
1.021028
-0.102471
0.716329
-1.502670
-0.012080
0.410390
1.483450
-1.668747
-0.461051
-0.039413
0.636025
-1.037511
-0.647270
0.854009
-0.012649
-1.166094
-0.159946
1.151217
-0.607664
0.337227
0.047461
2.131322
-0.326971
-1.715916
1.015361
-1.062480
0.817558
-0.959450
1.516908
1.673588
-0.264480
0.246354
-0.146286
-0.572001
0.948158
-0.726655
-1.528891
0.476684
0.454152
1.370803
-2.133385
0.363441
1.686242
-1.257699
0.034695
0.011217
-0.034868
2.099896
-0.552792
-1.698793
-0.916891
0.805246
-1.110655
1.919388
-1.182526
-0.508167
-0.849509
-0.714988
-0.353148
2.214396
0.990599
-0.398630
-1.493747
1.419357
1.405457
-0.573729
0.174637
0.289480
0.146274
1.010942
0.954942
0.049942
-0.039779
0.259101
1.519302
-0.550822
0.133536
0.919323
-0.896764
-0.326078
-0.775036
1.077084
1.237575
-0.924571
-0.189585
-1.384204
0.354249
-0.061030
0.635950
-0.668258
-0.967805
-1.339135
-0.771948
-0.402595
0.987942
-0.201753
-0.810957
-0.067413
-1.124926
-0.433419
1.380895
1.279392
-0.952260
-0.189863
-0.523611
0.021326
-0.998967
-0.069165
0.567187
1.421469
1.416188
-0.092153
0.555427
1.828993
1.914539
0.104857
-1.615938
-1.853550
0.885464
-1.125135
0.817903
-0.040909
-0.900042
0.787554
0.821618
-0.457567
0.199103
-0.804020
0.423887
-2.602233
-0.875663
-1.197513
0.780759
-0.964709
-1.152308
-1.100606
-1.330408
-0.711238
-0.734338
0.220365
-1.318778
-0.410406
-1.524220
0.543208
0.598068
-0.849315
0.372438
0.464680
-1.765449
-1.033648
-0.248230
-0.752674
-0.371153
-1.102122
0.067294
0.077137
-0.071477
-0.510451
-0.523709
-1.250182
-0.473105
0.081369
-0.324457
0.711617
1.112254
1.316725
0.694655
0.871070
-0.022254
0.145461
2.299083
0.229765
-0.472777
-0.059799
0.298404
-0.499153
-0.960205
0.398080
-0.377301
-1.071553
1.124341
-0.465277
-0.241617
0.290974
0.372095
0.970021
0.359925
0.561769
-1.195891
-0.936723
-0.104026
0.256051
0.704906
1.889374
-0.312949
0.974688
1.991700
0.938641
0.115307
1.226407
-0.163203
0.110155
-0.420730
-1.347934
-0.102138
-0.272226
-2.212579
-0.372426
0.401582
-2.390853
0.476557
-1.572742
1.036788
-0.627658
-0.252318
1.815995
1.840613
0.907581
-0.220890
0.557853
0.244874
-0.880022
1.235580
0.179505
0.776213
-0.808875
-0.559549
1.606332
1.681985
1.569565
1.040070
-1.095405
-0.561382
-1.936517
-0.691505
-0.129657
-0.857488
0.335179
0.843530
-0.510174
-0.135690
0.116835
1.366288
0.352807
0.390372
-0.274601
0.675206
-0.419208
0.310829
0.794148
0.507102
-1.033405
-1.459415
-0.234248
1.128002
0.026044
-0.236198
0.530937
0.399266
-1.269009
-0.744875
-0.557721
-0.200011
-0.496980
0.320282
-0.011603
-0.255303
0.200059
-0.899025
2.383247
-0.140719
1.732786
-0.431919
0.069998
1.135575
-1.039202
1.325041
0.943194
0.185474
-0.050801
-0.777036
-0.607186
-1.951498
-0.234728
-0.278828
-0.652557
-1.062710
-0.962388
0.535923
-1.118366
-0.896819
-0.431382
1.076541
0.857209
-0.303715
0.642960
0.049837
0.848186
-0.387223
-0.795930
0.252235
0.674027
-1.297007
0.423128
2.256680
-0.358635
-0.594877
-0.343847
-0.875708
0.447640
0.766863
-0.839833
-0.302984
-0.307027
1.229365
-0.608292
-0.113765
-0.781110
-1.051324
1.145905
-0.336780
-1.054414
-0.544686
-1.092965
-1.460607
-0.202195
-0.364307
0.511079
0.082251
-0.177875
-1.163832
0.882453
-1.546153
1.245034
-1.597728
0.733040
-0.236564
0.442668
0.614189
-2.207885
-1.260659
-0.989829
0.168498
-0.206755
-1.290276
-0.853821
0.814902
0.000338
0.818994
0.210223
0.391271
0.363988
0.865753
-0.018821
-1.624987
-0.534022
0.921980
-1.655182
0.695217
-0.549227
-0.982630
-0.682653
0.913054
0.181637
-0.254535
1.465900
0.912697
-0.926871
-0.068727
-0.302289
-0.669045
-0.514587
-1.168214
-0.379846
1.109195
0.876118
0.256577
1.400255
0.435984
0.748698
-1.317234
-0.521271
-0.292140
-0.046709
-0.766945
-0.724324
0.026375
-0.724563
0.106823
0.748146
0.170182
0.765157
-0.636778
-0.583608
0.168421
-1.017205
0.679917
-1.272976
-1.217650
-0.421833
-1.625159
0.805134
-0.691461
0.772794
2.591630
-0.883768
-0.445936
-0.037960
-0.481100
0.110898
0.047486
-1.399991
1.062645
0.419568
0.312401
0.475745
-0.696113
0.002377
-1.795180
-0.220502
-1.142279
-1.414239
0.905354
0.569011
0.215081
0.466308
0.410340
-0.886417
-0.975063
-1.614567
0.555050
1.481280
0.380574
-0.489940
-0.201069
-2.426199
-0.272715
-1.608641
2.086402
-1.755873
0.861306
0.021287
-0.035493
-0.404583
-0.163977
-0.188826
-0.579298
-3.188362
-0.133161
-1.526319
-0.538437
-0.797208
-0.653527
-1.880417
0.613135
-0.885944
-1.589382
-0.916640
0.856111
-1.101640
-0.509154
0.671180
0.235973
-1.471018
-0.994082
0.070168
-0.874746
1.222248
-1.937242
0.443857
-1.741313
0.074181
-0.727588
0.723998
1.449371
-0.356926
0.140175
-0.316704
1.149762
-1.025895
-0.735970
0.079527
-0.427918
-0.342264
-1.663366
0.232821
-0.592134
0.802866
0.193035
-0.784498
0.543891
-0.795724
0.396344
-0.528424
-1.662721
0.100251
1.586414
-1.309002
-1.755860
-0.819886
1.212200
1.040076
-1.013011
-1.074970
-0.794249
-0.962143
0.845659
-1.945170
0.462233
-0.834309
-1.370662
0.237602
-0.861226
-1.191956
-0.236617
-0.624641
-1.252757
0.084647
0.114613
2.099051
-0.801573
-0.655372
-1.733127
0.799351
-1.199389
-0.067193
-0.910838
-0.148820
-0.503843
0.543976
1.780571
-0.703044
0.435588
1.480196
-0.204412
0.891142
0.815507
-0.782694
0.290578
-0.222178
0.394959
0.447299
1.545427
-1.835423
-1.814892
2.945781
0.232542
-0.138676
1.181343
-1.057150
-1.593322
0.312783
0.298678
-1.124102
-1.026375
1.802219
-0.597182
-1.142430
-0.009387
-0.073242
0.191247
2.000074
-0.030056
0.039231
0.391981
-1.229384
-0.563647
-0.385226
0.098389
-2.403369
-0.265663
1.475037
0.531378
-0.299791
-0.089826
-0.405711
0.378281
0.302368
1.099545
-0.520088
-0.915650
2.136360
0.485062
1.576941
1.319505
0.725730
-1.150654
0.244038
1.180344
0.104908
0.080355
0.050854
0.488711
-1.286296
2.039592
-0.668471
-0.024825
1.628263
0.573760
1.120821
-0.077111
-0.198322
0.233526
-1.000816
0.410958
-1.411878
-0.485591
1.869901
-1.254054
-0.646928
0.311599
1.283107
-1.763708
-0.380909
-0.540805
1.287476
-1.089765
-0.834935
1.179113
-0.530191
-1.400712
-0.211672
0.873168
-0.781006
-1.259910
2.118458
-1.179993
-0.675275
-0.263672
-0.497800
1.137043
-0.118935
-1.324903
0.405265
0.510649
1.252119
0.815526
0.781646
1.003067
-1.297209
1.821292
0.022764
1.085591
-0.474017
-0.900332
-0.146077
-0.345906
-0.954788
0.705931
-0.280825
-0.652448
0.626834
-1.769534
-0.243107
-0.233722
-0.937394
0.632773
-0.083989
0.212145
0.155433
1.501819
1.405819
1.175368
-1.491622
-1.373919
-1.358390
-0.327580
-0.593753
0.321952
-1.056155
-1.578077
-1.493852
-0.338360
-1.450346
-1.509113
0.109053
-1.188519
0.986405
-0.227845
0.228455
-1.692223
0.756529
-1.297799
-0.100943
-0.210780
-0.236636
1.903388
-0.284210
-0.437136
-1.282182
1.019511
-0.156591
0.534326
-0.471101
0.732063
0.842948
1.867266
-0.753098
0.744627
0.233811
0.477647
0.698663
0.329948
2.158565
-1.225164
-1.997543
1.013776
-0.014304
-0.370093
-0.802034
-0.082505
-0.258772
0.592432
0.612539
-0.062791
-0.290090
0.652205
0.541115
-0.360830
-0.158486
-1.079460
-0.119024
0.292470
0.462903
-0.030344
-0.679284
1.388142
0.656050
-0.168129
0.244114
1.137169
-0.578110
-0.776531
1.005588
-1.650174
2.146791
-1.231421
0.104410
1.253248
-0.837259
-1.441923
-0.524733
-1.019575
-1.231190
-0.295005
1.014098
-1.487666
0.794645
-0.192455
0.377728
0.020328
0.219932
-0.797589
-0.391927
-0.382484
1.462047
0.665500
-1.509691
0.153501
0.864773
0.607861
0.514301
0.133528
2.354853
-0.681082
0.094879
-0.448077
0.693201
2.090298
0.250340
-2.175795
0.393918
-1.543537
-0.375819
0.934984
-1.018251
-1.590689
0.959593
0.109365
0.755653
1.741908
-1.047704
0.182373
-0.929616
-0.329509
1.622215
-2.454007
-0.834740
-1.112107
-1.068138
-0.758629
2.007050
-0.737861
-0.090543
0.017151
-1.348149
-2.078173
0.212727
0.425621
-0.204584
-0.548223
-1.114555
1.384007
0.568599
0.583926
-0.301888
-1.705923
-1.684304
-0.261691
1.422388
-0.091041
-0.499950
-0.374761
1.000149
-0.784388
1.309521
-0.141822
1.100675
0.867910
1.098248
0.368932
1.145436
-0.401976
0.455720
-0.648777
-0.037664
-0.503840
-2.297283
-1.009111
0.785681
-0.276547
-0.120307
-0.706127
-0.217105
0.878777
-1.039322
-0.231429
-0.645526
-2.435628
0.032290
0.282706
0.516163
0.634013
-0.486519
-0.208251
0.517936
0.183320
-0.586229
1.064600
0.489665
0.029494
1.148256
0.587324
0.463496
-0.012321
-0.037952
-0.269612
0.424098
0.188459
-1.049456
-1.533068
1.708771
-0.304977
-0.029256
-0.170149
1.722141
1.977600
-0.717382
1.100439
0.504828
0.595408
-0.554237
1.600562
2.003515
-0.459156
-1.519578
-0.956315
0.717408
1.317952
0.876907
0.771748
0.336719
-0.370608
0.115606
-1.314563
-0.077333
1.277856
0.940299
0.173897
0.279456
-0.506605
-0.008935
2.225298
0.455531
0.391990
-0.234311
-0.417065
-0.048620
-0.004080
-2.533873
-1.314344
-0.264072
2.180105
1.462993
-0.715915
1.234496
0.063961
0.687515
0.175403
-1.628784
0.092808
0.678527
-0.249118
1.979959
-1.429778
-0.940917
-1.681887
0.628011
1.074826
0.428008
0.234385
-0.886020
0.278846
0.043720
-0.362554
-0.392388
-0.462723
0.984743
-0.152329
0.254291
-1.372099
0.299188
2.228846
-0.301242
-0.364597
1.183274
0.052304
-0.329993
-2.780370
-0.442750
1.460591
-0.721072
0.988291
0.191543
0.831745
0.032287
-0.076212
0.259664
-0.015458
1.815133
0.378033
-0.280282
-0.587469
-0.723961
-0.094393
0.181959
-1.409236
1.341867
0.568016
0.617180
-0.176902
-1.630621
0.384307
-0.231885
0.967039
1.198292
-0.362984
2.745224
-0.643305
1.156433
-1.783475
-1.146015
1.002777
-1.355714
1.360756
1.505141
0.353518
0.032486
-1.095510
0.273737
0.647602
-1.280104
0.798004
0.533405
-0.390271
-0.070160
-0.423749
0.001220
0.006600
-0.338593
-0.990504
0.114895
-0.862754
0.524237
0.573743
1.308455
0.916297
0.551747
0.229299
0.637898
-0.253286
0.258226
0.500570
-1.058501
0.307660
1.343808
0.396899
-0.129803
-0.233951
0.140142
-2.067840
0.275647
1.856262
-0.147234
-0.715817
0.765271
0.517220
0.105067
0.779746
0.854806
-1.332403
-0.915370
-0.580915
-0.160265
-1.407491
-1.128107
-0.070807
-0.490106
0.965395
-1.401177
-0.688390
1.405198
0.616997
-2.125032
-0.099278
-0.715071
-0.413955
-3.001811
-1.677587
1.253994
0.353401
0.384697
0.975413
-1.779291
0.809325
0.251966
0.734676
1.153130
0.560422
0.917601
0.003761
0.752197
1.664854
1.637804
-0.555526
0.952247
1.025031
0.371542
1.983428
-1.928962
-1.502222
0.867319
-0.027220
0.017337
1.022296
-0.399209
0.871822
-0.393584
-0.717692
0.661046
0.849245
0.826164
0.869042
-2.112674
-0.719897
2.216488
-0.884653
1.585336
0.248787
-0.359696
0.848408
0.195372
1.274654
0.540761
-0.717789
0.788248
0.297693
1.273754
0.963603
-0.192042
-0.550304
0.636391
0.031117
-0.209834
-0.526813
0.306939
0.496706
-0.624387
1.883567
-0.376755
-1.522857
0.299236
-0.060258
1.669680
0.178618
-0.159459
0.630846
-0.064757
0.521706
0.189774
0.554254
-1.224798
0.175734
-0.525993
0.783071
0.459946
-1.146611
-0.416689
-0.946315
-0.424066
0.120335
0.329395
-0.178989
-0.107116
0.647598
0.819597
-0.558979
0.406970
0.287197
-0.925181
0.125891
0.096869
-0.724568
-0.483199
1.547430
-0.094058
-0.067035
-1.667772
0.340472
-0.231102
-0.424892
-0.670262
-0.010687
2.236083
-0.639144
0.680773
-1.280761
1.189410
0.133239
-0.250813
0.157110
-0.398092
-0.502165
0.912135
-1.455673
0.218694
0.884342
-0.731631
0.566019
-0.489825
-0.659586
-0.302161
-0.399423
0.332500
0.419594
-0.755560
-0.406946
0.347069
1.357445
-1.619983
1.185896
-0.138147
0.547116
0.106164
-0.179194
-1.229903
1.066520
-0.576695
-0.983604
-0.190970
0.594697
0.744096
-1.061574
-0.603890
-0.494041
-0.959859
1.488295
-0.504184
0.715817
-0.796996
1.456120
-0.819928
-0.876136
0.802908
0.766830
-0.811890
0.028718
0.848077
-1.796701
-1.158112
0.019493
0.112799
1.090959
0.018798
0.019887
-0.704899
-0.127720
-0.339414
0.632342
0.129377
-0.599359
1.229675
0.118331
1.220566
0.664260
-0.504463
-1.741767
-0.782022
0.546328
1.546925
-0.295372
-1.209114
3.385672
0.568645
0.651295
0.839180
-0.714190
0.035284
-0.590151
0.475985
-0.354282
-0.610846
0.429064
-0.823973
0.316817
-1.122616
-2.653343
-1.508196
1.521237
-0.498937
-0.540278
-1.510686
1.654298
1.809701
-0.451260
0.762514
-1.313418
2.149390
-0.775423
-2.049914
-0.243471
1.202146
-0.096620
2.018704
-2.045039
0.325098
-0.079219
0.005407
1.701522
-1.096790
0.150836
0.267638
1.092841
0.511767
-0.594762
1.277890
-0.266649
0.245000
-1.094263
0.334510
0.272287
1.042801
0.893363
-0.838980
1.049572
-0.528168
-0.988560
-0.212667
-1.923659
0.793013
-1.520801
-0.042418
-0.823126
0.336526
1.014651
0.954521
-1.386389
0.999657
-0.830763
0.243670
-0.810195
-0.507190
-1.309733
0.252523
0.744152
1.696406
0.744165
-1.409421
0.250870
1.364959
-0.121856
0.137784
0.195878
1.037166
-0.707982
0.794084
0.761319
-0.851084
1.067851
1.350171
1.450496
0.148592
0.271502
-0.464986
-1.543136
-0.594182
-1.352809
1.081933
-0.765591
-0.383132
0.670666
0.251036
1.467819
-0.464901
-0.780073
1.616446
-1.194667
0.537570
-0.693640
-0.072993
0.415983
-1.022210
-0.089128
-0.174563
0.830964
-1.357757
0.256839
0.627524
-0.420220
-1.130512
-1.237583
-0.281878
-1.790513
-0.241887
0.690275
-0.210054
-0.124887
-1.520707
-0.375321
0.804340
-0.815461
-0.874403
-1.240032
-0.989837
-0.679823
-1.184869
0.093539
0.009751
-0.690908
1.654049
0.418977
-0.069360
-1.216940
0.564160
-1.058707
-0.443003
1.080233
0.461189
0.366289
-0.902382
-0.846018
2.083438
-1.502885
1.573525
2.619980
-0.936699
1.049852
-0.584548
-1.787468
-0.170024
1.399683
0.790343
1.175442
-0.398260
-0.718056
-0.815365
-0.901752
1.463369
-2.709032
-0.123431
0.059191
-1.009327
-1.016782
0.184218
-0.183355
0.453194
-0.723830
0.310192
1.032417
-2.710778
0.033309
-0.362066
1.548851
-0.818623
1.614466
2.065516
-0.535058
-0.269982
-0.295574
0.696837
-0.815285
-0.736886
0.265813
-0.685857
0.056926
0.188028
-1.014479
-1.106855
0.610976
-1.243847
-0.590159
0.221922
0.221973
0.873686
-0.767397
-0.551212
-1.296332
0.255208
-0.110418
-0.581857
0.795780
-1.207069
-1.244157
-0.002752
2.669517
-0.170739
0.131368
-1.505640
0.345708
1.288185
0.809876
1.661149
0.677147
0.333881
0.749667
1.359709
0.013138
0.846351
0.032666
0.350178
0.356333
2.095743
0.336888
0.398196
-0.418472
-0.234118
0.276375
0.006657
0.973601
-0.980194
0.208011
0.167667
0.768074
0.358151
-1.516519
-1.584275
-0.805015
-0.942238
-0.434278
0.855168
2.022340
-1.069430
-0.091282
-0.106439
-2.470495
0.550550
-0.065535
-0.251404
1.348555
0.013640
0.419592
-0.945828
-1.310035
-0.719146
-0.013832
-0.938071
-0.465629
-1.793507
-0.468435
-0.853230
-0.424778
-2.196086
1.517505
-1.172704
-0.283116
0.954784
0.087253
-1.804124
1.226679
-1.696986
-0.011271
-1.418517
2.264234
1.642684
-0.148595
-0.881322
-0.812276
-1.217296
-1.235010
1.012498
-0.047125
0.064312
1.363359
0.657409
-0.597830
1.589231
-1.245807
-0.347067
1.775490
1.201430
-1.664507
0.011993
0.973092
2.425702
-1.304380
-1.525433
0.472179
0.191366
0.668849
-0.858066
-0.240972
-0.059951
1.801176
-0.057440
1.482791
0.770244
-0.452989
0.972177
-0.114195
1.506775
0.719944
-1.259256
-0.087530
1.645200
0.633681
0.794692
-0.803159
-0.430440
1.505243
-0.248327
-0.862610
-2.191255
0.243625
-0.486695
-0.881060
1.684284
-0.650108
-0.555447
1.001406
1.016700
-0.533799
1.496498
1.622124
2.348921
0.324630
0.764921
0.442934
0.598447
1.710909
0.278182
-0.440866
0.603155
0.572006
-0.966437
-0.029645
1.524524
1.587569
0.151869
1.403841
-0.783771
0.933428
1.173560
-0.200199
0.114129
-0.886630
-1.111436
-0.027352
-1.846606
0.034088
-0.615082
-0.445201
0.185746
-0.884987
-0.250986
0.634870
0.085796
-0.559457
1.287332
-0.231838
0.281305
1.075630
-0.791058
-0.377469
-0.832680
1.474252
1.001898
0.460843
0.173200
-1.232854
0.203110
-0.266037
0.046244
-0.027085
0.389735
-1.416409
1.677647
0.626714
1.150199
0.160440
-1.259837
0.838158
-1.480316
0.040842
-0.280941
1.851972
0.623428
1.516800
0.505145
1.781346
-0.233100
1.327192
0.765739
1.988678
1.272875
0.052990
-0.273299
0.568028
1.735357
0.077525
1.285474
-0.812843
-0.297854
-0.145966
-0.414545
-1.239406
-0.857079
-0.383569
0.456662
-1.320380
-1.778226
-0.693012
-0.469394
-1.847241
-0.034995
-0.656673
0.346895
-0.979787
-0.388430
0.962498
0.227444
-0.133531
0.984091
0.046084
-1.804464
0.229550
-0.349281
-0.053213
1.348257
0.659627
-0.230853
-1.629109
2.372778
0.035209
-2.152035
0.687967
0.780125
-0.366164
1.670874
-0.190420
0.768454
-1.264806
-0.344138
-1.625221
0.184184
-0.514600
0.845260
1.211119
-1.048376
-1.418365
1.167966
0.690462
-0.054845
1.176966
-0.110879
-0.568351
-1.209709
0.541021
-0.731754
0.426166
-0.329702
0.330824
1.811753
0.637045
-0.866348
0.161262
-0.521585
1.083881
-0.557767
0.650140
-0.784188
-0.038405
-0.085588
0.765575
-1.714064
0.408403
1.067423
0.380332
0.087557
0.704008
1.248628
0.294744
-0.548610
1.215060
1.572578
-1.187209
0.897051
-1.314897
1.282630
0.609795
0.951154
-1.189263
0.128850
1.076355
-0.057302
-1.344797
-0.133656
-1.085549
1.020419
-0.549473
2.172072
0.271386
0.188641
-0.357378
1.622151
-0.128358
-0.314244
-0.381468
-1.128801
0.152224
-0.268908
-0.549650
-0.044392
-0.668398
0.148340
0.695997
-0.195602
-0.811956
0.136913
-0.479300
-0.766931
0.544977
-1.067028
1.245989
0.402699
0.502374
1.231134
-2.024309
-0.585204
-1.179078
-1.581466
1.620211
0.530357
0.581580
-0.117902
-0.166328
-0.955682
-0.232618
-0.001614
1.517071
0.756319
-0.518155
-1.454099
1.409575
-0.108718
1.492768
-1.002240
0.415758
-1.049720
-0.738007
0.214933
1.450430
1.425452
0.171714
0.201605
0.352162
1.486757
0.397531
0.277668
0.313375
0.505855
1.019981
-2.823006
-0.618272
0.446648
0.598045
1.071985
0.033674
1.510988
0.526722
0.396963
-1.317189
-1.651548
2.393552
-0.272471
0.436358
-0.750932
0.953412
1.110530
0.389622
0.387650
1.456612
0.491034
1.436151
-1.474617
-1.898167
0.350576
1.416009
0.497314
-1.179696
0.593132
0.404808
-0.037689
0.249994
0.659465
2.248800
-0.998995
-0.262541
0.510613
-1.332516
-0.486478
2.371213
-0.661881
-2.124761
-1.313088
1.952470
0.114853
-0.661328
-0.854973
-0.013852
-0.129534
0.074534
1.819146
-0.547966
-0.098918
0.807363
0.540941
-0.202451
1.260340
-0.258832
0.959548
0.404917
1.647488
1.038384
1.075081
-0.172581
1.002812
-1.256247
1.139217
-0.076043
-1.092803
0.058015
0.801600
-1.333844
1.544705
-0.105719
-0.940858
-1.791959
0.347548
-0.485197
0.747143
1.815689
-0.320043
-0.492225
0.281685
1.200227
-1.148603
0.264326
1.290286
-1.077388
0.769996
1.143799
0.214407
1.552706
-0.468614
-0.193962
2.068308
0.681216
-1.597751
0.519727
0.950583
-0.470573
-1.021786
-0.322156
-0.302311
0.469276
0.080052
0.354100
-0.768116
-0.250136
0.772140
0.848593
-0.487730
-0.048396
2.358870
0.040101
-0.025969
0.357414
0.254841
0.305527
1.286008
1.230722
-0.286505
0.744546
1.403017
-0.668243
-2.595886
-0.612245
-0.022157
0.690217
-1.301193
-0.641451
-0.015340
0.741417
-1.503994
-1.165206
0.264823
-1.060941
-0.925557
-0.064518
-0.954100
-0.344479
-0.058487
0.255815
1.070047
-1.137675
-0.210684
1.546157
-0.606464
0.762487
-1.204620
-0.809883
-0.080902
0.636136
-0.654350
-0.654833
-1.045723
0.659302
1.332219
-1.179788
-1.710129
1.438759
-0.026523
-0.106009
1.426782
-0.609593
1.446619
-1.488953
-1.693351
1.302245
1.527471
1.172531
-0.652120
-1.306212
-1.112371
0.254571
2.415739
-0.187889
-0.192233
-0.612110
0.038686
-0.235971
-1.284566
-0.403324
-0.188942
0.065021
0.690957
0.397228
-0.127056
0.409406
-0.615033
-1.180599
0.138434
1.918399
0.023904
0.873067
1.355734
-1.344189
-2.080024
-2.075522
1.897042
1.165870
-0.618510
1.409543
-0.686552
-0.908635
-1.507220
-0.427971
1.246890
-0.135848
0.231443
-0.002028
-0.549313
-0.155771
0.937397
0.684056
-0.122402
0.699241
-0.990680
0.196519
-0.575363
0.070509
-0.157555
-0.178856
-0.912703
-0.955285
-0.501845
0.405328
-0.883412
-0.965570
-0.274004
-0.639549
2.637489
0.255465
-0.367052
1.575147
1.202886
0.463277
0.926152
-1.997119
-0.184004
1.333082
-0.756722
-1.699289
0.473907
1.288817
-0.081876
-0.370787
-1.013822
-0.443955
-0.796919
-0.647358
1.934340
0.018810
-0.316280
0.910168
-0.327525
0.277035
0.187581
0.197084
0.772757
-1.461940
0.104403
0.941353
0.924659
0.081727
-0.062100
0.297038
-1.673221
-0.478447
-1.754254
0.782950
0.137902
1.200789
-1.040975
-0.052955
0.668709
-1.993439
0.214321
0.712317
0.327652
0.282971
-0.740174
1.276437
-1.773165
1.608251
-2.177667
-0.282901
-1.276349
-1.384102
0.366101
0.310763
-0.297557
-0.055075
2.125122
-0.569542
1.247303
-0.842562
0.832615
-0.640605
2.162740
-0.644324
-1.134524
-0.598095
0.960943
-1.133391
-0.104640
-0.248083
0.066841
0.488764
0.464724
0.591965
0.005405
-0.508150
0.163127
0.260964
0.212658
-0.866498
0.861272
-0.613642
1.068148
-0.605468
-0.481797
1.251169
0.282581
-0.208790
0.480549
-0.090374
0.662101
-0.018999
0.628031
-1.590451
1.100649
0.231962
0.036387
1.543444
-1.403797
-1.087034
-0.341090
0.471072
-2.097459
1.667359
0.428068
-0.221054
-0.645734
-1.181645
-0.529807
0.766276
-1.871892
-0.664508
0.299947
-0.820587
-0.622694
-0.735415
-1.177032
0.662445
0.126469
-1.140252
1.176853
0.032744
-0.941754
-0.953485
0.507254
-0.095848
0.303022
0.181978
0.228617
0.129387
0.040781
1.926407
2.057440
0.098693
0.491591
0.767037
-1.647634
-0.195581
0.889235
-1.302370
-1.091562
1.920074
0.207649
0.390505
0.015317
0.926235
1.079098
-0.191309
0.182067
0.157051
2.169830
1.394822
-0.109391
0.717006
-0.368553
-0.225045
0.215260
-1.589374
0.378866
0.948683
0.188209
-0.631190
0.549548
-0.496040
-0.158229
0.990069
-0.812189
2.013817
-0.533028
0.469675
-0.291443
0.779479
1.426529
-0.169730
-2.085130
0.388225
-2.208594
0.350427
0.275920
-0.180556
-0.248132
-0.358619
0.062764
0.828201
0.352025
1.182192
0.906020
0.540531
-0.248827
2.286935
-1.222786
-0.379956
-0.273553
0.635225
-0.567488
0.312518
0.504900
-1.510169
-1.171690
1.430421
1.357235
-0.198735
-0.190968
-0.378093
-0.279752
-0.963642
-0.224618
-1.329659
-1.097262
2.207980
-1.936586
1.111507
0.522479
-2.002381
-1.861617
-1.448996
-0.291144
1.001240
-0.337616
-0.298935
-0.106389
0.629210
-0.024039
-0.008778
0.200809
-1.196031
-0.374528
-1.280070
-1.257026
0.346926
-1.213856
0.612867
-0.179946
-0.396688
-0.884569
0.319605
-0.314722
-1.377951
-0.763938
0.487073
0.954842
-0.072928
0.363432
1.156864
-2.392375
0.003456
0.735088
-1.552315
-0.145668
-0.319412
0.018912
1.757402
-0.615616
1.192645
1.160477
-0.949411
1.175480
0.425598
1.137096
-0.241630
-0.120071
1.136906
-1.150809
1.254644
0.667193
-0.806993
1.594626
-0.298447
1.439386
-1.918990
-0.192230
1.504592
-1.102642
-1.272870
0.110887
0.673524
0.272843
-1.463388
1.019106
-1.075639
-0.376351
-0.784960
1.041121
-0.600482
-0.943855
-0.474620
-0.503594
-1.512791
0.567974
-0.278620
-0.365142
2.130296
0.089154
-2.737417
0.117813
1.111199
0.441361
1.312209
-0.715532
-1.747676
-0.735603
1.550377
-0.458018
-1.214303
0.766658
-0.414526
-0.366214
-0.494440
-0.026910
1.017556
0.642637
-0.299441
-0.488133
0.091094
0.658374
-0.502919
0.243941
-0.691451
0.485816
-1.416193
-0.182152
2.324916
1.979431
-0.372794
1.120006
0.224304
-0.012104
-1.777184
0.636920
0.121423
0.151246
-0.250225
-0.008240
-0.370639
0.892895
2.443393
0.567581
0.180503
1.276073
0.160361
-0.298182
1.409422
-0.070099
1.134630
0.493432
-0.948459
0.100543
-0.566407
0.343879
-0.991855
0.373094
0.191225
1.161162
0.345255
-0.972616
-0.999090
-0.061650
0.321754
-0.367597
-0.942584
-0.561613
-0.549754
-0.907991
-0.271216
-1.424082
-1.092723
-0.290584
0.196888
-0.402052
1.167158
0.066605
-0.801930
0.157509
-0.946861
-1.334447
0.420084
-0.105199
0.202983
-0.074920
0.659895
0.695052
-0.253747
0.689921
-0.007572
-0.691314
-0.065488
-0.699880
-0.087724
-0.544661
0.599061
-0.862446
0.169422
1.066857
0.176928
0.206589
0.717723
-0.280821
0.937256
0.356522
1.435231
-1.441323
0.361608
0.711173
0.108010
0.078576
0.533330
1.726285
-0.141429
0.284950
-1.484242
-2.242331
0.297577
0.848939
-0.286091
-0.667162
0.740590
-0.469217
0.813965
0.602497
-0.405957
0.259268
0.455205
-0.988425
0.043777
0.788768
-0.066677
-1.597807
0.322432
0.146722
0.722930
-0.592583
-0.999892
0.094449
-0.474592
-0.665178
-0.182243
-0.115857
-0.663152
2.550753
-0.370069
0.194161
-1.382095
0.885134
-1.979318
-1.282919
1.903367
-0.557363
0.657883
-0.180602
-1.104771
0.906492
0.396954
-0.802217
0.342654
-1.793030
-0.438815
0.702974
-0.710416
-0.492558
0.105479
-0.331890
1.361805
-0.832439
0.911644
0.092062
-0.859353
-1.448345
-1.700971
0.353751
1.066983
-1.667825
0.541557
0.642788
-1.996128
-1.112596
-1.330502
-0.202839
-0.125141
0.981643
-0.153441
1.127793
1.243103
-0.801858
-0.141921
-0.152260
0.068103
-1.544635
0.886893
0.110405
-1.555262
-0.038158
-1.177362
-0.212440
-0.973459
0.176830
-0.461590
0.859438
-0.568067
0.387068
1.987722
-0.232530
-1.810039
-1.375648
-0.227243
1.176176
1.149408
-0.159129
0.229630
-0.565621
0.329260
0.668166
-0.520371
-0.369459
0.726218
-0.279174
0.700966
-0.500276
3.307308
-0.512086
-2.446195
-0.718633
0.538775
0.273027
0.347859
1.677184
1.832084
-0.890825
0.224309
-1.177317
-0.616466
-0.986102
-0.164997
-1.052500
-0.366649
-1.456167
0.148568
0.699162
-0.593714
-1.221003
0.236965
-0.675584
1.397933
0.149403
-1.504285
-0.198987
0.925236
0.015538
-1.097433
-0.798797
0.665094
-0.161450
0.051820
0.133513
0.723850
-0.275958
0.441617
-1.065339
0.173030
0.193201
2.294020
0.785164
0.329721
0.013321
0.368829
-1.245695
1.609113
1.323492
0.457335
-0.553926
0.849886
0.385561
-0.196359
-0.288142
-1.013261
-1.181810
1.056620
1.151049
-0.288961
-1.961443
-0.198767
-0.707406
0.327048
-0.146718
-0.424996
1.184442
-0.480472
0.939731
-0.385559
-0.551213
-1.131165
0.712755
-0.728292
0.066497
0.698502
0.307092
-0.455419
0.520835
0.100447
-0.521083
0.673616
-1.804021
-1.536752
-0.445427
-1.207091
0.229953
0.246210
1.675460
-1.329457
0.289444
0.081732
-0.401152
-0.100534
-0.550114
-0.432788
1.789939
1.114510
-0.265812
1.564555
-0.271005
-0.393644
2.321209
0.354988
-0.607374
-0.160566
-1.785373
-0.946192
-0.952162
0.184186
-2.136839
1.386508
0.183961
-0.281638
-0.551144
0.673733
0.034590
-0.072039
1.572484
-0.063627
0.531643
-0.292499
0.548937
0.366193
-0.200668
-0.347262
0.626314
0.187753
-0.403846
0.676990
-0.721895
0.219244
-0.456229
-0.224958
-1.296226
1.652192
-0.458962
-1.416631
-0.765484
-0.911680
-0.668230
-1.840353
0.818748
0.142559
-1.035082
-0.833829
0.207439
-0.677520
0.186677
-1.148473
-0.516963
0.162342
0.636072
0.758378
0.688427
0.718656
-1.033150
1.405185
0.778171
0.608570
-1.342052
1.391890
0.725636
-1.174454
1.816315
0.714772
-0.034517
-0.649289
-0.446492
-0.057529
1.733236
-1.041363
-1.238220
-0.756826
-0.223592
-0.168418
0.992079
-0.348038
-1.951234
0.578862
0.269968
-1.544673
0.913444
-0.232616
0.575780
-1.147593
-0.366078
0.905251
-0.170716
-0.004441
-0.062564
-1.476871
-0.283209
0.551038
0.464018
0.519923
0.695735
-1.964873
-0.442489
-2.112738
-0.176346
-1.904315
1.765119
2.303916
-1.368478
-0.580799
0.629479
-0.414150
-0.585044
2.180691
0.271001
0.083092
0.057942
-0.514273
-0.270850
-0.530635
0.392695
-0.311784
-0.222346
0.073828
1.088679
-1.149007
0.529198
-0.738141
0.343538
-1.191500
1.096066
0.736586
0.456998
0.107049
-0.334327
0.041417
-0.646822
-0.698498
0.860027
-1.719635
1.146902
-0.882233
-0.735558
0.823962
-0.443082
-0.799262
-1.445886
1.056757
-0.441454
-0.142319
-0.093724
-1.018262
0.645440
-0.186277
-1.178070
0.134593
-0.432896
1.054726
0.320325
0.148798
0.202623
-0.614186
0.276822
-0.241244
-0.059519
-0.725079
0.560887
0.310729
0.390220
-1.262562
0.898257
-0.064197
-1.489073
0.677854
0.561069
-1.088658
0.240373
1.355550
-1.350829
-0.331463
-0.984814
-0.101666
0.223285
-0.427174
0.913034
0.690367
1.171045
0.328569
-0.469017
-0.816834
1.705482
1.559878
0.801725
1.131879
0.224274
0.143138
-0.274528
1.638527
-0.125974
0.228695
1.138500
0.025676
0.915182
-2.404350
0.569891
-0.228711
-0.438411
1.452830
-0.080008
-0.084224
0.134544
-1.020883
-0.580780
-0.105955
0.039367
0.516990
0.337499
-0.225486
-0.980492
0.312776
-1.799598
1.581243
-0.830797
0.247808
-0.149199
0.286705
-0.006718
2.215240
-0.530760
0.407382
-0.148766
-0.379064
0.874904
2.142945
-0.662439
-0.400870
0.724093
0.467769
-0.665996
0.791901
-0.698749
-1.537343
1.763269
0.717966
0.375241
0.675845
1.182802
-1.050833
0.935677
-0.598586
0.616490
1.428108
-0.437610
-0.509966
0.999805
-0.759536
-1.674553
1.745612
0.466798
0.729639
0.011105
-0.593400
1.325792
0.360000
-0.446635
1.416386
-1.794194
0.535266
-0.531614
-0.007509
-1.700554
0.035569
1.132648
0.055589
-0.005974
1.890074
-0.354804
-0.951439
-0.085085
0.971015
0.348038
-3.033416
0.699171
-1.034904
-0.927532
1.787084
-2.552839
0.084183
-0.634745
-2.752076
-0.468782
-0.137395
-0.277755
-0.605982
1.293002
0.969887
0.318725
0.630225
-0.014677
-0.799271
0.942786
0.203822
1.335337
-0.477190
-0.014094
-0.830697
0.213653
-1.257264
0.242751
0.241056
-0.741299
1.814463
-0.893359
-0.107134
0.410541
1.142350
0.861906
-2.399515
1.962830
-1.289395
0.051436
-1.484501
0.320237
0.886954
0.716042
0.010836
1.624346
-0.518674
-0.579440
-1.177018
1.275028
1.449190
-1.130979
0.714279
-0.699296
1.679265
0.459635
0.158952
0.279567
0.379426
-0.794998
-0.047195
-0.641420
-0.750849
0.389352
0.096216
1.057561
-0.598892
0.400781
0.300896
-0.196140
1.797215
1.506254
0.263880
0.683302
-0.464068
1.632760
-0.471776
-0.341940
0.121461
-0.156595
-0.872938
2.140732
-2.251273
-1.161208
0.427654
-0.126112
0.486067
-2.004788
-0.526012
0.309176
0.641724
0.231854
-0.209353
0.288988
0.108194
0.559940
2.405452
0.297319
1.445649
-0.421534
0.245670
-0.290160
-0.371467
-1.399517
-1.170332
-0.195353
1.827439
2.587114
1.399532
0.328755
0.642848
0.666749
2.797647
-0.204241
1.937114
0.649501
2.398563
-0.724639
0.465474
-0.535949
0.809247
-0.553705
0.227186
-1.026260
0.765297
-0.709472
0.520558
0.942024
0.349215
1.405164
0.244782
0.106638
0.027951
-0.337935
0.337491
-0.704813
-0.485314
1.284833
0.349486
0.485492
-0.069257
-1.562906
0.920673
-0.414870
-0.028672
-0.543667
-0.693368
-0.750615
-1.026881
-1.077928
-1.686065
-1.200410
1.438434
-0.240966
-0.061508
-1.843504
1.335027
-1.466482
1.138864
-0.098980
0.190768
0.335786
0.874532
0.597285
-0.639616
-1.062277
1.342955
2.396477
0.941132
-0.478720
1.571365
0.594283
2.470316
0.110127
-0.183742
0.698381
0.635166
-0.928607
-1.321830
0.238552
0.391334
0.392429
0.620178
1.724932
-1.551578
-0.085394
0.013861
-0.997063
1.229340
0.583274
0.055165
0.213036
0.272326
-0.283732
1.867383
0.048138
-0.280672
1.094195
0.163611
-0.551954
-0.882015
0.054919
1.114564
1.047561
-0.446348
-2.098585
-1.656952
0.245696
0.579489
0.334576
-0.553819
-0.073491
-1.447002
1.281498
-1.057153
-1.131070
0.156400
-0.988442
-1.727779
-0.391391
-0.421470
-1.288118
1.104661
0.413354
0.131615
1.590820
1.623126
2.196217
-1.782978
-0.081916
-0.224167
0.457507
1.308386
-0.178945
0.097991
0.459110
1.329544
0.379170
0.273640
0.468264
0.168459
-0.521827
-0.336879
-0.290843
-1.081885
-1.122901
0.070821
-0.992520
0.950199
0.941352
0.259289
0.060190
0.684091
0.490970
-1.749701
0.176615
-1.278301
0.621204
1.622277
0.847317
1.581298
-0.849133
0.177870
-1.346979
0.457119
-0.859572
-1.530021
-1.057394
0.275768
-1.850872
0.015723
-1.430808
1.258488
-0.965060
0.286047
-1.190935
0.893613
-0.828642
-1.944867
-0.071000
0.618799
0.617713
-0.495392
-1.548042
0.303227
-0.435611
0.092619
1.645623
-0.166999
-0.381832
0.005390
2.218532
0.152220
-0.527326
0.490942
0.205764
0.670244
0.208273
0.343184
-1.669570
-2.136617
-0.638919
0.127108
-0.872663
1.043420
-0.327191
0.618368
0.642256
-0.910814
2.507705
-1.463269
0.213701
0.342468
0.736358
-0.848605
1.565123
0.775991
-1.177717
-0.611280
0.679008
1.124696
-1.162388
-0.550072
-0.823980
0.064766
-0.214183
0.307167
-0.449601
-1.908476
-0.895598
0.157312
1.371724
-1.434255
-0.320010
0.119619
0.583331
0.000731
-0.333469
-0.836083
0.159305
0.364806
-0.079802
-1.374703
-0.158687
0.691497
0.700705
0.559687
-1.080000
0.832741
-3.139650
-0.307198
0.519755
0.363254
-1.554781
0.291308
2.060685
-0.101007
0.111479
-0.130876
-1.758315
-0.559598
-0.336025
0.407088
-0.577206
1.782355
0.962272
0.889290
0.569833
-0.244149
-1.936144
-0.193122
0.102774
-1.158588
-0.749896
-0.327388
0.652697
-0.541295
-0.876216
-1.419787
-0.296698
0.526005
0.286649
0.101808
-0.533838
-1.163046
-0.512457
1.319354
1.469403
-0.224759
-0.183066
0.348978
-0.272298
-1.772353
-0.189715
-0.145497
0.107430
0.862534
-0.753097
-0.341430
-0.833086
0.008686
0.199548
1.163036
-3.050877
1.950411
0.781727
-2.292239
-0.154677
-0.133884
-0.086805
0.551245
0.157650
-0.007377
0.050288
0.261869
-0.880522
-0.154169
0.918977
-1.160595
1.171205
0.011506
0.654764
0.284381
1.209210
-0.318565
-0.680852
0.089045
-1.583055
1.254450
0.112365
1.005605
0.495156
-0.090665
0.429735
0.392022
-0.212309
-1.275650
-3.421524
-1.967993
-1.480793
1.646653
0.973207
0.886288
1.343496
-0.473325
-0.286875
0.133951
-0.906470
1.385409
0.403867
1.024773
-0.305961
0.754692
-1.256777
0.801462
0.558490
-0.920095
0.111635
0.130141
-1.068306
0.606958
0.176585
1.483861
-0.097030
-0.393835
-0.108514
-0.780125
0.778067
0.019610
-0.011272
0.216729
-0.932872
1.232275
0.788320
0.250916
0.098611
0.199486
-0.147190
-1.262476
-1.950101
0.629448
-0.073886
-0.117733
-0.687581
-0.622672
1.083787
0.558606
-1.351228
1.191951
-1.329642
-1.123538
0.004629
0.790932
1.082869
0.635187
-0.022048
0.031606
0.316826
1.259280
-1.266570
-0.622779
0.127919
2.456731
-0.262818
-1.165326
0.309315
1.333951
-0.688766
1.216958
1.394171
-1.317086
0.511396
0.829366
-0.164921
-0.057937
0.405568
-1.179040
-0.824395
1.106588
-0.040571
-0.306442
-0.593089
-0.622232
-1.774076
-0.498607
-0.189521
-1.015535
-1.130135
1.705099
2.101756
1.992312
-0.380589
-1.338917
0.246041
-0.368410
1.346109
1.772662
-1.345874
-0.737437
0.501450
-0.561077
0.566710
1.757438
0.596994
1.583628
-0.888681
-0.829660
0.762586
1.868195
0.582325
0.146765
-1.036963
0.629283
-0.279541
-0.294809
0.889054
-0.686240
0.499438
-2.124645
-0.714048
0.893228
1.941750
-0.648048
0.178368
-1.063253
0.539893
-0.425170
0.886604
0.978954
1.249567
-0.985134
-0.610048
-1.289598
-1.001086
1.063189
0.225020
-0.033607
0.849137
0.472973
0.968318
-0.376880
-0.083470
-0.066695
-0.352698
-2.143818
-0.419141
2.077298
0.200440
0.062575
-0.850011
-0.963325
-2.456166
-0.961425
-0.641284
0.029791
-1.860607
2.207153
-0.843145
2.378549
1.096583
1.049623
-0.236015
-0.835627
-1.907596
-0.922728
0.187987
1.609724
-0.683328
1.043884
1.356689
-1.607462
0.713778
1.215268
1.152588
-1.887135
-0.436917
-1.346493
0.408355
-2.330514
0.590157
-1.639509
-0.895237
1.158597
1.162854
-0.359496
0.056160
0.504653
1.129630
0.670565
-1.695252
1.018984
-0.585349
-1.004411
-0.620930
-0.276326
0.773702
-1.326655
0.648780
-0.937776
2.184281
-0.618171
-0.563467
0.902078
-1.334111
0.217500
0.077259
0.220167
0.482738
-1.488098
0.891780
1.472115
-0.621137
0.126224
-1.371556
-1.347859
-0.323219
0.147786
1.153191
0.998393
-1.530043
-0.964760
-0.817572
2.595158
0.656799
-1.884700
0.655240
-0.473329
0.849233
1.327506
0.329463
-0.578344
1.090258
-0.329598
0.528507
-1.261261
-1.054368
-0.059484
-1.204502
-0.305520
1.731369
0.528687
-0.100786
-0.264989
-0.312733
-1.953198
-0.973616
1.636541
0.834318
-2.593102
-1.434270
0.348376
-0.852346
1.107307
0.179684
0.063217
1.416123
-1.096482
0.794520
1.284191
0.467357
-0.548345
-1.456544
0.618395
-0.522479
-0.494805
-0.838829
-0.004052
0.189343
-0.061726
0.618564
0.161398
0.441262
0.556103
0.872661
-0.407990
0.207219
-0.332773
0.345683
0.226856
0.140818
-0.264149
-0.416017
0.452439
-0.460520
0.330179
2.119799
0.248448
-1.090227
1.492993
0.180090
1.447361
0.064984
1.422482
-1.480975
0.186307
-0.447105
1.384975
1.607692
0.383793
0.267027
1.158413
-0.349677
-2.975217
-0.684379
0.150293
0.323285
0.736207
-0.526854
0.217740
-1.345915
0.096420
0.640248
0.829586
-1.276028
-0.739541
0.808834
0.367486
0.254321
0.915227
-0.722078
0.164309
0.873053
1.374729
0.563240
-0.817433
-0.231069
0.056523
0.545559
0.050985
-0.369189
-0.668521
1.560372
-1.086083
0.455073
-1.481954
-0.534525
-1.491077
0.448866
-0.676812
0.327027
-1.495341
-0.718171
-0.450598
0.120360
0.132173
1.731861
0.873675
0.506519
-1.122072
-1.958053
-1.292780
0.335086
0.833374
-0.340534
-0.836940
0.396376
0.231388
-1.554241
-0.060653
-0.849457
-0.308092
1.249439
-0.557382
-0.790883
-0.237686
-0.527581
-1.632857
-1.057873
0.831074
-0.350065
-0.202992
-0.021082
-1.303781
-1.161032
0.146223
0.517881
0.749472
0.155506
-1.171157
1.621903
-0.942724
-1.683368
-1.486329
1.015965
-2.180907
0.065195
0.266906
-1.542990
-0.911778
0.739819
-1.302317
0.088022
1.440636
-0.040126
1.026312
0.439098
0.255526
0.509816
-1.362613
0.847339
0.764843
-0.529337
0.682467
0.292200
0.676082
-0.020439
1.345259
-0.073412
0.021079
-0.195327
-0.260694
0.472177
0.847611
-1.614250
1.531983
-0.023325
-0.225669
-0.115478
-1.371376
-0.676869
1.555473
-0.158755
-1.686296
-0.868315
0.952439
0.820743
1.007624
-1.127452
-0.712450
0.495928
-0.300917
-0.548344
-0.284796
-0.947616
0.272592
1.772609
0.000171
-0.059454
-0.922939
-1.406246
1.436259
-0.189460
-0.062206
-0.193112
-1.459854
1.978130
-0.602497
0.943138
0.158792
-0.024266
1.305231
0.683204
0.024083
-2.317284
1.263066
1.550048
0.005399
0.405317
0.017801
0.518414
1.802104
0.870183
1.414038
0.485708
0.246354
-1.138784
0.622889
1.545388
0.217495
-0.073640
-1.049182
-1.034396
1.183344
-0.337961
-2.708657
0.074185
0.443612
-0.266005
-2.825722
-1.451240
-0.877111
2.454376
-0.029400
0.252519
0.343288
-1.051243
0.222039
1.013029
-0.814172
1.829216
-1.029331
-1.271140
1.537026
-0.423917
2.152996
0.656856
-0.519385
0.285131
-1.601622
0.045715
-0.345159
0.995893
1.119732
1.535464
-0.276993
-0.263705
0.373708
0.355338
1.102891
1.896374
0.346029
-1.527196
0.679284
0.013616
0.578643
-0.461339
1.705902
-2.064900
-0.470568
-0.524699
1.052091
-0.078057
0.167158
-0.451901
2.192842
-0.195873
0.175212
1.607893
0.937811
-1.742339
0.223759
-0.897366
-1.134353
0.289668
-0.032231
0.847424
0.252254
-0.548230
0.777219
-0.595035
1.328623
0.409965
-0.101860
1.998935
0.640036
-0.604964
1.665736
0.240331
1.288416
1.007877
2.578352
-0.464586
-1.007282
-1.598204
-0.605910
0.257640
-0.224516
-0.224821
0.432902
-2.219163
-0.059133
1.470155
1.129346
0.444834
-0.871820
-0.043985
1.469569
-0.322077
-0.236789
1.782111
-0.505345
-0.031611
2.081858
0.974443
1.760464
-1.627018
-1.130641
-0.431310
0.738790
-0.511301
0.476325
0.835466
1.016076
-2.106161
-0.901859
-0.637782
1.381327
-1.192760
-1.226345
0.952618
0.466018
-0.104175
0.199295
-1.415823
-1.572474
0.742353
-0.424317
-2.019436
-0.545025
1.600271
0.216833
1.343831
-0.990624
-0.022588
-0.033855
-1.181124
-0.241650
0.721994
-0.972358
0.099191
-1.297977
0.797811
0.627011
-0.673916
-1.298101
-0.930282
0.693607
0.057898
-0.878439
0.094247
-0.547027
-0.638479
-0.289183
2.321778
-0.213754
-0.234000
1.070910
0.297224
0.414738
0.303332
-1.074576
-1.557213
0.715618
0.098135
0.578407
-1.175578
1.289081
-0.100913
0.313747
0.917141
0.307684
-0.414147
-0.306094
0.389935
-1.785850
-0.238001
-1.032275
0.283468
2.203959
0.689806
-0.990115
-0.326945
0.139342
0.388704
-0.673812
-2.082913
0.286453
1.303529
1.957237
0.739936
1.093567
0.004597
1.451486
0.259366
-0.053084
2.578915
-2.012090
-2.784935
1.414349
-0.669053
0.004989
-0.626762
-0.053271
0.476095
1.109886
0.354015
-0.561608
-0.019178
-0.952169
-0.726519
0.962362
0.844519
0.078021
-1.735680
0.971291
0.038140
0.505090
1.150054
-1.309229
-0.947682
1.147148
0.016951
2.133550
1.190010
-1.692355
1.438445
-0.162728
1.205928
0.255055
-0.962681
-0.702994
-0.718607
0.799839
-0.543422
-0.327845
-1.109039
-0.491861
-1.133248
-2.031527
-0.536365
2.140841
0.546531
0.074998
0.667789
-1.118220
0.529920
0.424545
0.683235
-0.130745
-0.130227
-0.844193
0.607730
-1.141206
-1.235575
0.467957
-0.235194
-0.634701
-1.108230
0.491844
1.482596
0.626142
2.223007
0.659394
-1.067968
0.819530
0.802101
0.811001
0.288218
-0.773533
0.101647
0.950582
0.898121
-0.611763
1.405787
-2.057994
-0.196618
-0.536663
-1.056690
-0.711565
2.111765
1.036816
1.197450
1.699171
-0.078659
-1.209744
2.382041
-1.413277
-2.225599
1.002290
-0.366299
-1.347921
-0.340769
-0.492138
-0.735100
0.111834
0.774703
0.343090
-2.050833
0.754330
0.021705
0.690626
-0.769488
0.782165
-0.326880
-0.086858
1.762744
0.409414
1.952555
1.033773
0.356981
0.099681
-0.477345
0.596683
-0.068977
1.982723
-0.806758
0.881498
-0.692530
0.388005
0.194854
-1.031131
-1.074347
-0.350815
-0.252535
-2.095725
1.125759
0.299471
-1.973328
0.052195
-0.157371
0.070371
-1.448384
-0.847789
-1.793425
0.221590
0.057572
-0.523205
-0.386015
1.291300
0.085888
-0.463669
-0.338320
0.561007
-0.041856
0.540375
-0.084762
2.129776
1.242405
-0.446663
-1.707073
-0.899056
1.035936
-1.012254
-0.154354
-0.031703
0.234644
0.738321
-0.128569
0.890536
0.980418
-0.339326
1.539270
-1.908632
-1.126025
1.596302
-0.777349
-1.099868
-0.036410
-2.596992
0.581353
-0.528678
-0.048231
2.135136
1.277588
1.345294
-1.008800
0.320296
-1.611773
0.111689
1.279931
0.131461
2.096377
-0.058849
0.767153
-0.643135
-0.818393
1.350063
1.302242
1.164633
-0.438554
-0.389478
-0.153315
-0.327670
-1.418612
-0.248533
-0.107160
0.481751
0.866112
-0.907497
-0.909022
0.428888
2.209140
0.177685
-2.570985
0.897447
-0.031115
1.024686
-2.003631
-1.033085
-1.516478
0.948980
1.192554
-0.144651
-0.520799
0.345401
1.603908
-1.531479
-0.297125
2.065594
0.439365
-0.331145
0.269621
0.533503
0.516910
0.651880
-0.708848
0.849195
0.419790
1.456802
-0.435198
-1.413050
0.918229
-0.956206
-0.094496
-1.613021
-0.611622
2.205908
0.144892
0.952258
-0.890381
1.578631
0.039274
-1.498287
-0.909048
0.738636
-0.421626
-0.039219
0.586362
-0.025344
0.189314
-0.188232
1.403128
0.719831
-1.309156
-0.997035
0.333682
-1.291104
-2.049759
0.236771
0.829420
-1.028064
-1.302824
-0.500030
0.998205
-0.294129
-0.189819
1.075254
-0.363108
-0.867000
1.668046
-1.804314
-0.435371
0.020440
-0.003225
0.211162
0.278570
1.651658
-0.748801
1.848737
-0.455747
0.350276
-1.175323
-0.635501
0.274594
0.735329
0.749908
0.041579
-0.293485
2.038729
0.175636
0.930169
1.295937
0.146184
0.989160
1.109843
-1.430662
1.280984
0.025995
-0.385490
-0.081420
1.606813
-0.106694
-0.205620
-1.334466
0.311232
-1.043484
-0.743483
0.542943
0.326982
0.486148
-1.198323
-1.976762
0.200355
1.023697
0.632838
0.084064
0.688311
0.607860
-0.583147
1.767605
0.898171
-0.941828
-0.539857
-0.199691
-0.532411
-0.498185
0.989127
0.164169
0.645208
0.805128
-0.727077
-0.101912
-0.420255
0.660949
0.154103
1.039506
-1.097949
-0.522420
-0.568641
1.180227
-1.748399
-0.885654
-0.100297
-1.232928
2.297025
1.675793
-0.113041
-1.025901
-2.289033
-0.386585
-0.563083
1.454021
-1.899925
-0.390731
-0.628901
1.644826
-0.248269
-1.133307
-0.186726
-0.506310
0.998189
0.002883
-1.053959
-0.503760
-1.550553
-0.580728
0.427749
1.025301
0.332502
-0.378125
-1.293286
-1.411304
0.208366
0.838509
-0.508879
0.959815
0.670002
-1.208034
-1.549847
0.710223
0.699857
-0.807057
-0.189407
1.022681
0.519196
-0.933519
-0.257552
-0.605742
-0.794201
0.905070
-0.767194
1.406501
0.387428
1.862232
-1.899377
0.065717
-0.658881
0.538222
1.430590
0.535181
-2.150718
-1.194398
-0.114032
0.938758
-0.179574
-1.407162
1.436426
-1.093200
-2.542747
-0.772748
-0.296330
0.241962
-0.772076
-1.812496
0.051891
-0.178292
-1.581243
-0.686324
3.179945
0.947599
0.384452
-0.612808
-0.526928
-0.342982
1.074440
0.869256
0.226455
0.042081
-1.311853
0.682050
-0.756947
0.721746
-0.422566
-0.129551
1.080700
0.716407
-1.694335
-1.637356
-0.741824
0.240572
0.018909
-0.834790
-1.033766
-0.657981
-1.717587
-1.303783
0.672355
0.236077
1.637708
1.783696
1.236689
0.824027
-1.382382
0.478562
-0.819566
0.970229
1.539874
1.900012
-1.469667
-0.147346
2.256591
-0.687214
-0.465563
0.745963
0.179757
1.373527
-0.520136
2.187767
-0.664362
-0.905460
-0.740431
0.493402
-2.129809
-0.267105
1.520788
-0.534062
1.801255
1.322151
-1.408570
1.485181
-0.627886
1.615007
-0.725496
-0.019234
-1.242114
-1.073688
-0.581330
1.417584
-0.034472
-0.506831
-1.399192
-0.455529
3.130486
-0.677747
1.407695
0.275555
1.673480
0.318596
-0.614421
-0.194030
-1.989461
-0.793465
0.473554
2.272592
0.007512
-1.114149
-0.172196
-1.684048
-0.535231
2.200074
0.397327
0.104226
0.341458
1.564313
-0.207949
0.115761
-0.662553
-2.077024
1.061067
-2.447233
-0.503659
0.790217
0.418858
1.074429
-0.544516
0.914982
0.398746
1.512882
1.835806
1.505736
1.048293
0.169645
-1.495126
-1.077346
-0.804961
-0.230036
-0.296549
-0.153765
-1.012448
1.020446
0.277685
-1.154612
1.335949
0.446354
0.664771
-0.878197
-0.761844
-0.741560
-0.716285
1.210599
-0.619422
-0.499226
1.331034
-1.592580
-0.157866
0.275849
0.095620
-0.811174
-1.674943
0.968233
0.263398
-1.012671
0.698948
-1.318900
0.389773
0.325008
1.437095
-0.742376
-0.760435
-0.168454
1.932037
-1.166459
-0.438437
-0.143274
-0.196988
0.589677
0.377352
1.278934
-0.024828
-0.500964
-0.287063
-0.468104
-0.504059
-0.920677
-0.934678
-0.339966
-0.668209
0.304997
0.761422
1.507184
-0.094694
0.848910
0.929740
-1.229864
-0.525883
0.620939
0.989896
-0.806764
-2.453713
0.470214
-0.905467
-0.323715
2.286040
-0.630072
-1.072492
-0.246981
0.154559
-0.001015
-1.440907
0.175075
0.706464
0.095327
0.899761
-1.093908
0.611577
-0.610477
1.264252
1.453598
-0.530486
-0.510271
-0.878021
-0.031344
-0.926094
0.143189
1.353650
1.212145
-0.344331
-0.648888
-0.057699
0.649611
-0.221188
-0.403803
0.202734
-0.156859
0.000377
-1.039268
-0.806026
0.760837
-1.129409
0.994227
0.724826
0.026501
-0.755041
1.095742
-0.947323
0.226808
-0.445392
0.622492
-0.765224
-0.955704
-0.847114
0.083686
-0.042279
-0.091994
0.040843
-1.541360
2.075380
-0.191520
-0.054149
1.529165
-2.177416
0.056936
-1.327271
-0.554592
0.769336
-0.560859
0.732492
-0.146994
-1.346843
0.118908
1.716947
-0.334682
0.282604
-1.046996
-2.316295
0.612912
0.960239
1.306469
-0.071305
0.198965
-0.601789
-0.225126
-0.315260
0.126700
-0.377492
0.517849
0.857516
-1.573847
-1.057223
-0.797395
-1.117938
0.343877
0.085487
-1.550777
-0.774254
-1.414340
-2.170936
0.550466
-0.840519
1.742792
-0.436724
-1.361286
-0.913283
2.245470
0.903307
0.060944
0.970035
0.336432
0.660217
-1.857416
0.030776
0.277730
1.047630
-0.000690
-0.509983
-0.189485
-1.138391
0.164489
-0.118706
-0.390703
-0.144451
0.092367
-1.210465
-0.230807
-1.510740
-0.957950
0.260994
-1.165388
-1.758587
0.448380
1.141636
0.721877
-0.855969
0.924097
0.434817
-0.230110
0.080167
2.262778
-0.990021
-0.408736
0.451059
-1.623095
1.236323
-0.244448
0.776023
-0.639826
1.209339
-0.833214
-1.406194
0.394397
0.654380
-1.065406
1.011152
-1.544011
0.713899
-1.312191
1.407219
-0.898391
-0.205515
-1.768117
0.812742
1.481203
0.245382
-2.044388
-0.044072
0.076648
-0.505871
-0.586863
1.872144
-0.327510
0.393188
0.621579
-1.016434
-1.626852
-0.621860
-1.103955
-1.469332
0.010844
0.006401
-1.836828
-0.214257
-1.483021
0.716052
-0.723860
2.038040
0.074729
0.004086
1.298138
1.195634
1.485411
-0.727768
0.559961
0.172114
-0.424568
0.161379
-1.095939
1.412066
0.267660
-0.120190
-1.308600
0.281877
-1.094509
0.876340
0.841414
0.574574
-0.853342
-0.716367
-0.586107
-1.607720
0.858214
-0.641200
0.918548
0.103482
0.442455
-2.219612
0.719773
0.375007
-0.329737
-1.408751
0.272034
-1.332159
-0.707761
1.297970
0.485936
0.213092
0.717767
1.765468
0.379713
0.719674
-0.349747
-0.175984
-1.649373
0.033254
0.428170
0.864194
-1.583114
2.283783
-0.867763
-0.622981
-0.145923
1.210777
0.995578
-0.323170
-1.118177
-0.064537
-0.148437
-2.355253
0.103191
1.113530
-0.655425
1.089772
-0.227144
2.574472
-1.146998
0.240567
-1.082374
-1.491959
0.149642
-1.687587
-0.067377
-0.190464
1.000936
-1.228507
-0.144993
-0.537030
-0.867786
2.458683
-1.368054
-1.300691
0.003941
0.105604
0.315351
-0.442049
0.530777
-0.327829
-1.461607
0.297255
0.291046
-0.254655
0.150206
-1.409894
1.115965
-0.630646
0.428904
0.985877
1.320381
0.596943
-0.356680
-0.758668
-0.031352
-0.867442
-0.502036
0.444120
0.395335
-0.059817
-0.156434
-0.695868
-0.127638
-1.319747
-0.196935
-0.326880
0.734795
0.482164
-0.780233
0.837576
-1.132701
1.429112
0.288932
1.030826
-0.819735
-0.109895
-0.401397
0.198554
-2.077266
-1.272837
0.828835
-0.092826
-0.738545
1.321847
-0.034217
-0.592646
-0.369208
0.222988
-2.713113
-0.813032
-0.348971
0.406529
0.606530
-1.321954
0.466004
1.267176
-1.109108
1.671379
-0.673357
-0.239033
-0.512262
-1.317080
-1.019517
0.406816
-0.193246
-0.322056
-1.436108
-1.330364
0.175872
-1.925365
-0.239919
-0.089367
1.944781
-1.183113
-1.109585
-0.992462
1.195658
-1.117514
-0.826790
0.470441
1.806932
1.244821
1.195592
-1.445023
0.564529
-0.298927
-0.576482
-0.357655
0.083728
0.122116
1.691368
-0.045195
1.763183
0.960012
-0.687313
-0.221365
-1.602582
-1.091584
0.478128
0.069984
0.255676
-0.758129
-0.077011
0.116889
0.295246
1.234176
-0.619095
-1.079736
1.125519
-0.701038
-0.046834
-0.450335
-0.298556
0.431654
0.334334
1.271802
0.033265
0.687200
0.994840
-0.707489
0.180616
0.605357
0.165374
-0.345951
-2.919533
-0.432444
-0.804170
1.403907
0.119459
0.355515
-0.699183
0.551697
0.739475
0.457258
1.238127
0.395916
-1.063467
0.309135
0.961577
-0.988530
1.202767
1.110103
-0.630295
-0.263908
-1.138744
1.257571
-0.393858
-1.787124
-0.004633
0.160702
1.833751
1.446483
0.149777
1.227403
-0.325678
-0.166732
-1.592442
1.330378
0.031771
-0.248145
-0.096387
-0.141450
-1.406211
0.357873
0.118373
-1.314649
-0.353372
1.155657
1.107181
0.916859
-2.652044
-0.191442
-2.148601
0.911021
-0.146969
0.565334
1.574754
-0.071765
0.002723
0.876391
1.021071
0.738716
-0.688300
-0.886854
-0.523147
1.014639
0.186667
-1.110178
-0.317102
0.717663
-0.414254
0.113005
1.002866
-1.309509
0.091658
-2.324499
-0.443727
-0.704464
0.576439
-0.953797
-1.927143
1.934664
-0.673767
1.036949
0.820492
-0.038925
-0.486850
0.473500
-0.283585
0.431694
0.106766
-2.058885
0.267585
0.386228
0.799760
-0.824611
1.853044
0.091417
0.803249
0.022851
0.518085
0.445063
0.363825
-0.401402
0.428482
-1.502881
0.391831
-0.706953
0.185137
-0.884982
0.071728
0.203617
-1.283476
-0.981269
-0.841656
1.056577
1.687162
2.246242
-1.637092
1.120484
-1.333368
-1.091676
0.317337
-0.486414
-1.791328
-1.814992
1.280861
-0.455384
-0.067908
-0.809835
0.895533
0.128167
0.153378
-0.225627
0.661319
-1.482067
-0.731070
1.104578
0.649601
1.357424
-0.181007
1.780288
0.240068
-0.205336
0.766074
0.636975
-0.182007
-1.371147
1.527173
-0.506308
-0.108770
-0.903751
-0.821779
0.658609
2.401566
1.512386
2.011336
-1.807105
0.322275
0.591554
0.169966
0.336331
-0.305901
-0.131835
0.067321
-1.062043
-1.759445
0.204423
0.183509
-0.527925
0.946483
-0.314608
-0.244933
0.596824
-0.179669
-0.386530
0.405154
1.519423
-0.593412
-1.007189
-0.306383
2.113018
0.931786
-0.020855
-1.892300
0.010717
-1.317892
1.335523
0.661715
-2.570592
-0.359654
-0.325436
-1.445595
1.040132
0.778755
0.925018
-1.492889
-2.091995
0.453692
0.947806
-0.320897
1.675589
-0.404278
0.383153
-1.705395
-0.548476
-0.878061
-2.077412
-0.814427
0.614317
0.561003
-2.774240
-0.851544
-1.042290
0.807783
-0.069233
0.514465
-0.296081
0.775008
0.906840
0.237738
-1.930771
0.455796
-1.112451
1.211470
-1.681175
-0.645176
1.101185
-1.271343
1.243847
0.683164
1.842027
-0.958386
1.333934
0.359335
0.835490
0.808567
1.148355
0.010703
1.146366
-2.015445
0.671932
1.707820
-1.474316
-0.676398
-0.616005
0.924140
0.773669
0.992605
-0.975564
-0.413840
0.590101
0.582492
0.017460
0.600288
-0.532864
0.276091
0.948916
-0.372048
0.293376
-1.187761
1.232380
-0.543311
1.995289
-1.148896
-1.236815
0.863922
0.805443
0.291715
-1.441869
-2.314376
0.298205
-0.591456
1.576951
0.141666
-0.218815
1.837778
0.270445
0.990485
-1.384712
0.059515
0.737080
1.060965
0.792094
-2.066846
-0.189271
-0.117692
-0.114931
-0.841508
-1.160426
0.514839
0.865155
-2.213149
0.769149
1.451709
-1.517168
1.540820
0.093993
0.504791
0.839075
-0.319417
-0.506411
1.942784
1.652873
0.709206
0.669501
-0.232213
0.713017
-1.177053
-0.414965
-1.170336
1.186177
-0.451482
0.601811
-0.275467
-0.182233
1.191592
-0.179966
-0.913566
0.273446
0.650582
-0.400464
-1.106749
-0.916366
-1.778953
0.104156
-1.153909
0.347968
0.553059
-0.495666
0.521226
-0.763529
-0.709242
-0.319417
1.026108
-0.484100
-0.719407
-0.784328
-0.451154
0.645809
0.387179
0.224080
-0.041226
-0.413576
0.761135
-1.916138
0.941145
-0.135772
-1.921727
0.979508
1.943995
0.595534
-1.082283
0.088410
-0.735844
1.294725
-0.217175
0.673073
-0.716933
0.975200
-0.547002
0.783834
0.403611
-1.886589
1.095872
-0.878351
-0.659581
-0.127667
1.080586
0.322545
0.454887
0.339967
0.333989
2.025065
-0.415970
-0.678763
-1.573578
0.345715
1.115191
-1.820813
-0.116579
0.568444
-0.345968
0.265864
0.341650
0.833411
0.172198
-0.906224
-0.726054
-0.483853
0.248324
-0.138278
-0.030089
-0.437821
-0.185273
0.658878
1.255947
1.180480
-0.615714
-1.021576
-1.034586
1.388994
-0.972003
0.135893
-1.086906
0.221543
0.054910
0.063846
0.093327
-0.662235
1.512824
1.301980
2.031914
0.955584
1.344805
0.534254
1.102288
1.186626
0.065538
0.392150
-0.000311
0.349428
-0.159794
-0.965733
-0.200003
-1.415920
-3.235317
1.322469
-0.783146
0.284211
0.473069
-0.147965
1.190529
1.561561
-0.229820
0.693016
2.021958
-0.336950
-0.261135
0.479771
-1.431423
0.960255
0.054455
0.080735
-2.362382
-1.296782
0.806130
-2.099364
0.206374
0.070230
0.137355
-0.037103
-0.195887
-1.280643
-0.473171
0.615800
0.448723
1.143401
-0.110828
-0.358940
0.561960
-0.141742
-1.156669
0.798667
0.415381
-2.191540
0.155188
1.846205
-0.279411
-0.566233
1.371225
-1.231729
0.619375
-0.107401
-1.265137
0.064944
-0.552219
-0.157928
-0.715309
0.713160
0.010865
-0.745144
2.260940
1.580322
-1.001781
0.723623
-1.567536
-1.080762
-0.308133
0.940921
-0.328837
-0.245162
-1.289889
-1.258725
-0.228359
0.771628
-0.629924
0.493519
0.957697
0.347404
-1.696164
0.954790
-0.691384
-0.312170
-0.008625
1.181957
0.493624
-1.620785
-0.466450
-1.041669
-0.147812
0.933696
-0.937900
1.313907
-0.508950
1.166248
-1.283927
-0.158446
-1.365509
1.290837
0.167186
0.318676
-0.310170
0.471595
0.927588
-0.273943
-0.064041
-1.233793
0.531611
-1.709911
0.405870
-1.301652
1.307036
0.376909
1.737066
0.345535
-0.168005
0.650915
-0.529268
1.493417
-0.317840
-0.968014
0.854477
-0.252169
-0.214568
0.130163
1.362324
-0.231707
-1.655258
1.071998
0.352955
-0.349678
-0.643755
0.970894
-0.623242
0.376680
-0.269720
0.993400
-1.327574
0.946042
-1.470121
0.115007
-1.367001
-1.154662
1.251343
-1.142983
0.354333
1.209359
0.392960
0.458638
-0.517841
1.505445
1.367345
-0.921543
-0.975510
-0.294561
-0.549432
0.307188
1.220567
-0.890585
-1.721082
2.057138
0.496936
0.486439
0.811578
0.697257
2.408610
0.913219
-0.047628
0.898048
1.913252
0.168624
0.386053
2.716302
-0.747221
-0.102577
-0.495421
-1.861521
-0.558891
-0.142961
-0.692159
1.115441
-0.165564
-0.637004
-0.371849
-0.815385
1.377218
1.066867
-2.164552
-3.047991
1.593476
0.787362
0.628577
1.600684
-0.914492
1.073361
-0.479827
1.096633
0.051867
0.166637
-0.052923
-1.215712
-0.042512
0.195970
-1.784813
1.579570
-0.659883
0.991723
-0.740699
-0.728855
0.612676
0.771211
0.324240
-1.069492
-0.254278
-0.175665
0.299904
-0.483545
0.643368
-0.190360
-0.994635
1.310977
-1.265697
1.443442
-0.787317
0.308268
-0.548814
-0.934681
-0.112202
-1.435016
-0.562881
0.770414
-0.931740
0.418652
1.775322
1.387098
-0.738705
0.852554
0.659300
-1.883583
1.209548
-0.011028
0.493641
-0.544292
1.001238
-0.407922
0.416199
0.912452
-0.293614
-1.865889
0.590691
-0.228158
0.381568
0.534197
0.694050
0.123773
1.652437
0.462932
-0.239504
0.726753
-0.724920
-1.985013
-0.740088
0.785369
-0.532653
-1.304044
-0.307909
-0.404801
-1.694867
0.983870
0.727272
-0.703995
-0.411035
0.865104
0.040729
1.014934
-1.440272
0.727575
1.065270
0.198346
-0.640395
0.160705
0.034582
0.362310
0.036965
-0.905242
-0.324674
1.871856
-0.206465
-2.333802
2.601896
-0.471826
-1.332132
-1.620858
-1.541796
0.701724
0.552615
0.864248
-0.958881
-0.594627
1.529066
0.835775
-0.338566
-1.230463
0.957628
2.166471
0.358609
-1.915518
0.371462
-2.596710
-0.264772
0.947146
0.588870
-1.080612
0.605009
-0.384440
-0.393934
-0.999511
0.822174
-0.186852
-0.874866
1.824303
1.239837
-0.823774
-0.381045
-0.806477
0.893266
-0.386048
0.271222
-0.933720
-2.233462
0.353505
0.133664
1.433674
-0.196829
-0.263289
-1.419785
1.694047
-0.919286
-1.656417
-1.712584
0.875482
-2.340190
0.115339
1.105042
0.055060
1.095890
0.406315
-1.642969
-0.166456
1.130445
2.117442
0.438714
0.479916
1.352496
0.389887
1.228102
1.905355
-0.759118
0.983165
-0.681894
-0.582294
-2.150563
-0.256394
-1.829637
2.461498
-1.081499
-1.167082
-0.121071
-0.712266
0.614322
-0.358103
-1.159681
-1.565797
-0.234314
-0.964640
-0.219894
-0.361034
-0.672240
-0.798436
-0.249720
0.582965
-0.462390
-1.835701
-0.634329
1.505423
-1.169836
-0.107008
-0.429257
1.399459
-0.876881
-1.501002
2.244202
1.043259
1.109852
-0.863073
0.164091
1.006096
0.468034
1.675527
0.631329
-0.708873
0.645927
0.151013
1.568441
-1.146578
-0.485693
0.126857
-0.650562
0.257785
1.121439
0.686588
-0.301253
2.428321
-0.636659
-2.372011
0.634969
0.178010
-0.749131
0.441115
-1.697373
0.856893
1.114963
1.870171
-0.049683
-1.145636
0.826639
0.127198
-0.565422
0.232125
1.114638
0.998397
-0.235888
0.233121
-0.003306
-0.332778
1.129728
-1.748110
-1.459123
-0.272564
-0.190581
-0.589771
0.010875
-1.562095
0.131679
-0.603702
0.412219
1.352963
-0.915338
1.112941
0.030690
-1.222222
0.036403
-0.091269
1.666298
-0.675333
-1.114598
-0.866863
-0.457756
-1.316551
-0.796245
0.235078
0.495164
2.173387
1.170818
-0.809393
-0.638812
-0.523641
0.067207
-1.230596
-0.931467
0.775835
1.642895
-1.474149
-0.809542
-1.013291
0.473490
1.841154
-0.160640
1.583683
1.243448
0.204677
-0.764195
2.056971
-0.528045
0.017414
-1.014395
0.762738
-1.329164
-0.878755
0.137609
0.693803
1.105981
0.124747
-1.069716
-0.805824
-1.467380
0.853672
-1.267097
-0.188383
-2.091002
-1.033338
-1.881535
-0.011796
1.406171
0.459883
1.437508
-0.914500
0.438699
-0.690959
-1.344023
-0.854041
1.638462
-1.695820
-0.738791
0.333102
-0.756921
0.408769
0.437618
0.864538
-1.691162
0.772391
-0.396936
-1.541327
0.030043
-0.322800
0.360415
-0.047611
-0.983510
-0.465993
0.295369
-0.317636
1.044371
1.565057
0.479641
0.283949
0.137892
-0.327339
-0.618208
-0.190691
0.973555
0.124656
1.658425
2.133142
-1.480627
0.476032
-1.138544
1.933293
0.046642
0.493509
1.450086
-1.083689
0.057849
-0.591625
-0.803209
-1.692972
1.788360
-0.671992
0.356413
0.442011
-0.557450
-0.394758
0.961925
-0.034758
1.032045
0.463121
-0.310828
-0.206692
-0.740451
0.681520
0.630589
1.041572
0.669772
0.336379
-0.455529
0.218452
2.267694
-0.141105
1.035059
-0.093571
0.357816
1.802226
1.236310
0.057894
0.049646
-0.100082
0.129199
1.573424
-0.519165
1.053811
0.447554
-0.514741
-0.581589
-1.338536
-0.680915
-0.453144
0.664308
-0.482390
1.222860
-1.437492
-0.268688
0.507801
2.376804
0.042380
0.232571
0.609404
-0.086389
0.091780
0.942569
0.317639
-1.531751
0.123890
-2.264427
-0.674696
0.112520
-0.476270
-2.674765
0.968191
0.056861
0.289219
-1.060792
-0.247910
2.121596
2.560792
1.234079
0.828820
0.281091
1.143130
0.585722
-1.514506
0.157402
-0.977682
-1.243940
0.945922
0.637731
0.731478
-0.459250
0.340904
-1.144042
-0.077768
-0.123914
0.314363
-1.116970
-2.125217
-0.884750
1.262976
-1.785736
0.999321
0.172464
0.209483
0.230703
-0.202617
0.413376
0.592084
-1.102246
1.148713
-2.600072
-1.340309
-0.513785
-0.224423
-0.257845
-1.390521
-0.128154
0.913111
0.707709
1.160454
-0.471064
-0.228869
-0.015093
0.030511
-0.474010
1.032827
-0.299931
-0.718217
-0.249506
0.912999
-0.438890
-0.407868
0.073164
0.855415
0.168119
1.380635
0.836371
-2.577339
1.272709
-0.440325
0.355183
0.420666
-0.746893
-0.207866
-0.339228
-0.982311
0.346456
0.787481
-0.880215
-1.512848
0.263895
1.770334
-2.258064
0.174122
-0.775149
-0.573890
-0.123472
-1.938504
2.188019
-1.235939
-0.271381
0.566250
0.269040
-0.412952
-1.447382
0.998283
0.893633
-1.805808
0.278324
-0.628127
1.789004
-0.045412
2.046708
-1.314546
0.758898
-0.267412
-0.104578
-1.487740
-0.814496
0.668783
-1.504946
-0.984368
0.363822
-0.145215
2.082715
-1.248516
-0.560781
0.430606
0.107527
-2.218493
-0.052609
-0.773271
-0.424038
1.755054
0.503248
-0.150357
-0.740800
1.344286
2.938921
0.526881
-0.399345
0.510473
0.775289
-0.249812
0.148809
0.694057
-0.645623
0.846796
-0.146380
0.175106
1.442827
0.847809
-0.955515
-1.800945
2.337858
-1.418144
-0.053091
-1.399867
-0.024367
-0.363979
-0.500531
1.124639
1.738403
-0.926114
0.515757
-1.167183
-0.642527
-0.040194
-0.361399
-0.169608
-0.381122
-1.007661
1.087273
0.445734
-1.716778
-1.912581
-1.275987
1.363104
0.048071
-0.728632
-1.850418
-0.026387
-1.972454
0.267316
0.524347
-1.102931
-0.595932
0.610438
0.047042
1.053164
0.031081
0.456258
-0.647497
0.249212
-0.609978
-0.397231
1.428486
1.024510
1.416293
0.044929
-1.656392
-0.404358
0.682448
-0.026699
0.839002
0.722018
1.966224
1.483333
-1.087238
-0.396742
1.513458
0.370957
-1.638248
1.384708
0.795493
0.188724
-3.192255
0.582574
0.716513
0.645970
-1.871570
0.337701
1.130292
0.037755
-0.631231
-0.165512
-1.486367
1.639847
0.233000
0.635454
-0.018897
-1.966413
-1.109137
-0.135518
1.785344
2.167892
0.457510
1.248016
0.245098
0.474802
-0.488586
-1.084653
-2.694926
-0.193910
0.156221
-1.938234
-0.481198
-1.427495
0.578690
-0.974510
0.426329
-1.029412
-0.421849
-0.917579
0.855140
0.928496
-2.672164
0.403437
0.379456
-1.650754
-0.223171
1.158123
0.241309
-1.390102
0.889489
-1.292762
0.718549
-0.581125
0.162622
0.996706
0.122372
-1.318657
-0.834111
-0.055336
-0.265564
-0.009041
0.098212
-1.524943
0.664757
0.735696
0.500847
-0.667946
0.711506
-0.839759
-0.148222
0.246819
0.152259
0.882377
-0.805142
-1.517300
0.226276
-1.144484
-0.559416
1.510633
-0.662496
-0.836180
-1.324180
-0.399231
0.093175
-0.217311
-1.008396
0.137986
-0.478848
0.315500
-1.550408
0.508156
0.155149
-0.511072
-1.494765
-0.919868
-0.759057
-1.057339
-0.271260
0.107277
1.092428
-2.128948
-1.408923
-0.875126
0.159200
0.168858
1.302350
1.775403
0.382151
1.448115
1.458852
-1.650407
1.653052
-0.062589
-0.453872
0.120712
0.307774
1.227780
0.584422
1.575472
0.830929
1.591754
0.219162
0.223597
-1.979724
-0.233166
0.501799
-1.005487
0.250177
0.243983
0.696134
-0.157661
0.463149
-0.578894
1.092330
3.105718
-0.748538
0.124936
0.314480
-0.291943
-0.722216
0.240139
0.788154
0.622090
1.317894
-0.008754
-0.148208
-0.883509
1.155895
-1.032633
0.817206
0.614315
1.269319
-0.320342
-0.851248
-0.969821
-1.255347
0.863376
-1.235258
0.113904
2.031033
-1.496667
-0.216882
-1.463680
0.967116
1.163934
0.538804
-0.576209
0.547039
-0.607092
-0.325851
-0.555291
-0.378755
0.090729
-0.362833
-0.479260
0.305153
-1.720629
0.550903
-0.348001
-0.109900
-0.603965
0.322572
-0.813864
-1.540980
-1.249105
-0.879945
0.916673
0.675288
-0.791952
0.828093
-0.517097
-0.589126
-0.500541
0.474768
-1.333855
-1.323588
1.010794
3.133816
-0.731662
1.709435
0.667534
-0.731702
-0.350785
0.225669
-0.358952
-1.590077
0.420542
-0.269349
1.711190
0.094681
0.408177
-1.190955
0.287953
-0.242099
-1.040472
0.586698
-0.419092
0.094628
-0.061350
0.833819
-1.229814
1.451587
0.606953
1.151838
0.928714
-0.417277
1.829922
0.591063
-1.270073
1.084431
0.308436
-0.947702
-1.469310
-1.005169
-0.521101
-0.058944
-0.193311
-0.908652
-1.054002
0.901808
0.175374
-0.189945
2.100541
-0.322448
-1.211452
0.612888
-0.470606
-0.339709
1.099015
1.571891
-0.803652
0.636792
-1.840198
0.347875
-0.783186
1.083954
0.005221
-0.843161
-0.203311
0.478060
0.342640
0.303909
-0.808139
-0.072709
-1.113668
-0.067213
0.760275
1.110130
1.056175
-0.169432
-1.725900
1.354925
0.795273
0.568946
0.101047
-1.198079
-0.149075
1.070043
-1.359238
0.339157
-1.874606
-2.408474
-0.291604
0.391704
0.533442
-0.034474
-0.367588
-1.094897
-2.821177
0.790684
0.209367
-1.067666
-1.074925
-0.145757
0.573692
0.500229
-1.765727
0.702718
0.485942
1.798967
-2.036388
-0.702176
-0.660381
-0.194749
0.992205
-0.004462
-1.329372
0.218194
-0.116505
0.986398
2.361884
-0.366448
1.065192
-1.134860
-0.720796
-1.492563
-1.196290
-1.413374
0.070328
-1.134381
0.081701
0.260328
-1.265180
1.323528
1.197473
-0.730320
-1.221841
-0.063271
-0.738590
-1.471609
0.097037
0.897826
0.776430
-0.883341
-1.955142
-1.595986
-0.695872
-0.117904
1.163184
-1.461334
0.621860
0.500499
1.298071
1.946176
1.252895
1.773953
0.336639
-0.109821
-1.094252
1.925302
0.810877
1.274255
1.294973
-1.574446
0.112224
0.311735
-0.587321
1.032984
-0.354830
1.332227
0.582688
0.555753
-1.084229
1.027491
-1.519465
1.206246
-0.002586
1.546495
-1.147170
1.081850
-1.658517
0.629647
-1.586790
-0.117223
-1.672334
-0.107627
0.957078
-0.791896
-0.391866
1.126789
-0.593006
0.892516
0.584623
0.833527
0.712617
0.324735
-0.006816
-0.563092
-0.622613
0.726645
-0.097115
-0.473102
0.258164
-0.293842
0.032615
-0.659665
-0.932958
2.279131
-0.614195
-1.114794
0.294006
0.977210
-0.818352
0.208852
1.043479
-0.496206
-2.798045
-0.398855
-0.154833
0.466558
-1.143273
3.623965
-0.204952
-2.031986
0.245557
0.409522
-1.679026
-0.502827
0.369538
0.829835
-0.277532
0.064954
-0.951421
0.910590
0.832197
-0.214054
0.008793
0.025276
0.380333
0.532990
-0.526334
0.074386
0.952327
1.834466
0.234889
-1.896642
-1.765703
-0.357922
-0.288427
-0.317301
-0.443933
0.161505
-1.084077
1.711874
-0.090498
0.337928
1.360099
-0.589841
1.314748
1.639504
-0.863180
0.906471
0.073330
-0.575171
1.163828
1.258388
1.486613
-1.974957
-0.076021
0.742777
1.962704
0.207117
1.130371
1.298987
0.792447
-2.249721
0.096260
-0.410549
-1.130383
2.644963
-1.334445
-0.117133
0.428779
-1.234065
-1.729215
0.084887
0.564379
-0.205084
0.257392
-0.355474
-0.097582
-0.750309
-0.370341
-0.699783
0.778177
0.324294
0.867141
1.208243
-1.227962
-0.670326
-0.054327
1.117376
0.981480
0.714397
0.758991
-0.123482
-0.736100
0.772149
-0.183145
-0.287085
-0.472434
-0.820134
-0.327500
0.480364
1.258294
-0.295649
-1.168855
0.761880
0.115625
-0.713649
-0.516155
-1.202342
-0.982046
-1.071973
0.697959
2.279204
-0.031254
0.825209
-0.101890
-0.507818
0.924427
-0.176142
0.205506
0.893771
-0.315140
0.028139
-0.047079
0.590779
-0.133683
1.439998
-0.609219
0.356274
0.164340
0.328719
-0.023199
-1.057798
-0.556356
-1.626041
-0.551466
-0.850839
-0.314626
-0.408828
-1.193581
-0.508994
-0.228807
-0.825284
-0.179925
-1.167703
0.076105
2.904716
0.277942
-0.271345
-2.435615
-0.511466
-0.804855
-0.476010
-0.482700
0.170500
0.373068
0.184197
-0.940869
-0.180033
0.403560
0.421433
0.200088
0.388749
0.133439
0.170870
-0.829485
-0.037405
-0.507564
-0.608683
-0.233814
-1.150033
-1.259676
-0.687580
1.780778
0.688730
0.297932
-0.686506
-1.697478
1.881924
0.418470
0.147351
-0.156563
1.334019
0.914723
-0.852023
-1.817887
0.492192
-0.284864
1.407799
0.439748
-1.818834
-1.222639
-1.262509
-1.598171
-1.374266
1.816391
-0.671361
-0.187154
0.939543
1.133599
0.908454
1.678548
0.504962
1.907378
0.542857
1.409517
-0.754766
0.513218
-0.536288
0.366981
0.802888
-0.102918
0.672627
0.245304
-0.843316
0.572238
-1.384934
-1.419408
-0.359879
-0.507783
-1.142593
0.831255
0.454688
-0.027527
-0.198807
0.079776
0.829181
1.287999
1.080537
0.152641
-0.936027
-2.319476
-0.515636
-0.551455
1.209662
-0.986763
0.127481
-0.900978
-0.011582
-0.175626
-0.395405
-0.179618
-0.507503
-0.754124
-0.012677
-0.007630
2.505798
-0.383656
0.397087
0.568266
1.231607
0.825076
0.285869
1.371338
1.347692
-0.442114
-1.604169
0.806998
0.115254
-0.659633
-1.064201
-0.087305
-2.347170
-0.836263
0.859472
1.626867
1.626660
-0.617353
-0.824168
-0.368469
-0.704463
-0.757339
-0.852135
-0.064648
1.706155
0.257352
-0.012026
0.713479
-0.992816
0.285762
1.139348
0.993020
-0.066022
-0.895164
1.008245
-1.014789
-1.125174
0.442976
-0.563839
0.061297
-0.513013
0.881675
-1.151660
-0.640315
-0.465111
-1.567994
-1.442509
2.371893
0.563735
0.189088
-2.425120
-0.776478
-1.434760
-0.444997
0.668536
0.119633
-1.602327
0.702904
-1.349356
1.727644
1.210587
-1.932454
-0.258627
-0.584345
1.482883
-0.148313
-1.152127
1.032992
0.112493
1.343048
-1.287798
1.688789
0.169575
0.788878
-1.320029
-0.096866
1.514925
-0.355603
1.457220
2.507451
0.008987
-0.176992
-0.833992
-1.688406
-0.680600
0.195197
0.242435
0.388737
0.559199
0.413497
0.384636
-1.139426
1.202775
-1.168967
2.185515
0.378481
0.577672
0.949979
-1.143812
-0.666486
-0.650989
-0.065912
1.805268
-1.061974
-0.901281
0.452029
0.687749
0.977499
0.371462
-0.030915
-0.256710
-0.727678
-0.150150
0.317353
0.339966
0.431122
0.330514
-1.073316
-0.031683
-2.577630
-0.317088
1.212374
0.333638
-0.851819
-0.044230
1.929048
-2.472006
0.051147
0.227912
-1.612431
-0.431984
-0.103393
-2.285481
-1.412977
0.564570
0.067536
-0.056125
0.426057
-0.308602
0.553641
-0.245886
0.231407
-1.030929
0.764924
-0.445759
-0.442190
-0.438487
-0.032838
0.356613
0.507770
-0.898438
0.305847
-0.099969
2.324898
0.299530
-0.797592
1.467440
0.063774
-0.463082
0.258912
-0.006083
-0.507579
0.854497
-0.638679
0.363252
0.108946
-1.624241
-0.020729
0.514071
2.336822
-0.871979
-0.269697
0.283686
-1.103205
1.295645
-0.386975
0.165384
-1.114620
0.035195
-0.571446
1.898201
0.186519
-1.103294
1.015001
-1.706250
1.069726
0.609911
0.051991
0.489321
-0.219386
-1.966816
-0.040866
-1.606061
-1.208739
-2.228127
-0.170623
-0.654396
0.632520
-0.944535
0.758186
0.317256
0.636786
0.163095
0.230464
-0.425183
-1.296042
-0.819475
-2.533881
1.226791
0.369943
-1.226093
0.022393
0.522244
0.804738
-1.074331
-0.211077
0.536815
0.430830
1.134640
1.544812
0.077477
-0.705785
0.244092
0.026909
0.605066
2.385550
-0.564805
0.326677
0.510686
-0.030731
-0.535735
-0.760442
-1.451294
-0.772962
0.572135
-0.014382
-0.548504
1.189603
1.203821
0.322748
0.265473
-0.008474
0.827031
1.983400
-0.278078
0.347250
-0.090523
0.537625
-0.352697
0.772293
0.586843
-0.941970
-0.218077
0.931983
-0.713665
0.648018
-0.157254
0.513767
-0.698669
1.207674
-0.015381
1.922485
1.932063
-0.830013
0.366332
-0.326087
-1.766007
1.555070
-1.674807
-0.098221
-0.313610
-0.246767
1.390926
0.267873
-0.179785
-0.226184
0.194767
0.340979
-1.502074
0.444844
-0.054395
-0.178018
1.708996
0.576769
0.504328
-0.415851
-0.936153
0.863190
0.389158
-0.131792
-0.872261
0.777394
-0.534948
-0.484706
-0.650666
0.087902
0.291991
-0.063036
-1.027280
-0.527837
1.171749
0.941258
-1.920769
-0.681370
0.372260
0.074644
0.366416
-0.125997
-0.586841
-0.235604
0.068599
0.946291
2.048306
1.483263
-1.060736
1.360451
1.967960
-1.581661
-0.127435
-0.733599
2.036871
-0.858501
0.945297
-0.249580
-0.204452
0.702258
0.758958
-1.835249
1.198630
0.943776
1.395855
2.002034
1.241029
-0.441079
-0.837435
0.099253
-2.369106
-0.764491
-0.568004
1.799482
-0.495864
0.837476
1.494563
-0.332668
1.434873
0.566320
0.894156
-1.188576
0.385685
0.755315
0.090640
1.107025
2.155903
1.507877
0.760136
1.695396
-1.846979
-2.067909
0.190861
0.132025
0.872232
1.446391
0.346431
0.516047
0.149361
0.172861
-0.101083
0.126619
0.768935
0.941478
-0.729740
0.386296
0.572084
-0.228551
-0.214410
-0.306061
-0.526770
-0.169434
-2.725625
0.476258
-1.106796
-0.288913
-1.791732
-0.105426
-1.120039
-1.146057
-0.210960
-0.214924
-0.511529
0.441121
-0.179684
0.462561
0.745986
0.571770
0.134909
0.418865
-0.484287
0.151536
0.328986
1.023659
-0.173892
-0.731154
-0.366049
-1.631668
-1.891018
0.449909
-0.720270
0.249981
0.443362
0.504779
1.203989
-2.189715
-1.427008
0.974327
-1.020362
-0.649998
-0.409033
-0.155769
-0.850748
-0.670740
-2.156481
-0.108285
-0.196745
-0.748578
-0.239189
-2.151407
0.866850
-1.793204
1.296868
-0.108154
1.122105
2.325048
-0.348997
0.381132
0.884295
-0.589911
-2.257285
-0.894455
0.104173
1.030319
1.424788
-1.116058
0.433036
0.053318
-0.132028
1.668760
0.322925
1.121175
-1.875606
0.941395
-0.515265
1.588866
-0.263563
-0.720903
-0.023729
1.726276
1.829270
-1.579954
-0.720686
-1.047303
0.650242
-1.762227
-1.120437
0.164431
0.041364
-1.442776
-1.289791
0.725215
0.756249
-0.124540
-0.401879
0.418088
-0.205859
0.234823
0.494165
-0.105609
-0.084116
-1.073448
0.461910
-0.042656
-0.321576
1.337591
0.437497
-0.723628
0.739713
1.095409
-1.128937
2.120236
1.077660
-0.567787
-0.406717
0.208708
1.938583
1.001295
0.041911
-0.280136
0.039918
-0.997665
1.211439
0.625098
-1.290173
0.577070
-1.141306
-0.368016
0.289293
1.977764
0.494234
-0.709976
0.105210
-1.378612
-0.365634
-0.751677
1.357550
0.726831
0.567096
0.356894
0.711217
0.215974
-1.189285
-0.036676
0.804483
-0.232335
0.760976
-0.135374
1.125009
0.502659
-2.081603
-1.750721
0.522228
-0.799982
1.407614
-0.960540
-1.051795
1.519880
-0.547168
0.231647
2.263110
-0.422215
1.321276
-0.904685
-0.416570
-1.761493
-0.834751
-0.128839
