-0.440650
-1.031919
-0.325561
-1.522796
0.479005
-0.505204
-1.686613
0.597133
-0.469856
0.824796
0.315641
1.347324
-0.826136
-0.559065
-0.312512
-0.282199
0.874762
-1.303252
-1.685918
0.871714
1.665666
-0.158182
0.164163
-0.617556
0.617969
0.726110
-1.952944
-0.036155
1.256563
0.989955
-1.630672
0.847609
-1.145684
-1.511048
-1.533669
-0.601163
1.114749
1.118991
0.484309
-0.307024
-0.948224
0.166933
1.235762
-1.510151
0.329396
0.978920
-0.911116
0.678789
-1.144107
0.572290
0.632899
-0.667720
0.232193
-0.342544
1.103076
0.527003
-1.039537
-0.770235
-1.333228
0.483494
-0.810181
0.069806
0.176374
0.051556
-0.561107
-0.956331
0.825336
1.361075
-1.090204
1.481739
2.417210
0.158681
-1.768862
-0.095676
2.005104
0.435962
-0.034744
1.268250
0.886059
0.065686
2.289522
-0.043516
1.489302
-2.381231
-0.766763
0.590921
0.921953
1.614438
0.229167
0.153943
-1.638107
0.647377
1.020927
1.269488
0.353288
-2.228156
-0.725035
1.402127
-0.649604
-0.578824
0.049180
-0.574238
-0.488138
-0.841444
-0.495196
-0.349223
-1.188107
0.529734
-1.732886
-1.572847
-0.992924
-0.059660
0.383396
-1.724300
-0.352431
-1.848269
-0.003083
-0.771234
1.107650
0.266516
0.324387
1.340877
-0.450967
-1.310830
-0.079163
1.610425
-0.158808
-2.332706
-0.222159
-0.120679
-0.684867
2.123072
1.788918
1.260928
0.448741
0.430715
-0.210575
-0.493268
0.607855
-0.175353
0.585884
0.796801
0.133743
-0.887906
-0.215047
-2.244768
0.696475
-2.152051
1.048253
0.833784
1.216258
-0.643034
-0.297471
0.276516
-2.349874
-0.900331
-0.170706
1.289167
0.266317
0.412118
1.230385
-0.660584
-0.389928
0.864015
-0.803308
1.304006
-0.617113
0.376177
-0.575854
0.063719
0.203217
-0.536888
0.158323
0.495245
-1.472303
1.800089
-0.789073
-0.895015
2.129010
0.097490
0.598558
-0.460816
-0.151523
-0.540208
0.507594
1.093492
-0.830048
0.204769
2.695992
-1.279539
-1.381502
0.035427
-1.275670
0.237901
-0.884273
1.313188
-0.290859
-0.672938
0.329734
2.014376
-2.484936
-1.798207
0.122318
0.234595
-1.852896
-0.168301
-0.721644
0.539334
-0.754972
-0.320975
-0.922215
1.160646
-0.467955
0.018920
0.462685
0.377073
-0.476117
-0.513436
0.099516
0.264312
-1.199490
1.084760
1.602958
-1.298893
0.993023
0.196523
-0.326425
-0.024384
0.541303
0.684152
2.374376
-1.160524
0.725699
0.929771
-0.332578
-0.464242
-0.913884
1.100438
-1.073768
-1.229889
0.116302
1.549394
-0.790595
0.937497
-0.465468
-0.642042
1.083989
-1.548871
0.550543
2.068885
-0.238436
-0.935735
0.424415
0.422753
-0.558187
-1.060275
0.487062
0.053073
-0.842556
1.146150
0.348484
0.848484
-0.474966
1.044508
-0.581677
-0.750312
0.776953
0.911167
-0.299243
0.186521
0.108295
1.217435
0.025622
1.747527
0.924718
0.244138
-0.464157
-1.110535
-1.474383
-0.807186
0.742625
0.603092
-0.044145
0.079105
0.098924
1.369749
-1.099583
0.630734
-0.377109
-0.085618
-0.745780
2.306235
-0.868575
0.137284
-0.881927
-1.156581
2.550521
0.605990
-1.054953
-0.309818
0.686475
-2.041463
0.743225
-1.134506
-0.141553
-1.310466
-1.323942
-0.712066
-1.283002
0.923119
-0.815704
0.955917
2.012788
1.211558
-0.542769
2.486495
-1.036880
0.820477
0.129237
-2.091746
-0.688217
0.292546
-0.950074
-0.219115
0.057309
-0.830653
1.271837
-1.115774
-1.008927
0.113240
0.966659
0.888402
0.471250
-0.089917
-0.950154
-0.592712
-2.321672
-0.697592
0.179556
-1.341504
0.733882
-1.695238
-0.202709
-1.255275
0.414630
-0.815338
-1.451578
-0.220888
1.138474
-0.185381
0.957195
-0.596483
-0.642887
-1.005765
-2.308444
0.557129
-1.220125
1.199691
-1.033341
0.391482
-0.838212
1.064981
0.538700
0.914920
-0.285572
-0.476745
-0.490819
-1.560820
0.376760
0.218743
0.176744
-0.169747
1.024138
-1.091963
-1.156184
2.878176
1.541268
-0.354297
-0.072407
-0.121867
-0.710972
-0.362660
-0.133365
-1.017524
0.490468
0.513780
-1.235028
1.913269
-2.385624
-0.781687
0.767134
0.113559
-0.251388
-0.852334
-0.457327
0.502196
0.930541
0.399567
-1.774300
0.840731
0.959031
-0.023850
0.132687
2.135219
-1.031217
0.775210
0.372467
1.444425
-0.184626
2.157043
0.019371
-1.011770
0.869016
-0.269360
-0.144584
0.470006
0.595646
-0.359224
-1.665746
-0.692750
0.394859
-0.225055
-1.180162
-0.743349
0.133746
0.274483
0.336304
1.094738
0.347974
-0.515645
0.421988
-1.617482
0.685346
-1.150699
-0.378075
-0.460742
-0.650048
-0.326092
-0.971375
0.085424
0.978563
-1.577022
0.328783
-0.383756
-1.656254
-0.721029
-0.851583
-0.238307
1.132413
-0.464524
-0.691610
0.613959
-1.030439
1.442192
0.691318
0.810848
0.075385
0.526869
-0.180617
0.898713
1.436139
-0.339227
0.736525
2.470842
-0.211951
2.027378
0.412749
0.316355
-0.268011
0.762889
0.737962
-0.380392
-0.200163
-1.032013
0.103205
1.075214
-0.960268
0.870452
0.932319
-0.559618
-0.592847
-0.543555
2.307781
-1.085335
-0.694558
-1.004823
1.894394
-0.102158
-1.560452
1.185577
0.303816
0.980317
0.793943
0.642784
-0.358617
0.036907
-0.394649
-0.999095
-0.233048
0.301875
0.171431
1.276208
-1.198593
0.663352
-1.080184
1.023258
-0.419026
-1.180717
1.007172
1.032788
0.449915
0.538739
0.357328
0.129286
-1.860649
-0.159271
0.085045
-1.979911
-1.166019
-0.583251
-2.552524
2.795635
-1.800305
-0.730800
1.095769
-0.996911
1.425286
0.709033
-0.547749
0.005049
-0.011162
-0.594803
0.465209
0.469771
-0.343436
-0.010735
0.231465
0.922457
0.606466
-1.575555
1.804984
-0.420657
2.103489
1.277325
0.383744
-0.529164
0.362451
1.405184
0.469259
0.126419
-0.894756
0.783767
2.731305
-1.095179
0.019832
0.894108
1.051911
-0.605246
0.547615
0.125664
-0.577468
-0.995042
-0.245988
1.174357
-0.659103
-0.980177
-0.041964
1.002735
0.517313
-0.092357
0.645743
0.963999
0.589655
-1.683894
-0.640584
-1.125593
-0.795859
-1.570381
1.677191
-1.232661
-0.047169
-1.468320
-0.363083
-0.292358
1.037649
-0.406473
-1.625605
-0.317212
-1.270162
-1.722436
-0.650997
1.288282
-1.869212
0.903723
0.647581
-1.698845
-0.274120
0.100454
1.448690
-0.376280
1.020738
-0.516818
-1.590765
-0.577783
0.631230
0.086913
-0.029550
-0.057486
0.159970
-0.470106
-0.042871
-0.439506
-0.127421
1.791055
0.603593
0.588163
-0.397432
-0.593219
1.544852
-1.065596
-0.684821
-0.508949
1.389225
-2.172784
0.002834
-0.914766
0.577196
-0.690768
1.259640
0.214805
-0.217130
0.194543
-0.121278
-1.429983
0.611062
-1.608199
-0.711808
-0.089188
-0.378603
1.007798
-0.629852
0.445673
-1.330593
0.414950
1.141689
1.423207
1.508500
-1.174986
0.260996
0.861178
-0.147076
-0.686344
1.537025
2.215679
0.023033
-0.354283
0.251926
0.550975
-0.815241
1.896016
0.128933
0.688964
0.833988
1.516125
0.200357
-0.007969
2.068996
-0.028161
-1.216920
-0.968135
0.176111
-0.643115
1.412941
0.419311
-0.928545
-0.881677
-1.342101
0.429173
-0.331428
0.598825
0.934817
0.171976
-0.895280
-2.289914
0.026906
-1.718481
1.227211
-1.008092
0.790302
0.685402
-1.505342
0.917767
-1.205472
-0.572463
0.110399
0.490335
0.047187
-0.391037
-0.707343
1.264377
2.236548
-1.901417
0.276073
-0.044730
1.468370
-0.715514
1.477877
-0.084853
-2.173837
1.126353
-0.637528
-0.418721
0.913507
-0.409000
-0.756400
0.648538
-1.026429
1.392648
-0.165776
1.835396
-1.430817
0.609137
1.263745
0.880179
-0.583171
0.038275
-0.136638
0.174249
2.070671
0.501611
-0.509211
-1.101837
1.598114
-0.670958
-2.238792
-0.682393
-0.518666
0.494828
-0.317641
-0.651935
0.356937
-1.043183
0.285901
-0.313726
-0.420537
1.392993
-0.362678
-0.362730
-0.969219
-0.328002
0.625771
-0.652543
-0.803491
-0.495211
0.314650
1.061898
-0.723672
0.057660
-0.565535
1.214889
0.469790
0.681082
-1.694357
-0.704766
0.704560
-1.031751
-0.745502
0.500761
0.479098
-0.258036
0.346823
0.290336
1.846117
1.099601
2.006142
1.136628
0.725905
1.257177
-0.866518
-1.266406
-0.250763
-1.582033
-0.458067
-0.834235
0.563477
0.945432
1.147930
0.590549
0.026467
0.634013
0.031402
0.135629
-0.071188
1.174230
0.781833
0.580259
1.243067
-0.418433
-0.285672
1.323109
0.793847
-0.376352
0.469382
1.339896
-0.796044
0.231815
-0.781492
-0.271975
0.433839
-0.157504
-1.679332
-0.239919
0.033534
-1.246663
-0.157824
-2.623281
-0.979496
-0.159771
-0.204865
0.776444
0.168323
-0.675572
-0.711253
0.446724
0.459199
0.368528
-0.637373
-1.037378
-0.884377
0.722450
0.185759
-0.689189
-2.765215
0.112954
0.961964
-0.545727
-0.483039
-0.024210
-0.025580
0.834496
-0.229569
1.064138
-0.190125
-3.463192
0.226299
-1.138706
0.337398
0.694748
-0.467682
-0.298670
0.760663
-0.738207
0.054159
-0.634010
-1.739896
0.428896
0.012473
2.269621
1.620791
2.320118
-0.271359
-1.564831
0.222317
0.229159
-2.834416
0.500479
0.450807
-1.572446
-0.210069
-0.125816
-1.206376
1.287541
-1.939837
-1.016770
0.499592
0.769674
-0.404603
-0.329915
0.584265
1.225981
1.691754
0.479581
0.026733
0.424846
-0.293326
-0.275794
0.342203
0.365794
-1.092168
-0.055106
-0.302512
-0.003939
1.185360
0.836355
-1.143019
-0.600260
0.275776
-0.476630
-1.007078
-1.667528
1.494149
0.479314
0.285085
-1.432072
-0.288214
-1.325713
0.323113
1.585438
-1.527955
0.465107
-1.010408
0.512150
-0.464956
0.285358
0.951571
-0.451792
0.333950
-0.519771
0.413566
-0.155931
0.439042
0.462536
0.372573
-0.560018
-0.432224
-2.847068
-1.037171
-2.365325
-1.752807
-1.196398
0.485123
-1.052336
-0.105739
-0.182698
-0.146972
0.733614
1.424997
-0.142388
1.385985
-0.512893
0.893192
0.052479
0.256336
-0.750219
-0.872728
-1.028670
-0.882921
0.142915
-1.234887
1.477634
-1.235764
0.597700
-0.426657
-0.310729
0.864407
0.581082
-2.095968
0.161053
0.176556
0.519807
0.216482
-0.002015
-0.994837
-1.040737
-1.191096
2.058214
-0.378030
-0.072437
0.965162
-0.756502
0.399538
0.405025
-0.150826
0.172730
0.670205
-0.127537
0.202514
-0.590081
1.115689
0.720124
0.366293
0.927227
1.485672
0.778270
0.571596
0.373396
-1.560396
0.554111
-0.961414
-0.563809
-1.595754
0.489386
1.967638
-0.740366
-0.356526
0.614335
-0.129121
0.433278
-0.326847
-0.445809
-0.408409
0.459335
-0.623163
-0.127851
-2.313898
0.108519
-0.327933
-1.366042
-0.198899
1.156782
-0.227618
-0.675567
0.573458
-1.620555
-0.202505
1.092336
-0.547841
-0.384786
0.114721
-1.170792
0.601197
-0.012954
0.640158
-2.011700
-0.425873
1.783464
0.719120
-1.007071
-0.105324
-0.498957
-1.255956
1.874153
1.284882
0.190496
-0.906629
0.619251
1.057158
1.690516
-0.011758
-0.619077
1.536983
-0.023491
0.710136
-0.082856
-0.556188
-0.675582
1.069323
-1.009669
-1.286567
0.500132
1.271746
0.870358
-0.655692
0.306470
0.720075
-0.801921
-1.098133
0.723061
-0.072748
-0.475206
0.695879
1.032215
-0.461982
0.962737
-0.270586
-1.240620
0.760545
0.954157
1.458988
0.104395
-1.416917
-0.117773
-0.218762
-2.471485
-0.018873
0.387767
-0.743266
0.947646
1.979484
-1.315892
-1.054879
1.727952
1.232070
-1.277212
2.151890
0.527483
-1.994617
-0.734346
-1.099442
-0.288614
-1.291770
-0.157619
1.811376
0.336702
-0.220276
1.131256
-0.284448
1.097719
0.470586
-0.639996
0.604670
-0.802119
-2.432830
-1.118049
1.431794
1.282759
-1.897603
-0.229869
-0.191589
0.040665
-0.522752
-0.880697
0.849603
-0.735875
0.315387
-0.731405
0.133652
1.588596
0.247061
1.068673
-0.850610
-0.293984
-1.080392
-0.495542
1.409182
-1.493579
-0.847568
0.241583
-0.703907
1.831421
-0.206850
0.548570
0.877966
-0.562100
0.653358
1.165862
0.366597
-0.428270
0.309212
-0.410512
-0.406745
0.000211
0.380936
-1.499124
0.180132
-0.555975
-1.503024
-1.999933
-0.676564
-0.345663
0.075945
0.802279
-0.780643
0.930201
0.116516
0.963198
0.901164
-0.998520
0.369647
0.834750
-0.762318
-1.219367
0.265326
1.586837
0.104744
1.273604
1.010221
0.612869
0.747422
-0.853157
-0.366980
-1.181623
0.001404
-2.101619
-1.386993
0.153311
0.928259
-0.366744
0.121430
-0.156872
-1.175320
-0.606292
-0.042554
-0.610956
0.053099
-1.670481
-1.158327
0.784631
1.525018
-1.831838
0.341733
-1.060035
-1.150670
0.610272
-0.671649
0.636028
-2.172735
0.535255
0.489766
0.012328
-1.583429
0.213056
0.057749
0.727048
0.944570
-1.531500
-0.094285
1.261066
-1.140326
1.164471
-0.649365
-0.022968
0.752145
-0.258252
0.528878
-0.290709
-0.130866
-0.032917
0.315808
-0.835730
-1.046406
-1.458291
-0.450631
-1.370489
1.447176
0.490774
-1.359463
-0.463337
0.127775
1.702144
-1.069061
1.489113
-1.038396
0.646652
1.039709
0.526642
0.880232
-0.352681
-0.334496
-0.528624
-0.387407
0.315764
-0.612579
0.763463
0.615777
1.638431
-2.201207
-0.207645
-0.638148
-2.164121
0.002206
0.442679
-1.956987
0.583596
0.855192
-1.679870
1.817754
-0.271302
-1.503891
-1.145372
-0.296177
-0.830427
-0.391070
-0.079638
0.471906
-0.071791
0.646036
0.754960
-1.837809
0.961562
-2.739740
-0.392620
0.426817
1.458600
1.205646
-0.112921
0.409338
1.904104
1.377336
-0.895843
1.531091
1.815406
-0.418142
0.268883
0.151316
-0.080596
-0.601592
-1.940540
-0.250312
1.354119
0.672896
0.116178
-2.405789
0.589503
-0.249747
0.895232
0.335424
-0.377742
0.273483
1.014886
1.590292
0.352734
-2.807830
-0.492457
0.775583
-0.481613
-1.140898
-0.100544
0.308612
-0.583143
-1.290112
0.548724
0.978299
0.311439
-0.012220
0.654783
-0.389454
-0.151182
-0.831984
0.254874
-1.547612
1.749085
1.310376
0.257081
-0.840251
-0.548750
-1.081258
1.158879
-0.585273
-0.617502
0.180808
-0.865502
-1.022918
0.055735
-2.106966
1.318299
-1.059568
0.072625
1.014959
0.468194
-1.107332
0.407799
-1.313356
-0.257523
0.702931
2.065966
0.553772
0.868902
-0.091389
1.006380
1.422952
0.462165
-2.343901
-1.264174
-1.650436
-0.386676
0.030662
-0.929923
0.648657
-0.553637
1.145735
1.050677
1.644245
-0.118634
0.138123
-1.611078
1.133359
-1.005849
-1.062286
-0.057504
0.363352
0.520985
-0.501816
-0.898069
-1.330381
0.241689
0.722936
-0.968294
1.289893
-1.970568
0.023901
2.258506
0.873080
-0.127805
0.992062
0.832089
2.001222
-0.692931
0.945084
-0.179402
-0.052618
-1.683155
-1.123187
-0.438181
0.357226
-1.213867
1.729622
-0.473554
-0.795471
-1.239383
-1.043008
-0.017459
0.233399
-2.198143
2.385892
-0.311182
0.990485
-0.336143
-0.613830
-1.626504
0.297884
0.072114
0.198577
1.366077
-1.328454
1.748013
1.041242
0.593710
0.293384
0.529434
-2.254744
-0.211145
-0.412185
-0.436346
0.442523
-1.617408
-0.471680
-0.134090
-0.239248
-0.140357
-0.482958
0.837215
0.281998
-0.355973
-0.880265
0.833374
0.099294
-0.013380
0.418648
-1.742430
0.212561
0.912827
-0.412263
-0.440822
-1.869372
-0.605517
-1.225633
0.191579
-0.897043
0.402120
0.938245
-0.411337
0.744697
0.257642
-0.494304
-0.254650
-1.099787
-0.573247
-0.059731
-1.611700
1.246065
1.118138
0.667610
-0.871504
-0.146568
0.542801
1.272606
-0.880045
-1.792422
-1.567758
1.449890
1.718863
0.768792
-1.512784
1.091797
0.623611
-0.524109
0.155859
0.827332
-1.212673
-0.814198
-0.500876
-0.069593
-0.888073
0.180675
-0.251094
0.378532
-1.167966
-1.474106
-0.635131
0.963113
-1.719881
-1.353148
1.307335
-2.169687
0.461547
0.851745
1.510220
-1.761998
-0.845800
1.199994
-1.015485
-0.500088
-0.925056
-1.796444
0.171966
-1.083322
0.811976
0.628847
1.914986
0.058317
0.639978
-0.445235
-0.217674
-0.580159
-2.156924
-0.926313
0.931070
-1.149920
1.350352
0.053873
-0.797676
-0.768511
-2.160652
0.072113
-1.568054
1.403652
1.625390
-0.046959
-0.967048
-0.863842
-0.158477
-1.152167
-0.848355
2.365987
-0.123801
-0.777546
-2.254289
-0.448914
0.971780
-0.501300
-0.886569
1.476865
-0.335144
0.390485
0.097017
-1.042385
0.637382
-2.556323
-0.845666
-1.406310
0.183399
0.829962
-0.142645
-1.093041
-1.326619
-0.556193
-1.218042
0.264027
0.998660
-0.294241
-1.560113
-0.808727
-0.041858
-1.174122
0.409119
-0.135782
-0.539203
0.179825
0.393543
-0.701952
1.262115
-0.415984
-0.800451
0.367570
1.067156
1.978529
-0.994267
2.445560
-0.793637
0.763149
-0.688754
-1.846633
-0.081010
-0.158559
0.582665
-0.848293
-0.131341
-0.512587
-0.308059
-0.200343
0.697354
-2.347857
-0.614248
0.150271
-0.812742
0.799807
1.028569
-1.672223
0.279943
1.539850
0.587385
-1.745619
-0.657770
-1.158279
0.814210
-0.094164
1.127832
-1.540406
-0.492242
0.017283
-0.369523
0.416774
-1.400124
-1.306181
0.199035
-0.159007
-1.483857
0.935194
-0.429210
-2.057025
-1.267658
0.549160
0.098422
0.639803
1.370640
1.059735
0.031237
1.204330
-0.013300
-0.761764
0.608276
1.637369
-1.191384
1.156372
-0.458560
1.708214
0.186415
-0.579238
-0.650911
-0.263793
-1.879548
-0.652172
-1.079436
-0.402980
0.472051
-0.026133
0.480045
0.694590
0.896734
-0.875360
-1.028296
0.219639
-1.580009
-0.089664
2.916329
-1.093946
2.602492
-0.538748
-0.804695
0.424584
0.114987
-1.933220
-0.846640
-1.317703
-0.678262
0.963048
0.175476
-0.044576
0.351224
-0.943978
-1.008984
0.955639
-0.877503
1.916500
0.114443
0.576285
-0.233899
0.682741
-0.214998
-0.854105
0.252242
0.262617
-0.637402
-2.192759
-1.268592
-1.603354
0.192012
-0.872471
-1.334890
0.284391
-0.885218
0.296380
-0.984102
1.760736
-1.530456
-0.625490
-0.980816
-0.418351
0.053809
1.625010
-1.147348
-0.614690
0.617010
-0.489260
-0.677032
-0.187605
-0.130016
-0.047123
1.160491
0.446799
-0.428433
0.041078
-0.613645
-0.997171
-0.331164
0.799096
0.248323
-0.794282
-0.538248
1.143912
0.677062
0.886849
1.239568
0.722568
-1.191372
-0.424083
0.219799
-1.523074
-0.741418
0.373687
-0.500526
-0.039185
1.141863
-0.531087
0.153312
0.476629
-0.861960
-0.585962
0.281114
-1.301741
-0.508484
1.053482
0.522518
-1.175377
1.001384
-1.147713
-1.266238
-1.067402
-0.802026
-0.166479
0.060710
0.007188
-0.664039
0.706046
-0.628228
0.005108
-1.560680
-1.534116
0.533816
0.644719
-0.034124
-0.000236
-0.297421
1.246978
-1.635292
0.005147
1.201080
-0.776047
0.675443
0.708691
-0.527497
1.094514
0.280299
0.474820
-0.260809
0.621858
-0.488311
0.572637
0.984002
-0.906664
-1.357776
0.836259
0.491920
0.702993
1.218144
-0.657581
0.914821
0.306439
0.603683
0.341742
0.349296
0.918305
-1.366673
0.409562
-1.288086
1.276003
1.892928
0.299045
-0.433622
0.721726
0.764178
-0.776820
-0.835172
-0.346668
-0.688352
0.532534
0.291509
-0.766923
0.401983
1.067006
-1.050303
-0.629374
-0.456510
1.463494
0.782826
-1.352824
-2.046282
0.147344
2.116116
-0.397164
-2.188732
-1.235280
-0.672457
1.768126
0.496619
0.937773
1.103360
0.015330
-0.614984
0.672884
-1.887633
-0.532515
-0.632916
1.467536
-1.338564
-0.453154
-1.783089
-0.031855
-2.409282
1.582725
1.380210
-0.418363
1.290007
-0.414820
-1.156324
0.153725
0.148563
-0.017947
1.488006
-0.283194
-0.417085
1.322743
0.471709
1.257342
-2.130322
0.043283
-0.011437
-1.400756
-0.352531
-1.067972
0.175419
-1.056853
0.608654
0.446807
0.910456
1.364970
1.152913
-0.543785
-0.050633
0.261887
-0.559288
0.678402
-0.207772
0.405181
-0.895184
1.229651
0.580611
1.704635
-0.989413
-1.822584
-1.013209
-0.584584
1.781217
-0.228797
-1.494669
1.521046
0.322702
-0.271342
1.650808
-0.432422
1.345055
0.361184
0.941604
1.632208
-1.222747
-1.370313
-0.272400
-2.065983
-0.408948
2.092860
-1.868071
-2.062423
1.720580
-1.680034
-1.483349
0.428506
-0.097009
1.400924
0.682542
-1.547224
-0.904944
0.929162
-0.599290
-0.059582
2.342645
0.057329
-1.362359
-0.146803
-1.264375
-0.125499
1.007181
-0.111068
-0.616926
-0.478034
0.555586
0.264192
-0.929927
0.960122
0.388398
-0.152330
-0.030079
-0.713438
1.332456
-0.708481
-0.318124
0.245301
1.517062
1.326897
-0.095728
0.493235
-0.027254
-0.270892
-1.009979
-0.685052
-0.295025
-0.430184
0.185948
-0.112680
-0.813044
-0.443819
0.774006
0.018143
1.220734
-0.902825
1.735337
-0.651899
-1.280766
0.416755
-0.512168
1.759683
0.897248
-0.742529
0.029209
0.660914
-1.214056
-1.155638
-1.311139
1.513757
1.571374
-0.308539
-0.913637
-0.546360
-0.914105
-0.700003
0.652972
0.591703
0.707836
0.895443
0.860801
-0.365613
-0.411193
0.615558
0.980849
1.209920
-0.163766
-1.373091
-0.608917
-0.290762
1.043219
-0.562016
-1.284498
0.663638
0.628315
-0.602218
-1.289917
0.709952
0.035159
0.189639
-0.291859
-0.720619
-1.120500
-0.400739
-2.206892
1.458444
1.394836
0.470347
-0.980652
0.380489
0.235650
-0.015641
-0.747046
0.146312
0.951669
0.827317
0.001144
-1.632676
-1.022324
0.627146
0.686409
-0.279888
-0.911576
1.064274
1.218485
0.173447
0.012646
1.501255
-1.722208
-0.697655
-0.942525
0.926486
0.247019
-1.365071
0.844011
0.195740
1.868281
0.287891
-1.465323
2.224846
-0.741961
0.137688
-1.001879
0.633880
1.654398
0.345096
0.152624
0.612872
-0.291799
0.741743
0.251070
-0.779142
0.869530
0.922889
-1.071623
1.027199
1.155464
-1.098464
-1.470002
1.178166
-0.979810
0.696756
-1.323716
0.806547
0.459511
0.116583
0.448034
0.518409
1.073911
0.087203
0.865213
1.164053
1.285002
1.631545
0.582352
-1.005222
-0.225508
0.323484
-0.417251
2.369628
1.105459
1.713500
0.286270
-0.722205
0.409309
0.339312
-2.582621
0.151033
-0.841437
-1.286703
0.658753
0.620666
-0.226363
-0.032010
-0.976535
1.032005
0.459580
-1.016695
0.380949
-0.367524
-0.731252
-0.112560
2.064583
2.006485
-1.149272
2.064612
-0.338040
-0.914538
-1.133241
0.083804
1.231039
1.003409
-0.087154
-0.433121
0.430828
-0.841364
-1.031010
-0.795974
-0.126644
-0.404051
0.082287
0.033627
-0.138823
-1.239665
0.039182
-0.643384
-0.694904
0.365055
0.519059
-1.333547
-0.131026
-0.883149
0.312874
1.021367
-0.468941
0.630046
0.516608
1.918605
0.078738
-0.346321
-0.146763
1.354239
0.823858
0.225011
-1.040975
-0.233535
0.949740
0.204749
-0.121537
-0.420702
1.392951
-0.247865
0.119753
-0.290429
-0.872945
-0.533880
-1.167522
1.750658
0.703696
-1.315218
1.186314
0.289017
0.269485
1.317727
-0.857317
-0.756476
0.387607
1.032267
-0.147246
0.516787
0.510186
0.071480
-1.648165
0.419801
0.176825
-0.278132
1.721652
0.842999
-0.387831
-0.392575
1.003576
-0.143017
-0.396922
0.482141
-2.008997
-0.791917
0.297907
-0.618425
0.083174
0.065578
-0.601099
-0.766195
0.039280
-0.236248
0.037580
1.311865
-0.283816
-0.249521
0.430417
-2.525777
-1.607562
-0.642860
-0.312463
-0.118898
-0.790477
1.558471
0.747833
-0.264401
1.687259
-0.947959
-2.044069
-0.221494
-0.483664
-1.293844
-0.490760
-1.227610
-0.224033
0.025129
0.021878
-0.133177
-0.765228
0.155522
-0.133214
-0.169524
-0.418101
-0.056222
0.575586
-1.397561
0.803383
-0.580291
-0.256287
1.077815
-0.567598
-0.224858
0.224259
-0.626971
1.758435
0.171556
-0.795412
-0.192964
0.904154
-1.737558
-0.667175
-0.329367
-0.238343
0.665638
0.830168
-0.894940
0.790655
0.491393
-1.416799
1.855436
0.225500
-0.490107
2.462239
2.357472
-0.211415
0.478002
1.004515
0.975356
-0.258198
1.357013
-0.598839
-1.145092
0.875381
-0.353432
0.910912
-2.115548
0.834098
0.729469
-0.425519
-0.211893
0.083906
0.073053
-0.782280
-0.188154
-0.381094
0.028110
1.474722
0.282601
-1.016897
0.022806
-0.428129
0.292118
-1.822909
0.159166
0.519578
-0.684646
-0.959700
0.588412
-1.172426
0.460025
0.071333
0.172097
-0.656129
-0.896593
0.673304
0.674544
-0.111410
0.579929
-1.585914
0.529602
0.734118
-0.137623
1.075637
1.170521
-0.674873
1.994961
-0.601021
1.739758
-0.549797
-0.222569
-0.255620
-0.507485
-1.786568
-0.632984
-0.028676
-0.687691
-0.927109
-1.813297
1.485680
1.329931
1.882586
-0.051078
-0.448133
-0.563555
0.547490
-1.115941
-0.443942
-0.697042
0.438488
-0.005955
-0.500599
0.906721
-0.069812
-1.087301
-0.508870
-0.868708
-0.303964
-1.339198
-0.705349
-0.131161
-0.079943
0.097267
1.062817
-0.355390
0.520002
-0.298502
0.067663
1.268016
-0.659394
0.120097
-0.131722
0.666358
1.346747
-0.539089
1.010069
1.115112
-1.316272
1.565882
1.197778
-0.159326
1.085208
-0.563282
-0.738562
0.728832
0.129441
0.535532
-1.379154
-0.866361
-0.246836
0.025303
-0.213490
1.424994
1.602930
0.027817
0.407022
-2.535533
-0.333282
1.293781
-0.291399
1.674160
0.600634
0.489352
-0.988285
0.077731
0.850782
-0.825684
1.384301
-0.013596
1.538794
-1.001977
0.624234
-0.905384
2.202930
-1.294591
0.046580
0.222942
0.668667
1.066465
-0.187325
0.930795
-0.819135
1.908353
-0.217353
-1.113989
1.162786
0.740716
-0.516732
0.237232
-0.301839
-0.258428
1.691008
1.609975
-0.177896
-0.401508
0.427153
-1.542751
-0.316928
-0.443575
-0.100023
-0.714134
-0.304037
1.329112
2.567649
1.468942
-1.375220
-0.325285
1.051593
-0.113024
-1.306700
0.819554
-0.245898
0.796395
-0.163370
0.395008
0.670815
-0.234627
-1.963449
0.030695
-0.363134
-0.881761
1.750145
0.364970
-0.344381
-1.092568
-0.905297
0.155428
0.801688
-1.090748
1.782501
-0.266139
0.294563
-1.401055
-0.277284
0.152895
-0.388669
-0.495117
0.604760
-1.307907
-0.068423
-0.934716
0.289461
1.465681
-0.216457
-1.397548
-0.256264
-0.451742
-0.778775
-0.589374
0.454448
0.693396
1.035428
-0.127060
-0.852994
-0.224035
-0.421286
1.079573
-2.062717
0.355677
0.021398
1.814445
1.203409
1.746520
0.011234
-0.710100
1.159402
1.262394
-0.981535
0.288678
-0.593800
0.665755
0.196703
-0.179476
0.720843
1.261222
-0.683565
-1.273574
2.264480
0.275739
0.561662
0.744561
-1.599440
-0.230486
-0.852986
0.414602
3.377111
-0.019898
-0.347469
2.064780
1.053763
-0.343137
0.738105
0.083585
0.412894
2.323031
-0.648806
-0.291526
-0.375714
-1.392884
-1.247491
-0.225771
-0.982097
-0.000568
-1.857241
0.632098
0.289542
-1.520110
0.354335
1.525912
1.857146
-0.116814
-0.261660
0.703394
-0.564240
-0.270001
-0.943354
-1.811953
1.309104
-0.246429
0.093787
-0.632894
0.179148
-0.133737
-1.210624
-0.976454
0.125215
0.187557
-1.873931
0.132496
0.466517
0.220269
0.713525
0.843046
0.588973
-0.037310
0.686234
0.213414
-1.310560
-0.017873
-0.998124
1.791647
0.269269
1.196127
0.953351
-0.024877
-0.486875
-0.470188
-0.342359
0.259702
-0.155705
1.414550
-0.147542
0.709061
-0.455180
-1.646259
0.076868
0.042811
-0.170479
1.300834
-1.177228
0.879085
1.097180
-0.867474
1.395767
0.091295
-1.119058
-0.412271
-0.831868
-2.500322
-1.106277
1.329213
-0.046753
0.742817
0.775395
-0.024025
0.634617
0.732069
-0.097250
0.009943
0.665347
-0.107413
0.760680
0.030634
-1.100684
-0.382787
1.088549
0.721240
-1.254569
-1.529928
-0.656324
3.132758
0.121090
0.874414
1.218578
-0.073512
1.713892
0.120826
1.319711
1.878526
0.411127
0.495140
-1.797445
1.255947
0.775784
-0.905249
0.588214
-1.547894
-0.553513
-1.097882
0.542235
-1.124868
0.660073
-1.762776
0.030847
0.545260
-1.731641
-0.525446
-0.072584
-0.874871
0.316334
0.903057
0.950192
1.115600
0.291663
1.391517
-1.038465
-0.487058
0.729305
-0.235924
2.337877
0.053425
-1.343781
1.264729
2.192773
-0.554142
0.957674
-0.858095
0.073818
-1.475834
0.565620
-0.843889
0.719794
0.738590
-1.250148
-0.533912
0.129458
-0.199797
0.421586
-0.436627
-0.195441
-1.252670
0.683987
1.930444
1.374904
-0.335047
-0.683597
-1.290020
-1.387026
-0.140662
-0.351535
0.931199
-1.225374
-0.915309
0.763068
-0.808996
-0.261870
0.303720
0.759164
-1.490873
-0.270797
-1.109890
3.237792
-0.682162
-1.731197
-1.434906
0.243775
-0.346083
-0.186599
0.672217
0.744850
1.314131
0.326920
0.926216
-0.918591
-0.984547
0.851736
-0.885272
-1.518687
-1.491510
-0.941354
-0.036142
0.001877
0.048973
1.314214
-0.097253
0.829258
1.093856
0.313258
0.937674
-0.311624
0.952488
-2.175262
-0.935142
-0.505598
1.801215
1.910314
-0.732813
-1.864522
1.363612
0.121438
1.029006
-1.343287
-0.051613
1.131945
-1.936188
-0.562671
0.373277
0.324544
-0.412830
0.340283
-0.759105
-0.422245
0.862785
0.848521
-1.905285
-1.014655
-0.249871
-0.846360
1.268970
-1.415415
0.624250
-0.228763
-0.162113
0.292128
-0.471698
-1.109113
0.448692
-0.291608
0.534540
-0.394461
0.808431
0.401638
0.632563
0.455575
0.408977
0.487616
-0.413068
0.895711
0.117693
1.145652
-0.328216
-0.961416
-0.285398
1.329304
1.627984
-0.938478
0.736027
-2.039688
-1.182166
0.138108
1.016482
2.223243
0.938492
1.540273
1.002924
1.630330
0.612414
-1.652289
1.446723
-0.110927
-1.383871
-0.873317
1.270444
-1.566184
0.178782
-0.020896
-0.418812
-0.494143
-0.789567
-1.299044
-0.939108
2.045402
-1.750715
-0.700418
-0.420855
-1.570646
0.496055
0.313234
-0.116557
-2.747077
-0.230236
0.387561
-0.896755
-0.118706
0.466582
0.071519
1.455199
-0.348887
0.142882
0.092136
1.549537
1.026712
-0.810705
-0.330734
0.622524
0.192465
-0.963455
1.459290
-1.026825
-0.416937
-0.169925
-0.302248
1.592943
-1.727047
-0.991974
-0.093342
0.370382
-0.500573
-0.748881
-0.142200
-0.089083
0.012030
-0.984511
-0.545811
0.595644
-1.175283
-1.312249
0.845420
0.076148
0.128419
-0.461736
-0.507238
-1.093790
1.443713
0.797086
1.747130
-1.163723
-0.182528
0.492011
-0.121838
0.786332
0.258604
1.153184
0.236774
-1.396477
0.365570
0.156594
0.432968
-0.151528
-0.097831
-0.039594
-1.251764
-1.465643
1.186843
0.753381
0.296234
-0.657919
1.392173
-0.079348
-1.284760
-1.775979
0.852863
-0.854527
0.261678
-0.062386
0.890733
0.198102
-0.296470
0.534760
-2.154792
-0.125794
-1.358591
0.240631
1.460499
0.293573
1.837492
-0.221690
-1.001080
-1.749041
0.660696
-0.780550
0.846046
-0.094888
-1.410915
-1.384049
-0.155448
0.335305
0.978983
0.850191
0.157749
-0.632106
1.266884
0.550260
1.517782
-0.669044
1.273000
-0.251193
1.424383
-0.235731
-1.472064
-1.939478
0.190707
-0.020530
-0.830672
-0.544963
-0.967012
0.156378
-0.094946
-0.373846
-0.286218
-0.273456
0.386305
-0.294631
0.643247
-0.173985
1.091449
0.591696
0.609595
1.642707
0.855891
-0.162730
-0.432696
0.722880
0.333097
0.471553
-1.572156
-1.589338
-1.519631
0.415347
0.365900
-0.615894
-2.938016
0.245604
-1.499819
-0.803762
0.147176
0.409866
-0.442618
0.618451
1.420295
0.693018
-0.240488
-0.653270
0.166727
-1.214942
-0.418605
-1.757642
-0.038681
-0.809039
1.296822
-0.242638
0.125924
-0.019797
-0.340410
-0.936947
-0.008492
0.336979
-1.107176
0.305264
-0.293286
-0.089046
0.117078
-0.004337
-1.313045
-0.045940
-0.698859
0.534715
0.884182
-1.108077
0.014000
0.427153
1.339285
-0.511008
0.686367
-0.260936
0.320187
-0.190861
0.474469
-0.078195
0.291479
-0.633497
0.092221
-0.440213
0.666248
0.425408
-0.957439
0.904881
2.312634
0.195188
1.373783
1.369724
0.403928
0.687189
-0.217934
1.579335
-2.311578
-1.732192
0.536853
-0.161041
-0.109753
0.345408
-0.911995
0.047372
1.642831
0.521229
-0.425008
-1.578679
-1.044007
-1.671667
-1.291730
0.238817
-0.001027
2.443844
-0.742057
0.375370
0.678355
0.949911
0.479374
-1.302640
-0.866160
1.339487
0.533715
1.124608
-0.168021
0.668239
-0.672210
-0.016727
0.343459
-0.872860
-0.121429
-0.246128
1.119992
-0.597322
-0.140179
-0.929758
-1.620495
0.924190
-1.084692
-0.630297
-1.084209
0.466499
-0.263040
0.427945
-0.531470
0.760274
-0.621318
1.178470
0.681852
0.273136
0.855740
0.030991
-0.497919
0.472471
0.549698
-0.820124
1.242504
0.840417
0.880844
0.572739
-0.364467
0.139363
-2.029967
-0.647877
-0.792648
0.069307
-1.449186
-1.210242
0.951461
-0.289999
0.614638
0.718303
-0.949417
-0.663085
0.804628
1.427875
0.383099
-1.204030
-0.924440
-0.477860
-0.571467
0.253381
-0.219550
-1.340913
0.918363
0.511416
0.722471
-1.081222
0.675460
-2.160781
1.584315
1.192106
0.289599
0.877510
-0.921242
-0.665964
-0.138391
0.098494
-0.998831
-0.820341
0.757634
-0.323404
-0.681613
-0.192814
1.495962
1.676825
-0.780793
0.368280
0.055652
-1.415642
1.503963
-0.368573
-0.343465
1.180766
0.940105
3.357163
0.631858
0.100287
1.426372
0.164720
-0.054519
0.593856
-0.099713
1.317732
0.423389
-0.157731
-0.884616
-0.455237
-0.329886
-1.577945
-0.998718
0.724534
0.050289
0.910337
0.392321
-0.835622
-0.037262
-0.062332
-0.049353
-0.044428
-1.884499
0.120019
0.288275
-0.563150
2.369897
-0.100092
-0.621205
0.019122
-0.867127
0.041900
0.017894
1.143542
0.583456
0.606773
-1.150687
-0.338402
-1.354356
-0.021797
0.776948
0.699920
-0.577140
-2.253962
0.496024
0.463196
2.083347
-0.094443
0.645391
-0.209708
0.758417
0.048082
0.416112
0.549859
-0.569498
1.073965
0.366981
0.322198
0.112232
0.096557
0.526998
-0.199763
0.055510
-0.622642
-0.235671
0.288335
1.030626
0.425796
1.711368
2.294904
-0.003180
-1.082455
2.237805
-0.448837
0.951692
0.058297
1.485040
-0.147508
-2.013065
0.288054
-0.491361
0.350923
-2.291619
-1.077680
1.547378
0.366345
1.438648
1.271904
-1.661847
-0.301428
-0.668798
0.371218
-0.193950
-0.007820
3.017108
-1.011017
-0.262122
1.238007
0.548329
-1.006537
-1.018307
2.454746
-2.574971
-0.447450
-1.864812
1.457620
-0.148618
-0.870729
-1.779215
-1.062676
2.953602
-0.715776
1.050583
-0.554691
-0.977224
-0.072583
1.069133
0.581875
-0.882495
-0.047078
0.342797
1.191838
-0.458570
0.274325
-0.796529
0.147550
-0.168699
0.365661
1.133634
-1.463287
-1.447942
-1.276353
-0.210767
-0.185287
0.482818
1.016753
1.407177
-0.800762
1.752042
1.968065
-1.062404
-0.688483
-1.217771
-0.493107
0.230617
0.249227
0.762986
1.850966
-1.583511
0.690737
-2.059480
-1.174066
-0.523430
-0.496092
0.041038
-0.345070
-0.475693
0.915447
1.387646
0.733537
1.412937
-1.188762
0.840698
1.153366
-1.668544
0.256955
1.151871
0.698608
0.075318
1.391778
-1.161584
1.996238
1.465584
1.218074
1.310675
-1.471517
-0.798402
-0.588550
-0.331825
-0.576407
-0.584517
-0.210127
1.447650
-0.374089
-0.211774
0.875422
-0.428545
0.311302
0.339916
0.202990
0.600994
0.523175
0.890385
-0.929462
-0.701750
0.256848
-0.351064
0.558569
-0.068065
-1.092156
-1.165390
-0.299163
-1.153022
-0.486755
1.702369
0.003729
2.670470
-0.497977
0.507493
-0.080461
-2.355667
2.229841
1.013728
-0.647274
-1.466224
-0.300238
0.924889
1.054430
-0.354249
-0.870377
-1.317048
1.456949
-1.349955
-0.592106
0.331338
-0.731014
-0.174888
-1.035379
0.947936
-0.559846
-1.387203
-0.896093
-0.124165
-0.806650
-0.303425
0.022599
0.694398
0.397383
-0.105861
-1.293297
0.485665
-0.809434
0.877436
-0.542302
1.773198
-1.478723
0.516082
-1.266067
0.936455
1.299438
-0.841223
-1.357219
0.752031
-1.223589
1.424476
0.161250
0.591145
-0.934536
0.893824
-1.230889
0.474624
-1.129149
1.348359
0.442132
0.031935
-0.639178
0.908090
-0.215908
0.363778
-2.458263
-0.189811
-1.396583
-0.515552
-1.161024
1.307694
0.957480
-1.160410
-1.066568
0.691678
1.363615
2.418732
-0.000410
-1.509898
-0.467816
0.557760
0.771762
-0.980685
0.757337
-2.015946
0.850208
0.927030
1.409846
0.536402
0.809703
-0.124904
-1.312483
0.288723
-1.767502
0.646265
-0.727333
0.200503
0.044693
1.241183
-0.357796
-0.598709
-0.727774
0.177718
0.596630
0.330031
-0.187532
0.547161
-0.021519
-1.222770
0.683472
-0.309656
-0.707572
0.098483
-0.336657
-0.607103
-1.383342
-0.264713
0.962163
-0.133125
-1.041139
-1.090493
-0.264215
0.623183
-0.219815
0.920922
0.736393
-0.037326
-0.228354
1.751145
-0.339212
-1.070358
-1.509085
0.317540
1.152801
0.489859
0.833009
-1.273859
-0.444904
-0.305953
1.374932
1.528710
0.148971
-0.905412
-0.875694
1.024732
0.121105
-2.263757
0.966576
1.343008
-1.396143
-0.804979
0.642744
0.646857
0.854250
-0.413956
0.963088
-0.234773
2.621459
1.477385
-0.599065
-0.559546
0.058114
0.931067
-0.149635
0.740997
-0.421498
0.189395
-0.163868
1.352040
-0.860263
0.513810
1.076777
-1.668597
1.080841
-0.979451
-0.677763
0.910238
0.978633
-0.643860
0.386470
-0.314078
0.663556
-0.595446
1.812672
0.511989
-1.313318
0.274433
0.251558
-1.125837
-0.626432
2.065534
-0.061742
-0.048672
-0.358636
-1.538280
0.519997
0.205979
-0.910000
-0.858534
0.920083
0.065144
2.368381
0.210639
-0.912969
-0.410487
0.994094
0.668293
-1.228792
-0.300106
-1.008654
0.284417
-0.319815
1.213362
-0.866673
-1.969594
0.131858
-0.743018
-1.714751
0.823366
0.043802
0.194721
-0.776356
1.011053
0.845405
-0.779193
1.313140
0.128576
0.803468
-2.658363
0.718346
0.246202
-0.040590
-2.117335
1.063911
-0.738369
-0.609669
-0.234723
-0.829036
-0.657767
-1.662066
1.281062
1.755325
1.163067
-0.715390
-2.019037
1.898884
-0.484115
1.358989
-0.831037
-0.957099
-0.478749
-0.206610
0.294155
0.960372
0.176410
1.121764
0.253472
-0.233171
1.023808
0.956501
0.699522
0.126430
1.844883
-1.350288
-1.256570
-1.224056
-0.249027
-1.680413
0.451509
-0.591481
0.530406
-1.269931
-0.047891
-0.135644
2.039127
-0.336941
-0.891478
-0.419749
-1.362969
0.176450
0.621118
-0.726852
-1.745951
-0.090446
-1.673070
0.607744
-0.811353
-0.290887
-1.694840
-1.272450
0.340332
-2.425272
-1.568105
-0.627716
1.406788
0.481764
0.532137
-0.294984
0.795599
-0.900831
-0.256209
-0.643568
-1.507965
0.876140
-2.921938
0.317010
-0.585695
-0.644535
0.891624
1.134379
0.935997
0.345652
1.824108
0.675798
-0.939441
-1.735396
0.535690
-1.050379
1.495377
-0.256865
0.114132
-0.030019
-0.832449
1.476371
0.007611
0.426102
2.057675
0.615773
0.393240
-0.524014
-0.239759
-0.226224
-1.622970
1.138119
-0.305125
-0.429124
0.108512
-0.013143
-1.204370
-0.508510
1.128704
-1.719145
-1.984615
-0.877277
-0.407271
1.541477
-0.997024
1.024903
-0.210481
-0.251788
-0.844878
-0.284121
0.148867
-0.598902
-0.357676
-0.248343
1.072386
1.330307
-1.876199
0.180026
0.711565
1.158203
0.404566
1.490135
-1.142992
0.107405
0.170147
0.109418
-1.588613
0.143151
-1.325376
0.288907
0.226020
-1.109406
-1.494936
-1.869869
-0.568546
-2.017538
0.308455
0.992615
0.893699
-0.591946
-1.168877
-0.896407
-0.630464
-2.248264
1.410781
-0.698089
1.062302
0.148429
0.416668
0.712132
-0.396914
0.656433
-0.127420
0.709526
-1.007908
-0.244078
-0.284332
0.285202
-1.233146
-0.610767
0.716312
-0.612520
0.208066
-0.037190
1.067559
1.974384
-2.705278
0.079739
-0.920955
-0.444993
-1.882666
0.724990
-0.083203
0.453792
-0.815973
1.548367
1.746693
-1.972477
1.798434
-0.733977
-0.164223
0.874950
-0.550057
1.628196
0.471179
0.269453
-1.651127
0.370040
-0.082018
0.554068
1.869925
0.967077
-1.313434
0.842076
-0.409393
-2.402699
0.214103
0.816502
0.386996
-1.764585
0.121074
0.499441
1.849215
0.342595
-0.102526
0.057459
0.043676
-0.856864
-0.241646
0.415427
-0.862541
-0.153269
0.329867
0.050950
-2.047483
-0.517367
-1.612035
-2.529787
-0.938413
0.157876
-1.084563
-1.368411
-0.752953
-0.316434
-1.049399
-0.192682
1.172799
2.118391
0.854633
0.554723
-0.208385
0.124052
-1.274729
-0.419507
-1.116231
0.757836
0.368674
1.266744
0.138589
-0.519655
0.006725
-0.305845
0.919139
0.882739
0.268793
1.056548
1.143869
0.771253
-0.590622
-1.351917
0.682629
0.862419
-0.731578
-0.668411
0.106758
0.062870
-0.082725
1.510927
0.325529
-0.887046
1.488718
0.432496
0.957333
-1.883964
0.239462
-0.786914
-1.566099
-0.699841
-1.268873
0.665902
2.091161
-0.509167
1.626426
0.275088
1.110976
0.729298
1.173225
-0.317711
-0.259402
-0.421242
0.940637
-0.593872
1.019423
-1.043736
-0.596070
0.316025
1.251358
0.228239
0.269938
0.195878
1.654352
-0.684174
0.658067
-0.332668
0.387402
-0.072417
-1.174106
-1.152874
-0.110911
1.561357
0.379061
0.736925
0.160854
-0.524136
0.793080
0.543110
-0.228858
1.824909
0.143543
0.662959
0.936509
-0.511411
-0.390903
2.224980
0.099128
-0.145961
0.139711
0.363691
0.044599
-0.003200
0.163255
0.329149
1.382159
-0.624999
0.208385
-1.471652
0.252345
-0.705767
0.095320
1.611685
-0.006817
0.398496
-1.055319
-0.576722
-1.297673
0.895700
-0.237706
0.220509
0.329131
-1.020681
-0.489622
-1.161967
0.610107
0.007360
-0.094485
-0.509932
-1.028324
-0.705784
0.226023
-0.624871
0.520831
-1.547035
-0.167996
-0.030517
0.528983
0.583246
-0.830656
-2.275069
-0.933762
-0.064459
0.399073
0.458996
0.252932
0.755765
-0.206257
0.643481
-1.820078
-1.344262
-0.157861
2.030722
1.120126
-0.702953
-0.988990
1.486777
-0.474772
1.006057
-1.032297
0.256554
-1.788618
0.627286
-1.039633
1.038572
-0.512899
1.058843
2.159229
-0.749477
0.160164
1.100927
-1.597401
-0.917629
1.075529
-0.000503
-1.734630
-0.140881
0.223410
-0.380098
-0.679816
-1.174208
-0.330990
0.493529
2.049551
-1.932130
3.309077
2.311126
0.230010
-0.159302
-0.662514
-1.147966
0.867991
0.949234
0.217731
-1.371000
-1.186996
0.862919
-0.329584
-0.553836
1.224580
-0.641123
-0.119823
-0.082078
-0.128088
-0.076611
-0.859776
-0.241142
-0.016526
1.528555
0.016200
1.477043
-0.086463
0.603026
0.791374
-0.447572
0.853490
0.577845
0.821392
-0.292319
-0.772424
-0.370352
-1.102608
-0.124460
0.501090
0.326109
-0.681797
0.381287
0.623325
0.338873
0.518035
0.509793
0.652370
0.968756
-1.027153
-0.469578
-0.717627
-0.795377
0.252053
-1.258738
-0.576483
0.793478
-0.285467
1.387083
-0.884969
-1.468592
-1.032950
1.376377
-1.671898
-0.905655
0.616501
-0.902511
0.204498
-1.634267
-0.556911
0.451919
1.037215
-0.730447
-0.313563
1.543998
1.100779
-0.465679
-1.167754
0.259283
-0.137078
0.489319
-0.139542
-1.289166
0.262665
0.340743
0.832293
1.037031
0.408538
1.596002
-1.152246
1.605291
0.055470
0.441539
-1.967175
-0.504579
1.622505
-0.661127
1.035282
-0.225012
-0.931593
-0.573326
-1.374475
0.957057
0.296450
-0.896439
0.984460
-0.663359
-0.614692
0.325822
-1.119745
-0.299695
0.860001
-0.159939
-0.457211
-0.260369
-0.204308
-0.379272
0.253295
-0.971360
0.664617
1.077495
-0.459672
-0.861684
-0.684925
-1.376324
-1.100994
0.694880
0.505433
0.049213
1.709665
-0.850611
-0.945510
-0.118125
-1.675260
-1.583067
-0.261691
-0.419215
-1.344984
0.079437
0.115498
-0.761310
0.208727
-2.050051
1.201465
0.514912
1.659043
0.460156
-0.106711
-1.282854
0.969720
-0.342124
-0.173114
-1.846974
-0.988477
0.041670
-0.024229
-0.549779
-0.190653
-2.621491
1.115054
2.049110
-2.974377
-1.971886
0.546536
-0.069878
-0.759907
-1.609385
0.435739
-1.449789
-0.502703
0.227568
-1.309540
-0.200610
-1.012745
1.401774
-0.579292
-0.849248
-0.339464
2.234379
-0.163313
1.352773
-0.506066
-0.020692
1.288066
-1.246354
0.076810
0.877888
-0.404564
-0.549114
-0.805332
-0.008787
0.392418
1.064860
0.256679
-0.603252
-0.288216
0.102343
-0.926624
-0.575194
0.935317
1.084644
0.420962
1.300500
-0.793695
0.972556
-0.000767
0.830444
-0.527638
0.532016
0.259540
1.372239
1.513418
0.354656
-0.590257
-0.669048
1.569220
0.751526
-0.442279
0.209453
-1.714844
-0.877831
0.243273
-0.129691
-1.017342
-1.515634
-1.991315
0.872390
0.105764
-1.434028
0.109946
-0.435497
0.663733
-2.359981
-0.538852
0.031836
-0.193833
-0.391493
-0.543311
1.209621
-2.883750
0.309466
-0.172204
0.697978
-0.280829
-0.197245
1.528715
-1.104489
-0.065527
-3.223970
1.531664
-0.024190
0.282932
0.721942
-1.612167
0.244279
1.022052
-0.949136
1.742473
1.078366
1.603104
-0.432216
-0.460486
2.838649
-0.533704
-0.036741
-1.635726
1.113499
-0.510480
-0.839198
-1.518588
-0.427782
-0.719054
1.340181
0.065742
-1.212585
0.364056
0.732414
-0.386617
-0.208960
0.087936
0.432125
0.320654
1.556540
1.347288
0.804638
-2.194717
0.256907
-0.623252
-0.164867
0.999334
0.662468
-0.110237
-0.796271
0.454649
-1.964740
1.535937
0.863409
-1.819630
0.609942
0.876281
0.681960
0.492543
0.237100
0.213753
-0.501286
0.240412
1.030897
-1.359149
1.001112
-0.354949
0.540241
-0.554289
-0.234477
0.976991
0.024496
0.646168
-1.523179
-0.834700
-1.988455
1.718728
-0.387557
1.418270
0.167616
-0.140103
0.880058
1.462449
-1.167800
-0.560419
-1.431179
0.020926
-0.491394
0.788977
1.005832
0.282197
1.691353
-0.778258
1.621549
0.312295
-0.015521
-0.301757
-1.346224
-0.510406
0.422831
0.139391
-0.519117
0.316547
0.005853
0.455109
-0.304332
0.814742
-0.124486
0.523856
1.505499
-1.076242
-0.908099
-0.857399
-0.170658
-1.579917
-1.751886
0.100641
0.815424
-0.688734
0.630896
0.178420
-0.481721
0.122342
0.721072
0.532713
-0.110580
-0.085786
-0.991485
-0.882865
0.509679
0.523866
-0.398258
1.912176
-0.216133
-0.188267
-1.723033
1.009307
0.297766
1.253347
1.120472
0.214203
1.050848
1.663610
0.648821
0.514462
-0.004601
-0.400617
-0.506648
0.370497
-1.351093
0.788132
0.391715
0.604889
1.628195
0.581566
0.247772
-1.833164
0.715705
-0.842896
-0.475960
-0.578673
0.954067
-1.600537
-0.936326
-0.644122
-0.034793
0.209550
-0.106091
-0.610192
0.372754
1.790556
1.131036
0.983472
-1.174287
-0.043766
-0.248938
0.865845
-0.209462
0.196760
-1.594995
-0.682498
-0.093418
0.155936
0.419227
-0.516751
-0.733141
1.152254
-1.987155
0.662750
-0.658217
-1.668107
1.555727
-0.338565
0.362564
0.157153
-1.093286
-0.753141
0.668153
-2.746014
-1.546888
0.883542
0.539700
0.407793
0.098173
0.660067
0.239049
0.976871
0.129365
1.071149
-1.020249
-0.529291
-0.818867
0.112258
-1.645020
0.253436
-0.784093
-1.769662
-1.512756
1.280896
-0.780602
-2.012239
0.489846
-0.576935
-0.796751
-1.960327
1.130850
-1.146775
-0.560425
0.875483
-0.291028
0.100597
-0.642511
0.810571
-0.495385
0.074734
0.091842
1.750112
0.761113
-0.881965
-0.023049
-1.032920
-0.945540
-1.003665
1.003224
0.832456
-0.321353
0.246041
0.072399
1.710539
-1.214487
1.179248
1.089652
-0.063233
-0.965338
-1.030169
-0.545728
-0.518538
0.681033
0.380698
0.857199
-2.354537
1.706307
0.240595
0.703809
-1.279501
-0.226765
0.151467
1.351761
1.450757
-1.515595
-0.390110
-0.197839
-1.180142
-0.139298
-0.672740
-0.070537
-1.695916
-0.347221
-0.802691
-0.064514
-0.538299
-1.263714
0.591388
-0.705076
0.616763
0.020049
0.383259
0.731099
1.014895
1.736278
1.178924
-1.813727
-0.614686
-0.047675
-0.619921
0.023045
1.747878
-1.328209
-0.464314
0.094226
1.670309
-0.302192
0.623601
-1.683727
0.142722
-1.476824
0.402659
-0.344239
-0.273911
-1.514287
-0.239263
-1.499511
0.051656
-1.535567
-0.158502
-1.367225
-0.958268
1.524309
0.444867
0.262950
0.264199
-0.490914
-0.001379
0.147180
-0.600290
-2.629754
0.636166
1.179608
-0.805081
-0.080549
0.288435
-0.003865
0.112411
-1.075015
-0.274709
0.518676
-1.040963
0.025089
0.487898
-0.537287
-0.306754
1.053857
-1.272040
0.122782
0.103703
0.339093
-0.899695
0.812201
1.197663
-1.569224
0.541940
-0.622024
0.430942
-0.199887
0.996443
-1.046551
0.790961
0.144430
-0.683410
-1.294925
0.220004
1.044814
0.128865
2.361744
-0.666895
-0.140723
1.193781
0.295313
-1.559140
-2.139207
-1.237204
0.408489
0.251946
-0.325110
-0.427245
0.723500
-0.193820
0.261214
0.724906
-0.301295
-1.263703
1.489087
1.055911
0.610338
-0.187677
0.284489
-0.513352
0.644056
0.908102
-0.675897
1.534875
-0.865624
-0.444795
0.644066
0.702870
-0.171110
0.466003
-0.287458
1.186954
1.853563
2.983374
-0.564455
0.210444
0.898415
0.470949
-0.268163
1.675491
1.484051
-0.838611
0.619425
0.933252
-2.541215
-0.884611
0.193684
0.830428
1.134220
-0.596557
0.861315
0.377612
0.446978
0.825540
0.099816
-0.478004
-0.486254
-1.155748
1.565047
-0.379137
-0.200665
0.234293
1.460467
-0.192293
0.874036
0.900001
1.264277
-1.708947
-0.129304
-1.894297
-1.151747
1.592614
-0.986742
0.540210
0.605055
1.064331
1.829474
-0.468365
-1.504910
0.089582
0.025172
0.096575
-0.418391
-0.571424
-0.076488
0.074196
0.313644
1.552577
-1.349659
0.722038
0.561228
1.797435
1.634277
-1.584993
2.066372
-0.064244
1.604855
-2.144615
0.650299
-1.185544
1.265336
-0.431374
2.414125
0.628408
0.266694
-0.174420
0.194004
0.231585
-1.474902
0.989983
1.247279
-1.373326
-0.162047
-0.348603
1.058961
1.730413
-1.571544
-0.700588
-0.141948
0.592851
1.039002
1.417227
0.381018
0.323755
-0.384122
0.355240
1.015580
0.726318
0.607482
2.028687
0.587259
0.906118
0.458548
-1.167249
0.162760
-0.475920
-1.639738
1.260721
-1.306408
-1.053162
0.092388
-2.165018
-0.781570
1.476620
0.653627
-1.361547
0.748793
-0.234114
0.529162
-0.221912
-0.965127
0.331107
-0.719567
-1.505773
-0.012562
0.812568
1.705661
-0.051715
2.470167
-0.721471
0.137484
0.248454
0.038757
1.329176
-0.202350
-0.910840
-1.365218
0.735233
-0.491857
1.125992
1.424480
2.158971
0.525140
-0.492833
0.085917
-0.104468
1.527271
-0.818854
0.407816
0.570680
-0.478661
-1.251577
-0.082218
-0.662516
0.955852
-0.204760
0.633090
-0.234596
0.223927
0.446101
-0.165726
0.808249
-0.207501
-0.690821
0.588763
2.211449
-0.783948
-1.801552
-1.050477
0.151731
0.269106
0.971031
3.185198
-0.760234
1.952649
-1.349746
-0.122482
1.843437
1.482849
-0.237375
1.113061
-0.367403
-0.757797
0.174450
0.447228
1.148549
-1.856874
-0.780486
0.955652
0.507809
-0.534068
-0.253534
-0.369541
1.408516
0.125244
-0.760962
-0.082838
0.826297
0.288508
-0.395087
0.999659
0.087624
-0.799768
0.273824
-0.000732
-0.549811
0.814343
0.093206
0.289128
-1.498974
-0.168885
0.803938
-0.558158
0.637239
-0.571959
-0.789130
-0.099043
0.500541
0.164621
0.699396
1.149102
-1.031822
-0.482488
-2.272177
2.132021
-0.220692
-0.273156
0.241998
-0.568116
-2.072021
0.195067
0.892971
1.177694
0.585787
-1.092378
0.352513
0.846403
0.699708
0.707159
-1.027106
-0.880675
1.113746
-1.664603
-0.447550
-0.755273
-0.326793
0.563185
1.514041
-0.504451
0.733300
-0.057476
-0.147894
-1.224911
-0.382036
-0.823295
0.978690
-1.985857
-0.462485
-0.238868
-0.094239
0.790249
-0.762208
0.738012
-0.432962
0.156319
-0.791376
-0.463024
-1.158151
-1.990551
0.907390
0.260971
-0.429955
-0.762669
-1.527272
-1.213201
-0.917993
1.495245
-0.849005
-1.214956
-0.075397
1.973506
-0.193338
0.888698
0.142413
-2.470830
-1.574894
0.281285
-1.132919
-0.129941
-1.638947
-0.307491
0.428214
1.138991
2.037675
-1.336136
1.062481
0.587746
0.241152
-0.493534
0.363282
1.283939
-0.929486
-0.662341
0.061491
0.093271
0.285643
-0.227238
1.021447
0.470240
1.336672
0.219275
0.326479
1.030943
-0.366704
-0.252204
-0.481713
0.458082
2.162282
-0.272748
2.055617
-1.681036
-0.200646
-1.212632
0.693265
-0.832265
0.675974
1.786302
1.246946
-0.446598
-0.175573
0.533976
-0.818250
0.312087
-1.002234
2.235498
1.440956
0.706840
0.231619
-0.408517
1.300845
-0.516283
0.338225
-0.642404
1.276779
0.321926
-0.430805
-0.966176
0.208383
0.586756
0.811778
-0.872374
-0.399243
-0.275110
1.190510
-0.837522
-0.049849
-0.934701
0.753899
2.194214
-0.135197
1.634923
-0.367757
-0.303363
0.579084
1.124934
-0.022359
0.718666
0.243669
0.202395
0.332035
0.159138
-0.635478
-2.705670
-0.798027
-0.584441
-1.835923
0.349556
0.081541
0.965362
-0.175157
0.006295
-0.709626
0.022400
0.096888
-1.389519
-2.167914
-1.566736
0.432728
0.133308
-0.938225
-1.011697
-0.273490
-0.095158
-0.604542
0.235935
-0.583386
-0.718092
-0.760528
0.673822
-1.095118
-1.376175
0.634436
0.737534
-0.004699
-0.306678
0.131176
0.502125
-0.681674
-1.192345
-1.212261
-0.129320
1.183921
0.672470
0.395509
-0.620842
-1.088805
0.322292
1.895212
1.004319
-0.383283
-0.451696
-0.555129
-1.058143
0.581533
-0.644442
-0.610193
0.095537
-0.787308
-0.922761
-0.750622
0.886301
-0.402006
-2.174665
-1.418266
0.337027
-0.722037
-1.346326
0.874700
0.219131
1.681006
1.100882
-0.337166
-0.781589
-0.714862
-0.562302
0.724000
-1.573583
-0.506346
0.705674
1.067476
-2.102593
1.127897
-0.052383
-0.685489
2.299815
-0.342456
-0.582144
-1.051585
0.153503
0.951075
-2.028207
1.586425
0.461263
-0.044044
1.035233
-1.247787
-0.244382
1.336494
-0.111691
-0.290430
-0.808088
0.335090
0.197557
-0.247557
-1.933137
-0.950373
0.311131
-0.879603
1.673150
-0.387219
0.033403
1.582379
-0.442030
0.452155
0.347104
0.561299
1.214581
0.186546
-2.340135
0.732072
-0.183392
-2.884501
-0.363893
-0.825040
2.155448
0.318788
-0.669249
1.649313
-0.979848
0.603102
0.019093
0.753409
0.295480
1.992211
-0.553907
-0.009246
0.388448
-0.200971
0.458778
0.145915
-1.264124
0.654265
-0.526175
1.046466
1.566445
2.201221
-1.660990
-2.624372
0.371096
-2.349365
-0.457136
-1.334210
1.022125
-1.817772
-0.724110
0.002760
1.597393
-1.152436
-0.171684
0.718804
0.539592
-0.435501
1.161709
0.342369
-1.079238
-0.557798
0.442251
-0.217527
-0.092135
-0.199012
1.295579
-2.314175
-0.566070
-0.250066
0.234820
0.743078
-1.139023
2.869241
0.456767
1.801201
-0.961773
0.906950
0.037871
0.079656
-0.925989
1.625603
-1.062466
-0.773358
0.486033
-1.312704
0.518764
-1.014721
0.233169
1.116832
1.346560
-0.012884
0.384596
-1.714725
0.499893
-1.091321
0.960495
2.271235
1.314548
-0.327508
-1.423843
-0.030416
0.572506
0.174752
1.412016
1.906202
-1.038789
0.197473
2.379424
0.813827
0.027177
1.612035
-1.899686
0.271204
-0.541738
1.209409
-0.546828
0.435929
-0.163309
-0.789975
-1.306030
-0.202178
1.076511
0.969885
0.466560
-0.941738
0.264368
1.102770
-0.244099
0.634285
0.403978
0.581439
-0.261378
-0.028102
-0.338077
0.557127
1.129146
0.535928
-0.810158
-1.171639
1.080855
2.364730
-0.350135
1.005054
-1.306043
-0.230639
-0.883068
-1.297060
0.134581
0.808312
0.392976
-0.602998
1.365576
-1.271079
-0.115701
1.627849
0.499660
-0.808176
0.048512
-2.339591
-0.932429
-1.313465
-0.635529
0.763064
-1.280695
0.067417
-0.521661
0.978208
0.831903
-0.495130
0.280523
-1.357894
1.982352
-0.110253
-0.394648
0.896823
-1.784555
0.905666
0.422030
-2.198527
0.085072
-0.237868
-0.542089
0.991785
0.654435
-0.040173
0.617827
-0.098420
0.154018
1.284087
0.861781
-0.367259
-0.741952
0.863497
0.329654
-0.267278
0.505157
1.549710
0.186875
-1.925688
0.686102
-1.025722
-0.075642
-1.096226
-0.799212
0.017265
0.443484
0.303041
-0.441809
0.985897
0.377262
0.464081
2.256252
1.563671
-0.118013
0.098577
-0.619728
-1.542744
0.582836
0.628135
1.008632
-0.831584
0.655589
1.063609
-0.910781
0.698903
-0.798250
2.245759
0.247094
-2.906634
0.492442
0.119105
-0.070586
-2.405750
-1.315732
2.857850
-0.377536
0.402499
2.416030
0.004331
0.113972
0.936679
-1.200604
-0.012391
1.179551
1.928774
0.340075
-2.603572
-1.514198
-0.969973
-0.789059
0.472893
0.684746
-0.715873
0.337893
0.165321
0.039698
1.177242
0.255927
0.434030
1.183926
-0.776378
-0.718974
-1.153191
0.254053
-0.503512
-1.171235
-0.992699
-1.768764
-0.082540
0.413471
0.702370
0.315658
-1.197471
0.745424
-0.538277
1.989104
1.106971
0.480436
-0.136080
-0.011025
-1.357268
-1.074539
0.341128
0.966243
0.501112
0.208480
-1.377475
-1.060196
-1.899244
-0.834312
-0.534446
0.704472
1.461876
-1.956532
-0.203196
-1.546834
-1.764376
-0.384421
0.497584
-1.082781
-0.666428
-1.220830
-0.633662
0.018110
1.409865
-0.212911
0.280907
0.098015
0.371386
-0.692525
-1.103994
-1.513004
2.674016
-0.992684
-0.724383
0.033934
-0.224434
-0.408250
0.261132
-1.063830
-1.565832
-0.996718
-1.639141
0.218296
0.092206
-0.807475
-1.193750
0.876784
0.184906
-0.453766
0.291788
0.388178
-0.888055
0.206665
0.251108
-0.413755
-0.638180
-0.649454
-0.686124
-1.635661
1.628419
-1.203861
1.384840
-0.312957
-0.296419
0.063694
-0.991659
0.660554
-0.967519
-0.887452
-0.358153
0.498543
0.116083
-0.143450
1.810167
-0.554713
1.246401
-0.124416
-1.592945
-0.681460
0.437468
0.460667
1.232941
0.911524
1.109723
0.277617
1.172733
-1.270774
-0.213470
-0.698703
-0.992667
-0.720264
-1.723475
-0.046859
-1.355795
-0.648316
-0.400132
0.186232
-2.266699
-0.511525
-0.313405
-2.263808
-0.928863
-1.783476
-0.792770
0.865925
-0.086442
-0.746152
-2.131712
0.971802
1.181941
-0.470576
-0.740628
-0.126673
0.073548
-0.923906
0.716639
1.078746
0.375139
-0.251490
1.192749
0.598366
0.995050
0.019236
-1.088891
-0.126819
-1.080496
0.000174
-0.170140
0.245643
1.368195
0.675031
0.538174
-1.361144
0.057366
-3.650769
-0.307680
-0.621125
0.288553
-0.931907
0.456703
-0.880374
1.531657
0.552604
-0.669600
-0.123799
-0.023022
0.245353
-0.464529
-0.870697
-0.389102
-0.340247
1.094796
-0.017761
0.226932
-1.702790
2.035830
0.234998
1.213516
-0.413222
0.058256
-0.938474
0.630324
0.003385
-0.571010
-0.328559
0.791113
-0.535235
-0.501534
1.250049
1.034901
-0.189227
0.477540
0.019483
0.293629
1.835067
2.052819
1.205335
-0.263057
-1.384042
0.242690
-1.185579
0.761647
0.218059
-0.587865
1.121385
-1.392991
0.544282
-0.384958
-0.204301
0.463995
-0.865698
0.217534
1.377392
-0.998249
-2.040648
-0.482144
0.039767
0.821185
0.538236
0.252227
0.321921
-0.943470
1.499645
0.837356
-1.130937
2.525557
-1.918067
-0.638573
0.344608
1.831903
1.158671
-1.067210
0.025304
-0.156308
0.267182
0.744816
-0.506994
-0.680581
-1.328653
1.471512
0.747311
2.033736
-0.187394
1.330102
0.733989
0.859575
1.156319
-1.715351
-0.396331
0.044345
0.274893
-0.865925
-0.282428
1.819038
-0.926394
0.435999
-0.677088
-0.748609
-1.255535
1.956437
-0.176043
-0.384688
0.922179
-1.129444
-0.693309
0.420271
0.401773
0.796768
-0.321929
0.844923
1.279691
0.643382
0.090262
-0.078425
0.807441
-0.846827
-0.016521
-0.931886
-0.020151
-1.870932
1.118654
0.300076
-0.443770
0.101762
-1.840191
-0.183207
-0.027144
-1.520542
-0.713080
-0.166646
-0.386726
1.321001
-1.039578
-0.295170
0.247908
-0.290002
-0.334906
-1.099661
-0.069939
-2.329612
-0.252771
1.027603
-1.710943
-1.163665
1.667635
-0.468901
-1.404433
0.677205
0.685157
-1.025951
0.158234
0.924895
0.136255
0.026955
-0.990529
-0.519290
0.665441
-0.489999
1.629005
-0.041139
-0.685817
0.248636
0.680791
-1.195561
-0.363710
-1.831518
-0.928771
-1.235720
-0.207356
1.831773
-0.743308
0.830090
-1.653900
-0.093422
-0.011299
-1.815343
-1.102854
-1.134502
-1.479867
0.144019
-1.253056
-0.935183
0.163885
-0.400298
1.250437
-0.898135
-1.619714
-0.437188
0.778994
0.971207
-0.187268
-1.434496
-0.445455
0.250961
1.202465
0.110630
-0.663457
-0.463618
2.929293
0.366643
-0.648399
-0.487740
-1.024226
-2.118301
-1.287859
-0.715638
-0.062360
-0.085335
-0.740547
0.402166
-1.243519
0.001480
0.956602
0.900215
-2.306665
-0.332274
-0.712175
-2.869934
0.654893
-0.014914
-0.897373
-0.941282
0.455150
0.044574
-1.280998
0.005248
0.000966
0.268019
0.744514
-0.455112
-1.324282
-0.255799
2.620232
1.221807
-0.214896
-0.783206
-0.349011
0.504420
-1.280262
0.341462
1.134788
-1.656437
-0.655208
-1.239766
-0.252950
-2.067055
2.146715
0.333978
-1.060332
0.045122
-1.437956
1.458168
-1.687771
-3.097954
0.518429
-1.369789
0.809820
-0.281992
0.158183
-0.171267
-0.644400
-0.068252
-1.425442
0.632804
-0.180883
-0.491821
-0.568959
1.321068
1.847296
0.525354
-0.950305
-2.491750
1.548845
0.933533
0.235024
-1.332729
-0.038387
-2.515038
-0.590784
-1.081131
-0.293497
1.324849
-0.490117
-0.780296
-2.251294
-1.214248
-0.302427
-0.870160
-0.490539
-0.761961
0.029436
0.299482
0.992520
1.065999
-1.524841
1.817634
1.540925
-0.306411
0.737250
0.276019
-1.690325
0.188406
0.238886
0.352013
-0.099679
1.202976
-0.655764
-2.013395
1.111710
-0.544369
-0.022914
-0.966265
2.712054
0.293572
0.848329
0.666672
0.956070
0.102014
-0.010486
1.583043
-0.101849
0.673260
-1.001971
-1.157034
-0.987184
-0.009224
-0.307810
-2.225375
0.256024
-0.741359
-1.200991
-0.568179
0.411130
0.732731
-0.997984
0.155399
-0.052132
-1.359648
0.452630
-2.145038
0.049590
0.186485
0.716489
-1.415068
-0.084677
-0.779874
0.325765
0.413729
1.162357
0.850464
-0.073557
1.301852
-0.320139
-1.904897
1.642110
-1.055187
-0.552180
1.672331
-1.496965
-0.433945
-1.784980
-0.890558
0.843425
-1.036596
-1.520753
-0.702916
-1.032454
-0.765945
1.090531
-0.053803
-1.781260
0.872353
-1.360954
1.496516
1.400862
-1.423063
0.166144
-1.631859
-0.470143
-0.765215
-1.121661
-1.748055
0.116433
0.057095
0.163438
-0.229788
-0.786622
1.174439
-0.151422
-0.136100
-1.214043
0.060844
-0.873372
0.214464
2.207754
2.226783
1.073197
1.186827
0.288352
-0.032400
1.157550
-0.707071
2.713227
-0.143605
0.176952
0.259786
0.697645
-0.612861
0.021432
2.607749
0.414978
-1.770274
-1.076213
-0.252923
-0.340504
0.226946
0.630911
-1.492891
1.063046
-0.120602
0.690898
-0.528523
0.529871
-0.072985
0.843256
-0.946192
-0.468245
1.589524
0.146953
-1.297788
0.353981
0.509289
1.478581
-0.806060
-1.831607
-0.304864
0.119881
0.189367
0.987898
-0.231615
0.490075
0.358497
-0.615727
0.835095
2.546935
0.664609
-0.992580
-1.669223
0.520247
-0.032686
-0.373395
-0.126453
1.201640
0.279031
-0.669557
-0.618481
-1.506132
1.737060
-0.227405
-0.822660
2.029594
0.371513
-0.017185
1.808814
1.732696
-1.349755
0.075102
0.147100
-0.348344
0.925998
-0.154576
0.028907
-0.605240
-0.399035
-0.833874
-0.279130
1.260241
0.634591
-1.953250
0.623390
0.697160
0.718403
-0.447272
0.629835
-0.250828
-1.193497
0.390905
-0.548492
-0.276063
0.545288
-0.144710
0.094564
0.952227
-0.488552
-0.502963
-0.492879
-0.282298
1.644359
-1.151605
-1.388694
0.209666
-1.128709
-0.647624
0.452555
0.945207
0.694016
-0.968739
-0.133247
0.979685
0.810477
0.253452
0.462524
-0.002091
-0.066396
-1.533625
0.926084
1.570156
-0.278000
-0.261165
0.807849
-0.642720
-0.285607
-1.804881
-0.323942
-0.138293
0.548644
-0.317229
-0.128079
-1.350173
-0.586052
2.391750
-1.620881
1.085784
0.028817
1.427228
-0.096895
-0.218416
-0.914402
-0.631080
-1.067711
-1.624826
-1.013588
-0.117208
1.256772
0.049252
-0.314931
-0.992367
-0.353432
1.085921
1.014380
0.931005
-0.067555
0.163633
0.305154
-0.858489
-0.029779
0.274271
-0.873592
0.132440
-0.661593
0.421945
0.801743
-0.216893
0.010069
0.211172
1.318932
0.180538
-0.037326
1.579273
-1.470031
0.998026
0.179973
-0.129983
0.376423
1.638512
-1.758213
-2.824981
0.290307
-0.721265
0.135393
-0.754657
-0.330578
-0.808274
0.448948
0.478588
1.195997
-0.081142
1.178234
-2.222375
-0.237320
0.318921
-0.226264
1.134210
-0.435134
0.248810
-1.417127
2.702513
-0.391488
0.330432
1.262566
0.687746
-0.669720
1.882729
2.134590
0.024780
-0.380394
-1.005094
-0.885497
-0.431546
0.769056
0.396097
-0.192554
-0.542039
0.224981
-1.322638
0.987486
-0.934793
1.065185
0.193270
-0.235530
-0.265701
0.841722
0.683432
0.098033
0.522574
1.754692
0.350962
0.157754
2.087972
0.285835
0.525705
0.893660
-0.223577
0.497609
-2.070006
-0.765801
-1.427894
-0.185388
-1.676242
0.512063
-0.158537
1.303683
-0.954216
-1.576798
-0.656244
-0.520593
0.260452
-0.135230
-1.118311
-0.057286
-0.798832
-0.526042
0.409665
-0.051073
0.478518
0.952883
1.507179
0.270098
-0.791119
0.183093
1.205730
0.521227
-1.403428
-2.048131
1.336711
0.533059
-0.767120
-1.220944
-0.168976
-0.206124
2.356485
1.634190
-0.585981
-0.602177
-0.040323
-0.335556
0.795163
-0.269714
-1.121943
-1.113189
-0.928917
1.572299
1.050357
-0.150138
1.234839
0.139004
-0.482414
1.616779
-0.279239
-0.433452
0.719114
-1.040118
-0.209302
1.793577
-0.476020
0.271974
-0.718695
-1.311232
0.157020
-1.012922
0.151962
-0.423545
-0.121271
0.369282
-0.948708
-1.156170
-1.639772
-1.023610
-0.208538
-0.588905
-0.635825
-0.266113
-0.236372
0.915754
0.560976
-0.077085
-1.518377
-1.231506
0.076274
0.125346
0.591507
0.416882
-0.630091
-0.911765
0.310975
0.293288
0.023888
0.638411
0.564906
-1.626142
1.633964
0.218374
0.283507
-0.806579
-0.501531
-0.424339
1.634179
-0.889090
-0.204033
0.228792
-1.645501
-0.114954
0.306551
-1.139225
-1.807265
0.954594
2.368807
-1.690288
0.601726
-1.813445
-0.266035
-0.387716
0.091752
-0.671811
2.008526
1.251029
2.004769
0.305335
2.051463
-0.211075
-0.812886
-0.446074
-0.217203
0.464021
1.207368
-2.496700
-0.269395
0.803987
-0.740211
-0.940619
0.735740
1.051821
-0.429069
0.394000
0.070674
1.389307
-2.197704
-0.052077
-0.331909
-0.410364
1.506335
0.167593
-0.816886
-1.128474
-0.980958
-2.384476
-0.935433
0.451244
0.898748
0.614875
-0.360465
-0.832047
0.021381
-0.740491
0.085761
-0.738169
-0.027170
-0.886726
-0.396222
-0.946882
0.466015
0.405793
-0.094966
-1.902409
1.393304
1.365121
1.949079
1.241868
0.761573
-1.284467
0.844804
1.717363
-0.676402
1.191468
1.118873
1.341812
-0.053366
-2.138737
-1.071854
-1.095594
0.825195
0.134539
-0.905789
-1.266720
0.269491
-0.614067
1.644009
-1.364391
0.337936
0.191850
-2.129778
-0.351406
0.050476
1.196899
-0.986143
-0.495266
-0.086799
0.734604
0.410739
0.498708
0.490404
0.510680
0.318406
-0.954783
0.056354
-0.271989
0.583047
-1.121965
-1.147981
-0.794821
1.548873
-0.916018
-1.186955
-0.986320
1.381011
-0.761054
-2.265532
1.387941
-0.079499
-1.527611
1.018968
-0.819670
-1.393671
0.388027
-0.090202
0.052216
-0.246307
0.837119
-1.753069
-0.464211
0.324691
0.030364
1.060851
0.810297
1.552230
-1.600867
-1.415853
1.971008
-0.588368
1.126995
0.965297
-0.011765
0.169433
-1.239084
-0.739547
0.501329
-1.098926
-0.306959
0.534719
1.411528
-0.344292
-1.017019
-1.335717
-0.112822
-2.980086
-0.188067
1.490605
2.078895
0.172611
-0.171905
-0.779809
-1.356731
0.948686
0.704422
0.844641
1.039141
0.289987
0.073651
-0.389375
-1.578297
0.028316
-0.648499
-0.129583
-1.731701
-0.825561
-0.924620
2.033316
0.618064
0.810698
2.408080
-0.162304
1.175265
0.324939
0.892818
-0.458755
-0.787564
-1.201002
0.968281
-0.258335
-0.868560
1.356544
-1.721965
1.490149
-0.743502
0.644740
-2.427664
2.086528
-0.245321
-0.880125
0.002962
-0.121591
0.008956
-1.378694
0.083741
-1.109711
-0.555165
0.165562
0.389733
0.624610
-0.027458
0.905002
0.851506
-0.228584
-0.713675
-0.083055
0.565550
0.062586
-0.087765
-0.331329
0.393723
0.075302
0.500012
-1.726633
0.057148
-1.450381
0.294750
-0.547548
0.241581
0.549017
-1.203369
-0.014879
-2.424118
0.572119
0.113568
0.707832
0.288502
-1.286774
1.225495
0.418978
-0.399134
-0.736058
-0.198459
1.137404
0.613548
-2.314959
0.472989
-0.319123
-0.518408
0.335678
-0.858331
0.015156
-0.549498
-0.727974
-0.000961
-1.099961
-1.578527
0.044274
2.272900
-0.840765
1.153431
2.457696
0.444367
-0.070305
-0.208729
1.037208
0.688253
0.041940
0.109737
0.354183
-1.204250
1.217613
0.640674
0.044869
1.426192
-1.487341
-0.135487
-1.194247
0.270827
-0.948364
0.884596
0.837883
0.253354
0.283336
-1.268564
0.618384
-1.119462
-0.897109
0.339016
2.067164
0.742617
1.797213
0.138940
-0.299321
0.104455
-0.452359
0.901881
-0.443545
0.661329
-0.459755
0.467094
1.560865
1.613513
-0.257562
-1.830753
-0.266354
-1.133551
0.781249
0.976403
0.943162
0.676676
0.203956
1.805892
1.394199
2.329949
0.359302
0.561954
1.303573
-0.979780
1.594209
-0.284880
-0.502493
0.062819
0.996291
1.434342
-0.821316
-0.510980
-1.106558
-1.474094
0.253995
-0.132499
-0.108324
-0.982123
1.943386
1.077328
-2.563582
-1.038224
1.612281
0.805656
0.449960
-0.943196
-0.623039
1.024366
1.289552
0.342332
-2.247446
1.248476
2.194842
-0.781917
1.521719
-0.326858
0.060654
-1.331167
-0.025370
-1.290480
1.197791
-1.571980
0.807559
0.618740
0.399055
-1.025877
0.901876
-0.981766
-0.610997
-0.832582
-0.354908
-0.183168
-0.534201
-1.196245
-0.501782
-0.717070
-0.716482
-1.012920
1.798325
1.558076
1.050006
-1.359801
1.300772
2.793565
-0.523853
0.896816
0.717465
0.234221
-0.075559
1.080129
0.822910
-0.194918
0.978719
-1.398654
0.622308
0.437576
-1.270499
1.353277
0.091240
0.935185
-1.673149
1.275340
0.997623
0.544400
0.691647
-0.699526
-0.293365
0.294646
-1.774454
-0.065130
-0.506948
0.236796
0.171058
0.640987
-1.151070
-0.363615
-0.474919
0.321768
-0.913660
0.683765
-0.047224
0.647172
1.398436
-1.528286
-1.693416
-1.046682
-0.823675
0.033437
-0.003734
-2.293404
0.792862
0.652731
-0.885438
0.760197
1.037701
2.402909
0.199628
0.835646
1.470734
1.061197
0.954975
0.865302
-0.746986
-0.673217
0.067170
0.074516
-0.306675
0.699998
-1.312230
0.922067
0.915538
-0.781290
1.830343
-0.639987
-1.534831
0.862021
-0.030155
1.548267
0.141711
-1.008172
1.968530
-1.370101
-0.283333
0.106992
0.061883
0.935779
1.411009
-0.434623
-1.081581
-1.143257
-0.672589
0.633664
-0.447522
0.061535
0.315780
-0.238799
-0.293808
0.885083
-0.049963
1.096691
1.665492
-0.548911
0.427130
-0.606998
-1.201299
1.186112
0.961935
-0.713942
0.245829
-0.096070
-0.274844
0.974090
-0.864061
0.642781
-1.153370
2.722929
-0.153320
-0.346476
0.572741
0.094486
0.182737
-0.679731
-1.765032
1.632311
-0.671467
2.010009
-0.700396
0.972857
-0.358279
-0.377374
-1.415200
-0.998552
-0.675087
0.214998
1.672747
1.229917
-0.858649
1.907495
-0.560733
0.727434
-2.837206
1.050291
1.022480
-2.285706
0.931798
-0.190725
-0.180494
-0.940626
0.083698
-0.545205
2.287691
0.375932
0.415619
-0.354949
2.794097
-0.219953
-1.400515
1.712599
1.547640
0.978190
0.686866
-0.497783
0.444000
1.970687
2.135466
0.839318
-0.872230
1.276525
0.988879
1.599323
0.354872
-0.301397
-0.463013
1.772352
1.291392
0.912653
-0.934844
-0.976556
0.271943
1.415374
-0.012422
-0.474935
0.412335
0.281031
0.415863
1.647570
0.369091
-0.032250
0.125192
0.171933
-2.125295
-1.863754
0.130234
-0.317702
1.492852
1.308257
-0.515625
0.206754
1.189695
0.846085
1.352772
1.248864
-0.224377
-1.902499
-0.801755
0.295254
1.422353
-0.338170
0.871959
-1.894343
-0.608061
-0.319973
-0.123621
-0.672978
-2.199626
0.019661
-0.591897
-1.262676
0.638086
0.713772
-0.097817
0.241386
-0.060402
1.093172
0.008244
-0.208303
2.169143
0.703882
-0.208755
2.254667
0.787638
-0.781866
1.196282
-0.544538
-1.267015
0.212652
0.193773
-1.306377
0.033090
1.600899
-0.608792
-1.686079
-0.342401
1.013805
1.026115
0.136812
-2.132047
0.162372
-1.046856
0.380037
0.698460
-1.214966
0.146927
0.704515
0.444201
-0.684271
-0.097445
-0.739783
-1.358858
-0.850754
-0.035781
0.626237
0.919728
0.372112
-1.263035
0.184384
-0.224170
0.699920
0.415613
-0.772751
0.548050
0.452272
0.084975
0.942410
1.095452
-0.861082
0.556346
0.349184
-0.803818
-0.553152
-0.593781
-0.057153
1.229983
0.054724
-0.787430
-1.117119
1.009966
-0.102135
-0.877452
1.126327
-0.160464
-0.779761
-0.305768
0.074395
1.142194
-0.334621
1.406363
-0.287351
-0.171481
0.509831
-0.227172
0.948972
0.627193
1.365596
1.962354
-1.048541
-1.979139
-0.665606
1.804335
-2.631031
1.316402
-0.260498
-0.357410
-0.654537
1.768916
-1.912708
0.262975
-0.603872
0.466588
0.322839
0.294020
-0.507530
-0.904620
1.571464
0.584197
1.356917
-0.985598
-0.787794
-2.268421
1.431846
-0.038986
-0.049690
0.065838
-0.094322
1.248917
-0.121251
-2.091548
-1.476455
0.607451
0.520120
-0.102032
-1.664624
-0.366427
-0.222370
-1.725300
-0.424339
-0.300923
-0.451936
-1.346822
-0.623275
-1.109728
-0.546220
0.295504
-2.037817
0.803299
1.593757
0.071116
-1.402674
1.323585
1.098344
0.070197
0.290299
0.637951
-0.072933
-0.396643
-1.807740
1.404562
0.361319
0.481418
0.166521
0.157091
0.093280
1.583052
-1.584048
0.283245
0.573223
1.046033
-0.614813
-2.131905
-0.630604
0.682481
0.454997
-1.155671
0.244470
-0.300776
0.639129
-0.072458
-0.085939
-0.204489
-0.145580
-0.306951
-0.622027
-0.955537
-0.840654
0.872049
0.345514
1.062903
0.651986
-1.003858
-0.111945
-1.742319
-3.025883
-1.624192
0.487575
0.344741
0.222254
-1.720655
-1.175743
-1.594118
-0.352401
-0.772044
-0.505816
-0.351586
-0.862406
0.395460
-0.744578
1.146740
-0.287700
0.130961
0.137179
-1.005430
0.911992
-1.091215
0.627686
0.742958
-0.849965
-0.122004
-0.254904
-0.297893
-0.353500
-1.072566
-1.543516
-1.566184
-0.544732
-1.029321
-0.551471
0.705202
0.113020
-0.775221
-0.014394
-1.549278
-0.393965
-0.288024
0.313339
0.052212
-1.282639
-0.733374
0.140083
0.734754
-0.503699
2.147543
0.815813
0.404505
0.750318
0.385299
-0.440693
1.542341
0.232619
-1.474777
-0.828943
-0.708248
1.116556
0.354501
0.462079
-0.349578
0.934844
3.273792
1.385572
0.021746
0.174383
-1.029672
-0.120442
1.371543
0.911837
-1.287652
-0.546195
0.504478
2.182633
-0.689840
0.539649
0.213666
1.144267
-0.136199
-0.492265
0.759435
-0.235052
0.163377
-2.050626
2.833968
-0.877600
0.544126
0.046055
-1.497705
-1.976194
0.044170
-0.213037
-0.932454
-1.115821
0.481887
1.354874
0.010759
0.973672
-1.427268
-0.767117
0.168127
-0.044403
-0.872929
0.150123
0.723481
0.417905
-1.297865
0.159525
0.009096
2.005873
-1.707797
-0.407847
0.087777
0.032756
-0.590795
0.492856
-1.569268
-0.514477
-0.445783
0.890124
0.703556
0.153620
1.065732
-0.790808
-1.016075
-0.859311
-0.586079
1.119488
0.228274
-0.880855
-1.032111
-0.357802
-0.498506
0.128970
0.097988
-0.820200
-2.540494
0.805113
0.636772
0.764159
-0.364855
-0.341274
-0.396383
-0.151829
1.907936
0.278877
-0.049128
0.173305
1.311380
-2.810705
0.680106
-0.272955
1.651266
-1.253262
1.321341
0.710631
1.144357
0.206870
0.904880
-0.316964
0.260773
-0.140591
1.287837
-0.978011
1.223548
-0.321975
-0.177923
1.558688
-1.077223
0.249020
-0.087436
0.883950
-1.332245
-0.809931
1.404401
-0.065104
0.800490
0.399423
-1.173597
-0.882958
-0.361894
-1.516945
-1.196774
-0.004836
-0.029685
-0.828179
-0.586433
0.950253
-0.296760
-2.053408
-0.155950
-0.287792
-1.406100
1.164802
-0.267657
0.383918
-0.927253
-1.050095
-0.396001
0.445364
-0.050433
-0.817419
0.589804
0.028298
1.225701
0.218497
-0.804111
-0.188970
1.723221
0.709425
1.805212
-0.723032
2.311302
1.663043
0.065197
-0.363266
-1.098096
0.668736
0.549667
0.831486
0.917540
-1.653125
-0.630282
-0.706816
-1.444982
-0.380251
-1.009579
-0.608763
1.629990
0.155852
-1.267831
-0.294726
0.993996
0.181046
0.146321
-1.632234
1.128561
0.282150
-1.450054
2.492360
-1.284853
-0.092844
-0.646999
0.364194
-0.248308
1.336842
-1.351359
-1.878262
-0.268125
-0.528702
-0.077200
1.135667
-0.802393
0.463803
1.094218
-1.362787
-0.555438
1.867848
-1.220596
-0.397980
-1.402861
1.527269
1.028021
-0.203424
0.335326
-0.167042
-0.015568
-1.609439
-0.358244
-0.321133
0.532810
-1.398772
1.982191
-1.456570
1.009082
0.765329
0.784026
-0.541365
1.349209
0.784739
-0.759492
1.212506
1.150610
-1.871596
1.517651
-1.106428
1.165338
0.205013
0.006152
-0.932118
-1.459082
-0.650456
1.115435
-0.351094
-0.228961
0.880306
0.350178
-0.215388
0.641011
-0.008594
1.306427
0.287455
-0.305848
-0.933743
0.257468
0.031246
0.173010
0.816955
0.360227
-1.982608
-0.525786
0.511078
-0.105780
-1.393933
-0.879084
-2.144070
-2.175848
1.787164
0.473198
1.058617
-0.980873
-0.518265
-1.772547
-1.050701
-1.876708
-0.009079
0.435661
1.200912
-0.205614
-0.398881
0.650433
-0.023182
-0.040946
-2.405580
-0.306110
-1.025550
-0.374230
-0.527232
-0.674605
0.426487
0.109642
0.738359
0.525914
0.816779
-0.573816
-1.961466
-1.619959
-0.641015
-0.586257
0.394852
0.964721
0.410831
2.328018
-0.022867
0.215636
-0.729734
-0.847502
-1.548295
-0.401927
-0.488495
-0.263989
-0.647827
-0.679025
-0.727578
2.301485
1.221554
-1.252874
0.764110
0.218496
0.272270
-1.849293
0.805196
-1.202755
0.541532
0.600554
0.277350
1.218003
0.625174
2.136155
2.492215
0.330056
2.571711
0.038891
2.293047
-0.721075
0.184727
-1.255546
-0.136970
1.590058
0.528069
-1.081231
0.079353
0.781448
1.225188
0.393932
0.663203
-0.228236
1.022157
-2.529981
-0.079989
-0.474162
1.433148
-0.433889
0.167250
-0.425672
0.292611
-0.780448
-0.054350
0.410718
0.652357
-0.246247
-0.148455
0.421517
-0.348331
-0.860884
0.693224
-1.451374
-0.857353
0.056276
0.914201
0.066879
0.492300
-0.688690
0.118111
1.289509
-1.293722
0.914841
0.729368
-0.355207
0.206509
0.912701
0.566572
-1.306178
-2.086190
-1.189475
0.068653
-0.957680
-1.686830
1.220550
0.259282
-0.207599
-1.636386
-1.377110
1.952600
-0.562676
-0.922712
1.156848
0.531651
0.997147
0.756396
0.383523
0.151618
3.472443
-0.302197
-0.844254
1.236867
-0.482744
-0.387190
-0.418884
-1.097538
-1.624948
0.670485
1.225181
-1.290141
-0.296164
-0.723095
1.433337
-0.271585
0.640166
-0.524110
1.767493
-2.116523
-0.412356
-1.241810
-0.294989
-0.734073
0.727851
-0.314674
1.663123
-0.117175
0.442337
-1.961507
-0.599724
-0.813479
-0.026030
1.051335
-0.079548
0.115568
-0.676974
1.219048
0.213019
-0.444330
0.401301
-0.014991
-0.239179
-0.988518
1.787402
-1.533733
-0.888070
-0.474005
-0.591744
-1.344699
-0.515310
0.068323
-0.584436
1.785817
0.612283
-0.000463
1.828485
-1.222321
0.077281
-1.377065
0.015618
0.851629
0.206524
0.121061
-1.960577
0.257351
-0.325357
0.608935
-2.125422
0.537597
-0.176970
-0.295554
0.513227
-0.298500
0.360225
0.743632
1.329005
1.081051
-0.599445
0.826492
0.934832
-1.179499
-0.403939
-0.614110
0.168026
-0.141126
-0.346160
-1.866068
0.788170
-0.532316
0.422146
-0.610430
1.776810
1.031355
-1.777264
1.540441
0.902584
0.056573
-0.685732
-0.652680
-0.020610
-1.053922
-1.684669
0.727604
-0.727782
0.594911
-0.282183
-1.710547
0.301862
0.910965
0.002826
2.279101
-0.149566
1.919097
1.196136
0.291156
0.896685
0.109067
-0.123555
1.193831
-3.027576
0.733130
1.539042
0.969203
-1.407498
-2.380583
1.232523
1.855358
-0.337419
0.430082
-0.486785
-1.114144
0.616826
0.280898
0.753646
-2.117980
0.357186
0.049881
-0.651332
-0.350670
1.230175
0.095472
0.901695
-0.374733
1.320547
1.703211
-0.345669
-0.983059
0.476635
-1.861748
-0.353860
-3.235166
1.202801
0.658931
-0.755455
-0.623896
-0.147132
-1.674070
-0.806220
-0.201030
0.722037
0.321771
-1.314946
0.089964
-0.967833
-0.621122
-0.823518
0.460137
0.100495
-0.391859
-1.302650
-0.427870
-0.706288
-1.305424
1.022949
1.439417
0.745682
-1.427423
0.392489
0.409355
1.782800
0.716939
-1.175414
-0.379348
-1.155405
-0.049889
2.430248
-0.406072
1.339571
0.019884
-0.651374
-0.147106
-0.230879
-1.456955
-1.003830
2.436204
-1.160482
-0.871829
0.322711
1.281054
-0.137620
-0.950282
0.313399
1.153389
1.438471
-0.923443
0.211476
-0.051452
0.675506
-0.013202
2.031309
-0.529921
-2.332031
0.261180
1.207551
-0.740104
0.403839
1.446421
0.110323
1.108745
0.847405
-0.054400
0.729604
-0.578772
-1.319006
-0.391994
0.747651
-0.091055
0.591783
0.207115
-0.954499
0.233348
1.564863
0.821889
-1.310793
-1.545565
-0.565724
-0.268307
0.749895
0.467008
-0.123853
-1.427442
-0.535089
-1.240868
-0.061210
-0.038936
-0.636477
1.354622
-0.142215
2.115382
0.615516
1.064472
0.753389
-0.943061
0.025786
-3.398476
-1.591909
0.739034
-0.266779
0.291210
-0.891072
-2.366044
-0.061123
-1.135854
-0.632436
-0.929488
0.301978
-0.924155
-0.042882
-1.316716
-0.412923
-0.209545
-0.135822
-2.113594
-0.732690
-1.643024
0.379687
1.990600
0.308035
-0.179765
-0.109489
1.165362
-0.601752
2.843446
0.055539
1.090028
0.822673
0.207329
-0.761774
-0.552170
0.041978
-1.328190
0.125327
-0.261633
0.180328
-1.687488
-0.955457
1.183311
0.025845
1.479210
-0.845932
-0.642763
-0.128156
-0.557844
-0.672851
0.238052
0.191986
-0.848254
0.020364
-1.542263
-0.820075
1.322458
-0.076087
-1.397823
0.080991
-0.986926
-1.170572
1.107674
1.941666
-0.581123
-0.569035
0.046152
-0.099792
-0.868962
-0.212356
-0.633855
-0.117073
0.160232
-0.713199
1.175402
-1.340821
0.980293
1.256055
-0.046525
0.741229
-2.381667
-0.357186
0.028009
1.116281
-0.812980
-0.029523
-1.125731
0.627280
-0.334122
1.307449
0.744813
-0.626815
-0.709477
-0.327739
0.260359
0.047027
1.775905
0.498343
-0.464262
0.681732
0.484762
0.238082
0.129934
1.387843
-0.509361
-0.645570
-1.152880
1.406143
-1.095388
-0.928052
-0.098307
0.036091
-1.157786
-0.347165
1.682808
1.750982
1.156364
0.271622
0.828477
-2.625103
-0.640896
-1.603132
0.046578
-0.790430
0.125470
0.826575
0.512799
-0.410444
-0.578929
-2.046645
-0.523464
1.555953
0.937243
0.798724
0.560972
-0.596256
1.187597
0.007461
-2.047307
-1.099625
-0.788495
1.034242
-1.302098
1.317736
-0.287254
1.563307
0.349343
0.755870
-0.889082
-1.566812
-1.190918
0.011827
-0.892708
-0.806313
0.697026
-0.282432
0.722380
0.370224
-1.938691
1.170863
-0.204145
0.279056
1.285460
-0.785499
-0.162655
0.801925
0.588729
-0.672604
1.282952
-0.652737
-0.745756
-0.085389
-0.368398
-1.919210
-0.016837
-0.923918
-0.650464
0.413239
-0.123200
0.242003
-1.654525
0.464843
0.784718
-0.447838
-0.532216
-1.279949
0.178158
1.991020
0.462512
0.980908
-0.742973
-0.469400
-0.849875
1.005605
0.048558
-0.423428
-0.376856
1.002307
-0.761799
-0.023263
-0.016156
0.328890
-1.132536
1.026129
-0.426375
-1.294037
0.373676
-0.308319
-0.351799
-0.024265
1.105300
0.240459
-0.113831
1.080071
-0.356960
0.106480
-1.550923
-0.657010
0.386042
-0.064205
1.715346
-0.464917
1.278306
-1.682383
0.853267
-1.173171
0.390362
-0.464314
-1.465757
1.914930
-2.476849
0.422229
2.116040
0.722772
-0.541088
-1.597925
-3.898524
0.283942
1.048306
-1.100015
-0.724239
0.637043
0.491887
-1.843564
-0.366304
-0.789965
-0.644369
-2.214941
0.643852
0.713378
-0.903119
0.183032
0.189604
0.641908
-0.348567
-0.351423
-0.548694
-1.060528
0.497085
-1.964938
-1.021392
1.440925
1.162600
1.519481
0.133174
0.826852
1.298690
-0.385927
0.535763
0.981849
-0.541167
0.921514
-0.706808
0.099497
-0.964179
1.199102
-1.837785
0.059600
0.697056
-1.066670
-2.182121
1.161062
-0.215451
2.251901
0.249318
1.971147
-0.972486
0.492978
1.685665
0.662390
-1.255507
-1.804080
1.503362
-0.263876
0.282288
-1.257311
-2.685385
-0.045767
-0.211055
-0.316531
-1.291010
-1.128963
0.363314
0.492257
-0.318923
0.460536
0.206507
-0.791498
0.451401
-0.449667
-0.593487
-0.394135
-0.755524
-0.285735
0.180768
-0.558014
-1.937253
0.811792
0.752997
-0.807111
-0.289678
-1.129307
-0.743421
0.042688
0.229763
-0.152082
0.488180
0.885453
1.464937
1.270383
-0.791217
-0.674141
-0.401280
0.498680
0.534398
-0.358076
-0.400099
0.006932
1.108942
-0.111294
0.013035
-0.801638
-0.948552
0.878509
0.955740
-0.462806
-0.257475
2.129574
0.500888
-1.337963
1.240789
0.380887
0.690695
0.318839
1.019463
-1.096918
0.093185
-1.000070
-1.833533
-0.913145
0.396599
2.914578
1.112315
-0.959657
-2.403033
1.094575
1.313258
-1.192394
-0.137502
-0.459829
-0.313247
-0.113401
0.095064
1.389043
-0.416251
-0.209609
-1.872088
1.686535
0.899999
-0.336881
0.879575
1.065301
0.263891
0.138855
0.703335
1.045055
-0.804150
0.471203
1.250130
-0.992508
-1.177918
-0.766332
0.378624
0.397009
0.529245
1.846599
0.561038
2.921043
0.452087
1.899976
-0.942153
0.520561
0.345170
2.710482
0.116188
2.484588
-1.053037
1.703338
0.919289
-0.083454
-1.651873
-0.015611
-0.265764
-0.421716
0.425291
-1.705241
-0.462499
2.068906
0.100889
0.220179
0.366786
1.467913
-0.546479
-0.601529
0.277652
-1.744134
2.851269
-0.665573
1.222969
-0.746413
-0.955032
-0.609398
0.711593
1.748665
1.394953
-1.000904
0.992422
0.135691
0.336605
0.781594
0.053194
1.625746
-2.333702
-0.878924
-0.199001
-1.361187
0.460903
0.133311
-0.788116
0.171796
-0.542598
0.852219
-0.873424
0.797776
0.514445
0.281473
-1.413731
-1.522880
-1.182282
-1.140596
-0.191711
-0.294339
-1.712293
-0.992319
-0.022610
-0.799664
0.939527
-0.065524
0.561539
0.423342
-0.504814
0.488693
-1.087294
-2.388426
1.338502
-0.758988
0.294373
-0.302474
-0.410914
0.332122
-0.283920
-1.846913
-0.115096
0.139820
-0.652727
1.132643
1.553207
0.832347
1.658090
0.079284
0.356756
-0.819153
0.368983
-1.272026
-0.242056
0.540617
0.124530
0.801230
0.011766
-0.085204
0.663558
-0.924164
0.147318
0.124744
0.745752
0.113016
1.158044
0.065471
2.271293
-0.793840
-0.288296
-2.204062
-0.321229
0.643344
-1.446417
1.647114
-0.290631
0.205980
0.764675
-0.062219
-0.189061
-1.072566
-1.025054
-0.670396
0.532217
-0.631327
-0.402324
-0.370264
0.178514
2.395050
-0.349809
-1.223776
0.953169
-0.057080
0.253084
-0.946248
0.751392
-1.187727
0.695108
-0.576735
0.265744
1.083389
-1.280393
-0.825896
-0.824355
0.441124
-1.299360
-0.406999
-0.268830
2.515597
0.618049
-0.506195
1.023996
-0.228587
1.244130
0.180850
-0.342194
0.186960
-0.401884
-1.782315
-0.604177
-1.382243
-1.937123
-0.626340
-0.296842
0.575809
-0.714032
-0.298917
-0.064162
0.131854
0.569817
-0.200914
1.950753
-2.378943
0.007391
-0.397917
0.926347
-0.179430
0.494195
-0.979803
0.284262
0.864420
-0.110075
-0.438295
0.918275
-0.220378
1.033758
-1.582120
1.214340
2.153569
-0.685174
-0.930433
-0.703016
-0.516671
0.586658
-0.914005
1.561827
0.189502
0.509980
-0.446425
-0.398978
0.094100
-0.477374
1.561581
-1.170355
1.864942
0.527067
0.091185
-0.782056
0.692978
-1.061392
-2.465697
0.759477
-0.586332
-0.120168
0.242104
-1.367060
1.014358
0.187795
1.311878
1.258147
0.467735
-1.605031
-0.753872
-0.181838
0.562119
0.468597
0.316331
-0.625134
1.387761
-0.081879
-1.146094
0.442086
1.169034
1.214643
-0.771169
0.897905
0.916843
-1.468899
1.506865
-1.175649
0.239967
-0.371782
0.545310
0.406956
-1.896550
1.473176
0.301762
1.039710
-0.145784
0.667568
0.539436
0.207999
0.399028
2.420303
-0.561961
2.289656
0.769959
-0.903563
0.516934
-0.042228
-1.789079
-0.031383
-1.357436
-1.095029
-1.259271
-1.907913
-0.459704
0.288283
2.148023
0.939399
0.882404
-1.461883
0.434312
-1.926424
-1.098593
0.946230
-0.672651
-2.203393
2.056994
-1.496382
-0.659480
0.147202
1.930823
0.359930
-1.832478
0.156598
-1.195844
-0.044442
-2.187317
1.496418
-0.195507
-0.223233
0.673408
1.169292
-0.199300
-0.370269
-0.183027
1.469475
0.919536
1.324440
-0.657735
-0.390990
1.197973
1.784139
-0.535758
-1.938182
1.252984
-0.537528
1.824041
-0.954616
-1.492205
-1.025630
-1.312144
-0.340781
-0.192887
0.183784
-1.150918
0.236665
0.317106
-0.399734
0.282724
-1.734481
0.722814
0.524409
0.132892
-0.910868
-0.783647
0.134393
-0.184617
0.354450
0.329898
-0.007291
-0.040002
0.840829
-0.120515
-0.823361
-0.788928
0.167834
0.727160
1.649231
0.804675
-0.164244
0.495353
-0.436215
0.057615
-1.510050
1.270153
-0.133151
0.725066
-0.040231
0.654587
-0.507882
2.657944
0.673278
-2.793405
0.706421
-1.186106
-1.073111
1.402537
0.220684
-0.497609
0.468752
0.590574
0.196308
-0.819623
0.245421
-0.567362
-0.629455
0.581849
-0.915591
0.920282
0.667304
-1.001719
-0.205366
0.646357
1.130302
1.143331
2.269456
-1.081433
-1.047025
1.007753
0.034977
-0.243157
-1.249864
0.267532
0.031511
0.764695
-0.562192
2.232699
-0.417011
0.419121
-1.147824
0.230772
-0.914674
1.201290
-0.313602
0.863402
-2.323280
0.429626
1.379488
0.066888
0.219316
0.970638
-0.532197
-0.369307
0.086454
0.616152
-0.249926
0.453738
-1.206504
0.136520
0.224634
1.115100
0.414026
-0.982126
-0.072346
-0.047635
0.340084
-0.442173
0.576900
-1.099620
0.898618
-1.081239
1.828559
-0.472715
0.249319
-0.165912
-0.263292
1.629289
0.921749
1.914161
0.207676
0.255703
0.989806
0.161056
1.841707
0.504303
0.188820
-1.446314
0.500638
0.236285
-1.358801
-0.566730
-0.121802
-0.338660
1.095419
-0.137397
0.044233
0.193806
1.041273
0.336926
-0.401562
-1.610485
0.436601
1.364386
0.720906
-0.118529
1.158208
-2.302982
-0.457064
1.518628
-0.772326
-0.018444
-0.323094
-0.864800
-1.724983
-3.189370
2.717258
0.395335
-1.298970
0.206595
0.217844
0.374394
-0.336125
-0.753847
-0.673929
-0.948718
-0.202218
0.113480
0.293236
0.645368
0.200261
1.252311
-1.370102
0.453913
0.134397
-1.301720
-2.077687
0.957218
-0.418020
-0.809921
-0.195636
-0.475866
-1.168106
1.228901
0.454322
-0.258689
1.331091
1.926647
-2.221048
-0.465727
-1.529016
0.977767
0.059730
0.305469
-1.632938
0.563557
-0.464451
-0.796467
-1.106975
0.122945
-0.645379
-0.457725
-0.539148
-0.205841
-1.689313
0.051335
-0.531615
-1.753619
1.211869
0.944022
0.957123
0.380502
-1.461108
2.569850
-0.875543
-1.108059
-1.244800
-0.455318
0.490840
-0.554205
-1.086107
1.233845
-0.688026
-0.075225
2.429903
0.573767
-1.216453
0.268570
0.690060
1.685788
-0.467197
-1.182813
0.971798
0.761460
-0.921283
-0.071191
0.156169
0.308143
1.392118
0.574277
1.170941
0.470679
1.409402
-1.608573
0.865169
2.544859
0.976043
0.719355
0.617259
-2.488233
-0.668692
0.305916
-1.006614
-0.561328
1.480151
-0.710609
0.243759
-0.788622
-0.876883
-0.512055
-0.193313
1.468446
0.386131
-0.825217
0.984523
0.700714
-0.464499
0.626970
-0.147196
1.425523
1.114509
0.029519
0.549591
-0.179191
-1.279508
0.547893
-1.387773
0.117686
2.286422
0.786562
-0.367310
1.063465
-0.810795
-0.567993
-2.207630
1.176385
0.172881
0.248924
0.118467
0.147428
-0.806841
-0.020493
-0.252387
-0.505595
0.666614
-0.239870
0.220973
0.141948
-0.322305
-0.473821
-0.731599
0.170170
0.492900
0.099147
0.759206
-2.004398
-0.434411
-0.777462
-0.411937
-0.592851
0.693100
1.475828
-0.527190
0.848140
0.416178
-0.129132
-0.905897
1.364183
-1.368842
0.780019
0.376058
0.826317
0.096149
-0.729944
0.770190
-0.580939
-0.342080
1.936174
0.598194
0.157930
-0.611083
0.117768
0.743603
-1.705397
0.514638
0.795636
0.523359
0.098159
-0.480374
-1.418143
0.033931
0.409682
-1.362422
1.215917
-0.014614
-2.756404
-1.276524
-0.447150
-1.546414
0.698872
-0.689771
1.382443
0.582795
0.122129
-1.301125
1.855772
-0.108681
-0.990535
1.423357
-1.947166
-0.439880
-0.352629
-0.427062
-1.293908
-0.585559
0.707465
-0.887326
-0.997449
1.784866
-0.551914
-0.460994
-1.048840
-0.499317
0.750468
-0.305644
-0.392547
-0.368292
0.876466
-1.034545
0.754994
-0.129371
0.971144
0.759851
-1.637295
0.766489
1.608650
-0.339383
0.339987
0.017610
0.007997
0.809696
-1.369464
-1.483605
-0.581492
0.473839
0.722400
-0.509284
-1.267946
-1.249931
1.233475
1.281538
0.493611
0.232801
-0.683841
-1.262708
0.607482
-0.435404
1.077260
-0.336486
-1.416716
-0.224820
0.280196
0.874803
-0.439727
0.518952
-0.517776
1.112435
-0.077356
-0.246340
-1.557771
0.260700
-0.589039
0.056344
0.780394
0.810277
0.132573
0.180886
-0.786100
-1.092060
-2.160134
0.278438
0.345738
0.321134
0.061388
-0.190487
1.518414
0.299023
1.473878
1.655539
0.043186
-0.267162
0.090091
0.294925
-1.382746
1.696681
-0.788593
1.714164
-0.494167
1.218687
1.832417
1.186486
1.348746
-0.525318
-0.714920
-1.639838
0.824293
-1.565592
0.392432
-0.289926
-1.252768
-0.384700
-2.109558
1.405276
-1.173345
1.445366
-0.677561
1.175405
0.867597
-0.352923
1.248965
0.538205
-0.592351
-0.402424
0.244822
-1.518082
0.460080
-1.038267
0.327654
0.711351
-0.519785
0.315564
1.741335
0.201342
-0.298507
-0.695077
-0.678607
-0.370831
1.225291
-1.954237
-0.095435
-1.678544
-0.410881
1.027998
1.743330
0.887792
0.813989
1.716061
0.160881
-0.781882
-0.837110
-1.617769
-0.867379
-1.871531
-1.002189
0.800030
0.322288
-0.797048
-0.000990
-1.041124
-0.527331
-0.372389
-1.088097
0.176419
0.631884
0.401311
-0.721781
1.038467
0.111816
0.378909
-0.404958
0.198315
1.665698
0.879653
0.503590
2.141134
-1.140093
-0.711117
-0.363270
-0.315278
0.976097
0.404651
0.485968
-0.868285
0.657845
-1.059478
-1.637390
1.338375
0.078787
0.077605
0.167438
1.550503
1.037351
-0.214584
-1.374006
0.888688
-0.267424
0.703545
1.445636
-2.014642
0.221157
-0.810458
0.101325
0.643387
0.327785
0.508724
-0.073273
0.255683
1.020420
0.480627
-1.270970
-0.136713
0.117958
-0.521004
0.884692
-0.897703
2.770716
-0.595864
-0.158663
0.527220
-1.292533
-0.182720
0.607342
-0.679375
-0.515701
-0.308449
-1.463436
-1.262919
0.375262
-0.901961
0.646080
-0.076317
1.302445
0.666639
-2.236830
-0.852141
1.296916
-0.034195
1.087874
0.884090
1.347046
-1.999321
1.622150
0.154766
1.306905
0.803052
0.089263
0.769193
0.491310
1.110138
-1.649878
0.035190
1.112606
1.070255
0.632190
-1.266526
1.084265
-1.018926
0.966405
-1.131416
0.253043
-0.408070
-0.820579
0.472751
0.986149
-1.170638
0.288022
0.587350
-0.690838
-0.863255
-1.971120
-0.715179
2.397637
-1.073279
-0.261554
-0.991387
0.424697
0.927880
1.833110
0.743827
1.763748
-0.825242
0.906912
0.826567
-1.167771
1.772764
0.357729
-0.207004
0.043087
0.446400
-0.100324
-0.741314
0.304184
-1.051957
0.294336
0.202942
-1.312976
0.496391
0.710886
-1.735565
0.425584
0.181721
-0.955692
0.162328
1.758424
-0.606055
-1.454147
0.891065
-0.610202
-2.678694
-0.721730
1.305171
-1.376601
-0.805843
-2.540856
-0.164781
1.049383
-0.860461
-0.273247
0.119798
0.868581
-1.547245
1.006462
-1.315109
1.182679
-0.345640
1.019180
0.428806
0.490527
1.346991
-0.397990
1.144582
-2.475363
-0.263621
1.013089
1.056022
0.952210
-0.608327
-1.501879
1.244242
-0.539955
1.312945
0.742436
-0.906448
0.438812
1.062176
0.322843
-0.547226
-0.886760
-2.339386
-1.439200
-0.498664
1.839721
1.375107
0.339599
1.432481
-0.761852
0.257224
-0.698503
-0.097568
-0.055009
-0.587789
0.857809
-1.351139
-0.005404
-0.841688
0.084952
0.465002
-0.277541
2.546532
1.282369
1.871333
-1.819135
-0.065159
2.259921
-1.421550
-0.435461
-1.328129
-0.326368
0.692979
1.054226
0.225756
1.464460
-1.924496
0.453750
1.144217
-0.820557
-0.703370
-2.106704
0.783902
0.097158
-1.339347
0.460777
-0.444916
0.426238
1.567016
-0.502637
0.545998
-1.010693
-1.845323
0.062339
-1.663181
-0.000577
1.754240
-0.935283
0.846755
-0.734747
1.086005
0.807519
-0.747699
-0.095197
-0.022062
-1.429697
-1.055025
0.817607
-0.832413
-0.499013
-1.678182
-0.984950
-1.142758
0.483567
-0.710467
-0.548028
-0.516928
0.312627
0.104287
0.097575
-0.208537
-0.404346
-0.788401
-1.023189
-1.453233
0.534362
0.964272
-1.598731
-0.224727
1.657658
-0.329609
0.308855
-0.293204
-0.229798
0.257739
1.960130
0.439655
0.198913
-0.095634
-1.862624
0.519754
-1.284841
-1.363552
-1.334136
-0.198123
-0.137751
1.258372
-0.307039
1.506770
-0.855399
-2.168810
-1.045303
-0.465389
0.240792
-0.088327
0.471184
1.585247
0.502481
-1.110510
-0.805384
-0.471759
-1.122184
0.680906
0.984510
0.101562
-0.974524
0.290925
2.094860
-0.714381
0.033382
1.202031
-0.751326
0.218782
-0.719103
-0.896201
2.517865
0.093316
0.328568
0.191819
-0.146711
-0.306135
0.916342
0.751038
-0.547389
-1.101481
0.504150
-0.036264
0.368468
-0.964558
-0.605763
0.322246
1.867048
-1.297928
0.986459
0.980662
0.804435
-0.371126
0.110759
-0.891280
-0.482636
-0.870315
-1.123056
-0.329724
-1.428244
-1.164244
0.415149
1.024775
0.034052
-0.873561
-2.979383
-0.418677
-1.039651
-0.657749
-1.095852
0.796472
0.799693
0.337036
-0.953431
1.540343
-0.614269
0.541857
1.264088
-0.574555
-0.114401
-1.513380
-1.299119
1.187751
-0.215967
-0.763980
-0.647876
0.039078
-0.102878
0.722638
-0.881869
0.182921
1.497585
-0.625077
0.382705
-0.395616
-1.218669
0.153070
0.046208
1.733343
0.075703
-0.311889
-1.331164
-0.271313
0.225208
0.893348
-0.784862
-0.052488
-0.563157
0.172223
0.500731
1.520329
-0.494669
1.340765
0.158755
0.380170
0.495804
0.466894
0.520257
0.883690
-0.509190
-0.541025
0.844615
0.693777
-1.905294
0.312008
0.779649
0.176636
-0.732768
1.404069
-0.203971
-2.310171
-1.426635
0.424684
-0.327415
0.715835
1.506896
-0.243495
-0.413582
0.619272
1.640916
-1.374624
1.388898
0.137862
0.164639
-0.494970
1.927383
-0.045932
-1.224545
-0.199254
1.376287
0.261471
-1.582671
0.064288
-0.373211
-0.872353
0.671445
0.990083
-1.509823
1.043951
0.140718
0.410392
-0.005064
-0.551681
-0.501551
-0.434589
-0.295462
-0.145869
0.218620
-0.434215
0.008076
-0.822969
-0.016695
1.694786
1.459482
0.419761
1.122656
-0.426357
-0.460472
0.708083
-0.383128
0.493266
0.204580
0.794956
0.528390
-0.718362
-0.874020
0.869990
-2.056157
-0.660661
-0.998992
-0.242923
-0.870205
-0.357259
-0.678442
0.221002
0.508053
-0.835831
1.467510
-1.081155
1.706639
-0.046865
0.330704
-0.395252
-0.467116
0.455344
1.314833
-0.393634
0.029342
1.888428
-1.071402
-0.684224
0.362028
1.261978
1.706245
2.476737
-1.329435
0.215556
-2.361517
-0.589433
0.677043
0.355967
-0.851976
0.513087
-0.545061
0.437774
-0.896530
0.597211
0.374552
0.504747
1.489668
1.235587
-0.892463
-0.121309
1.814839
0.317059
-0.351913
-0.613709
-0.625146
1.331407
0.229765
-0.607442
0.544145
0.328032
2.831866
0.395237
-0.060693
-0.143689
-2.090729
-1.263900
-0.232878
0.255615
0.075897
1.136588
-1.797515
0.744126
0.676380
0.515143
0.992195
-0.295081
-1.257340
-0.731725
-0.317916
0.539121
0.485320
-0.157891
0.004560
-1.459131
-0.990273
0.315595
-0.233281
1.313130
-0.360475
-0.377733
0.365844
0.832784
-1.620104
1.120063
0.389122
-0.700999
-0.807576
-0.223154
0.255293
0.329911
-1.009620
-0.082033
-1.474895
-0.515032
0.086232
-1.020774
-0.356980
-0.717625
-1.708837
-2.288901
-1.641428
-0.800214
-0.495198
0.177048
-1.128507
-0.095605
-0.032005
0.751418
-0.543499
1.084524
-0.428241
-2.862430
-0.275684
-0.648398
0.201065
1.541435
-0.635803
-0.558558
-0.349330
0.069915
0.016821
1.924804
0.856856
-1.240076
1.160008
0.305380
-0.826931
-1.103179
0.012974
0.405203
0.408598
0.458373
0.851795
0.314559
0.000846
1.494242
-0.442313
1.404387
-1.187997
0.420531
-0.698450
-1.506367
0.297540
-2.493577
-0.030617
-0.412903
0.810996
0.772149
-0.521518
-0.191479
1.685336
-0.075306
-0.567793
1.998916
-0.195958
-1.098121
0.902845
1.145402
-0.946104
1.260770
-0.777219
0.669594
-0.854965
-0.973463
0.950212
0.420017
0.307004
-1.732851
-0.375374
-1.262910
-0.715939
0.089254
1.241215
3.174836
1.159552
-0.474216
0.098092
-0.202891
0.221371
0.429901
-0.655402
0.461036
-0.145968
0.129236
0.927243
0.143404
0.077188
0.476575
-0.311646
-0.010904
-0.410643
-0.304201
-2.373703
-1.644291
-0.530738
-1.369263
1.454480
-0.184161
0.474264
0.705634
-0.162646
-0.593595
-2.091856
0.214197
-2.200286
0.546988
-1.751256
1.183580
0.923735
-0.258970
2.484448
0.638726
0.962200
-0.530020
0.037388
0.370078
0.413969
0.077458
-0.133741
-0.630257
-0.722803
-0.322376
-1.372173
-0.244938
0.483797
-2.162539
-1.023250
0.285282
0.091958
0.984197
-0.223150
-0.334059
-0.011388
-0.776709
0.128196
2.510087
0.769421
1.356266
1.099036
-1.673568
-2.528347
1.048102
-0.091808
0.051245
-0.446696
0.749721
0.287055
-0.029415
-0.246108
0.501697
0.429615
-0.220006
0.419920
-1.378977
-0.337554
-2.577985
0.014619
-0.780232
-2.855828
0.368708
-0.630358
-0.865100
-0.212060
1.548553
0.660484
-0.970885
-0.359426
-0.544096
-1.452424
-1.790380
0.571632
-0.321820
0.547730
-0.802158
-3.003030
0.380048
-1.021720
0.955785
-1.032108
-0.910227
-0.959050
-0.682303
-0.045633
-1.334090
-0.136454
0.664461
0.265875
-0.265448
0.933869
-0.168997
0.159088
-0.015872
1.395680
-0.671853
0.191953
-0.560735
0.139167
1.783576
-1.976139
0.129133
0.791048
-0.126077
1.583562
0.481591
-0.952812
-0.636706
1.439733
-0.961824
-1.845482
-0.678093
0.956652
-0.693170
-0.747356
1.039102
-0.526212
0.044518
-0.255370
-0.510068
-0.079619
-1.298076
0.432318
1.863264
1.150836
-0.353239
1.443499
-0.730400
1.175860
1.120763
-0.414538
1.016630
-0.603691
-0.740092
-0.872796
0.369507
0.770101
0.677737
-0.824561
-1.707170
2.437431
1.042915
1.695015
-0.136013
-1.292034
2.500957
-0.177538
0.318449
1.443774
-0.712491
-1.738327
0.307978
-1.308490
-0.376883
0.483241
-1.264665
-0.737209
0.825775
1.931335
-0.226073
-0.564813
0.924076
-0.980241
0.518576
-0.752050
0.819105
-0.763628
1.438083
0.041322
-0.453908
0.306142
-0.140853
0.069793
0.986221
0.548455
-1.461689
-0.926066
-0.260538
-0.216116
-1.343613
0.943260
-0.265544
-1.197427
1.222361
1.419435
0.258274
0.696319
-0.684917
-1.344905
-0.939542
0.118516
0.735421
0.390344
-1.589077
0.292357
0.965872
-0.489464
-0.583797
2.185197
-0.884177
0.548962
-0.603601
0.858840
0.395932
0.421069
1.104752
-1.453723
1.649191
0.385770
-1.918052
0.534201
-0.402263
0.110407
0.614147
-0.931351
-0.434345
-0.363899
-1.001608
-2.337584
-1.217359
-0.604688
-0.068407
-0.563141
-0.673812
0.272508
-2.625538
-2.395056
-0.762429
0.601299
0.144826
0.973522
-0.823042
-0.525654
0.720117
-0.461449
0.700507
1.178767
-0.381884
0.472881
0.692525
-0.158438
0.458297
-0.307618
-0.653934
1.892978
0.059344
-1.463367
0.470214
1.234606
-0.753157
-1.309830
-1.765970
-0.461656
1.158940
0.579419
-0.957330
-0.641368
-1.312937
0.508963
-1.052880
0.021015
0.107150
0.087444
0.858974
0.509789
3.032365
1.850768
-0.193327
0.904080
-1.808524
-1.718482
-0.727774
1.073202
-0.243323
1.296283
-0.706816
-0.265573
-0.110609
-1.473293
-1.161329
-1.264609
0.732042
-0.393280
0.811035
-1.181065
-0.283795
-0.554267
0.856890
-0.898021
1.477847
0.216504
0.172579
-0.456259
-0.315965
0.002837
-0.567457
-0.397732
-1.129169
-0.133249
0.015203
-0.887019
1.007649
-1.977072
-0.349404
-0.362280
-0.663366
1.379472
0.712407
-1.468561
0.285521
-1.247241
0.536511
0.035470
-0.591610
0.085017
0.353285
-0.097579
1.112795
-0.064918
1.571801
1.738203
0.563276
0.531320
-1.245883
0.298331
2.374969
1.162769
-1.032237
0.014969
1.185502
-0.227690
0.101102
1.658219
0.454971
0.618505
1.279319
0.144919
-0.960509
-1.096944
0.769231
-0.660975
1.645965
-0.285611
1.859204
-0.320240
0.639367
-1.407582
1.468367
1.289915
-0.231446
-1.560802
0.669462
1.185604
-1.245360
-0.382465
0.486884
-0.576674
0.927749
0.422825
-0.138933
-0.717414
1.446953
0.772107
-0.474501
0.442754
0.620314
-2.107584
-0.133418
-0.369916
1.292511
-1.022742
0.497736
-0.302811
0.324815
-0.976958
0.578526
-0.983929
0.447172
1.146414
1.156381
-0.118950
-0.441975
-0.023429
-0.762419
-0.597815
0.640018
-0.266177
0.561119
0.292194
0.392294
0.859674
3.559808
0.913245
-0.428469
-0.063745
1.030670
1.047121
-0.771879
0.761374
0.702412
1.044048
1.897153
0.589885
-1.528749
0.451275
-0.422272
0.333107
-0.465339
-1.233353
-0.899485
1.097880
-1.182061
0.565447
-0.312124
0.962630
0.306876
1.183489
-0.208563
0.714909
-0.956104
-0.757224
0.609835
-0.773842
-0.218905
-0.117435
-0.115076
-1.458168
-0.740444
-0.173942
-0.586897
-0.193371
-0.760406
1.246979
-0.263338
0.696247
1.240867
1.051284
-1.738035
0.223581
0.418812
0.371923
0.898683
0.838021
-0.029279
0.172037
0.806289
-0.716816
-0.017340
-0.231290
-1.639130
1.970219
0.029323
0.335501
-0.751313
0.092948
-1.771191
0.282004
-0.527481
-1.124672
-1.199387
-0.219154
-1.836399
0.398038
-0.058821
0.447434
-1.171213
0.563181
-2.079652
1.565358
1.350627
-1.846748
1.795008
1.186872
-1.772217
0.732160
-0.806500
1.348472
-1.158211
0.066266
0.401846
-0.202358
-1.299901
0.499468
0.670356
0.918022
-1.184425
0.442736
1.678753
-1.040121
1.718060
0.922330
1.137535
-0.568740
0.928682
-0.098942
1.229126
-0.575247
-0.210031
-0.785584
0.862189
-0.575932
0.657284
-1.117771
-0.076459
-1.054758
-0.734541
-1.202686
-0.941840
0.583816
0.904327
-0.228556
1.307083
-0.132943
0.104773
-0.073266
-0.759009
0.322162
-0.705465
0.517304
0.846722
0.554435
0.489540
1.293118
0.745563
0.384533
1.262655
0.256833
0.104852
-0.058014
1.804830
-0.671503
-0.337236
0.807548
1.150805
-0.249912
-1.320734
0.459521
-1.225529
-0.127619
-0.867528
0.712514
0.312036
0.453761
0.009396
1.378397
0.536591
0.665464
-0.179293
-0.263254
-1.703329
0.857248
-0.006835
-0.419311
-0.026109
0.106872
-0.692909
-0.939151
0.305806
0.535146
-1.004439
0.762688
-0.223569
-0.514399
0.700789
0.654192
-1.198202
-0.778277
0.207299
-1.220403
0.640671
0.264797
0.652996
1.431312
-0.278798
-0.431746
1.384969
-0.473614
1.180679
-0.984579
-0.117319
-1.075967
-3.063992
-0.461967
-0.642333
0.544510
1.171190
-1.089655
0.077959
-0.356510
-1.368026
-0.100061
1.137764
-0.057479
-1.606243
-0.789763
-0.456160
1.145399
0.191035
1.929222
-1.082787
0.407534
0.029871
2.081792
-0.901410
0.979828
2.200502
0.985399
-0.159268
1.615326
-0.148007
0.939353
1.026683
-0.793436
-0.853086
0.499160
-0.110158
0.690334
0.487741
-0.313626
-0.525976
0.912283
-1.374231
0.414793
1.679685
-0.525708
-1.796117
-1.276978
-0.421083
0.833683
0.386185
-1.669489
0.354478
0.061694
-0.460678
0.017542
0.419137
-1.569100
-0.016782
0.563769
0.783699
-1.488779
0.318581
0.281126
-0.722619
-0.363406
-1.289099
1.088110
-0.933555
-0.772281
0.117189
-0.021236
1.234853
0.442773
-1.010267
0.211476
-0.762829
0.272807
-1.416940
-0.859879
1.675812
-0.389598
0.465166
-0.127369
-0.910370
-1.437346
-0.999534
-0.129259
1.045555
-0.212874
0.222662
-0.018773
-0.129771
-0.318031
-0.767283
0.132115
-0.680936
-1.267247
0.290778
-0.725239
0.377635
1.596874
-1.549372
0.603586
-0.303910
-2.650214
-0.858113
-0.013688
0.506376
-0.541874
0.854449
-2.055739
0.707039
-0.677310
0.187990
-1.244406
0.714782
-0.929423
-0.671818
-0.176026
0.504719
-0.655730
-1.601177
1.285805
0.089202
0.552811
0.392427
0.121905
0.752437
-0.293979
0.419673
-0.676162
0.172684
-1.636856
-0.190829
1.097691
-2.508864
1.334087
0.567263
-0.558839
-2.618986
0.174859
-1.193362
-0.258853
1.178453
0.084761
0.621181
-0.768026
0.578312
-0.579399
-0.198687
1.369565
-0.171409
-0.407929
-0.642976
-0.643354
0.790103
1.567216
-1.291208
0.382438
1.968436
-0.197174
-0.293164
1.020325
-0.574297
0.411118
-0.911487
-1.021552
1.250965
-0.213394
0.953917
0.181500
0.276281
-0.911571
0.679131
0.951028
-0.939193
-2.261964
-0.137099
-0.757129
0.417904
-0.584775
1.809956
1.173961
0.849108
1.202778
-0.732614
0.391044
-1.597193
0.676384
0.136136
1.966436
-0.607311
-0.897240
-1.061749
0.659154
0.365529
-0.565212
-0.160476
0.365940
0.695397
-1.853922
-0.713934
1.396852
-0.141620
0.175231
-0.772911
-0.677241
-0.363799
-0.819990
0.818802
0.289161
-0.586474
-0.336947
-0.177540
0.409463
0.763122
-0.936488
-0.717625
-1.231621
1.054248
0.887076
-0.635890
-0.140069
-0.167806
1.181571
0.007087
-1.140939
-0.866998
2.506715
2.881986
0.340817
-0.814788
0.506768
1.368126
0.350323
1.384366
-1.318902
-0.955562
-1.217411
-0.740219
-0.473837
0.266019
-0.653376
-2.446875
-0.714662
0.948336
0.417526
-0.438877
-1.578665
0.089171
1.540327
-0.515557
0.101310
-0.490151
-1.500644
-0.143575
-0.550602
1.388123
0.144576
-1.258050
0.204477
0.026207
-1.080040
-0.253787
0.854392
0.015385
0.203748
1.082412
-1.048621
0.472436
0.309481
-1.972594
0.610539
1.490435
-0.456850
-0.605120
-0.946249
0.749196
-0.416985
-1.422381
1.120943
-0.102879
-0.329978
-0.090844
-0.239446
