0.433008
1.034652
-0.925719
0.233722
0.371011
0.237043
1.789055
0.369721
-2.082418
-0.364585
0.004114
0.886171
-0.289659
-0.344824
-0.698011
-0.324753
-1.032170
0.164608
-0.037371
-0.673980
0.240906
0.928835
-0.029264
-1.828909
1.608733
0.847346
-0.389141
-0.297680
-0.623001
0.167827
-2.106111
1.181223
-0.198911
-0.968959
-0.857293
0.338235
-0.933238
0.955408
0.909924
0.685908
0.470386
-0.646433
0.043643
0.566163
-0.799406
0.522353
0.199933
-0.171013
0.043341
-0.833197
-0.879849
0.105912
0.214916
1.165317
-1.021208
0.775241
1.099002
0.761327
0.694913
-0.261524
-0.845221
0.211867
0.673610
-1.296433
-0.812771
-0.048505
0.342607
-0.425993
-0.989242
-0.676204
0.219180
0.241027
-0.081984
0.397490
1.019170
-0.466209
0.796214
-0.537319
0.118165
1.400055
-0.142810
-0.891176
-0.554282
1.494215
-1.296129
1.125422
-0.587363
1.064313
-1.398339
0.410839
1.607394
-0.275470
0.185978
-1.070925
0.910153
0.055762
0.111520
0.489575
1.269902
0.573714
-0.403377
-1.593967
1.261987
1.011418
0.152883
0.899935
-0.307125
1.198906
1.746467
1.237459
-0.761853
0.799665
-0.257929
-0.339211
-0.284208
0.799717
2.459621
-1.053803
1.712721
0.261605
1.439033
0.937904
0.313425
0.521598
0.521995
2.080333
0.122951
1.026244
-1.436470
-0.621698
1.629158
0.643036
0.234293
0.381679
-1.553531
0.183951
0.395390
-1.222561
0.856167
-0.228782
-1.077934
0.754860
-1.942775
-0.278596
-0.788546
-0.077070
0.222623
-0.229269
-0.290470
-0.339913
1.765968
0.523219
1.609417
-1.239958
0.579711
0.571580
-0.178676
0.139704
0.247172
-0.951597
-0.906735
0.024700
-1.414014
0.406618
0.420409
-0.493246
0.177932
1.677350
1.667347
0.239737
-0.215781
-0.341759
-0.926073
1.248303
-0.561152
-0.380125
2.443131
0.132855
1.079030
0.945757
2.172980
-0.828632
1.484481
-0.187942
1.522590
1.233612
0.239991
-0.592840
-0.166143
0.558640
0.950087
0.991327
1.033804
-1.177091
-0.387424
0.058949
-0.682393
1.908505
-1.607184
-0.360656
1.393006
0.994337
0.229806
0.722799
-2.383238
0.668103
-0.120676
-1.392859
-1.524044
1.839983
0.018197
1.679995
1.301481
0.367047
-0.323116
-0.344919
-0.829387
-1.060101
0.678924
-0.106080
-1.092290
0.033286
-1.044284
-1.130983
0.400182
-0.216066
1.044772
0.076669
0.034676
-0.479691
-1.384936
1.278399
-1.011406
0.550419
-0.977314
0.396840
0.579928
-0.013781
-1.985408
0.879939
-0.412899
0.649830
-0.495727
-1.406442
-0.186401
-0.173098
-0.647160
1.364080
-1.877781
-1.008239
1.641764
0.524713
-1.677688
-0.803247
0.048183
-0.330636
0.298430
-0.073274
0.045436
0.252984
0.723983
-0.284294
-0.280914
-0.208578
0.369791
-0.774271
-0.022004
-0.792956
0.462980
-0.589068
-1.182447
-0.372361
-1.131718
1.092293
-0.346482
-1.757977
-0.573471
0.402943
0.964189
-0.502729
-0.498155
1.123475
0.471091
-0.689485
0.973457
-1.313575
0.654994
0.418262
2.051694
0.890432
0.340483
1.027375
-0.897053
-0.066195
-1.724148
-1.138125
0.415254
-0.874086
-0.988456
-0.179870
-0.226487
-0.693117
1.491961
1.282807
-0.504025
-0.724772
-1.038956
-0.041275
-0.144727
-0.664187
0.478544
0.443375
1.661374
0.522713
0.388889
-0.281242
-0.311569
-0.040125
2.425236
2.201470
