1.341440
0.579408
2.660988
-0.999163
0.909033
-0.254358
-0.217317
0.053234
-0.691060
0.835846
0.287744
0.368565
0.641998
-0.260457
-0.295702
-1.425304
2.321189
0.210637
1.311950
2.030535
-0.579163
0.033064
0.548820
1.035652
-0.017659
0.617845
-0.902211
1.260335
0.385947
0.555050
-0.193434
0.078320
-0.874333
-0.273731
0.580079
0.304471
-0.019888
0.406822
-2.421428
-1.664539
-1.549966
-2.289347
1.370987
0.297259
1.356917
-1.069163
0.638995
1.888919
-0.538304
1.307556
-0.539706
-0.857516
-0.950339
-0.258809
0.400104
-1.838307
0.332764
0.986493
1.060474
-0.755899
0.372386
-0.908907
-0.146188
-1.343410
0.496371
0.069412
0.519382
-0.799689
-1.309077
0.124283
1.964015
0.680840
0.351175
0.786233
0.861259
-0.187608
-0.246229
0.937724
1.783635
0.925234
0.201138
0.907948
-0.836328
-1.164905
-2.481516
0.330373
0.977987
-2.784498
-0.728791
-1.037288
-0.470154
-0.407531
-0.461839
0.373984
0.253868
1.069770
-0.724235
1.117268
2.092340
-0.069906
-0.715399
-1.307912
1.025410
0.231589
1.138818
-0.502845
0.059682
-0.578781
-0.363117
0.120870
1.175178
-0.435053
-0.443327
0.017275
0.540675
0.756896
-0.781478
1.062383
0.468331
0.481643
0.846500
-0.963514
-1.605132
-0.172868
-1.887643
1.147075
1.286039
-0.643275
0.446399
-0.119257
0.649115
1.741308
-0.044452
-0.551302
0.716409
-0.697756
1.279595
-0.670382
-0.251333
-1.761373
-1.430856
-1.795948
-1.014928
-0.167444
2.480624
1.441555
1.161198
0.711901
0.607520
1.256268
-1.162585
0.857460
-1.045881
-0.727494
0.528313
-0.202687
-0.224880
-0.548596
0.212018
-0.786763
-0.135712
1.247834
-0.133450
0.008480
-1.899739
1.322176
-0.048152
0.222170
0.446690
1.145327
-0.345194
1.250255
2.167680
0.627593
-1.856462
0.639472
0.476306
0.932549
-0.071028
-0.386130
0.024309
-0.719656
-0.588009
-0.387443
0.991176
1.390648
0.096787
0.487381
1.798128
0.844552
1.228398
0.270260
0.002674
0.742760
0.866480
-1.006908
0.631075
-0.101849
0.042147
0.540552
-0.406370
-0.368275
1.321606
-0.394123
-0.094140
1.244456
-0.901746
-1.130476
-0.188653
-1.495175
-0.578065
2.317919
1.183632
-0.345904
-0.159527
0.569363
0.197245
-1.557430
0.705645
1.577012
0.783420
-0.024805
-0.194221
-0.692970
1.651863
1.247087
-0.659470
0.067640
1.374952
0.117321
-0.348495
1.208362
0.291565
-0.288729
-0.460603
-0.346964
0.597885
1.076970
-0.795429
0.956459
0.347894
-0.067479
-0.691211
-1.835556
2.247046
0.060237
-2.138310
-0.071903
-0.549630
0.191108
0.246143
-1.526615
-0.350113
0.082930
0.176352
-1.381203
2.316332
-0.389856
-0.167947
-0.772052
-1.004400
0.126156
-0.939440
0.861710
-0.784032
-1.510198
0.112423
0.498059
1.222935
-0.419386
0.262582
0.668743
0.731675
-0.844706
-0.725879
-1.551811
0.059995
-0.009186
-1.118672
0.556774
-0.865700
0.475211
1.144865
-0.880226
0.160066
0.415850
-0.454685
1.504002
-0.288786
-0.754600
-1.300508
-1.681259
-0.771122
-0.942558
0.825224
-0.094318
-1.699783
1.031698
1.105603
-0.538327
-1.287859
-0.583365
1.226105
-0.609397
0.716099
1.178101
0.242190
0.318024
-0.946529
-1.326295
0.352279
0.741252
-0.133491
-0.540105
-0.970265
-0.233651
0.862997
0.242728
-1.753410
-0.219176
-1.337382
-0.959912
-0.149969
-1.400025
2.418179
1.415631
-0.454727
0.266652
3.343823
1.039149
-0.164661
-1.834847
-0.387802
0.963735
0.073486
-1.073656
-0.580060
0.495340
-0.783912
0.723393
0.804323
-0.502767
-0.187225
-0.325875
-0.134809
2.492380
-0.288067
-0.401142
-0.456911
-0.150486
-0.541744
-1.387051
1.423370
-1.011378
-0.969074
-2.657392
-1.069998
0.336708
-1.006646
0.564734
0.996128
0.044937
-2.139778
-0.075411
0.232209
-0.922070
-0.937305
0.729683
-0.432957
1.373153
-1.087804
-0.334210
0.474059
-1.621823
-1.854926
-1.357726
0.896997
1.384632
-0.685563
-1.163727
0.060964
-1.277901
0.339930
1.724803
0.192047
0.570880
0.691373
0.598503
-0.065701
-1.369387
0.767600
1.147252
-0.614056
-0.011714
-0.351046
-0.126973
1.052087
0.968882
1.646455
1.372264
-0.355705
0.676404
-0.282001
-1.337821
0.437267
-0.163173
1.734290
0.648489
0.433601
0.890142
-0.367423
-0.505656
0.602509
0.210795
0.626553
-1.252270
-0.161572
-1.769350
-0.407446
0.905231
-0.287663
0.850760
1.765154
0.931273
-0.172634
-1.070157
0.045229
-1.288526
0.202837
-0.936621
0.086608
-0.728189
-0.030487
-0.775967
0.441634
0.376901
-1.159521
1.079525
2.189714
-1.166737
0.688832
-1.770074
-0.273226
1.166357
1.444066
0.494309
0.681543
-0.201307
-0.186982
2.137041
1.358961
2.026314
-0.931297
0.370106
0.112583
0.033936
0.183802
1.295942
-1.127738
-1.125477
-1.095993
-1.296129
0.973819
0.729477
0.780353
0.122130
-0.682608
0.156081
0.086070
0.217169
-0.014823
0.443552
-0.405949
0.213844
0.842295
1.750811
-0.261113
-0.156328
0.902224
0.471525
-1.158173
-0.532821
0.072550
1.025867
-1.408264
-2.188200
-1.885888
-0.524656
-0.420267
0.479046
-1.381838
-0.171089
0.743524
0.393815
2.448446
0.382959
0.719535
-0.006529
-0.202859
0.261682
-0.285401
-1.568798
-2.179263
0.929420
0.140849
1.516154
-1.135397
-1.019360
-0.254398
0.300723
0.947940
-0.794842
-0.094237
1.845868
-0.205639
0.701182
1.715911
-1.025518
-0.900968
0.507085
0.339831
0.980376
1.497134
0.513625
-1.708221
0.121587
-0.052684
-0.451321
0.367949
-0.902807
-0.787435
-1.252124
0.449597
-0.120959
1.893140
1.230735
-0.321740
-1.821434
0.454933
0.584245
-0.378121
0.450893
0.791043
-1.135468
-0.336746
-0.186623
1.090779
0.565758
-0.573596
1.362632
-0.301528
-0.859215
1.029218
-0.259382
-0.254165
1.240868
-1.030382
1.017001
-0.213288
-0.359630
2.361834
-0.261418
-0.997720
0.914488
0.587582
0.302947
-0.959759
-0.411926
-0.121423
-1.080489
0.675681
0.221445
1.130114
2.014570
0.638857
-0.131958
1.382732
1.951709
-1.551063
0.452837
-0.664083
-0.124221
-2.814465
-0.111832
-1.997155
0.040143
-0.636151
-1.717543
0.749401
-0.493010
1.158167
-0.569929
1.304709
0.049292
0.977361
-0.968704
-1.247047
-0.693178
-2.112777
0.288550
1.677090
-0.201163
-0.867370
-0.128880
-0.020952
0.007671
-1.809962
1.088667
0.219397
1.547313
0.681280
-0.560799
1.769578
0.199802
-0.112202
1.641281
-0.131195
2.162681
-2.063074
-1.309506
0.778944
1.383221
2.255724
-1.032674
-0.396642
0.262215
-0.389330
-1.300711
-0.743110
-0.256406
1.508529
0.466757
1.112463
-0.054323
-0.652517
-0.171004
0.018446
-0.922404
-0.991926
0.325496
0.480773
-0.434485
-0.047293
-0.628306
-0.365783
-1.042371
2.434648
-0.573842
0.997634
1.614529
-1.092584
0.414097
-0.562719
-0.167938
-1.946866
-1.317423
0.349101
0.431178
1.187551
0.615513
-0.511888
-0.783347
0.765349
-2.355680
-0.047871
-1.070747
1.296152
0.802777
-0.013704
-0.453674
0.335298
0.331962
0.476995
-1.187549
-1.616071
-0.331802
-1.034066
0.889282
0.196364
1.235554
0.132370
-0.589412
2.531472
-2.018560
-0.113325
2.679730
1.688498
-1.110164
-1.170730
-0.847373
0.638445
0.861916
0.115416
0.246229
0.594192
1.211213
0.399835
-0.133255
-0.891941
-0.454304
0.865742
0.617325
1.571235
-0.289934
-0.392401
0.285124
0.654967
0.423014
-0.965463
-0.157232
1.127986
0.856311
-1.671113
-0.129502
-0.163703
0.423984
2.091298
-0.074894
-1.051246
-0.912622
-1.053915
0.738441
1.158353
-1.230836
0.987041
-0.024869
1.586189
0.946611
-0.735959
0.530892
1.175560
-0.260922
-0.184502
-0.651907
-0.287086
1.535429
-0.830635
0.830696
1.341456
0.658730
0.829307
-0.863914
-1.046414
-0.394963
-0.948914
-0.952618
-1.274342
-0.409362
-0.992740
1.482060
1.968431
0.044317
-0.116539
1.193760
1.121846
0.600493
-0.073846
-0.654313
-2.359419
-0.342927
-0.815507
1.150961
-0.832144
-0.944403
-2.460162
-0.066366
0.989450
1.400853
-0.897322
0.754796
-0.688565
1.111930
0.150753
-0.367275
1.538989
-0.061139
0.164391
-0.577093
-0.567984
-0.044490
-0.124181
0.147639
1.911070
-0.391077
2.409031
1.488760
-0.668432
-1.032846
1.615985
-0.020655
0.519210
1.162408
0.109684
-0.645809
-0.605402
-0.272962
-0.996105
0.986027
-1.038585
-0.916785
1.712101
0.340365
0.163338
-0.147620
-0.792581
0.002926
0.751643
0.113238
0.386874
-1.323291
0.717711
-0.594559
-0.343557
1.120187
0.007812
1.427692
-0.702509
0.069953
1.746936
1.319651
-1.656850
0.895840
3.651961
-0.535207
0.649998
0.411420
-0.512649
0.082415
0.905647
0.945298
-0.487072
0.373857
0.802040
-0.917267
1.142267
0.757372
0.888658
-0.919509
0.113623
-0.874889
-0.371729
0.936224
-1.413175
-0.474170
-1.107509
-0.342377
-0.593859
1.004297
-0.372770
-0.521747
1.530703
-1.379678
0.856966
0.855627
0.795588
0.741797
-0.196181
1.085270
-1.205469
-1.310516
0.899754
0.541910
-0.929335
-1.305664
-1.238744
1.186095
0.571845
0.283413
0.597569
-0.567705
1.944280
-0.968139
-1.247366
-0.810642
-0.681813
0.731673
0.026633
0.449370
-1.941190
-0.614504
-1.588701
0.519687
2.504819
-0.130868
-0.905061
0.507703
0.344319
-1.296810
0.264989
-0.755353
-1.053133
-0.914656
0.426824
-1.127183
-0.272434
1.063923
0.255366
0.135254
0.271523
0.944960
0.896311
-0.185424
0.048340
1.303989
-0.898701
0.097303
2.125621
0.564289
0.041271
-2.250489
0.509806
-0.804575
0.507827
-0.669052
-0.421142
0.336940
-0.870528
-1.420587
-0.653398
1.250875
0.472634
1.015397
-1.075782
0.113179
-1.510062
0.002075
-1.459670
0.222114
0.470498
0.511864
0.704606
-0.622203
0.091664
-0.047673
-2.131317
-1.814736
-0.069456
1.169496
0.359410
0.487904
-0.484232
-0.509871
-1.680724
1.398059
-1.113359
-0.536900
0.063427
-0.118598
-0.306230
-0.205848
0.497994
-0.751881
-0.179693
2.137698
-0.350457
-0.234426
1.543245
0.501187
-0.826651
-0.714326
-0.510262
-0.936195
-0.273689
0.351112
2.613743
-1.400291
-0.597230
-0.654807
0.352686
0.965176
-1.853079
0.740578
0.144977
0.254816
-0.636408
-0.012126
-1.184904
0.754478
-0.502639
-0.251951
0.051267
0.793905
-1.056151
0.365232
1.010976
-0.433241
1.518505
-0.542059
-1.212955
0.148372
0.500285
1.051561
-0.721075
0.548542
-1.736807
-1.413282
-0.783344
0.117459
-0.722474
-0.687360
0.366897
-0.339799
-0.716657
0.877430
0.235659
1.116848
0.034660
0.368038
1.422972
2.350268
-1.190853
-0.329681
-0.629571
-0.477306
0.230794
0.122428
0.273194
0.308693
1.599074
-1.283460
-1.434930
-1.480149
1.603374
0.509408
-0.410276
1.079349
-0.349464
0.393126
0.031324
-0.584933
-0.388610
0.459669
0.957675
0.638191
0.429151
-0.740387
0.156851
0.488044
-1.288076
-1.521673
-0.061974
0.838428
-1.102921
0.002608
0.292608
0.162521
-0.221306
0.501366
1.032149
-0.222913
0.027959
1.032567
-1.209396
-0.296764
0.092811
-0.855175
0.017469
-0.675789
0.644133
-0.200687
1.915461
0.261983
-0.796441
0.007128
-1.988495
-0.833578
-0.055340
1.094267
-1.331042
0.327636
-0.371378
1.696087
-1.341235
-0.465026
0.129029
0.034969
-1.075747
-0.870641
0.224556
-0.956326
-1.459995
-0.526158
-0.558901
1.517796
2.030403
-1.590011
0.078037
2.562598
-0.404755
-2.215535
0.072879
-0.664105
-0.782576
0.470767
0.539920
-0.739087
0.420899
-0.428412
-1.468948
0.135370
-0.013122
1.275559
0.808934
-1.589784
-0.799180
-1.580832
-0.284003
1.635259
0.947513
-1.690941
-0.149029
-0.220689
-0.097775
-0.321803
1.479136
0.214807
3.269869
-0.707226
0.189622
-1.414108
1.811715
-0.292697
-0.224799
-0.020735
-0.187903
1.135579
0.299440
-0.879009
0.771199
0.193381
0.617799
1.274341
0.597870
1.392464
-1.252052
-1.301501
0.747855
1.014541
-0.539424
1.224064
-0.072089
1.265902
0.556815
1.135544
-0.393232
0.815232
-0.784685
-0.105990
-1.179929
0.579059
0.923074
-2.022674
-1.887056
1.005924
0.408239
-0.823637
-0.507505
-0.927142
-0.169117
0.348571
1.073553
-1.716725
-1.150916
-2.753838
0.080142
2.438618
1.363298
-0.981309
1.266268
-0.092964
0.166215
-1.330248
-0.432065
1.234611
0.016617
-0.588753
1.083772
0.522467
-0.477905
0.501006
1.089276
-1.021729
0.035397
1.203705
0.327878
-1.213835
-1.293478
-1.029844
0.017091
0.300068
-0.827740
-2.025118
-0.409959
0.274731
0.179613
1.689707
-0.941510
-1.739420
-1.937928
-0.716135
0.580308
-0.331212
-2.374978
1.110548
1.046306
0.654099
-0.794297
-0.317883
-0.904207
-0.465823
-0.286075
-1.506138
-0.086706
0.130429
-0.003529
-0.614641
-1.053063
-0.281630
2.871420
0.706307
0.587037
1.239966
0.539986
-0.144497
-0.539931
-0.414596
0.020480
-0.459054
0.021288
0.576671
1.650284
-1.349754
-0.377592
0.553864
0.492135
-0.109535
-0.090530
0.771279
0.385189
-0.108167
-0.788278
-1.559484
-0.245603
0.134315
-0.934639
-0.942448
0.602341
-1.493198
-0.892482
-1.053246
-0.108392
0.253343
-0.526770
-0.411437
1.761384
-1.225944
0.309303
-0.287523
-0.312012
0.448075
0.848528
-2.223990
0.225731
-1.873400
0.264843
0.124378
-0.141474
-0.973579
1.555199
-0.523066
-0.247449
1.942459
-0.013046
0.304096
1.555326
-0.394666
-0.573064
-0.987496
-0.573345
-1.932994
-0.430237
-0.226937
0.212090
0.472391
0.126973
0.752606
1.081918
-1.676585
1.210237
0.793994
-0.846825
0.778413
-1.692839
-0.325647
0.504219
0.010145
-0.001481
-0.587377
-0.383630
-2.115935
0.776698
-0.418047
-0.049679
-0.738053
0.833956
0.362655
-0.947543
-0.783695
-0.425095
-0.048614
0.302516
0.100872
-0.478463
-1.045366
0.404509
0.832133
-1.361979
-0.692745
0.437867
-0.616150
0.474103
-0.468756
0.529823
-0.026057
0.225706
0.181806
-0.242361
-0.255486
-0.883977
0.895286
-0.903087
1.071911
-0.522993
1.883091
-0.317352
2.289503
-0.273602
1.541814
-1.012105
-0.468919
0.587705
2.852481
-1.228637
-0.083699
1.456817
0.904340
-0.739624
-1.519159
0.182414
0.332775
-0.295805
2.198475
-2.498326
-0.499879
0.715032
-0.621407
0.579629
-0.429358
-0.560557
-0.390020
0.363773
0.025186
1.101890
-0.100874
-2.792650
1.377846
-0.137014
-0.989864
2.075732
0.014436
0.035292
-1.398974
2.337359
-0.985581
0.521604
-1.286232
-1.318313
-0.068781
-0.814423
0.287611
-0.326905
0.595203
0.688980
0.237571
-1.066987
-1.153600
1.165662
1.695854
-0.514955
1.143909
-1.569163
-1.062454
-0.821944
-0.749151
-0.482570
-0.221013
-0.211196
1.465553
1.152090
2.806164
-1.446138
1.517388
1.886618
0.650240
0.304853
-0.054047
1.248998
0.391561
-1.015531
-0.085363
0.910919
-0.063406
0.469749
-0.247807
1.460789
-0.472233
1.460950
1.608882
-0.596261
-1.518234
-0.274579
1.216792
-0.717263
0.140730
0.803137
-0.829881
-0.779478
-1.751582
-1.148128
0.925700
-1.866093
1.252241
-1.663450
0.001018
0.613918
-0.332019
0.482402
-0.390977
-0.329650
-1.301634
2.218493
0.183176
1.348879
0.213425
-1.520362
0.422035
0.125227
1.381221
1.444754
-1.185578
2.057259
0.271495
1.507782
0.374313
-0.893434
0.822858
1.854585
-0.863584
-0.360168
1.699166
1.045162
-0.501797
0.480982
-1.449744
0.125270
0.724234
0.077655
-1.104885
1.056680
-0.471990
-0.177490
-0.944712
2.398339
-1.060801
0.318401
0.902422
-1.068626
-0.426449
-0.925577
0.406999
-1.266438
0.351292
1.026493
-0.600442
-0.436386
-0.358507
-0.309919
-0.063646
-0.086263
-1.001641
-0.794570
0.671691
-0.798606
1.222925
0.112031
1.409595
-0.109862
-0.160711
-0.621872
1.506019
-1.492575
-0.824046
-0.886836
0.401848
0.607027
-0.666512
0.135865
1.642422
-0.607605
-0.682006
0.557042
0.664908
-1.416270
-0.610092
-0.483313
-1.159475
0.616193
2.003968
0.590870
-0.968089
-1.469046
0.396909
1.496597
-2.104041
-1.738503
-2.553173
1.281556
-1.599083
-2.557650
-1.320869
-0.911791
0.168810
0.370151
-0.380483
0.311045
0.323669
-0.317125
1.006612
0.119171
1.481490
2.540633
0.010902
-0.050334
-0.693648
1.129191
-1.381951
0.560877
1.607815
-1.958840
-0.190252
0.888038
0.209886
-0.066050
1.586072
0.032810
1.112791
0.627541
-1.113407
-0.955899
0.514411
0.451350
1.242424
-1.117249
1.254465
0.824266
-1.001152
1.211295
0.317094
1.264591
-0.175487
0.124323
0.282407
0.324765
-0.714502
-0.910065
-0.047139
0.170057
-2.246831
-0.293200
0.159537
-0.130808
-0.350434
-0.868207
-0.028351
0.266648
0.260229
-1.081212
-2.070701
0.102490
0.792503
0.486154
2.358824
-1.221971
0.635920
0.725920
-0.586913
-0.906036
1.714066
0.984776
0.422687
-0.927351
-0.206602
0.614008
0.325047
-0.497008
-0.608478
-1.224264
-2.095073
-0.457392
-0.550488
0.095708
1.667381
-0.730650
-2.058982
0.363238
-0.591381
-0.119734
-0.730160
0.198588
-1.356582
0.834331
0.424497
-0.201009
1.037748
0.857965
-1.579808
0.753601
-0.527628
-0.227127
-0.609754
0.689899
-1.001843
0.699182
0.543843
1.221990
-1.227065
0.561919
1.038683
0.779501
-0.166675
-0.194659
1.210952
-0.902614
-0.509654
-0.025603
-0.826843
1.059600
-0.753907
-0.687678
-1.837309
-0.472080
1.370022
-0.454753
-0.263971
0.441102
-0.445908
1.379452
1.602842
-0.397981
0.422449
0.055889
-1.269052
0.353315
0.299442
0.194963
0.380837
-0.891684
0.813106
-2.333097
-1.550864
-1.012228
-0.109345
0.524842
-0.030289
0.447088
-0.155149
-0.722497
0.914631
-0.733555
1.589911
-0.137523
0.188399
0.651348
-0.754685
-0.470308
-0.526680
-0.300174
-2.087347
0.341149
1.211905
-1.096451
1.050093
-2.660542
-0.215206
0.089177
-1.241087
-1.105136
0.490090
-1.229038
-0.764994
2.025705
-0.543893
-1.156182
1.000749
-0.079956
0.475128
0.846388
0.146382
0.031543
-0.118100
-0.001439
-1.064217
0.692813
0.201576
-0.696872
-0.897090
0.611779
-0.444481
-1.560054
0.038919
0.025135
-1.069969
1.824350
0.717595
-0.395847
0.285580
-0.405953
-2.164054
-0.996719
-0.918785
-1.242573
0.232723
-0.197509
1.744269
0.898508
1.107188
0.726578
-1.316189
1.675232
1.149604
1.026023
0.271883
0.115920
0.784150
0.645325
-0.331577
0.453203
0.731483
0.444357
-0.108145
0.536837
-1.515131
0.008267
-0.662334
-1.541255
-0.875954
-0.731668
0.954188
1.278460
-1.036908
0.148059
0.023866
0.561654
-1.022670
-0.926869
0.479819
0.826387
-0.046831
-0.057537
-1.148105
0.059810
1.291113
-2.866885
0.541501
-0.511117
0.438767
-1.990966
0.874526
0.758683
0.069894
-0.941160
-0.281047
-0.575512
-1.329750
1.959669
-0.617736
-0.242689
-0.700604
-1.055641
-1.638294
0.454235
-0.030591
-0.408871
-0.336248
-0.644592
-2.184731
0.067302
-0.899940
-1.693857
-1.215911
-0.222648
-1.621457
0.752891
-1.415772
1.344286
0.456350
-0.754282
0.921096
-0.725422
-0.298848
0.051862
-0.268429
0.446484
-0.091384
1.216582
0.836787
2.702386
-0.313926
2.037670
0.048997
-0.518032
0.174104
1.296067
0.256535
-0.394255
0.744709
-0.084533
0.245108
-1.875339
1.175165
-1.288333
-0.213491
0.392846
1.280578
1.047009
-0.656594
-0.024681
-0.005372
-0.847971
0.081888
1.254402
-1.135864
1.355485
-1.132853
-0.012914
0.261864
-1.032402
-0.847927
0.728435
-0.515534
-0.010000
0.458274
-0.217634
1.226087
0.240833
-1.035061
1.760114
-1.858963
0.045443
0.575669
1.127413
-0.225850
-0.836977
2.182759
0.118873
0.251486
0.052104
-0.386494
0.242917
0.792177
1.295135
0.055677
0.038342
0.156251
1.498321
-3.691257
0.563637
-0.255146
0.994667
-1.888029
-0.410893
0.682424
0.854746
-1.339989
-2.546600
0.300525
-0.284512
-1.273255
-1.114949
-1.232217
0.516530
0.377325
1.538441
0.172946
0.253754
1.292664
0.342548
0.999703
0.255339
0.375323
-1.086644
0.325959
1.219653
-0.040204
2.403888
-0.321828
-0.127816
0.608032
1.078716
0.157076
-0.963833
2.147362
0.449066
0.720279
-1.648450
0.904609
0.564401
-0.956882
1.314567
0.928396
-2.016333
-0.633907
2.565788
1.024840
0.976027
-1.109344
0.391285
1.705851
1.805639
-0.763117
-0.408244
0.020622
-1.186606
0.476195
-0.325671
-0.242887
2.386149
-0.452956
0.402162
1.041646
1.283888
-0.088546
-0.687013
1.394167
1.192239
1.640738
-0.158567
0.967193
-1.127976
0.914237
-1.433076
-2.421243
0.177588
-2.094513
0.300308
0.037228
-1.493026
0.533767
0.418952
-0.490785
-1.055433
0.894767
1.958636
-0.343031
-0.767693
0.432516
0.847505
0.389800
-1.130868
-1.835960
0.658750
1.165785
-0.217114
0.857344
1.900819
0.721710
-1.517120
-0.851056
1.022707
0.668381
-0.668202
-1.002112
0.597824
0.130807
-0.249422
0.059901
-0.799953
-0.459711
1.452644
-0.931469
-1.022146
-0.231570
1.746192
-0.315450
-1.374352
0.793396
-0.116438
1.656583
0.899230
-0.912741
-0.083635
0.399712
-0.779341
0.758849
1.487545
3.346656
0.052397
0.786898
-1.742494
-0.093269
-0.431548
-0.629344
-0.153630
1.006380
-0.808732
0.914487
-1.430924
0.913670
-1.222652
-1.686671
-0.230226
0.829604
0.907211
-0.373261
0.198966
1.428752
-2.197380
1.825338
-1.407117
0.429749
0.301197
0.176900
-0.591070
0.233541
-0.415211
0.850214
1.159756
-0.968914
0.607065
-0.078608
-0.674705
-0.740386
0.680130
-0.141117
1.133038
0.040271
0.172291
0.731861
-1.713422
-0.984752
1.071164
-1.056946
-0.781898
-1.031009
0.334183
-0.471246
-0.814791
-0.093181
0.652902
0.780748
0.174459
-1.383206
-0.846449
-0.945678
-0.907721
0.220133
2.065934
-0.402309
0.033596
0.425422
-1.253366
2.478278
-0.491259
0.651780
1.089428
-0.017630
-1.501910
-0.696887
0.074915
0.138527
-1.003940
1.073513
0.905726
-0.050084
-0.095772
-0.025753
-0.210336
0.567082
-0.973388
1.197163
-0.325475
-0.692236
-0.078598
0.514135
-0.500529
1.136436
0.168841
-0.951263
-0.465125
1.370238
-0.072329
0.296551
-1.418049
-0.642657
-1.170385
0.180757
1.320760
-0.941609
-0.150963
0.399495
-0.321388
1.342185
-0.219745
-0.817388
0.493008
1.747409
-0.469058
1.322505
-1.255686
-0.964843
0.662765
-2.504861
0.559583
0.352902
1.636797
-0.554226
0.239252
1.837010
0.377685
-0.512778
0.306262
2.307568
1.045057
1.902326
-1.103423
0.572457
0.054758
0.494596
0.319938
1.199467
0.042034
0.209313
-1.478689
0.075096
0.385003
0.020142
0.429715
-0.851211
1.134340
-2.491236
1.667150
-1.011340
0.298624
-0.958717
-1.590530
-1.297369
-2.103035
-0.900798
0.344814
-0.315728
0.282643
-0.444666
-1.164998
-0.053868
-1.282712
-1.822840
-0.197843
1.286423
0.149975
-1.452892
0.643925
-0.258639
0.098921
0.436789
1.632006
-0.049047
-0.769007
-1.876868
-0.884295
-0.317028
-0.707180
-0.508421
-0.338831
-0.272463
1.345174
1.425862
-1.465178
1.172128
0.982740
-1.368852
-0.452105
0.175048
0.617419
0.301564
-1.552664
1.049383
0.313570
1.233680
-1.304052
0.820048
-2.229124
2.015232
0.591306
0.623280
0.317970
-0.337300
0.343469
0.434258
-0.961725
1.035555
-0.603921
-0.160055
-0.521363
-1.465471
0.693682
1.922855
-0.842466
-0.056105
0.382635
0.199386
0.447165
0.209490
0.179649
-1.566580
1.003127
-1.129157
1.287440
0.063502
1.682079
-0.590386
2.456460
-0.969709
0.159665
1.635445
0.685044
0.105355
-0.710179
-0.556799
-0.840431
1.327731
-0.573006
0.052575
-1.537381
0.845914
-0.491028
-0.639586
-0.325708
-0.086066
0.079259
0.321861
-1.876403
1.236532
-0.762196
1.308439
-0.614902
-1.142935
1.627436
-0.358418
-0.778292
0.855376
-0.786065
1.327432
-0.443964
-0.110805
0.020193
1.885101
-1.088600
-3.036596
0.098339
-0.907230
-0.206812
0.350998
-0.750684
0.588536
0.243291
0.382721
0.765357
-0.838043
0.681093
-0.971637
-1.188096
-0.560237
0.742917
0.134274
1.371358
0.610663
0.689572
-1.998029
0.861258
-1.301472
-1.608197
0.207744
0.783497
-0.277496
0.997277
-0.482176
-2.429887
-0.897294
-0.117506
1.319767
-0.175588
1.225471
-0.604798
0.723260
1.326593
-1.668363
-0.373402
0.490499
-0.216241
1.132701
0.523797
-0.932373
0.147162
1.309809
0.512271
-0.961426
1.128324
-0.857529
-0.870633
-2.210566
-0.449393
0.160031
0.917289
0.864233
-0.843729
1.085374
-0.102095
0.071810
-1.698072
-0.791161
0.091812
0.104157
-1.054220
0.629676
-0.768785
0.688801
-0.704864
0.033413
-0.474878
0.295953
0.586396
-1.125933
-0.829726
1.355258
-0.773607
-1.368149
-1.045166
1.934831
-1.257114
0.970955
0.156355
0.458073
1.639155
-1.600596
0.883717
-1.144733
-0.506651
0.310770
-0.037698
2.376026
0.978244
-0.010555
-0.494112
-1.109854
-2.439515
-0.159800
0.394432
1.227577
0.610230
-1.157939
1.216878
-0.569396
-1.233552
-1.873610
0.947015
0.158601
1.722056
0.448851
-0.603179
-0.617106
0.280881
-1.130587
-1.397521
-1.179672
0.470606
1.217131
-2.284607
0.550844
-0.795566
-0.216944
-0.744229
1.385932
1.165859
-0.395222
-0.772138
-1.247716
-1.699004
0.381923
-0.359277
0.756181
-0.905527
-0.090304
0.175199
-1.582872
0.783573
-1.771422
-0.224740
0.620986
1.013194
1.596934
-0.163944
0.595757
1.392017
-0.093085
-0.822262
-0.074451
-0.122403
-0.107014
0.109825
0.912609
-1.694686
-0.253882
-0.938091
-0.665075
0.453450
-1.637070
-0.222261
1.259103
-1.353596
-0.791260
0.673639
0.815576
0.921921
0.086439
-0.087276
-1.595203
-1.487968
0.778799
-0.399319
-0.116186
-0.940319
1.279718
1.104235
-1.607186
-0.296607
-0.637132
2.454584
1.386087
-1.076625
1.499511
-0.511452
-0.520362
-0.089627
-0.206120
-0.480504
0.952648
-0.678282
2.043949
-0.951439
0.590453
-1.032982
1.700770
-0.630981
-1.062675
-0.599208
-0.272101
0.687520
-0.024877
1.287022
-0.705537
0.843943
-0.179301
0.469785
0.170504
-0.500471
-0.985357
0.674054
0.423418
-1.144715
-1.240180
1.688182
-0.371247
0.425508
0.492303
-0.214609
-1.098347
0.181995
-0.579772
0.062077
-0.100061
-1.469528
-0.416713
-1.135777
1.729306
1.498802
1.092389
-0.148533
-0.202839
-0.489925
1.634962
2.302707
1.081990
-0.337201
2.384511
-1.308338
0.583505
-0.382755
0.962557
-0.891733
-1.152069
-0.571563
0.365764
0.140234
0.246384
0.416323
-1.752319
0.222284
-0.418416
-0.338152
-0.730205
-0.265043
0.637645
-0.129443
0.292147
-2.240681
-1.370104
0.164372
1.371977
0.269405
0.227829
-1.026910
-2.903651
-2.223629
-0.491167
-0.292146
0.168997
-0.167396
-1.188031
-1.563719
-1.201238
-1.732461
1.230028
0.863391
0.518867
-0.136539
0.846198
0.272522
-0.208170
-0.769891
-1.869309
-0.438776
0.495918
-0.395900
-0.523442
-0.134192
-0.983902
1.345083
-0.044598
0.975594
-0.939346
-0.924714
-1.466082
-1.296616
1.316768
-0.163749
-0.531489
-1.190011
-0.253078
0.211949
-1.527469
0.468408
1.379609
0.708583
0.239304
-0.270597
1.486502
-1.186959
0.572947
1.635302
0.973608
0.546480
-0.459013
1.412361
0.115843
0.370151
0.313891
-0.324416
-0.314267
1.063649
-0.754971
-0.387825
0.683885
0.495413
-0.781777
2.183974
0.186148
-1.304337
0.446031
1.234714
-2.014744
0.473117
0.844334
-0.581509
1.061472
-0.337741
1.592727
0.588231
0.803606
-1.501920
-0.040033
-0.476682
-0.279403
0.605616
-1.472303
0.076863
-1.339817
-0.446602
0.649099
1.087459
-0.557754
1.028406
1.228548
-0.129809
0.077592
-0.346031
1.542039
0.589325
-1.305730
-0.203111
0.657284
-0.514374
-0.335094
0.697829
0.948908
-1.469934
0.343178
-0.694372
-1.442546
1.138150
0.337848
0.240913
-0.505502
-1.606994
-0.174219
0.155320
-0.963969
0.877323
0.416653
-0.627660
-0.175595
1.506475
-0.031363
-0.539887
0.496775
-1.478860
-1.283496
-1.004941
-0.041423
0.788828
-0.736180
0.045957
0.672291
-0.461042
0.185071
2.076080
-0.192662
1.688763
-0.803089
1.622079
-0.992282
0.322995
-0.754276
-0.105269
-0.542442
-0.205463
1.178385
-0.680822
0.940011
0.502257
-0.082871
-0.800930
1.614788
1.371953
-0.881838
0.473996
0.376758
0.946110
-0.102535
-0.110106
-1.485378
0.702306
1.397640
-1.314449
0.997397
-0.706651
0.053178
-0.773089
-0.458110
-1.236735
-0.138494
0.436411
0.326959
0.792980
0.050496
1.397427
0.239511
-0.674609
-0.424412
2.020530
0.258585
1.320914
-2.140487
-0.026379
-0.039267
-0.042115
0.664859
0.101257
0.967908
-0.484240
0.027702
0.888328
-0.382100
0.930261
1.085605
1.339428
0.247715
-0.697716
-0.148969
-0.628448
-1.425445
-2.231612
-1.457233
-0.096408
-0.393189
1.117078
-0.456350
-1.524476
-0.389671
0.059630
-0.060183
-0.146863
-1.515373
-1.240961
1.093282
0.366194
-0.507175
-0.452588
1.715286
-0.083436
0.225038
-0.223129
-0.269919
0.212343
0.995440
-0.850632
-1.883693
-0.629242
-0.508350
-0.684677
-1.616488
0.657388
-0.046251
0.181637
-0.417313
-0.500404
-1.459425
0.091211
0.181964
0.025783
-0.106230
-0.116850
-0.054386
-1.525425
-1.413880
0.070845
-0.038116
-0.903900
-2.052793
1.030812
2.142196
-0.369817
0.684412
0.428349
2.749740
1.257063
-0.352666
-0.378688
-0.605225
-0.246344
0.813216
0.636800
0.404100
-0.391938
0.429133
0.268142
1.039403
-0.505011
-0.648707
1.043054
1.699492
-0.977157
-0.976458
1.235088
-0.906587
-0.582385
-1.399162
0.117728
1.002747
-0.137906
-0.524229
-1.591477
-0.510739
1.279307
-0.581312
2.552589
-1.863890
0.624581
-2.274911
-1.865495
0.410738
0.379454
-0.319933
0.803082
-0.338623
1.917910
-0.755224
0.541218
-1.228801
0.100454
-0.946232
-1.009370
-0.368289
1.267763
1.117730
0.602956
1.072097
-0.175739
-0.122422
-0.403752
1.529496
0.221662
-0.837480
-0.102454
-1.492831
-0.979212
1.474267
-0.996738
-1.124265
1.328144
1.903394
0.485259
-0.401910
-1.410758
0.720861
-0.724569
1.023692
0.327663
0.382308
-0.209466
-0.574911
1.232504
-2.707635
-0.820251
3.080037
-1.247310
-0.804435
-1.542369
-0.001649
-0.647369
0.560631
-0.383951
0.520595
-0.677701
-0.468220
-1.127532
-1.004082
-0.587253
0.054706
0.097500
-0.540114
-0.674362
-0.595584
-0.062909
0.942014
0.653034
-0.164014
1.876213
0.636229
-0.347142
-1.910935
1.789758
-0.257588
-1.061043
0.231033
1.114229
-1.375753
-1.335886
-1.651135
-1.316204
1.733961
0.069092
-2.165974
-1.351690
0.517362
-0.103004
-0.513625
-0.323619
-0.033109
-0.150504
-1.078374
0.521537
0.690848
-1.217937
-0.572976
-0.381408
0.293362
0.687175
2.713339
0.351405
0.174573
0.477825
-1.594992
1.526067
-0.934860
1.031999
-0.070964
-0.835901
1.577727
0.238641
-1.105996
-0.485738
-0.521471
-1.488061
0.918930
0.673337
0.317941
-0.035787
-0.474008
0.674083
0.984839
-0.075749
1.453894
-1.492920
-1.386154
-0.071967
-0.942636
0.341935
-0.772152
0.638858
-0.411945
-0.149533
-1.343928
1.798735
0.755544
-0.688998
-0.055761
-0.719775
-0.113872
-0.142072
-0.056462
-1.423701
-0.318987
-1.035728
0.615422
-0.727388
0.620801
2.362283
1.290027
0.365619
-0.161249
-0.275451
-0.433067
0.427774
0.135506
-0.746121
0.472371
-0.871239
1.243056
-1.118666
0.057635
-0.204515
1.994556
0.567258
-1.225213
1.275933
0.613401
0.914829
-1.558692
1.718115
-1.183092
0.556303
0.350909
0.513550
1.249087
1.315346
0.010202
0.956833
0.553197
0.766134
-0.708340
2.012605
-1.492667
-0.682806
0.040771
0.600397
-0.776536
-0.614075
1.779223
0.025591
0.929523
0.504267
-0.328759
1.096233
-1.467900
0.897265
-1.167404
-0.220241
0.370791
1.009228
0.669079
-0.911840
-0.021628
-0.617993
0.780500
0.233271
0.057216
-0.298694
0.246431
-0.050930
-0.341491
0.183277
-0.360057
-1.118969
1.452455
1.182901
-0.248184
-0.126795
0.839906
-0.848863
-0.244204
-0.423425
-0.732464
0.111671
-1.734256
-0.772395
0.784818
-0.483097
0.237833
1.190573
0.143318
-0.053751
-0.548580
-1.062939
-1.313348
1.681468
-0.425942
0.549853
-1.047052
0.527771
-1.374061
-0.146462
0.269153
-2.590363
0.617830
1.162455
-0.748364
-0.419386
0.313581
0.184322
-2.211129
-1.308432
-1.881503
-1.244137
0.559545
0.687314
0.548373
-0.785992
-0.970019
-0.080391
-1.180382
-0.020838
-0.175102
-0.388734
1.312349
0.376600
0.582928
-0.802039
0.837845
-0.338395
1.363863
0.613590
-0.202279
1.597190
0.895445
-1.946588
0.614811
0.698705
0.637303
-1.624015
-0.451035
-2.248372
-2.303005
1.010044
-0.361138
0.018477
-1.359539
1.387784
-0.161217
-0.065633
1.996641
0.449414
-0.872738
-1.385158
-1.106010
-0.729216
0.777331
0.333516
-1.989882
0.715314
-0.289111
0.788612
-0.206274
1.480474
-0.608236
0.337004
-0.923303
0.405031
-0.472412
-0.948057
-0.734686
-1.968869
0.333921
0.689456
0.987196
0.315888
-0.217159
0.511071
-0.043326
-0.583905
-0.144854
1.612126
-0.552751
-1.285139
-1.207796
0.237143
-1.575564
0.649820
-0.964904
2.635330
1.049630
-0.857157
-0.429377
-0.034624
0.949526
2.486708
-1.195634
0.954140
-0.081673
-2.435602
0.748778
-1.909313
-0.214945
-0.313363
0.514262
0.175581
-0.198438
0.512480
-0.210664
-1.147043
-0.565528
0.076872
0.057371
0.676320
-0.017662
0.206906
-0.796591
-0.028860
-0.237134
-1.063255
1.086100
0.330816
0.860757
0.030784
-0.094936
0.800632
-0.253444
0.915074
1.759358
1.833612
-1.073256
2.340669
0.596727
-0.866082
0.505424
-1.109924
-1.297749
0.354129
-0.088737
-0.991649
0.311075
0.893484
0.177405
-0.302723
1.366902
-1.214712
0.435692
-0.454794
0.581180
-1.042334
0.012087
1.061945
0.795756
-0.265899
1.205684
0.436337
1.401520
0.190780
0.129406
0.719638
-0.765123
-0.719612
-1.629816
-0.870539
-1.588117
0.100480
-0.211906
-0.951126
-0.837427
1.032950
-0.280824
-0.441627
0.580599
1.706484
1.562846
0.330110
-2.111923
0.337902
1.250338
0.846490
0.454093
1.252378
-0.674672
0.119988
1.024242
-1.145110
-0.659881
0.273316
-0.937841
0.785087
-1.418859
-1.000095
-0.660851
-0.365836
-0.767342
1.144209
-0.737157
-0.857081
0.076543
-0.298114
0.265068
-1.844301
1.110796
0.132414
0.649994
0.100697
0.817931
-0.995542
0.000961
0.413163
2.238495
0.774835
-0.524788
-0.165394
-1.014769
-1.093411
-0.751531
0.721886
0.619476
0.418793
-0.225313
-0.059379
-1.081315
0.097236
-1.863484
1.129224
-0.682771
-0.160585
-1.191555
-0.236794
-0.229798
-1.460978
0.797515
-0.124252
0.818164
1.189689
0.172439
1.088603
-0.050161
0.342635
-0.394109
-1.426995
0.060557
0.658193
-0.439652
-0.162517
-2.034050
1.211998
1.522688
-1.163839
-0.239037
-0.658887
1.892221
-0.110796
-2.058695
-0.086773
0.862411
-0.138160
-0.678979
0.096936
-2.504292
-0.209979
-0.149633
0.393114
-0.762723
1.441048
2.703530
-1.036526
-0.290127
0.252002
1.619934
2.375164
0.257696
0.431668
0.229394
0.661928
-0.204016
-1.062824
0.253960
1.205051
-1.392958
0.112755
0.452344
0.363666
0.378583
-0.373020
0.409778
-0.116157
0.851396
0.046618
0.234895
-0.448410
1.195352
-0.866951
-0.428711
-0.063385
2.081023
-1.004290
-1.024680
-0.350822
1.722998
1.768598
0.583467
-0.085390
-0.568091
-0.122801
0.235908
0.226819
-1.210596
0.049098
-0.213615
-1.619911
-0.679267
-1.952441
-1.429158
0.523230
-0.233186
1.741936
0.413316
1.617231
-1.318719
-0.192046
2.365965
1.340467
-0.375633
-0.323879
-0.406679
-0.326728
-1.503564
0.486449
-1.141823
0.597964
-0.255163
-1.888689
0.879699
0.516277
1.360813
0.391708
1.839116
-0.772483
0.419170
0.424309
0.285003
-1.056739
0.245467
0.847054
0.082751
0.373584
0.572396
-0.012049
1.740067
0.930494
-2.479904
-0.998487
-1.707337
-1.289264
1.613559
-0.570598
0.474812
-0.549165
-2.030028
0.667350
-0.092033
0.578993
1.219473
2.210022
-0.058440
0.840919
-0.682774
0.208887
0.990844
-1.966124
-1.752576
-0.776656
-0.096832
0.036887
3.072877
0.829647
0.767926
-2.325502
0.838844
-0.367793
0.631442
-0.207537
-1.454070
1.248921
1.992646
-1.269791
0.613483
-0.165834
0.786501
-0.982323
0.483699
0.438123
0.311668
2.353191
0.928696
0.355057
-0.694092
-0.675512
-1.061805
0.243445
-0.610211
-0.745416
-0.919551
-1.202083
0.758062
2.208380
-0.035134
1.016780
0.179560
-0.216722
0.731342
0.935233
0.974503
0.180685
1.164821
1.089964
-0.801749
0.679581
-0.620402
0.332442
0.539107
-0.371987
-0.965723
-2.039070
1.904156
-0.400188
0.281828
-0.210268
-0.873953
-0.371785
0.038937
-0.084951
2.379081
1.404387
-0.264702
0.962865
-0.734517
0.536557
-0.753106
-0.834920
0.733036
-0.920128
-0.157981
0.931396
0.677302
0.162187
-1.167102
-0.904178
1.625801
-1.467435
0.120016
1.220555
0.064379
-0.235118
-0.767544
1.707300
0.678806
-0.630042
0.731820
-0.001845
0.869887
1.899074
0.454410
-0.656846
-0.149583
0.782107
-0.863903
-0.078972
0.443667
-0.983505
0.522881
0.237625
2.788469
1.080823
-1.221654
0.103133
-0.024553
0.451559
-0.176138
-0.204999
-1.091512
1.023986
0.646136
-0.458643
-1.355619
-2.226137
0.536905
-1.320317
-0.223831
-0.272754
-2.886482
0.445890
-0.764730
-1.046972
0.520172
-0.508264
-0.501361
1.370147
-1.495747
0.771176
0.752680
-1.056058
-0.205398
0.495338
-0.406235
0.496287
1.109384
0.020022
1.048377
-0.786181
2.288354
-0.341398
-0.062802
-0.922533
0.714224
0.231294
0.683792
0.968392
2.054327
-1.175180
0.557571
-0.467047
0.892931
-0.682312
0.304037
0.197041
-0.759729
0.478032
-0.127586
-0.666854
1.407375
0.032908
0.478059
1.283366
-0.789935
-0.431218
0.891006
0.175398
-0.321294
1.117144
-0.512727
0.700352
-0.169382
-0.701264
-0.161654
-0.492530
-0.236137
0.269348
0.133099
-0.418038
-0.997887
2.412045
0.616031
0.420893
-0.045095
2.334315
0.895886
-0.743010
1.083272
1.967233
0.056804
1.165607
-1.128340
0.907085
0.954095
0.879322
1.952686
-0.405210
2.162789
0.382266
-0.685238
-0.438072
-0.445827
-0.083241
0.386058
0.748129
-1.368103
0.438628
1.042009
-0.424733
0.519508
-1.810719
-0.615260
-0.626635
0.974121
-1.170262
1.694890
0.413675
0.117116
1.208634
0.566239
-0.579103
0.903976
0.263362
-0.187552
-0.699749
-2.966982
0.661794
-1.104848
2.918103
0.767105
0.328639
-1.279225
-0.286815
0.867833
-0.210386
0.261263
-0.150673
0.374410
0.833108
0.607971
0.801384
-0.101682
-0.534929
-0.839612
1.699561
0.595312
-0.495169
1.475627
1.018451
-0.167778
0.268171
-0.212090
0.567240
-1.639194
0.209548
2.256574
1.614106
-0.867369
0.023019
-0.037709
0.139419
1.214642
-0.202563
1.154922
-0.552725
0.682249
-3.030561
0.345169
-0.310322
-0.948853
0.746442
-0.582253
0.135908
-0.727646
0.030061
0.305583
-0.726208
0.751351
-0.110531
-0.560353
-1.282121
1.813696
-1.366961
-0.781765
-0.574171
-0.453837
0.290453
-0.398103
-0.076798
0.428806
-0.293613
-0.063790
0.281791
-0.330525
0.642523
1.906368
-0.978498
1.061822
-0.467783
-0.037798
1.269785
-1.052904
-1.589799
-0.171158
-1.089175
0.446765
0.975654
-0.504505
0.039162
1.187406
0.149282
-0.590956
0.147316
-0.455394
-0.330286
0.306020
-0.965101
-0.445187
0.288600
-0.386618
-0.314309
-0.037078
1.017241
-0.993906
-0.566293
0.005672
-0.577665
0.050669
0.601222
-1.327277
1.692543
0.408674
-1.462772
-0.558101
-0.541979
0.583884
1.396099
-0.697642
0.709852
1.274694
-1.146431
0.094219
0.008812
1.066960
-0.861172
0.504171
-0.180327
1.063507
-1.224197
-2.082394
-0.569161
0.211519
0.797709
0.490978
1.790626
1.340376
0.411159
-0.359330
1.168666
2.442730
1.042124
-0.814705
1.019318
0.915157
1.106695
1.610922
-1.008630
0.820953
-0.741095
-0.666537
1.400757
0.528385
0.307056
-0.135799
0.504944
0.087650
-0.198342
-0.221561
0.358177
-2.062266
0.168668
-0.474882
-0.536801
-0.288957
0.924339
0.256904
-1.063519
0.185932
-0.475115
-1.049108
0.560726
-0.434808
1.928228
1.499275
-0.066554
0.243850
-1.144556
-0.268623
-1.438916
-0.332935
0.308582
-2.036338
0.384637
-0.138537
1.406103
0.446149
0.882145
-0.150616
0.990656
0.036899
1.840616
-0.766367
0.040183
-0.812121
-0.502958
1.437557
-0.276231
-0.723865
-0.178256
0.469096
-0.400548
-0.674499
-0.461101
0.257827
-0.913296
0.374761
-0.095519
1.153384
-0.623050
1.156078
-1.024775
0.663389
-1.042114
-0.956824
1.295246
-0.713942
1.378757
0.375621
0.347691
-0.229482
1.204618
1.290577
-0.221908
-0.104625
-0.446526
-1.989025
-0.272861
1.542874
-0.227127
0.038240
-0.265841
-0.783215
0.802799
0.907565
0.626339
0.155210
-0.219523
-2.410379
1.179519
-1.508338
1.763561
-1.070035
-0.914160
1.147520
0.911395
-0.569040
-0.059434
-0.059716
1.105671
-0.556855
-0.186961
-0.025949
-0.767660
2.018240
0.912288
-0.764000
-0.036509
0.811437
-0.807089
-0.966819
0.009693
-1.116313
1.720822
0.355202
1.148249
0.672694
-0.264822
0.703459
1.440485
1.401700
-0.961865
-0.332444
0.769123
-0.276867
0.679591
-0.134397
1.472711
-0.149311
0.299509
0.648146
0.429814
0.357127
-0.378107
0.582101
0.588293
-0.671962
1.038163
-0.111475
1.272341
-0.547358
-0.916971
-2.679966
-0.064044
-0.241143
-0.388196
0.839681
0.026867
-0.821549
0.124900
0.272262
1.790084
1.519163
0.266258
1.962211
0.011180
-0.613589
-0.353633
0.279268
0.913950
-0.383659
0.743434
-1.218952
-0.406046
-0.265938
0.699245
0.781153
0.195046
0.616018
-0.664191
1.075531
-1.433622
-0.250033
0.891346
-0.689707
-0.210210
0.513130
-0.457385
-0.842381
-0.264091
-1.030473
-0.732464
-0.046559
-0.296763
-0.433006
-0.448211
0.494232
0.413096
1.834388
0.963597
0.475810
-0.002893
-0.241274
-0.296961
0.656596
-0.510845
1.424031
-0.085135
1.408481
-0.286404
0.543789
0.923989
-2.368049
0.308057
-0.859363
-0.489112
0.480797
-0.122893
0.898446
0.322955
-1.603661
1.112654
1.283786
0.334960
-0.324685
0.184875
0.729513
1.259073
0.866709
-0.940946
1.343263
-1.053458
2.218274
-0.198138
1.103486
0.594044
0.072695
-0.668422
-1.308368
2.644636
-0.821486
-1.324635
0.021652
0.241682
0.657519
0.765853
-0.193456
1.456438
-0.826803
1.095673
-0.900290
-1.741877
0.477462
-0.114368
2.012277
0.441519
-1.882273
-1.107602
0.210585
0.792224
0.804713
-0.753562
0.599645
0.317301
0.130838
0.621224
-0.593850
-0.861618
-1.412771
0.328805
-0.365481
-1.107137
1.078375
-1.818620
-1.471921
-1.546703
0.631100
0.347955
-0.513857
-0.832487
-0.320492
-0.135971
0.177369
0.465201
-0.910244
-1.350732
-0.008345
0.906345
-0.751545
0.933463
-0.209358
0.945954
-1.308792
-1.135328
2.042647
-1.215071
0.253590
0.775157
-2.149384
-0.324138
0.035647
-0.326368
-1.987375
-2.077656
-2.735019
0.450298
0.702510
0.208326
-0.361581
-0.598956
0.131178
0.613765
1.826885
-1.516340
-0.602362
1.858415
-1.886861
-0.699651
0.561505
0.168885
-0.295148
1.758739
-0.692703
-0.533576
1.724958
0.755318
1.201522
-0.265279
-1.962543
0.592321
0.266702
-0.126376
1.300352
-0.052749
0.303988
0.649599
1.379154
3.104357
-0.798208
-0.088757
-1.153801
-0.481576
0.408530
0.191774
1.254410
-0.488750
-1.226093
0.078341
-1.268607
0.734703
0.040011
0.869891
2.093110
-0.462136
-0.994161
0.572325
0.378456
1.594423
-2.778103
-0.057721
0.806057
0.797222
-0.384159
0.761803
-0.508003
-1.322111
-0.030591
-0.845378
-0.276053
0.009317
1.507541
-0.242799
-1.674273
-0.300820
1.239231
-0.294333
-0.586537
0.063050
0.569909
-0.124533
-0.702331
-1.595343
1.063607
-0.702187
-0.347839
-0.065852
-1.533103
-1.071876
0.349830
-0.867222
-0.571749
-0.887810
-2.409308
-0.321866
-1.502733
1.413346
1.367122
0.445474
2.366864
0.095929
-1.144379
1.429151
-0.244962
0.634950
0.026793
-1.315183
0.751763
-0.964419
-2.284478
0.212710
1.311310
0.269602
0.801693
2.112595
-0.386203
-1.072720
0.233484
-0.594013
-0.574928
-1.853689
-0.820048
0.067325
-1.216550
-0.383527
0.829290
0.861060
0.953670
0.309131
-0.224653
-0.741717
-0.268659
0.895622
-0.412438
0.458635
-0.224418
0.071703
0.500859
-0.841603
1.308596
0.232596
0.858661
-0.110497
-0.802614
1.192850
-0.412259
0.851394
1.211934
0.798011
1.114173
1.579746
-0.598963
-0.938429
1.266944
-0.042401
0.836691
0.114793
-1.202525
-1.327561
-0.487932
-0.654091
-2.040563
-1.237442
-0.050314
-0.869963
0.927893
0.082745
-1.392364
-0.685801
-1.269901
0.262884
-0.679286
0.970162
0.648203
1.103687
0.163853
-0.574626
1.583849
-1.198472
1.935219
0.878227
-1.202618
-0.676926
-1.852448
-0.317996
-1.753308
0.264220
0.771842
-1.783548
0.637665
0.943440
-0.638286
-0.076349
0.415249
3.075881
-0.297548
0.935580
-2.659871
-2.386872
-0.410296
-0.757789
-0.742444
-0.484903
1.527714
1.396192
-0.387677
-0.071371
0.380958
-2.313717
-1.470289
-0.080404
0.239957
-1.802801
0.503248
0.480483
0.971521
-0.835320
-0.925978
0.555616
-1.606720
0.420841
-0.289575
0.425165
0.328066
1.370686
-1.016156
-0.042720
-0.509196
0.341171
1.255318
0.123492
1.411713
0.296431
0.590637
-0.407692
-2.035711
-0.028207
0.936978
0.421851
1.025810
0.804722
1.065832
-1.248530
0.292677
1.237118
0.686580
0.764309
0.062710
-0.445258
2.071225
1.848045
-1.618454
0.784408
-1.542261
0.658619
-0.819891
0.339524
1.106275
-2.045397
-0.311803
-0.742792
0.012850
1.434614
-0.342647
-0.139822
0.199713
-0.026049
-1.310442
-1.201509
0.426548
0.923177
1.103328
-0.550598
0.092335
-0.247149
-0.926603
0.737181
2.170891
2.922138
-0.006256
1.464311
-0.657566
0.803094
-0.741483
-2.966524
0.148728
0.468296
-0.993037
-0.238631
0.633877
-1.949558
-0.028743
-0.031838
0.983675
0.062679
1.532726
-0.396454
0.271986
0.530906
1.217425
0.375126
-0.585830
-0.435512
0.465182
-0.514928
-0.399461
-0.108964
0.605640
-0.178113
-0.281112
0.365219
-1.515276
-0.154159
-0.174503
0.420013
-1.019573
-0.173563
1.745878
-1.907434
0.305082
-0.185635
0.919202
1.021570
0.852304
0.385705
1.335638
0.663813
-1.418218
-0.497792
-1.187256
2.393804
0.017764
-0.386831
-0.928849
-0.041106
-0.476550
-0.016296
-1.156391
0.341299
-1.332134
-1.697292
-1.143932
2.054567
1.381824
1.061786
0.880199
-0.618415
-0.087185
0.279944
0.161852
-0.027730
-0.746387
0.759030
-0.768925
0.839533
0.925434
0.324870
-2.029462
-1.559692
-0.599151
0.072075
-0.395429
0.373626
-0.707044
1.972559
-0.519621
-1.539096
-0.133777
-0.244920
1.124320
-0.508841
-1.201010
-0.419544
0.576705
-1.121253
-1.506321
2.557414
-0.187392
2.526880
-0.901240
0.455779
-0.950490
-0.022239
1.978670
1.944239
-1.349571
-0.215420
-0.234789
-1.236106
-0.455861
-0.222961
1.281179
-2.671557
0.905399
-0.718911
-1.722032
-0.769732
-1.216400
-0.257469
-0.507963
0.199256
-0.441309
-2.079921
1.091308
-0.317208
0.536467
-0.788308
-0.339073
0.349399
0.753959
-0.260590
1.863352
-1.660983
-0.416413
-0.155658
0.294728
0.266353
0.061110
-0.448222
-0.447551
0.463985
-0.266593
0.107517
-0.128173
0.412185
0.029149
0.194306
-1.154395
-1.944464
0.298138
-0.925287
1.036411
2.097570
-1.034758
-0.376885
0.214323
-0.351433
1.276794
0.156195
0.191246
0.923767
-0.350342
1.631639
-0.462220
1.034056
0.568934
-0.871904
-0.294388
-1.279551
0.534273
-0.675252
-0.318090
0.362267
0.658540
-0.490982
-0.707093
-2.531599
0.029097
1.322025
-0.650157
1.422613
0.228215
0.785900
0.402051
-1.271890
1.098937
-0.871460
-0.488464
-0.007920
0.159884
2.480288
1.660387
-0.969645
-0.207798
0.921743
1.654158
-1.001338
1.062404
-1.195920
-0.156474
-3.776725
0.382932
-1.320852
-0.635614
0.725009
1.611755
1.693606
0.182649
0.822076
0.140313
-0.116144
-1.127227
-1.195586
-0.958832
1.807501
-0.143046
-0.328874
1.784600
0.881736
-0.229570
-0.636337
0.690429
0.671478
-0.885358
-0.154458
0.167972
-0.894103
-0.024050
0.532512
0.356080
-1.142616
0.286247
0.949466
0.455096
1.870960
1.826095
-0.168391
0.189883
-1.363997
0.335812
-0.740060
0.759724
0.193083
-0.965000
-0.109160
-0.267238
-0.102954
-0.211513
-0.530635
-0.384333
0.055060
-0.456486
-0.303656
1.343212
-1.677915
-0.492530
0.091852
-1.810861
1.383371
-0.553526
-0.323212
0.653869
-0.296474
1.554774
0.562198
-1.495413
1.925583
-0.093262
-1.389842
0.521047
-0.389732
0.751667
0.678150
-0.988545
0.385586
0.636312
-0.193490
-0.607312
0.694783
-0.608234
-0.535364
0.980570
-1.639693
0.948632
0.589026
0.096513
-0.143947
-1.999855
2.058245
-3.138615
-0.431147
0.147687
0.445090
-0.734386
0.877484
0.209502
-0.029327
2.440267
-0.980521
0.079596
0.358575
1.234040
-0.205240
-0.297805
0.605219
-1.508711
-1.938564
-0.329032
-1.103475
0.156527
0.501458
-0.741646
-0.452251
-0.631557
1.051290
0.278482
-0.061514
-0.910922
-0.084872
0.874424
0.664602
-0.103830
2.331897
0.795294
-1.794771
0.521453
1.853781
-0.272330
-0.227802
-0.130261
0.046773
0.293302
0.129288
0.012467
0.626844
-0.211835
0.264577
-1.132539
-0.202492
1.146778
-0.897335
-0.272769
-0.371019
-0.407377
1.032772
1.245629
1.235212
-0.131763
-1.070780
0.484335
0.454929
0.844145
-0.092828
-0.712160
1.114671
-1.121889
-1.321556
0.348366
0.447880
0.365458
1.108034
-0.211446
1.182485
0.444406
1.035410
-1.316804
0.938169
-0.682582
-1.124506
-1.539564
-0.830397
-0.478866
0.875040
-1.057048
1.125649
0.409115
-0.298972
-0.023297
-1.173492
-1.428341
-0.825453
1.124356
-1.286183
1.201198
0.682720
-1.251053
-2.027855
1.305547
-0.519791
0.901712
1.837276
-0.358089
1.588022
0.406545
-0.471452
0.035510
0.849842
2.322627
-0.660966
-0.540123
0.295461
-0.918964
-0.930838
-0.908172
0.075559
0.713217
-0.800389
1.197155
0.589959
-0.913377
-2.491320
1.227469
0.183648
-0.782578
-1.841469
1.367756
3.103933
-0.007557
0.985800
0.227230
-1.443690
1.327792
-0.269723
-1.023629
0.467523
-0.072277
-0.065453
1.067524
-0.669408
-0.413641
0.280842
-0.982763
0.068350
1.222563
0.722169
-2.059858
0.163205
-0.550092
-1.602696
0.531906
-0.477222
1.344980
-1.010453
-0.071818
0.458250
-1.039666
0.603012
-1.844021
1.623950
-0.429769
-0.401791
0.192868
-1.902393
0.675495
0.035274
-0.893299
-1.278191
0.309403
0.303947
0.580182
1.360934
0.885581
-1.548320
1.120910
0.301640
0.891374
-1.420361
0.247581
1.645277
-0.369882
0.903762
-0.964244
0.279055
0.395353
-0.780747
-2.124158
0.198609
0.729417
0.826344
2.025234
1.008658
-0.096981
2.302267
0.259580
-0.797897
0.071976
1.102989
1.559517
0.294977
0.336393
0.697574
0.188241
0.566595
2.043166
1.485819
-0.040143
-0.507981
-0.906187
-1.522407
-0.913562
-0.575169
-0.033400
0.259850
1.228600
1.633729
0.314324
-1.199526
-0.643937
-0.075584
-2.227070
0.697028
-0.126878
-0.913359
-0.511708
-0.436259
0.476674
-0.960812
0.196966
-0.409403
0.767531
0.279181
-0.885521
-2.151387
1.586737
1.997878
-0.820193
-0.207257
-2.082942
-0.409247
0.959931
0.659336
1.456963
0.898695
0.132337
0.792597
2.813916
-0.737300
0.217078
0.984675
0.468949
-0.908332
1.374746
0.791311
-2.254230
0.111984
0.831258
0.722811
-0.114811
-1.387929
-0.216928
0.143018
0.185346
-0.140286
-0.733899
-0.868559
1.492936
1.132245
-0.996776
-0.187301
-0.238054
-0.239545
-0.833399
0.308995
-0.428667
-1.125278
1.104619
0.279307
-0.132451
0.466144
0.279907
-1.415739
0.292163
-0.690732
-0.089031
0.405293
-1.403928
1.804855
-1.862486
-0.185209
0.529510
0.571558
1.254319
-0.038265
-0.036835
0.827819
0.063516
0.460951
0.192643
0.347594
-0.878421
-0.327334
1.185694
1.184751
0.560006
1.147365
-0.203225
0.691925
-0.222611
0.611058
-1.794506
1.091699
0.856844
-0.949982
-1.506347
-0.418111
-0.959410
0.580531
1.001271
0.929900
-0.914372
0.848709
-1.008632
-1.377964
0.291337
-0.028695
-0.521118
-0.560719
1.031044
1.371749
-1.215893
-1.743824
0.649426
-0.103176
0.471632
-0.930192
-1.243917
1.694263
-0.060666
-0.740094
-1.090935
0.268588
-1.274102
0.604446
-0.537981
2.054072
0.732741
-0.546745
-0.353907
0.297558
-0.749133
0.250352
0.823736
0.178153
-1.194376
1.280952
-1.276921
-0.643918
2.155654
-1.677449
0.800804
-0.028198
1.130367
-0.896306
-0.365198
3.138090
-0.729514
0.688706
2.444917
-0.882721
0.510606
0.945548
0.019297
-0.509254
-0.261809
-2.014621
-0.334149
0.748619
-0.376177
-0.006245
1.729140
0.979603
1.338192
-1.200318
0.591665
1.312575
1.729006
-0.080413
1.523720
-1.606221
0.245233
1.106749
-0.290544
-0.216522
-0.377555
1.134859
0.401866
-0.178271
1.181622
0.480552
-0.488549
0.727903
0.001239
0.058674
-1.603460
-0.603340
-1.235289
0.662803
-0.161701
-0.691881
-0.002699
0.899506
-0.740723
0.706815
0.019083
1.343015
-1.136047
-1.806450
0.350469
2.943055
0.041543
0.675327
-0.662966
2.005063
-1.469226
-0.632747
-1.631462
-0.300035
1.134004
0.418466
-1.234287
0.546382
-0.144068
1.426219
1.080737
-1.214314
1.341464
0.053296
0.987773
-0.687697
-0.547052
0.456605
-0.221548
0.470601
-0.671650
-0.192215
2.152418
-0.004862
-0.675731
-0.554586
-0.331755
-0.347517
-1.534123
-0.359327
-0.226877
-1.074243
-0.219092
2.608383
-1.536589
-0.974049
-1.257021
1.982500
-0.603631
-0.216957
-0.510438
0.307678
-0.728468
-0.175745
-1.486107
0.972404
1.182754
0.612999
-0.942629
-0.238263
0.529462
-1.248384
-1.055231
0.457232
1.841973
-1.145883
-0.376868
-0.533472
0.246959
-1.272185
1.160409
0.670863
0.194679
-1.057381
1.137680
-0.977531
0.894622
0.327080
-0.317362
0.103818
-0.203956
2.502564
-0.061269
0.530323
-1.461538
-0.716448
-1.947017
0.753594
1.290324
-0.401003
1.092380
0.910543
-0.049919
0.147811
-0.516495
-0.114562
0.312130
-0.070246
1.480036
0.481038
0.873429
-0.871219
-0.126489
-0.820136
0.451368
0.476960
0.550267
1.534834
-0.518237
-0.026424
-0.037475
0.227037
-1.475505
-0.014778
-0.837835
0.301352
0.582479
-0.428916
-0.202894
1.564867
0.096616
0.513978
-1.428884
0.849443
0.940504
-0.278689
0.570589
1.197435
0.349255
-0.356573
0.005000
0.782706
2.456102
0.806935
-0.604840
1.427678
-1.543798
-0.524413
-0.929486
-0.311327
-2.620298
0.580633
0.134613
1.058738
-1.236440
-0.328065
-1.178428
-0.173429
-0.940544
0.074542
1.377608
-0.926577
0.278413
0.452719
-0.375299
1.403946
-2.106486
-1.014424
1.281029
2.220731
0.383662
0.806577
-1.620988
-1.332226
0.634742
0.872394
-1.033639
0.484506
1.459895
0.028650
1.055041
0.782391
-0.158459
-0.524224
1.009628
-0.457510
-1.699122
0.566321
1.417729
-0.534699
-1.256912
-0.438049
-0.309196
1.000203
-1.657195
1.406485
0.309291
0.931327
1.664644
0.625227
-1.088015
-1.776946
-1.724587
-0.218521
0.403474
1.421453
0.666959
-0.272556
-0.444010
-0.774139
0.561599
0.048589
0.113892
-1.608863
-0.836523
0.440697
0.002353
-0.041044
0.522946
-0.730766
-1.712083
-0.219991
-0.766274
1.280120
-0.820854
0.927893
-0.376611
-3.221634
-1.186465
0.996309
2.023673
0.777669
0.210079
-1.296021
-0.660870
0.570755
0.824823
-0.584760
-0.426918
-0.746773
-1.524321
-0.299381
0.004202
-0.947973
-0.298151
0.733141
-0.094855
0.516421
0.126121
-1.727853
-1.391602
-2.540930
-0.498119
0.579934
-0.352574
0.036364
-0.245506
-1.167208
-0.558393
-0.106428
0.931640
-0.152942
0.295527
0.558526
-0.275326
1.140864
1.610743
-0.078721
-1.314293
0.543245
-0.701974
0.127080
0.834521
0.323534
-0.773785
0.949922
0.467753
-1.276392
0.165416
1.565005
0.278782
-0.501636
-1.209822
-1.727349
-0.389057
1.554460
-0.059166
-0.147911
0.857727
0.482258
1.506552
-1.336744
0.285085
-1.119713
1.292107
-0.912689
-0.649384
-1.490156
-0.419000
0.476728
-2.069834
-1.096707
-0.195069
-0.830263
-0.105633
-0.335774
0.329830
1.878444
-0.870671
0.280762
0.703274
-0.500796
-0.233478
-1.319851
1.863962
0.406614
0.242319
0.800193
-0.333496
-0.713612
0.395472
-0.183999
1.169984
-0.124873
0.441373
-1.438475
-0.018671
1.420261
1.523082
0.846204
-2.357579
0.205581
-0.432516
0.369056
-0.901722
1.029090
1.466278
-1.520981
0.684622
1.121315
0.566055
-0.344076
-0.155952
-0.361401
1.250253
-0.434641
-0.848004
-0.504435
0.157816
-1.227147
0.568692
-0.337148
0.182477
0.181585
-1.001116
-0.638880
-0.093527
0.112606
-0.415467
0.529912
-1.022856
-0.003236
0.673540
0.466767
0.842468
-0.333315
-0.876676
-0.587398
-0.478702
0.056038
1.866206
-1.383017
-0.003494
-0.383391
-0.909884
-1.321224
-2.021137
1.535938
-0.438111
-1.286804
-1.467351
-0.444327
-0.690094
0.349080
0.229192
-1.274310
1.206516
-0.824692
2.432022
-0.439232
-1.849834
0.598098
-1.124435
0.517172
1.512704
0.705472
-0.011747
0.613369
-0.928519
-0.557709
0.744986
-1.689797
-0.015555
-0.385082
0.792335
0.314095
-0.029348
-0.436039
0.160877
0.443817
-1.175060
0.625423
-1.688834
-0.102821
-0.471639
2.350160
0.187424
0.502770
1.922376
0.266041
0.399560
-0.786505
-0.024746
1.229614
0.034359
0.556130
0.568681
-0.872842
-0.556641
1.837934
0.417289
-0.207956
0.709119
0.941916
-0.696660
-0.846976
0.568507
0.338653
-0.256708
-0.626502
-0.210188
-2.758156
-0.980698
-0.014661
0.330769
0.209066
-0.697176
-1.000771
0.183687
0.018149
-1.659130
-1.864986
1.196982
1.817540
-0.059631
-2.341425
-0.210570
-1.067979
-1.264673
-1.709521
0.298142
-0.972346
1.078307
0.981323
0.579887
0.435365
0.043381
-0.094642
-0.486582
1.643505
2.043489
-0.962122
0.192704
-0.206989
0.319445
-0.280702
1.016666
1.639686
-0.094121
0.820596
-1.162337
-0.909307
-1.110858
0.599096
0.028581
0.387166
0.871518
-1.924411
0.066260
0.434833
1.072903
-0.275378
2.771723
-0.120165
0.051652
-0.543331
-0.436350
-0.355327
-0.865578
0.480827
-0.367925
2.474424
-1.293873
0.411727
0.690726
0.540430
-1.001945
0.628592
0.233609
0.494477
0.406519
-0.540085
-0.587736
-1.114063
0.530359
-1.135296
-1.773257
-1.470997
-1.452612
-0.412346
-2.366689
-0.532489
0.928221
0.101773
0.457734
-0.638308
-0.905064
-0.476573
0.102555
0.637904
-0.144412
0.727342
0.317474
0.669307
0.351868
-0.939712
1.366856
-1.063822
-0.470083
0.035910
-0.384838
-0.774076
0.371746
-0.304664
0.614479
0.551034
0.659878
1.411222
0.597042
0.388203
1.461365
0.133478
0.681576
-0.534075
1.052776
0.672977
0.379995
0.235791
-0.768997
-1.261106
0.133270
0.890428
-0.539670
-0.326506
-0.469202
-0.484827
1.018588
-1.721964
1.579241
-1.211652
0.466758
-0.695263
-0.443977
-0.515921
-0.737157
-2.023403
0.385938
-1.800150
-0.804111
0.480731
-1.303420
-0.668871
-0.800177
0.458831
0.313721
0.355335
-0.995643
0.083157
0.215283
0.343631
0.094555
1.430810
0.653271
0.072287
1.304969
0.108200
0.792657
1.158652
0.192132
-0.028080
1.280538
-1.357466
-0.290829
1.637459
0.590427
2.066769
-0.348031
0.163355
1.612178
-1.537274
-1.028709
-1.403859
0.882678
0.583781
0.811778
2.189875
-0.143749
-0.658923
0.277584
-0.600042
-0.009883
0.567672
0.570277
-0.026666
0.380222
-1.607363
-1.079975
0.783019
-0.812065
0.595682
0.337629
-0.689296
-0.347257
1.140340
0.049978
0.767806
0.612093
0.129746
0.691670
-0.564867
1.802039
-0.824167
0.267295
0.785153
0.192123
-0.504064
0.809488
-0.183512
0.744125
-0.465458
-0.378737
-0.974566
0.223615
-0.677872
0.303436
-0.467401
-0.021720
-0.115104
0.486124
0.350272
0.771456
-0.208706
0.380073
1.868954
0.460994
1.879543
-1.795943
0.089778
-0.044336
1.931303
-0.442886
-0.634281
1.648957
-2.107857
-1.909655
-1.651555
0.228346
0.496493
-1.536974
-0.794731
0.892956
-2.096227
-1.530934
-0.577767
-0.231663
-1.253959
-0.823388
1.116652
1.220267
0.855241
0.204632
1.148399
1.456035
1.155730
-0.048442
-0.845324
0.416081
0.005743
0.907578
0.827174
0.035828
-0.491716
-1.141067
-1.563583
-0.005628
-0.578176
-0.627013
0.238398
1.028602
0.809931
1.134163
1.606754
0.842553
-1.476123
-0.006291
-2.084600
0.714807
-0.110844
-0.054640
0.106340
-1.001873
-0.897106
-0.083492
-0.236444
-0.007011
-0.305180
1.291204
-0.412722
1.835029
-0.801673
0.115013
1.699992
-0.175164
-0.969386
-1.229601
-0.452528
0.964884
-0.874977
-1.148612
-0.092963
0.114486
-1.570411
-0.640244
0.822748
-0.036845
-0.598808
-0.935645
-1.924622
-1.013733
1.337312
0.086467
2.026745
-0.426856
-0.709694
-0.125717
-0.464884
-0.131397
-0.587155
0.004292
-1.693441
-1.337133
-0.097017
2.630897
1.064986
0.348796
-0.574650
0.514132
1.212464
0.128046
0.861680
1.485210
-0.269260
-0.509330
0.093263
0.527170
-1.362239
0.093089
0.031197
1.156201
0.274204
-0.791208
0.056335
-0.565304
1.868989
0.269914
-0.491290
0.368131
0.490636
1.272069
1.470181
0.475879
0.705011
1.359576
2.052948
1.603225
0.358188
-0.660962
0.599288
-0.810344
-1.402338
0.040877
0.914898
1.788053
-0.912934
0.427223
-1.479154
0.184016
-1.804969
-0.927067
0.110811
0.183981
0.026623
0.677896
-0.937710
0.190742
-0.416342
1.140170
-1.057218
-0.947142
1.311513
-1.233850
0.565466
-0.976715
0.302843
-1.846879
0.816505
0.121502
0.451326
0.417177
0.002134
-0.150597
-0.124658
0.632913
-1.120876
-0.079715
-0.605466
0.331626
1.152359
0.377858
0.105933
1.298843
-0.050267
0.116512
-0.289910
-0.089515
0.651230
-0.946989
0.401754
0.094228
-0.564820
-0.460614
0.358447
-1.257106
-1.233719
-0.179037
0.320374
0.015004
-1.266473
0.051144
1.231723
0.227517
0.817006
-0.475643
-0.599147
1.353529
0.233759
0.886575
-0.449468
-2.038353
0.056704
-2.357645
1.402926
-0.440319
-1.585881
-0.183203
-0.607537
0.462306
0.792208
0.903227
0.901600
0.605467
0.712723
-0.822105
-0.856781
0.852998
-0.786226
1.428505
0.206878
-0.821128
-0.801672
0.722284
-0.700567
0.579963
0.709240
-0.029353
-0.120142
-0.564427
0.327486
-0.360073
1.034799
0.267875
-0.333631
0.720111
0.186862
0.625501
1.758195
-0.984952
-1.698892
-0.699098
0.183325
0.627036
0.095653
0.273041
0.634508
-0.553093
0.725761
-0.331232
0.364635
0.951102
0.112153
-0.558043
1.268400
-0.221110
-1.337521
-1.073029
-0.631166
2.461583
1.704019
0.742051
-0.233972
-0.248557
1.473249
-0.450181
-0.285965
0.213014
-0.164753
0.118522
-1.219951
-0.160853
-0.782760
0.077485
-0.705136
-0.003046
0.054147
-0.388978
1.012608
1.619668
-0.414671
-0.864030
1.315972
-0.796435
-1.658605
-1.465231
0.578017
-0.193647
0.317755
0.134485
-0.393974
-0.103627
-1.199361
-1.232208
1.381224
-0.346092
-1.217870
0.226734
-1.787066
-0.050471
0.594222
1.305117
0.035139
0.946241
-0.202522
-1.597863
-0.447670
1.391457
1.334642
-0.614944
2.044534
-1.124236
0.257544
-0.190414
-0.535337
1.034277
-0.583962
0.644000
-0.881337
-0.882619
1.445276
-0.040032
0.357439
-1.668107
0.600869
-0.304279
1.545714
-0.862189
-0.471927
1.051123
0.914082
-1.373068
0.592650
1.533806
-0.553404
-0.934782
-1.183136
-2.109489
-0.013221
-1.294860
0.667393
-0.848016
2.139981
-1.009591
0.535730
0.489323
-1.070228
0.437871
-1.316568
1.539123
0.115230
-0.387260
0.103682
-0.946836
2.378736
-1.596056
0.116854
-2.652032
0.133339
2.214888
-0.729940
-0.403551
0.769535
-1.120370
-0.490740
1.027406
-0.692132
-0.101010
-0.188995
-0.758606
-0.618777
-0.408307
-0.221858
0.922466
0.524175
-0.902938
-0.807723
0.524219
-0.930411
-0.680704
0.361707
1.158428
1.218763
1.095476
0.754177
1.004882
-0.405109
-0.028691
0.179635
1.007550
0.624788
0.865931
-0.655545
1.985775
-0.475842
1.003227
-1.967482
0.980855
0.155174
-1.072116
1.719577
0.389950
2.020056
-0.706052
1.506272
0.307591
0.672623
-0.850015
0.421077
-0.457939
-0.332578
-1.047256
-0.223199
1.556944
2.427279
-0.500933
-0.343365
-0.996162
0.412151
-0.292602
0.005223
0.545225
1.105213
-0.999088
0.400942
0.703584
-1.824101
0.841308
0.699896
0.347706
0.331961
0.387492
0.682378
0.862135
-0.589178
-0.788642
-0.543772
0.063980
0.080242
-0.629579
0.166623
0.197192
-0.915744
0.396809
0.173414
-0.599262
0.710570
0.140204
0.113090
-0.548471
-0.237574
-0.440272
-0.175463
1.001330
-1.324653
0.657274
0.977324
0.346720
-0.455379
0.709891
0.979181
-0.223297
-1.791214
0.466816
2.450594
-0.358404
-0.037937
-1.020343
-1.759263
-0.429706
-0.089851
-0.195976
0.597296
-0.137339
0.008197
-0.475832
2.564039
1.178211
-0.994732
-0.833821
0.509730
-0.126890
-0.650215
-1.343518
-0.365724
1.733479
2.448842
0.138664
1.678415
1.058275
0.770597
0.800139
-0.216267
1.048222
-1.254700
0.362517
1.617052
-1.437675
-0.195692
-0.216203
1.023537
0.587833
-0.312580
-0.214667
-1.893834
-0.594355
0.845009
0.618841
-2.604639
-0.539810
1.051700
-1.306630
1.322683
-1.084464
-0.810723
0.297439
-0.498616
-0.362380
0.591384
-0.571239
0.758884
0.878317
1.904989
-0.936101
0.479625
0.091409
0.026966
-0.443891
1.009239
-0.078335
-0.981022
-1.703482
-1.102838
1.139753
0.386449
0.869090
-0.428896
2.035166
-0.225655
-1.518676
1.436611
0.244177
-0.511458
0.061038
-1.259765
1.129935
-0.291051
-1.232820
1.232910
-1.177785
-0.457137
-0.176437
0.607525
-1.161137
-0.523333
0.392736
1.497063
1.036082
-1.249602
-0.555071
0.087507
0.797162
-0.718243
-0.883767
1.659710
-3.399078
-0.047849
-0.227134
0.564638
-0.395211
0.236595
-0.035438
0.122834
-1.265838
2.287606
-1.367203
1.106188
1.039258
1.212231
-0.622365
-1.043195
-0.542520
0.543269
-1.166430
-0.495422
0.780056
-0.519607
-0.000501
0.135707
1.534614
0.723089
2.001744
-0.685046
-0.388146
0.293850
1.013379
0.563226
-0.796293
-1.797301
0.942085
0.652559
-1.173024
-0.575180
-0.306074
1.618191
0.259543
-0.283244
-1.412773
-0.202333
-0.781561
-0.210701
0.406638
1.065040
0.592468
0.736477
-1.133976
-1.950789
-0.012847
0.703150
-0.739971
0.139997
0.455560
0.087563
1.236612
-0.685689
-1.400366
-0.232749
0.654494
0.888841
0.775430
-0.130730
-0.682710
-0.046235
-1.406912
-0.408430
-0.148981
0.987558
-0.738794
1.993114
-0.206492
-0.050589
0.574481
0.307180
-0.182483
0.060164
-0.160295
-0.218875
-2.028700
-0.909156
-0.140791
-0.457686
1.717565
0.361349
-0.241307
-0.815021
0.842410
0.056888
1.990004
0.060785
-0.299095
0.233150
0.395232
-0.527662
-0.587363
0.237249
1.301626
0.723951
-0.263188
0.644806
1.395685
-1.582867
0.242244
0.090554
1.850645
0.137747
1.216079
-0.680045
1.832775
-0.810024
1.861638
0.998899
-0.410407
-0.357691
-0.182926
-1.585588
1.770974
0.016580
2.496659
-0.425766
-0.131915
-1.127991
-0.153747
-0.358673
0.773440
1.354970
-2.229157
1.144260
-0.730091
-0.207521
-0.077746
-0.856228
-0.039903
1.123875
-0.301510
0.330780
-1.002251
1.385854
0.221424
0.009488
-0.645106
-2.099600
-0.540290
-0.022428
1.352270
-0.430964
-0.054280
-1.102598
-0.630566
1.033306
-0.215885
1.261225
0.652428
0.511857
-0.917701
-0.109940
0.671953
1.072852
-0.409743
0.825128
1.083528
-0.293608
-1.512352
-1.166602
-0.385552
1.269008
0.045473
-1.032356
0.756723
-0.350560
-0.608060
0.532146
0.664974
-0.144177
-1.596279
0.274094
-0.352371
0.182835
-0.731463
-0.915909
0.709840
-1.195789
0.846863
0.049284
0.387599
-0.114199
0.086292
0.355307
-0.035037
-1.704088
0.585860
-0.498855
-0.561315
1.096906
-0.261660
-1.507652
-0.224684
-0.421362
-0.364781
-1.367459
-0.142619
1.658321
-0.402054
-1.085053
-0.582663
-0.262476
-0.378799
0.581487
0.468575
-1.065633
0.615423
0.230912
0.514274
0.143085
0.048271
-0.429170
-0.757364
0.273497
-0.464970
-0.264302
-0.720216
-2.077292
1.058658
2.022084
-0.613204
0.400169
-0.028783
1.023968
0.126951
-0.435607
-1.198136
-0.950600
0.001110
-0.370337
-0.280539
1.239818
-0.833469
-1.412871
1.686349
-0.436195
0.402099
0.777717
-0.166929
0.133520
1.978403
-0.286013
-0.008093
-0.577148
-1.067073
-0.791295
0.587606
-0.896183
0.251265
0.447180
-1.145503
1.430454
-0.995126
0.311697
0.066284
1.218775
0.948672
0.736054
0.964524
1.113169
-0.016467
-0.687443
-0.141778
2.418103
1.071013
-0.337038
-0.609920
1.401359
0.153422
1.031502
0.380415
-0.421780
-0.633619
1.041723
0.353052
0.367761
-0.181722
0.431461
-0.512936
1.276289
-1.417027
0.226496
0.295388
0.307955
-0.835677
-0.945551
-0.135566
0.481367
-0.960839
-1.764140
0.198264
-0.218238
1.610137
1.241814
-0.735795
0.611304
0.813474
-1.973704
0.397927
1.166279
0.018992
2.034626
-1.117742
2.057808
0.472039
0.042895
-0.826685
0.945061
0.870553
0.327659
1.788337
0.958794
1.730311
1.623744
1.121221
0.299234
-0.102306
0.663657
-0.224765
-0.225802
1.405136
0.342513
0.740363
0.031146
0.421582
0.399492
-0.113202
-0.201748
0.892399
-0.834395
-1.393903
0.022675
0.082333
-0.234863
1.304401
-0.554030
1.629467
-0.391225
-0.968306
-0.077207
-0.939752
-0.830781
-1.971378
-0.465278
-1.582976
-1.095164
0.237658
-0.651635
0.057695
-0.392507
1.353147
-0.614304
1.497829
1.442519
-0.031829
0.581303
-1.781233
-2.398244
-1.304033
0.522436
-1.738837
0.794303
-0.262370
-0.378335
-2.386716
0.303871
0.046704
0.258113
0.904240
-0.187088
-0.513449
0.125438
-0.071442
-0.806838
-0.312931
1.054870
1.974322
1.584699
0.628957
-0.852447
-1.110606
-0.091282
0.125704
0.520840
-1.228445
-0.548405
-0.250218
-1.475005
0.321790
2.138456
-0.517582
1.486564
0.863313
0.255865
1.078584
-1.039487
-1.661687
-0.334590
0.289809
0.486095
1.036492
1.061292
-0.464138
-0.533105
2.523876
1.233917
-0.044484
-0.499500
1.409464
0.000630
-1.341768
0.391493
-0.615942
-0.752973
0.051801
-0.038577
1.632614
-1.260054
-3.431621
1.198505
-0.102302
2.042472
0.214632
0.538624
0.581707
-0.437600
-0.935735
-0.492533
1.490998
-0.443487
-0.371016
-0.723075
1.958368
0.001987
-2.042942
0.830848
-3.014703
0.435774
-1.983030
0.257841
0.697473
0.107543
-0.430373
1.027167
0.626800
-0.024394
1.460500
0.928190
-0.552188
-1.121661
-1.014979
-0.240995
-0.709630
-0.128708
-0.548085
0.933024
0.450319
-0.534827
-0.776010
1.104323
2.525016
-1.943598
-0.818074
-0.580413
0.209082
1.786913
-0.414573
-0.245635
-0.613409
1.090860
-0.341867
0.103877
1.142261
-1.606201
-0.168524
0.685770
0.045554
1.242741
-2.039728
0.462290
0.487230
-1.249482
-0.279111
-0.213983
-1.011943
0.029237
0.595710
-1.148129
-0.279081
-1.271119
-0.658462
0.068943
1.030923
0.549819
1.021071
-0.724722
-0.881650
0.223305
0.137681
-1.602299
-0.094567
-1.233055
-1.503171
-0.954964
-1.321123
1.739263
-0.534189
-0.328778
-1.782788
-0.099120
2.178311
1.628388
-0.295847
0.019007
-1.121319
0.777918
0.778574
0.444209
1.277577
-0.064174
-1.172582
-1.063637
-0.371258
-1.015839
0.430613
1.695939
-1.159688
0.663598
0.552380
0.523768
-1.379982
0.799986
1.908618
0.306184
-0.359695
0.205616
-1.063040
0.282261
-1.008067
-0.104078
0.937475
0.775254
-0.597637
1.570141
0.071529
1.513156
1.549028
-1.434561
-0.902558
0.910457
-0.736141
0.038733
0.518106
-0.604717
-0.386133
-1.616280
-1.153882
0.007581
1.437579
0.191117
1.887377
2.217540
-1.733414
-0.926765
1.351447
0.824889
2.414714
-0.195257
-0.309155
-0.042436
0.191788
-0.834655
-0.722862
-1.393724
1.024587
-2.181012
-0.190083
0.285879
-0.738120
-1.427350
0.955760
-1.529579
-0.271832
-1.005972
-0.540605
-1.031368
0.493433
-0.297398
-0.487971
-0.631322
-1.633482
1.140113
0.196648
-0.101131
1.295940
-0.306634
0.805709
1.858785
-0.393085
-1.088953
1.123798
0.306032
-0.775860
0.814524
-1.671676
0.262529
0.706212
-0.834880
-1.068220
-1.613300
0.318269
0.860859
0.768388
-0.679608
1.256356
-0.023139
-0.731975
0.834184
-0.019314
0.518174
-0.591252
0.883956
-1.830992
1.265676
-0.287473
-1.218926
0.624081
-0.668739
-0.088867
0.258672
-0.172499
0.300200
-0.474673
-0.190042
-0.362740
-0.829153
0.531020
-0.680661
1.494464
-0.405654
0.062417
0.930450
0.412112
-1.024724
-0.446392
0.431108
-0.037220
-1.136309
-1.533564
0.277524
0.203506
-0.107535
-1.078247
0.843530
-0.012114
-1.060065
0.454586
0.731305
-0.278747
-0.461436
-1.031362
-1.023603
-0.860959
0.148681
1.213223
0.782185
-1.023477
0.604189
0.007493
0.389960
0.379993
0.913857
0.185602
0.260864
-0.693871
0.993098
0.475070
0.888251
0.445086
-1.631275
-2.342551
-0.023059
-1.453060
2.129722
0.372972
0.607954
-0.314815
-0.997154
-0.800911
-0.887877
-1.571127
0.750744
0.577890
-0.614663
-0.773109
0.311699
3.265705
-0.950868
-0.243265
1.185598
0.267189
-0.329873
-0.341657
1.821365
0.949766
-0.066985
-1.652961
-0.039506
0.138559
0.270568
-0.951276
-1.565701
0.002000
0.192966
-0.072655
0.686053
0.933326
-1.120655
0.123730
1.065159
0.458072
0.535486
-0.972634
-0.374030
-0.347863
-1.710128
-1.079654
-1.001398
-0.804747
-0.331271
-1.015795
0.862185
-2.192032
0.290376
-2.546296
1.487992
-0.173403
-2.164313
0.604741
-0.114563
2.116076
0.515282
1.655096
-1.480872
-0.498609
0.554476
-1.001672
0.087600
-0.473428
-0.434032
-0.006989
0.554163
0.234208
0.281229
-0.979106
1.549742
-0.747561
-0.350829
0.897911
0.109599
0.215036
0.938917
-0.858038
0.548309
-0.900648
-1.721816
-0.831221
0.662556
-1.334314
2.140333
-1.142796
0.282200
0.079438
0.971647
-0.025463
-2.588042
0.086525
0.097121
-0.608819
1.215196
-1.526509
0.071825
-0.701897
0.292127
0.407309
-0.330346
0.528445
0.957756
0.010578
0.642350
1.728046
0.711899
-1.495759
-1.566463
1.446030
1.174883
-0.869032
0.694304
-0.315214
-0.715250
-0.950404
-1.126860
-1.928992
-0.579836
0.238865
1.798776
-1.170348
-1.066655
0.360055
-0.116959
-0.158823
-0.341419
0.547314
1.298854
-0.089622
-0.937447
-0.748674
0.681608
-0.347739
-0.064931
-0.991164
0.003529
0.745475
0.026548
1.854960
-0.536189
0.983084
0.710822
0.539132
0.261253
-0.384194
-0.827266
-2.993682
-1.169198
1.500766
-1.787617
0.654807
-0.880530
-1.305765
1.412791
1.301759
1.228676
-0.922728
0.525722
-0.573262
-0.095939
0.178568
1.182470
-0.339119
-3.398329
-1.519658
-0.432196
0.563798
0.825814
0.898523
-1.358873
-1.733082
-0.679168
-1.106596
0.599224
0.337911
-0.508061
0.361310
0.412654
2.211615
0.927964
-0.274347
0.714669
-0.985758
-0.684119
1.863572
-0.053483
-0.137831
1.430498
-0.426416
-1.364575
1.426376
0.390169
-0.821268
1.384362
0.815039
-0.114736
2.090665
2.710975
1.356045
-0.448798
-2.218307
-0.755062
0.848449
0.692018
1.215767
-1.571360
-1.355833
-0.205037
-0.687115
1.377856
0.872112
-1.083524
1.511005
0.032698
0.481314
-0.177035
-0.182206
-0.046728
0.915549
-0.563517
0.223955
-0.417895
0.488526
0.739981
0.390992
0.897606
-0.770140
-0.513563
1.100790
-0.352909
-0.313836
-0.868912
0.298428
-0.363035
0.164207
-1.491792
0.740923
-1.146155
-0.120275
-0.052506
0.218394
0.581214
1.319937
-0.447956
0.256920
1.031140
0.268818
-0.486226
-1.056774
-0.835659
-0.325042
0.122171
1.255288
-1.308599
-0.149056
-0.896476
-0.091791
1.205039
-0.496535
0.620120
-0.765948
-0.902302
0.651284
-1.561625
-0.520007
1.350674
-0.038735
1.041391
-1.468787
-0.708324
-0.071382
-1.814681
-0.712358
0.820590
-0.636466
-1.188284
1.525433
-0.445475
-0.201560
1.807309
0.365782
-0.884023
-0.895446
0.782772
1.769635
0.727755
-1.357821
-1.431141
0.461718
-0.224962
-0.476654
-0.383701
-0.658498
0.756806
-0.769954
0.664299
-0.037175
-3.261206
0.834130
-0.531981
-0.404893
-1.064642
-2.135079
-0.469454
-1.400486
0.164988
0.308373
1.127884
-0.143782
-0.774451
0.095278
0.125735
-0.346218
-0.257408
1.172721
0.850271
-0.286557
-1.389075
-1.337536
2.224607
-2.649139
-0.045432
-0.313260
0.109935
0.593456
1.147252
-0.148198
0.427553
-0.255745
-0.441702
1.062020
1.098570
-0.521082
-0.442998
0.446235
-0.784620
-0.246200
0.687613
0.142643
0.168767
-1.794816
1.041297
-0.484670
0.252838
0.715291
0.336769
2.393633
0.101019
-0.324055
-1.574448
-1.043856
-0.005173
0.667735
1.121198
0.625072
-0.748399
1.307189
-0.548801
0.113409
1.435484
-0.532232
-1.213053
0.553066
-0.995755
-0.611665
-0.220213
0.216883
-0.143726
0.999326
0.703426
0.473843
-0.017503
0.833806
-0.239056
-0.148508
0.356477
0.058696
-0.333635
0.694338
1.185681
-2.190998
0.291931
1.077006
-0.028603
-1.853151
-0.722440
0.650252
-1.058668
-0.829310
0.270523
-0.765722
0.325580
0.670843
-1.089987
0.582564
1.688662
-1.176644
-0.979398
0.760172
-1.118965
0.106132
-0.568759
1.084121
1.704044
-0.778149
0.454999
0.563784
0.687856
-1.098051
-0.916954
0.788332
-0.645495
-1.254687
0.618312
-1.294525
0.746350
0.132396
-0.111468
-0.558429
0.364270
0.904505
-0.090440
0.636836
0.621387
0.134388
1.749929
-0.304390
-0.107746
0.896655
0.007681
0.022533
0.352141
0.370465
0.118424
1.645671
0.287869
-0.288776
-2.178917
1.160801
2.716206
0.189249
1.160626
1.935579
0.510168
-0.564097
0.129854
-1.766937
0.274952
-0.566200
-0.560067
0.943236
1.235377
1.326448
-0.562938
-0.774413
0.432021
0.123183
-1.515272
-0.416950
0.743366
-0.496293
-0.999707
0.079058
0.066677
0.681281
-0.820849
1.453636
0.548373
-1.934117
-0.606742
0.913781
-2.196756
1.133566
1.221375
-0.092718
-2.030906
0.375495
0.074366
-0.620365
0.877128
1.131863
0.632048
-1.185162
1.312917
-0.909855
0.609938
-0.369873
-0.378898
-1.193517
-1.527399
-1.833160
-0.434528
1.368842
-0.051731
0.310883
-0.592020
-1.419633
0.329159
0.949604
-0.022754
0.233701
0.222205
-1.079532
-0.276522
1.076996
-1.935988
-1.897856
0.838186
-2.006432
0.060596
1.695611
-1.132850
0.428497
-0.840387
-0.339174
0.695452
-0.952931
0.760574
1.062440
0.850971
-0.065628
-0.662229
1.032088
0.381134
-1.414311
-0.690490
0.378898
0.417691
-0.706944
-0.983132
1.278617
0.273966
-0.971723
-1.470260
0.155082
0.277240
-0.900894
0.997608
-0.279581
0.557982
1.472854
1.004294
1.915776
-1.486679
1.727254
-1.281227
0.622279
0.283105
-0.731223
0.492894
1.811777
0.696734
-0.326836
-1.471727
0.302538
0.862095
-0.953782
-0.753889
1.007954
-1.626465
-0.646860
1.732018
-0.543376
-0.594472
1.041346
0.474874
0.439396
-2.325093
1.220998
2.919051
2.046602
0.561523
1.451836
1.067301
0.124920
-0.270906
3.057012
0.523474
0.467535
-0.106413
-0.573555
0.326245
0.889889
0.926944
-0.306174
-0.757610
1.174811
0.171914
-0.063487
0.087311
0.066216
-0.346070
-1.613028
0.401187
0.909268
-0.109270
-0.739508
-1.806552
0.673672
-0.096500
0.578080
0.717543
0.889100
-0.824835
-0.572806
-0.938502
0.084195
0.916567
0.060825
2.551154
-1.749247
1.341362
-1.459093
0.494653
-0.273024
0.879908
0.056940
0.667473
-1.312440
0.865011
-0.181150
2.360876
-0.326234
2.415841
-0.659930
-0.370099
-0.217615
1.745745
-0.287251
0.393544
0.237056
-0.385968
-0.048471
1.414700
-2.332278
-0.188807
-0.325064
0.665308
-1.448608
0.391448
1.156382
-0.914017
0.768126
0.953768
-0.204924
-1.466624
-0.654778
-0.103434
0.721373
-0.156664
0.805023
0.701632
-1.737066
0.026434
-0.895008
0.233001
1.724257
1.772659
0.579687
0.100446
-0.773317
0.312340
-0.436363
1.494207
-0.306739
0.252229
-0.365998
0.032344
-1.418271
0.620822
0.475230
-2.470952
0.571099
-1.395172
0.217310
1.983999
0.609805
1.426389
0.654476
1.409387
-0.242057
0.023403
-0.907790
-1.010257
-1.082865
-2.256022
0.796815
-0.458036
0.492428
0.511244
1.054839
0.534994
-1.512025
-1.173992
-0.211764
0.223347
-0.900297
0.861272
0.773297
0.014006
-0.561856
-1.174222
-0.944158
-0.306753
-1.475447
0.352983
-2.231848
-0.940370
0.331416
-1.404432
0.302022
-1.707862
-0.088508
-0.394712
0.087116
0.020036
-2.247004
0.635907
0.835203
0.525532
-0.582615
-1.597851
-1.602260
0.388039
0.156673
-1.020295
1.549097
1.005834
-1.202701
0.448635
0.314631
1.976217
-0.509040
-0.638331
0.045414
-0.648866
-0.713296
-1.108613
1.364527
-0.705620
0.441250
2.035373
-0.647816
-0.051947
0.710573
-0.574005
-0.461429
-0.889734
-0.183150
0.845810
0.450122
2.293775
2.235990
0.521797
0.577802
0.244179
1.489066
0.033787
0.138023
0.682769
0.459379
-0.176413
0.692373
-1.803715
0.024941
1.703656
-1.362347
-0.453120
1.464680
0.372858
1.783110
-1.535025
-1.653855
0.755720
-1.008170
-0.311490
0.155261
-0.040128
0.043971
0.138471
-0.878125
0.081700
0.364640
-0.420154
-0.836052
1.233157
0.557747
-0.890504
1.113359
-0.451478
0.427138
-2.357643
0.087557
-0.808074
0.094341
-1.822933
0.798697
-0.143693
-0.450689
-1.094034
1.468829
-1.430523
0.854546
1.238579
-0.381233
-0.535399
0.811870
0.824545
1.052012
2.628546
1.626546
1.049505
-0.410019
0.007725
-0.096630
0.056242
0.735796
0.509336
1.109458
-1.742851
-0.046081
-0.135717
-0.564485
0.418269
-1.787507
0.601078
-0.095790
-0.082065
0.990985
-0.139730
-0.123998
-1.019489
-0.732610
0.758224
1.158843
-0.944792
-0.003924
0.826052
0.787285
-0.034653
-1.213475
0.098344
0.391963
0.086391
-0.487655
-0.178687
0.244203
0.469227
0.066141
0.080271
-0.064441
0.351366
0.135430
-0.587810
0.208177
-0.945942
-0.865950
-1.108173
-0.518922
0.164181
-0.286177
-0.704987
-0.213786
-0.538389
0.266708
0.977063
0.601290
-1.050068
-0.260820
-1.170677
0.118836
1.055082
-0.005622
1.433769
-1.069671
-0.311149
0.919542
0.744909
-0.495841
-0.215913
-0.053971
0.369187
-1.205568
0.204233
1.283347
1.558887
-1.358697
1.564324
0.224807
0.845176
0.111431
-2.450642
-0.994327
-0.516506
-0.734241
-2.209113
2.066360
-0.318778
-1.098218
-0.027218
-0.422048
-0.131396
-0.855822
-1.313694
0.575731
0.826346
1.774061
-0.175236
-0.816780
-2.443777
1.427133
-0.402725
0.030880
1.031376
2.712102
-1.265593
-0.288449
-1.715011
-0.896154
-1.310155
-0.577610
1.217963
2.481777
0.725480
-0.836654
1.239396
1.059185
0.326796
2.726550
1.787033
-0.961048
1.600127
0.773740
-0.664210
0.565214
-1.601145
-1.496534
1.485986
-0.327169
-0.988430
0.720674
-1.742403
1.001541
-0.689357
0.740219
-1.077127
0.407853
-0.223582
0.606133
-2.518588
-0.917924
0.081598
0.337790
1.239541
0.504863
0.526461
-0.295503
-1.039878
-1.104629
-0.939471
-2.281112
-0.501357
-0.459619
-0.386159
-0.372045
-1.479269
1.123259
0.437887
0.404112
1.067348
-0.309185
-0.084362
-2.055013
-0.002480
1.219482
0.198158
0.115813
0.209608
0.935939
0.239405
0.174232
-0.220216
-0.298458
-0.558653
0.460855
-0.300473
2.042637
0.828180
-0.316351
-0.419368
0.776423
0.456599
-0.080544
1.278262
-1.332909
-1.665023
1.072295
-0.180683
-0.118414
0.162543
-0.401290
-2.303016
-0.760812
0.267169
1.522676
3.473165
-0.671424
-1.279289
0.937481
0.020289
0.717128
0.801388
-1.384306
0.940725
0.123250
-0.761776
0.534051
1.617595
-0.635655
-0.130857
-0.555161
-0.258224
-0.413800
0.052353
-2.253610
-0.521960
-0.612644
2.184842
-1.307790
0.658325
-0.869442
0.108090
0.062962
-1.080820
0.694754
0.486444
0.922257
-0.672086
0.706445
1.182186
-0.504022
-1.232306
-0.678759
-1.016814
-1.669370
-0.232079
0.599852
1.104981
-0.201430
-1.656242
1.133454
0.730629
-0.852693
-0.442131
-1.823151
0.414166
1.963573
0.160358
-0.763816
2.430917
0.140261
1.477859
0.066968
-0.282895
0.789906
-0.037607
1.734491
1.645537
-0.270069
-0.872956
0.600668
-0.093667
-0.095270
0.874239
0.676632
-0.467932
0.494459
0.343777
1.364547
1.327761
0.026988
1.267099
-0.981411
-2.156385
-0.113195
0.600756
0.579368
-0.734985
-1.322956
2.158843
1.117303
-0.792477
0.549308
0.274874
-0.825673
0.952785
0.240115
2.248262
-0.614150
0.205858
1.023117
1.151074
1.372755
0.391090
-0.537115
-0.998261
-0.070184
-1.823134
0.923423
1.301950
1.565679
-0.688125
0.409452
0.281237
0.870437
1.643453
-0.600026
-0.953100
-2.029855
0.424422
-1.100696
1.012334
-1.814785
1.165443
-0.946163
1.118537
-0.554327
-0.193946
1.328843
1.661816
0.484562
-1.515434
1.480751
1.143173
-0.886564
0.076749
1.189670
-1.291887
-0.354306
0.045128
0.419522
0.291934
-0.314876
-1.568700
0.762797
-1.090823
-0.190931
-3.029608
1.372493
0.160171
-1.259275
0.707945
0.805464
-1.783305
-1.882411
-1.399208
0.658845
-0.735507
-0.801753
-0.263117
-2.493786
-0.978664
0.942433
-2.130285
0.329850
0.651079
0.972841
1.486521
0.231425
0.262527
-1.378072
1.335297
2.161156
-1.497250
-2.069568
-0.126962
0.442721
0.173078
0.273372
1.465569
1.175366
-0.309862
0.962304
-0.816979
0.335668
-0.100208
-1.205433
-1.226396
-0.309181
2.630255
-0.786655
0.621807
1.299396
0.680937
0.575127
1.157121
-0.915311
-0.138006
0.526359
0.172430
-0.641108
-0.422112
0.903817
0.698043
0.184168
0.529279
-0.247812
0.199035
-1.184478
0.195142
1.968076
-1.034502
-0.157161
-0.403936
0.652906
-0.064391
0.401778
-0.222313
0.213175
1.455256
-0.451846
0.186446
-0.637894
-1.196800
-1.614240
-0.224726
-0.441816
-0.299912
0.036801
-0.594693
0.263146
0.456128
-0.745799
1.063552
-0.623793
-0.522383
0.989828
-0.129560
1.940742
-0.052089
-0.145517
-1.326862
-0.877233
-0.568823
-0.851300
0.539763
-0.712967
-1.101248
-1.537238
-0.194924
-0.129948
0.097988
0.108510
0.658433
0.228206
0.781724
0.416680
-0.263871
0.903625
0.308495
-0.042982
-0.168328
0.937353
0.566209
-0.499729
-0.291905
0.262408
-0.211594
0.810047
-1.552812
-0.221003
-0.097133
0.943958
0.886377
1.541257
1.352607
1.491282
-0.185695
0.258787
-0.541140
0.909879
-0.432115
1.398536
-1.543438
0.278333
-0.979773
2.052164
0.399640
1.961096
-0.533516
0.184309
1.744641
-1.035781
-0.455494
-0.821475
0.248390
-1.109091
-0.986845
-1.070351
-0.179475
0.028379
0.371600
0.830456
0.226152
0.043612
-0.041599
-0.304615
0.280168
-1.304827
-0.968996
-2.309706
0.202291
1.027665
-0.174178
0.097259
-0.403949
0.834684
0.491274
-0.183271
-0.475092
0.809061
-2.604059
0.500403
-2.029815
1.082068
-0.508717
-1.337113
0.854256
0.582602
1.068048
0.803492
1.424366
-0.471542
-1.454785
-0.484978
-2.213246
-1.493628
-0.645555
0.300735
-1.989587
1.400804
1.813772
-1.583827
-0.907786
-0.174074
-1.034759
0.310654
-0.150739
-1.359080
1.153895
-0.528128
-0.876054
-2.087835
0.851501
0.407665
1.142538
0.251472
-1.342661
-1.674548
-1.096825
0.430067
-0.731789
-1.863355
-1.550872
-1.136130
-0.020727
-0.544141
-0.444525
0.586987
-0.101216
-0.218002
0.577945
1.046468
-0.499829
0.486744
-0.850892
0.186471
0.261375
0.400343
-0.155274
-0.344337
-0.961253
-0.227283
0.601218
-0.206108
-0.015740
1.466059
1.167440
0.067930
1.595569
-0.911482
0.130073
-1.706465
0.195562
0.829528
0.925435
-0.782936
0.488144
-0.700288
0.872281
1.657228
-0.416846
-0.528722
0.862097
-0.545802
0.176698
0.801365
-0.240374
-0.622241
2.049420
1.410442
0.814618
-0.274216
0.916664
1.378573
-0.787585
0.299024
-0.938072
-0.620591
0.229251
-1.502972
0.218333
0.754527
-0.128301
1.638714
-1.389967
-1.179083
-0.084264
-0.726286
1.235390
-0.860015
-1.601280
-1.593458
-0.934262
0.958575
1.004981
-0.724234
0.116615
-0.288856
0.356391
0.137916
-1.175201
0.425337
-0.529840
-0.825257
-0.307575
0.509982
-0.275527
-0.096666
-1.646706
0.465245
0.026816
-0.403164
0.099485
0.141226
1.272988
0.940439
0.599376
-2.063544
-0.605225
-0.148193
-0.742614
-0.680350
-0.210589
-1.465554
0.227704
-2.071872
0.392054
1.383802
1.224629
0.659126
-0.389330
-0.530815
0.085368
0.739579
1.305320
-0.078912
0.139808
-0.046461
0.591651
0.676737
0.732348
-1.576923
-0.380958
0.345463
0.122415
0.729275
-0.317031
-1.134369
0.615561
-1.420103
-1.263737
-1.312137
0.515308
-1.729780
0.448141
-1.008016
1.394601
1.468317
1.591541
2.074152
-0.693491
-0.332136
0.158176
0.152388
0.275742
-0.427494
0.023819
0.140907
1.723975
0.589679
-1.121911
1.387807
-0.153085
1.808342
1.637500
1.175864
0.129853
-0.025925
1.167671
1.597126
0.162845
-0.921285
-1.289320
-0.350014
-0.318175
-0.194310
-0.177109
1.108753
0.242767
0.837312
-0.427331
-0.310042
-0.302120
2.378177
-1.623477
0.057451
-1.004054
1.487151
0.237483
-2.065430
0.363730
0.408234
-0.320649
-2.026878
-1.519144
0.335494
0.253589
0.025003
1.562109
0.305058
-0.571984
1.043572
0.447335
0.995789
-0.525967
-0.578375
-2.108192
-1.052142
-1.246090
-0.170953
-0.605703
2.160033
-0.075086
-0.164797
-0.454476
1.062051
1.534303
2.000548
0.062565
-1.174077
0.269237
-1.133021
-0.225395
0.247829
0.623154
-0.744210
-1.483030
0.829241
-1.258649
-0.844014
0.296145
-1.888584
0.400646
0.234349
-0.230751
-0.689121
-2.224107
-0.536437
0.375697
-1.917340
-0.642147
0.375572
0.579304
-0.250943
0.828805
0.455120
-1.036649
-0.488503
-0.091134
-0.707075
1.290699
0.793713
0.755677
-0.369665
-1.714902
-0.244865
-1.273143
0.565899
1.496347
0.362741
1.718740
1.274261
2.493599
-0.780780
0.535919
-1.530668
-1.955102
-0.126924
-0.395725
-0.604976
0.657298
1.302268
-1.366627
0.362097
0.144780
-0.214116
-0.023227
0.505054
-0.923872
1.194672
0.686038
-0.987579
0.202196
0.660248
0.089775
-0.786795
0.854296
-0.012660
-1.662858
0.652108
0.301872
-0.169621
0.655823
-0.363995
-1.325829
0.260425
3.121128
-0.458757
0.894661
0.477588
-0.573994
1.049926
1.048561
-0.796168
-1.377800
1.446340
-1.796429
2.346669
-1.557971
-0.725717
0.153913
-0.797754
0.332111
0.913524
-0.982173
-0.688831
0.741950
0.789922
0.238488
0.846065
1.472905
0.320865
1.988908
-1.354571
0.351382
0.261258
1.653391
-0.023523
0.477835
-1.236145
-1.130916
0.441222
0.333222
0.064684
0.688484
0.564453
-0.632583
0.948450
0.653702
-1.646743
0.417223
-0.614046
1.450132
1.810392
0.940210
0.777584
-0.178300
0.550859
0.770068
0.361163
1.631852
1.092786
-0.368823
0.252996
1.574036
-0.402739
-1.225240
-2.711948
0.589076
-0.826296
1.940398
-0.151456
-0.617687
-2.602138
0.257385
-0.549655
-0.407258
0.247991
-0.204532
-0.762358
0.039439
2.119912
-0.605430
0.944919
0.705468
-0.770142
-0.538110
-0.645847
-0.926459
0.594813
-0.026977
-1.535717
-0.078780
0.266374
-0.328269
1.686186
0.789162
0.197016
0.499672
1.115216
-0.000251
0.502321
0.289246
-0.413497
0.416086
0.222661
-0.427310
-0.793266
0.513264
1.186367
-0.757969
-0.789675
-0.081357
1.223668
2.422953
0.622638
1.599061
0.555384
1.910118
-0.561213
-0.065772
-1.563196
-1.273362
1.963454
0.272116
-1.681885
0.774906
0.684612
1.967805
-0.445931
1.377525
-0.330028
0.294985
0.339406
-2.177709
-1.519884
-0.070719
1.493781
0.335137
0.326408
-1.303427
0.200086
-1.197809
0.124032
-0.942899
-0.722955
-0.187965
-0.254436
0.572043
0.705528
2.596756
-1.215649
0.707889
1.328443
1.292158
0.068576
1.233013
-0.489502
1.506294
0.668063
-0.658665
1.101903
-0.209742
-0.719808
0.747885
0.275184
0.090350
1.046632
-0.749404
-1.051553
-0.350375
-1.576380
1.016793
0.150773
-0.594827
0.931834
-0.840373
-0.081532
0.480644
-1.786728
-1.767326
-1.581327
0.971296
-1.614272
-0.460529
0.355398
0.380383
-1.630575
-0.019413
0.019257
0.261864
0.777559
-0.799055
-0.011398
-0.551149
1.525107
1.195192
-0.829002
0.818240
-0.042732
-0.311460
-0.734423
-0.714510
0.797343
-1.666841
0.289740
-2.903838
-0.039898
-1.423061
1.018808
-0.927752
-1.452202
2.941873
-1.508830
-0.735162
-0.120702
-0.086843
-0.111827
0.944548
0.371977
1.005504
1.323068
-1.112453
-0.473550
2.999968
0.928685
0.096828
-1.295385
-0.393856
-0.317879
-0.330347
1.482006
-0.414402
1.465992
-0.530836
0.310603
0.968989
1.441530
-1.492944
-1.012516
-1.102105
-0.095895
2.199141
-1.066907
-0.267859
1.031665
-0.304428
-0.863846
0.100544
0.681607
-0.234929
-0.157510
-0.380444
-1.353632
-0.406906
-0.855070
-0.130307
0.812809
0.507248
1.624423
1.874396
0.673521
1.094963
0.356005
1.300561
-1.150319
-0.011180
-0.518706
-1.352943
0.330460
0.686632
-0.046427
-0.821334
-0.579719
-0.633557
0.316769
-0.256614
1.187361
-0.632597
-0.872894
-0.241248
-0.517161
-0.346283
-0.155224
-0.319298
0.422756
0.063900
-1.399315
-0.905260
-0.933504
0.790215
-0.580201
1.149610
-1.082946
-1.414304
-0.281173
0.553049
0.266775
0.643350
-0.794869
-0.762230
1.709372
-0.779537
-0.496542
-1.953474
-0.341341
-0.160733
-4.096989
-0.311427
-0.055682
0.459337
1.394020
-1.182806
0.494884
0.852120
-0.066892
0.214215
0.882312
-1.360690
0.391724
1.064599
-0.652569
1.710078
-0.397202
-0.381623
-0.155512
-0.884954
0.422670
-0.904471
0.416007
-0.334119
0.263498
0.443352
-0.843179
1.801658
0.176885
0.899682
1.507993
1.176190
2.650529
-0.333675
1.855188
-1.161717
1.046901
3.449744
0.261039
-0.057665
0.573865
-0.088219
-1.697893
-0.037690
-0.489028
-0.332303
0.204852
-0.617935
-0.290826
-1.680031
-1.609549
-0.011101
1.278817
1.223320
-0.493355
-0.855361
-2.183768
-0.159221
0.779509
0.127592
0.315607
0.619342
-0.638727
-1.249345
1.078322
2.089248
-0.290156
-1.445129
2.090977
-2.109868
-0.468099
-2.744869
1.061255
-1.965313
-1.128886
1.564107
-0.490902
-0.506481
-0.231223
1.797206
0.668950
-1.159082
0.141199
0.255145
0.413918
0.607598
0.445705
-0.231034
1.171959
-0.800414
2.233023
0.868357
2.714515
0.329983
-0.618910
0.315713
1.598557
-1.060221
0.129191
0.541720
0.686914
-0.612887
-0.824585
0.600146
1.036230
0.418558
-0.461247
-1.700049
1.487803
0.847842
0.085799
-0.960590
0.282992
1.276492
1.493737
1.369730
-0.041106
-0.096800
0.111751
1.575868
-0.108432
0.471653
-0.673355
-0.256825
0.421109
-1.301583
0.031416
-0.630255
2.696117
0.369947
2.794999
1.389460
1.127271
1.295374
-1.177348
2.875081
0.581868
0.618083
-1.381091
-2.394646
0.599862
-2.265832
-1.609473
-0.171197
-1.478608
-1.885571
0.429085
-2.319637
-0.901439
-0.077845
-1.047575
-0.355961
1.311207
-0.548322
0.809939
-0.526167
-0.650842
-1.142411
-0.814471
0.384895
0.807716
0.888787
1.253527
-0.254604
-0.428840
0.456629
-0.766204
0.062879
1.071154
-1.832809
-1.899671
-0.646618
-0.981848
-0.561950
-1.859053
-0.078826
-0.496442
0.338511
-0.032391
-0.693119
-0.823815
0.355024
0.651670
0.173943
-0.021977
-0.630252
0.364652
-0.257304
-0.481660
0.881062
1.500204
0.194841
-0.203746
0.101743
-0.451608
1.004897
1.170651
-2.152203
1.410991
-1.057248
1.336905
1.204946
0.540610
-0.859499
0.683350
0.820007
1.425790
0.560257
1.027264
-1.546817
1.278912
0.417662
-0.008096
1.166777
-0.299594
0.232151
-0.810583
0.547613
-1.169233
0.112269
-0.311840
0.114498
-1.636007
0.563624
-0.188611
0.083289
-0.236481
0.112343
-0.359391
-0.757552
0.983190
-0.855051
0.336520
-2.310918
-0.044746
-0.605072
-0.172005
-1.391151
-0.148339
-0.529761
-0.114822
-0.607410
0.534305
1.482988
1.870566
-0.250960
-0.999971
-0.489406
-1.093318
0.277247
0.667592
-0.820747
-1.869940
-0.623089
0.744398
-1.111960
-0.921465
0.134842
0.128339
-0.272130
-1.166301
-0.754055
-0.248455
1.369535
-0.422208
0.277299
-0.088404
0.819840
-0.350224
0.670126
1.489608
-1.030353
-1.080819
0.312252
-0.968401
-1.451194
2.013742
0.880568
-0.472986
-0.602625
-0.356714
-0.396926
-0.733059
0.963116
0.387439
-0.113038
0.290471
0.177573
1.275003
1.125165
-0.917594
0.782436
-0.420657
-0.527319
-1.254014
0.049685
-1.350233
-0.048451
-1.395489
-1.692873
-1.486318
-1.096634
2.319273
-0.645932
0.979459
-0.159640
0.622737
-1.019917
0.028952
-0.760563
-0.270788
0.459333
-0.120127
0.697097
1.329902
-0.498184
0.757647
1.447623
-0.066781
-0.512266
-0.326352
-0.151419
1.800583
0.503821
-0.300906
-0.437696
0.601845
-0.543688
-0.888439
-1.502156
0.794415
-0.492093
0.815150
1.329077
1.010591
-0.233742
0.996921
0.185565
-1.397534
2.574475
-0.588910
-0.720942
2.397390
-0.087284
-0.540019
1.919001
-2.340805
0.032526
0.764453
0.128396
-0.509730
-1.146004
-1.219982
0.140556
0.781180
1.077922
0.853513
1.135596
1.241950
0.996262
1.083212
-0.631798
-1.205136
0.082724
0.506242
1.806476
-0.399888
0.770991
0.610870
0.348907
-0.636656
0.035351
1.330387
-0.940794
-1.524499
0.178117
-0.500636
1.217941
0.508533
-0.570449
-0.422798
-0.408706
0.686254
0.593669
0.569679
0.008945
-0.775655
-0.274604
-1.314751
0.622963
-1.185902
-0.305809
0.908975
1.645053
-1.840936
-0.321579
0.419989
-0.109977
1.901341
0.394485
-0.804759
0.377480
0.035111
-0.224165
0.771718
-1.406883
-1.227741
1.935017
-0.208590
-1.324376
0.483560
0.698029
-0.027520
0.456828
-1.541255
-0.035168
-1.198475
2.246672
0.115770
-0.364963
1.723695
0.023281
-0.487369
0.463563
0.561588
-0.521549
-1.116558
-2.023339
0.372085
0.184993
0.692229
-0.650617
0.721430
-0.665856
1.309905
-1.228670
0.597863
-1.111884
-2.287866
1.674993
-1.337024
1.094936
-0.088326
0.308493
2.559212
0.111792
0.273284
-0.210811
1.025935
-0.155051
-0.986801
-1.139930
1.493089
1.061602
-1.011122
0.986403
0.680510
-0.464157
1.510308
0.908590
-0.931176
-0.708303
0.149629
1.314057
-1.367485
-1.593832
0.127464
1.644331
0.201713
-0.641982
-0.474087
-0.057661
-0.627389
-0.403408
0.816725
0.297739
0.293529
-3.691565
1.250010
1.421115
0.495309
0.906772
-1.104143
0.007364
-1.584632
0.098119
0.547149
-0.211067
0.821536
-0.376170
-0.810215
0.015436
0.667101
-0.520182
-0.172677
0.497167
1.868461
-0.406211
-0.347811
0.404551
0.689602
1.504227
0.971173
0.310820
-1.291042
-0.074309
0.655748
-0.857703
-1.013217
0.382513
0.189968
0.227665
0.000845
0.621006
-0.024988
-0.479797
-0.292335
1.005561
-0.013939
-0.745603
-0.631423
0.383500
1.108965
-0.791689
0.539941
0.000439
-0.655803
-0.064304
0.709331
-0.110258
0.441264
0.723063
0.873554
2.120951
0.913381
0.749921
1.016685
0.319111
-0.796929
0.219043
-0.473187
-0.740440
0.324835
-0.218137
-1.141383
-1.358083
0.617748
1.003482
1.204423
0.079872
1.847141
-0.633213
1.157953
-0.573272
-1.703087
-0.846019
-0.822756
-0.452763
1.003477
-0.742281
-0.242247
-0.176640
0.848348
-0.973044
0.163900
1.541301
2.065653
0.349431
1.037479
0.697366
0.077833
-2.013876
1.507402
0.666327
-2.371257
0.472475
-1.631356
-0.388334
-0.974196
-1.195113
-0.325704
0.102782
1.513921
-0.234683
-0.853387
0.652749
-0.308303
-1.396896
-0.769717
-0.466599
0.512149
0.026443
0.200443
0.761388
1.358826
-0.705059
0.896306
0.204108
0.955586
-0.647202
-0.223476
0.852659
-0.303101
0.556596
-0.742076
1.664913
0.430701
-0.239297
1.131077
-2.552245
1.323963
0.697578
-0.614337
-1.110552
0.294551
1.450661
-1.304863
0.762551
-0.583559
-0.498012
-1.846566
0.941761
2.297720
-0.447165
0.969836
0.042684
-2.092132
0.443634
0.888183
0.016125
0.990398
-0.545928
0.675375
0.542524
-0.653655
-0.577277
0.811062
-1.163409
0.592791
-1.824315
-0.218405
-0.010219
-0.228161
0.409590
-0.128133
-0.810796
1.125330
1.264060
1.725533
-0.793995
-0.537823
-0.675240
0.250890
0.658488
-0.538873
0.166660
1.398124
0.171276
0.567004
-0.292260
0.215739
0.815935
-0.528255
-1.543110
-0.668993
-0.312910
-2.197978
0.403075
0.371508
0.435444
0.091407
1.521976
0.614145
-0.785195
0.723339
0.310948
0.333173
0.568093
0.245993
-2.027273
-0.535253
0.151160
1.327789
2.390578
-0.257889
0.393467
-0.073939
-0.330121
0.265929
0.828762
0.368046
-0.853243
0.622148
-0.360122
0.934426
-1.195137
0.416510
0.884923
-2.084342
0.511776
0.041328
0.163629
0.413628
-0.129581
-1.271491
-0.930168
-0.354625
0.132826
-1.669323
0.134825
0.636345
1.373037
-0.348033
0.103340
1.078943
-1.274852
0.268164
1.100111
0.720598
-1.210035
-0.082427
0.837762
0.502107
0.612558
0.653288
-0.264311
-0.530931
1.181178
0.687814
-0.681730
0.381961
-1.080145
1.759862
0.041038
-2.118382
0.258555
2.492759
-0.808154
-0.248868
1.532197
-0.480533
0.271552
-1.137901
1.127816
-0.998876
1.218516
-0.124462
-1.812709
-2.237789
-1.433442
2.654502
0.411084
-0.090166
-1.223428
-0.149501
0.226535
0.628226
0.668957
-1.955145
-1.492476
1.090017
0.531159
0.382626
0.888679
0.983567
0.568145
0.124290
0.710707
-0.218238
0.515305
2.482393
0.666276
1.392579
0.130444
0.016469
-0.592434
0.522537
2.044744
0.465363
1.006468
-0.136194
-0.864302
0.700866
-0.874045
1.634907
1.896490
1.106896
-0.088628
-0.747048
1.346150
0.063428
0.831468
-1.138618
1.116275
-0.390714
-1.483317
0.579227
-1.060878
1.261120
-1.418680
-0.591230
1.384201
-0.859845
-0.432526
1.365683
0.748456
0.702136
1.577219
0.084862
0.977775
0.356133
0.722080
-0.346955
1.028903
1.049232
0.234506
-0.254841
-1.231873
-0.493903
-1.692796
-0.585718
-1.147084
2.551654
0.825956
-0.074074
-2.152626
1.391358
0.273994
-0.894065
0.330085
1.013200
0.007285
0.460674
1.448670
-1.276990
-0.448161
0.859427
-0.190064
0.600923
-0.473680
0.891329
-1.062113
0.083700
1.007022
0.097325
-0.891014
0.742373
-0.311586
0.910629
-0.431234
0.344601
-0.008651
-0.523287
-0.271838
0.640706
-0.280828
-1.279690
-0.197132
-0.851819
0.471736
-1.336998
1.208117
1.932196
-0.342248
0.732988
0.034374
2.673648
1.488855
-1.154756
1.021960
0.445222
-0.970531
0.366924
-0.496072
0.907118
-0.672965
-1.067721
1.187018
1.251177
0.601905
1.579053
-0.590508
0.154529
0.892878
1.235789
-0.332894
-0.092063
-0.975185
0.154229
-0.272527
0.656808
-0.687065
-0.223932
0.332853
1.476825
-0.366287
0.973135
2.159591
-0.995633
-1.378159
-0.796933
0.496201
-1.789950
1.316268
0.084785
-1.161581
-0.522809
0.503377
0.492258
-0.585473
-0.070197
-1.935431
-0.751587
-0.698469
0.424457
2.181168
-0.394259
0.508956
0.416926
-1.714747
-0.872835
-0.441491
-1.532244
1.247578
0.016716
-1.641773
-0.080114
1.190829
-0.833028
-0.666360
0.149623
0.328538
-0.719691
0.946052
-0.844670
0.048352
0.239760
1.447733
1.123306
-1.233668
-0.694495
-0.740315
0.497090
1.897749
0.241647
0.944017
-0.927026
-0.281395
1.127869
1.465169
1.877076
-0.603366
1.439193
0.732905
-0.813582
-1.239197
-1.106512
-0.759082
0.673999
0.061918
2.789379
0.238407
0.293097
-0.578942
0.919750
1.311479
1.279583
0.342895
-0.935456
0.261478
-0.149779
1.539927
0.884279
0.805507
-2.602249
-0.701060
0.769337
-0.443401
0.131033
-0.157444
2.080195
0.771568
0.388762
-0.876535
0.150572
-1.375209
0.680132
0.954907
-0.617441
-0.590277
0.789191
1.728226
-0.730157
1.409085
0.115798
0.248411
2.617280
0.427713
0.623741
1.274199
0.141146
-1.309263
-1.099978
-0.162458
-0.389738
0.599763
-0.218483
-1.189213
-1.681837
0.074568
0.412878
1.325098
1.062802
1.652939
-0.230706
2.597915
0.140619
-1.231629
-1.691754
0.654064
-0.442709
-0.177889
-0.586562
0.354621
0.147691
1.991918
0.319037
0.158955
0.392522
0.182687
2.038461
0.982028
0.213786
-0.705208
0.036121
0.100879
1.605336
0.046660
0.933929
-2.092590
0.295177
0.289465
-0.735171
0.449163
-0.064305
1.289688
1.334763
-0.587306
-0.021323
-0.390958
-1.078921
-0.106676
0.383604
0.214511
-1.410505
-0.645432
0.960064
-0.030135
-0.264026
-1.289052
1.726199
-0.360796
0.116633
-0.111772
-1.038716
-0.505078
-0.127222
2.225440
0.485976
1.490651
1.423389
-0.796934
-0.560501
-1.743377
-0.943264
0.279196
1.092842
0.251518
-0.219375
1.523604
0.111006
0.780317
-1.553733
-1.665739
1.307537
-1.080920
-0.674852
-0.190934
-1.528929
0.629906
-1.366665
1.606824
1.869228
0.284070
-1.011122
-1.170133
0.255981
0.480961
-1.204969
0.544855
0.745440
0.400032
-1.014771
-0.654369
0.118465
0.437522
0.730752
0.982902
-1.321818
2.945415
-0.543037
-2.691309
-1.729509
2.681414
0.453846
0.539812
0.840655
-0.813016
-0.544563
-1.099680
-1.127922
0.259393
-1.596199
-0.005168
0.460512
-1.425115
0.754105
-0.425520
-1.016675
1.274804
1.141101
0.284376
1.602033
-0.949602
-0.037132
-0.014208
-2.117584
0.554213
1.275509
1.036553
0.203006
-0.812497
1.593219
0.543126
-0.316294
0.241961
-0.910578
0.347714
-0.528983
0.500228
1.142776
-0.826865
1.043298
1.143724
-0.315388
-0.212432
-1.441181
0.446516
-0.126886
-0.900541
-1.000743
-0.087852
-1.471172
0.334800
-1.378879
-0.792418
0.547019
0.003723
-1.388564
-0.907553
-1.030267
-1.673963
0.199459
-0.383321
1.855533
-1.111972
-0.194705
-0.003937
-0.682380
-0.106072
-0.362158
2.134269
-0.018547
-0.623001
-0.138851
-1.811537
0.477697
0.639221
-1.360271
-0.427584
0.952524
-0.857911
-1.603323
0.319804
1.580761
-0.381949
0.290962
0.533350
1.571159
-1.455086
-0.062014
1.075663
1.520714
0.117192
-0.533674
-0.198510
-0.261605
-0.987131
0.112259
-1.090062
-1.438411
1.282725
0.050892
1.940220
-1.791891
-1.037681
-2.938725
-2.305429
1.886938
1.063883
-0.969913
-0.239393
0.914275
0.684747
-0.486296
0.021324
-0.193309
-1.593514
0.918085
-1.620936
-0.842227
-0.213579
0.448736
-1.104303
0.629109
-0.599580
0.187117
-0.056324
-1.691904
1.168456
-1.554390
-0.840803
0.269305
0.949008
-1.886394
1.340087
-1.015249
-0.560627
1.491943
-1.961342
1.451612
1.979698
-0.746358
-0.122753
2.427289
-0.818713
0.494939
-0.311319
-0.247470
-0.358217
1.168546
0.915240
1.618535
0.538210
1.749233
-1.796844
-0.549960
0.297900
-0.524039
1.007281
-0.484252
-0.784453
-0.557609
0.198222
-0.990153
-1.335607
-0.983580
-1.319195
1.003644
-0.963323
0.188535
-1.027429
-1.697322
-0.386316
-1.845527
-1.564272
-0.328245
-0.421165
0.638242
0.912001
-0.061023
1.339242
-0.753934
-0.892833
0.286706
1.611573
-2.062574
1.486246
0.807077
-1.028188
1.025344
0.168435
-0.331510
0.294458
-0.197397
-0.742708
1.885383
-1.555650
-0.558914
-1.040967
-0.289361
-0.481665
2.029378
0.430443
-0.640578
1.310227
-1.388705
1.062446
1.435708
0.887954
-1.343842
0.050527
-0.499628
-0.415579
-0.132240
0.578930
1.989884
-1.486371
-0.903622
0.479101
0.927990
0.561400
0.597914
0.218464
-0.904380
-0.233021
-0.505200
0.854715
-0.468130
-0.084777
-1.930495
-0.166293
0.101630
1.158991
0.370756
-0.621235
0.342248
0.776657
0.272007
-0.107261
-0.144252
0.612816
-0.467803
0.291286
0.903104
1.408163
0.346944
0.230110
-1.068811
-0.671483
1.273152
1.905737
0.282474
1.449929
0.679876
1.669241
-0.232557
0.685555
-0.361316
0.494971
-1.077907
0.587521
0.236074
0.214785
-0.065182
0.383361
-0.606129
2.576276
-1.891470
1.678488
-0.037960
0.745800
0.556787
1.346925
-0.198536
1.259925
-0.670684
-0.045115
-1.352364
-0.186609
-0.241177
0.246113
-1.161594
-1.765230
0.571012
-0.691194
0.154183
-1.713968
0.660548
1.433417
-1.356515
-0.853868
-1.145131
0.504736
-1.346829
-0.092609
0.058267
0.145384
-0.315290
1.350240
-1.732530
-2.550097
1.671481
-1.167429
-0.876353
0.471108
-0.290206
-0.854943
-1.996365
0.197675
-0.122410
0.569735
0.937600
-0.010683
-0.468781
0.501387
-1.775156
0.496123
0.310334
-1.576726
-0.341867
1.244444
-1.816771
-1.299105
0.312331
0.786879
-0.404744
-2.049331
1.142935
-0.928014
-0.440017
0.948247
-0.780565
0.709467
-0.860244
-0.624796
-0.516690
-0.014587
0.860110
2.323881
1.104293
0.717372
-2.206151
0.016440
1.843861
3.202686
0.158893
-0.502102
0.099525
0.419395
1.522202
0.474786
-0.330992
0.863064
-1.379993
-2.060090
0.196259
-0.424790
-0.904775
-0.631956
0.309491
0.167860
-0.977621
1.172975
0.163902
0.270818
1.063183
-1.286155
0.093589
-0.075922
-0.723165
-1.269798
-2.205830
-0.538093
-0.370445
-0.559023
-2.335831
-0.112906
-0.007960
-0.132899
0.361822
-0.207478
0.982081
-0.196529
-0.465989
0.006517
-1.101591
0.001624
0.677695
-2.373808
0.835224
-1.358852
1.368665
0.813449
1.401611
-1.132228
1.301212
-1.108740
1.222188
0.368683
0.563534
-0.257752
-0.456962
-0.446685
-0.598355
-1.775817
-0.671712
-1.328287
-0.082304
-0.956496
0.178491
-0.531917
-1.414406
1.526220
1.280791
2.041204
1.498715
0.566407
0.726798
0.816117
-0.096780
0.336401
0.597536
0.105671
-0.712344
0.026013
-0.637164
-0.453886
-1.044542
-0.716304
-0.226707
-1.165923
0.305112
1.375420
0.959967
-0.671080
1.056564
-1.824269
-0.324148
-0.033445
0.150832
0.124780
0.329660
0.454590
0.561831
0.345109
-0.137304
-0.145800
-0.723603
0.589910
-0.438474
-0.882313
0.915654
0.454292
0.367376
0.428496
0.833876
0.795727
0.442503
2.174413
-0.426403
-0.806739
0.459082
0.888574
-1.762852
-0.716706
1.847766
-0.362734
0.359908
-1.416802
0.100413
0.113495
0.497352
0.821462
0.403362
-0.684795
-0.421946
-1.048650
