-0.154090
0.554428
-0.106396
-1.011112
-0.717150
0.854987
-1.362310
-1.109745
0.516415
-2.015073
0.006693
0.872309
-0.247398
0.885974
0.795456
0.106842
1.895707
-1.277486
0.728216
1.519013
0.054033
-2.033274
0.915802
-1.210632
-0.351637
-0.825426
-0.283506
-0.017249
0.654884
-0.838720
-1.148880
1.441899
0.675715
1.166821
-0.238016
1.085534
-1.095492
0.337336
1.491747
0.798012
0.040900
0.057690
0.457670
-2.365295
-1.639238
-0.482359
-0.931048
0.655241
-0.208121
-0.733559
-2.306891
1.024686
1.907048
-0.870809
0.186958
-0.004587
0.020790
0.766673
1.361404
0.440167
-1.963279
0.251320
-1.608276
2.097991
0.371780
-0.088572
-0.135602
-0.305996
-0.816173
0.433651
-0.321147
1.397544
1.370144
-0.764388
0.513991
-1.821120
1.279050
-0.495322
1.007419
-0.621391
1.916074
-0.956725
0.341843
-0.338912
0.144381
-1.639506
-1.927605
-0.123337
1.273297
0.250640
-1.485457
0.624596
-0.028143
0.060310
0.508334
-0.380015
0.436793
1.087183
-1.461411
-0.235676
1.100875
-0.531728
-0.192618
0.355695
0.414635
1.690384
0.447836
-0.945293
-0.506012
-0.957977
0.726474
1.114170
0.103779
-0.499320
3.270848
0.179477
-0.464021
0.398350
0.404544
1.496647
1.643069
-0.674486
0.592234
0.058181
-0.447419
2.147502
-1.291352
0.749331
0.939941
-0.016512
-0.700881
2.163171
-0.212086
-2.670273
-1.960586
0.830648
0.336124
0.033626
-0.662638
3.252648
0.398212
0.829456
0.508234
-0.005834
-1.806099
-0.551371
-0.944026
0.313606
-0.974749
-1.236645
-0.483493
0.684936
-0.920433
0.812887
-1.699056
-0.716350
1.487419
-0.606842
-0.609393
-0.494550
0.592268
-0.006841
0.377459
0.305173
-1.607434
0.020465
1.085815
-0.084760
0.554905
1.902227
0.708972
0.218804
-0.480498
-2.718310
0.258390
0.188531
-0.552318
-0.689847
0.484423
-0.384004
1.186007
1.030782
0.320112
0.614669
-1.245314
-0.755585
0.456036
-0.577744
-0.145653
-0.440668
-0.124270
-2.590362
-1.193206
-0.396010
-0.650987
-0.005389
-0.992396
-0.070782
-1.470412
-0.052499
0.566684
-1.007107
-0.056767
-4.020494
0.181806
0.076819
-0.342879
0.097084
-0.117691
-0.555153
1.556466
-0.881128
-0.574771
-0.797810
0.093277
0.001181
0.967273
-0.145594
-1.180357
0.166156
-0.663613
-0.303550
0.034144
-1.294956
0.339168
-0.138430
-0.583449
-1.026329
0.248517
-0.235069
-0.422911
0.459160
0.020564
-0.289273
-0.117848
1.520465
0.632038
-0.133965
0.314699
-0.373308
0.803444
0.079353
0.032992
0.425032
-1.036225
-0.701304
0.114107
2.363781
-1.301706
-0.257209
-0.328454
-0.316400
-1.247758
-0.498869
1.093606
0.654094
-1.106496
2.449870
-0.622781
0.940135
1.422629
-0.678357
0.750633
0.066764
0.292610
-2.188082
0.294117
-1.316909
-2.430634
0.371195
0.832404
1.148272
0.849470
-0.354571
0.454864
-0.973067
-1.235065
-1.508612
1.688260
0.344050
0.358260
-0.358795
-0.147579
1.447362
0.502697
1.287451
1.195909
0.043982
-1.298521
0.201820
-0.430260
-1.609886
0.310840
-1.736981
-1.013784
0.706552
1.679405
0.849173
-1.329967
0.332841
-0.776800
1.052751
0.561722
-0.465097
1.052172
-0.537912
0.770227
1.109317
0.222900
-0.301488
0.507989
-0.492430
-0.124830
-0.531367
1.258411
0.551739
1.232435
-0.681247
1.152995
1.398414
1.716058
-1.391538
-1.911107
0.082607
-0.684063
0.086405
0.447436
0.940701
0.936645
1.672373
-0.026191
-1.445841
-0.227209
-1.608235
-0.514076
0.766332
1.219976
0.919920
0.603914
-0.113699
-0.489791
-1.127697
0.801188
0.297446
-0.081914
0.040560
-0.094745
0.710986
0.008331
-0.161899
-0.426164
0.598259
-1.356204
-0.499439
0.086847
0.391034
-1.321137
0.755080
0.942717
-1.608531
-1.802656
0.966683
-0.783303
-0.777556
0.691444
-1.075281
-0.378283
1.073984
0.924671
-0.328662
0.107470
0.427464
-1.422560
0.135039
1.290293
-1.772548
0.416676
1.938675
0.429180
0.273263
0.822550
0.353712
-1.250809
-0.998442
-0.771266
-0.083516
-1.010031
-1.963076
-1.802414
1.609035
-0.195206
0.158223
0.473446
-1.399434
0.706913
0.400551
-1.770734
0.038960
-1.656458
-1.040115
-2.133134
0.564709
0.026674
1.283319
-0.148371
0.577207
0.712239
-1.841771
-0.310662
-0.406320
0.241051
-1.163625
-0.646691
1.168611
0.791861
0.036610
0.487173
-0.457118
-1.790332
0.598984
0.598378
0.451502
0.443344
0.520501
0.086816
0.061239
-0.175830
0.570600
1.143855
0.393696
-0.350632
-0.447945
-1.285648
-1.304627
-0.177862
-1.022445
0.374546
0.719060
-0.868359
-0.181915
-0.901474
-0.768868
0.313698
0.868284
0.180564
-1.301320
0.795058
1.770232
0.200235
0.110760
-0.147679
0.625514
0.082819
1.660875
-2.057917
1.100457
0.804729
-3.373549
0.742860
-1.164283
1.214367
-0.612637
-0.003950
-0.556043
0.985050
1.430428
0.091243
-0.191353
2.394261
0.975336
-0.214185
-1.596438
-0.899626
-0.949421
-0.333444
1.429830
1.524665
-0.733111
-0.933621
1.509279
-0.636401
0.477796
-0.423496
-0.011879
2.141670
-2.099790
1.425260
-1.634136
-0.701907
-0.336549
0.944885
-0.349510
0.079447
-0.071391
0.455701
1.054240
0.626019
0.426589
0.797261
0.446738
0.063593
-1.643689
0.606183
-0.323425
-0.885985
1.569502
-0.478314
-0.430382
0.807592
-0.706971
-0.959708
-0.618664
-1.244025
-0.268954
-0.167248
0.934986
-0.372223
-1.348419
-0.128565
0.055849
0.339752
-0.009114
-1.870657
-0.728045
-1.049068
0.582425
0.230836
1.493433
-0.507617
-0.554154
0.410178
-1.259847
1.855860
1.320985
2.506478
-0.577739
2.777312
1.995737
-0.599552
0.444298
1.769658
1.313867
0.406387
-0.223175
-1.936690
0.353152
-0.397529
0.941081
-1.759431
-1.701488
-1.403657
-0.263494
0.521604
-0.959915
-0.113789
0.900275
-0.376218
1.044364
-0.190134
0.989329
-0.630877
-0.952842
0.808177
0.191103
2.535240
-0.728755
-0.276369
1.922334
1.087366
-1.033560
0.675285
0.849509
0.482037
-0.797088
0.075222
-2.784353
-1.009244
-0.141341
0.971833
1.910543
0.783792
-0.410276
0.930684
-2.441271
1.994320
-0.413703
-0.389101
0.628538
-1.094474
-0.344848
-0.851382
-0.672571
0.178923
-0.611863
-0.911953
0.007268
0.065574
0.161153
-0.388123
0.460758
-2.619608
0.757180
0.369521
0.048874
0.495549
-1.336688
0.643824
1.433971
-1.447758
0.566151
0.441068
2.227820
2.082336
-0.695703
-1.322413
1.134336
0.476178
0.506043
-1.036641
1.109558
-0.085717
0.678704
0.192949
-1.316805
-0.227536
-0.375312
-0.128843
-1.212181
0.741926
-0.513406
0.304791
-1.282074
0.260406
0.086407
-0.711654
-0.767399
-0.171455
-0.621877
0.841933
0.057049
-0.169629
0.366021
-0.989965
-0.439198
-0.455666
-1.027339
0.148978
1.859970
0.002082
-0.722977
1.074460
-1.502944
-0.182398
0.743682
0.542406
-0.715808
-0.001311
-0.553699
0.396565
0.674677
-1.503709
1.478693
0.213816
0.495880
-0.858383
0.953338
0.430339
-0.905821
0.216018
0.540436
0.324561
-0.022040
0.369240
-0.748182
-1.173345
-0.636313
-1.788446
1.001110
-1.360041
1.099553
0.399366
0.478760
-1.257473
2.100342
1.098391
-0.453212
-0.306580
0.653747
0.166587
0.462082
0.670841
-1.738715
-0.304298
-0.856599
0.033110
-0.706300
-1.244227
-0.002336
2.071362
2.373062
1.336322
-0.228040
-0.507617
0.075540
0.004798
0.190155
0.368522
-0.350523
0.068947
-1.716880
-1.101915
1.199667
-0.048387
1.247945
0.215345
0.030540
0.711485
-0.586571
0.249122
0.261848
-0.329751
-0.916680
-1.085258
1.311279
1.533047
-1.155772
-0.191418
0.402604
-0.104619
1.821010
0.842638
-1.275058
-0.834914
2.093867
2.084610
0.075773
-2.606427
0.041941
-0.485314
-0.078470
-0.711219
0.640911
0.054864
1.071099
0.432802
1.126070
-0.622697
0.726083
-0.836004
0.192128
0.877739
2.918118
-0.682324
-1.547700
-0.743293
0.339891
1.705465
-1.287435
-0.296261
-1.330533
-0.398418
-1.502779
1.344363
-0.897820
-0.305551
0.269433
-2.109972
-0.557099
-0.253706
-1.386081
-0.227815
-0.193939
-0.244664
0.193368
-0.717781
1.744408
-0.126974
1.625450
1.368758
-0.536737
-0.351895
0.323048
-0.284179
0.420055
1.578762
-1.081977
0.326478
0.226211
0.611925
-0.720444
-0.275006
1.586900
1.110969
0.921303
0.617772
-1.860985
1.616481
-0.333565
-0.088263
0.189357
-0.016640
0.368604
-0.656612
0.054276
0.118881
0.182645
-0.435456
1.472485
-1.277940
-0.044780
0.477261
0.758661
-0.654866
1.153243
0.507592
-0.099865
-1.132200
-1.307530
-0.070355
0.369514
-0.690378
-1.037054
2.241495
0.982988
-0.291671
-1.783756
-0.354372
0.271138
0.806907
0.202978
-2.318084
-0.056065
-0.364998
2.092031
0.593783
-1.141836
-1.006526
-0.884092
0.816188
1.453992
-0.759044
-0.532874
1.338772
0.887372
-1.290164
0.169349
-0.812814
0.493011
-0.465091
1.106659
-0.173974
-0.864159
-0.174896
1.313855
-0.564943
-0.254812
1.291819
0.952694
-1.334905
-0.444817
-0.366079
0.819879
0.766834
-3.299595
0.021373
-1.030903
1.130473
0.006929
-1.490905
0.775574
-0.238438
1.864128
-0.240898
0.536931
1.052804
0.982904
1.442770
1.598041
0.635162
1.313150
2.632324
1.385347
2.086587
1.220625
1.085350
-1.035715
0.474684
-0.509429
-0.538950
0.293032
0.163069
1.164392
-0.907896
-0.625203
-0.344546
0.137541
1.601270
-1.257689
-0.562321
0.459317
-0.326088
1.285200
-0.821285
1.159082
0.155796
-0.300299
0.081985
0.279853
1.038879
0.288297
-0.389574
1.587227
0.708112
0.017301
0.429319
0.724368
-1.435786
1.218360
0.043629
-0.651272
-0.861124
-0.820648
-0.114419
0.582661
-0.510377
0.531322
-0.563846
-1.059761
0.459242
1.304359
-0.735727
-1.323465
-0.104414
0.224765
0.425775
-0.276087
-0.415145
-2.228940
2.103941
-0.237738
-1.147301
0.368208
0.975468
-1.137609
-0.068549
1.043887
1.561609
0.918952
1.571008
-1.251015
0.557970
-0.793785
-1.187106
-0.209941
-1.296282
-1.616298
0.663165
-2.674832
-0.475999
1.137727
0.230868
-0.574479
-0.402172
-1.897427
-0.587305
-0.005462
0.678813
-0.506200
0.511045
-1.185511
-2.084069
0.496303
0.499004
-1.677476
1.399223
1.008377
0.453145
0.598817
-1.593931
-0.391133
-0.297229
0.860277
-0.476365
-0.034027
1.867893
0.467487
-1.078085
0.500636
0.126795
0.669070
-0.615555
-2.239312
0.997984
-0.220482
0.123117
2.026039
0.456782
-0.085263
-1.413658
0.469842
1.438417
1.200392
-2.355225
-0.597594
0.862605
-0.078510
0.407092
-0.206713
-0.338654
0.587559
0.281064
0.918425
0.038328
-0.013413
1.286103
-2.569468
2.241484
-1.803017
0.198902
-0.166361
-0.068983
-0.178826
-0.615074
-0.476035
0.983701
-0.872218
0.836350
-0.436000
0.505984
-0.651897
0.287198
0.813392
1.365647
0.894607
-1.021194
-0.103916
-0.561896
-0.856441
0.935925
1.842859
-0.269271
-1.748438
0.777965
1.627482
-0.450276
0.024528
3.452652
0.122816
1.085776
-0.198456
0.879271
-0.575836
-1.996297
-0.700749
0.266669
-0.042312
-0.549804
-0.270393
-1.305746
-0.701016
0.924072
1.843498
2.142701
0.203191
1.214652
2.926674
-0.754355
-0.088092
1.282840
0.238385
-1.752923
-1.613732
-0.265442
0.182252
1.779019
0.267555
0.723699
-0.794173
0.982386
1.088258
-0.108257
-1.589870
-0.680206
1.114777
-0.217060
0.073616
-0.759420
-1.257614
-0.468655
-0.291308
1.369835
0.130440
0.238315
0.185668
-0.623131
-0.469373
1.661344
-0.500856
-0.313269
-1.803607
-0.554073
0.762087
-0.909801
-0.017469
-0.075393
-0.114405
0.059352
2.375025
0.488160
-0.877984
-0.460248
0.614576
-1.110298
-0.408363
-0.440851
0.475159
-0.332716
0.014773
-0.881781
0.599027
-0.213351
-0.354726
0.337831
-0.477765
1.022426
0.553501
-0.989618
-1.045515
-0.002379
0.258145
0.869961
-0.742960
0.256295
0.443047
1.513423
-1.467296
-0.225868
0.206881
-1.067255
-0.618985
0.474956
0.457867
-1.300823
0.618731
-1.041705
-0.173864
-1.160226
0.215150
0.181195
2.452536
1.279720
1.914149
-1.061518
-0.349776
0.457763
0.168967
0.415387
-0.662865
-1.952703
0.343635
-0.857188
-0.067697
0.744275
0.844225
-0.477305
0.782917
1.679560
-0.494748
-0.998952
1.180099
0.591947
1.395231
-2.430414
0.124703
0.162752
2.045194
-1.931306
-0.943828
-0.217834
-0.922056
-1.365635
0.177462
0.360901
-0.126059
0.707725
1.743363
-1.042773
0.038679
-0.098618
0.093059
-0.649776
0.514590
-1.181417
-1.048828
0.458494
1.882679
0.321490
1.506691
0.384762
0.834033
1.548520
-0.185857
0.730000
-0.852171
-0.221408
-0.363606
1.237267
-1.456212
-1.182873
-0.787630
0.326641
0.787979
-0.290053
0.096971
0.458351
-0.198571
-0.952843
0.857032
1.328915
0.200727
0.116470
-0.902415
0.665672
0.141115
-0.230273
-0.105966
1.001112
-0.341369
-1.052034
-0.018230
-0.346487
-0.050218
-1.612519
-0.541723
1.379872
0.502278
-1.290296
-1.647027
-0.591498
-1.212537
0.873083
-0.131059
-0.025133
0.544262
-0.856783
0.791172
-0.171192
0.603001
0.832531
-0.378886
0.273083
0.463500
-1.799653
0.711039
0.142908
0.553347
2.329558
-0.992887
0.234338
-1.854949
-0.397922
-0.227948
0.250682
0.199891
-0.485352
0.252616
-0.618804
-0.445888
0.299133
-0.470687
0.449832
-0.506471
-1.811382
1.297736
0.418642
1.149406
0.425025
0.339420
1.632060
0.091680
-0.807445
-1.524756
-1.304187
-2.142918
-0.677899
0.121201
-1.543586
1.754508
0.565274
0.603303
0.884539
-1.327416
0.751896
-0.068401
-1.103083
-0.448200
0.499656
1.652439
-0.356812
-0.978398
-0.858319
0.178536
-2.122373
0.007548
0.923719
0.490187
-1.657054
-2.108645
0.838087
1.602142
0.503873
-1.286250
0.666042
0.540099
1.061973
1.292732
0.253599
-0.064711
-0.184905
-0.376724
1.195970
-0.441517
0.791491
0.076036
0.605831
0.670209
0.146314
-0.509613
-0.388900
-1.190711
-0.728573
-1.203941
-0.830476
-0.055029
0.336354
0.878752
0.103735
1.130562
1.289463
1.818728
-1.773719
1.572875
-2.957106
1.529138
0.345705
1.217288
1.918496
0.656907
-1.274671
-0.414721
-1.166703
0.035667
-0.266253
-0.121613
1.861860
0.029845
-0.541428
0.697049
-0.618151
-0.968069
1.207087
0.224149
0.343585
1.013486
0.810291
-0.664597
-0.955568
2.147013
-1.032012
0.397235
-0.984646
1.337134
-1.570031
-0.350745
-0.444344
-0.304325
-0.280511
0.522622
1.027005
0.472056
-1.128925
-0.110226
0.806362
-0.586037
0.011993
0.424342
0.326629
-0.274694
2.565470
-0.403341
-0.415863
-0.790339
-0.615754
0.720770
-0.492205
-0.438913
0.680038
-0.531560
0.507672
-1.683790
0.110830
0.884406
1.829817
1.460199
0.296840
-1.606389
1.160889
1.096542
-0.947472
0.537710
-0.365711
0.422121
-0.521619
-1.124535
-1.104491
0.670058
-1.300538
1.129509
-0.809231
-0.850786
-0.173973
0.014721
-0.078834
-0.142174
1.253148
0.567938
0.618440
-1.177912
-0.043635
-0.712364
-0.788563
-1.070608
-1.369149
-0.443190
0.219415
0.388962
-0.633030
-0.922153
2.182712
0.703678
0.657060
0.861573
0.980507
-0.345718
-0.576504
1.677844
-1.434539
0.416379
-0.882889
-1.829887
-1.348474
-1.356801
0.605592
0.284797
-0.042307
2.134575
0.527968
-0.782696
-0.822147
0.167687
-0.373553
-1.852103
-1.978449
-0.309563
0.358291
-0.037323
1.750342
-3.060067
-0.893501
0.403546
-1.458645
0.886214
-0.692731
1.050357
-0.085477
0.767667
-1.543110
1.092587
1.005668
-0.385307
-0.160690
-3.620945
0.625329
2.373054
1.265759
-0.481127
0.701438
-0.588203
-0.673590
-0.404541
0.631484
1.086090
0.031191
-0.398877
-1.759858
-1.316919
-0.317770
0.466380
0.731785
1.287582
-0.945132
0.868866
0.963706
0.183255
-1.005927
0.310615
1.613945
1.405005
-0.572984
0.135422
1.088719
1.241989
-0.509429
0.365474
-0.325060
-0.212621
0.166286
-0.440592
0.990838
-0.289654
-1.424235
2.630183
1.304558
-1.416411
0.125371
0.074743
-1.625351
-1.442839
-0.817019
-1.111998
0.108455
-1.584812
0.738349
1.733337
1.609681
-0.139599
-0.719151
-1.534581
-0.293745
-0.463102
0.206883
-0.904451
-1.113393
0.865821
0.933566
-1.827003
-0.328764
-0.344407
-0.064167
-0.118616
-1.060021
-0.725639
-0.657156
-0.806528
-0.624595
0.959953
0.645776
-1.034629
-0.125066
0.613346
0.201876
0.995886
1.092676
0.287442
-0.930944
0.417462
-0.360645
-0.868328
-1.015987
0.451443
0.297744
0.746398
-1.108083
-0.206494
-0.319710
-0.912767
-0.640179
0.326809
2.056897
1.233512
-0.961061
1.327829
0.251588
0.338587
-1.182990
-1.729937
-1.546981
-0.149922
1.079613
1.917805
-0.293478
-1.336547
-1.053397
2.782602
1.956801
0.815289
0.381040
0.734357
0.758660
1.591623
1.669258
-0.589640
0.013514
-0.148970
0.515142
0.318588
-0.882892
-0.324181
-0.833075
-0.361948
0.375596
0.794162
-0.488637
1.250266
0.163612
0.898887
0.092058
0.649823
0.834900
-1.336333
0.175604
-0.566700
-1.296017
0.021561
0.612088
0.562578
-1.491568
-0.791968
2.113634
0.649771
0.747882
1.492803
1.041097
-1.609472
-0.004246
-1.344345
1.768671
-0.144826
0.402598
2.830548
-1.133463
-0.431847
0.020880
0.539262
1.603024
0.343636
-1.189685
-0.840366
0.512193
-0.460264
0.296238
1.528150
0.680364
-0.514347
-0.293621
0.556737
-1.627252
-0.308116
0.441352
0.018086
-0.896023
0.485153
0.448503
1.150040
-0.707670
-0.166860
-0.220743
-0.287537
0.116677
-1.039916
-1.078086
0.754432
-0.702644
-1.808201
0.666019
0.582823
-1.046053
0.500555
2.180699
0.979874
-0.060528
-1.123453
-0.095566
-0.267298
-0.018232
-0.636773
-0.645163
-1.860625
0.518208
-1.372101
-1.966639
0.101889
1.313055
-0.436180
-1.212163
-0.292385
-0.441019
-0.436520
0.953718
-1.571794
0.099165
0.631075
-1.704405
0.776585
0.212472
2.537123
0.445549
0.949684
0.772389
0.154330
-0.079123
-2.374094
0.046436
1.187164
1.456865
-0.773430
-0.644227
0.008437
-1.335226
-1.924504
1.743709
-0.093644
-0.661695
0.313051
0.345792
0.254768
-0.976714
-2.167979
1.517249
-0.608578
0.261259
-0.800947
-0.162606
-0.507521
-1.072948
-0.435131
-1.842199
0.328097
-0.492976
-0.851274
1.221947
0.828184
-0.818759
-0.687751
-0.086518
0.709977
2.647302
0.335719
-0.960471
0.655868
-0.129825
-0.566116
1.444683
0.855548
2.090573
-0.213297
-1.226337
0.309059
-0.526230
0.388610
-0.152124
0.427666
0.361761
-0.130089
-1.033943
0.049506
0.069501
-1.200724
0.243289
-0.250288
0.904342
0.503808
-1.579847
-0.081355
0.797241
0.541798
-0.251671
-0.198721
0.878157
-0.499398
0.467857
-2.149489
-1.323937
0.219823
-0.709850
1.191991
0.642609
0.123985
-0.614694
-1.484866
0.246596
0.061275
0.276607
-1.479013
-0.482310
-0.506208
-1.312089
-0.756984
-0.259564
-0.758070
-0.827166
-0.872707
-0.391874
1.016422
0.566857
0.410951
0.629388
-0.609823
-1.729411
-0.348892
0.137295
1.406468
-0.921073
-0.775064
-0.747393
-0.333110
2.250336
-1.952126
-1.313283
0.279175
-0.947390
0.331354
-0.846420
-0.525856
-0.529654
0.282221
1.835526
0.468057
1.358517
-0.480796
2.354055
-0.770671
-1.524580
-1.536111
1.308079
-0.992742
0.380475
1.728322
1.141232
1.077721
1.867183
-0.473641
-1.692149
0.595413
-0.075100
1.517441
-0.690605
0.742758
-0.468058
1.371801
1.523465
-0.839319
-0.494553
-0.997945
-0.669775
1.197024
-0.986046
-0.441168
0.908247
1.761224
0.218359
-1.291111
-0.532249
-0.878024
-0.460659
0.982074
-1.785114
0.924825
-0.282695
-1.170221
-0.360045
-2.423597
0.217595
1.385756
0.229458
-1.754167
-0.444759
0.765498
-0.195702
-0.152846
-1.274633
-1.925874
-0.799505
-0.027981
0.332293
-0.300492
-1.002442
-0.489053
-0.284180
-0.301659
-2.793509
0.478397
-0.983203
-0.375657
-0.535184
0.957284
-1.161345
-0.167722
-0.308848
-1.258345
-1.381767
-0.638136
1.090700
-0.140391
0.589927
1.405969
2.344329
0.664842
0.929408
-1.007003
-1.981594
0.498879
1.452041
-0.829636
-0.680086
0.245083
-1.296242
-0.073378
-1.094526
0.875257
-1.036027
-0.455922
-1.186369
-1.020520
-0.198934
1.658693
-0.289820
-1.240315
-1.162831
-0.785123
-0.062173
0.509524
-1.573195
0.812798
-1.610280
2.101420
1.086216
-1.143484
-0.287855
0.178578
0.296334
-0.825065
1.402060
0.353523
-0.789130
2.006415
0.416115
0.859386
0.260213
0.140463
-2.094572
-0.771430
3.256786
0.332531
-0.896611
-0.620249
-1.261540
-0.020835
0.938096
-0.077522
0.815545
0.734542
-0.414951
-0.848164
-0.679774
-0.238932
-0.065673
-0.208921
-0.323461
0.218441
0.386874
-0.111193
-0.071276
-0.401853
1.526093
-0.147319
0.336962
1.289905
-0.829540
-0.398383
-0.170776
0.420943
-1.298711
0.410884
-0.910564
-1.378786
-1.185930
0.851836
-0.476985
-0.537245
1.073784
-0.175909
1.807968
-1.596390
-1.745507
0.968337
0.064010
0.708406
-0.162454
-0.735641
2.914227
0.149427
0.132334
0.240324
0.598297
0.782104
-2.123444
2.373571
0.635599
-2.745971
0.850283
-0.014270
-0.535390
-0.157365
1.652746
-0.507672
1.940035
1.776612
0.428090
0.362662
-1.483562
-0.403396
0.030238
2.108262
-0.566892
1.658352
0.115681
0.787276
1.191487
-0.734883
0.735167
-1.159027
0.178686
-0.509503
-0.041407
1.466564
1.341040
-0.255805
-1.193910
-1.310678
-2.231249
0.602779
1.205117
-0.900011
-0.129346
-0.326726
0.351420
-1.875843
0.424682
1.398173
-0.808416
1.105150
-2.039335
-1.527277
-0.680738
-0.029072
-0.116256
0.101527
0.984436
-1.660198
-2.679247
-0.943934
-0.448840
-0.420559
1.521519
0.571072
1.954949
1.117238
-1.505488
-2.131337
-0.105216
-2.035365
-0.401576
-1.257740
-0.091955
0.130016
0.148653
-0.206035
0.348696
0.595673
0.469900
-0.382885
0.163064
-0.472609
1.235727
-1.567092
-0.610004
0.182752
0.127785
-0.522294
-0.318109
-2.547652
-1.024529
0.894656
-0.392183
-2.213775
-0.944855
0.667841
0.954760
-0.409213
2.021429
-1.498834
-0.179863
1.101305
-0.865699
-0.060364
-0.454692
0.618273
0.082886
-0.292936
-0.283335
-0.446313
0.098822
1.715540
1.173078
0.791455
-0.521916
0.641360
-0.462621
0.055149
0.347887
-0.707931
0.398634
0.527815
-0.838124
1.373936
-1.556743
0.605980
0.524401
-0.106514
0.486732
0.044415
-0.141309
0.218676
-1.398817
0.523391
-1.551291
-0.179729
0.169477
-2.021133
-1.441499
0.756147
-0.289194
1.008367
0.922989
-0.038577
0.978876
-0.995300
-1.308782
0.691370
0.709157
-0.837952
0.795134
-0.975718
0.478710
1.017619
-1.041313
-1.768279
-0.501198
-0.180733
1.607020
2.076021
1.525754
0.437019
0.858982
0.571375
0.339300
0.201225
-1.144481
-0.202774
-0.112576
0.568083
0.147367
0.488762
-0.121124
0.960228
-0.482592
0.046161
1.100965
1.961550
1.614889
0.286105
-1.247586
-0.748736
0.622816
-0.921514
-0.423600
-0.700848
-0.377264
-0.112843
0.904306
-1.128109
1.595934
0.824060
0.251687
0.126064
1.971214
0.604901
-0.272926
0.477628
-0.274828
-0.158712
1.230901
2.298799
-0.724605
-1.585294
0.975368
0.647486
-0.203470
0.993008
0.763649
-0.324320
-0.422695
0.072192
-1.660245
0.642003
0.374589
-1.877928
0.668791
2.164160
-0.668844
1.145506
0.970159
0.427268
-2.187231
1.416856
1.121841
0.204756
0.218855
-1.116131
1.269283
-1.837204
-1.838757
-0.184695
-0.507552
0.801929
0.503563
1.757412
-1.712082
0.240196
0.353529
-1.192558
-0.447170
0.713463
2.190219
1.010768
-1.638369
2.024152
0.988121
-0.166494
-0.146855
-0.401956
1.227054
0.609852
0.003032
0.461087
-1.030010
-0.028687
0.724539
0.421060
0.427319
0.161901
-1.314970
-0.493270
-0.407570
-1.577824
-1.824223
-0.652391
1.083480
0.295509
0.161842
0.121473
0.699237
-1.594319
-0.947631
-1.124407
-0.325142
-0.790033
-1.402209
0.936278
0.377706
-0.004473
-1.037492
0.535800
-0.216407
0.356343
-0.381022
0.559217
-0.115416
-0.012440
0.303271
0.299396
-0.390447
1.036620
0.444695
-0.678969
1.270681
-0.564163
-0.906924
-0.094729
-1.017357
-0.349328
0.484204
0.304090
1.290307
-0.781033
1.003962
-0.844311
1.225385
-0.028111
0.181215
0.487271
0.751400
-0.577899
0.696809
-0.413373
-1.431861
-0.581954
-0.530436
-1.032447
0.546627
-0.388336
-0.508912
-0.805494
0.675505
-1.621737
-1.272059
0.973957
-0.748086
-1.911006
-0.038411
0.525416
0.119341
2.624443
-0.706451
0.681196
-1.795754
-0.560806
-0.783469
1.277149
1.275058
-1.618888
0.837173
0.147120
1.468445
-0.173948
-0.585830
1.078186
0.066008
-0.132714
1.746233
-1.236732
0.129809
0.108236
1.839206
0.358414
-1.031774
0.231349
0.213725
0.889363
1.616670
1.167313
1.698530
-0.585616
-0.869630
1.209129
-0.962221
-1.616282
-0.368120
1.792754
0.650730
0.683294
-0.373262
-0.626293
-1.006929
-0.602299
-0.661905
-2.464094
-1.213220
1.169179
0.130546
-0.425459
0.024399
0.077459
-0.319484
0.823622
-0.913319
0.553853
-0.734315
1.474649
0.709162
0.244056
-0.959579
-1.256131
-0.334904
-0.347713
0.291799
0.801026
-0.338575
2.555939
0.765154
0.007868
-0.640232
1.340310
0.690346
-1.850008
-2.056186
2.027296
-0.957997
1.058759
0.890099
1.640459
0.987025
-0.358204
1.308251
1.276858
-0.005045
-1.654634
0.557648
2.041086
-0.204377
-0.157159
1.563408
-1.655802
0.005103
-0.387893
-1.079965
-1.000743
-0.785105
0.997453
0.823314
-0.989400
0.496930
0.454576
-0.725537
-0.358778
-0.215866
-0.634732
-0.864856
-0.761904
-0.476647
0.159424
0.207846
0.006650
1.385807
-0.958161
-1.228047
-0.653135
1.465833
0.646970
-0.703614
-0.510518
0.409869
0.208664
-0.447673
0.626189
-1.212484
1.188202
0.416513
-0.456950
0.523401
1.884410
-0.491334
0.617625
-0.912643
0.955840
0.415692
-0.979055
0.929613
-0.390428
-1.117837
0.354225
-1.528762
-0.532721
-1.443489
0.269994
-1.251101
0.691427
0.736831
-1.451637
-0.660564
-1.923808
-2.000559
-1.030418
0.070285
-0.870220
1.256451
-0.247882
-0.514659
-1.347882
2.735649
0.127390
-1.899991
0.060099
1.420221
-1.274408
-0.522994
0.180876
-1.651305
-0.484928
0.483815
0.565778
-0.720393
-0.512029
-2.350277
0.394757
-0.433386
-1.093579
0.687966
0.831389
0.145747
-0.018979
-0.541186
0.841407
0.034095
0.270599
0.006122
-0.713527
-0.437092
1.022758
0.938609
0.511004
-0.241624
-0.600462
-0.062247
1.354592
0.044830
0.064536
-0.619188
0.145142
-1.539359
0.433916
1.550793
0.392798
-1.065228
0.206161
-0.197942
-0.350672
-0.114145
1.223754
0.123192
-0.870046
-0.147093
-1.310556
-1.358945
-2.019586
-0.711176
0.589535
0.230980
1.709551
0.188024
-0.242864
-0.893498
-0.245440
-0.261624
-1.052342
0.082692
0.061137
-0.742696
-0.439479
-0.044763
-0.701711
0.673766
-0.243438
0.281493
-0.385065
-0.457545
0.546944
-0.740508
-0.371863
0.044396
0.204947
-0.449103
-0.805831
0.827611
-1.210039
0.777372
0.573503
-1.298698
-0.196547
0.133248
1.895531
0.064085
0.836684
-0.015745
0.379338
0.060785
1.247344
0.518026
1.808334
-0.240068
-0.536691
0.128044
0.269546
2.906233
-0.156106
1.427879
0.046882
-1.061285
-1.761920
-0.061375
0.273179
-0.216904
0.176757
-0.035229
0.050956
-1.407824
0.158911
0.298949
0.072524
-0.611551
-0.097031
1.413730
0.656421
-0.337995
-1.605158
-0.022665
-0.124960
0.513485
-0.480895
-1.368020
-1.224851
-2.738114
-0.503249
0.625193
-0.264000
-2.451559
0.726115
-0.945650
-0.758322
-0.708834
0.161151
-0.396352
0.055725
-2.018497
-0.079766
1.296941
-0.780259
-0.946126
0.892471
0.782840
-1.074745
-0.853568
-1.863877
1.785517
-1.303724
-0.129118
-0.201837
-1.050397
1.185189
0.446423
0.358617
-1.661242
-0.066172
-1.245265
-1.857153
0.029435
-0.542221
-1.298348
0.202339
-1.245012
-0.188917
-1.149786
-0.399713
1.133426
-0.176765
-0.184504
0.307517
1.173171
1.123109
-1.355500
-1.979954
0.430455
-0.332149
-1.121076
-0.141944
1.092828
0.553364
-0.215749
-1.717602
-0.031054
-1.687804
0.499663
-0.290424
-0.029842
-1.189877
0.434837
-0.667364
-0.831913
0.230921
-0.366859
-0.205363
-1.376105
0.940510
0.252699
-0.828694
-1.503122
-0.050532
-0.785123
0.391685
-0.328321
-1.298538
-1.421168
-2.193568
-0.262905
0.504166
-0.142916
-0.275771
1.867788
-1.080261
-0.642071
-0.904883
0.055411
0.630678
-1.447144
-0.060265
0.223455
0.103356
0.209489
0.200453
0.802465
-0.096221
0.949966
3.709622
-1.036712
4.180900
0.427813
-1.036480
0.224507
-1.453830
0.355446
-0.352643
1.736007
-1.714107
0.108649
-1.132593
-0.878645
0.516234
-0.091344
-1.339760
-0.576738
-0.638525
-0.095218
0.119416
-1.046293
-1.637634
0.857550
-0.796322
0.673815
-0.155114
0.485155
-2.795369
-2.737929
-1.473913
0.064574
0.035173
0.855406
-1.437680
-0.740241
-0.437970
-1.790755
-1.230612
-0.915407
0.530808
-1.443593
0.777770
0.345359
1.062880
1.646505
-0.503045
0.324634
-0.525915
-0.433084
-0.189657
0.650896
1.657599
-1.121959
1.056551
0.750298
-0.083411
0.379991
1.559635
-1.707314
0.449060
1.245289
-1.906089
0.184654
-0.150478
0.609473
-0.118417
-0.608087
-0.744058
-0.881099
0.570146
1.513268
0.797200
0.996789
0.042872
0.883931
0.132055
-0.152658
1.382001
1.349037
0.831116
-0.467760
-0.069965
0.089853
2.288482
-0.641597
1.143033
-1.167447
-1.068663
0.540596
0.411201
0.052723
-1.330450
0.330016
-0.416783
1.114255
0.998201
0.869675
-0.791810
1.642686
0.049985
-1.895473
-0.115682
1.607661
-0.085698
0.493179
-0.381946
0.127609
-0.211361
1.515980
-1.592232
-0.265451
-1.283728
-0.817560
-1.952619
-0.099857
0.868101
3.627982
0.328242
1.926640
-0.259865
1.017067
-0.144073
0.426613
-0.712257
0.987903
-1.064405
0.328117
0.639621
0.044358
1.833395
-0.521758
-0.785225
0.134078
0.194970
1.181506
0.857925
0.026141
0.558481
1.042610
1.549229
-1.729248
-2.115030
-1.034416
-0.451370
0.216598
0.694107
-1.259917
-0.458434
-0.321882
2.249273
-0.552948
-0.477238
-0.324013
-0.086053
1.962753
-0.069785
-1.083258
1.582914
1.453809
-2.123380
0.792174
-0.024335
-0.673819
0.273050
0.679181
0.630755
-0.386185
1.428782
0.175044
0.105991
-0.144060
-1.622650
-0.177943
-1.757338
0.057762
1.024339
0.375410
-0.373272
0.176886
-0.151820
-1.670098
0.068414
-0.047020
1.240424
-0.028773
1.715171
-0.130955
0.149034
-0.944873
0.040944
1.306760
0.482514
-0.809485
0.683017
0.377314
0.479049
0.941526
0.349318
-1.328360
0.654404
-0.571090
0.189889
-0.377317
0.119794
0.430321
-0.187504
-0.802061
-0.591000
-0.721795
-0.087359
0.494141
1.232065
0.652754
-0.317067
-0.437413
-0.349514
-0.450486
0.489486
1.257378
-2.541630
-0.509808
-0.552193
0.527568
0.752538
0.937278
0.261862
-1.763169
0.113597
0.325202
-0.402597
-0.945024
0.376136
-0.279196
0.649899
0.696856
1.036917
-0.842622
-0.421599
0.487919
0.798201
0.839858
-2.491599
-0.442675
1.640055
0.687208
-0.208280
0.195871
0.470006
2.359498
-0.786630
-0.301406
-0.923327
0.263160
0.560435
0.736106
1.329535
-0.797767
0.408043
-0.515657
0.871797
-2.890245
-0.259296
0.358531
-2.195101
-0.230302
-0.929610
0.740081
-0.320676
1.640981
-0.424221
-0.270158
-0.225354
-0.064258
0.748478
-0.465824
0.408774
-0.102712
-0.112698
0.569390
0.809931
-0.003354
-0.081504
-0.215158
-0.215494
0.985192
-1.169435
0.222996
-0.009713
0.442709
-0.630628
-1.253046
0.028583
-0.796420
-0.631826
0.797060
-0.211504
-1.527845
0.182886
0.675589
-0.949972
-0.306628
-2.840513
-0.335979
0.291144
1.300006
-1.269697
-0.289132
-0.206292
-0.487720
0.553557
-0.335058
-0.176034
-0.865849
0.822219
-0.572790
1.833602
0.025557
0.268082
-0.700791
-1.459294
-0.210396
1.183318
-0.619018
-0.203157
0.517732
1.279582
-1.030213
-0.143041
0.683427
-1.603766
2.190794
-1.079244
-0.139691
0.400346
-0.016671
-1.122712
0.841663
-0.185318
0.745189
0.317229
-0.560007
-0.011247
-1.381414
2.101755
0.111611
0.267969
0.749411
-0.581937
-0.342279
0.455184
-1.008370
-0.582395
-0.275008
-1.568241
0.408451
0.528383
1.734178
0.668453
-1.803375
-1.945958
1.172333
0.460120
1.001029
0.987388
0.568236
0.395774
-0.416204
0.634558
-1.203779
1.957237
1.364431
0.613117
1.119187
-0.845300
0.953363
0.890258
2.034057
0.007450
0.494585
-0.460412
0.643980
-1.414062
-0.549093
0.473459
-1.876130
1.454797
-2.621110
1.986151
-0.438227
0.703478
0.553735
-0.463520
-0.843310
1.576393
0.553278
-1.448305
0.727115
-1.103364
0.221784
0.865488
0.610351
-0.331367
-1.674805
0.954778
0.713066
-0.805866
0.041311
0.321999
-1.462648
0.142285
-0.839333
0.787093
-0.963028
0.631287
0.542265
0.282716
0.474854
1.584854
0.238166
-1.232311
2.307345
1.195185
-1.728789
2.139771
-0.015980
-0.155585
0.698102
-0.432467
-0.017368
-1.649149
0.294088
-2.866968
-0.919845
-1.480832
2.193281
0.196821
-0.781768
-1.071947
-0.149538
-0.915129
2.299954
0.142104
1.573770
-0.417573
0.404217
-0.045555
-1.151310
-2.493442
1.257973
-1.203422
-0.086282
-1.663540
0.533782
-1.177932
0.444623
0.039957
-0.279509
-0.171594
0.452236
-0.122605
0.557357
0.060743
-0.035084
1.466119
1.408990
2.573434
-1.122702
0.160755
0.237294
1.690588
0.659098
0.779116
0.449754
1.544197
-0.695722
0.674621
0.757606
1.796396
-0.915917
-1.060521
0.278016
-0.483533
-1.545520
-0.889566
-1.475216
-0.733218
-0.101693
-0.227631
-0.164284
0.081475
0.458489
0.408462
0.344117
0.330076
0.669538
-2.158237
-1.999165
-0.841579
0.969573
-1.443781
1.056845
-0.380227
-1.427848
0.414080
-0.746757
0.254952
-0.490637
0.996667
-0.015699
-0.588133
0.088384
-0.746918
-0.060043
-1.211596
-0.623751
-0.153686
-0.137379
-1.683540
-0.179761
-0.436645
-1.959411
0.551124
-0.353002
0.470196
0.373798
-1.299873
-0.798692
0.386302
-1.444732
0.373547
-2.432368
0.220421
0.499555
-0.318134
-1.466723
0.463396
-0.636392
0.055587
0.538076
0.154388
0.482803
-0.749535
-0.956231
-1.350125
-0.633436
-0.179484
-0.257426
0.519963
-0.572677
2.326105
0.548939
0.955742
-0.488686
0.023363
1.133067
-0.356417
-0.450437
1.346059
-0.489150
-1.034929
-0.841940
-0.299328
-0.256758
3.659801
-0.360166
-0.561671
-0.916854
-0.222739
-0.890628
-0.091870
0.189219
-0.063590
2.089107
0.058855
1.891668
-1.479391
1.696616
0.167227
-0.713517
1.533767
0.808853
0.214781
0.587893
-1.709698
1.523184
0.331204
-0.390378
1.146465
-0.321748
-1.344236
-0.466747
2.077939
-1.845847
-0.150343
0.535280
-1.751435
0.947497
-0.516284
1.126982
-0.542438
-0.748230
1.803198
-1.257599
0.470592
-0.678130
-1.410999
-1.420038
-0.812954
1.123992
0.614132
1.111797
0.827964
-0.791320
1.299636
0.264311
-0.999332
1.428303
0.180616
-0.154672
0.550957
-1.430683
1.023171
1.797731
-0.970719
0.765974
-1.587277
1.274523
0.906181
-0.641736
0.863573
0.016619
0.734291
1.530239
-0.330677
0.098096
1.229322
-0.307614
-0.007671
-0.454808
2.163451
-2.034693
-0.198702
1.729242
1.939952
1.565004
-0.247799
-0.721258
0.278527
-0.045539
-0.119413
0.304946
-1.722323
0.301659
0.404594
-1.384144
0.557763
-0.585401
1.906686
-0.239635
-1.019085
-0.721121
-0.177894
-0.259954
1.234638
-0.430405
-1.047955
-2.212789
1.175707
0.374632
-0.687420
0.629058
-0.024995
0.598028
-0.517072
-0.641281
0.927836
-0.773332
-0.279897
-0.644899
1.581979
0.272515
0.498662
-0.142581
-0.742075
-0.395551
1.141926
-0.548290
0.083443
-0.019108
0.557672
0.361793
0.036307
-0.221529
0.683799
0.968999
0.250082
-2.102077
-0.345771
1.465964
-0.078705
-0.147298
-0.256850
0.171583
-0.667241
-1.371166
-0.588890
-0.169588
-0.052590
-1.111335
-0.243591
0.173018
-0.028078
1.208823
2.436577
1.135235
2.209040
-1.183758
0.664732
-1.326153
-1.200891
0.677391
0.424626
-0.035103
-0.346819
1.437728
0.404270
-0.771824
-0.552302
-0.389944
-0.096530
-0.076966
-2.070718
0.464019
-0.594151
-1.691872
-1.526056
2.624580
0.554924
-0.242293
0.169526
-2.480818
-0.753145
-1.153705
0.084967
-1.332544
-1.143508
-0.059407
-0.250229
1.767150
-0.591384
1.057962
0.723091
-2.122385
-0.557240
0.312113
1.943707
0.108887
-0.315754
0.939621
0.396715
-0.279387
-0.310997
-0.239794
-0.778151
-0.577604
0.628990
-0.062237
-0.384203
-0.450669
-0.454894
-0.015869
-0.755879
0.839728
-0.818758
1.282498
0.502214
0.346657
1.034644
-1.718403
-0.851391
0.071214
-0.966191
0.117541
-0.567759
-0.969276
0.328538
-0.418095
-1.690426
-1.811129
0.993207
0.460115
1.270211
0.113752
-1.420709
-0.720342
0.363187
0.661258
-0.064185
-2.046175
0.129199
-0.740103
-0.130974
-0.331176
-0.804083
0.235641
0.229823
-1.397416
0.439997
-0.585802
3.153574
-0.132360
-0.152077
1.273162
-0.099430
-0.336974
-2.619475
1.157860
-0.473849
0.179519
-1.835441
1.675322
0.119219
-0.033518
-0.921296
-0.653121
0.980329
-0.147705
0.007960
-0.342014
-1.954690
-1.353765
0.333949
0.746297
-1.463156
-0.965194
0.772798
-0.963442
0.579843
-0.896812
-0.820824
0.281614
0.341980
-0.370053
-0.368385
0.942228
0.488054
0.855439
-1.187638
-0.123414
0.932775
1.956205
-0.257581
-0.120748
-1.545554
1.366980
-0.113310
-0.126024
1.146023
-0.202894
0.474923
-0.210618
-0.751213
-0.693909
-0.035435
-0.715721
1.387336
-1.304819
1.626193
1.219579
0.103136
-0.485402
0.770055
-1.506612
0.547342
-1.423331
0.162202
-0.885918
-0.768655
1.275799
1.510797
-1.286743
0.335263
-0.891456
-1.246993
0.161672
-0.389574
-0.606169
-0.289747
0.591759
2.139448
-0.189394
-0.611781
0.460635
-0.621203
0.504276
1.730064
-1.794271
1.865175
1.578912
-1.344023
-2.333265
-0.514875
-1.936987
-0.767782
-0.315688
0.486044
-1.080028
-2.137436
-0.533484
3.402756
0.160872
-0.582107
-0.576963
-2.812608
-1.822170
-0.304912
-0.522543
0.017204
-0.015746
1.382330
-0.179710
-0.175070
-1.198067
-0.157704
-0.788348
-0.998922
0.158223
-2.386555
-1.846624
0.469122
-0.192938
0.060687
1.796909
0.931977
0.329577
0.066203
0.000545
0.309490
1.202183
0.665505
-0.977071
0.326879
1.295324
-0.943367
1.656774
-1.498980
0.320265
-0.754111
0.203412
-1.648612
-0.328196
-0.491558
-1.236191
0.287518
-0.401369
0.773549
1.313174
-0.170313
-1.614652
-0.549844
-0.672713
-0.104245
0.007251
-1.376453
-0.986317
-1.047762
-0.834108
0.710954
0.390943
1.556227
0.720511
-0.358924
0.988111
-0.932515
0.529283
-0.393960
1.061623
0.032572
-1.132535
-0.668023
1.994654
0.204770
0.718825
-0.639718
-1.568676
1.099447
-1.591648
0.068240
1.286810
-0.420074
0.792219
-0.576222
-1.236832
-1.140867
-0.686940
0.112164
0.868458
-0.572680
-0.269992
0.818958
-1.457153
1.192194
0.573258
0.352620
-2.676538
-0.442633
-1.003633
-0.825252
-1.807801
1.960198
-1.245891
-0.783303
0.309946
1.237212
2.010360
-0.195522
0.978830
-0.116179
0.367968
-0.578034
-0.731334
-0.305822
0.075376
1.083134
-0.170523
-0.616001
0.916176
-1.412212
0.153655
-0.733662
-0.459915
-0.242647
0.084196
-0.940798
-0.143067
-1.212293
1.302659
-0.541267
-0.101291
0.605100
0.800012
-2.015011
-0.755943
-0.091596
-1.891278
-1.346885
-0.110548
0.121984
0.025369
0.004527
-0.590659
0.074556
2.012974
-0.859409
0.437103
0.162724
0.394234
-1.077433
1.733770
-1.724796
0.241031
1.375269
-0.700833
1.511304
-0.302664
-0.737732
-0.403877
0.834530
1.125273
-1.286187
1.329712
-0.199700
-0.503729
0.692575
0.520883
0.068804
0.230345
-0.380617
1.022392
-0.098730
-0.497462
-0.854516
1.264758
0.438593
1.031511
-0.266714
-0.644422
-0.115691
-0.761631
-0.101295
0.537773
0.669244
-0.119168
-1.682246
-0.949749
-0.345723
0.556296
-0.182045
0.180289
1.633889
-0.942209
0.209555
-1.031321
-0.582400
-0.517215
0.508729
-1.246747
0.452486
-1.044515
-1.729096
-1.189268
0.663494
1.240819
-0.631181
-1.700297
0.860670
-0.313706
-0.987159
2.029302
0.456950
0.087744
-0.539340
-0.258746
0.660957
0.997642
-0.894546
-0.527736
-0.093575
-0.817815
0.400672
1.059424
0.083255
1.059543
0.645761
0.196249
-1.929235
-0.706149
-0.029507
-0.180000
0.670027
0.972860
-0.312685
-0.217379
0.802229
1.037359
0.537725
-0.251923
0.811074
-0.271807
1.418970
1.652144
-0.760955
-1.538562
1.519617
0.886825
0.661644
0.447666
-0.240216
1.216846
0.937191
0.710800
-0.481090
0.169222
0.384591
0.133753
1.576684
0.119518
0.267741
-0.159002
-1.540417
-1.067497
1.500637
-0.530796
-1.869725
-0.362025
-0.292772
-0.379035
1.199926
0.851354
-0.127578
1.178981
0.173887
-0.060032
0.156297
-0.412525
-1.399355
-0.610636
1.173619
-1.115553
-1.516208
0.690987
-0.629078
-0.077450
-0.754663
0.210397
0.783439
-0.488367
-0.696674
0.647288
1.278911
1.326402
0.173368
-0.010704
1.734436
0.376052
1.429770
0.826724
-0.715092
0.424159
-0.497843
-1.788726
-0.051837
0.146519
0.500663
-0.750174
-0.306345
0.439587
-0.126068
0.107245
-1.055310
-0.443176
-0.579751
0.576145
-0.798190
-0.606916
-0.597591
-0.069650
-0.387530
0.821214
-0.249215
0.477794
0.757246
0.118271
1.951270
-0.864195
0.343963
0.530437
-0.025837
-0.834963
0.044990
-0.389285
-0.639094
2.455774
-0.829347
1.002064
0.185234
1.642361
-0.785654
0.247594
0.407611
-0.552360
-0.652110
0.911252
0.195374
0.935518
2.338562
1.242643
2.133552
1.660094
-1.736124
1.255783
-0.020850
2.127206
-0.727551
-0.773833
-0.138752
1.426615
0.835683
-0.667145
-0.142387
-0.582074
-0.762328
-0.832262
-0.846391
0.357651
-0.763204
-0.634334
-1.083616
-1.124086
-0.468479
0.044910
1.219045
-1.532627
0.119176
0.944756
1.193274
0.615651
0.372210
-1.406023
0.448396
0.811873
-1.392643
0.766243
-0.761710
0.521622
-2.249739
-0.259917
0.593692
-1.199400
1.465207
-0.011617
-1.174107
0.978328
-0.619428
-1.764260
0.260206
1.609694
-1.290287
2.085132
-1.098407
-0.544316
1.136959
-0.138646
0.822574
1.818466
1.054491
-1.060090
0.458664
1.026294
-1.040906
1.103386
1.150961
0.893786
0.728928
-0.585565
-1.765428
-0.780631
-0.208030
0.534285
0.762510
0.814592
-0.459414
-0.235918
-1.373295
-1.115148
-0.086847
0.174446
-1.102931
-1.224502
-0.283303
0.469891
-1.432325
-0.422535
-0.020567
-0.073564
-0.620612
-1.009044
-0.824413
-1.631328
0.372600
-0.938960
-0.555334
-0.977198
-0.182576
0.128422
-0.472234
-0.075992
1.059205
0.840766
0.136094
1.101745
0.546672
0.363117
-0.180089
0.122010
0.705255
0.834724
0.247629
-0.008102
0.102594
-0.763575
-0.742272
0.284676
-0.906584
0.753003
-0.779723
0.181229
0.765839
1.222154
-2.570788
-0.826267
0.077812
0.130780
0.694683
1.300318
1.031098
-2.007432
-0.619648
0.528066
1.316242
-0.922401
-0.890305
-0.271208
-0.057818
2.005626
1.409224
0.825450
0.160046
-0.589118
0.985006
-1.083703
-0.091963
-0.565526
-1.717682
0.089270
-0.345493
-0.235466
-1.254317
0.960462
1.572049
-1.242306
1.363229
0.378341
-0.741658
-0.210733
0.483223
-1.279598
-0.591415
1.161524
0.087050
-0.794802
0.832967
0.366531
-0.305713
-1.110614
-0.580172
-1.073131
-0.838673
-1.991876
-1.664107
0.451899
-0.456916
-0.138359
-1.494730
-0.587087
0.597023
1.431218
-1.233294
0.140790
-0.050950
0.426287
-0.975335
0.202893
0.675655
-0.874521
0.305670
0.127567
-0.824328
-0.406462
0.852216
-0.460225
-0.384658
0.756405
-1.536783
1.686921
-0.698433
0.711096
2.776899
0.421014
-0.071884
-0.150058
0.313632
-0.015481
-0.951600
1.740667
-0.853222
0.114959
0.918885
1.148243
-2.044180
0.790127
0.612445
0.278402
0.983243
0.667316
0.964812
-1.476505
-0.521790
-0.864122
-1.213141
-0.926884
2.048608
-0.515302
0.699531
0.509468
-0.660541
1.039954
-1.134474
-0.876995
0.261768
-0.611647
2.141328
0.593073
1.591372
0.928084
-0.226545
-0.247748
0.490678
1.323866
1.211994
-1.545006
-0.774731
0.462307
0.004007
-0.452613
-0.685253
2.858174
-0.940652
0.104575
0.406199
0.850719
1.479262
-1.078655
0.312382
0.132506
-2.132269
0.275841
0.551199
0.512392
-0.830713
1.896616
0.068269
0.595761
0.546920
-0.281176
0.535385
0.405823
-0.846985
-0.116192
1.524636
1.111576
0.021294
-2.015989
-1.031218
0.716461
-0.207915
-0.135631
0.733755
-0.022950
-0.310084
-1.264623
1.108322
-0.283406
0.653591
0.285280
2.407085
-2.135106
-0.425386
-1.436149
0.398129
-0.918031
0.973894
-0.841661
-1.034670
-0.006698
1.221528
0.396150
-0.979081
1.210230
-0.097484
1.072053
-1.971151
0.779857
-0.585829
-0.250338
-0.546483
-1.897508
-0.861252
0.174689
0.631838
-1.018501
0.768854
1.153050
-0.309181
-0.851094
-0.236570
-1.123942
-0.199822
-0.867072
-0.432852
-0.179965
0.212590
-0.058904
-1.572347
-0.189556
-0.468623
0.122301
0.297336
-0.254813
0.229195
0.782485
0.930244
-0.779310
0.929477
1.117044
0.974602
-0.628104
0.144163
-0.869723
-2.779552
0.129365
-0.411961
-2.017323
1.194846
0.597844
0.010571
-1.008652
-0.652772
0.635556
1.087778
0.752071
0.414229
-0.302045
-1.167366
-0.583216
1.275343
-1.601982
-0.842871
-0.630107
0.053263
-0.329556
0.330303
0.296972
-0.364143
-2.350083
-0.643117
-2.304935
-1.032133
-0.416972
-1.672836
-0.619696
-0.431203
0.463950
0.086210
-0.371010
0.041487
0.915119
0.870944
-0.772169
-0.997984
-0.489491
0.303773
1.437921
-2.415735
0.966648
-0.344469
1.548305
-0.326439
0.745656
0.666272
0.516912
0.129909
2.064020
-1.375776
0.458460
-1.195487
0.111255
0.841239
-0.206543
-0.387437
-0.772559
-0.677019
0.824744
0.445488
1.367679
-0.321877
0.925104
0.805918
0.694861
1.895970
-0.266400
-0.452965
1.207893
0.053453
-0.417940
-0.614768
2.702541
-2.984878
-0.501366
-0.821014
-0.837311
-0.711234
0.750266
-0.975207
1.297493
-1.919247
0.822430
0.150781
-0.027777
0.508871
-0.560713
0.108407
-0.499740
-0.812087
0.063601
0.910762
-1.779685
-0.948891
2.086101
-0.176597
-0.132605
0.155113
0.691679
1.778629
0.027796
0.195739
0.622930
-1.558133
-0.787035
-1.102132
0.863754
-0.856709
-0.877398
0.804080
0.423502
-0.864010
-0.035333
-1.514594
0.434531
-0.603397
0.504402
-0.832191
0.136096
-1.423249
0.706128
0.186067
-1.914724
-1.041733
-1.550088
1.433214
0.294981
1.734865
-0.326036
-0.172224
0.774969
0.739464
0.343384
-0.367651
0.001524
2.567309
0.840053
-1.924362
1.400236
-2.417191
1.230618
-1.928431
1.226233
0.066926
-0.983650
-1.345913
0.058958
-2.143257
0.027044
0.206231
-1.029816
0.634718
0.937475
-1.582210
0.067045
0.459528
-0.605461
-0.231018
-1.213112
-1.389204
0.883147
0.740122
-1.783935
-0.254556
-0.176643
-1.272989
1.523812
-1.228427
-1.260466
-0.274053
0.589616
1.649004
-0.904439
2.423260
-0.312592
-1.024828
0.117139
0.247063
-0.498964
0.694297
0.765446
-0.378918
-0.455917
-2.436163
1.261479
0.000632
0.192813
-0.097792
1.990838
0.477591
-3.061298
0.120341
0.704101
0.847871
-0.090712
0.810788
2.007971
-0.164320
-0.753102
-0.274195
-1.084471
-0.389121
-0.251309
0.693693
0.672503
1.081826
0.124162
0.453364
1.042706
-0.809448
-0.581869
-0.058247
-0.054600
0.367718
0.835754
0.893617
1.019398
0.324726
-0.677829
-0.343171
1.355564
0.560858
1.590410
1.470304
2.409492
-0.711215
-1.000756
-0.789109
0.162304
0.012610
0.955201
-0.793033
-0.014775
0.158179
-0.161134
0.803095
0.729750
-0.403437
0.837947
-0.396316
0.207518
-0.131704
1.421706
1.679569
0.359150
0.392636
-0.917396
-0.600734
-1.693196
2.122160
0.758663
0.637473
0.624425
0.038167
-0.766337
-1.452796
-0.145502
-0.041315
-0.873189
2.349100
-0.926090
0.004831
-0.655123
-1.249115
-0.554737
-1.166326
0.845489
-0.166793
-1.045133
1.328624
-1.005879
0.898447
-0.154908
-1.940104
-0.902879
0.514328
-0.009570
-0.545303
1.177513
0.039769
0.980181
-1.054924
-0.617683
-1.296796
-1.645381
-0.106959
-0.114117
-0.940965
2.232493
-0.088496
-0.253538
-1.687153
0.904274
-0.885376
0.310664
2.073597
0.786835
0.864251
-0.950538
0.784446
-0.996463
0.062057
-0.366288
0.228005
0.876975
-0.534921
-0.259686
0.256059
-0.309718
0.971408
0.470037
0.126161
0.530366
-0.630006
-0.802494
-0.758771
1.100750
-0.950691
-0.177650
-1.432849
2.371258
-0.872128
-0.675868
1.428902
-0.883138
-0.356605
0.150646
-1.931695
-1.002017
-0.944056
0.531008
1.225689
-2.822292
-1.115685
-0.870238
0.035226
-0.242368
0.469948
0.551167
-0.221959
1.309934
0.820707
0.232737
-0.928900
-1.902041
-0.509887
1.248536
-0.579738
0.887422
-0.292992
0.437601
1.398655
-0.977413
0.355330
0.862606
-1.319531
0.063936
0.433357
1.926795
-1.116628
0.707100
0.150362
-0.070141
0.245269
0.412575
0.803976
0.218864
-0.391608
0.497595
1.569996
2.398071
1.838618
-0.837390
-0.507092
-0.125891
-1.444779
-0.819651
0.404264
0.021461
-0.800909
0.658039
-1.724801
-2.064514
-0.295884
0.560970
0.658028
1.105493
-0.694527
-0.205600
0.862560
-0.642308
-1.470371
0.606900
-0.530431
-0.597397
0.572148
-1.779651
-1.396619
0.256219
-0.914121
0.943583
0.699953
0.500976
-0.993905
-0.376967
0.195054
0.002392
1.562642
0.020738
0.697773
1.904458
-0.073356
-1.262866
-0.561278
-0.169484
-1.694310
-1.541511
-0.172361
-0.986581
1.014249
-0.069630
2.256231
-0.427220
1.142529
-0.022982
0.182983
-0.000309
0.611615
0.664280
0.310915
0.711183
-0.862449
0.408186
-0.983137
-0.674505
-0.175649
0.241080
-0.590209
1.680313
-1.393686
-1.601550
0.470045
0.168302
0.543021
-0.126180
0.907684
-0.864205
0.164125
0.633091
-0.290484
0.716446
0.113103
-0.199199
-1.527766
0.355271
-2.455963
0.989083
-0.488892
0.520155
-0.632465
0.386092
0.026020
-0.649941
0.233619
0.109453
0.461547
-0.694712
-0.034316
-0.318887
-0.458188
0.855602
0.912495
-1.177753
-1.266648
-3.264971
0.182367
0.710426
-0.407126
2.244766
-0.092320
1.630916
1.082157
2.059066
0.193681
0.632909
0.698045
-0.679206
0.538076
-1.161391
-0.049017
-2.174527
-0.073332
-1.114847
0.193158
0.630359
-1.682492
-0.628129
-0.758477
-0.559541
0.316270
0.414478
-1.318736
0.464044
0.736300
0.370511
-0.116366
-0.659698
1.426673
1.486352
-0.311329
-0.024936
-0.565120
-1.808668
-1.698243
-0.831618
-0.361555
0.925369
0.809219
1.010394
0.043841
-1.151278
-0.071401
-0.276624
-1.823061
0.663181
0.457772
-0.988935
0.387830
-0.062140
-1.057504
-0.347315
0.417158
0.243080
-1.034100
-1.814795
-0.775598
-0.117362
-1.353623
-0.876384
-0.852875
0.215547
-1.420146
2.082108
-0.576399
3.190576
-0.994093
-0.525742
1.789988
-2.409112
1.132435
0.844964
-0.963890
-0.108093
-0.094011
-0.789583
-1.151668
-0.975980
0.862941
-0.470366
-0.913094
-0.152432
1.543931
-1.203730
-0.857710
-1.074081
0.106771
0.259692
-0.989674
1.058694
-0.398602
2.053537
-0.174912
-0.210891
-2.231635
-0.657092
-0.931021
-0.023950
-0.177147
1.047399
1.375424
-1.156830
-1.051517
0.529004
0.192477
1.186774
-0.144415
-1.506997
-0.270990
0.159017
-1.008680
0.966458
-0.500355
0.991024
-1.306234
0.643256
-1.192120
-1.746773
0.977333
0.029390
-0.242793
-0.368312
0.824000
0.840851
0.003798
-0.163625
0.406446
-0.435644
-0.598786
-0.470836
-0.400422
0.210854
0.543662
-0.842010
1.641980
-0.636464
-0.918864
0.700852
-2.274257
0.601768
-0.226248
0.371424
0.161605
-0.480120
-0.331737
0.545953
1.768484
-2.321502
0.093557
-0.955302
1.416818
0.581226
-0.279857
1.304610
0.370264
1.758131
-1.176247
-1.588371
1.519251
-1.297793
0.781767
0.910847
-0.185462
0.438312
-0.520677
0.671634
0.969025
1.806834
0.040219
1.247532
0.113166
-0.105003
-0.553356
-0.156552
-0.070132
-2.349327
0.749546
1.879733
1.249097
0.738183
0.544121
1.106383
0.026625
0.873590
-1.189128
0.185655
-0.011457
0.418901
1.044763
-0.822682
0.127979
0.059814
0.127896
1.143535
-0.101689
-0.413949
1.769114
0.632618
0.482717
-1.143638
-1.034800
-1.054921
0.878026
0.219530
-0.149578
0.220507
0.758919
-0.784719
-0.080870
1.536362
0.132719
0.251959
1.939274
-2.034775
0.131751
0.912814
-1.375748
0.971708
-0.809528
-0.011288
-0.132882
0.609636
-0.047495
0.535110
0.517344
-0.563433
-0.262374
-1.210208
-0.137768
2.414782
-0.664000
-0.096717
0.689857
-0.906521
1.268205
-0.014409
-0.357976
1.411174
0.485093
-0.859742
0.699402
-0.544081
1.115555
-0.969235
-1.988365
-1.025082
1.557968
-1.162336
0.390764
0.217874
-1.329135
0.577375
-1.425306
-0.275416
-1.242666
-1.453355
0.266527
0.321889
-1.222101
-2.524898
-0.413573
1.128561
0.302322
1.453479
-0.677022
-0.105535
0.806675
0.259199
0.193869
0.074816
0.455045
0.882621
-0.585942
-1.109682
0.557426
-1.778607
1.141458
0.636212
0.607968
-0.670516
0.484936
0.942619
1.305192
0.461523
-0.804865
-0.478162
-0.284621
0.114805
0.930409
-2.066094
0.136142
0.372118
-1.369555
-0.637438
-1.050183
0.951170
0.489485
0.371385
-1.420386
0.288079
0.049059
-3.177794
-0.653032
-0.903745
1.882782
-0.637697
-0.714093
-0.144897
-1.134200
-1.085085
0.555858
0.317471
1.562267
-0.258361
0.381650
-0.591651
0.865799
0.224648
-0.485583
0.544689
1.165923
-0.405083
-0.467744
1.653343
1.595513
0.393280
-0.372470
1.574866
-0.131420
0.396831
-1.141006
0.840575
-1.395639
-0.456039
-0.762447
0.139541
0.796529
-0.237072
-1.746629
-0.940033
-0.285812
0.881523
0.181079
-0.897770
-0.283954
-0.723853
1.171197
0.592207
-0.667449
-0.939561
-1.064997
0.891290
0.802668
-0.281122
1.203325
0.602498
0.657552
-0.844429
-0.399261
-0.128270
0.696589
-1.694459
1.004511
-0.991574
0.040885
-0.256155
0.447224
-0.057739
0.862894
0.070445
0.722504
-0.187389
-0.900200
0.794017
0.456622
-0.823807
1.390207
2.430014
0.322535
0.539557
1.655606
-0.622947
-0.159955
-0.268929
-0.339588
-0.372473
-0.831954
1.902769
-0.748933
-1.369048
1.100992
-0.368947
-0.388794
0.052662
-0.286902
0.034415
-0.437914
0.884041
-1.864799
0.275245
-0.116896
-0.014542
-0.975826
0.724996
1.111593
2.627266
-0.776654
0.606750
-0.961350
0.516984
-1.995373
-0.162639
0.351550
0.844033
-0.274335
-1.413445
1.458670
-0.479123
-0.600861
0.154626
-0.115725
-0.448539
0.973099
-0.509853
-1.092866
-1.156858
0.830099
1.537835
0.356726
-1.237121
-0.062589
-0.133578
-0.481722
0.127722
1.401743
-0.562930
-0.214872
-0.303864
0.816764
0.634219
-0.912299
-0.236189
1.276449
-0.768990
0.110831
0.585377
2.387880
0.295618
-2.084766
-0.577714
1.297923
0.053572
-1.237413
0.606526
1.082925
-0.667264
-0.394550
1.242795
-1.629595
0.673708
0.815889
-0.381774
1.045712
-0.938008
-0.503066
2.830804
2.699631
-1.128128
-0.268105
-0.390942
1.368327
-0.159612
0.567063
0.620920
1.335924
0.013839
0.443076
2.497093
0.416818
-1.557224
2.778081
1.542070
-1.580523
-0.831347
-0.163083
-0.497428
-0.067893
-0.051539
-0.715961
-0.233528
-0.019515
-1.541628
0.636911
-0.333069
1.111815
-0.048169
0.997298
-0.733759
0.895151
0.208752
-2.139608
0.090886
0.232411
0.494757
0.128762
0.316030
0.797428
-0.123277
0.270707
1.159736
-1.049803
0.343913
1.337910
0.120290
1.210846
-0.036428
-1.169454
0.461325
0.005461
-1.270825
-1.072597
1.257662
0.586389
-0.430188
-1.498822
0.622054
0.353383
-0.808762
0.340694
-0.360314
1.759225
0.303557
-0.042048
-1.085213
0.709811
0.245342
0.514210
-0.466735
0.976869
-1.058823
0.104656
-0.451590
-0.583724
-0.376709
-0.456185
0.721051
0.970040
-0.224118
0.840829
-2.478976
-0.494443
1.089770
0.736005
-0.158178
0.643767
-0.872675
0.459528
-0.205986
-0.757807
0.037433
0.772548
-1.690150
0.130352
-0.048828
0.159646
-0.272940
0.384574
-1.946966
2.456795
0.828539
0.476268
0.735372
0.185807
1.610343
0.095665
-1.525172
0.325567
-0.347926
-0.284514
-0.927663
-0.686224
-0.287891
0.050415
0.844153
0.888712
-1.422419
-1.302360
-0.443946
0.197034
0.608017
1.368529
0.659524
-0.275280
-0.746793
0.115026
-0.184732
1.708090
0.866272
-1.415791
1.059830
1.283579
-1.539978
-0.088477
-1.451208
0.985973
-0.283707
1.701930
-0.620180
0.126946
-0.765925
-1.144760
1.155192
0.886423
0.868820
0.226548
-1.780947
1.037831
0.300741
-0.180239
0.957817
-1.501369
2.219515
0.836524
-1.571205
1.082730
-1.132632
0.170469
0.339747
-2.340057
1.419432
0.235982
-0.738599
-0.339012
0.150540
0.832809
0.354702
-0.677571
0.037256
-0.638829
-0.353597
-0.921235
-1.901591
-0.835953
0.897573
0.714891
-1.140883
0.493951
-0.494286
-1.269421
1.527238
0.414032
-0.058773
0.115849
0.262111
-1.076685
-0.168050
-0.687294
-2.364414
-1.278069
0.446319
1.552750
-0.697221
1.797352
0.142115
1.256236
0.089785
1.075166
0.586002
0.108068
-0.649166
0.858160
2.484129
1.833075
0.295962
-1.515794
0.592083
-0.481318
0.232265
-0.475252
0.214457
-0.853770
-2.768614
-0.864787
-0.377192
-0.394257
-1.939320
0.723691
-0.309353
1.490990
1.119562
1.231185
0.168484
-0.809641
0.121989
1.346595
-1.003131
-1.210590
0.452487
0.043050
0.615001
-0.273098
-2.814444
-0.230338
-1.225034
1.013930
1.090735
-0.116602
2.060481
-0.648711
0.036353
-0.308245
0.833860
-0.214766
-1.460273
-1.030739
0.498489
0.973706
0.464491
-1.401384
0.791597
0.007499
1.555036
0.068254
-0.386940
2.397532
-1.295667
-1.324203
-0.529450
-0.227100
-0.085958
1.396858
1.473781
-1.530091
0.434650
1.731516
0.537942
-1.252851
-1.637975
-0.281421
-1.265715
-0.345168
-0.514470
-1.048663
1.333596
-2.372262
-0.449553
-0.381095
1.572372
-0.099954
-0.896201
-0.559135
-0.958272
-0.257416
1.114644
-0.169172
0.350747
-0.975248
-0.015707
-1.365403
0.346750
0.305044
0.681079
0.823878
-0.503448
1.791907
-0.369249
-0.322600
0.368642
-0.017276
1.463304
0.368545
1.526779
-0.911642
1.630498
-0.093792
0.423595
0.046031
0.533056
-1.509841
-0.490921
-0.897212
0.009879
0.281624
-1.979020
0.979304
1.603407
0.361806
0.456430
1.243935
-0.816935
1.526248
0.323233
-0.720475
0.771107
1.001177
-0.278497
-0.816505
0.146882
0.740094
-0.216517
-0.946447
0.112394
-0.117874
0.727030
0.307662
1.262722
0.345842
-1.093281
0.923939
-0.556951
0.997229
-1.000896
-1.366014
0.188019
0.694108
-0.269047
0.790620
-0.011420
0.235614
0.129020
1.500588
-0.180578
0.069428
-0.450270
0.875235
1.004338
0.385067
-0.829060
-0.094960
-0.483417
-2.528856
1.335293
-0.133116
-0.071303
0.229167
-3.402990
-0.140490
0.496264
0.637324
0.234191
-0.916166
-0.334497
-1.537230
-0.678054
0.087782
1.787056
-0.415802
-0.252492
0.278433
-0.264839
-1.303245
1.281263
-0.181993
0.038782
-0.866577
0.977988
-0.271732
0.140689
-0.803170
0.587903
-0.006440
-0.118185
0.635887
1.379180
1.514182
-0.040699
-0.010820
1.098843
-1.823014
0.847110
-0.605067
-0.832203
0.299985
1.403936
-0.544727
1.160805
0.316122
-0.359797
0.407402
-1.153246
1.008448
0.814046
0.183490
-0.358275
-0.072065
-0.489512
-1.068937
0.291568
-0.357692
1.682987
-0.738781
-2.860672
-1.680428
0.625729
-0.077329
0.616759
-0.617834
-0.116439
-0.359463
0.258085
0.460187
0.010562
0.373504
-0.059895
-1.119361
0.994393
1.334870
-0.717618
0.164187
1.066711
-1.153417
0.002967
1.855756
-0.614349
1.461324
-0.200489
-0.743257
2.428940
0.163952
-0.905216
-1.749116
-0.533665
-2.221576
1.653559
-1.108798
-0.043290
-0.117664
-1.283655
-0.657673
-1.412005
-1.121480
0.856508
-0.198895
-0.019216
1.479346
-1.121273
-0.609377
-0.451449
-0.451679
0.069902
-0.897633
1.904961
-0.093545
0.329176
1.569012
-0.431589
-1.321718
0.320267
0.242266
-0.387097
-1.714895
-0.318409
-0.632028
-1.186174
0.223923
0.809555
-0.214633
0.916688
2.330467
-0.593920
1.512830
-1.054057
0.390575
-0.550668
-0.571600
-1.091704
0.071554
0.647134
1.421155
0.011434
1.708095
1.799611
-1.164436
0.798318
-0.252738
-0.413549
-0.145671
-0.050274
1.646796
0.364828
-0.282392
0.548564
0.476150
0.918897
-0.041927
-0.186230
-0.523331
-0.126955
-0.792559
-0.521532
0.402694
0.837763
0.149129
0.410124
0.579086
0.929865
0.669062
0.177055
-0.047501
-1.152882
-1.823902
1.484369
-1.365708
2.566360
0.663091
0.610566
-1.480296
-0.779672
-0.752884
0.378644
-0.089641
1.307915
-0.177273
0.651674
-0.514569
-0.399613
-1.243625
0.488178
0.833159
-1.472266
-0.245479
0.135330
-0.095750
0.886463
-1.195627
0.294197
-1.285985
0.153461
-0.806730
0.409955
-0.333390
-0.899229
-1.666592
1.136476
0.373453
0.315080
-1.762397
-0.516936
0.549761
0.133721
1.267906
-0.566959
-1.582210
1.906283
-0.004379
-1.029837
2.162007
-0.919870
-0.789864
-0.485918
-0.337952
1.462832
0.523846
0.493391
-1.625550
-0.976971
0.727650
-0.393161
-2.689861
-1.071345
0.699697
1.336255
0.638524
-0.775014
0.883878
-0.919045
0.585673
-1.134693
-0.635972
-0.581444
1.056416
-1.845909
-0.910755
1.459069
-0.344340
-0.805618
1.789122
-0.428139
-0.244763
0.453080
-0.672113
-0.417146
0.214576
0.578562
-0.726996
0.133985
-0.716747
1.200309
0.807014
-0.832832
1.214137
0.302848
-0.122357
-0.741410
0.619379
-0.418473
-0.788746
0.327014
0.157510
-0.683899
-0.212250
-0.045683
-0.737076
0.331667
0.577228
0.532381
0.652095
-0.309712
-0.337118
1.169833
-1.200542
-0.947925
-0.757794
-1.496554
1.250886
-1.914871
-0.316160
0.303183
0.573823
-1.103204
1.961577
0.371997
-0.034452
0.640958
0.051886
-1.659374
1.162438
-1.871430
0.526872
0.046370
-0.810149
0.886096
-1.046432
1.623235
0.453689
-1.674002
1.006670
-0.172315
-0.896739
0.873120
-0.270376
1.197964
-0.663750
0.847546
0.301517
0.784188
-1.557856
-1.875988
0.027998
0.391580
0.342491
-1.452755
-0.474813
1.028060
-0.354653
0.569562
-0.994136
-1.222412
0.009845
-0.331550
-0.291734
-0.908837
0.660621
0.177131
0.226596
0.048339
-0.218019
-0.403880
-1.397386
1.128509
0.759095
-0.367266
-0.179533
-0.175509
0.672655
-0.402026
-1.011227
0.474123
0.609186
0.431869
-0.174104
-1.796036
-1.284504
-0.456271
0.746170
0.473152
-0.621758
0.346141
-0.649478
-0.420798
-0.821507
0.257602
1.040393
0.106430
1.279263
-0.375162
0.708445
1.020807
-1.719206
0.023845
-0.073932
1.781415
-0.469054
-1.088549
-0.628265
-0.818275
-1.301905
-1.071601
0.855261
-1.252595
-0.650097
-1.002527
0.835244
-0.665256
0.867186
-0.075901
0.519428
2.171219
-0.770012
-0.609825
-1.139809
1.201589
-0.966795
-0.557219
-0.395424
-0.871350
0.348504
-0.759340
-0.226870
0.238069
1.291595
2.007182
0.436882
-0.380713
0.672711
-1.116155
-1.464769
1.052791
1.304349
0.292624
0.868117
-0.433032
-0.017558
-1.272980
0.388198
-2.763675
-0.842787
0.008851
-1.110700
-0.032517
-1.344241
0.517867
0.622607
-0.378357
0.747665
0.660652
1.338478
-1.121877
0.282815
0.858986
-1.174715
-0.608627
-0.628696
0.443372
1.122013
0.052285
-2.413374
-1.498942
-1.094480
0.574378
-0.681303
-0.425121
-0.788424
1.484763
1.447504
0.368368
0.897054
-1.850913
0.287880
0.326572
-0.158890
-0.613486
0.600667
1.620683
0.035524
-0.028267
-0.007950
2.195749
-0.410579
-2.021027
1.359489
1.044468
-0.913030
0.480936
1.718318
-1.283955
-1.717643
-0.937761
-0.413399
-0.501782
0.265115
0.938542
1.294330
0.283858
-0.224423
0.565767
-0.746323
-1.044729
-0.535212
0.837829
-0.916160
0.966244
-0.507013
-0.712460
1.783702
0.098537
-0.384483
-0.531381
-1.290110
-1.038116
-0.902336
-0.213230
-0.609999
1.320181
-1.471082
0.820244
0.576548
1.327337
0.682699
-1.134622
-0.119557
1.230975
0.124006
-2.196801
-0.754499
0.663817
0.926611
-0.335121
0.597259
-1.019778
-0.042790
0.074216
0.925026
-1.120886
-0.263141
-0.012470
1.851451
-1.173304
0.693276
-0.947880
0.063363
2.730155
-0.869312
0.811375
-1.030701
-0.384390
-2.164443
-2.258168
-0.260276
0.904298
-0.116890
0.899453
-0.353385
-0.668364
1.778408
-1.718783
-0.229095
0.123660
0.531408
-0.709875
-0.060076
0.598629
1.533378
-0.854097
0.218336
0.104169
-0.800655
0.532354
-0.956776
-0.657360
0.199882
1.190649
-0.909483
-0.493027
-0.541694
-0.685883
0.331972
-1.074944
-2.451162
0.349613
0.414385
0.651821
0.167386
-0.532996
0.894468
-0.615142
-0.620380
0.762555
-1.246358
-0.591001
-0.652587
1.860019
-0.775446
1.532737
0.822964
1.825059
-0.052240
0.109376
-0.504984
-1.917751
1.096723
0.257323
0.959144
1.762412
1.079033
1.375196
-0.203848
0.637551
-1.068262
-0.675467
1.129755
-1.395897
-1.292415
0.126581
0.261120
-0.374459
1.129587
-0.128738
-0.673260
-0.703936
-1.625758
0.238932
0.512922
1.374910
-0.077430
-1.047656
0.929452
-0.528865
0.375796
0.493875
0.961236
0.011623
-0.470077
-0.904753
-0.130961
-0.228667
1.126241
-1.520557
-0.625352
-0.770778
-0.074203
0.192092
0.073557
-1.302579
0.045354
1.050116
-1.124798
-0.481487
1.810928
0.280118
-1.158248
-0.131398
2.211765
1.177238
-0.022962
-0.727781
0.771472
0.067144
-0.145236
-0.055031
0.104213
3.290004
-0.722637
-1.165859
-0.613752
0.470063
0.032505
0.108311
1.462649
-0.428872
-0.596322
0.802114
2.238054
0.846285
1.233513
2.152714
-1.217351
-2.336547
-0.115506
0.089345
-1.625781
-0.399558
1.232390
-0.028705
-0.553788
-2.164069
0.210943
0.840044
-0.019964
0.478561
-0.423981
-0.048531
-0.160987
-1.510720
0.016736
-0.422331
0.974152
-0.361321
0.413398
1.431937
-1.048346
-0.527355
1.982288
0.538677
-0.222094
0.721022
-1.122559
-1.198583
-0.947389
0.889288
0.259765
0.041468
-0.363308
-0.588184
0.599586
-0.443138
-0.872338
-0.141548
1.492634
-0.307275
-1.494919
0.749475
-0.558801
0.388969
-0.746593
-0.558118
0.803499
-1.256082
-0.148249
-2.328629
-0.813155
-0.675426
0.340601
-0.730873
-0.106878
1.544300
-0.322653
-2.308919
-0.099079
0.209779
0.717601
0.404065
1.006772
-0.310648
-1.494497
-0.284670
0.044243
-0.163668
0.143714
0.409963
-2.136071
0.902829
1.590741
0.399022
0.432341
-0.052512
-1.121494
-0.208697
-0.607717
-0.732892
0.409192
0.151035
-0.545839
0.850478
0.465703
-0.114624
-0.954579
0.424524
0.761378
-0.088418
0.426868
-1.168989
0.404192
1.420416
0.341074
1.082345
1.223613
-1.101977
0.126693
1.461886
1.213039
-0.141100
0.933131
0.043301
0.419508
0.479098
-0.833542
1.023010
-2.460611
-0.487719
-0.890203
0.316700
-0.375083
0.619910
-0.118757
0.706767
0.698345
-0.248277
-0.715416
-0.709014
0.233953
0.801256
-0.954575
0.320789
-0.959419
0.589229
-0.681482
0.363443
-0.590270
-0.186852
-1.302854
0.018687
2.614243
0.224704
0.812324
-0.487724
-0.323237
-0.078937
-0.468087
2.160944
-0.230587
0.300626
-1.614588
0.746516
0.136701
1.193209
-1.554004
-0.674066
-0.211819
0.091570
-0.460363
0.069558
1.891653
0.026134
1.279477
0.347089
-2.374485
-0.275439
0.146084
0.997304
-0.148501
1.846990
0.061873
-0.140241
0.727918
1.894539
-2.218985
1.375903
0.586327
0.542056
-0.427298
-0.388190
0.351699
-1.268243
0.593657
-1.661388
1.215311
-1.446686
1.195132
-0.085710
0.679357
-0.479928
-0.374648
0.249149
-0.403534
0.335892
-0.250211
-0.945041
-0.819178
-0.325441
0.282380
1.931959
1.543087
2.532260
1.814738
1.835539
-0.059708
-0.852423
-0.306532
-0.491185
0.344771
-0.425818
-0.466678
-0.673894
-1.688101
-0.458268
0.044557
-0.733031
-0.536596
0.774202
0.462469
-0.487829
-0.756865
0.428309
0.694926
0.459332
2.163539
0.415927
-0.703370
-0.070121
0.138757
-0.552290
0.382986
0.121914
-0.597790
-0.627998
-0.037518
-0.855279
-0.342298
-1.409137
-1.230047
1.811694
0.951904
1.243286
-0.536612
0.413397
2.171461
-0.502035
-0.128319
-0.210160
0.420570
0.963006
-0.808823
0.034824
0.374591
0.023848
0.905175
0.405481
0.606187
-1.955824
0.006940
0.267809
2.370017
0.507671
1.166294
-0.001447
1.045475
1.225600
0.623239
-1.851862
0.551702
-0.695834
1.080761
1.903384
0.208882
1.126156
0.606907
0.193367
-0.477725
-0.172075
-1.041968
1.182205
1.585566
0.047206
2.159939
0.063902
-0.070655
-0.369345
-1.449659
-0.883152
0.232238
-1.392957
0.204600
0.508162
1.494916
-0.168063
0.915727
0.098786
0.049205
-0.922408
2.226360
0.027146
-0.790384
-1.451724
1.025013
1.509007
-1.933835
0.627294
-1.329506
-0.445839
0.304062
-0.077978
-1.591796
0.758716
-0.078456
-0.708501
1.116897
-0.411923
1.456181
-0.790949
1.350929
-0.402895
-0.929665
-0.552964
0.455781
-1.251647
-0.540494
1.245943
0.721827
1.150383
1.131027
0.180544
-0.428682
-0.998435
1.263681
-0.519543
1.759398
-0.324477
-0.667790
-0.043531
0.607364
0.801542
1.810096
0.080066
-0.677254
-1.396612
0.414575
0.050915
-2.265459
-0.929848
-1.187097
-0.671127
-2.097833
0.344122
1.390303
1.383521
-0.803351
-0.575055
-0.322938
-0.405227
0.517381
0.545728
-0.774908
-0.163031
0.735320
1.342389
-0.263336
-0.347056
-0.341760
0.148153
0.784342
-0.527743
-1.226724
0.011571
1.083529
0.745241
0.087923
-0.247997
0.310246
-0.036649
0.062135
0.187283
0.237974
-1.148549
-0.562609
0.054959
0.706325
1.634757
-0.565551
-1.061098
1.321796
0.236318
1.275192
-1.166610
0.697052
-0.288415
-0.954035
0.036715
0.399462
-0.935656
-0.775813
0.550489
0.717032
-0.914499
0.910350
0.214081
-0.470742
0.817297
-1.134471
1.979020
-0.419005
0.907803
0.240578
-0.255275
0.047572
0.148531
0.902039
-1.676764
-0.568847
0.767125
-1.010950
-1.466465
-2.781066
1.134489
-2.241867
-0.569304
0.276329
0.534903
-0.844420
0.599355
0.390531
1.277672
2.308867
-1.164210
-0.570048
-1.926924
-0.863478
-0.312612
-0.487997
0.130217
-0.292192
-1.052991
-1.571296
-0.012815
-0.254353
1.220534
2.040262
1.048662
0.803743
-0.842501
-0.815382
0.003107
0.091947
0.464790
0.550075
0.459688
0.649953
1.039530
0.155561
1.422850
-1.101488
-0.035306
0.041510
0.579595
0.271598
0.990208
-0.225420
0.896897
-0.684754
1.547339
-0.236764
0.163474
1.174864
1.252449
-0.399357
-2.753084
-1.090377
0.775011
-0.687257
0.030929
-0.048591
-1.362800
0.547206
0.281143
0.958868
1.101316
0.229003
1.064790
1.835644
-0.985976
0.045658
0.998431
-0.566573
-0.443744
0.579396
1.821622
-1.842492
-0.011188
1.329097
1.463243
-1.294365
2.043781
0.583183
-0.414908
-1.561046
-0.267848
-1.091255
-0.202980
0.943888
-1.454096
0.364021
1.425976
0.741312
-0.392201
-0.690413
0.963349
-0.383234
1.892074
0.211676
-0.992637
0.208220
-1.060346
-0.327525
0.396294
0.303968
1.550570
0.330896
2.497627
0.183544
0.907120
-0.931623
0.693065
-0.914828
-1.030413
-1.065304
-0.015049
-0.384891
0.618631
0.659860
-0.413117
0.336742
-0.709179
0.152133
0.370285
0.435935
1.099778
-2.043280
1.219845
-1.765904
1.169971
-1.021186
1.675354
0.975664
1.154553
-0.587747
0.791047
-0.412721
-0.417308
1.920809
-0.093674
1.339428
-1.464297
1.195414
-0.390738
-0.522514
0.910507
-0.994358
-1.169117
0.623104
1.118839
0.507052
0.191801
0.432719
-0.012707
-0.837380
-0.213341
2.349088
0.552846
0.620841
1.581740
0.102676
0.709933
1.030513
-0.878101
-1.026766
-0.144199
0.957201
0.731940
-0.509488
-2.906259
-0.173777
0.261418
0.939939
1.194933
-0.183097
-1.408345
0.694009
-0.089166
-0.588742
-1.174429
1.718318
-2.467576
-1.504992
0.923730
-1.757501
-0.485838
2.179758
1.657278
-0.056411
0.420205
0.067122
1.046089
-0.643275
0.531242
0.354681
0.093826
-1.855647
-0.816676
2.122602
-0.469119
0.110810
-0.275691
1.028400
-1.468129
0.593323
-1.028545
-1.033649
-0.886284
1.320584
0.048203
0.878842
-0.356661
0.514905
1.753645
-2.124416
0.437127
0.294002
-2.462831
-2.139533
-1.350338
-0.074985
1.586100
-0.177020
1.405194
0.659545
-1.183989
-0.464199
-0.134414
-0.944173
-0.706948
0.498300
0.446227
-0.148685
-1.098063
-0.526671
0.159672
0.533525
0.196051
-0.583654
0.342136
-0.228150
-1.064672
-0.040568
1.041828
-0.024348
-1.453746
-0.814565
0.690507
0.972541
-0.967456
0.720129
-0.081617
0.351300
0.880920
0.334691
-0.213682
1.300184
-0.698069
0.341992
-1.311437
-0.815586
0.244132
0.815964
0.022434
-0.381051
1.821446
-1.837680
1.499330
-0.183891
1.845622
-1.147199
1.390053
0.594365
-1.994261
-0.032972
-0.441738
-0.493350
1.796777
0.877120
-1.958811
1.163976
-0.691096
0.775130
0.191795
-0.940938
1.629019
-0.153649
0.699352
0.075832
0.193415
0.127519
-0.839000
0.707470
-0.443600
0.856047
0.080170
0.786407
-0.450087
0.725441
1.080477
-2.321129
0.143473
1.224079
1.442479
-0.174524
0.049292
-0.498863
-0.530143
0.881740
-0.038597
-0.789703
0.893681
-0.463327
0.436147
0.079245
-0.352560
-1.426618
1.838112
0.059414
0.667554
0.368991
-0.149948
0.783209
-1.346204
-0.837366
-1.335087
-0.961577
-0.362120
0.394632
0.212305
-0.148667
1.322756
0.187794
0.094519
0.098765
-0.737327
-0.998742
-0.498941
-0.188582
-1.215604
1.411610
0.437776
-0.170208
-1.406306
-0.853770
-0.247215
0.739454
-0.317538
0.744698
1.035012
-0.995903
0.088512
-0.806900
0.848108
2.231047
0.285820
0.453510
0.346003
1.743137
0.243226
0.571182
0.185593
-0.983254
-0.299228
1.333961
1.298958
-0.866071
0.380047
-1.062999
-0.588478
0.727349
-0.109821
0.276073
-1.012224
0.267148
-0.283184
0.589819
0.377302
-2.415440
0.110630
-2.211633
0.905310
-0.049437
-0.068830
0.999084
1.303270
-1.410016
0.216979
0.868107
-0.154439
-1.422394
0.014170
-1.022404
0.099576
-0.703963
-0.327926
0.948783
0.406463
-0.874597
-0.472396
-0.297717
0.936402
0.761426
-1.020476
-0.200506
0.703705
-0.319416
0.684563
-0.374268
1.089604
2.333586
-0.030305
-0.250822
-0.627111
-1.003642
-0.729929
-1.916340
-0.648155
1.742801
0.010491
2.005593
0.028237
0.297490
-1.494432
-1.822776
-0.333157
-0.906766
0.996915
0.755021
1.410294
0.361799
0.110210
1.415095
0.030902
0.279187
-0.746075
1.277180
-0.727758
0.032931
0.067280
0.616646
1.587493
0.120783
-0.661423
-0.210988
-0.360807
-0.770987
0.615488
-1.458955
1.522784
1.889723
-0.278444
-0.445999
1.368455
0.671436
1.599410
-0.547676
1.012749
-1.267745
-0.193393
0.709905
-0.106552
-0.229285
-0.535710
0.307545
-0.583552
-0.947588
-0.172978
-0.162226
-0.074763
2.690132
1.395292
1.655320
-1.407884
0.540454
0.401828
1.381554
-0.416435
1.488026
-0.586723
-0.796464
-0.320059
0.917410
-1.691800
-0.447789
0.500273
0.168701
0.077088
-0.462425
0.078661
-1.048175
-2.325835
-0.454460
0.451791
-1.890024
0.152432
0.626520
-0.648878
1.778567
-1.616344
-0.518593
-0.222758
0.409747
0.029239
-0.524929
-1.488221
-1.919672
1.197709
0.368459
0.874905
0.663825
-1.361762
0.085915
-0.679441
-0.568621
-0.935353
-0.014302
0.754976
-0.217062
-0.308413
-0.207195
-0.351179
1.399666
-0.617339
1.133334
1.452135
-0.742170
0.230405
-0.354566
0.830857
-1.506818
-1.009226
0.028396
-0.553049
-1.957059
-0.426243
0.097394
1.293183
0.930287
0.671815
0.778045
1.295818
0.863907
1.090988
-0.054674
1.143908
0.885474
-1.004922
-0.957152
-0.429842
-1.198408
-0.136533
-0.981034
-1.997992
-1.013130
1.856706
-0.097879
1.503160
-2.613612
0.979046
-1.986038
0.919092
0.733389
-1.034763
-1.136037
0.851729
-1.101763
-1.789182
-1.162893
0.142147
0.503815
-0.880016
1.131028
0.666838
-1.033432
-0.061270
-1.043379
0.406852
0.055742
-0.841177
-1.065293
-1.128437
-1.804709
1.339875
-1.000619
0.898286
1.509086
-1.730804
-1.035931
1.219851
-1.366820
1.539015
0.370747
-1.658952
0.939377
0.463404
0.490945
0.860272
-0.038269
2.217682
0.493929
0.729792
0.184050
-0.833824
-1.279054
2.296165
-0.063745
-1.089415
-0.761833
-1.426646
-0.612479
2.296665
-0.506817
0.049557
1.966495
-0.357052
0.752402
0.129007
1.038373
-0.125853
-1.033436
0.367010
0.579934
-1.008813
1.032670
1.322042
0.574066
-0.085189
2.755149
-0.181901
0.479806
-0.681214
0.274553
-1.232722
-0.301683
-0.055488
-2.021449
1.104451
-1.161268
-1.635715
-0.366961
-0.639118
-1.275648
-2.108869
-0.926187
-0.580718
-0.520073
-2.428831
-0.183066
-0.841407
0.799648
0.812984
-0.109722
0.519528
-1.142790
-1.834323
-1.693286
-1.907285
0.566261
-0.703208
0.655738
-1.628771
-0.188741
-0.427562
-1.318867
1.312255
0.786814
0.110123
1.255390
-1.392731
0.461067
-0.123442
-1.406520
0.857400
-2.190253
-0.473109
-1.028545
0.645629
-1.744078
1.210141
0.379922
-0.302743
0.453485
-1.274079
-0.031818
-0.446900
0.362208
0.594329
1.975173
0.749328
1.348210
1.358903
1.067508
-0.025257
0.893748
0.723992
-1.016269
-0.259629
0.650296
0.949350
-0.906336
2.494638
2.682923
-0.190729
-0.286290
0.180619
-1.749963
0.261897
0.781038
1.634634
0.731299
0.023794
0.046993
-1.784666
-0.280881
-0.331912
-0.589029
0.795695
1.893205
0.263098
-0.418152
-0.571832
0.396602
2.517163
0.117649
0.255504
2.745186
0.704426
0.883497
-0.849894
0.334958
-1.107180
-0.736259
-1.108576
-1.119651
-0.250995
0.419221
-0.040382
1.037410
-2.024737
-0.088645
0.332561
0.858638
-0.974945
0.872451
-1.699516
0.093197
0.335398
-0.118482
1.440473
0.915728
1.080564
-1.917626
-0.846492
0.158657
-1.343338
-1.660442
0.918882
0.102470
0.336791
-1.554703
0.019582
0.849436
-0.538742
0.799171
1.198207
1.816383
0.182500
-2.325966
1.229412
-1.648249
-0.209912
-1.323501
-1.170055
0.080998
0.393462
-0.245172
2.511580
2.746739
-1.790169
1.863831
-0.287360
-1.669341
0.301323
0.752702
1.751665
-1.240606
-0.153304
1.679225
-0.038199
-0.069856
0.833264
-0.428696
0.187217
-0.238181
0.755773
1.397565
-0.059300
0.680189
0.426900
-0.161159
0.106380
0.088164
0.228152
0.160849
1.106768
0.832494
0.568051
-0.217298
1.098343
-1.118996
-1.977169
-2.168635
-1.442737
1.209920
0.124956
1.811652
-0.315053
0.798448
0.462755
1.943830
0.461983
-0.305112
0.826947
-0.294551
1.148161
0.025161
-0.219995
-0.149861
1.104156
1.474541
1.412396
-0.797838
0.578667
-0.789631
1.116610
-1.226598
-1.056599
1.763754
0.610280
-1.690609
0.277101
0.133356
-0.320047
-0.447285
0.630390
-1.428344
-0.561569
-1.045546
0.703627
0.921414
0.458745
-1.651126
0.173333
0.665552
1.156914
0.545422
-0.246477
1.953377
0.265619
0.727339
-1.069490
0.750028
-0.446351
-0.289232
-0.427132
-0.100423
-0.322092
-0.712550
-0.130506
1.040714
1.148022
-0.022211
0.946737
-0.286666
1.512883
2.069649
1.954744
0.924488
-0.290064
1.062719
-0.490638
0.830540
-0.281399
-2.296474
-0.769365
1.400132
-1.087805
1.273881
-1.485847
0.573215
-1.106703
0.324864
-0.541412
-0.320233
1.217533
-0.253533
0.710435
-0.149046
0.500356
-1.698852
-0.824734
0.262456
1.877535
-1.114360
1.300040
0.412595
0.375929
-1.347770
1.374312
-0.708540
-2.858584
1.808150
-0.476327
1.688788
1.260795
-0.286758
-0.832698
-1.755937
-0.816101
0.021657
-1.251567
0.229290
-0.587005
-1.075026
-1.022611
-0.995417
-0.770612
1.133233
-0.142617
-0.162459
-0.149234
-0.887694
-1.276630
0.205441
0.431562
-0.156830
-1.148050
-0.729033
0.432203
-1.584803
1.538904
-0.604755
-0.297573
0.153555
0.997804
-0.408661
-0.343915
0.793995
-0.207976
0.305324
-0.411187
-0.230600
0.295170
0.202099
1.510028
-1.115402
-1.774333
-0.731783
-0.990435
-0.574494
-0.821202
0.924521
-0.042746
-0.211552
-0.949103
-2.065832
-0.406193
-0.257986
1.419517
0.759517
-0.155314
-0.439587
1.556762
-0.316038
-1.199511
-1.522685
-0.569001
1.701293
1.205041
-0.148396
0.571148
-0.072346
-0.098940
1.119479
0.366962
-0.649449
-2.034031
-1.782934
-0.164666
0.355223
-0.812530
-0.370950
-0.884304
-1.516807
-0.123097
0.171907
-2.081011
-1.133193
1.034336
0.691709
-0.943922
-1.228916
0.501764
-2.288036
-0.158083
-1.752651
-0.777594
-0.789131
0.327448
0.935294
-1.045346
0.558932
-0.583652
-1.417187
1.473164
0.136142
-0.235392
-1.977654
-1.090849
0.328801
0.765923
-0.864462
0.091466
-0.195649
-0.742629
-1.381606
-0.691848
0.325903
1.382827
0.642542
0.598382
-1.028678
0.316445
0.535483
-0.752498
-0.131091
-0.379444
-0.283713
0.822567
1.794552
1.098804
0.157693
1.757228
-1.182291
0.755693
1.447104
0.884446
-0.081510
-1.090596
0.771801
1.559888
-1.151961
0.663451
-0.900907
-1.345052
0.609847
1.137446
-1.004473
0.844085
2.266959
-0.035637
-0.305851
0.139515
0.863567
-1.921489
0.367716
0.034420
-1.443335
-0.813745
0.515781
0.190709
0.701934
-0.945537
1.099549
-1.838620
1.064838
-0.087510
1.505950
-1.940464
-1.048506
0.145432
0.834705
0.369541
0.092639
0.919382
1.125014
-0.715899
-0.001141
-1.124421
-0.511287
-0.310966
-0.379616
-0.825238
0.344956
0.126090
-0.508118
-0.204918
-0.975778
0.423130
1.166948
1.235640
-0.647522
0.433256
-0.264247
2.259524
0.651134
-0.174913
-0.187993
-0.404774
-0.376452
-0.013235
-0.875571
-1.420620
-0.209918
0.220083
1.227360
0.733082
-1.368539
-0.035586
0.191480
0.947089
-0.344344
0.296426
-0.276068
-0.776458
-0.107054
-0.188539
1.468311
-0.199711
1.725034
0.171064
-0.214886
1.734121
-1.534800
-1.070270
0.314581
-0.107472
0.360211
-0.745778
0.282594
-0.018753
0.335739
0.739189
-0.692096
0.262683
-0.406733
-0.876367
-0.328588
-0.000925
-0.332053
-0.536212
1.558195
0.783288
0.079857
1.260434
-1.532984
1.110119
-1.655640
-1.637845
0.063888
0.680364
-0.097046
1.170739
-0.206049
-2.097592
-1.619194
1.641792
-0.599874
1.425123
0.393191
0.558549
-1.209535
-0.399022
0.850111
-1.695120
-0.383247
0.594629
-0.586320
0.125671
-0.974320
0.673476
1.515508
1.731695
0.048745
0.314406
-1.138097
-1.211719
-1.513146
-0.833571
0.160862
-0.308152
-0.585250
-0.397297
-0.016487
-1.654993
-0.501053
-0.853390
-1.572292
-1.539917
0.777442
-0.060742
1.013303
0.614142
-0.148031
1.277668
-0.877467
0.402702
-0.702493
-0.657503
0.035467
1.053928
0.113540
-0.753002
-1.386390
0.363637
1.277510
-1.089125
-0.219065
-0.262951
0.863980
1.391478
0.559213
0.709421
0.136703
0.001851
0.158185
-0.531582
-1.412745
1.203493
-0.486563
-0.158083
-0.360785
1.757968
1.234111
0.414667
-0.123015
-0.858081
0.920940
0.986102
-1.524282
-0.643735
-0.806645
1.340233
-0.243037
-1.714533
-0.375977
-1.515659
-0.716791
-1.495865
-0.608650
-1.364012
-0.551032
-1.911194
-0.050184
1.212240
0.405946
-1.563361
-0.245651
-0.645721
-0.193233
-0.517358
-0.292142
-2.094644
0.946145
-1.525161
-0.402273
1.042943
0.386646
0.618107
0.451432
1.768274
-0.021834
-0.128444
0.221983
-0.157709
-0.384724
0.596860
0.796236
-0.611381
-1.683561
0.999790
0.459811
-0.768227
-1.094198
0.167208
-0.240822
-0.461391
-0.971321
1.012897
-0.667315
-1.753772
-2.756330
-0.430393
-0.751462
-0.424814
-0.186622
1.922809
1.055043
-0.683805
0.880747
-0.430767
0.595831
0.226239
-0.470711
-0.905132
-0.877831
0.316161
1.164394
-1.111965
0.058860
-1.487124
-1.062193
-0.512643
-0.094941
0.515434
0.969198
0.330958
-0.628716
1.143439
-1.078956
-1.117523
0.075726
1.083577
1.015932
-2.398161
-0.573667
-0.843506
0.923815
-0.045847
-1.216469
-2.341930
0.027470
-0.981979
1.019670
-2.228174
0.067382
0.619425
-0.811109
-0.361423
-1.895698
-0.481695
-0.446200
-1.483310
-1.350629
0.124168
-0.186675
-0.068333
-2.225574
2.230345
0.554996
-0.039716
-1.834603
-1.219902
0.523040
0.735843
-0.117436
-1.265591
-0.397357
0.012931
0.796928
0.437553
0.467056
-1.428344
2.309187
-0.707087
-1.669939
-1.254517
0.083490
-0.640524
1.228130
-0.511379
-1.848462
0.153233
2.001825
1.215033
0.793478
1.148692
0.516636
-0.130890
0.601993
0.695760
-0.202973
-0.328953
-0.316111
1.003780
0.376054
-0.659258
-0.352107
-1.397556
-0.085282
-0.879063
-0.420215
-0.647992
0.452501
0.058206
0.785295
-1.638137
2.146941
-2.738616
1.398901
-0.394545
0.559429
-0.672140
-1.180128
-0.123375
-1.080356
0.868374
-0.573293
-0.172667
1.828100
0.883468
0.384338
-0.324222
-1.716782
1.125630
-0.203332
-0.244817
0.661060
-0.420447
-1.034493
-1.395137
0.171552
-0.111367
1.821987
0.014454
1.457308
-0.964843
1.700258
1.000024
-0.444821
-0.618500
1.061472
0.947572
0.640176
1.931472
-0.180574
-0.242888
1.393896
0.277306
0.887331
-0.064819
-0.423941
-1.884612
-0.411528
-1.221146
-0.782076
-0.596529
-0.706255
1.298631
-0.217527
0.537146
-1.306875
-1.150551
0.090768
0.968655
1.364716
0.547538
1.537946
-0.183926
0.890019
1.411691
1.110141
1.853633
2.000084
0.396704
-0.800503
0.205395
0.637514
0.199795
-0.072444
0.838346
-1.207528
0.492212
0.557222
-0.428870
-0.215423
-0.180296
-0.174947
1.222956
-0.583072
0.103305
0.285611
0.956977
-0.446599
-1.072161
0.314755
-0.022625
0.498250
-1.394447
0.410924
0.339979
0.053065
0.457103
-0.356956
-0.121912
-0.128175
0.984490
1.147296
1.267863
0.311161
-1.082438
-0.272642
-1.385053
1.796313
0.458265
1.360122
-1.001174
-0.826620
0.864474
-1.517650
-0.432365
-1.149268
-1.157780
-0.787523
0.084533
0.563605
-0.897555
-0.010484
0.856575
0.557775
0.201713
-0.344567
-1.781133
-0.081902
0.219500
-0.060929
0.996312
-1.680339
-0.068870
-0.323839
-1.051398
0.573173
-0.605587
0.114834
0.197537
0.560871
1.020656
0.613825
-0.100687
-1.571907
0.366961
-2.567930
0.530354
-0.104847
0.116047
-0.007073
0.301477
-1.011412
0.316274
-0.033648
-0.001742
0.375038
0.074789
0.033625
-0.591990
2.237092
-1.004871
-0.475212
-0.970712
0.651901
-1.667806
0.692324
-0.728576
-0.496167
-0.750982
-1.325610
-1.306653
2.389127
-1.979718
-0.746305
-0.352658
-0.013253
-0.491815
-3.701125
-0.784499
2.149674
-0.801052
0.506154
-1.209016
-1.036541
-0.613230
0.430539
-0.928445
1.955184
-0.399493
-0.989827
0.368170
0.497072
1.201966
-2.157188
1.108262
-0.632025
0.403265
-0.326244
-2.565331
2.647519
0.639446
-1.129512
1.765281
-0.818943
-0.493972
0.113766
-1.240294
0.425553
-1.587170
0.951628
0.454876
-0.614806
0.007274
-0.256003
0.706029
-1.410855
-0.196775
-0.903279
0.185012
-0.521450
0.019639
0.450000
0.771388
-0.346395
-1.173757
1.360349
-0.137977
-0.156543
-0.748725
0.647859
-0.195544
-0.032230
0.226197
-0.677353
1.017479
-0.004755
-1.022316
3.036680
0.429633
3.067447
0.398701
1.276567
-1.425917
0.004700
-0.044595
-1.612351
-0.087758
0.025810
0.234988
0.827524
1.459201
-1.483044
-0.945491
0.928003
0.866311
-1.635565
1.952037
0.942722
-0.036914
2.486622
-2.358765
0.437568
-0.624294
0.550250
0.248202
-1.667029
-0.266847
-0.990646
0.093233
0.978805
2.116033
-0.412038
-0.258568
0.274789
0.664853
-0.676072
0.495303
-0.691634
0.216153
2.189618
-1.560657
-1.910806
0.236283
-1.023867
-1.127253
-0.838114
0.309237
-1.037074
-0.669183
-1.598420
0.420619
0.987216
-0.042348
-0.333278
0.609653
0.647618
-2.092005
0.801801
0.325691
0.006801
0.584933
-1.043345
2.023010
0.573257
0.831281
0.900110
-0.607961
0.651525
1.081331
1.044691
1.543492
-1.118160
-0.270028
-1.503678
-0.478523
0.846441
1.855753
0.833478
-0.467941
1.440411
-0.102542
-0.356792
1.246117
0.274312
-0.400652
2.206102
0.283528
-0.984563
-0.807928
0.231370
-0.158163
0.219629
0.413503
0.321525
1.785760
0.946365
0.962268
0.328356
-0.762960
0.196792
0.584583
0.854802
-1.332542
-0.691664
1.224778
1.717743
-0.436246
0.046536
0.686586
-0.963932
0.443697
-0.803616
0.480172
0.087253
1.095565
0.556362
1.045133
-0.124231
1.502341
1.150198
-0.030971
0.452247
0.026816
-0.086635
0.045132
0.586401
-0.450165
-0.592987
1.123044
-0.236762
-0.355908
1.431838
-0.673263
0.040138
0.574023
-0.409306
1.247388
2.334607
1.267003
-1.250234
-1.330913
2.459400
-1.873402
0.893146
-1.341751
0.616290
-0.287983
-0.475906
0.783439
-0.084722
-0.458117
-1.005838
1.199425
-0.445270
-0.228133
-2.262380
-2.043052
-2.018583
0.745555
-1.534651
-1.194013
0.081503
2.973674
-0.345394
-0.789004
1.024587
-0.300735
-0.952845
1.075851
-1.150243
-1.346420
-0.092856
0.424697
0.992568
0.765377
-0.248511
-0.645924
2.169572
0.199852
0.502889
-0.611290
0.439731
-1.243463
0.415142
-0.569674
-0.893355
0.156631
0.765965
0.581644
-1.316612
-0.063310
-0.199445
-0.572581
-1.414596
0.321785
0.987977
0.128254
0.018476
-0.910971
0.567064
0.129809
1.046824
-0.326322
-1.543201
-0.779420
-0.405081
0.975365
-0.431793
-1.616316
-0.473212
0.096948
0.776608
-2.777830
1.156388
0.843980
1.991359
1.693189
-0.084720
1.092516
-1.258488
0.312201
-0.351260
0.445791
0.113642
-2.076072
0.381633
0.296949
-0.724430
-0.511365
0.474267
2.219255
-0.087064
-0.580503
0.327832
0.123010
0.757179
0.684394
0.248637
0.048715
-0.847657
-1.684125
0.488188
0.800924
0.071397
0.888709
0.045385
-1.667821
-0.250195
2.783125
-0.049603
1.462919
1.469223
0.368824
0.629644
0.719050
-1.012558
0.511392
-1.257526
0.483610
-0.360428
0.901306
2.236785
0.848996
0.390056
0.705655
-0.006210
0.347016
0.035831
0.423647
0.838887
-1.720317
0.337020
0.231533
1.046157
-0.869575
0.821956
-0.340268
0.465542
0.268736
0.947185
-2.722840
1.201205
-1.740608
0.154017
0.972436
0.399337
1.016618
-0.206228
-1.120091
1.049456
-1.720994
1.196534
1.274873
0.432596
-1.202541
1.472951
-0.910510
0.270663
-1.143724
0.604321
0.497825
0.073357
0.101045
-1.132486
-0.205808
-0.331017
-0.232965
0.767621
0.019086
-2.240146
-0.051729
0.946908
-1.997528
-0.989018
0.664466
-0.019091
-1.165399
-0.445786
-0.466185
0.763298
-0.041833
0.453110
-0.672838
-1.682026
-1.291926
-0.271185
1.870008
0.360682
0.997649
0.297781
0.454882
1.320931
-0.116847
-0.766751
-0.366236
-0.581378
1.279561
-0.666159
-1.137331
-0.262533
-1.311844
-1.125964
1.071247
-0.215228
1.369056
-0.804182
-1.008657
-1.440933
0.838414
0.733242
0.124742
-1.388786
0.410109
0.381660
-0.047679
-1.060031
-1.059921
-1.212225
0.406468
2.029593
0.207446
-1.143711
1.888735
0.027915
1.188956
0.653050
0.009411
1.149307
-1.411888
-1.002782
-0.311827
1.949930
-0.323179
-0.230723
1.040238
0.053517
1.024885
-0.628555
-0.270712
0.401301
0.642055
-0.415830
-1.084043
0.234199
2.274689
2.252405
0.037719
-1.369188
0.051775
0.779062
-0.198336
0.166709
-0.291964
1.160744
-1.351388
0.169587
-1.360405
0.446129
1.353094
-1.176829
1.770062
1.803140
-0.175651
-0.742981
2.432744
0.610014
-1.097678
0.045883
-0.114106
0.896669
-0.330583
-0.873400
0.285221
0.219598
-1.223975
0.023564
1.744938
1.128306
0.444798
0.624554
-1.899524
0.080498
-0.142101
0.356203
-1.367764
1.229111
0.424666
1.369012
-0.764067
0.480615
1.229736
0.826253
-1.436984
1.793593
-1.792643
0.375630
1.179423
-0.389490
-0.559129
-0.134294
0.115862
1.104227
-0.806232
0.182451
0.329557
0.530299
-0.643495
1.618216
-0.234926
1.519894
-0.572112
0.208464
-2.813529
0.812623
0.215986
0.646056
-0.484741
-2.269144
-0.147337
1.228412
-0.129056
1.899974
1.060211
0.726938
0.030650
0.703731
-0.603081
1.788244
-1.603357
-0.268887
-0.641293
-1.172358
2.016489
1.832690
-0.940138
-0.929248
0.619160
-0.629930
1.098383
0.398729
-0.914423
-0.363329
-0.807924
0.115332
0.214439
1.366147
1.064000
1.387151
0.987563
-0.925208
0.525183
-1.256065
-0.054082
-0.385303
0.164536
1.508301
-0.241159
0.013768
0.002545
-0.022959
-2.627167
-0.714114
-1.502568
0.253756
0.354365
-0.471927
-0.295225
0.372273
-0.725087
0.404748
-0.595365
0.060678
-0.359052
1.613313
0.636393
1.136071
-1.076167
-0.702009
0.571173
-0.884447
-0.296525
-1.235699
1.749187
-0.228586
-0.857154
0.793269
-0.360397
0.477348
2.391247
2.033031
-0.278042
-0.521988
0.827465
1.796816
1.526088
1.260296
-2.252709
-0.662986
-0.095998
-0.348096
-1.836741
-0.147731
0.955541
0.368482
0.554777
1.062211
0.202912
1.117239
-0.074473
0.371714
0.170390
1.398787
1.363780
-0.498314
1.149215
-0.212492
-0.913122
-0.268499
1.691102
1.699486
-1.969902
1.316657
-0.629999
1.667185
1.037678
1.516282
1.106795
1.462125
-2.139953
-1.545922
-0.033082
-0.993446
0.043205
0.708021
1.293702
-0.859331
0.320630
0.990999
0.743036
0.040355
1.726491
0.353562
0.344775
0.621684
-0.135903
-0.598592
-1.198524
-0.242885
-0.037088
-1.101161
-0.080501
-0.392525
0.862085
-0.492657
-0.476207
-1.397435
-0.505392
0.081627
0.455516
-0.321826
0.320317
0.507955
0.654721
-0.302062
-0.421468
-1.514569
-1.361977
-0.402066
-0.062984
-0.262329
-0.813787
0.803016
0.631268
-0.269211
-0.184441
0.230289
-1.182394
0.055420
-2.057345
0.698446
0.127165
-0.029908
0.279635
0.036742
1.399786
0.204694
0.807351
-0.684544
0.300941
0.092611
1.672017
-0.398167
1.788807
-1.513555
-0.137717
-0.490584
0.421380
0.811179
-2.535841
-0.739200
0.814276
-0.697977
1.332662
0.169211
0.223058
-0.003346
-0.639958
-0.155332
0.830390
-0.000949
-1.466858
-0.038867
-0.258714
0.115603
-0.648246
-0.425772
-0.358691
0.030927
0.305529
-0.743653
-0.454731
-1.013679
-1.099096
-0.005900
-1.003472
0.885448
-0.746864
-1.291492
0.154222
1.030533
-0.285014
0.494442
-0.509925
-0.581176
-1.781664
0.802610
0.477115
-0.910181
-0.089766
-1.668823
-1.213833
-0.833026
-1.469094
0.032052
-2.742325
0.674089
-1.029121
1.222790
0.351594
-1.991365
0.532665
1.453207
0.561502
-0.385943
-1.179594
-0.594273
0.269753
0.322378
-0.710862
0.327123
-0.121028
0.129890
0.215960
-0.682328
-0.554121
-0.785833
-0.296042
-1.154466
1.295565
0.156908
-1.499847
-0.778628
0.530910
-0.565405
0.621599
1.600891
0.176445
-1.440231
-1.421614
0.789493
0.329651
0.770946
0.178507
0.399466
-0.113699
0.845262
0.379133
1.542405
-0.723154
-1.378579
0.760702
-0.775927
-1.040735
0.329415
0.771125
-0.577365
-0.827971
-0.729436
-0.886906
-0.729905
-0.501603
-0.600520
-0.134586
0.374967
0.752438
-1.266230
-2.188161
1.138114
0.541978
1.556374
-1.852487
0.624175
-0.249941
-0.671885
-1.423163
-0.631044
0.062646
0.519894
-0.774635
0.624645
1.789943
0.949194
0.881766
0.265164
0.849795
-0.292808
-1.117914
-1.312161
-1.899646
0.163881
-0.818228
0.311667
-0.443038
-0.684406
1.693512
0.448272
-0.698567
-2.021228
-1.279079
-0.529348
-0.569196
0.456980
1.188906
-0.761618
-0.547013
0.059523
-0.397272
0.868158
-1.461859
-1.785210
-0.003941
-0.871544
0.337051
-0.965502
0.197672
1.704527
-0.458568
-0.978024
0.371056
1.664135
-0.735091
0.673258
1.164362
-0.149694
-1.286849
0.176801
-0.403899
-1.168993
0.008299
0.943986
-0.188723
-0.549814
-0.602083
-0.202197
-0.104276
-0.002885
-1.059388
-0.812406
-0.225534
0.759000
1.016534
0.428690
1.091190
-0.811341
-0.360606
0.777559
-0.488536
-0.493456
-0.111042
-0.066215
0.640798
0.535718
0.852402
-0.139019
0.140676
-0.692006
0.369732
1.169634
0.627391
0.930066
-0.716733
1.479805
-0.542351
-0.010070
0.007557
-0.328201
0.475000
0.684794
1.759774
1.842766
1.118057
0.765977
-1.026088
-0.626994
-1.042963
-0.246635
-2.453826
-0.132407
-0.032759
0.748982
0.086289
0.990581
-0.602085
1.016497
0.044387
-0.545052
-0.921016
0.614961
2.666192
-1.779612
1.420173
-0.031169
0.307554
2.045191
-1.102415
-1.098745
1.668452
0.641257
0.499251
-1.044789
1.008370
-1.708218
0.830224
0.678951
1.292826
-0.026880
-0.293518
1.006583
0.218244
-1.020389
2.415032
-1.446353
0.408365
1.421873
-0.156821
-0.065470
-0.208082
1.256843
-0.608680
0.081979
0.725043
0.507378
-1.159503
0.416363
0.712070
0.529278
-1.265931
0.014194
0.464582
0.832134
1.111361
-1.116417
0.979267
-0.445804
1.016407
0.968735
0.142204
-1.145374
2.564341
-1.474923
-1.003142
-1.045443
-0.857623
0.737657
1.225911
-3.048147
0.457066
-0.649540
-0.225233
0.514428
-0.628671
0.803200
1.280924
0.342152
-0.893488
0.267728
0.275059
1.114759
0.050252
-0.179327
0.385606
0.037140
-1.523224
0.895096
-1.872757
-0.214908
0.397660
1.358203
-0.071069
2.809222
0.251096
-1.141827
0.422158
0.680993
0.157769
1.197518
-0.914403
-2.500255
-2.579657
0.649589
-1.267124
-2.110665
1.012870
-0.950830
0.619417
-1.281431
0.159845
-0.065660
-2.553478
0.399796
-1.221038
-0.634741
-0.984428
-0.483742
0.671418
-2.560953
0.347120
0.185470
-0.219560
0.037561
-0.793578
-0.570357
0.037664
-0.354394
-0.586152
0.514350
-0.061427
-1.374030
1.216347
0.631090
-0.090551
-0.185230
-1.553526
0.902663
2.093108
-0.033242
1.865754
-0.485283
-0.164271
-0.084219
-0.590308
-0.706161
0.379114
0.915173
1.619532
0.631198
-0.738533
-0.784324
-0.209702
-0.305845
-0.058666
0.122772
0.781845
1.443991
0.204365
-0.737589
-1.487849
-0.805023
-1.718321
0.405344
0.979054
-0.289827
-1.804779
1.745185
0.718444
-0.262335
1.187756
-0.426992
-0.614630
-1.568666
-0.448497
1.342433
-0.183314
-1.999328
-0.106370
0.817491
-0.415611
0.429772
0.334955
0.120772
-0.851798
0.032732
-1.002425
0.077308
1.931373
-0.274441
1.175927
1.423213
1.530569
-0.834745
-0.637829
-0.222265
0.065763
-1.737048
-1.009732
0.640450
0.121760
-0.680322
0.702655
0.853300
-1.790711
0.696505
0.537897
-0.251665
1.680131
0.137644
-1.148877
0.880319
-0.138966
-0.340671
-0.290770
0.686968
0.764948
0.294651
0.015974
-0.178014
1.333138
-1.458569
-0.682864
0.668054
0.568477
0.409706
1.043323
0.006128
-0.088767
-0.664468
-0.573388
-0.079496
-0.024724
-0.088987
0.446610
-0.684469
0.276341
-0.326747
-1.496896
-0.425535
1.183756
0.162142
0.524038
0.083269
-0.750821
-0.184495
0.155619
-0.887574
-0.771021
-0.313095
-0.833221
-1.413756
-0.856147
0.478328
-0.928039
-2.137593
-0.410311
-0.439812
-1.297833
1.127936
0.448521
1.286954
0.179944
-1.197979
0.023712
-2.545774
0.462272
-2.743566
-0.174629
1.398729
1.263250
0.332369
0.894116
0.310935
1.124235
0.966351
0.812063
-0.096829
-0.330212
-1.363014
-0.274805
-0.399787
0.036576
0.340635
0.580640
0.349607
-0.210849
-0.956201
1.367251
-2.258148
-0.590141
-0.084306
-0.066610
0.479864
-1.046781
-0.404966
0.083870
-2.123342
-1.690598
-0.057611
1.365115
-0.431545
0.025738
0.995625
0.946068
0.806230
0.123587
1.011079
-0.984423
0.557038
1.197103
0.340589
0.808534
0.146251
-0.016551
-0.039414
-1.780691
-1.132060
-0.375598
0.745739
1.406479
-0.637510
-0.068326
-0.325117
1.227847
0.648948
0.277246
1.398930
0.785151
-0.310280
2.451695
1.713651
-0.865166
-0.571685
0.286892
1.625494
-1.656573
-0.562664
-0.586113
-0.219137
0.599064
0.936918
-1.697851
1.149659
-0.355108
0.554435
-1.154993
0.134994
1.064632
-0.899170
0.369908
-0.142018
-1.196256
-0.780119
-0.729871
0.034079
-0.751701
-0.484022
1.022112
0.002272
0.308236
0.057527
-1.608146
-0.462050
0.314595
-0.018352
-2.061619
1.304095
0.801652
-0.115629
-1.071743
0.510159
-0.039168
-0.340805
-0.457392
-1.707094
1.676171
-1.516986
1.926894
0.019568
0.056906
-1.130353
0.486268
0.568780
-0.700122
0.717361
0.162867
-1.447731
1.253272
1.110086
-0.365085
0.575471
0.123507
-0.381971
-1.110199
-1.051117
-0.636079
0.759797
-1.609115
-0.477443
0.283771
0.406890
-1.630897
-0.674058
-0.486441
-0.543590
1.188297
0.583460
-1.290470
0.436233
1.713122
-0.725339
0.901446
-0.718388
-0.721588
0.992041
-0.769507
0.593304
-1.487467
-0.849672
-1.119830
0.981144
0.366120
-1.735398
0.819870
-0.122430
0.800668
-0.607891
0.878776
-0.139115
1.731012
-0.887265
0.713519
0.617644
-1.193415
-0.928854
-0.853090
1.308522
1.651658
0.924638
0.369523
-0.096191
0.219064
0.137163
0.901734
-0.586377
0.078262
0.246900
-2.077651
1.009220
1.131029
-1.385160
0.011253
-0.376862
1.422115
0.343816
-0.035678
-0.031921
-1.763281
1.052123
0.360327
-0.617107
-0.885595
0.273116
0.434912
0.209587
0.007202
-0.163898
-1.156073
0.391801
-0.674918
1.098807
-0.146949
1.225208
-1.312126
-0.207444
0.689299
0.059283
-0.531676
0.293996
-0.288594
-2.416484
-0.976676
-0.584156
-1.191124
0.644094
1.947344
0.083362
-0.271768
-1.488363
1.486227
-1.072104
-1.481961
0.342246
0.600177
-1.401778
0.477916
0.984406
-0.938547
1.185353
0.232066
0.799963
-0.913360
-0.378293
-1.992610
0.222751
0.181913
0.201088
0.020934
0.643346
-0.595325
-2.402718
-1.039803
0.671732
0.517533
-1.501305
0.097485
-0.377207
1.214574
-0.706303
-0.260825
2.461923
-0.212440
0.668488
-0.278531
0.312704
-0.550241
-0.543165
-0.983461
-0.013509
0.402359
2.520941
0.850074
-0.680652
0.782824
-0.145007
-1.643457
1.254475
1.341493
0.413124
0.595097
1.168937
0.343454
0.635065
0.127938
0.925209
-0.022492
0.206920
0.478416
-0.928067
1.187054
-1.340139
0.070785
0.225706
0.712050
0.639493
-0.625140
1.069085
0.141100
0.462527
-0.539037
0.957565
-0.079018
-0.571275
-0.271093
-0.752569
0.520556
-0.271365
0.601630
-1.028536
0.674759
-2.205201
-1.702966
0.272402
1.529635
1.375218
1.122124
-1.146340
-1.069545
0.628982
0.346965
-0.721377
-0.090290
1.404002
0.376306
2.001311
0.398674
0.292329
-1.121541
1.272513
0.951263
0.141917
0.030813
1.941114
-0.267690
-0.701154
1.356059
-1.466843
-0.536223
-1.758559
-0.370011
-0.130594
-1.013339
1.016502
-1.793351
-0.186388
0.430867
-1.137319
0.202390
-0.257685
-0.742080
0.217134
0.291155
0.832755
-1.678943
-0.275111
1.785278
1.090584
-0.567364
-1.064184
-2.016065
-0.232543
-2.088423
0.354218
-0.748487
0.625957
-1.484801
-0.667742
0.317629
-1.275576
1.135558
1.114823
-0.586450
-1.581686
1.886549
-0.881760
-1.166741
-0.016478
1.661789
-0.827584
-1.393368
-0.512487
1.031548
-0.568039
-1.153142
-0.167554
-1.873874
-1.193388
0.109977
-1.270651
0.419902
0.661938
-2.387355
0.779281
-0.765907
0.558325
-0.906866
0.965113
0.650148
-0.783923
-1.604453
-0.968889
0.840117
1.194920
-0.727935
2.264139
1.196321
-2.207320
-2.187738
0.122270
-1.692851
0.784486
-0.224781
1.247784
-0.071258
-1.858569
0.671759
-0.347773
-0.564158
0.034979
0.896451
0.981025
0.387905
-0.022479
-0.812595
0.084056
0.879137
-1.276199
0.992394
0.613551
0.038841
-0.506888
0.611699
-1.303968
0.445476
-2.181143
0.040720
-0.228499
-1.103225
0.517843
-0.098453
0.384129
0.036855
-1.754768
-0.383720
-0.289226
-0.093618
1.090311
0.530108
-0.639277
-1.114145
2.020015
0.469087
-0.271176
0.275559
0.889871
-0.705701
-0.364780
0.436038
0.202177
1.052509
0.555769
0.061015
-0.188460
1.226974
0.334911
-0.134999
-0.755838
-1.474147
-0.677350
-0.573022
0.777582
-0.179794
0.114074
1.443862
-1.629504
-0.420962
0.395525
-0.563710
-1.030727
-0.700483
-0.917165
-0.259222
-0.583018
3.743527
0.715591
-0.951182
0.439000
0.181594
0.043877
-1.735321
0.373813
-1.224727
0.618421
0.671775
-0.366147
-3.496401
-1.006704
0.969377
0.414861
-0.270522
-1.720250
0.513150
-0.827977
0.317426
1.038321
-0.994758
-1.147351
-1.334347
0.367030
1.146994
0.235604
0.543606
1.712793
-0.129957
0.002635
0.577396
-1.455348
-1.078946
0.034844
0.544930
-0.848163
-1.315333
2.140308
1.484056
0.807024
-0.062625
-1.189496
-0.254041
-0.108489
-0.474580
1.559052
-0.601427
-0.702970
0.148621
-0.973096
-2.174551
-0.558810
-0.245508
0.946610
0.938031
-0.652710
-0.730716
1.314397
0.893404
-0.003477
-0.747352
1.172613
-0.409965
-0.602419
0.324659
0.032225
0.571560
-1.533453
-1.204397
-0.404063
0.740538
0.946977
-0.267562
0.733914
1.324462
0.078488
-0.033860
0.630331
0.989886
-0.780933
-0.293142
0.741057
0.139106
0.917112
-0.212515
0.136639
-0.945158
0.177408
0.810235
0.107667
0.461620
0.405672
-0.373482
0.424508
0.427970
-0.213758
-0.097398
0.377845
-0.402337
0.065861
0.292031
0.624587
-1.918719
-1.738741
-1.960689
1.374100
1.561679
0.429353
-0.462111
0.182566
0.238489
-0.443411
0.108172
0.418879
-0.685561
1.246669
-0.080718
-0.181598
-1.568052
0.077658
-0.157486
-1.579284
1.725191
-0.269751
1.408822
0.117852
0.661344
0.841668
-0.661114
1.409199
0.743421
-3.053787
-0.119065
0.964329
0.370360
1.708282
-0.758593
0.846073
0.909103
-0.442618
0.191478
-1.365142
-0.128049
-1.196711
0.954309
0.079021
-0.253118
-0.917680
-0.658639
1.275034
-0.380003
-0.076191
-0.101064
-0.109520
-1.654585
1.507332
-0.255612
-0.093476
-1.346535
1.179525
-1.021916
-0.228694
-0.319520
2.081913
1.005296
2.006739
0.435268
-0.599365
1.560842
1.854012
-0.807456
-1.728440
-0.402725
0.011109
0.059774
1.148824
-1.373849
-0.731654
-0.760948
0.423459
2.328017
1.623352
0.232662
1.000936
0.142495
0.859479
-0.622787
-0.286679
1.086792
-0.864323
0.987879
0.602241
0.201362
-0.039941
-0.375903
0.458863
0.081130
-2.267348
0.450949
2.683938
-1.244432
-1.402671
1.534973
0.673420
-1.117154
-0.044874
1.022799
-2.183140
0.138535
0.051413
-0.154792
0.221564
-0.128936
-2.000908
1.102191
-0.703092
-0.352470
-0.350164
0.767357
1.494993
1.784694
-1.543477
-0.688261
0.492843
0.679550
-1.499498
-0.797759
-0.433279
0.148009
1.702955
0.615252
0.327894
-0.029121
1.148507
0.549610
-0.981753
0.150652
-1.467692
-0.079041
1.291168
-0.151176
-0.767523
-0.360903
-0.117881
-1.224851
0.253675
-1.655805
0.058252
-0.540146
1.757420
1.150456
-0.371575
-1.322675
-0.007573
0.614374
-1.093142
-2.261103
-1.172443
-1.415329
1.415792
0.017233
0.675625
-0.669057
0.549293
1.915735
-1.915922
0.978038
1.487751
1.399247
0.783567
0.745279
0.538604
0.064535
1.065004
0.518113
1.260536
-0.421567
-0.204982
-0.234618
-0.149235
1.091784
0.228682
0.551672
0.292711
0.036714
-0.171761
-0.379134
1.200458
-0.468705
-0.045188
0.746114
-0.570143
1.312604
1.078170
0.503100
-0.468042
0.664152
-0.079061
0.066499
-0.076508
-0.404634
-0.149955
-0.655942
0.218754
-2.610203
-0.400359
0.109374
1.235795
0.879185
1.540566
-1.137231
-0.869318
-0.819925
-0.413610
0.603002
0.882222
1.038350
-0.018435
-1.794562
1.883502
-0.508893
0.028584
0.028486
-0.634095
-0.831310
-0.604360
0.461424
-0.277469
0.924829
-0.829431
-0.909228
-0.162628
0.765876
-1.060414
0.978479
-1.788464
-3.105695
-0.912797
0.112881
-0.906562
1.177192
-0.627683
-2.035256
-1.567242
-0.156043
-1.303053
1.390127
0.075453
-0.315707
-1.527951
-0.693149
0.087052
-0.226466
0.207152
0.830313
0.735172
0.760843
0.061818
-0.590289
0.809089
-0.067098
0.095205
1.503303
-2.207922
0.842074
2.159319
1.054864
-2.039518
-1.554197
-0.132771
1.065336
1.121096
-2.077900
1.496886
-1.181856
-1.335124
0.304189
0.545759
-1.510345
-0.505386
-0.544478
-0.058527
-1.420652
0.187210
0.171740
0.141363
-0.112423
0.653425
-0.178349
1.158817
0.232497
-0.266831
0.482101
0.386079
-1.144249
1.945378
-0.533164
-1.310202
1.567980
0.372943
-0.795259
0.387611
0.984622
0.677617
-0.104277
-1.256456
0.557165
-0.055503
0.009647
-0.598613
-1.258442
-0.849241
-0.805919
1.537439
-0.317523
1.343490
-0.353539
-0.349153
0.349315
-1.078934
-0.056888
0.135347
1.756889
-1.329463
-1.002284
-1.380370
1.857066
-2.179050
-1.272345
-0.637234
0.275278
-0.133963
-0.046507
-0.696178
0.925957
0.904379
0.697370
-0.656605
-0.244017
-0.804997
0.768595
-0.218185
1.891638
1.398820
-0.691569
0.334997
-1.205643
2.105242
0.259077
-0.112398
2.502712
-0.239886
0.669680
-1.366841
-0.238861
2.588539
0.236912
0.839843
-0.378662
-0.884113
-0.015392
0.561387
1.116337
-1.014543
0.462944
-0.054018
0.606275
-1.421846
0.742031
-0.040182
-1.522771
-0.203919
0.596358
-1.125427
-0.256413
0.193803
-1.379880
0.312199
0.292815
0.796836
1.647078
2.919494
1.160591
0.334580
1.186678
1.112952
-0.077085
0.623345
0.568281
-0.234821
0.773883
-1.086389
-0.136479
2.101044
0.148347
1.751424
-0.513828
-0.651886
1.292520
-0.355736
-1.349279
-0.545988
-0.397921
-1.621716
-2.248211
-1.375733
-0.295105
0.520491
1.128688
1.803879
-0.643321
0.014808
0.051301
0.548118
1.293681
-0.112677
-0.196312
0.086536
0.914846
-1.182825
-0.245457
0.422755
1.355104
0.186335
-0.314136
1.520391
-1.151278
0.736071
0.930449
0.591714
0.359602
-0.541657
0.004064
-0.025603
-0.659087
0.032514
0.664474
0.694718
-1.414525
-0.398278
0.424729
0.530538
-0.383764
-1.043376
0.832676
-0.706776
0.477394
0.460601
-0.866401
-0.342121
-2.408639
-0.571225
0.421628
0.732664
0.748361
-0.624270
-0.273814
-1.353309
-0.080789
0.343318
1.832401
1.329103
0.077795
-1.112495
0.438121
-0.581014
-1.115431
-0.574417
2.131335
-0.686367
-0.292129
0.876558
