1.243229
-0.101088
-1.875911
-0.154546
1.310553
-0.193842
-0.937975
0.458322
-0.837300
-0.015848
0.718941
-1.628068
1.734031
1.016951
0.087132
1.405823
1.539245
2.982534
1.093930
0.812434
-0.991230
0.153698
-0.259372
-2.289470
1.150644
-0.940360
-0.694201
0.520435
-1.996316
-0.621285
2.824403
0.505317
-0.890789
1.854308
-0.114236
-0.918724
0.800908
-1.519582
0.884458
-0.476089
-0.288216
0.884749
-1.023799
-0.632243
-0.561865
0.330559
-0.446596
-0.137335
-1.016717
0.369515
0.534946
-1.734942
0.427980
-0.715671
-0.697888
-1.503155
1.185951
0.753881
-0.219861
0.264627
0.828741
0.362025
0.208790
1.367008
-0.612197
-0.100879
0.210114
-0.297482
-1.098675
1.874719
-0.355172
-2.131099
-1.103664
-1.500660
-0.051351
-0.594000
1.461327
-0.211477
1.060181
-0.062721
-0.683807
0.298216
-0.244785
-0.555869
0.344344
-0.224417
1.357042
-0.536297
-0.641908
-0.611967
0.735339
1.918435
0.466046
-0.332000
-0.989271
-0.061683
1.536948
-0.952073
0.421829
-0.081146
-0.002789
2.444726
-0.658313
0.176385
1.152355
0.228922
0.785140
2.344841
0.645946
0.148613
-0.624856
-0.873541
-1.932289
1.571417
-1.357805
0.199699
-0.384562
1.001308
0.553414
-0.338802
-0.523272
0.305608
-0.762526
-0.370326
-1.465073
0.942403
-0.168987
0.937371
0.284913
-2.766772
1.263197
0.122275
0.960183
-2.365636
-0.098644
-0.728113
-0.271173
1.573739
-0.416297
0.344229
1.131459
-0.125814
-0.788438
1.686932
-1.173014
-1.069183
-0.277362
0.343048
1.397537
-0.363960
0.628081
-1.799284
1.102438
-1.239721
-0.885236
-1.515531
-1.051385
-1.412606
0.392492
1.987134
-0.172385
-0.402213
0.326179
-0.479957
-1.193295
0.532730
-1.261902
0.697212
1.261000
-0.076297
0.288799
1.471718
0.572040
-0.347596
-1.325262
0.392024
-1.039862
0.701960
0.722898
0.494748
0.893641
-2.093778
-0.174064
-0.058624
-0.371394
0.501178
0.303044
0.026676
0.354160
-1.356200
-1.122843
0.265971
1.251699
-1.078470
-0.708803
-0.217493
-1.116672
0.803666
0.027830
-0.632343
-1.214930
-0.226026
0.404227
-2.116530
-1.219950
-0.701575
-0.785006
0.491182
-0.517775
-1.506225
0.106589
-1.290010
-0.656841
-0.570717
-1.673529
0.686941
1.516196
-0.092075
-0.918361
0.364416
0.968622
2.126715
0.230059
-0.840843
0.732475
-1.931753
0.340827
-2.086873
-0.888913
0.070275
0.697696
-0.273988
0.058456
0.757325
-0.150642
-1.180214
-0.075784
1.062520
0.402250
-1.744726
1.584736
0.571999
-0.001635
-0.291173
-0.526373
-0.015021
0.538028
0.796039
-0.486270
-1.530974
0.732494
-0.740911
1.457827
-0.601532
-0.575658
-1.541042
0.216972
0.360846
2.707085
0.762353
1.056948
0.194998
0.498140
-0.254434
-0.240518
0.191619
0.620647
-0.375760
0.751339
0.314602
-0.777533
-0.115379
1.021293
-2.159170
0.421438
-1.747838
-2.041021
0.573992
0.822119
0.778961
0.742468
-0.742721
-1.402660
-0.382913
-1.216902
1.500815
1.066743
0.411404
1.167168
-0.448384
0.652637
-1.153389
-0.801481
1.523545
-1.063029
-1.008909
1.022523
-1.208561
0.746589
-0.005503
-0.706639
1.389519
1.442814
-1.476014
-0.494917
0.169369
-1.487982
-0.086552
-0.688956
-0.145805
-0.241054
-0.437258
-0.738991
-0.954899
1.698753
-0.626625
-0.149259
0.073016
-0.110659
1.305804
0.958663
0.546692
-0.622507
-1.243366
-2.179853
-0.232073
1.266780
0.655925
1.482998
-1.341068
0.184672
-0.029044
0.533934
-0.529857
-0.145821
-0.347462
0.041188
-0.061220
-0.227721
0.322399
0.868415
0.273964
-0.038302
-0.429996
-0.186620
0.233226
-0.543734
0.123141
-1.483217
0.833732
-0.197266
1.888013
1.200009
1.062742
-0.677109
-0.923792
0.669570
-0.067340
-1.770596
-1.417799
-0.054217
-1.519639
0.517157
-0.311708
-0.022885
-0.754343
-2.279343
0.641706
0.735320
0.462121
-0.697497
0.919177
0.471053
0.961045
-1.161456
-1.166390
0.634472
0.092858
-1.161688
0.218006
0.889054
-0.875358
-1.495185
0.838694
1.410536
0.615829
-0.890963
-0.162500
-0.305779
-1.411772
-0.299339
1.342853
-0.830304
0.484343
1.382411
-0.089365
-0.470856
0.352355
-0.397574
-1.412059
1.372419
-0.651770
1.032280
-0.274114
0.117702
1.482175
1.047119
-0.817344
1.054534
-0.218088
2.407064
-0.079985
1.089091
0.592976
-1.699917
-0.458004
-2.589031
0.481852
-1.529092
0.664529
0.265219
0.704162
-0.275347
-0.384329
0.023207
-0.092796
1.738527
-0.531138
2.424422
0.628329
0.791493
1.398900
1.494212
0.565582
0.675554
1.286449
-0.818116
-0.680995
0.850048
0.496928
0.193893
-0.106688
0.814495
-0.388725
0.078905
0.814271
-0.231263
-0.779100
0.445977
-0.851454
-0.631439
1.064588
-1.525915
-0.783180
-1.139330
-0.549059
1.176582
0.236183
0.971030
1.188087
-0.945384
0.022566
-0.858990
-1.400752
0.933094
0.728193
-0.640036
-0.756503
-0.359393
-0.062862
0.296509
0.509784
-1.327737
-0.609470
-0.427311
-2.395449
0.013529
0.154837
0.430521
-0.792129
-0.438591
-1.522270
0.649984
0.383023
-0.235720
-1.673741
2.017740
-1.297773
-1.212228
0.021711
-0.866884
-0.850379
-0.567222
0.516217
0.973804
0.119692
0.359069
2.381533
0.163252
-0.807269
1.601766
-1.424892
0.301013
-1.204870
0.304981
1.298649
-1.131511
1.584246
-0.780375
1.892972
-0.560565
0.145480
-0.664150
-0.090957
1.296918
-0.827833
0.579146
-0.020936
0.517315
-0.455159
1.142300
0.113539
0.919804
-0.009302
0.506395
-0.531220
-1.088341
0.868187
-0.826388
-0.821035
-0.305014
-0.496414
-0.068559
-1.158839
1.452232
-0.307379
0.143137
-0.089607
0.933567
-0.610952
0.188448
-2.248587
1.328229
-0.454351
-0.315933
1.670592
0.845806
-0.045926
0.613308
-1.229993
-0.439909
-0.926028
-0.690115
0.180874
-0.200652
0.288627
0.133234
2.334066
1.010002
1.085549
0.278710
1.182229
1.400285
0.884549
0.060892
-0.205969
0.903613
3.025620
1.246333
-0.501165
-0.360853
-0.533690
0.280413
0.228471
0.229795
-0.362663
-1.114242
-0.769774
0.357991
-0.539388
0.251586
1.160828
1.036471
0.769773
-0.633413
0.861488
-0.683207
-0.993108
0.733900
0.103379
-0.675755
-1.656306
-0.502676
-0.560053
1.877651
-0.834151
1.121289
-1.164687
0.599557
0.220099
-0.110096
-0.387457
-0.494973
0.316568
-0.665859
-0.616851
-0.853783
2.382114
-1.535439
-0.009670
1.268109
0.256240
-1.374852
-0.091180
-0.599769
-2.030837
1.745417
-0.439205
-0.456413
0.898753
0.864712
0.714042
-0.514196
1.580881
-0.445203
-1.132996
0.322781
0.651756
1.355903
-0.800247
-0.594387
-0.677544
0.265526
0.241205
-0.891602
0.313766
0.566168
-1.193900
1.789675
-0.686617
0.846638
0.927635
0.527316
-0.020754
-0.254542
-0.791883
2.144990
-0.909025
0.670544
0.055294
0.247165
-0.937873
-1.020330
-1.831381
1.153733
1.192723
0.489980
-0.886802
-0.846237
0.107492
1.058695
-1.064476
-0.783102
2.341282
-1.765659
-1.218024
0.480670
-0.868682
1.207235
-0.594347
1.582256
0.687099
0.727122
0.539634
1.130371
-0.164454
-1.374845
-0.013612
0.584724
0.613327
1.070470
1.710285
0.115575
0.581814
0.055120
-0.505741
-0.876623
0.004526
0.373171
-0.351743
0.090449
-0.809275
1.122028
-0.275917
-1.529956
-0.357006
0.023302
0.006754
0.624358
-0.303677
0.722346
-0.799613
1.030423
-0.301470
-0.121363
-0.034463
-0.499948
-0.353467
2.073444
2.834987
-1.250329
0.676696
-1.872792
0.056776
1.323778
1.317821
0.477877
-1.275872
0.783522
0.566700
-0.108316
-1.031487
0.981151
0.170875
-0.726372
-0.940881
-0.385686
-0.161139
-0.758536
0.203038
0.672732
0.639444
2.364947
-1.048764
-0.799151
-0.864025
0.054471
-0.553590
-1.161030
1.214329
-2.254414
-0.320983
0.992307
-0.654535
2.401105
0.752161
0.029626
0.404287
-0.790557
-0.246815
-0.423940
-1.038839
1.985774
0.175653
0.023361
-0.606339
-0.409361
-1.051389
-0.611800
-1.165205
-1.781698
-0.800866
0.118248
-1.909728
0.545877
0.319059
0.525305
1.582847
0.384282
0.265922
0.621512
-1.530385
0.064934
-1.922822
-1.267363
1.297834
0.817262
1.554475
-0.099766
0.887051
-0.874999
-0.353988
-0.230009
-0.592468
0.587961
1.018476
0.301616
-0.353236
0.332035
-0.436476
-1.045103
0.000621
1.023796
-0.687456
0.511559
-0.510457
-0.169565
-0.960682
1.199857
-1.529480
-0.035511
0.895206
0.544761
1.017014
-2.046008
-0.620903
-0.924165
-1.309438
-0.960429
0.465383
0.494676
1.521510
1.330597
1.735744
0.319440
-0.249750
-0.755055
-0.367741
2.069434
0.121086
-1.537212
-1.945468
0.735951
0.052171
-0.962906
0.044607
0.057402
-1.215184
1.857690
0.621010
0.459017
-0.674202
-1.189690
-0.012195
0.132887
0.814598
0.420851
-0.799736
-1.322765
-0.042224
0.161292
0.099960
-0.508771
1.377089
-0.515760
0.814333
0.003653
1.251569
0.871687
-0.781331
-1.235366
-2.458573
-0.140470
0.026080
-1.855222
-0.258282
0.355876
0.640104
-1.045824
1.259043
-2.882962
1.766057
0.213613
1.538060
1.095932
2.554115
-0.169410
1.026251
-0.722468
0.620432
2.110087
0.129948
-1.683239
1.056666
1.305713
0.708405
-0.427417
-0.283605
0.369630
-0.560310
0.756163
0.171190
-0.165227
-0.581503
0.785306
0.526745
-0.446142
-0.024501
-0.049378
0.196930
-0.571207
1.237246
-1.787392
0.327578
-0.913934
0.113669
0.188834
0.186461
-0.685734
-1.623360
0.364848
-0.599448
1.166916
0.299537
0.572522
1.880372
1.512438
-0.249509
2.135081
-0.465245
0.381862
-1.030233
0.289892
-0.265224
-0.510703
3.174590
-0.741136
-1.302632
-0.298549
0.968763
0.603547
-2.326023
0.996880
-0.402865
0.722016
1.031742
-0.259028
0.945123
-0.853785
-0.715454
1.849649
-0.007502
-0.359328
0.033594
1.407574
1.666781
1.055055
-1.208976
-0.853150
-0.672148
1.350094
0.460546
-0.043891
0.071598
0.461822
-1.386577
-0.045660
0.693091
-0.548217
-0.661449
-0.699924
-0.692349
-0.453737
0.332738
1.056188
-1.261516
-1.053919
0.560196
-1.795821
0.140295
0.286565
2.280232
1.375551
1.064104
0.405177
-2.200878
0.575990
-1.373430
0.359623
-0.846857
0.134325
0.307090
0.365167
0.045571
0.610443
0.542183
1.491838
1.107936
0.355906
-0.693481
-0.401687
-0.565028
-0.292988
-2.496947
-2.073056
-0.493705
1.642830
-0.355594
1.384418
-0.387864
0.827921
0.083070
-0.507064
1.068390
0.454080
-0.950338
0.338567
0.043310
-0.474641
2.194595
1.064591
-1.186782
0.968918
-0.368101
-1.575652
-0.110421
-1.591101
-0.084604
-0.236060
0.031468
0.096340
-0.238947
-0.629489
1.398574
0.158539
0.115524
0.405186
1.142397
0.682492
-1.009731
-0.450315
-0.193815
0.903802
2.288154
-0.526378
1.049444
-0.249747
-0.086789
0.294002
0.012779
0.152519
-0.185189
0.482089
0.494676
-0.149249
0.416839
-0.697527
-1.033586
0.536759
1.580264
0.783648
0.869490
-0.798880
1.885370
2.071712
-0.030436
-1.957501
-2.363148
-0.311074
-1.634988
-0.915647
0.412076
1.776161
-1.139676
-0.930911
-0.210990
-0.894516
0.764053
0.554038
0.612439
0.867795
-0.902174
-0.553291
-0.719534
-0.423298
-0.720175
-0.302850
-1.187405
0.692468
0.372930
-0.498278
-0.220642
0.502472
0.110663
-1.324381
0.835955
-2.518472
-1.014185
-0.294141
-0.766082
-0.749884
-1.126608
-0.919430
-2.299886
1.326959
0.808529
-1.466250
-1.017969
-1.721044
2.373395
0.685217
0.147496
-0.445214
-0.925989
1.128517
-1.047594
0.782318
-0.879693
0.177372
0.746418
-0.804999
0.234445
0.434030
1.933718
-0.596206
-0.579542
0.419761
-0.145585
0.132719
-1.903612
0.415928
0.727381
-1.831831
0.573370
1.857720
1.297902
0.195956
-0.158935
0.085868
0.307792
-0.515242
2.433160
-0.029394
-1.467396
1.049713
-0.185351
-0.917656
0.480557
0.043061
1.153831
-0.310349
1.634666
-0.136041
-0.673020
0.233316
-1.142155
0.439659
1.370353
-0.034747
0.237175
-0.017722
-0.329342
0.752647
0.086942
1.091831
1.296532
-0.176111
-1.389628
1.368128
0.068997
1.244177
0.087379
1.193697
-0.888504
0.398704
-0.700754
1.079183
0.668660
0.856027
-0.407677
0.203046
0.422109
0.150897
-0.370838
-0.957304
-1.120005
-2.402546
-0.404371
0.285041
-1.231179
0.509410
0.116226
0.630485
-1.496363
1.369159
-0.541974
-0.804770
-1.052004
-1.035556
0.254748
0.489397
1.406429
0.275955
-0.118941
-1.552499
0.657606
0.034068
-0.547885
0.833618
-0.439989
-1.113468
-2.072533
2.111335
2.045098
-0.891090
2.227998
0.582840
1.450221
-0.252948
-0.240480
0.155583
-0.405892
1.539522
-0.345823
0.364221
0.621151
-1.010386
-0.517236
-2.988925
2.148737
-0.884395
-2.285614
0.430712
0.691002
0.080899
-2.015417
-0.355332
-0.909155
-0.528024
0.103709
0.065214
0.048922
-1.453471
-0.091272
-0.414252
-1.164642
-0.080485
-0.532204
-0.218344
0.239720
-2.087932
-0.962314
0.739950
1.934386
1.201937
0.877443
0.593181
-1.086208
-0.612013
-0.741860
-2.178807
0.278852
-1.346264
-0.544394
-0.339674
0.349677
0.484111
-0.217303
-0.619486
0.409178
-0.610012
0.137443
0.526967
0.289458
1.485134
-0.095894
-1.749771
-0.752099
1.189890
-0.927747
-0.408582
1.371335
-0.035185
-2.576804
-0.059105
0.855942
0.985372
1.889969
-0.342916
0.358827
-0.830893
-1.173251
0.017368
0.834083
2.460840
0.909439
-0.281922
0.223128
-0.111077
-1.555159
1.311921
0.115676
-0.815634
1.285556
0.677213
0.937568
-0.957263
-1.022196
-0.625310
0.136958
1.053429
-0.762560
1.542102
0.786852
1.515922
0.003226
-0.494714
-1.598174
0.195285
-0.551545
0.866241
-0.814628
0.205502
-0.353743
-1.008326
-1.244708
-0.604624
-0.696704
0.019564
-0.375906
2.471873
-1.233890
1.266537
0.358119
-0.101332
-1.624272
1.881261
1.252810
0.439106
1.807957
-1.260388
-0.490382
-0.182492
-1.543956
0.820231
0.161063
-1.062376
-1.443716
-0.121240
0.103382
0.179757
-0.037386
-0.912756
0.358961
1.218041
1.991122
1.456413
-0.036520
1.142722
-0.097232
0.751935
-0.961743
0.926810
0.543849
-1.149890
0.532228
0.721903
0.569667
-1.338028
0.050976
-0.350293
-0.810823
1.205191
-1.420199
-1.044630
1.065803
0.309559
-0.154175
0.414740
1.681782
0.338859
0.149982
-1.352796
1.815276
-2.729955
-0.398071
-1.298296
-0.865020
0.216860
0.488214
-1.691519
0.208397
1.293116
0.171885
0.992335
-1.413777
0.515471
0.953134
-0.458016
0.418235
-0.952737
-0.678492
0.514603
-0.283439
-0.309686
-2.733106
1.764973
0.258788
-1.570967
0.502919
0.051963
-0.796319
-0.110015
1.785270
-0.326863
1.941765
-0.427668
0.665223
0.576794
1.141211
-1.132320
-0.197640
-1.631248
0.831149
-0.267813
-0.246797
-1.773895
0.070641
0.587987
-0.846377
-1.189748
0.173463
0.495140
-0.395290
-0.424985
-0.404288
0.843354
-0.878183
-0.105627
1.182307
0.321503
-0.937047
-1.083169
-0.004124
1.066715
0.179798
-0.245208
-0.344514
-0.938139
0.004745
1.618765
0.152221
-0.625594
-0.335188
-0.424100
0.239097
1.480996
1.321986
-0.567458
-0.290633
0.441429
1.085325
-0.573184
0.838968
-0.456075
-0.167554
0.582624
0.571254
0.515748
2.254881
-1.224335
-0.848782
-1.196037
-0.148371
-1.559538
-0.352204
-0.998114
0.723265
0.265802
0.602304
-0.333413
0.928567
-0.256437
1.073407
-0.813676
0.918253
0.539329
0.811852
0.080797
1.641705
0.607549
0.465409
-0.887817
0.100199
-0.983753
0.290683
0.757273
0.474194
0.872490
0.671115
-0.164466
-0.600897
0.388193
0.294995
-0.386714
0.302231
0.150381
0.487262
1.421779
0.459018
-1.560047
-1.594329
1.287284
-0.216631
-2.763435
-1.056718
0.466176
0.049185
-0.266991
0.223871
1.270959
-0.803073
1.200609
1.381349
-1.165241
-2.112548
0.140619
0.931301
-1.209736
-0.139228
-1.563444
-0.354375
1.019236
1.274944
0.249585
-1.289980
-0.485211
0.868009
-0.415873
0.042262
1.232231
-0.523059
0.021146
-0.103335
1.196099
0.230016
0.505540
-0.201320
-0.131316
-1.512776
-0.879959
-0.650227
-1.119030
2.098454
1.239986
-0.263493
-0.769901
0.285684
-1.504083
-0.671471
0.827412
0.086362
0.809810
-0.051117
0.857618
1.279227
0.742510
-0.404158
0.642339
-1.035949
-0.508325
0.768053
0.051879
0.309170
-0.798842
-1.894140
-1.594152
0.758432
-1.437349
-1.404101
0.038391
-1.143929
0.364055
0.549223
1.424988
-0.174759
-0.389076
-0.603847
-0.275479
0.867988
-1.105859
0.404015
0.343910
-1.576517
-1.161323
-0.545452
1.072108
-0.974886
-0.403271
-0.561926
0.139639
0.027605
0.316126
0.060589
0.805110
0.152628
-0.419796
0.197399
-0.971718
-1.885185
1.264209
-0.409329
0.009724
1.039961
0.468808
1.551200
-1.281841
0.819216
0.361722
-1.715547
0.236836
0.018311
0.634311
1.332644
0.266241
0.664322
-0.039387
0.107334
0.084347
-0.723878
0.232285
0.283834
0.565525
-0.927086
1.587450
-0.843434
1.809991
-0.137814
-0.684693
0.238434
1.493062
-1.177466
0.118605
-1.032590
0.357187
0.587931
1.495984
-0.718149
0.654296
1.202037
0.253580
0.109438
1.027987
-0.696036
0.963029
-0.416739
-1.649816
1.582730
2.270838
-0.813272
-0.456833
0.248555
0.044198
-1.323345
2.067864
-0.215687
1.000848
0.365673
1.116252
-0.519972
1.576595
1.072641
-0.688882
-0.759168
-0.741658
-0.206697
1.468601
-1.194835
-1.116501
1.541725
-0.045736
-0.571876
0.315008
0.282253
0.685200
0.500557
0.027283
-0.609846
-0.147753
-0.120599
1.865481
0.222113
0.517198
0.886333
-0.165490
0.082295
1.612497
-0.615674
1.298286
1.861609
-1.534703
-0.759874
-0.648986
1.555022
0.734981
0.000168
-0.232546
-1.103863
0.295516
-0.216235
1.074546
-0.316311
-0.713020
1.241489
0.577310
0.032867
-0.382335
0.102142
-0.792464
0.122334
-0.262081
-0.550554
0.010534
2.246542
0.696887
-0.965559
-0.662168
-1.262885
-0.219618
0.785411
0.398220
0.429444
0.365147
0.255295
-1.365933
0.782078
-0.710190
-2.205317
-0.019102
1.041429
-0.536830
1.643329
-0.927495
0.696028
-1.029169
1.096461
-0.122389
-1.111285
1.270598
-1.031903
1.202071
-1.046974
0.771293
1.603896
-1.027188
0.726939
0.208998
-0.720989
0.584501
0.638689
0.806424
-0.932379
-0.113770
0.474567
1.095564
0.950118
0.722539
-0.545455
0.264502
-0.339979
-0.867456
-0.996517
0.558216
1.362551
-1.610372
-1.327171
1.282527
0.696604
0.519082
0.780129
-0.087012
-0.200492
0.566151
1.298148
0.847641
-1.040328
0.668450
0.612665
0.644239
0.549325
0.152545
0.872150
-0.572807
0.933421
1.113523
-1.895116
0.977544
-0.848834
0.091127
-0.102783
1.043476
0.301072
1.879411
-0.078273
-0.070753
-0.526877
0.977662
0.643182
-0.991613
-0.203816
-0.908086
1.040416
-0.739458
-0.827331
-0.490017
-0.725622
-0.005222
-1.059065
-0.133091
-0.087315
-1.108930
-0.642679
-0.166495
0.812577
0.754746
-0.815979
0.351574
0.855504
-0.767266
-1.075382
-0.145295
-0.612037
0.088877
0.852809
-0.585954
0.075943
0.955166
-0.123439
-1.061082
0.396244
-1.381618
-0.974448
-0.880836
-0.678722
-0.143720
-1.065452
-1.225432
0.416987
1.408296
0.180925
-1.460558
1.117595
0.666933
-0.412136
0.985862
0.036198
-0.860274
-0.573412
-1.277663
0.262288
-2.539216
0.177948
-2.094972
-0.941147
0.576041
-1.148028
-0.377939
0.965809
0.051962
-0.752658
-0.555508
-0.107366
-0.070205
0.657386
-0.552217
0.473944
1.370874
-0.060996
1.296672
0.999163
-1.039275
-0.390750
0.340666
0.014711
-0.770351
0.989905
1.294459
-1.000544
-1.363139
-0.715677
-0.610963
-2.383438
0.342699
-0.280156
-0.418466
-1.270550
-0.130904
1.408907
-0.775592
0.018008
-0.039810
0.849797
-0.024582
-0.405204
1.450418
0.477791
-0.372553
1.985767
-2.414660
0.002770
0.210169
-0.365182
0.518351
-0.719332
0.230657
0.877580
0.034007
1.752139
-2.228855
-1.231359
-1.950809
-0.110806
1.495954
-1.401090
1.723076
1.680081
-0.763074
-0.162631
-0.957646
-0.340348
1.362883
0.690125
0.466251
1.443251
0.641713
-0.099099
-1.359936
-1.454140
0.549115
0.131984
0.681177
1.480714
-0.113840
-0.248562
0.815950
-0.033755
1.681698
-0.646903
1.208523
-1.764179
1.142401
0.089050
1.099840
1.748131
-0.139818
0.546984
0.483358
0.433312
-0.536662
0.766712
-1.194566
-0.385509
1.061826
0.196773
0.119962
-1.058835
-0.142173
0.225684
-0.205862
-0.696013
0.524996
-0.873864
-0.151675
-0.094047
-0.867731
1.008684
-0.645120
1.221617
-2.259562
0.759542
-0.385020
-0.010680
0.203589
1.422991
-1.176517
0.240468
0.559008
1.704738
1.690928
-0.222679
1.588582
0.107119
0.952708
0.294372
0.453309
0.148486
-0.642373
2.519877
-0.188546
-0.963866
1.404030
-1.061667
0.649314
-0.286080
-0.869095
0.666428
-1.962303
-1.245160
-0.108140
-0.147872
0.163965
1.217853
-0.085061
0.639074
0.607297
0.694085
0.989786
1.252525
-1.180116
-0.449876
0.586308
0.858418
1.618636
1.563500
0.277544
1.432676
-1.995104
2.595136
-1.915465
0.241262
0.158730
1.083031
-1.383283
0.922608
0.078935
-0.135639
1.696083
0.217313
0.020385
-0.611660
-0.752755
-0.655655
1.945637
0.793003
-1.227842
-0.001566
-1.686797
-1.894874
0.818640
-0.015790
-2.779277
-0.950481
-1.397096
0.187702
-1.547275
0.289060
-0.320723
0.311116
-0.705414
0.917223
-0.055766
-0.936722
-0.576253
1.122251
0.248962
-0.256078
0.592745
-1.272066
0.391587
-0.968237
0.024640
-1.165273
1.040523
1.272563
-0.421117
-0.827949
-0.747429
-0.258482
1.158116
0.206182
-0.009758
-0.083691
0.243810
-1.733050
0.184514
-0.499846
0.070833
-0.087503
2.097823
1.538278
-0.075589
-1.455727
0.293907
1.079955
-0.825451
0.683680
-0.291877
0.901606
0.261843
0.811255
-1.067961
-0.661612
0.357018
0.130511
-1.464331
-0.255425
-1.188917
-0.881125
-0.046827
-1.299599
-1.613496
1.462911
0.611305
-0.742731
-0.050098
1.413461
0.907528
0.324717
-0.078672
-0.728973
1.005826
1.916617
-0.306269
-0.267226
-2.304335
0.203147
-0.893292
-1.886404
-1.396017
-0.393298
0.480581
-0.984644
-1.991669
1.377441
-0.303745
0.533466
0.203260
-0.074496
-1.346501
-1.281989
0.934186
-0.245342
0.809871
0.482656
-1.296988
0.258224
-0.934800
0.842882
-0.975526
0.224858
-0.399782
0.052075
0.231265
-0.258395
-0.218580
0.838226
-2.677141
0.269688
-1.002509
-0.311018
0.538414
-0.008979
-0.215146
-0.097690
0.478505
-0.474705
-1.057398
-0.627049
-1.762166
0.369721
0.317273
-0.834496
1.486896
-0.309639
-0.069282
-0.250357
-2.781272
-1.512230
2.677895
-0.193604
1.490175
0.242150
0.945396
-0.640320
0.155642
-0.712407
-0.874513
-0.127036
-0.404492
0.284832
1.023035
0.335223
-2.106198
-1.848348
-0.288376
-0.322529
0.620510
-0.337864
0.183723
-0.704842
-0.946192
0.538338
0.380641
-1.283569
-1.729311
-0.608526
1.111053
1.553578
-0.644938
0.550039
0.852043
0.942088
0.480453
0.518312
-0.500749
-0.428741
1.341589
0.580109
1.136912
0.986489
0.409779
-0.886917
1.713623
0.260712
0.604851
-0.649880
-0.184203
0.973550
0.202572
0.496808
0.499882
0.623398
0.827535
0.086172
-0.901107
0.004230
0.401009
1.810207
0.398432
-1.010406
0.454270
-1.542888
0.225090
-0.316999
-0.254999
0.942248
0.754941
-0.730494
-0.218102
1.212236
0.940311
-1.094143
0.925547
-0.564329
0.051769
1.002941
-2.537024
1.092726
1.272952
-0.168848
1.911590
-1.827636
1.299900
0.571842
0.272565
0.686001
1.445059
-0.575358
0.948163
1.328274
-0.772277
0.688276
-2.041560
0.415552
-0.880402
-0.581145
0.592500
-0.525746
-0.764807
0.424161
0.789227
-0.766112
-0.578366
-0.773459
0.168886
1.575441
1.145191
0.997760
-0.022686
-0.092846
-0.295870
-0.202923
-0.197890
1.077585
0.930368
1.182476
-0.519191
0.686579
0.191352
-0.226100
0.175620
-1.163291
1.199695
-0.603348
-0.168461
1.019137
0.101615
-0.699030
-1.159862
1.045469
-1.448641
-0.028044
0.604409
-0.162881
0.189850
-0.857016
-0.155738
-0.343320
-0.886431
0.410705
-1.038625
0.958653
0.056558
-0.588373
0.250260
0.595800
0.774455
0.098255
0.480052
-1.879356
-2.582033
0.294238
-0.293786
-0.768194
-0.615955
2.810735
0.011239
0.729801
1.575258
0.202775
0.824652
0.196811
-0.722631
-2.348821
0.664877
0.969569
0.961040
-0.821647
1.760039
0.642357
0.340843
0.378237
-0.701625
-0.604102
0.871765
-1.259028
1.529805
-0.149232
0.831151
-0.873483
-1.426972
0.802965
0.550338
1.169285
0.477066
-2.680768
1.382065
0.419819
-1.870975
-1.317290
-1.065825
-0.954220
-0.383898
0.520058
1.748099
-0.930354
0.976375
0.623677
0.529947
0.580117
-0.022760
1.357196
-1.079384
0.296050
-0.804807
-0.278342
-0.870577
0.357379
0.243890
-0.051606
-1.207743
-0.469788
1.244295
0.443972
1.212384
0.085160
-0.501130
0.861890
2.293152
0.040522
0.832765
0.772811
-0.724985
0.504611
1.705151
0.943393
-0.427361
-1.718203
-0.219372
0.577547
-0.151756
-0.089846
0.181474
-1.319860
-0.238450
1.230572
-0.464561
1.571005
-0.625582
-1.199529
0.990310
0.180838
-0.752392
1.117302
-1.448682
-1.344150
2.232895
0.082167
-0.829654
0.067704
0.504037
-1.764109
-2.633068
0.097569
0.882222
0.533689
-0.024704
1.686101
-0.697501
0.900359
2.303491
0.454671
-0.201944
-2.974663
-0.894007
1.427219
-1.608838
-0.352109
1.465682
-0.327364
0.484615
0.257283
-0.383362
0.919829
-0.437958
1.259812
0.582807
-0.711654
1.166355
-0.127651
0.610456
-0.197752
-1.903575
0.755732
-0.596528
-0.958606
0.169849
-2.387199
-0.380281
-0.494276
-0.054134
0.056843
-0.119013
-0.264226
0.778391
-0.880509
0.714029
-0.192629
-0.912903
-1.426163
-0.189597
0.136803
0.077519
-1.354089
-0.102982
0.456690
-1.733301
0.009673
1.970960
-0.300460
-0.281256
0.631707
-1.309386
0.483587
0.075219
-1.957601
-0.231615
0.074706
-0.410645
-1.419381
-0.523251
-0.197797
0.660653
-0.276984
-1.314440
-0.749669
-0.674968
-0.086776
0.702247
-0.526827
0.418065
-0.066798
-0.276712
1.535618
0.100822
-0.189099
0.215659
-0.585582
0.901184
0.033324
0.048874
-0.751043
-1.241303
1.314475
-0.885677
0.783457
1.598743
0.320290
-0.626565
-1.133388
2.098230
-0.792961
0.465422
-2.004282
-0.960863
-0.598685
0.896796
0.603650
0.405734
-1.766123
-0.332793
0.651554
-0.602410
0.020093
0.590348
-0.644452
-0.413538
0.647752
1.320258
-0.181476
-0.755509
1.085489
0.619513
-0.658517
-1.288058
-0.249547
-0.326102
-0.290184
0.395910
-0.138844
-0.592277
-1.925867
-0.100895
1.474215
-0.500807
-1.586810
1.048166
-2.172633
-1.719071
0.826302
0.750377
-0.539720
-0.621984
0.902434
-0.381961
1.520343
-1.152079
0.109215
-0.023140
0.077662
-1.946026
1.422207
-0.260525
-0.164265
-0.143750
1.226948
-0.488087
0.183670
-1.457577
2.051596
0.566827
1.329062
0.786923
-1.134614
0.449783
1.218627
2.683700
-0.064659
-1.059515
0.700796
-0.775563
0.453332
-0.239661
0.279974
0.086977
-0.897595
-0.000949
1.721887
0.322789
1.205761
-0.087934
0.621920
-0.286414
0.704955
0.134873
-0.794064
0.197697
0.211639
0.824453
0.501260
1.026228
0.712399
-1.040971
-1.848427
-0.787887
0.071551
-0.244750
-0.606501
-0.499546
-1.051358
0.664161
-1.482406
0.931691
0.071289
-1.772978
-0.937308
-0.989706
-0.171977
1.337521
0.137333
0.350027
0.774438
-0.628512
1.362222
1.337739
1.714003
0.067009
0.632601
-1.510117
-0.825914
-1.145663
-1.454370
-0.926767
-1.322237
-0.284330
-0.939856
-1.583469
2.025788
0.344554
0.790655
1.564255
0.848908
2.064856
-0.048254
-1.344322
0.237644
0.606072
-0.418195
-1.718018
1.512968
0.704403
-0.351922
0.639971
-1.959982
0.881795
0.050672
-0.183710
-0.408399
2.836591
-0.301219
-0.042224
1.080071
1.641891
-0.447523
2.821598
-0.724390
-0.733127
1.697405
1.214144
-0.310492
0.577957
-0.389423
1.499810
-0.884790
2.059809
0.500398
0.505679
1.114657
0.155115
0.682005
-0.658315
0.163163
-0.665083
-0.033515
-1.221774
0.510790
-0.158876
-0.238338
0.549947
-0.955502
-1.253542
-0.920135
-1.128457
-1.510207
-0.012048
-1.664763
1.232275
0.420270
-1.295821
0.467149
-1.093725
0.501775
0.446408
-0.463080
1.053718
1.455574
0.050448
-1.736063
1.294467
0.083922
-0.779785
0.799403
-1.081835
0.205201
1.727061
-0.605641
1.160092
-0.907375
-1.610215
-0.303919
-0.163511
-1.897069
0.432102
-1.171901
-1.961802
-0.610239
0.070381
1.955881
-0.210913
-0.354462
0.980367
0.589815
0.673219
-1.674976
-0.236665
-0.626200
0.301113
1.070531
-0.031405
1.101077
-0.119173
1.030342
1.406367
1.310316
0.711706
1.024624
0.061279
-0.484447
-1.262994
-0.501636
-1.396238
-2.321850
-0.144542
-0.174114
0.853788
0.699088
-0.948922
2.118887
-0.105276
0.162666
0.396517
-0.062307
-0.235931
0.427642
-0.063094
0.720056
-0.779561
1.387817
-1.024441
0.115022
0.091038
0.616420
-1.329133
0.366604
1.275181
0.714673
0.767635
-0.751967
-0.019829
1.170920
0.648285
0.075989
1.398207
0.262035
-0.871675
0.555908
-0.404511
-0.135965
-0.318225
1.972493
0.383267
0.442128
-1.744220
-0.472149
-0.083851
0.334782
0.821905
-0.981000
0.312499
-0.495891
-1.114173
1.733797
1.523617
1.423041
0.640384
0.073606
0.313949
2.137438
-0.307741
2.470814
1.532767
0.754802
-1.644895
0.564013
0.697049
-0.442888
0.184500
0.042790
1.363102
-1.019674
-0.508111
-1.119883
-0.370609
-0.034106
0.229719
0.494391
1.599290
-0.257886
-0.508025
-0.680828
-1.341842
-1.044868
0.003644
1.779875
-1.088567
-1.144108
0.551941
-1.911997
0.254082
-1.222601
-0.233461
0.312670
-0.833107
-0.746707
-1.133392
-1.472935
0.354006
1.885320
1.027354
2.239678
-0.517389
0.513535
1.579716
0.074153
-0.049533
1.330174
-1.776186
1.211628
0.015774
0.318265
0.238826
0.462256
-0.140593
-1.842104
0.991167
0.460162
0.169984
0.190997
-1.000337
-1.034228
0.076367
1.013143
0.524764
-0.787972
0.090128
-0.224226
-0.961356
-0.550104
-1.574248
-0.352335
2.533206
0.424060
0.986564
-1.361263
-1.539382
0.093015
-0.987636
0.883085
1.546620
1.991567
1.606645
-0.088926
-0.543846
2.083124
-1.599686
0.216863
-0.080924
1.232322
0.177367
0.765677
-0.123592
-0.052296
0.304532
0.232741
-0.221912
0.567219
0.665115
-0.807203
-1.025673
-1.301412
-1.139769
-1.131202
1.296041
-1.252251
-2.305917
-0.309659
0.324955
2.279842
-0.608674
-0.104090
-1.223577
-0.197488
0.229218
-0.197920
-0.302087
-1.801975
1.168685
-0.954403
0.235162
-2.107468
-0.311644
0.946680
-0.531124
0.001957
0.910960
0.263259
-0.348803
0.482069
-0.345075
0.225469
0.061841
-1.140080
-1.586955
0.010778
-1.149298
1.278197
0.110451
-1.250086
-0.442645
-0.410693
-1.012670
-0.279727
0.389814
0.152232
-0.380951
0.040019
0.645071
-0.253005
-1.260214
-0.015400
-1.130725
0.353190
-1.288885
-0.184455
1.126357
-1.919128
1.608571
0.283939
-0.616263
-0.729637
0.842336
-0.412151
-0.002582
-0.160483
-0.085352
0.843851
-0.676958
-1.100865
1.099815
1.635467
1.363744
1.548725
0.085862
-0.496081
0.130927
2.387413
-0.367342
-0.845610
0.727368
-0.895129
0.000165
0.688501
-0.533243
0.154827
-0.235071
0.672169
1.712080
-0.693106
0.654428
1.652827
-1.697914
1.886427
-2.081912
-1.582646
0.425322
0.310570
-0.097927
1.244436
-0.147379
-1.551078
-1.219778
-0.100819
1.351364
-0.007793
1.172704
0.092430
0.405763
0.571895
-1.874334
-2.012783
-0.251943
0.573491
-0.247343
0.755958
-2.164176
-0.325418
0.087278
-0.074046
0.384168
1.405803
0.403596
-0.144868
-1.026241
0.962473
-0.205963
0.693673
-0.717146
0.313601
0.366248
-1.694615
-0.584978
-0.947688
1.004789
-0.251912
-1.126839
-0.392675
-0.994122
-1.716995
0.249170
0.444135
0.290727
0.489906
-1.301314
0.711870
-0.487050
1.169788
2.397801
-2.530613
0.079626
1.332080
1.432414
-1.837165
1.871678
-0.862840
-0.229251
0.069015
-0.823208
1.122943
-0.153046
-0.841485
0.783527
0.463948
0.572513
-0.053604
-0.371264
0.937657
-0.209140
0.194015
-1.779103
-0.545739
0.716615
1.029107
-0.913292
0.587431
0.081462
-0.320581
-1.703028
0.018397
-0.803631
-1.151820
-0.232842
1.631845
-0.387080
0.886075
0.920874
-1.323795
1.069640
1.116927
-0.189185
0.057482
-0.067683
0.658051
0.100316
-0.395535
-1.161368
-0.934133
0.202538
1.687812
-0.683192
0.001585
1.811846
0.030141
-0.520868
-0.418146
-0.024909
-0.984417
-1.123221
1.795508
-0.615351
-0.471975
1.697199
1.148214
1.767397
0.696896
-0.723973
1.291548
-0.616625
-1.019312
2.131426
0.741618
0.430443
0.355636
0.444225
1.698107
1.583011
-0.215523
-0.752612
0.450049
1.015025
0.361994
-0.135794
1.358029
0.202741
1.852477
1.023118
0.212220
0.063317
-0.453407
-1.051727
1.364665
0.330736
0.031084
1.988103
0.030055
2.548721
1.307567
-0.818985
-1.375797
-0.184951
-0.364134
-0.076680
0.827228
-2.136894
0.576280
1.048101
-0.661750
-0.437600
-0.545913
0.552806
1.153169
2.047332
-0.357488
-0.479546
0.324464
-0.387600
-0.232749
-0.914659
0.829665
-0.943736
-0.019695
0.390189
1.774697
0.731718
0.797757
-1.243402
0.794017
0.032514
0.047788
-1.281880
-0.041585
-0.030203
-0.995390
-0.305042
-1.358413
2.293687
-0.908292
1.657061
-1.453607
1.544074
-0.746563
0.297182
0.629958
-0.024837
-0.549277
0.596507
1.314691
0.238398
0.464644
0.672330
1.297749
-0.037083
-0.280581
-2.297327
-0.362048
1.678136
1.213536
0.939890
0.368840
1.138871
-1.456251
1.037971
-0.753864
-1.004261
-1.024229
-1.386667
-0.330951
-0.890966
0.032796
1.089753
-0.031784
1.500334
-0.975081
-1.080305
1.391508
0.821810
-0.906509
-0.127607
-1.271347
-0.055628
-1.078285
-1.372230
0.602925
-0.253137
-1.382475
0.910870
0.082546
0.943398
-0.519622
-0.222012
1.590776
0.752866
1.343309
1.761334
-2.114644
-1.445820
-0.723729
-1.006436
-0.990371
-0.256201
-0.160638
0.064427
-1.091518
1.641841
-0.259837
0.526453
-0.867987
-0.427096
1.360918
0.818531
0.541599
0.247150
0.102365
-0.039505
-0.196974
-0.438540
-0.219255
0.313805
0.333744
0.191925
-0.520918
-1.462293
1.136539
-0.726287
-0.761057
-1.319070
-0.389539
-0.499808
1.546466
-0.669154
1.161288
1.123453
-0.567382
-3.334026
-0.223949
-0.647429
0.727400
0.620407
0.544754
1.527087
-1.663071
-0.116320
0.570309
-0.232729
-0.219595
1.051188
0.591087
0.347805
-1.848907
-0.851752
0.005527
0.292197
-1.067273
0.649231
0.049473
0.432156
0.357099
-0.715985
-0.320790
-0.194893
0.233316
-0.317627
-0.157804
1.073065
-1.435849
0.105050
0.512234
-0.211432
0.799859
0.398609
-0.459145
-1.387917
-0.363481
-0.736057
-0.014575
-0.286154
1.000480
0.153845
-0.445494
0.195749
-0.868145
-1.278868
-0.557508
0.985873
-1.979760
1.927569
0.002189
-0.879369
1.831258
1.699292
0.846046
0.617560
-0.203159
-1.177500
0.510589
-1.880247
-1.186174
0.315086
-0.742497
-1.208243
0.101266
0.059001
1.093184
-0.545458
0.667366
0.615683
0.237702
0.287709
1.457346
-0.245743
-1.206254
0.232749
-1.531347
-0.281820
-1.787503
-0.067779
1.393021
0.815431
-0.684840
-1.603170
-0.236081
-0.335620
-0.963997
2.141734
0.352179
-0.656191
1.796620
0.915029
-1.071377
-0.905223
-1.888772
1.580034
0.427215
-1.386582
-0.094645
-0.654235
-0.781300
-0.144343
0.270191
1.148171
-1.578627
1.352919
1.482871
-0.378477
-0.754350
0.626641
0.630899
-0.121482
0.636101
1.535394
-0.575091
-0.198204
-0.070203
-0.352947
-0.441112
-0.106745
0.760708
0.613140
-0.837583
-1.122689
-0.503035
-1.100859
-0.648915
-1.313829
-0.718928
-0.359928
-0.682385
-0.092651
-0.731093
-1.212003
-0.776577
0.462095
-1.329989
1.901482
0.010478
0.307305
1.822082
0.510781
2.011282
-0.590182
0.714402
0.736340
0.035076
-0.363932
-0.799758
-1.579937
0.959399
1.343213
-0.577344
0.175043
-0.621176
-1.787260
1.016317
-1.562737
-1.367588
-1.577953
-0.335590
1.226382
-0.930418
0.716048
0.484412
-1.570068
1.294475
-1.625645
-0.482171
-1.086137
-1.238225
-0.104853
1.287782
-0.173617
1.073000
-0.217569
0.398276
-0.299966
-0.019456
-0.251147
-1.636421
-0.042696
-0.813684
1.202336
0.147221
0.422438
-0.662386
-0.604772
1.005856
0.645051
-1.642118
-0.560367
-1.647467
-0.390077
0.044170
0.201300
-0.456441
2.849451
0.396304
0.369033
-0.276474
2.177117
0.042603
-0.817441
1.223559
0.974064
-1.739312
0.703682
0.897741
-1.112462
0.920598
0.096315
-0.083514
-2.230971
0.366209
-0.723429
-0.599603
0.733922
1.628572
0.514375
-0.131979
-0.014641
-0.328860
-0.504547
-1.125583
0.429640
0.870021
0.040088
-0.278532
0.081680
0.429520
-1.240519
-1.886716
0.240270
-0.531431
0.842811
1.941429
0.227473
0.285408
1.505584
-0.238454
0.909193
1.369253
0.017642
-2.817147
0.373936
0.433886
-0.893894
0.958597
1.451413
0.975265
0.285043
0.923992
-0.457610
-0.102351
0.114638
0.094224
-1.582185
0.365140
0.390449
1.737947
0.105734
-0.901308
2.769753
0.590290
-0.988901
-1.235177
0.218865
1.524508
0.499707
0.414575
-1.665223
-1.192562
0.601495
0.515831
0.278431
0.784908
-0.831738
0.814477
-0.917978
0.808183
-0.098595
1.191358
-1.142383
0.839500
-1.280427
-0.196390
0.096579
-1.087579
-1.099127
0.143069
0.577231
1.493858
0.222334
2.032671
0.678440
1.825287
-0.456497
-0.796066
0.007287
1.376780
-1.051141
0.111833
0.890481
0.246140
-0.107924
-0.958755
0.832382
-1.142671
-0.219379
0.176646
0.313329
0.611946
-0.635644
0.616978
2.067708
-0.431105
0.217006
-0.879238
0.398017
-0.248401
0.901267
0.246886
-0.387827
0.602874
1.218164
0.388331
-0.517725
0.348637
0.022259
0.035296
0.209784
-1.845044
-0.170435
-0.038519
-1.365938
-1.764564
2.179566
1.364802
1.087577
-0.816471
1.250070
-0.387720
-0.317133
-0.765256
0.092232
0.226233
-0.309267
-0.823816
-1.104331
1.009522
-0.294125
1.481484
-0.443418
-0.039701
0.721604
0.250211
0.284735
-1.558037
-0.011115
0.214358
-0.091665
-0.546266
-1.410398
-0.203344
0.093384
0.928278
-0.224956
-0.027388
-0.801416
2.042326
-0.319924
-0.990938
0.339670
0.793945
0.820718
2.160019
-0.641083
-0.276734
0.755831
0.548624
-2.314445
-0.603867
-2.716307
-0.594832
0.770613
1.496107
-0.105990
-0.647355
-0.148708
0.513344
-0.375293
0.580930
1.505552
1.710011
-0.335917
0.322515
0.494962
0.590319
0.697331
-0.087227
-0.537567
-0.434810
0.148404
0.011007
-0.099431
-1.845166
-0.066908
0.510246
0.879504
-0.372108
-2.494403
0.146405
1.293848
-0.300665
0.250286
0.740003
0.327515
-1.776319
0.631001
0.311121
1.160870
-0.052128
1.232727
-0.121915
-0.045594
0.458726
0.195652
1.165877
1.031753
1.261995
-1.559855
0.826888
-1.588242
-1.587903
1.417116
0.376985
0.886683
0.773935
-0.468635
0.812931
-1.028203
0.155320
1.376134
-1.422728
1.516853
1.111917
0.706413
0.363879
-1.942911
-0.299454
-1.398605
1.192630
0.491600
-1.085778
-0.292189
0.187336
-0.944960
-0.407543
1.273561
0.390371
0.518547
0.511213
-1.193923
1.570800
-1.651044
-0.541397
-1.530800
-0.273232
-1.250654
0.505175
1.192517
-0.490185
-0.649850
0.930255
-1.505001
-0.843647
-0.731782
0.039757
-0.747884
-0.665148
0.467946
-1.024710
-0.908291
-0.296923
1.219152
-0.054843
2.405232
0.541399
0.617602
-0.769956
-0.572681
0.592149
-1.865771
0.731910
-0.374982
0.306267
-0.326135
-0.981530
-0.655948
0.389610
0.493062
0.705343
0.783089
0.267491
0.038817
-0.422372
0.621409
-0.299623
1.247864
2.018779
-0.643776
-0.546505
0.602610
0.662623
1.634745
0.013188
-0.350534
0.039646
-0.010706
-0.366278
-0.499280
-0.508653
1.894153
1.790832
0.805070
-0.864873
-0.019717
1.192195
1.262332
-0.822841
0.565570
-0.879672
0.665270
0.742063
1.020476
0.013981
0.308381
0.080652
-0.690090
0.791848
1.296569
-0.559203
-0.953858
0.632528
0.788489
0.631239
-0.102665
-1.176007
-0.789887
0.960334
0.600091
-1.095166
0.732536
2.210771
0.526362
0.092662
-1.897648
0.833640
0.975389
-1.597570
-1.281245
-0.145898
1.499435
0.288767
1.197087
-0.656205
0.260808
-1.002301
2.035799
2.525903
-0.579476
-0.950494
-0.283741
-0.382921
2.080945
-0.584767
0.925192
-0.767505
-0.468335
1.300676
2.072175
0.762005
0.925814
1.637404
0.476501
-2.249638
0.518020
-0.365733
-1.332346
-0.196981
0.055717
-0.701674
-0.309710
-0.842087
-0.972160
0.501606
0.952720
-1.143063
-0.073098
-0.098000
0.940711
-0.349924
-0.806983
0.701217
-0.831188
-1.022725
1.533432
-0.522983
-0.865241
-0.013930
-0.948487
-1.127048
0.198666
0.080703
-0.381121
0.531408
1.587692
0.286508
1.928421
-1.382904
1.522609
1.059525
0.933536
-0.094314
-0.636246
-0.729245
-1.153432
-0.724084
0.626785
-0.992111
-0.171189
-1.665422
0.284049
-0.802928
-0.354647
0.161326
-0.069004
1.019616
-0.819549
-0.651312
0.378293
-0.136264
-0.063934
-1.418614
0.757112
0.469502
0.301236
2.494520
-0.632676
-0.298553
-1.113182
1.143283
1.583526
-0.187160
0.094522
-1.690474
-0.622670
-0.951986
0.105482
-0.455525
-1.059003
0.419840
-1.366662
-2.815149
0.908278
-0.679830
-0.886201
-1.041360
-0.787911
0.512983
-0.288029
0.902701
-0.788810
-0.121246
-0.688611
-0.748833
1.304541
-0.844709
-0.952888
-0.075563
-0.203390
-1.047257
-1.679135
0.713321
-0.358499
-0.960998
-0.892943
-0.933653
-0.668451
-0.957534
0.190861
-0.720650
1.635149
-2.425447
0.627258
-0.150484
-0.032008
-0.682714
1.349893
1.220925
1.081321
0.958816
0.320863
-1.754194
0.240938
1.365985
-0.055602
1.395774
-0.544978
-1.715287
-0.967899
1.642104
-1.832011
-3.403619
-0.291693
0.160936
2.069988
0.797822
0.016025
0.542219
-1.476864
-1.246493
-1.413216
1.169312
-0.761111
0.575868
0.462897
2.476162
-0.043127
-0.553292
-0.848721
-0.975327
0.255368
-1.549275
0.665654
-1.418458
0.771147
0.212009
0.247008
-0.525804
-1.116245
-0.967941
-0.641335
0.440911
-1.082217
0.189492
-1.166067
0.394559
2.147240
0.654044
1.893366
0.558955
0.462573
0.087023
0.109556
1.077811
-0.158329
0.765747
-1.476254
-1.112278
0.353410
-1.727751
-1.094337
1.661599
1.264926
0.119062
-0.766768
-0.193765
2.080640
-0.398775
-1.381798
-0.917686
0.478512
0.415869
0.489941
-0.156835
2.744026
-0.727867
-0.839951
1.029189
-0.454751
-1.105990
0.769698
-2.153653
1.751821
-0.314650
0.503822
-1.697738
0.455714
-0.131760
0.151626
-0.686094
-1.318213
-0.360899
-0.164944
-0.659094
0.088004
-1.041774
0.626249
-0.279978
0.893258
-1.712674
-0.313521
-2.420179
-0.663255
0.232262
0.007864
-0.727322
-0.662149
-0.605062
0.789982
0.256061
0.763972
0.186067
0.205787
1.846104
0.258427
-2.047149
-0.554402
-0.163593
1.425217
-0.375509
1.042931
-1.387007
1.419534
-0.387818
-0.193917
-1.126942
0.223710
-0.023650
-0.804994
-0.751506
-1.768928
-0.804060
1.086464
1.027437
0.118520
-0.784219
-0.556346
-0.149904
1.389957
0.819232
-0.200458
-2.164613
0.248502
-0.434433
1.372684
-0.493659
0.400424
-0.737837
1.118835
1.063787
-0.311232
-0.401578
1.096540
-0.798641
0.663467
-0.439152
0.112159
0.233744
-2.688682
-0.649967
0.610548
1.421416
0.102895
-0.915201
-1.375907
0.983740
0.565832
0.888270
1.926063
0.527232
-1.619305
-1.597778
-0.099265
0.662005
-0.214929
-0.240965
0.831525
0.186576
-1.050770
-0.387334
0.201523
-1.331424
1.805638
-1.635141
-0.675491
-1.244082
-0.462089
1.229018
-0.378531
-0.259430
0.134766
-1.357818
0.755206
-0.098839
-0.751449
-1.414923
-0.748567
0.932601
-0.663075
-0.954934
2.287205
0.158898
0.288743
0.239137
-1.687603
-0.961898
-0.491990
1.504021
0.307162
-1.381172
0.761333
0.152978
-0.484171
-1.357706
0.239408
0.235547
0.845367
-0.042471
0.436731
0.179678
0.165333
-0.335284
-0.827662
-2.565471
1.534884
0.406164
-1.821734
-0.552998
0.584557
-0.784335
0.078703
0.069727
1.440067
0.936314
0.002423
-0.923023
0.507368
-0.070935
-0.243014
0.329266
0.631865
0.669179
0.173249
-0.433512
0.344742
0.423469
0.026527
0.270762
-0.235043
0.058185
0.467343
0.159474
1.233638
1.396364
-1.756256
-0.363407
-0.359834
0.228452
-1.248688
1.527493
-0.294808
-0.924729
1.382330
-0.942919
-1.499548
0.512477
-0.733991
0.784242
2.674096
2.191189
-0.429582
-1.555579
0.387597
-0.483757
-0.268619
-0.154589
0.256814
-1.173557
-2.223761
-0.243663
0.557903
-0.116048
-1.021284
0.018139
-1.640682
0.441722
0.651306
0.723342
-1.176467
2.165469
0.539638
0.615669
-0.819417
0.426698
-0.327902
1.770699
-1.266077
0.184291
-2.094952
-1.040860
1.294139
1.138421
-0.010266
-1.346549
-0.013761
-0.452947
0.337435
0.252985
0.469404
-0.669969
-0.191536
0.218257
0.711038
-0.111239
-0.002976
-0.249445
0.018253
0.780275
0.639136
0.160292
-0.811438
-0.200175
-1.811647
0.011487
2.676320
0.127215
-0.537022
-0.771353
0.327247
1.207308
1.925734
0.278199
-0.929150
-0.451025
-0.744099
0.478846
0.438537
-1.792908
-0.444052
-0.641680
0.265316
-0.683945
-0.254169
-0.519387
-1.030501
0.326299
0.812367
0.072627
0.716913
-0.517951
0.851553
1.239972
0.040060
1.088159
0.295087
-0.003351
-0.404812
1.069696
-0.815577
0.655974
1.532529
0.522799
-1.594378
-0.311970
0.991369
0.080560
1.377630
-1.364728
0.021002
0.202607
0.615123
0.799375
-1.933195
0.824455
-0.326811
-0.166335
0.971246
0.408589
-0.178567
-0.498701
1.512181
-0.737984
0.197553
-0.097648
-0.298427
-0.293296
-1.082698
0.300070
0.113118
1.860212
0.556900
-1.771523
0.610425
1.147099
-0.378376
-0.334626
-1.780055
0.045903
-0.005655
-1.160135
-0.231662
-1.811600
0.644473
0.799733
0.930309
-0.123797
-0.571855
-2.564717
-1.455788
1.672675
0.373589
0.738073
-0.491758
0.577440
-0.112330
0.554061
-0.430261
1.235395
0.175869
-0.099074
0.255948
1.576643
0.371100
0.601540
0.947848
-0.092849
-1.032861
-0.238858
0.190316
0.685613
-0.179018
-0.764841
0.827179
-1.161141
1.041272
0.000368
-0.419894
-0.918631
-0.433845
-0.655261
-0.568138
0.215855
-1.217027
0.987495
0.134146
0.320376
-1.246976
0.783565
1.143303
0.096061
-0.262174
0.285144
-1.601615
-1.241721
0.249355
2.122748
-0.166303
0.965032
0.773986
-0.524006
-0.236567
-0.876531
-0.018262
0.031567
1.129227
0.114808
-0.805405
0.319056
-0.155007
-2.735388
-0.606673
-1.464747
1.685412
-0.162013
-0.053865
0.794451
0.604303
-1.195939
-0.968912
-0.240156
0.152634
0.895072
0.781302
-1.278105
1.168045
-0.019305
-0.793528
-1.073972
-0.203356
0.652164
-0.611939
0.024657
-0.193459
1.325731
1.654012
0.483617
0.098058
0.316775
0.981592
0.299738
1.040159
0.683141
-0.021180
2.391896
-0.873693
-1.028878
0.286455
-0.434189
1.442805
-1.356753
-0.900243
-1.012525
1.332162
-0.236736
-0.084859
1.037754
-0.207590
0.703617
0.386377
1.314948
1.680500
-1.571091
2.090021
0.149361
-0.396983
-0.781280
-0.758612
0.439621
-2.069945
-0.738432
0.329423
-0.721805
-1.208030
0.422338
0.475756
-1.745392
-2.171826
-0.763082
-1.871638
-0.920338
-0.162988
1.645944
-0.592852
-0.035403
-0.994008
0.203436
1.892265
-1.271184
-1.637216
-1.362262
-0.765737
-0.349143
-0.058503
0.322359
-0.167960
-1.060485
0.272917
0.672473
-2.146247
1.572562
1.237130
-0.885735
-0.416407
-0.627699
0.519480
0.058778
-0.475156
-0.611623
-0.530546
1.586424
-1.775066
-1.484212
1.169300
-0.332119
0.527015
0.255920
-0.970836
0.460885
1.830588
-0.878969
-2.267623
0.782579
0.411011
2.503395
-0.748472
1.202071
-0.100768
1.006164
0.430561
-0.835704
-0.413154
-0.760765
-0.578000
0.366490
-1.084622
0.889815
-1.265456
0.764369
0.765733
-0.264290
-0.788158
0.226303
0.345208
1.315940
2.021677
-2.145615
1.357965
-0.466362
0.242573
-0.383608
0.057505
0.695738
0.422447
-0.103782
0.038721
0.747620
-1.036172
1.405194
0.367979
0.783054
-0.959556
0.201080
0.728443
-0.246571
-0.110533
0.072388
0.352073
-0.316221
1.117858
-0.200855
-0.322299
-0.400801
0.346786
1.081173
0.118310
-1.170493
-0.212005
-0.219225
-1.312499
-0.059824
1.716980
-1.733922
0.513561
-0.716584
-0.452898
0.280787
0.790942
2.374032
0.658837
0.934697
-0.218991
-0.803700
-0.497828
1.047268
-0.402159
-1.044535
-0.669986
1.218889
-1.097012
0.977959
0.596744
-1.574836
2.742027
0.157204
0.410588
-1.202071
-0.814645
0.277514
0.414727
0.579508
1.297061
1.013847
1.392716
-0.364570
0.007691
0.757922
-1.044963
-0.851428
-0.925451
1.494545
-0.397240
0.241793
1.379350
1.603176
0.073029
0.587258
0.596587
1.796144
-0.498908
0.246637
0.350526
0.660565
-0.161838
-0.139666
-0.887508
-0.586132
1.822430
0.744761
1.006820
-1.015441
-1.087405
0.929561
-1.486789
1.129690
0.275511
-1.103123
-0.836060
-2.121679
-0.812136
-0.394359
-0.318506
-0.629432
-1.853480
-0.743322
0.308150
0.105184
0.437445
2.018570
0.211008
0.829013
0.486257
-0.641447
0.945383
-1.443000
-1.165741
0.427482
-0.863832
-0.046973
0.656045
0.486129
0.508947
0.424139
0.195611
-1.012459
1.286962
0.810553
1.201746
-0.093054
0.794084
0.593568
-0.405921
-0.699371
0.766346
0.028170
-0.434552
0.881342
0.366171
0.115856
1.082029
0.711495
-0.766881
-0.394691
0.303959
-0.406628
-0.780300
-0.371827
0.585547
1.496457
0.311938
0.847331
-0.373397
0.721936
-0.414468
0.038779
-0.245263
-0.395379
1.284768
-0.140821
-1.270557
3.093890
-1.371590
-0.555448
1.998844
-0.229022
-0.345614
-0.166593
-1.250748
0.819899
1.566040
-1.101193
1.167886
-0.205021
0.674285
-0.462215
0.090359
0.716314
0.337151
1.687228
-0.440996
0.423599
0.302250
-1.195530
-0.121381
0.174332
0.985200
-0.602459
-0.079521
-2.182180
-1.465136
-0.699452
0.962131
-0.279498
-0.403700
-0.531159
-0.664172
1.054066
0.022484
0.426209
1.121256
-0.190895
1.048912
1.101111
0.069187
0.041300
0.154032
-0.110572
1.337445
-0.726116
-0.673339
0.191175
0.474414
0.580965
-1.078677
1.611335
-0.687618
-1.311487
0.108092
-0.935149
-1.134031
0.219547
0.070371
-0.347339
-0.675532
0.640588
-0.800271
1.154071
-1.476284
3.383088
-0.545944
2.542799
2.075722
1.005151
-1.012163
0.577216
-0.794326
1.403361
-0.899350
-1.020219
2.200447
-0.061137
-1.230019
-1.543329
-0.055176
0.437174
-1.979997
-1.603245
-0.091803
2.253821
-0.977657
-1.684701
1.289076
2.320709
-0.112810
0.731180
-0.126766
0.119673
0.551166
1.792268
-0.549672
0.260894
0.053341
0.765051
0.033552
-0.462516
0.476844
-0.175304
0.019150
-1.194709
-0.330613
-0.293848
1.301130
1.725515
0.587641
0.938566
0.679159
-2.194339
0.639972
1.430559
-1.218658
1.366017
-1.648387
0.201065
-0.332026
2.200914
0.258335
0.834326
1.037154
-0.266430
-0.776671
-0.352046
-0.358054
0.542559
1.841856
-0.308017
0.490329
-0.226839
-0.541438
-1.004164
-0.083887
-1.283262
0.004956
-0.792927
0.777744
-0.210611
-0.487978
-0.361026
-0.359615
0.877283
-0.258552
-1.325161
1.508583
0.681669
-0.038640
-0.853830
0.221421
1.240371
0.594329
0.216064
0.143194
0.728378
-0.198854
-1.160082
-1.884910
-2.161137
-1.234443
1.101832
-0.429534
-0.477658
0.135973
-0.795069
0.697292
0.815107
-1.735749
-0.718613
-1.120579
0.175201
0.792860
0.552795
0.900552
-0.701405
-0.242450
0.699069
1.092047
0.174554
-0.546250
2.182968
2.752414
2.773614
0.762500
-0.488840
-2.120212
0.202934
0.764808
0.268847
-0.185110
-0.892103
-0.741778
0.542657
0.433625
-0.736939
-0.272240
-0.934684
-0.301660
-1.489454
-2.506427
-0.120048
0.743162
-0.806015
-1.032950
-0.658046
0.005268
1.243368
-1.409126
0.777585
0.042451
0.116557
0.625319
-0.510906
1.861145
-1.251912
-1.015365
1.101569
0.226939
0.150636
-0.935092
-0.481229
-0.606164
0.561082
1.188256
0.547026
0.591427
1.527414
-0.633429
-0.791839
0.795911
2.701675
1.512130
-0.357874
0.026222
-1.011289
1.088765
0.525873
-1.095298
1.319636
0.316076
-1.408521
-0.431498
-0.173959
0.761826
-0.644297
-0.225941
-1.275939
-2.406145
1.577534
0.860894
-0.692378
-0.824581
-0.040507
0.992893
-1.272956
-0.914566
-1.002260
2.801047
-0.195956
0.088134
0.870934
-0.179247
-0.903342
-1.203670
-0.741829
-0.347267
-0.627267
0.100206
-1.703195
1.781644
2.528651
-0.325893
0.011169
1.753978
0.949886
1.317276
-2.517103
0.367675
-0.717090
0.378440
0.316159
2.600171
-1.428480
1.744131
-0.409704
-0.240466
-0.505586
0.180289
0.711268
-0.142490
1.212523
0.698121
1.837506
0.161540
-1.597918
0.273329
2.275338
-0.246515
-0.690059
1.556628
-2.831750
1.445049
-0.629105
-0.686708
0.276661
2.406792
0.973009
-0.030972
-0.207724
0.794107
-1.935015
-0.175614
0.639371
-1.447972
-0.528512
-0.241622
-1.212615
-1.105420
-0.544633
0.093211
1.445213
-1.466385
-1.181774
0.409353
-0.481666
1.376236
-0.372533
-0.022922
0.143879
0.586705
-0.977243
0.790531
-0.625542
0.508243
0.510223
-0.495411
-0.362428
0.514917
-1.248384
-0.992214
0.334966
2.324396
-0.294825
-0.286625
0.787780
-1.016330
0.350753
-0.768945
0.981538
0.035784
-0.090277
0.128283
-0.556553
0.215724
1.602975
1.883685
-0.727130
0.902720
0.103187
-0.215708
1.736629
0.770475
-0.567001
-0.526855
0.464207
1.109029
-1.896770
0.220175
-0.819689
1.280314
-0.125159
0.058595
2.386312
0.705136
-0.795892
0.311136
-1.235331
0.378239
-1.691193
-1.090501
1.522860
1.575487
0.405494
-1.828187
0.661751
-0.887852
0.887816
0.236687
3.609425
0.057671
-0.293086
0.268871
0.797007
-0.082567
-0.766631
0.605877
0.883003
-0.957326
0.527995
-0.030258
0.493624
-1.079988
-0.262743
-1.739675
0.970079
-0.022980
0.102339
-0.398720
0.842271
0.549599
0.342747
-0.699936
0.484125
-0.613139
-0.309166
-0.964059
-0.390315
0.800617
-0.241701
0.769004
0.045328
-0.448707
1.800403
-0.921139
0.073017
1.215733
-0.224568
-1.006741
0.415684
-0.061428
-0.518963
-0.509525
1.261468
-0.103280
-0.518874
0.259869
-0.777188
0.165483
0.291606
0.375382
1.268027
-0.125644
0.088015
0.330264
-1.054285
-0.563708
0.842067
1.816317
0.095996
-1.034537
-0.244983
0.472530
0.031491
0.335293
0.934805
1.513314
1.562286
-0.713619
-1.404344
-0.686462
2.165481
0.789376
0.588699
0.106562
0.875362
-0.832652
-0.864222
-1.238730
-0.222716
0.197084
-0.581401
-0.228714
0.995393
-0.092463
1.134323
0.438836
0.863154
1.375499
-0.535866
-0.554635
1.780242
0.153398
0.189903
0.328763
1.705003
-1.571111
-0.560620
0.460358
-0.578554
-2.586494
0.011941
1.260866
0.673436
0.299644
0.941275
-0.984651
-0.559294
-0.243005
-0.862263
-0.026335
-0.322345
-0.960132
0.526937
0.221052
0.229752
-1.532501
-0.905858
0.203905
0.065529
0.429510
-0.339659
-1.511060
1.043832
-0.300821
-0.886366
0.369127
0.643295
-1.511462
0.894803
0.251311
-2.656656
-0.644526
0.865439
-0.750409
0.861864
-0.010023
0.439104
0.803478
-0.627953
0.109083
1.253634
0.400522
2.437616
-0.199939
1.203627
-0.887829
0.182672
0.416094
-0.769632
-0.385639
0.357179
-1.888016
-0.296453
0.293193
0.073566
1.160568
-1.212683
0.643606
-0.199807
2.160443
0.027176
1.547693
1.212198
-1.946890
1.775639
0.854486
1.001176
0.798482
-0.034953
1.858134
1.099359
0.934027
-0.325580
1.352145
0.207172
1.029522
-0.867249
-0.528588
-0.014712
0.311251
-0.702327
0.130850
-0.244607
-0.303580
1.710975
0.194866
-0.321918
1.968414
0.475799
-0.360679
-1.566113
0.989069
-1.808678
-0.044701
-0.341822
0.245688
-1.129303
0.096895
-1.068791
0.989462
0.845844
-1.368542
-1.219544
-0.635365
0.099468
-1.982116
-1.671838
-0.110481
0.754852
-1.884501
1.019701
1.177640
0.512870
0.776367
-0.534429
-1.726058
0.524539
1.608672
-1.477767
-1.079989
0.338105
-0.159654
-0.563399
-1.518274
0.151694
1.365279
0.939406
-1.604080
-1.147750
0.023631
0.134214
-1.386179
-0.653141
0.637875
-1.603516
0.096362
0.161805
-1.625084
-0.043082
0.825108
-0.413949
-0.873603
-0.677607
-0.371179
-0.618196
-0.216259
-2.368128
1.063486
0.381420
-0.176410
-1.649518
0.570252
-0.580910
0.741815
0.927650
-2.003568
-0.798637
0.437065
0.671631
-0.886330
0.196880
-1.431252
0.055912
-1.036354
-0.473709
-0.232100
3.031302
-1.136414
-0.610602
0.498946
0.247441
-0.370026
0.908415
-0.251792
1.351040
-1.315783
-0.859446
1.213225
0.441277
1.441417
-0.973956
-0.200589
-1.268308
1.609341
0.084719
-1.372432
1.473778
0.296114
1.244853
-0.047224
0.263709
-0.126731
0.357204
-1.746629
0.646409
-0.390289
-1.703243
-0.682515
0.958531
0.930113
0.191266
-0.675042
-0.681532
0.131294
-0.830616
-3.049263
0.342087
-0.576251
1.146315
-0.014249
1.900146
-0.765060
0.148117
1.119422
-0.349211
0.311311
0.424505
0.519685
-0.934273
0.867187
-1.775507
-0.286968
0.464395
-0.135181
-1.276479
1.465839
1.055686
0.479440
1.815027
-1.131521
1.555586
-1.571030
0.842936
-1.687086
0.745040
-0.388265
0.491783
-2.490192
0.810088
-1.711390
-0.640606
0.642590
-0.145649
-0.334461
2.356051
1.158069
-0.151953
0.580052
0.483792
-0.149557
-0.216742
1.004419
-0.071817
0.574462
-0.799807
1.491853
-1.008588
-0.649329
-1.037803
-1.599698
-0.359655
0.580055
-0.787648
-0.763693
-1.796899
0.361508
0.811192
1.586892
0.405825
-0.567181
-0.213901
1.664284
0.500150
1.100774
-1.221491
-1.266540
0.180664
1.153164
0.009856
0.629582
-0.525344
-0.286208
-1.536213
-0.800838
1.083383
0.138262
0.101490
0.889564
0.288528
-0.298840
-0.588706
0.225770
1.248709
0.792519
0.316100
2.340937
-0.788173
0.349029
-2.243436
-1.440311
0.719713
-0.547058
0.740300
-0.804123
0.550671
1.092889
0.433518
-0.280617
-0.267191
0.640975
0.033855
1.678336
1.332519
-2.027622
-0.808090
0.840345
0.631987
-1.669283
1.140262
-0.275003
-1.048135
0.402296
-0.952164
0.477715
1.507601
-1.144399
1.808308
-0.951973
1.056886
-0.350046
1.569399
-1.263549
-0.862369
-0.182727
-0.659513
0.441277
0.093519
-0.051933
-1.709960
1.509770
-1.506420
-1.106071
0.275234
0.156207
0.251915
-1.247129
1.140244
0.294194
-0.222923
0.011738
-0.336095
0.617236
-1.304841
-0.047355
-0.387903
0.564096
0.404931
-0.024070
0.165208
-0.725386
-1.095140
-0.496351
-0.420514
0.693020
-0.637085
1.185125
1.746447
1.124696
-1.878893
1.263433
-0.920805
1.667168
-0.395356
0.841969
-0.113732
0.923414
0.411252
-0.216700
1.846337
-0.946218
0.462558
-1.338962
0.512063
0.598981
1.051040
0.817373
-1.678640
0.860090
-1.440740
0.987663
-0.309611
-1.209890
0.884280
-0.948247
1.284746
-0.372734
-0.072026
-0.893290
0.395435
-1.543601
0.840305
0.923033
1.424331
0.997347
0.992577
0.998325
0.115931
1.257317
-1.902376
-1.611084
-1.219379
0.138577
0.683720
-0.551481
-0.154195
-0.147077
1.660175
0.007563
0.568851
-0.289075
-0.816342
1.456403
-0.529662
-0.671602
-0.055528
1.748078
0.298121
-1.291092
0.203555
-1.240566
1.918621
0.861355
-0.263227
-1.546314
-0.779511
0.209091
0.826401
-0.417608
-1.534922
-1.091449
-1.362884
0.056141
1.581444
-1.825276
-0.850003
0.453177
0.463418
-0.178950
0.106867
-0.947992
0.557033
0.406277
-1.604294
-0.338854
-0.057870
-0.766760
2.339445
0.101777
1.511661
0.036194
0.637936
0.278981
-0.562581
-2.307395
-1.340574
0.673564
1.200623
-0.477719
0.514618
0.674785
-2.219210
-2.197285
-0.537122
-0.556097
0.096662
-0.409860
-0.394783
-0.743596
1.104688
2.319813
-0.005912
0.830870
0.555892
-0.954094
0.678701
-2.465875
-0.153030
-0.442319
-1.868319
1.326809
0.171117
0.996611
0.270642
1.735446
0.077111
-1.266563
-0.053934
-2.322004
0.586613
1.979194
0.196047
1.125187
-0.895067
0.613316
0.079821
0.313238
0.334308
-0.948994
-0.757708
0.493430
0.682415
-0.727223
1.068903
1.523862
1.547944
1.633559
1.804531
-1.030757
0.318017
0.157543
-0.878504
-1.362817
2.782762
-0.564142
1.360986
-0.052352
1.183004
-0.410648
-1.457533
-0.129048
1.536507
-0.721733
0.571581
1.800770
0.721394
0.004864
-0.794347
-1.018845
-0.000029
0.013218
0.733634
-0.931451
0.696988
-0.838014
-1.639673
-0.592822
-0.031725
0.719718
-1.643191
-0.052052
0.196365
1.773571
-0.001601
0.307060
0.841354
0.000902
-0.674815
1.297646
-0.450543
0.463951
0.651930
-0.049026
0.752108
-0.373010
-0.718597
-0.315892
0.422043
-0.529605
-0.216926
0.022342
0.619438
-0.579921
1.256667
-0.541689
0.338257
0.581600
-0.442286
-0.542014
1.538767
0.299393
-0.368953
-0.485358
-0.445350
1.026544
0.031809
0.176842
-0.964270
0.350204
0.565207
-1.468427
1.622599
-0.019334
-0.467975
1.102266
-0.537783
-0.325873
1.277807
0.962973
0.820497
0.390954
-0.498997
-0.456564
1.257432
1.261775
-2.697609
-0.646503
-0.598651
-0.486219
-1.301516
-1.105604
-0.126205
0.081445
0.638190
0.401709
0.540741
-0.725251
-0.641446
-1.504450
-1.368932
-1.392012
0.506046
-1.150742
-1.354429
0.767132
-0.179164
1.208289
0.913992
-0.970766
0.680137
-1.242339
0.962254
0.612267
0.925129
-0.338016
1.504014
-0.610593
1.312914
-1.938262
0.987279
0.705738
-0.494923
0.528057
0.637924
-0.077569
0.625036
0.615043
0.413276
-0.931738
-0.302040
0.354197
0.050520
1.380631
1.029945
-0.343108
-0.692906
0.101586
-0.038604
0.697041
-1.446298
1.253090
-0.542346
0.905117
-1.670928
0.571738
-0.277545
0.423518
0.698104
-2.046512
0.217267
0.229710
-0.104943
0.618806
-1.031618
-0.506201
0.759740
0.320060
-1.020614
0.236565
1.036092
0.636112
0.498257
-0.968154
-0.000152
0.372002
1.751538
0.714831
-1.482780
0.889479
-0.074136
0.380943
0.931002
-0.060592
0.144825
-0.416303
1.136782
0.543083
1.008389
-1.010664
-0.562649
0.067602
1.564330
-0.027669
-0.047760
1.252670
-0.673397
-0.138459
0.197180
-0.276422
2.560033
0.752108
0.463307
-0.593124
-0.558903
0.848341
-0.339412
0.973188
-0.123591
-0.664352
-2.823099
-1.041186
-0.840399
-0.114340
0.266882
0.285528
-0.345122
-1.342831
1.639779
1.879165
-0.525438
0.780295
-0.430082
0.779593
-1.607758
-0.355451
1.067198
-0.447851
1.479568
0.118667
0.077626
-1.895491
1.274948
0.665990
-0.081551
0.382982
-1.104618
0.690431
0.650663
-1.812270
-1.311745
-1.321101
0.388793
-0.804513
0.615044
0.152923
0.073042
-0.081546
-0.777330
0.561508
1.191159
-0.529298
0.309529
0.283653
0.895020
-2.259112
0.614785
-0.120045
-0.420843
-1.006619
-0.077482
0.069907
0.212450
-0.936184
2.270751
0.791742
0.520399
0.233828
-1.635283
-1.983336
0.136081
-0.445950
0.146671
-1.277321
-0.321328
0.891591
-0.756010
-0.369738
0.356642
0.572055
0.320159
0.163595
-1.464977
-0.257468
-0.980473
-0.731943
-0.494263
1.032184
-0.017885
-0.838748
-0.163752
0.057655
0.155576
-1.073467
-0.375044
-1.694031
1.177634
0.476256
0.076620
1.647456
-0.989410
-0.896644
0.806245
0.147861
0.244893
1.370704
1.133875
-1.968682
-0.864385
1.369402
-1.272161
1.197988
1.623869
-1.074245
-0.952403
-1.037549
-1.693547
-0.101349
0.819520
0.146694
-0.520129
-0.177770
0.968030
-0.735628
1.104607
-0.032402
-0.814984
0.247708
1.494594
-0.160578
0.021494
-0.594601
1.077783
-0.925884
-0.380499
-0.605814
-1.241966
-0.212371
-0.292766
0.333885
0.688525
0.050395
-0.115310
0.104788
-1.464485
1.778234
-1.159675
-0.027009
-0.247636
-0.535852
0.639207
-0.594147
-1.468610
0.596557
-2.066676
0.364395
-0.379035
-0.456609
1.856236
-1.605150
1.268338
1.434484
-0.269874
-1.431142
1.784596
0.235429
0.745373
-0.487901
-1.593995
0.648868
-1.361639
-1.231353
-0.005508
0.452932
-0.094307
-1.103273
0.345486
0.530682
1.451127
-0.439473
-0.204210
1.548728
-0.666227
-1.767683
-1.219564
-0.709658
-1.428122
0.611062
-0.535906
-0.278623
-0.946631
0.929554
0.870547
-1.954985
0.789722
0.593579
-0.035453
-1.186040
-0.812528
-0.869602
1.003444
-0.270802
-2.074047
-0.251817
-0.432621
-1.151626
-0.994080
1.037028
-0.347060
1.616810
-0.572669
-0.299479
1.618084
-0.297228
-0.391569
0.646306
1.093149
-0.353562
-0.450715
0.700096
-0.647572
-0.522661
0.272191
-0.624234
-2.037361
1.327642
1.900971
0.497499
0.437187
-0.703004
0.940763
-1.044230
0.392652
-0.562744
-0.369114
0.930751
0.991771
-0.106791
1.829340
0.420942
0.776579
-0.379169
-0.259951
0.972349
-0.120936
-0.186247
-0.606029
-0.017972
2.547097
0.896644
-1.479502
0.691450
-0.874395
-0.347171
1.649053
-1.250080
-1.980910
0.201547
-1.032860
-1.019847
0.563914
0.592609
-2.275639
-0.125026
0.796290
-1.296613
0.831071
0.629676
0.534519
2.106520
0.031111
-0.479496
-0.308984
-1.740866
1.033000
-1.618676
0.065330
0.458338
0.398658
0.054721
-0.033260
-0.045839
1.027178
0.748118
-0.873309
0.554207
-0.502034
-1.326670
-2.064327
0.024211
0.589797
-0.035720
-0.726456
0.957047
1.792421
-1.376769
-0.099427
0.548972
-0.097489
0.555353
0.185617
-0.938311
-1.622341
0.020876
0.541195
0.733587
-1.634040
1.380084
-0.587752
-0.455653
-0.337070
1.697984
-0.053973
1.132699
-0.561938
0.668497
0.362656
1.958327
2.350191
-1.539562
-1.074666
-1.241721
1.123150
1.402153
1.312035
-0.751209
-0.204377
1.386033
-0.451519
-1.513054
-1.799245
1.164426
1.384926
-2.441285
-0.138518
1.417552
1.513721
-1.746283
-0.115978
0.452259
-2.554964
1.906767
1.068847
-0.311893
-0.809966
0.356712
0.661412
0.033826
0.232130
2.372849
0.690450
-0.980716
0.779808
-0.473737
0.361336
1.250114
0.824692
-1.541884
1.157334
-0.650520
0.312269
0.242528
1.737932
0.764721
-1.269231
-0.578400
1.284986
-0.454740
1.143319
0.512877
-1.490948
0.891512
0.357923
0.724497
1.709978
0.937085
-0.874101
-1.366798
-0.055310
1.186063
-1.749475
0.117186
0.362389
-0.179622
0.289098
0.775870
-0.544696
0.014355
0.724336
-0.094154
0.874033
0.289184
0.362337
-1.039118
0.352836
1.448736
0.365168
1.702496
-0.427970
0.798107
0.448126
1.601025
-1.328876
-0.636536
0.976720
-0.478270
-0.347838
2.692646
-1.284735
0.657711
0.113750
-1.641052
-1.393928
-0.996027
-0.831969
2.184857
1.222453
0.600886
-0.651026
0.586300
1.437136
-2.408082
-0.708618
-1.067421
0.505882
2.543037
0.542593
-2.106235
2.038456
0.416140
-2.780022
1.230059
-0.418374
-0.943185
0.919454
0.866265
0.128970
-0.644738
0.819417
0.176970
0.079908
-2.168683
0.425453
-1.775331
2.077409
-0.064047
-2.197318
-1.693799
-1.552565
-0.977342
1.530199
0.402371
-0.416943
0.520050
-0.042616
0.679901
0.493216
-0.408763
-0.372300
-1.777220
0.804692
1.703898
-1.106755
-0.041480
0.762170
0.761871
0.654223
0.039673
0.807591
0.059857
1.349299
0.110913
-1.028144
-0.828470
-0.180707
-0.313442
-1.439709
-0.527618
-1.670731
0.001775
1.488152
0.677011
1.080136
1.347203
-0.508554
0.776177
-3.200495
-0.010117
-0.631612
-0.774648
0.365718
1.466567
-0.044840
1.646565
-0.505326
0.894226
-0.976014
-0.503464
0.920119
2.339459
-1.072501
0.990795
-0.158505
-0.087431
-0.975127
-0.219496
0.377810
0.389855
0.409348
-0.545264
-0.685042
-1.545686
0.394600
0.783422
-0.972493
-1.533646
0.292384
-1.271758
-1.493819
-0.788397
-1.512407
0.688620
-0.077610
0.932082
1.304297
-0.787160
0.509755
-1.187023
-1.110643
-0.594285
0.261998
0.392652
-1.936227
-0.904900
0.336281
-0.007873
-0.551471
0.031614
1.303219
-2.025093
0.787907
-0.274775
0.897640
0.585316
0.020996
-0.184834
1.366703
0.225079
-0.945523
0.281085
1.526333
-1.298315
-1.056977
2.008521
-0.940844
0.150233
1.382341
-0.815517
-0.667376
-1.034054
0.405057
0.818758
0.056060
0.143079
-1.488802
-0.134412
0.872286
-0.693559
1.223913
0.375329
-0.161603
0.083716
0.194017
0.451473
-0.445398
0.294679
-0.134059
-0.762045
0.143926
0.078098
-0.337487
0.448713
0.917708
0.024815
1.112838
0.530345
-0.176753
-0.471422
0.334348
-0.540911
1.371581
0.012124
-0.730235
0.556576
-1.017417
-1.339697
-2.483760
-0.968714
1.687614
0.826363
1.221369
-1.518807
-0.101819
-0.453461
0.064321
-0.373952
-0.514083
-0.820035
0.097201
0.663949
-1.059915
0.017307
0.099706
-1.565598
-1.665959
1.477480
-0.061486
-0.234612
0.973907
1.640763
0.008437
-0.297477
-0.679588
0.611813
-0.231165
1.060917
-0.689981
2.161426
0.094511
-1.722891
-0.409590
0.197994
-0.140779
0.296964
1.522524
0.677031
-0.241865
0.484566
-2.566878
-0.484819
0.225612
-0.227283
-0.981280
0.424838
0.464054
-0.531883
0.810470
2.375961
0.477666
0.519842
-0.302175
0.220387
0.239340
-1.690579
-0.119534
-0.541120
1.319948
-0.003396
0.258481
-0.926699
-1.666286
-1.186567
-1.234439
1.322322
-1.294823
-1.131779
0.229590
-0.769658
1.589839
-0.012943
0.052397
0.109013
-0.852885
0.497348
0.559911
0.125347
0.016462
-0.537738
-0.636094
0.113910
-3.338960
0.635081
0.635757
0.469965
-0.165901
0.841332
-1.150528
-1.879843
1.040925
1.480119
1.135986
0.993390
-0.404960
0.006074
-0.148576
1.570830
1.893729
1.633904
-2.271945
1.373198
-1.234656
0.391582
-1.038877
-0.941793
-1.053500
0.586027
0.910432
1.055576
0.872908
-0.472856
0.195506
0.236790
-0.872645
-2.312641
0.646594
0.015615
-0.145104
-1.663641
0.564872
1.105779
-0.361999
-1.268793
0.239247
-0.415325
0.926395
0.353091
-0.590831
-0.354814
-0.038976
0.195833
-0.707091
-1.056872
0.836789
1.813732
-1.103765
0.000927
0.242699
-0.720373
2.288322
1.296133
0.627195
0.111306
0.621277
-0.937139
-1.856781
0.835897
1.015635
-0.639300
-2.353099
0.179615
0.632341
-0.422028
1.619081
1.503739
0.686449
-0.441229
-1.416543
1.253161
1.901068
0.596088
1.743677
-1.454143
-1.310064
0.703536
0.425447
0.267643
0.089088
0.729977
2.300817
-0.510748
-0.048819
-1.400921
-2.152131
-0.030711
0.268088
-0.166401
0.892852
-0.277097
-0.754093
0.233860
-0.944626
1.847190
0.040261
1.389055
0.120522
0.670695
0.873450
-1.625502
0.569517
2.261528
-1.134067
0.585787
0.791968
-1.314397
0.495798
1.014731
-0.566446
-0.535554
-0.388447
-2.055013
-0.470059
-0.334964
-0.449281
-0.437875
-0.465417
-0.942076
0.950988
-0.067058
1.169382
0.266229
1.441995
-1.296212
-1.347102
0.072295
0.341732
1.400201
2.160085
-0.485178
0.504184
-0.568015
0.553904
-1.109706
1.117520
0.877427
0.787671
-2.071450
-0.088239
0.087235
1.489067
-0.483811
-0.720396
0.026212
0.174253
0.292038
-0.002976
1.478041
-0.729984
1.883513
-0.647451
-0.130298
-1.082530
-0.710916
0.659312
-0.456879
2.146212
-0.280794
0.541752
-0.401948
-0.837160
0.343205
0.102673
1.075517
0.869636
1.258746
-1.919852
0.841994
-0.525465
0.820171
0.468950
-0.740826
1.408257
0.377785
1.257940
-0.867849
-0.932408
0.968433
-0.331344
1.300218
-0.754695
-0.019864
0.534535
-0.162508
-0.481629
0.074478
-0.057797
0.289235
0.343404
3.590925
-1.914887
-1.316373
1.949779
-0.101790
1.505995
-0.372978
-0.299392
-1.036824
-0.490443
-0.541300
-0.216185
-1.180408
0.406032
0.159257
-0.073510
-0.906178
1.545609
-0.373191
-0.854437
0.017019
-0.168670
1.056894
-1.805012
-0.229379
0.464997
-0.078920
0.282749
-0.632632
1.238984
-0.168973
0.525868
-0.072596
0.375242
1.720321
-1.397414
0.219429
-0.187456
0.522087
2.647199
0.273060
0.497388
-1.408730
1.534669
-0.932572
-0.067681
1.673785
0.912652
0.867527
0.163204
0.085911
0.379990
-0.250010
-0.843970
1.244238
-0.817514
0.747534
0.899085
-0.343094
0.704756
-0.001302
-0.306403
1.391853
1.335024
-0.319616
-0.237351
1.456055
1.315319
-0.711032
0.358430
-0.082599
0.213613
0.302280
0.009135
1.099617
-1.355204
1.490329
1.341843
0.179038
0.114371
-0.489894
1.005582
0.657494
-1.780140
-1.848809
-0.207850
0.390804
-0.050042
1.437401
-1.253746
1.082758
0.754493
-0.688346
0.356921
-1.887173
0.013098
-0.336519
1.199901
-1.742112
0.722997
0.589266
-0.987272
-1.043185
0.295659
0.609288
-0.556738
1.065499
1.419916
-0.911061
-0.812566
-0.861823
0.543050
0.364063
-2.496588
0.567514
-1.627089
-0.514968
0.061377
-0.354691
-0.951330
-0.306015
-0.524666
0.435685
1.147051
-0.249287
-1.790142
-1.431514
0.353185
2.400038
1.573977
0.292565
0.099181
1.115816
-0.456941
-0.296274
0.921183
0.155829
-0.247208
0.645526
0.737972
-0.436265
-1.285918
-1.449127
-0.237549
1.049905
-0.829312
0.619391
-1.618867
0.547807
0.276312
1.368281
0.676297
0.295931
-0.395254
0.365332
0.709684
0.480210
-0.240525
-2.117042
0.138012
-0.788071
0.439976
-0.211870
-0.959081
-0.578332
0.902456
0.279876
-0.461498
-1.414366
0.625004
-0.500242
0.654112
-0.121665
1.299214
0.535093
-0.171636
-0.842449
0.524796
2.390129
0.079709
-0.357473
1.581008
-0.930411
1.399701
-1.713752
0.103092
0.877365
-0.376209
-0.952231
-2.095470
0.580525
1.237878
-0.068825
0.584417
-1.234569
-1.620067
-1.312224
0.696964
-0.880426
-1.145953
0.257878
-1.235413
0.722108
0.178523
0.570403
-0.473375
-1.352589
-0.496473
0.126817
0.776142
0.037628
0.767640
-0.950649
0.398352
-0.018762
-1.013389
1.529876
0.683879
1.966667
0.792206
-2.304246
0.073032
1.425567
-1.366340
-0.043463
-0.522451
-0.041858
-1.640972
0.860457
0.649019
1.112530
0.902366
0.330601
0.350149
1.511831
0.248793
-0.717733
0.379595
-0.390730
0.418982
0.408041
-0.930101
0.774022
1.682402
0.154908
-1.191131
1.018587
-0.726419
1.155291
-1.578510
1.584750
-0.877095
-0.286770
0.399676
0.031661
-0.371743
0.557815
-0.222756
0.399162
0.030723
-0.188645
-0.110400
-0.386335
-0.109565
0.195318
0.958846
-0.187444
1.125998
0.295722
-1.499504
1.752955
-0.982620
0.035675
-1.314636
0.234723
-0.360983
-0.900873
-0.465312
0.308881
0.380312
0.529874
0.533712
-0.239213
-1.081997
1.199686
0.660514
0.752806
-0.001391
0.031164
-0.292422
0.052501
1.193868
0.010641
0.281052
0.631668
-0.184702
2.535434
-0.280253
2.082140
-0.101417
0.083165
-0.621905
-0.341775
0.169012
-0.700277
-0.181703
1.697188
0.992302
-0.797745
-0.352737
-1.192395
0.575902
-0.012848
-0.530979
-1.661663
-0.192430
0.030849
0.790510
0.050965
0.383821
-0.768387
-1.269292
0.285667
0.805171
-1.125887
1.905822
-0.257258
0.410490
0.342656
-0.009646
-0.755184
1.205722
-0.518219
-0.987978
0.362722
1.415962
-0.671590
0.290276
-1.216513
0.040438
-0.324151
-3.518858
0.649368
-0.044382
-0.928660
1.258911
-0.182851
-0.896589
-0.471258
-0.663727
-0.324794
2.644642
-0.787725
0.103190
-0.887218
0.916234
0.608056
0.819655
0.836369
-1.256051
0.403140
0.214597
-0.804989
-0.134151
1.578977
2.603662
0.867491
-1.064996
-0.229533
0.684285
-0.989690
0.686642
0.850502
2.013427
1.170567
-0.719767
1.551303
-0.262618
-0.906061
-1.119362
0.712585
-0.043047
0.742764
1.099409
1.295057
2.089543
1.771168
2.891642
-1.387609
0.494316
-0.653234
-0.485477
-1.215884
-0.961798
-0.473527
-0.011927
-1.582310
0.701037
0.050295
-0.177633
0.199729
-0.037281
-0.727853
-0.757233
-1.680266
0.594553
-0.200052
-1.543348
0.077777
0.204926
-0.682366
0.497828
0.134776
0.886840
-0.541610
-0.178853
-0.641691
0.452768
-0.564138
0.118472
-1.016312
-1.515446
-0.647525
1.245825
-0.521217
0.825662
1.012210
1.342381
1.071228
1.616098
0.062882
0.501287
0.947047
1.970367
-0.333050
1.517316
0.750712
-2.176152
-0.648829
-0.965290
0.422889
-0.357857
0.474739
-0.846708
1.154736
0.632001
0.302548
-0.064655
0.583643
0.327926
-0.338833
1.387708
0.946494
-0.312446
0.255801
1.361712
0.331471
-0.067269
0.747582
0.448592
-0.086311
1.361095
-0.764177
1.990509
0.779764
0.039940
1.203399
-0.689596
1.119791
1.286093
-0.515609
-0.279393
0.730823
-0.005591
0.404827
-2.104557
1.745727
-1.025710
-0.566901
1.484353
0.432546
0.819480
-1.206582
-0.663441
-1.042661
-0.324456
0.534206
0.150113
1.073853
2.541992
-0.116283
-0.002080
1.267275
-1.853029
-0.730174
-0.915478
-0.713810
1.688342
-0.178686
0.075782
-0.313926
-0.072795
0.503802
1.037660
-0.388268
1.777511
1.037222
0.788402
0.411319
2.126747
-1.624506
-0.030259
-1.261128
0.909812
-1.272543
-0.006379
0.100541
-0.842548
0.644331
1.449304
1.214982
-1.309867
-0.002918
0.578944
1.225054
0.748724
-1.737415
-0.458657
0.939834
0.521108
1.365688
-0.401421
-0.043770
0.368133
0.454062
-1.352784
-0.529264
-0.081028
0.224652
0.298225
1.104850
0.708116
-0.402208
-0.500644
1.003824
-3.300294
-0.079626
-0.201461
-0.251008
-0.687944
-0.105698
-1.184902
0.773592
1.321116
-1.518177
1.083982
-0.837037
-0.190827
-0.082534
0.508564
0.292473
0.374271
-0.617202
-0.709353
0.718486
0.729564
1.427533
0.678914
1.678957
0.755419
0.107779
-0.057867
-0.790278
-0.427841
0.808533
-2.265311
-0.794725
0.296412
1.375649
-1.021607
-0.535476
-1.874401
1.172800
-0.135585
-0.119193
1.277002
-0.580269
-0.267349
0.503996
-0.561578
-0.062986
-1.460640
-1.360664
-0.274689
0.985139
1.462129
0.052217
0.514272
-1.358738
-0.791715
-1.630789
0.054831
1.301186
-1.473101
-1.834080
-0.596013
0.285473
1.055287
1.972936
0.755099
0.842778
-0.328660
0.452570
-0.382560
0.488761
0.262945
-0.373147
-0.069412
-1.390833
0.001113
-0.678505
-0.280420
-0.699332
0.047427
-0.243375
-1.704597
-0.986289
-1.780412
1.350577
-0.133141
1.120550
0.686446
0.664891
-1.446939
0.229841
2.115722
-0.829599
0.614258
-0.196635
-1.264999
-1.337373
0.405617
-1.464320
-1.357414
1.361359
0.571537
-1.339137
0.681013
0.788078
-0.296184
-1.152528
0.865569
0.339614
0.883974
0.116704
-1.265079
-0.285752
0.034819
-1.295426
-1.574588
-0.886877
0.754716
-1.355531
-0.825236
1.298694
0.560628
-1.043870
0.701894
-0.743256
0.421362
-1.265591
0.713317
-1.731389
-0.346635
-0.285146
-0.778856
0.342804
0.693290
-1.690493
-0.392408
-2.312175
-0.197184
-0.832037
-0.411758
2.173600
-0.213001
-0.150156
-0.009348
1.108374
0.221301
2.788773
-0.879286
0.271216
0.669661
2.502208
-0.922108
1.120596
-0.795503
-0.203227
0.905127
1.256112
-1.100871
-0.089319
-1.136130
-0.130110
-0.299634
-0.908554
-0.184782
-0.614379
0.266988
-2.327171
-0.200165
-0.689113
0.360281
-1.694831
0.788096
2.657277
0.945484
2.056670
1.968324
-2.421396
-0.842243
-1.828581
-0.758646
-1.423388
0.624623
-1.222478
0.778533
-0.238048
-0.698008
0.411960
-0.108452
-1.010867
-1.000442
1.576759
2.026152
0.538727
0.895175
-1.337896
-0.546534
0.609091
-0.685402
0.015889
0.230567
-1.710931
-0.320835
-0.431471
1.435957
-0.122731
-2.133124
0.526670
-0.452177
-0.441842
-0.092523
1.020059
-0.907315
-0.838155
0.442284
-0.332166
-0.070584
0.797199
1.127776
-0.901290
0.476374
0.607969
-1.422501
-0.556109
-0.039813
-0.070541
-1.914867
-0.778171
-2.274019
-1.498187
-1.118933
0.715874
0.374551
0.423808
0.167131
0.517342
-0.602647
-1.289266
-0.030275
1.661707
0.608237
-2.016724
-0.168480
0.314545
-0.215700
-0.724000
-0.138686
0.111976
0.551457
0.359576
1.772970
-0.627939
-0.223947
-1.725264
-0.476107
-0.684672
0.671646
-0.716681
-1.168821
-0.550112
-0.737839
0.215199
-0.111717
-0.093578
0.642680
0.268659
-0.304309
1.449467
0.061430
-1.203914
-0.454327
-0.134714
0.267546
2.725002
0.591559
0.316247
0.277619
-1.395292
1.832634
0.662321
-1.743710
-1.602268
0.665463
1.401543
-1.572909
-0.310015
-0.378110
-1.210591
-0.301938
1.097906
1.603660
0.412593
2.396828
-1.210470
0.050537
-0.962113
-1.241974
-2.456597
-0.403440
0.711989
-0.951078
1.628293
-0.659574
0.618472
0.878753
-0.265158
0.877539
-0.087589
-0.734977
-1.036994
0.646427
-0.442355
1.286323
0.481731
0.793843
-0.406980
-0.437790
-0.992174
0.558197
0.525844
-0.112311
-0.808298
0.270120
2.551038
1.216312
0.456860
2.662586
0.318794
-1.710194
-1.382498
0.668437
1.484933
0.449340
-0.776719
-0.364044
-1.326694
-0.364614
-1.573495
-0.020999
-0.955236
1.333870
-0.506382
-0.609769
1.024065
-0.189231
0.195803
0.402101
1.507952
1.539615
-0.511608
-0.580010
0.669397
-0.957645
-0.659658
0.321945
-0.016608
0.322580
1.330879
0.109100
-0.744317
-0.150304
0.803871
0.040364
0.446768
-0.802594
-2.724723
-0.479689
-0.684860
-0.210969
-1.286977
-0.972069
0.079817
1.825170
-0.307410
1.362541
-1.948617
1.771351
-2.178047
0.450692
0.738355
-1.403915
0.520737
-1.252297
0.548544
0.687748
0.378951
-1.230112
-1.696353
0.753906
0.489868
2.750135
0.588480
0.993953
-0.330306
-0.809285
1.705086
-0.979547
-0.339405
1.538852
-0.571703
-0.195216
0.754441
-0.282059
-0.532811
-0.844464
2.220086
-0.789708
-1.001093
-0.239128
-0.421930
-1.043394
0.638436
0.774620
0.381632
1.452976
-1.111555
-2.669614
1.857665
1.169410
0.417894
-0.558824
0.825040
0.008158
1.988404
0.083251
1.402081
-0.512823
-1.257383
-0.533454
0.004756
1.644635
2.739311
0.900604
1.239940
0.673622
1.330586
0.713233
-0.088273
2.201965
0.825833
-0.574172
-1.326114
-0.966431
0.835387
0.308924
0.065396
1.506370
-0.245695
0.733201
0.926333
0.645398
-0.340680
0.519001
-0.146963
0.577184
0.121021
0.970612
1.448359
-0.212965
1.874262
0.528888
-0.098537
0.218993
0.205524
0.622628
0.301028
1.295143
-0.415223
0.180434
-0.460029
0.672316
-0.555178
-0.588624
0.224750
1.093401
-0.098733
0.201969
-1.373099
1.428867
2.598483
-0.783933
0.081701
-1.344466
1.323925
-0.600047
0.701159
1.028837
0.494613
-0.330292
-0.125181
1.112709
0.521007
0.568909
-1.108193
-1.476860
-0.049486
0.093948
0.540499
0.710387
-1.277060
-0.690469
0.923429
0.730980
-1.459338
-0.833582
-0.422313
-1.688806
-0.699201
-0.115081
0.719074
1.087672
1.806274
0.268585
1.047140
-0.689246
-0.504824
0.885364
-1.191325
0.306371
-0.273979
0.282547
0.729429
-0.338474
0.211112
-0.870355
0.053659
-0.723204
-0.855261
-0.560871
-0.297564
-1.836968
-2.983135
-1.126802
0.720048
0.222571
0.040373
-1.094908
-1.618344
-1.404188
0.015138
-0.529925
-0.912523
-0.690644
0.653499
1.760735
-0.704380
0.401526
-0.589909
0.292261
0.563167
1.182920
-1.280074
-0.164889
-0.841099
-0.180991
0.005422
0.305128
-0.405907
-0.647575
0.235553
-0.124917
0.282624
-2.098492
-1.638474
0.034883
-2.346964
0.277129
0.527653
-1.204312
-0.531659
-0.434241
-0.167582
-0.641749
0.700185
0.143779
-1.542727
0.507641
0.635459
-0.027905
0.870513
-1.051827
-2.524899
-0.215543
-1.820404
-0.311559
-0.480658
0.646191
0.784730
0.576170
-1.376989
2.375009
0.136023
-1.013394
-0.001186
0.041991
-1.000162
-1.174690
-0.904821
0.631393
0.743695
0.055655
-0.418691
-0.329542
0.016932
-1.033324
3.903111
-0.902993
0.776742
-0.400863
-1.410743
0.933751
0.278190
0.951954
1.408787
-0.327660
0.245847
-1.018651
0.328514
0.128681
-1.735387
0.819451
-1.569770
1.613061
0.898056
-0.204091
-0.398387
-2.755310
-0.958166
0.127407
1.153984
1.137628
-1.462647
0.531517
-1.233899
1.150821
0.515001
0.777149
0.702548
0.183118
0.078951
0.916025
-0.919653
-1.492113
-0.147706
0.716839
0.185722
1.949107
-0.070713
-2.745770
1.088862
0.397467
-0.948191
-1.295009
-1.411416
-0.043057
0.612844
1.019694
0.150920
1.226914
-0.281785
0.978045
-0.151839
0.004546
0.020937
-0.292183
0.333952
1.555764
0.249454
-0.417718
-0.221369
-0.515247
-0.757090
0.543623
-1.982554
2.322311
1.023236
0.601758
0.979437
0.003058
0.186007
-2.121480
0.246005
-0.918447
0.721184
-1.156535
0.700848
0.795210
0.208127
-1.338897
1.800370
0.039009
0.922692
-0.369609
0.351098
-0.691994
0.153155
1.692374
1.235976
-3.077749
-0.581538
-0.122538
-0.802325
0.185981
0.717645
-0.580225
-0.288186
1.580741
0.383908
0.001749
0.106587
0.284614
0.957079
1.321902
0.248555
-1.247880
0.575057
-1.168181
-0.760154
-1.205760
1.003086
-0.197990
-2.241256
-1.417990
0.733559
-0.038853
-1.113913
0.210454
0.587280
-1.506647
-0.783166
-0.521595
-0.703124
-0.308253
0.498562
-0.862410
0.526430
0.338987
0.475946
1.760414
-0.131071
-0.484236
-1.174530
0.786557
1.166261
-0.412236
0.576131
-0.017854
-0.702319
-0.486325
3.119369
-1.274718
-1.348946
-0.894607
-1.197252
-1.405884
-1.458084
-0.033926
2.618929
0.903811
-0.563928
0.150245
-0.952906
-0.232587
-1.525148
1.076085
-0.181034
-0.975102
-0.292900
1.006752
-0.468375
-0.300036
0.637616
-0.042262
0.823353
-0.527661
0.906491
0.470537
0.361995
0.584145
1.293369
-0.013100
-0.331956
1.224132
0.258145
-0.197089
-0.780183
-1.262741
0.071435
-0.536316
1.005076
-0.802539
-0.077979
-0.202185
-0.683458
-1.345343
0.101617
-1.271461
2.071753
-1.279220
1.302628
-1.558874
0.720095
-0.087002
-1.059033
1.618755
1.540113
1.071158
1.213028
0.175814
-1.744917
2.616494
0.665263
-0.123073
2.025425
-0.279889
-0.064923
1.495454
0.471577
-0.599255
-0.296409
0.884149
0.333524
0.206037
-0.962193
-0.059008
-0.241850
-0.910564
0.684605
-0.678735
-0.492175
-0.735276
-0.434388
-0.190195
0.338813
-0.915665
3.112370
-1.107836
0.350128
-0.949229
-0.740712
-0.549097
0.399657
-2.777672
1.985379
0.993377
-0.445657
0.134033
-1.760954
0.223084
-1.568177
-0.836735
-0.512102
0.543400
0.087964
0.533963
1.500007
1.304597
-0.390097
0.992393
0.243766
-0.356919
-1.998252
-0.309663
-0.302447
1.123163
-0.422582
1.643251
0.275401
0.103770
-0.822267
-0.943505
0.974036
-1.337268
-0.472860
1.464464
0.531024
0.045464
0.181230
-1.495425
1.392444
-0.419532
1.782699
0.012533
-0.111893
1.281193
-0.853015
-0.378587
0.089228
-0.398243
0.475222
0.536874
0.395804
-1.670359
-1.343505
1.456102
0.272192
1.269636
-0.694635
1.549319
1.642054
-0.736850
0.575034
-1.009448
1.300032
-0.315489
2.225752
-1.048614
-0.550849
-0.476794
-0.439795
0.022458
-1.318923
-0.628641
-0.309264
0.195931
2.015840
-0.485348
-2.345605
-1.352441
-0.000147
-1.094780
2.547702
0.109216
-0.161637
0.059932
-0.042479
0.739332
1.937440
-0.303905
1.523675
-0.196367
1.770963
0.476565
0.633113
-0.255712
-1.852351
1.020883
-1.635037
-1.361037
-0.553501
0.443621
-0.143234
-1.089021
0.452633
1.204113
-1.098762
0.389399
0.278015
0.438910
-1.775918
1.119362
-0.382575
0.083392
-0.568845
-2.231147
-1.647411
-0.589236
0.378761
-0.491317
-1.237698
-1.433353
-1.234691
-0.105600
-0.669671
-0.213085
-1.221403
-0.994030
-2.111738
-0.374175
-0.211359
0.598480
-1.383485
-0.681477
-0.451700
1.855386
0.286132
2.540845
-1.639304
0.567818
1.301043
-0.671086
-0.295351
0.445392
0.791057
-0.174097
-2.128790
0.899522
0.427615
1.680897
-2.055966
-2.487015
-0.165859
-0.248827
-0.639126
-0.038804
1.856336
-0.324670
-1.485216
-1.294451
-1.628259
0.886189
0.648818
0.515699
-0.373409
1.120966
0.192515
1.356969
-0.651796
-1.078981
-0.216565
-0.423887
-0.887023
1.092398
1.287361
0.683281
-0.128826
-0.131853
-1.964027
0.774679
0.892780
-1.087446
-0.157097
-0.234716
0.128660
-0.259754
-0.020017
-1.024007
-0.611133
1.144010
-1.180333
1.149440
-0.630770
-2.201483
-1.365916
0.077763
0.989400
-2.049051
0.274757
-1.097151
-1.559570
0.141998
0.210851
-0.345563
-0.879950
-0.492563
0.534447
0.585768
-1.043674
-0.490646
-1.746869
-1.703842
-0.077854
-1.071382
0.422412
-0.284940
-1.290733
0.640087
0.464198
-0.928370
-0.314814
-1.318287
0.702355
-0.448574
0.024165
-1.065384
0.685392
0.156282
-0.266811
1.760519
-0.996764
-0.071842
-0.025842
-1.551918
0.770922
-0.593147
1.130909
0.929815
0.450970
-0.065137
-0.296174
1.305986
-1.843163
0.986445
-1.024660
0.265531
-0.305643
0.201220
0.526915
-0.262784
-0.033327
0.511450
-0.309177
-0.444779
-0.223780
-0.745764
-0.704197
-0.850591
-0.552937
0.146793
-0.950973
-0.737950
-0.785475
0.270362
-0.266114
-0.304567
1.035909
0.247800
-1.856270
0.623743
-1.486953
-0.644043
0.320469
0.896146
0.342482
-1.212676
-1.017420
-1.164135
-0.899714
-0.114034
0.710781
-0.376482
1.094187
-1.427215
-1.545666
3.235024
-0.276761
-1.968954
-0.331977
0.314627
-0.396525
0.948623
-0.513552
-0.027918
1.368525
1.567868
0.325781
-1.261580
-0.146039
-0.988854
-0.822820
0.147309
0.986133
-1.030274
0.133872
-1.262867
-0.297661
0.585843
-0.347896
-0.914354
-1.434513
-1.420769
0.107650
0.643304
0.693551
0.021528
0.230600
0.219552
2.651863
-1.715881
-1.251627
-1.832775
-0.170078
-0.877677
-0.772801
-0.854002
-0.038929
-0.605092
-0.899046
-0.954494
1.831007
1.433999
0.215551
0.366728
-1.028988
-0.656901
-0.146899
0.076542
1.816955
0.760964
0.722677
-0.115047
-0.128155
1.365755
0.282859
-0.402031
0.373602
0.398611
0.441521
0.453258
1.115105
1.163303
-0.409134
-0.038988
-0.444180
0.049617
-1.298896
0.714358
0.914282
-0.218285
0.081016
0.542078
-0.586245
0.503331
0.553555
0.066983
1.744043
1.514821
0.659696
-0.203468
0.130386
-0.023505
1.201687
-0.528790
0.336453
0.552648
-0.050075
0.929203
-1.423624
0.071977
-0.139246
-0.328073
-1.842215
-2.090316
-0.790704
-1.532133
-0.043343
0.010062
-0.155510
-0.112727
-0.526534
0.781844
-0.626096
-0.512461
0.297933
-0.634456
0.942589
-1.483343
0.157110
0.388815
-0.136607
0.221963
1.309805
0.300787
-0.393874
-1.205038
-0.585997
0.281960
-0.418773
0.656480
-0.195105
0.739413
1.208735
0.034867
-2.001697
1.182713
-0.059191
1.123712
-1.429718
0.688900
1.271565
-0.400515
1.037431
0.082871
1.106017
-0.251719
-1.112467
-1.601782
0.667711
0.739915
-0.155510
-0.579662
-1.617030
-0.443710
0.664678
-0.754676
-0.562514
0.465161
0.595327
0.227328
-1.189309
0.301372
-0.714470
0.504242
-1.517454
-0.662432
-0.850788
0.362245
1.786995
-0.647123
1.112780
-0.034804
-0.323761
-0.346718
-0.924854
-0.749084
-1.552317
1.688184
-0.559372
-1.822810
-1.126616
0.749094
-0.634284
0.551736
1.189205
0.347106
-0.931020
0.528851
-1.161737
0.316688
0.487675
0.077887
0.339901
-1.874850
-0.223362
0.749844
-0.999729
-0.131401
-0.681179
0.476527
0.110806
-0.854744
-0.325116
0.111759
0.152415
0.772250
0.093861
-1.634682
0.406107
0.703648
3.268631
-1.399160
0.076579
0.769115
0.015666
-1.298056
0.484995
-0.107479
-0.202748
-0.147747
-0.894262
-0.339269
-0.906014
-0.237560
-0.681173
0.842044
0.198022
-0.342822
-0.305790
-1.873385
0.845908
0.757797
0.145993
-1.022633
0.598926
1.573012
0.189641
0.731005
-1.460441
2.496874
1.504084
-0.968428
0.256794
-0.059818
0.723902
-0.164551
-0.774063
-0.803534
0.415424
1.122681
-1.348643
-0.336446
-0.558931
0.210250
-1.209666
0.574387
0.101834
-0.263668
-1.070422
1.941002
2.159336
0.185227
0.461559
-1.651442
-1.358200
0.750757
1.011417
-0.280098
0.815236
-0.814880
1.257420
-0.246430
-0.224231
0.920273
0.651455
-1.870936
-0.935430
1.813808
-1.174621
0.452346
-1.418112
0.081805
0.646933
-0.835113
0.087721
1.107692
-0.124613
0.160441
0.306346
0.130470
-1.055602
0.317208
-0.359554
0.315611
-0.897422
-1.806641
-0.609485
-0.258553
0.608032
0.053199
1.594471
1.308241
1.612615
-0.046837
0.876848
-1.187727
-0.759181
-2.401165
0.302294
1.396270
0.485213
-0.423648
2.012944
0.987129
0.875529
0.809936
-1.259856
0.457231
-1.102172
-0.082246
0.830997
-1.236156
1.421848
-0.319095
-0.499235
0.577575
-0.438054
-1.120535
0.436347
-2.277655
0.792094
0.933173
0.590643
1.365526
0.567825
-0.988732
-0.859109
1.078847
-0.073366
-0.765594
-1.076597
0.971611
-0.691561
0.617279
0.802817
2.110909
1.594715
-0.717668
-0.086119
0.080381
-1.030601
0.432545
0.307398
-1.338792
0.159544
0.142582
0.971913
0.619597
-0.634113
0.361036
1.268483
0.555209
-0.200215
0.395526
-2.265937
2.304561
1.198870
0.824896
-0.500513
-1.126645
-1.093430
-0.349822
0.663873
0.480515
-0.161529
-1.064365
-1.266234
-0.970729
-1.513007
-0.420360
2.334273
2.098660
-0.328811
-0.076630
1.072079
-0.227706
-2.285187
-0.841981
0.410712
-0.637487
0.456822
0.117579
0.305100
-0.670696
-0.051947
-1.318253
-0.682383
-1.419819
0.382746
-0.356735
1.265126
-0.445050
-0.757675
-0.678762
-0.945920
-2.084551
1.314927
0.059147
0.979538
1.242925
-0.599393
0.790756
0.178535
-0.396160
0.480800
-0.310358
-0.490590
-2.025244
-0.499851
0.252121
0.635789
-0.251665
-0.717123
-0.390406
0.855460
0.277020
0.398420
2.009401
0.791830
0.514683
-0.165758
-0.440487
0.568050
-0.342681
-0.711031
0.075737
-0.387029
-0.601066
0.335159
-1.229876
-0.579254
-0.089818
0.023116
0.737781
2.535093
1.039710
-0.485276
-0.780318
-0.616061
-1.772276
0.345000
-0.775501
1.600423
-0.492697
-1.465171
0.106375
1.010852
-0.287420
-0.204552
0.251185
-0.436798
-0.451651
2.188586
-0.946486
-0.123050
-0.266041
0.423308
0.055208
-0.498115
0.041716
-3.120402
1.155754
0.083469
0.986804
-0.742265
-0.449066
-0.270329
1.787279
1.707958
0.151849
1.040959
0.879212
0.095088
0.855065
0.852279
-0.045911
-1.533313
1.901199
0.759145
0.419792
1.709012
0.397065
-0.192002
0.190938
0.481196
0.318893
0.041733
-0.842803
-0.432408
1.336655
-0.950043
2.298272
0.773938
-0.532828
-1.587086
-0.579149
0.657381
-0.751407
-0.294844
-0.012207
0.148729
-0.577741
0.678545
1.977617
-0.124755
-0.686010
0.613712
1.784292
0.312281
0.254942
0.652727
0.697007
-2.077747
0.404829
-2.350592
0.507414
-1.132480
-0.504548
-0.520344
-1.430302
0.184662
-0.748693
-0.350212
1.085104
0.546065
-0.149080
-0.551951
0.297651
1.102080
0.044708
1.985971
0.408021
1.370113
-0.309452
1.285164
0.340943
-0.378287
0.504209
1.064426
1.709159
0.854216
-0.997332
-0.623794
-0.897742
0.999275
0.113079
1.231548
-1.123752
0.858126
0.787714
0.579025
-0.725235
0.946179
0.460431
-1.372846
-1.003180
-0.497737
-2.048087
1.137865
-0.397823
-1.721100
0.811908
-0.507454
-0.243921
-0.334182
-0.917398
-0.786946
0.224801
-3.418726
-0.029140
-0.921017
1.167142
-1.380530
-0.125075
-0.217973
-0.831341
0.919941
-0.281785
1.436509
-0.678015
0.125054
0.433757
0.691447
-1.030530
0.516745
-0.142035
-1.473085
-1.069222
-0.982083
-0.465933
-1.589309
0.205024
0.200285
0.194966
0.308281
0.523393
-0.714916
-0.900384
-1.012070
-1.674000
1.564308
-0.863459
-1.088284
0.018275
1.592161
-0.038808
1.423476
0.174817
-0.695141
0.932835
1.821161
-0.559043
0.630609
-0.215167
-2.113748
-1.082982
-0.911240
-0.898098
-0.425664
0.015502
-1.354525
0.642624
1.847275
-0.262529
0.260760
-0.384607
0.658253
-0.283840
0.141053
-0.210098
2.472640
0.264894
0.046919
1.015934
-0.284413
1.608038
0.443886
1.884819
-1.051645
1.030040
-0.856908
0.280517
-0.186053
1.852476
-0.219533
0.782454
-1.243423
-1.021240
0.998764
-0.041923
-0.919375
0.159089
-0.271691
0.611883
2.115447
-1.045559
0.715460
-2.554866
-1.104097
-0.122487
-0.124795
-1.161516
1.554718
-1.900754
1.459964
-0.496003
-1.026448
0.370795
0.404568
0.644488
0.406139
-0.261284
1.169904
0.397860
0.783526
-0.743574
0.320178
0.228655
-2.857381
-1.916767
0.585926
0.500502
0.982305
0.509928
0.321146
0.749547
0.284457
0.896510
-0.581881
-0.772257
-0.884671
0.684582
-0.263533
1.944809
0.160131
0.966782
-1.787843
-0.885412
0.483910
-0.367446
1.004242
0.900854
1.336197
1.093862
-0.861084
0.152072
0.234366
-1.099578
-0.717777
-0.186054
1.689716
2.153351
-1.509404
-0.928353
-0.275887
0.361636
0.347262
-0.200674
0.818519
-1.375804
0.522718
1.670869
1.150424
-0.174868
0.281794
-1.352961
1.872671
-1.098478
1.787435
1.057330
1.626901
1.799359
0.501124
1.377569
0.719868
-0.577977
-0.510006
0.137579
0.947139
-1.724828
0.759218
-0.643544
-0.746791
-0.572410
-0.143272
0.153365
0.781531
0.953183
1.899085
0.788651
-0.828668
1.325811
-1.602953
-0.385692
1.142493
-0.996560
0.268793
-1.532194
-0.581400
1.123530
1.926701
0.621063
0.522392
-0.535471
-0.424034
1.032436
0.990601
0.706261
-0.894367
-0.716136
1.024963
0.040840
1.238920
1.986074
-2.287553
0.805651
0.252784
-0.607913
0.549426
0.850189
-0.742339
0.740079
-0.998502
0.804276
1.544680
-1.162308
-0.159047
0.493987
0.192311
-1.152581
0.180226
-0.561345
1.628359
0.032882
-1.254723
-0.352143
1.445618
0.090937
2.227378
-2.155370
-0.583559
-1.818234
-0.127691
-0.962095
1.444703
-0.890458
1.236247
0.547354
-2.005371
0.203384
0.023273
0.915955
-1.059057
1.247570
0.275121
-0.353558
0.925082
0.328635
0.605634
-1.952368
1.514017
0.466332
-0.913387
1.716422
-1.545251
-2.639323
-1.362676
-1.753294
1.318567
-1.454213
-0.483399
-1.178198
0.911509
-0.483888
-0.481254
-1.190538
-0.082220
0.794225
-0.058768
2.153585
0.872597
-1.606242
-1.153247
0.030714
-1.697750
0.438478
-0.410286
1.734381
0.354573
-0.982170
0.424378
-0.040808
-0.528325
-1.289061
0.070132
1.764708
-1.563263
-0.607716
-0.129567
-0.712577
-0.591030
0.663944
-0.904492
-0.656629
1.041110
0.753454
-2.560719
0.721273
-0.107951
-1.920646
0.064761
0.244536
0.877038
1.665725
-0.846442
-1.572234
0.196839
-0.843718
-0.423915
-1.139726
-1.001542
-0.749671
-1.552580
0.057538
-0.791257
0.727509
-1.190024
-0.927137
1.449090
-0.037126
1.168362
0.325772
1.846509
-0.361665
-0.184406
-0.098101
0.330362
1.074195
-1.293674
1.074853
-1.197327
-0.304032
0.280501
2.042668
-1.755174
-0.183389
-0.956321
-0.110864
1.249929
-0.927283
-0.124346
-0.818914
-0.827456
0.071187
0.096199
-0.602980
0.305785
0.508277
1.092819
1.289519
-0.548070
-0.934761
-0.289712
0.160868
0.444888
0.013266
1.766793
0.285952
1.236381
-0.689361
0.297610
-2.531153
-0.256799
-0.164056
-1.252528
0.561868
-0.505772
2.015325
-0.423484
1.017324
-1.293263
-0.882171
-1.085810
-0.272142
-1.662331
-0.746230
0.020586
1.780271
0.596152
0.814659
0.399075
1.107536
-0.991291
-1.620398
-0.719801
-0.986881
-0.653577
-0.478279
0.140018
-0.342490
1.026538
0.359921
0.703582
-2.380780
0.627209
-0.635213
-0.250037
-0.787159
-0.048276
-0.326243
-0.826175
-0.114173
-0.858928
-1.154458
-0.620879
0.266092
0.368679
0.650914
1.836684
-0.266844
-0.981760
1.009900
-0.074636
-0.622038
0.906852
0.310089
-0.043543
-1.021743
-1.921864
-0.523061
-1.400389
-0.224667
1.011107
0.886835
0.551693
-0.636820
1.659766
0.606239
-0.659826
-1.219932
-0.242762
0.457470
1.902804
1.974352
0.823906
0.493823
0.504627
-1.199203
2.932421
0.765754
-0.412119
1.234982
0.126377
-0.136588
-0.498970
-0.735729
-0.012432
1.176722
-1.499212
0.466095
-0.016198
-2.082662
-1.504083
-2.138130
0.030344
-1.263077
0.700390
0.861666
0.441515
0.518921
-0.873896
-1.755441
0.092025
-0.278240
-0.737649
0.380517
-1.154001
-1.222061
-0.009198
0.627754
-1.166257
-1.489210
0.292565
-0.711521
-0.866916
-0.427842
-0.744591
-1.130517
0.936028
0.179204
0.762665
0.243227
-0.543879
-1.735484
-0.624702
1.308759
-0.099138
0.273550
-1.847601
1.704166
-0.316587
0.103341
-0.094874
-0.351656
-0.409849
0.300751
0.269646
-0.930453
-0.238712
1.007422
-0.036328
0.730128
-0.972920
-0.001844
0.137913
0.088661
-1.071649
0.625249
-0.888699
0.965171
-1.801963
0.456620
0.177094
-0.220709
0.388998
-2.159606
0.039042
-0.527320
1.489421
0.186620
-0.039279
0.920717
1.558775
0.790619
1.377369
-0.391984
-1.420464
0.670172
0.799022
-0.166038
1.256659
0.461272
-0.635027
-2.215213
-0.065524
-1.078388
1.795423
0.405512
-0.177578
-0.431704
1.015091
0.823641
-1.200799
-0.813684
-0.060371
1.684314
0.685389
-0.602823
-0.485353
-0.441810
-1.426468
1.052988
-2.155724
1.083419
0.275452
1.795231
0.932250
-0.585480
-0.545672
1.414458
1.783815
-0.266407
-0.103356
0.752593
-0.345593
0.984331
0.372871
-1.611257
2.348960
0.140449
0.978416
1.806658
1.506584
0.361242
-0.964876
-0.216017
-1.378723
-0.157872
-0.124739
0.543697
1.183698
0.477288
-0.745073
-0.758944
0.242195
0.184431
0.491039
1.117867
2.050591
-0.835437
-1.077640
-0.125893
0.363057
0.255603
-0.665497
0.255177
-1.044114
1.475394
-0.120837
-0.892492
0.065118
0.047696
0.456274
0.591472
-0.555540
-2.935604
0.933697
1.477625
0.594781
-1.097809
-0.757141
-1.233715
0.353210
-0.193748
-0.139999
-2.066191
-0.065028
-0.148221
-0.046032
-0.059751
0.271751
-0.443657
0.678851
0.060648
0.954966
-2.319077
-0.199801
-0.080523
1.800026
1.994944
1.877903
0.624675
-1.253241
0.642159
-0.372112
-0.332639
-0.916078
-0.200587
0.654963
-0.594653
1.491712
0.622806
-1.922362
-2.534650
0.411241
0.404948
-1.990002
0.348232
-0.950986
0.983559
0.227377
0.169527
0.397080
-2.310026
1.395082
-1.669529
0.158293
1.068140
0.888008
-0.999382
0.278984
-1.061069
-0.272517
-0.157808
0.487714
-2.470270
-2.610735
-1.329713
-1.746299
-0.420859
0.342460
1.598370
1.196802
-0.612052
0.627753
-0.901370
0.221900
0.668811
0.426003
0.052327
0.508284
-0.928513
-3.052061
0.535827
1.270356
-0.042323
-0.921204
1.117444
-1.026222
-0.648910
-0.339254
-0.856693
-0.225845
-0.750309
-0.027764
-0.432093
0.413547
-1.204744
0.234895
-0.856301
1.006343
1.543200
-1.154822
1.942759
-1.008321
0.726022
0.150282
1.185846
0.418670
-0.445200
2.517064
-0.732404
0.107603
1.601927
0.498094
0.033041
-0.286331
0.554489
1.157537
-0.088722
-1.832286
1.423245
-1.263085
2.048216
0.244128
0.121542
2.354905
-0.277015
0.128420
-0.205899
-1.847643
-0.672983
-0.193753
1.404083
-1.646526
-0.930980
1.019669
-0.990909
0.157181
1.520684
-0.826566
-0.497310
-1.626690
-0.209772
0.318652
-0.015843
-0.136178
-0.379283
-1.394471
-0.895389
-2.145153
0.549754
0.806030
0.129265
-0.868904
-0.538140
0.316342
0.101955
0.857284
-1.325342
-0.007491
1.108260
0.348118
1.791803
1.500029
0.372078
0.853580
0.485410
-0.503683
-0.897176
0.179408
-1.426446
-0.367664
1.319214
0.118231
0.156161
-1.032776
1.155228
0.391755
-1.273001
-0.113597
0.160448
-0.671445
0.141667
0.634025
1.684939
-0.000271
-1.340497
-0.078883
-0.454766
0.327091
0.016928
1.651986
0.432598
1.034498
-0.704422
-0.731082
0.995101
2.315279
-0.196457
1.430554
0.858568
-0.020796
0.155901
0.407603
-0.464941
1.030743
-0.600698
-0.893707
-0.729219
0.345104
-0.990160
0.315545
-0.251206
0.123392
1.288200
0.511371
-0.101356
0.487010
1.102397
-0.454954
0.195912
1.429804
-2.789894
-1.573637
-1.497705
-0.846791
0.676691
-1.376730
-1.377781
-0.369846
0.410309
-0.051281
-1.418182
-1.929180
0.675304
0.683730
-0.597628
0.411875
0.967783
-1.065771
1.481112
-0.301216
1.529347
-1.067140
-0.327208
-0.414160
-1.159541
0.508697
0.714168
0.365969
-0.281905
-0.766430
-0.537988
-0.261356
0.423614
-1.499140
0.897379
0.155544
0.023368
0.370642
0.232614
1.234645
-0.199196
-0.831980
1.650769
1.073387
-0.839549
-0.911382
1.742597
0.136928
-0.723172
-0.668468
1.281062
0.593478
-0.286142
-0.668566
0.028033
0.449671
1.643111
1.546987
1.475186
-0.182474
-0.978191
-1.035327
0.816326
0.898064
0.330641
0.158148
0.278411
1.230212
1.411125
1.196566
-1.674410
1.046496
0.408233
1.042530
0.360503
-0.135317
0.084498
1.208987
-0.888619
-1.500081
0.338968
-0.605588
-0.151763
-0.068357
0.481115
-0.752199
0.283779
0.496239
-1.863457
-0.496973
-0.822850
0.486978
0.238451
0.059644
2.262631
-0.683618
-0.270920
0.768261
-2.169298
-0.182710
-0.189670
-1.756836
0.112857
1.034011
1.808406
0.425770
-0.751168
1.231093
-0.937018
0.642595
-0.690658
-0.251102
0.758754
-1.347429
0.236157
-0.886960
0.514064
-0.750870
1.299762
-0.214746
-1.897920
0.143506
-0.597144
-1.622958
-0.539412
-1.470194
-0.900433
-2.040524
0.084055
-1.062452
0.070784
0.086799
1.150957
-0.664857
0.739668
-1.016502
-0.279611
-0.633908
0.159087
0.310350
-0.382348
1.442109
-0.567508
0.814867
-1.142933
0.942182
0.209338
-0.008195
0.830044
0.274369
-0.424539
1.790699
-0.910751
-1.275842
-0.708614
-2.024470
-1.017408
0.837640
0.036682
-0.296922
-0.306392
0.594526
1.610451
-0.187955
0.647621
-1.352774
-0.491296
-1.286623
2.517879
-0.563172
1.142874
-1.266330
0.529074
2.240945
-0.985764
0.588699
0.623875
-0.177623
-0.126469
0.098429
0.856019
0.081066
1.604789
1.409353
0.223760
-0.686763
0.930198
-2.118268
-0.367872
0.380620
0.805357
-0.755155
0.071609
-0.702639
-0.873509
1.224857
0.067277
-0.764118
0.659558
-0.355490
1.217457
-0.692282
-0.182143
-0.916719
0.762577
-1.308478
-0.163358
-0.441159
0.946543
-0.990865
-0.034467
-2.022981
1.561504
0.353024
0.638658
1.021068
-2.052447
0.214521
-0.554422
1.165838
0.857908
0.440167
2.296695
0.118851
-0.781883
-0.070096
-0.499450
0.519213
1.540536
1.361074
0.027790
-0.873129
1.430246
0.396037
-1.557581
-0.923263
0.843854
-0.428103
1.382064
-0.412570
0.512132
-1.532077
0.625055
1.641261
0.001027
-1.487596
-2.112226
-0.557371
1.178912
-1.351025
0.510623
0.180331
0.769930
-0.768388
-0.177252
0.402876
2.184378
-0.528888
-0.523331
-1.262372
-1.427689
0.515638
-0.143025
-0.626822
-1.983248
-0.265198
1.909331
0.556061
0.746599
-0.032254
0.782636
-1.273976
1.525686
0.152035
0.899401
-1.115117
0.652075
0.226417
-0.123569
0.018236
0.007251
-0.178421
-0.094118
-0.455136
-0.203797
-1.494893
1.187647
0.485376
-0.040819
0.197688
-0.875847
0.010046
-0.336697
0.494282
-0.530737
0.787345
-0.907360
0.499705
-0.372965
-0.791562
1.247779
1.679749
-0.136418
-0.580020
-1.154429
-0.324126
-0.202868
1.150417
-1.550874
0.143527
-1.020197
0.453682
0.082514
1.008614
-1.506787
-0.542742
0.879711
0.693940
-0.917015
-2.610356
0.550187
0.799822
1.229432
-1.484812
-2.064237
-0.073757
-0.387412
0.007406
0.728966
0.096763
0.974153
0.371662
0.271962
-1.246928
-2.449140
0.285058
-0.432963
0.179740
1.009440
1.202476
-0.600396
2.770310
-1.125349
-1.639586
0.015578
-2.019408
1.115125
0.610135
-0.575946
-0.674078
-1.125169
-0.598563
-0.254088
2.296370
-0.235107
1.588024
-0.855595
-0.800976
-0.163666
0.076686
-0.799852
-1.349076
-0.779101
-0.589850
0.292921
2.618146
-0.039506
0.951873
-1.185579
-1.408960
0.461218
-2.282278
-0.749986
-0.094605
-0.322559
-0.176406
1.660627
1.348197
0.375790
-0.605135
0.468393
-0.732534
-0.728214
0.361902
-0.400982
-1.506436
-3.026822
0.141547
0.541973
0.907301
1.408385
-1.193487
-0.199954
-1.895163
-0.356870
0.115525
-0.095519
-0.123334
1.083713
-0.502847
0.000231
0.259698
-2.921601
1.738986
-1.234984
0.498858
-1.779503
-0.816955
-1.151857
0.843670
-0.187010
1.082669
-0.956799
-0.054210
2.228315
-0.821380
-0.683827
0.107181
0.570957
-0.144684
0.141076
-0.611390
0.187220
-0.286780
0.698054
-0.457824
0.181119
0.146853
-0.674917
0.689905
-1.429924
-0.040935
0.224662
-0.186026
-0.182492
0.524704
0.413575
-0.345022
0.395861
-0.303076
-0.232867
0.348753
1.973295
1.673957
-1.333507
0.113397
-0.752845
-0.419755
1.265686
-1.938689
-0.484125
0.836017
1.200969
-1.422399
0.910009
0.320712
0.674221
-0.604885
-1.636731
-0.210534
0.492209
-0.029015
0.079635
1.699850
-1.728830
-0.558010
0.247317
1.035907
-0.024984
1.037658
-0.154318
0.800745
-0.337747
-1.237694
-0.192146
0.636848
-0.986022
0.904325
-0.627567
3.143908
1.613619
1.438136
0.045413
0.357006
0.233544
2.076184
0.795718
0.478475
-0.169995
0.160912
0.283868
0.097253
-0.196152
0.412011
1.577062
-0.557241
-0.579427
1.118440
-1.589639
-1.296158
2.132617
-0.024841
-1.380192
0.930362
1.122506
-1.021520
0.775295
-0.529770
0.074433
0.148897
0.440029
0.003075
0.753185
0.723422
-2.053020
1.421431
1.433420
2.198848
0.187711
0.856164
-0.576055
0.466527
1.508672
-0.343290
-0.007639
-0.604135
0.705444
-0.972611
-1.905054
0.155350
-0.823635
-0.514590
-0.316209
-0.792216
1.819865
-1.682726
0.938274
-0.700494
-0.804257
0.301269
1.306761
-0.237549
0.551014
-0.163609
0.219045
-1.326272
0.668956
0.337833
-1.189907
0.282535
0.751876
-2.329612
-0.543147
1.478795
-0.716148
-1.021271
0.927497
0.349697
-1.766113
-1.343132
-0.746101
-0.116031
0.375271
-0.238126
1.347249
-0.925328
-0.955163
1.465546
0.175546
-1.304000
0.540183
1.982267
0.823969
0.627787
0.550188
1.672013
1.353386
0.050906
-0.855029
-0.536239
-1.472347
0.032403
-0.547653
0.529851
1.302700
0.866247
0.566734
-1.103591
-0.163921
0.228044
0.569950
0.397665
-0.522587
0.407474
0.374830
0.035299
0.892327
-1.090036
0.989000
0.326590
0.370087
1.122350
2.121525
1.222732
-1.058961
0.993678
-1.493032
-0.806554
0.468415
0.449584
2.428931
1.367576
-1.539103
-0.409021
-2.046738
-2.237325
0.072248
