0.307506
-0.517312
-1.436588
3.005602
-0.050408
0.005732
0.283868
0.758885
1.698827
0.962618
0.638038
0.685810
-0.157172
-2.020393
1.977501
-0.465172
-1.665212
-1.148870
-0.043976
-2.040845
0.094201
0.568274
1.256050
-1.728355
0.749404
-1.345927
1.087229
0.121158
0.398054
-1.613784
-0.787045
0.070970
0.455259
-0.548925
-0.407318
0.420090
0.791019
-0.783821
0.814213
0.130540
0.951522
-1.353284
-0.285478
-2.363218
0.010804
-0.691585
0.507784
0.781229
-0.263013
0.594059
1.043981
0.256081
-0.103561
0.075649
-0.110905
-0.313985
-0.872925
1.282751
0.293552
0.943188
0.001023
0.518293
-0.596789
0.348229
0.935230
0.454538
-0.035652
-0.308950
1.139751
1.066962
-0.083759
0.233246
0.233622
-0.321515
-1.056596
-0.146259
0.080701
0.187056
-0.569753
0.504551
-1.302766
0.155929
-0.871641
-1.219943
-0.548565
-1.082434
0.852166
-0.427245
-0.133962
-0.751539
-0.079702
0.878810
-1.399685
0.163717
0.509430
-1.053879
-0.211890
2.301683
1.453507
-0.704565
0.739283
0.967581
1.335919
1.762110
-0.301663
-0.159693
1.724852
-1.816986
0.591441
0.063748
0.718564
-1.499408
-0.798500
-1.529280
-1.575602
0.374234
0.226028
0.332008
-0.033352
1.284908
1.321226
1.610756
0.139996
1.520743
0.391574
0.972942
0.703145
-0.441366
-0.781895
1.185181
0.346265
-0.542353
-0.345940
0.850781
0.644616
0.622105
-0.825751
0.336317
-1.175087
1.165023
1.271285
0.778888
-0.696889
0.205095
0.777729
1.655731
-0.833034
1.370167
0.112604
-1.165384
1.126325
-0.685960
-0.593011
-0.137159
0.211751
1.157889
-0.580438
-2.465988
0.291945
1.382298
-0.634307
0.699546
0.780727
-0.796535
0.549452
-0.216065
-0.768534
0.709447
-1.909949
-2.787597
1.703293
-1.088941
1.622121
-0.523593
0.597205
0.694371
0.190927
-0.555260
-0.526351
-1.678338
-1.916737
0.719388
-0.550044
-1.224983
-2.103481
0.270933
-1.143064
-0.341505
0.446570
-0.225813
1.149358
-1.173271
0.592700
0.392205
-0.744800
1.298746
1.322791
0.256621
-0.630052
-0.423279
-0.035368
-0.360282
-1.632353
0.389977
-0.513505
-0.475883
0.066483
2.105530
-1.068737
-0.586798
1.115374
-1.519778
-0.563985
-0.230721
0.693708
-0.134446
1.278733
1.886372
-1.351756
0.540865
0.472496
1.433584
0.029218
-1.076842
-0.987664
-1.900237
0.509209
0.573309
0.182337
0.028655
-0.114936
-1.047042
-0.716900
0.572435
-0.399469
-0.068901
1.148228
-1.654342
-1.619074
-1.523826
-1.022515
-1.365414
-0.050410
-0.686733
-0.584776
-0.599127
-0.743093
0.742342
-0.577266
0.607186
-1.016809
-1.669988
0.644637
1.402947
-0.521702
-0.943400
0.029913
-1.203671
0.225596
-0.688334
0.921030
-1.404592
0.977264
-0.932441
0.079658
0.051536
0.852538
-0.462388
0.637223
0.275640
0.648454
1.338216
0.196268
0.271128
-0.201869
-0.245218
-0.561218
-1.996291
-0.577423
1.149214
0.247306
-0.922294
-0.653613
-1.302533
-1.251839
0.446290
1.068851
0.479189
-1.801986
-1.691404
-0.316024
-1.620943
-0.895601
0.141860
-0.799374
0.924847
0.688561
1.213859
-1.058055
0.543235
0.565369
1.414939
0.792983
0.091914
-0.488370
2.447021
-1.203365
-0.167197
-0.817784
-1.093652
0.528723
-0.382413
0.813338
-1.053885
-0.198434
-1.063489
0.383169
1.031896
-0.589032
-0.289048
-0.033786
0.062212
-1.635625
1.336008
-0.315184
0.965949
-0.156323
2.651173
0.501692
0.022357
0.083270
0.131234
-1.237113
0.212504
0.026467
-0.800266
-0.571817
-1.438592
0.954304
0.922765
1.392056
1.494555
0.314231
-0.971951
-1.896512
-0.113145
-0.207143
-1.202921
-1.232186
-1.786867
1.346890
1.876098
-0.717696
0.924527
0.329409
-0.669445
-0.778832
-0.172740
1.035831
1.032267
-0.745784
-1.833133
-1.669743
-1.705202
-1.338550
1.233490
-0.385960
0.274597
-0.293681
1.190130
-0.694628
-0.396608
0.640302
-0.453831
2.381942
0.841599
1.622291
2.053820
1.502168
-0.228607
-0.174464
-1.538152
0.442995
1.395692
-0.915903
-1.118737
0.108466
1.016861
0.661316
0.091174
1.241115
0.008416
2.360604
-1.337703
0.875519
0.406446
0.948360
1.733070
0.472268
0.212293
1.403448
-2.297255
-0.579232
1.973734
0.155837
-0.410802
-2.118703
1.851126
0.132787
0.489917
0.894456
-0.032104
0.596038
0.795084
0.494634
-0.250911
0.535466
-1.056346
0.459136
-0.855702
-0.283926
0.208664
-0.334017
-0.805201
1.204934
1.192744
0.645368
-1.566793
1.431401
-0.015057
-1.129313
0.871556
1.568910
1.665286
0.774362
1.993131
-1.277073
-0.461444
-1.590219
-0.382599
0.320487
0.302372
0.728193
-0.542865
0.801839
-1.966256
0.281638
-0.009316
-0.305080
0.947152
-1.360219
-0.591763
-1.632355
-0.461404
0.308436
1.066794
0.071462
-0.915008
0.705793
-1.314152
-0.272810
1.456980
-1.733705
1.688276
-0.694406
-1.184291
-0.869143
-1.966906
-0.847598
0.693483
1.306473
-0.106001
-1.566556
-0.939132
0.576465
-0.156747
-0.031240
0.909546
0.518586
0.356159
0.948707
1.035629
-1.421553
-0.316226
0.726435
-0.472872
-0.300185
0.253981
-0.476147
-0.340041
-0.510826
0.986193
-0.041352
-0.001129
0.638230
-0.170353
0.256671
-0.638345
0.888747
0.818153
0.423412
0.375437
-0.780604
-1.233984
-1.090914
-0.739009
-0.843578
0.356394
-0.823451
-0.275900
-0.774686
0.259807
-1.214989
-0.830533
-0.081134
-0.308582
1.330633
-0.206928
-0.844888
-0.237541
0.782509
0.832269
1.303138
-1.572913
-0.026669
1.670345
0.449897
-1.550476
1.710523
-0.063774
-1.627784
-0.386275
0.062414
1.256111
0.908003
0.778651
-0.468182
-0.051062
1.369527
-0.805534
-0.515389
0.060011
0.159956
0.523991
-1.091855
0.181864
0.387878
-1.475021
-1.240291
0.202323
-1.436919
-0.461337
-1.229495
-0.415705
0.016165
-0.861047
2.052721
0.292279
-0.230864
0.308805
-0.434549
-1.313733
0.741393
0.780303
1.978039
-1.216361
0.502898
-0.701367
-1.622441
-2.088351
0.774160
0.028650
1.243827
1.172263
-1.061807
-1.222223
-0.988160
-1.637616
0.054574
0.134724
0.595967
0.619548
0.877893
0.812668
1.713510
1.000586
-0.682153
-0.397100
-1.042916
-0.472367
1.316172
-0.555885
0.039418
0.555736
0.392220
0.170749
0.203205
0.416019
-1.057284
-0.089163
-0.942691
1.946373
0.319556
0.561417
-0.849131
-0.175739
-0.139687
0.822017
1.220920
0.779690
1.809583
-0.582930
-2.635385
0.763505
-0.858079
0.020871
0.148855
1.689233
-0.031531
0.331906
-0.319901
0.629377
0.431562
-0.158737
-0.215958
0.711343
0.498223
1.087803
2.173134
-0.694196
-0.604206
0.586757
-0.387554
-0.256854
-0.199848
-1.241626
-1.995353
0.160965
-0.466394
0.336471
0.228425
1.765683
2.093464
-1.034636
0.547998
-1.574209
1.290796
-1.038141
-0.424055
-0.609660
0.568988
0.545464
-0.853583
-0.443709
1.168127
0.903126
0.221210
0.325111
-1.397397
0.232020
0.026248
1.732939
0.807382
1.506627
-0.022219
1.788041
0.963357
-0.763990
-0.368783
-0.740539
0.324267
-1.387302
0.242029
-1.487654
0.026844
-0.709995
-0.993479
1.391192
1.534365
0.518512
1.317607
0.356451
-0.931621
0.559344
-3.510068
0.481845
1.304933
0.746747
-0.020885
1.445563
-0.699137
1.534983
0.666562
0.374046
0.474081
1.118904
-1.777112
1.250877
0.018051
0.516952
0.254092
1.198389
-0.511499
1.300299
0.550216
1.468418
0.219734
-0.710057
1.190025
-0.915697
-0.068932
-1.273694
0.527233
-0.088312
-0.684302
0.127590
0.771668
-1.671298
-0.225967
0.243296
-0.089684
-0.745229
-0.027262
-1.328514
0.632182
-0.528324
-0.552650
0.648107
-0.768757
1.589965
0.045021
-1.140714
0.674237
-2.702536
-0.336752
0.138465
-0.713836
1.286307
1.616757
0.177022
1.385753
0.488591
-0.029155
-0.321484
2.312035
-1.321060
0.233203
1.294782
0.085247
0.612862
-0.946578
-0.650598
-1.322236
-1.110495
0.306195
0.478173
1.170967
0.108442
-0.037671
0.794724
1.432061
0.549737
0.436598
-0.191275
-0.162714
0.319599
-0.030739
-2.050936
1.604547
0.037368
-0.270834
-1.305134
-0.780252
0.353682
-0.717395
-0.666756
1.594703
-0.572477
-1.832216
0.984832
1.631734
0.905732
0.129613
1.207475
-0.165144
-0.531136
-1.138633
-1.495166
1.016998
0.951232
-2.240273
-0.074586
-1.901184
-1.081158
-1.126332
0.531159
-0.476359
-0.438464
-0.615074
-0.003719
-0.529678
0.325210
-1.072421
0.186836
0.789095
0.555649
-0.241147
0.637278
0.311719
-0.211954
0.071600
1.019940
-0.692199
-1.212513
-1.013494
0.774703
-0.661823
-0.254978
-0.582656
-0.891971
0.321024
0.653677
-0.780508
-0.297503
-0.170170
-0.242624
-1.722021
-0.117388
-0.504270
-0.508969
-0.566953
-0.920643
2.119820
-0.464914
1.602499
-0.467841
0.253625
1.224613
-0.241803
-0.092663
0.795143
-0.333483
-1.188077
-1.836874
0.433736
-0.290112
-0.620968
0.626802
-1.601059
-0.221276
-0.257202
0.851744
1.402144
0.016116
0.377978
-0.602096
-0.659411
1.472713
-1.211677
0.244369
1.310289
-0.097452
-0.900424
-0.806330
0.890697
-0.084419
1.397292
0.142032
-0.749313
-0.093633
-0.563133
-2.001389
0.063853
-2.157777
-1.482028
-0.596055
1.080961
-0.985488
0.495961
-1.424181
-0.600785
1.060743
-0.198485
-0.912872
-0.321122
-0.046331
1.931757
-0.691505
-0.200145
0.405104
-1.806993
-1.539513
-0.043048
0.171663
0.886690
-0.696801
-0.097629
-1.578581
1.000264
-1.275110
-0.609501
-0.475144
0.266727
-1.596622
-1.157309
-2.000235
1.341246
0.138921
0.239243
-0.893930
0.484537
0.904308
-0.238389
0.458562
-1.440661
0.787013
0.628925
1.574822
1.000788
-0.147692
-0.236509
-2.243374
-0.526086
0.571711
1.401136
-0.634246
1.316135
-0.719268
-0.517881
-0.971550
-0.117785
-1.366291
0.165299
-0.064770
-1.001812
1.426991
1.472649
0.534187
0.702918
-0.581224
1.810459
0.118102
-0.321588
0.727889
1.488709
0.307891
0.889880
1.430542
0.346003
1.019755
-0.003342
1.010672
-1.095315
0.880558
0.645637
0.014042
-0.485572
1.392349
0.226950
0.408641
-0.047257
0.230429
-0.020478
0.072450
0.380169
0.963450
0.965385
1.331351
0.804454
0.074101
1.166960
-0.864903
-0.771979
-0.123368
-0.283979
-2.194265
0.908161
0.676774
1.276246
-1.278237
0.827118
-0.640112
-0.219814
0.767428
0.859790
-0.039992
0.381637
0.515211
1.042988
0.462847
0.348751
-0.279111
-0.160323
-0.379427
0.295755
0.040290
-0.566675
-0.642562
-0.781943
0.129623
0.609161
1.476564
-0.876351
0.629484
1.150614
0.409878
0.058052
-1.481476
-0.272482
0.524992
0.527409
-0.012775
0.880585
1.274386
0.368140
-1.362747
1.581954
0.103735
0.045794
1.681636
-0.505734
0.440947
-0.818023
0.520760
-0.435337
-0.461210
-0.844006
-0.962639
1.210979
-1.077527
2.512229
-1.896106
-1.354741
0.647550
-0.038839
-0.094874
-0.614157
1.198695
-0.397048
0.923832
-0.418041
0.072468
0.154064
-1.420300
-0.314553
-0.222854
0.697270
-0.361006
0.116011
-0.488384
-0.035230
-0.608101
0.592386
1.727305
1.369315
1.546776
-0.867900
1.981022
-0.032780
1.049816
0.452200
-0.360300
0.866685
-0.581241
-0.723531
-1.595653
0.966969
-0.828768
-0.593666
-2.333891
1.544914
0.702613
0.196241
-0.853237
1.371952
-1.658304
-0.445760
0.791292
0.599312
-1.076324
0.800096
0.133461
0.012156
-0.643838
-1.138493
-1.390396
-0.240129
0.168833
-0.274850
0.731596
0.036796
-1.182163
-0.633925
-0.417949
0.435536
-1.396741
-0.068569
0.643534
-0.684668
1.019579
-0.260880
0.455127
-0.105637
-0.292975
1.514444
0.423036
-0.577247
-0.039905
1.676857
1.536332
0.347953
1.096336
-1.281071
0.440321
2.042783
-0.803303
-0.594636
2.290731
0.332316
1.388981
-1.213358
-0.559413
-0.033666
0.424524
-1.575160
2.413496
2.441334
-0.937791
-0.088887
-0.448050
0.668173
0.403606
0.226887
0.654138
-1.948134
-0.411457
-0.025587
-0.108227
1.125952
0.294143
0.725470
0.787627
1.345788
-1.182024
-0.975478
0.851225
1.570523
-1.019737
0.630591
-1.082694
-0.303685
0.301753
1.159555
-0.618460
-1.174456
3.527618
1.739367
-0.910278
-0.575308
0.290352
-1.931941
0.733937
0.149133
-0.546871
-1.339461
1.324669
-0.086825
1.526671
-0.174997
1.938345
-0.565104
0.888263
1.295396
0.636318
1.610913
1.704995
0.948602
-0.127671
0.578771
0.032953
-0.701390
1.394891
-0.019130
-1.930118
-0.268390
-1.165211
1.995393
0.900089
-0.466311
-1.102748
1.245368
0.323522
0.436819
-0.979725
0.064347
0.191012
0.733340
0.897273
-0.571033
0.308221
-2.671165
-0.818945
0.625756
-0.908495
-0.736760
1.033712
-0.085910
1.340224
-0.273326
0.327704
-0.720749
1.758659
-0.086139
-1.974703
2.073957
1.367107
0.615204
0.742004
-1.070387
-0.740379
0.492183
0.104839
-2.022782
-1.194094
-2.376237
-1.343498
0.021019
-1.706539
0.009809
1.556583
0.481416
0.538522
-1.017460
0.276281
0.641705
-0.267763
-0.138542
-1.138242
-0.901550
-0.630449
-0.851100
2.081584
-0.968056
0.005993
1.215456
-0.785784
-1.839831
-0.029028
-1.326288
0.358498
-0.562087
-0.873709
-0.838959
1.175449
-1.026534
0.233923
-0.413391
-1.253123
0.100390
-0.132668
-0.191803
0.085465
-0.712010
-1.167727
-0.153250
-0.084994
-0.284503
1.084097
0.662354
0.879989
0.104713
0.041778
-1.672904
0.954811
-1.377281
0.184393
-0.213550
-0.209863
0.281798
1.833339
0.565548
0.721256
-1.118308
-0.711977
0.385604
0.042721
-0.435014
-0.193430
0.228730
2.142609
0.293426
-0.169680
-2.066308
-0.324518
-0.760578
-0.967277
-0.014247
-0.099059
-1.361588
-0.861467
0.428824
-1.344456
0.005014
-0.518015
1.891911
-1.078878
1.165305
0.727622
-1.137314
1.983893
-0.303063
0.604434
-0.179785
0.572060
0.119387
-1.025139
0.016412
-0.100430
-2.101474
-0.436570
0.919953
-0.448722
2.966054
-0.126352
-0.955364
0.925941
-1.404128
0.071105
1.882712
-0.275105
-2.028562
0.404428
-0.166876
1.493355
0.706613
-0.927393
0.709018
-0.377593
1.408985
0.504037
-1.937802
-0.031821
-1.776529
-0.275943
-0.171072
-0.310503
0.854049
0.245795
0.383126
1.948061
-0.817258
0.412669
1.411431
0.114768
0.473715
-2.197038
-0.207814
-1.257466
-0.893953
-0.397198
1.229267
0.782629
0.173256
0.224922
-0.394259
0.497094
-0.675118
-0.994563
0.075262
0.724517
0.508806
-1.227307
0.030523
0.801073
0.349742
0.312865
-0.551568
1.759510
0.598622
0.300134
0.367846
2.067660
0.869235
-0.283422
-1.183362
-1.114942
-1.442767
-0.061261
-0.563831
1.706577
0.043965
-0.404038
0.248668
1.922151
-1.383545
0.491101
-0.399784
-1.337793
-0.804323
1.470340
1.864159
1.008000
0.518709
0.442348
-0.630454
-0.189100
1.520627
-1.465271
-0.999050
-0.731916
1.454552
-0.339524
-1.506252
1.095749
1.697763
0.240934
-0.785829
1.318037
0.565661
-0.117791
-1.064396
1.387890
-2.214032
-0.099926
1.336584
-1.740067
-0.077488
0.663290
-0.099873
1.077293
0.198192
1.217229
1.818856
0.380710
0.271731
-0.586230
-0.947179
0.682659
-0.564222
-0.358636
-0.869858
-0.479103
-0.502645
0.148145
-2.031652
-0.235149
-1.041126
0.360829
0.637668
-2.052110
0.451567
0.330738
1.683494
0.962148
-0.828409
-0.675289
1.629868
0.459870
-0.709769
-1.211262
0.925218
1.336958
0.149866
1.496592
-0.069822
0.685175
0.346259
0.450777
0.983444
2.912624
0.410696
0.254558
0.403806
-0.500882
-1.366447
-1.757437
-1.018620
-0.476611
0.944429
0.331371
0.136644
1.859971
-1.202932
-1.154815
1.170760
-0.396322
0.057178
1.875260
-0.452839
0.090902
0.790799
1.263973
1.584717
0.982753
1.882727
-0.241316
0.514232
0.778511
-0.717916
-0.229790
0.478389
-0.092796
-0.549723
-0.662889
0.396408
-0.161163
0.082447
-1.199376
1.554588
-0.291377
-0.643708
-0.599804
0.276944
0.027978
1.248698
-0.146608
-0.446046
-0.983214
0.520447
1.459597
-0.758373
-2.004320
1.638545
-0.108889
0.151891
1.122095
1.769369
0.026589
0.704081
-1.315390
1.279254
2.154074
-0.057642
-0.981923
-0.151606
0.768547
0.373008
-0.978522
1.692452
0.942867
-1.620458
1.434269
-1.904152
-1.545453
0.798841
-1.822863
0.452750
0.775415
-1.042131
-0.148238
-0.058774
0.505086
-0.819498
0.912403
-0.738989
0.545982
-0.607464
0.220641
-0.887683
0.903464
0.191657
0.589693
-1.269519
-0.486527
0.665726
-0.698730
-0.438568
0.408893
0.783639
-0.589436
-0.633734
-1.171049
2.689917
0.648186
-0.895738
-1.963407
-0.136440
-0.067711
0.886177
0.605071
1.970134
1.146206
1.422798
1.988006
-0.766530
-0.527435
1.897295
1.441921
-1.589476
-0.422681
1.721294
0.214598
1.268831
-0.288329
0.773077
0.869528
0.166311
0.295985
-0.226852
1.032384
-0.773489
-0.029695
-0.081552
-0.443111
0.998127
0.130868
0.290028
0.565190
1.666770
0.876930
-1.474379
1.749853
0.253793
-0.173320
1.448330
0.197063
0.535809
-1.070688
0.462508
-0.181089
0.370128
0.827803
0.201445
-1.452159
0.347752
-1.475988
0.766335
0.540830
0.674158
-0.879077
-0.187837
-0.291596
-0.346675
0.029464
-0.396284
-1.186376
1.246325
-0.111584
1.112463
2.028074
-0.950290
0.384650
-1.355302
0.930279
0.924906
0.805970
0.230692
-1.142017
0.715877
1.087440
0.945669
-1.902312
-1.034944
-1.665462
0.601274
-2.180205
-0.139224
-0.520644
0.001395
-1.104563
1.224153
-0.114866
0.079003
1.011291
1.134560
-0.786580
-0.564447
2.784907
0.655281
1.151183
0.716951
-0.690680
0.130394
1.037511
-0.275855
-1.021395
0.059355
0.344339
1.123863
0.142254
1.351783
-0.851786
-1.264585
-0.571302
-1.922150
-1.066738
-1.423950
-1.029911
0.264099
0.506525
-0.981940
0.076632
1.529958
-0.145134
-2.037632
-0.326065
0.995327
-1.085299
-0.215823
0.042395
1.504111
-1.139533
-0.426742
0.067859
-0.567821
-1.293429
0.179584
0.953351
2.174332
0.439758
-0.255770
1.900449
-0.785319
0.909467
-0.368356
0.159283
0.091407
-1.147028
-0.046568
-0.717341
-1.622287
0.341235
0.058699
2.151248
0.846912
0.803903
2.026381
-2.228359
-0.019204
0.799419
1.140624
-1.704516
-1.038123
0.311558
-1.438699
-1.689333
0.452994
-0.233392
-0.248905
-1.358007
0.123742
-2.026497
0.650862
0.160538
-0.751771
0.106229
1.123277
-0.338324
1.227910
-0.043370
-1.329370
0.846539
0.562948
1.414426
-0.384153
-0.400636
-1.080508
0.362682
1.242586
0.196421
-0.174467
-0.053639
-1.532151
0.090706
-0.772682
0.041743
-0.208809
0.143337
0.495215
-0.377461
-0.321611
0.835617
1.501265
-0.597686
0.561159
-0.721798
-0.316565
1.655151
0.025736
-0.287304
-0.595537
0.784343
1.353204
-0.062118
1.787854
1.900100
1.161626
1.089165
1.198067
-0.157337
-0.311751
-0.934656
0.044584
0.490382
-1.143454
-2.520693
0.336735
0.083622
-0.670582
-0.265962
-0.494905
-0.578629
-0.426025
-0.576946
1.105434
-0.213362
-0.447848
0.437186
-0.484083
-2.628461
1.497184
-1.143818
0.694629
-2.319725
1.483176
0.108778
0.130093
1.803690
0.340460
0.537123
-0.016375
0.264367
-0.531847
0.609697
1.791477
-0.730387
1.311546
0.743036
0.584264
2.725442
-0.880623
0.628178
-1.363469
-0.231024
-0.421074
-0.173808
1.502254
0.345380
1.070966
1.304292
1.047439
-0.192607
0.211962
-0.863471
0.256429
0.295730
-1.574493
0.348421
1.522521
1.210768
-1.572293
0.883961
-1.403154
3.215269
-1.291260
-1.096539
1.055234
-0.861994
-2.722246
-0.422877
1.170068
0.296376
0.430975
0.228865
0.558476
1.693668
2.695302
-1.185589
0.193140
-0.657268
-0.880202
0.621959
-1.642246
-1.131487
-0.878892
-0.156449
0.716200
0.876491
-0.096710
-0.989803
0.840284
-0.234983
1.793590
-1.134624
-0.297974
2.067532
1.014586
-0.962649
-1.378675
-0.475428
1.511530
0.674235
-0.362852
0.213341
0.439954
-0.111958
0.063301
0.420075
-0.303327
0.172053
-0.268573
-0.994547
-1.332936
0.113028
0.906155
-2.024394
-0.516237
0.804703
0.915419
-0.740406
0.539273
-0.251410
0.093443
0.967973
0.167418
-0.348128
-1.484689
0.841940
1.739009
1.300982
1.848772
-0.377996
-0.675866
-1.528959
-1.819408
0.608788
0.301731
-0.759416
-1.561858
0.649616
1.338389
0.080318
0.709862
-0.002446
-1.345172
1.144496
-1.133326
0.697604
0.558744
-0.694712
-0.341107
0.638006
1.625176
1.463992
-0.667087
0.042056
0.223132
-0.634070
0.425752
0.705549
-0.181808
0.320744
0.276257
-0.005650
-0.640521
0.430171
0.232192
-1.304989
0.399200
1.136259
-1.047130
0.113093
-0.393080
-1.406954
0.259556
0.993569
-0.115053
1.692221
-1.070355
1.207345
0.255961
0.721578
-0.179262
-0.506749
-0.771702
-0.921481
0.095354
1.096196
-2.019080
1.311012
-0.399632
0.331116
-1.728657
0.489221
-0.053367
1.621948
-0.156614
0.306410
0.170830
-0.562786
1.018479
0.249454
-0.796232
-1.096659
-1.304149
1.012710
0.229829
-0.223790
0.205265
0.065321
-0.828610
1.555176
2.409270
0.437596
-0.300152
1.088091
-1.107485
0.711124
-0.485371
-0.990564
0.723770
-1.456033
-1.323966
1.168299
0.111432
-1.013670
0.564984
-0.295079
-2.226867
-0.463566
0.743151
-0.389531
-0.469632
-0.297469
-0.568495
-0.405208
0.367904
-2.108525
0.906190
0.252028
-0.161021
-0.223738
-0.492445
1.538136
-0.215483
-0.660737
1.751484
0.356883
0.380423
-1.763275
0.199806
-0.595734
-0.226043
-0.609269
1.055683
-2.239294
-0.247576
-0.527341
0.541402
0.343750
-0.399182
-1.178430
1.522178
-0.298217
0.395035
-0.543251
-0.288260
0.134995
0.134035
-0.445169
0.055209
-0.390256
-1.852062
0.872304
0.439034
0.203256
1.316317
0.787397
1.647093
-0.691246
1.373315
-0.628562
0.340261
-1.290617
-1.537793
-0.374068
0.314673
-0.892627
1.399115
1.869290
0.700569
0.168786
1.438920
-0.457726
-0.494058
0.596675
-0.299619
0.948679
-0.093426
-1.408299
-0.638317
-0.229495
-0.965194
-0.586950
0.631694
0.422038
-1.432940
-0.464942
0.945702
-0.514331
-0.788731
-2.715657
0.241983
2.346195
-0.245498
-0.511436
-0.858953
0.231501
-0.618146
1.960766
0.116910
1.694286
0.490763
-0.517459
0.778743
-0.576647
1.385125
-1.958678
0.256498
-0.546425
-0.330814
-0.136737
-0.209191
-0.094296
-0.150354
1.378454
3.052764
0.262159
1.391507
-0.275381
0.170050
-2.197267
-0.121690
-0.209924
-0.153747
-0.130054
-0.890302
0.105336
0.039132
0.200363
1.938257
-0.385515
-0.754820
-1.299751
-2.198368
2.001375
1.080788
0.168269
-1.405007
1.082164
0.600017
0.241202
0.516597
0.137673
-1.060229
-0.241602
1.280466
0.838344
-0.318262
-0.103283
-0.992247
0.317917
0.652633
2.896750
1.179561
-0.151634
-0.581818
0.561633
1.541369
-3.020875
0.491748
0.172186
-1.355653
1.016556
1.058601
-1.669038
0.319697
0.223058
0.688082
-1.713012
0.186179
0.087069
-0.334283
0.603513
-1.098633
-0.476959
-1.247807
-1.188410
0.723492
-0.513692
-1.296238
-1.667565
-0.036794
-0.417892
0.223444
1.310743
-1.255927
0.237151
-0.829648
-0.721864
0.628840
-0.068297
-1.326436
-0.972561
0.718408
0.467962
0.345256
-0.563240
-1.625001
1.019546
1.587939
0.300851
0.620096
1.118074
0.893610
1.145954
2.038623
0.882828
2.031361
-0.089535
0.184814
-0.915506
-0.195179
-0.325040
0.000914
-0.262276
2.390435
0.080297
0.102046
-1.585614
-0.623397
0.480761
-0.578968
1.728991
-0.976212
0.560806
-0.670772
0.390621
1.445793
-1.573759
0.823983
0.504137
-1.158539
0.963951
-0.022436
0.184372
1.142181
0.994219
-0.745213
-1.427848
-0.880836
1.002869
-1.454683
0.626379
-0.210498
0.658539
-1.033865
0.739292
0.420680
1.445340
1.374095
1.060968
-0.461035
-0.204525
0.326322
0.742881
0.215581
-0.592672
1.418215
2.665590
-2.743975
1.691857
1.411013
0.192785
0.894257
-0.160153
0.340509
-1.169807
-1.892377
0.962812
1.964839
1.557106
0.727162
-1.985368
1.031317
-0.881079
0.747986
-0.750913
-1.161484
0.824568
-0.979992
0.886511
0.358121
-1.309039
-0.889503
0.052100
-1.221787
-0.027374
0.011914
0.280191
-1.660858
-0.139592
-0.927870
0.981855
1.172349
-0.164758
1.327362
-0.727354
-0.673502
-0.241990
0.716869
-0.256877
-0.465789
-0.386511
-0.568405
-1.110081
-0.444737
0.693655
-0.696603
-0.578217
0.328896
1.590336
0.393875
2.088847
0.762534
0.394430
0.594399
-1.305314
0.483772
2.137420
0.853392
0.474435
0.209170
-0.061984
1.839368
-1.045485
0.166445
0.727785
0.406261
-0.072388
-0.778036
0.274020
1.971361
-1.902686
0.147395
1.311999
0.630180
0.155358
0.631914
-0.859945
-2.112908
0.489154
0.016886
-0.668999
-1.515008
-0.520329
0.259128
-0.479573
-1.628289
-0.062219
-0.402647
1.265407
0.731179
1.025234
-0.712930
0.955544
0.361969
-0.203105
-1.298335
0.407578
0.441646
-0.615331
0.843576
-0.794654
-0.682675
0.490360
-0.082523
-1.075899
1.125011
-0.279286
2.091665
0.619215
-1.031953
-0.748517
1.383441
-0.670391
-0.238927
-0.180086
-1.475458
1.132755
-1.997237
0.763246
-0.952727
0.441300
0.522845
-0.909332
-0.250272
1.481350
1.198792
0.081852
-0.197701
-2.292651
0.743295
0.918764
-0.609207
-1.082484
0.243083
-0.861613
0.159830
1.189381
-1.053395
0.443593
-0.567589
-0.140861
-0.398217
0.367821
1.112219
0.098172
-1.355662
-0.894774
-0.071857
-1.468400
1.199959
1.985716
0.436632
-0.890745
-0.761399
0.229848
-0.028230
-0.770619
-0.854248
-0.452218
0.182436
-0.064124
-0.019598
-0.728424
0.126661
-1.043285
0.287649
-1.383276
0.406481
0.717226
-1.442413
0.787742
-0.190741
1.675735
0.919427
-0.505783
0.535628
-1.400914
-1.493998
1.249389
0.359735
-1.454542
1.586334
0.951404
0.166553
-0.173169
-0.548059
1.061306
0.880973
-0.108927
1.213598
0.147070
-0.369674
-0.852898
0.106948
-0.729784
0.500143
0.053731
-0.130112
-0.447891
0.028744
1.213808
1.263290
-1.135911
-1.234954
-0.116216
-0.349046
3.231604
2.060927
0.642109
-0.492477
-0.000640
0.434201
0.890179
-0.650280
0.973341
-0.488156
-0.901314
0.986166
0.395566
0.184429
-1.086671
-0.142261
0.258716
-0.517496
-0.996081
0.220628
-0.922551
0.201390
-0.008698
-1.352725
1.443806
-0.126164
0.179019
-0.744313
0.642095
-1.549339
1.151908
0.423998
-0.611538
-0.498038
-0.759668
-0.469063
-0.389230
-0.559306
-0.496294
-1.095910
-0.474304
-0.632745
0.327166
-0.233895
2.062988
-0.226654
-0.205004
-0.249872
-0.664593
0.104836
-0.515220
0.712047
0.922736
0.244213
1.686542
0.226093
0.886638
0.516139
0.341885
-0.960568
0.682807
1.636714
1.259580
-1.744066
0.906298
0.471940
0.629405
-0.621551
-0.952791
-0.531725
1.697384
-0.109061
-0.640943
-0.045042
0.616377
-1.166083
1.025451
0.074344
-0.146866
0.019335
-1.355606
0.403297
0.952451
0.258976
-0.058631
-1.509147
-1.416527
0.287023
-1.360531
1.071536
-0.047096
0.233913
-1.135758
1.691667
-0.694723
-0.116576
-0.436476
-1.057729
-0.041455
1.145513
-0.426725
0.271344
-0.972417
0.529007
0.625244
1.183717
-0.784969
1.284652
0.802147
2.270292
-0.370440
-1.198910
-2.351229
1.874352
0.525200
-0.797066
0.320209
-0.540266
0.193738
0.268112
1.138935
0.711370
-0.576712
-2.309244
-2.836471
0.047426
0.009277
-1.161171
-0.231597
0.027110
-0.331206
0.140764
-0.418940
-0.673100
0.107227
0.989699
1.258295
-1.410545
-0.481107
-1.503423
0.038851
0.345519
-1.445697
-1.626834
-0.557999
1.497314
2.075494
-1.291199
0.575266
0.339751
0.813770
0.479596
0.556640
-1.874175
1.074548
-1.374879
-0.180670
-0.240032
0.854628
0.574543
1.011790
0.409278
-0.308534
-2.414221
-0.351062
1.525556
-0.552827
-1.339752
0.568501
-1.289486
0.108575
0.936792
1.004296
0.294167
1.126010
1.017582
-0.273079
1.525937
1.285996
-1.029319
-0.737035
-0.559575
-1.149202
1.391311
-1.099840
1.622854
1.185328
0.043788
0.536234
-1.782100
1.327734
0.524129
0.542028
0.605305
-0.479976
-0.678866
1.268119
1.180113
-0.955228
-0.238198
0.862218
-0.812673
0.867248
-0.953900
0.940929
-1.507343
-0.262456
1.139126
-0.480699
-0.704604
0.528035
0.122231
-0.479150
-0.545696
-1.134158
0.819567
-1.219673
0.385847
-0.025520
0.890204
0.944126
0.626376
-1.103630
1.317694
0.156383
-1.500721
0.408851
-1.541669
0.117482
0.512426
-0.699022
0.280695
0.288581
0.111989
-0.757307
-2.168513
-0.069171
-1.375873
0.346764
1.018533
0.548379
0.311059
-1.062973
-0.058709
-1.138077
0.405758
-0.659594
1.296921
1.717296
-1.612785
-3.424452
-0.143860
0.801562
0.335318
0.129913
-0.249046
-0.190860
1.095477
0.654290
0.530189
0.117549
0.960191
-0.088122
-1.438237
-0.801840
-0.551560
0.848810
-0.867793
1.569454
0.429517
1.092677
0.388011
0.826327
1.287222
0.321736
1.237489
-1.221162
0.610754
1.458897
-0.712551
1.738214
0.680252
0.278699
-0.998306
0.312911
-0.330118
-1.035341
1.825413
-1.193788
-0.727565
-0.275289
0.638739
1.051004
-1.359912
0.616548
0.591201
-0.706153
-0.726084
-0.843600
0.138016
0.270994
0.191499
-1.456364
-0.625141
0.821814
1.238795
-0.659001
0.470334
-0.279766
-0.769309
-0.624997
-2.164942
1.278811
0.816442
-1.105379
0.393717
0.904619
1.302644
-0.176506
-0.186387
0.976129
0.452465
0.720328
-1.378795
-0.647847
0.378990
0.931577
0.061998
-0.462952
0.732386
-0.051813
-0.903330
0.802489
-0.455953
-0.036312
-0.393727
2.772336
0.446504
-0.820026
-1.003369
0.021543
1.254995
-0.599390
0.807087
-0.697598
-1.416649
0.910353
0.962124
1.994351
0.978864
-0.486865
-0.838226
-0.071605
1.279061
-0.603356
0.969195
0.853131
-0.519029
-0.434436
-0.737238
-0.815763
0.973560
1.552321
-1.268308
1.227382
0.257054
1.386661
2.198551
-0.703050
0.586599
0.937846
-0.235168
-0.608007
-0.675810
-0.175103
0.301942
-0.358054
-0.206803
-0.067656
0.270009
0.070082
-1.157136
-1.326135
1.029164
-0.588273
0.858525
-2.889734
-2.131947
-0.455430
-0.318467
-1.190049
0.760598
-1.017640
0.580707
-0.195219
-1.329406
-1.134363
-0.418885
0.813920
-1.015829
0.465817
0.753884
1.255660
-0.198258
-0.581137
0.711279
-0.027738
-0.538115
-0.743753
-1.651222
0.893420
-1.150055
0.294833
1.717373
1.045642
1.735319
0.743227
-0.906262
0.968344
-0.158270
-0.253671
0.458361
1.189596
-1.169510
-0.964000
0.285383
0.539307
-0.255357
0.146782
0.989787
-2.325965
-0.008649
-0.053840
0.135341
0.159300
0.133932
0.788846
0.432626
-0.024017
0.013332
-1.598726
-1.005754
-0.938682
-0.220447
-0.233590
-0.288408
-0.466377
-1.547529
-0.078851
-0.385241
-1.359540
-0.349932
-1.388029
1.500877
0.437136
-0.994505
0.609702
0.273335
0.156065
2.396453
-1.002686
0.189915
-0.076161
0.517744
-0.407777
0.200053
-0.335657
-1.924944
-0.125049
0.929421
0.568935
-0.052388
-0.241152
1.169758
0.435521
0.947314
2.255713
-0.623501
-1.193080
-0.220613
-0.741184
0.263265
0.859295
-0.888269
-0.617513
0.414403
0.163239
-0.138926
-0.773119
-0.444802
-0.370202
0.195223
-0.115520
-0.342444
-0.555835
-0.040660
-0.988040
0.391883
0.252929
-1.312104
2.153891
-0.697169
0.321045
0.643909
0.664538
0.757652
-0.454604
0.830649
0.335479
-0.105524
-0.014448
0.875168
0.559475
0.207893
0.578870
1.698401
0.041787
-0.002849
-1.226766
-0.666259
1.475213
1.874438
0.597724
0.322534
1.648601
1.006804
-1.296036
-0.985570
-0.273781
0.614141
-0.240495
1.257628
0.010101
-0.620612
-0.804455
0.373749
-0.577429
0.532631
1.122144
-0.545538
0.984835
-0.886849
-0.127566
-1.913274
-0.621409
0.622109
1.715717
-0.949322
-0.299754
2.369538
-1.045445
-1.974174
-0.525369
0.545809
0.855762
0.856810
-2.220093
-1.943249
2.249433
-0.419041
-0.372927
-1.912266
0.219494
-1.537554
0.825719
0.279586
1.154141
-0.637222
0.051541
-0.557291
0.173797
-1.767325
1.201913
-1.555229
-1.056138
-0.458675
-1.006326
1.100820
0.995306
-0.637519
1.242847
0.776947
1.495247
0.342658
-0.952508
-1.862242
1.008807
0.168900
1.806656
0.553590
-0.010619
0.889131
0.830295
-0.692913
0.474566
-0.779889
2.098175
-1.411735
-0.440977
0.171474
-0.379706
-2.127304
-0.389027
-1.060509
-1.080286
1.382511
0.321212
-0.080915
1.005021
-0.516957
-0.197973
-1.375220
-0.322124
0.039442
2.224181
-0.530399
-2.150686
0.696938
1.342071
1.089313
-1.128950
-0.427800
-0.129758
-0.228625
-1.740868
0.253640
-1.347089
0.213716
-0.391507
-2.384058
0.484528
-1.132058
0.151895
-0.014254
-0.095725
1.159323
-1.776013
0.513403
0.489386
0.339408
-0.393915
-0.377006
-1.107410
-0.310867
0.246488
0.405150
0.923065
1.977872
-0.043258
-0.971253
-0.311834
0.131861
1.465049
-0.201331
-0.316355
0.122403
-1.102026
1.048310
-1.294685
-1.354281
-0.905380
0.033093
-0.494844
0.342149
0.216889
-0.795419
-1.112512
-1.731625
0.314456
-1.751212
-0.626021
0.186759
-0.419223
1.036874
0.503802
0.133201
-0.570857
-0.158864
0.825565
-1.105268
-1.069277
0.268040
-1.372813
-0.360957
1.095386
-1.413945
-0.001489
1.364235
0.220202
-0.005397
0.245578
0.533023
-1.082465
0.818926
-1.361732
-0.095117
1.448586
0.394293
0.801720
-2.414582
-0.247127
-1.496671
1.323397
1.750376
0.954127
-1.385622
-0.485964
1.243243
0.212059
-0.785509
-1.999709
-0.155236
1.022701
0.135325
1.070762
0.409333
-1.768509
0.444336
-0.370338
-1.682791
-1.705859
-0.485593
0.435182
-1.703740
-0.349283
-1.318768
1.305461
-1.584903
-1.320102
0.515830
0.244929
-1.006775
0.827999
1.015947
0.446828
2.159706
-0.967584
-1.461658
0.537748
0.550424
-1.358923
0.263076
-0.136910
0.956427
-0.225288
-0.879613
0.381179
-0.677359
-2.376138
-1.072435
0.676816
0.819313
-0.764328
2.806427
-0.567024
0.703606
-0.093468
0.724917
-1.416603
-0.969119
0.842607
0.464930
1.723571
-2.669875
0.281705
0.100261
1.883293
0.715201
-0.941551
-0.817583
-1.765628
-0.989673
-0.636530
1.637206
0.393075
-0.350074
0.473836
0.327283
-0.764223
-0.494098
0.722278
-0.434189
-1.566085
0.110331
1.050984
-1.012387
-1.143197
0.513217
-1.275750
-0.174926
-0.568036
0.211926
-1.462304
1.091253
1.417106
-0.413724
-1.335629
2.229546
0.358522
-2.093843
1.009730
-0.485981
-0.299518
-1.333009
-0.428928
0.240608
0.114344
0.684889
0.248254
1.787950
1.235842
-1.692668
-0.363496
1.034280
0.360294
0.384536
-0.960150
-2.066540
0.124400
-0.346626
0.228795
-0.135473
-0.010579
0.164956
-1.935053
-2.233020
0.564119
0.690546
-1.179227
-0.152118
-1.841055
-0.152717
0.812556
0.987717
-0.803445
1.230094
1.569013
1.578775
-0.572269
2.622206
1.330720
-0.099328
0.991218
0.111128
-1.817245
-1.376556
0.304894
0.130922
0.310747
0.210560
0.412590
-1.330456
0.251316
1.195755
0.146293
-0.793397
0.717421
0.107737
-0.218627
-2.053016
-0.293896
1.441876
-1.308368
1.199195
-0.336634
-0.210632
0.301106
0.378406
0.583264
1.578594
0.650362
1.108487
0.269501
1.329281
0.448695
-0.858707
-0.491400
-1.142179
0.433947
0.609788
-2.185088
0.311263
-0.885427
0.037647
1.742027
0.586263
1.085255
0.065535
-1.359447
0.495991
-1.521377
-0.561011
1.273903
-1.129866
0.248417
1.343302
0.095444
0.631272
-1.697493
0.707669
-0.142789
-1.083662
0.668039
0.563505
-0.594634
-0.582607
-0.858771
-0.942982
1.200769
-0.388760
-0.051202
-0.753704
1.209666
-0.150401
-1.377495
0.366116
0.113473
0.865352
2.831045
-0.777641
0.351424
1.672075
-0.111998
-1.258946
-0.495436
0.362729
0.779297
1.498588
-0.962386
0.896672
-0.085264
0.839668
1.268643
0.340284
0.419218
-0.481952
-0.384945
-0.565141
-0.125869
0.176397
1.133930
0.472239
0.227799
0.001418
0.303111
-2.716148
0.418981
1.041624
-0.016096
-0.089409
1.408582
1.984188
-0.041695
1.306068
1.277436
-0.802242
1.505667
2.871803
-0.649170
-1.014701
-2.235846
-2.036828
0.296921
0.259543
0.318511
1.011301
1.033396
0.647332
0.103002
0.910064
0.483070
-0.210583
-2.131136
0.498984
-0.554733
-0.792622
-0.427063
0.457306
-0.448630
-0.869164
0.363455
-0.892602
-0.291916
-1.592019
0.597201
1.149610
1.558317
-1.266434
1.717679
-0.175787
-0.057184
0.351855
0.365840
0.558200
-0.053452
-0.126706
0.633180
0.424517
0.493049
-0.658893
-0.536069
-0.144164
-2.171531
0.878191
0.973656
-0.551306
-0.382122
-1.289140
-0.090931
-0.439474
-2.243166
0.041269
1.133471
1.596166
1.295868
-0.665457
-0.261281
0.370586
-1.883051
-0.867358
-0.573460
1.667387
1.651357
-1.806965
0.809236
-0.381739
0.902356
0.340335
0.087286
0.245754
0.293876
0.068492
0.063385
2.080278
-0.142975
-0.288406
0.801722
-0.235049
1.206914
-0.007700
-0.322444
1.995259
-1.442426
-1.645780
1.256872
0.777819
0.089524
-0.299396
-0.020913
-0.062545
-0.282616
0.948251
1.450709
1.125330
-1.422914
-2.207529
0.545318
-1.465649
1.078912
-1.032969
0.168058
-0.755573
-1.539784
-0.930641
-1.714417
0.252991
-1.096987
0.078117
-1.189466
0.020671
-0.462503
0.640561
0.394751
0.644671
0.700969
1.952544
-1.059220
0.517606
-0.425926
0.116942
-1.111478
1.256395
0.543138
0.868205
0.344553
0.270302
-0.291008
0.006414
0.632656
-1.018555
0.341909
-0.644892
-0.608257
-1.197301
-0.083669
2.292835
1.803650
-0.086884
-1.193290
-1.789487
-1.531367
0.529837
-1.742370
-0.250873
0.920306
0.251414
-0.913775
-0.089914
-0.612217
0.750916
-0.718180
-0.170583
-0.160367
1.268907
1.692494
-1.291242
0.236915
-0.369301
0.342170
-0.170452
1.342109
0.031092
-0.619913
0.190704
0.466895
-0.160022
0.808706
0.595194
-0.177780
0.394774
-0.213092
-0.608030
1.421803
0.245579
-0.765634
-1.735313
1.379354
1.032914
1.082822
-0.842866
0.018720
-0.574123
0.021837
0.071440
-0.976181
-2.320014
2.145133
1.416685
2.224257
-3.020264
1.475634
0.039461
-0.449058
-0.770543
-1.194530
-2.010469
-0.853161
0.186003
-0.142444
0.192817
1.920909
1.905161
-2.062159
-0.558783
0.341328
-1.705032
-0.201983
-0.312296
1.037685
1.599128
-1.238679
-1.849589
1.808670
-0.453343
-0.491885
1.968280
0.916661
-0.113799
-1.107282
-1.744888
0.195801
0.963959
-1.363071
-1.747640
-0.303817
-2.415654
-0.085434
1.108501
0.001998
-0.613781
-0.205066
0.028290
-1.103794
-0.471340
-1.094788
-0.483832
0.451652
1.172066
-0.487250
0.601227
-0.342738
-0.692728
-2.080754
1.043360
0.630339
0.414488
-0.417771
-0.635541
-0.087111
2.101573
0.885707
1.499553
0.392938
-0.473658
0.769189
0.332536
-0.327533
0.405465
-1.113011
-1.587224
1.806368
2.070957
2.153858
0.206964
-1.472645
-0.240957
-1.476049
-1.408668
0.134199
0.454991
0.730438
0.618941
0.157833
1.250510
0.576749
0.539266
0.295584
-0.268743
0.979497
0.329336
-1.114053
-0.140246
-1.948510
-0.819600
0.147198
0.061712
-0.725588
-0.518903
-1.612511
-0.485857
-0.111666
-0.369353
1.634967
0.335048
-1.322505
0.211283
1.069981
-0.110456
-0.394335
0.541908
0.041065
-0.385426
1.167999
1.550428
1.239960
1.881527
0.222714
2.053316
0.611425
-0.843687
1.145360
-0.464629
0.638460
0.116973
-0.258409
0.161858
0.322875
-2.320323
-1.178907
-0.436304
0.882163
1.022066
1.167654
-0.208226
-0.526627
2.557098
-0.878882
-1.357828
0.700252
-0.141531
-0.472029
0.509507
-0.182868
-0.439789
-0.529359
0.494751
0.470801
0.850572
0.515261
1.976449
-0.523332
0.243424
-1.073085
1.052144
-0.126124
0.473902
0.408136
-0.805940
-0.506751
0.301438
0.435407
-0.700592
0.541856
-1.042214
1.501394
-1.385002
-0.524767
-0.219613
0.011118
-0.826592
0.944367
0.392931
-1.739284
1.655317
0.329747
-0.177338
0.023948
-0.765802
0.239509
0.094109
0.491038
-0.095842
-0.126837
-0.645606
-0.310795
-0.943443
0.652566
-1.667705
-1.237751
-0.019748
0.415068
1.160601
-0.700895
-0.684424
0.173078
-0.591186
-1.493788
1.165035
-1.012124
1.254209
-0.319827
-0.138525
1.607771
-0.830523
0.255232
1.352080
-0.525768
-1.057788
0.873662
-1.191280
0.170722
0.108581
0.137055
1.080986
-1.645900
-0.339200
0.104779
-1.227300
0.006946
-1.061320
-1.029306
0.058867
-0.315509
-0.324479
-0.533948
0.319755
-1.767707
-0.393495
1.151722
-1.383563
0.355573
0.327221
-0.245396
0.170960
-0.979737
1.769858
-2.447829
-1.074477
-1.299342
-0.234418
0.522912
-0.562382
0.013211
0.107720
-0.396741
-0.223729
0.243423
-0.083427
0.378849
-0.090703
0.927453
-0.200368
-0.082996
-0.500117
-0.271798
-0.886024
-0.160967
-0.420315
-0.210722
-1.036039
0.248964
0.864674
-0.227579
0.171851
-0.674469
1.313056
-0.773435
-0.210070
-0.066504
0.200559
-0.806606
-0.952995
0.812314
-1.675240
-1.737088
-2.023356
-0.119560
0.721315
0.778426
1.118369
-1.069935
-0.391830
-2.932298
-0.228418
-0.086241
0.241376
0.135510
-1.365098
1.385838
0.218891
-1.382127
-1.484667
0.531048
1.150014
-0.944205
0.914196
0.321734
-0.865456
-2.248895
-0.038216
-0.198177
-1.646686
2.964489
0.525919
-0.129255
-0.200002
1.027076
0.439243
0.265737
-1.685018
-0.961942
-0.844788
1.059124
1.745406
-1.053791
-2.095295
-0.464236
-0.402142
0.485496
0.617850
1.163771
0.855965
-1.885948
-1.013396
1.007177
0.164006
0.710284
1.437166
-1.065912
0.372740
0.307983
-0.513261
0.496255
1.202342
-0.533049
1.784243
-1.651908
0.029765
-1.182540
0.562629
0.021429
-1.147855
0.019637
-0.148553
-0.529241
-0.599280
0.252488
0.393174
-0.460192
-0.377873
-1.825717
0.030393
1.338252
1.370112
1.658604
0.475554
0.496670
-0.966187
2.308430
1.619719
0.338055
-1.099591
-0.635392
-1.608140
-1.598044
-0.258791
-2.030256
-0.293268
-1.133551
-0.957649
0.089822
-0.310683
-0.237592
0.786846
2.178878
-1.478980
-0.121222
-0.548636
-0.734397
0.615096
-0.095951
-1.306693
-0.880538
1.132664
1.938277
-1.345259
0.355101
-1.817019
-0.679206
0.733320
0.823053
-0.812728
1.027145
-1.447794
-0.360065
0.762727
-0.907920
0.060109
-1.329494
0.289001
-0.132423
2.488787
-2.018247
1.107053
-1.463282
1.668150
-1.187543
0.379078
-0.618324
-0.497150
-1.305468
-1.280859
-0.901961
0.837247
0.269742
-2.064731
0.061867
-1.003269
-2.156568
-0.740853
0.113286
1.491129
-0.808729
1.592473
-0.137117
-0.914146
2.046995
0.483277
0.722357
-0.131675
-0.047508
1.401827
1.269151
1.332157
-0.623217
0.108949
-0.104865
-1.121831
1.431607
0.534768
-0.093125
0.620849
-1.277478
-1.463558
-1.143554
-0.939230
0.545237
0.005615
-0.089788
0.195531
-1.707245
1.565210
1.292664
-0.931376
1.305859
1.861305
-0.638463
-1.209112
-2.026113
0.293660
-1.198734
0.612274
0.269081
-1.392151
0.375073
-0.562385
0.148467
1.052214
-1.764459
-0.855511
1.090910
-0.521525
-0.581381
-0.194937
-0.737029
-0.306662
0.222031
0.301588
-0.729198
2.215808
0.787141
-0.225266
-0.222863
0.726317
-0.266537
-0.959049
-0.431541
0.228296
0.373416
-0.103764
-1.757035
-0.011666
1.515349
0.330543
1.577950
-2.178499
-0.067247
1.100466
-0.401237
1.234574
0.313575
0.645172
-0.987386
-0.275139
-0.213701
-1.390835
-2.077244
-0.479225
-1.047675
-1.284190
-0.607089
-0.381696
-1.184158
2.206479
0.595919
-1.052457
0.683494
-0.722183
-0.569633
1.327139
-0.079876
-0.186410
-1.519250
0.172899
2.361859
-0.208536
1.927629
-0.590231
-0.876411
-0.220986
-0.986215
0.003193
1.698676
0.850949
-0.387168
-0.701941
0.505062
-0.619130
0.106042
0.504838
-1.632259
0.263097
-0.716118
0.236520
-0.586602
-0.135806
0.281927
0.739996
0.030805
-1.583485
-0.611872
0.075315
-0.253680
0.588803
0.176464
0.756006
-0.050810
2.043385
-0.511772
-0.836601
-0.380713
0.468420
0.179006
-0.362793
0.784216
-0.658707
-0.445045
1.980863
-1.287938
0.630392
1.371630
-0.839477
1.285918
0.134063
-0.887184
1.945933
-0.165908
0.985540
0.567197
-0.910928
0.133142
-0.804270
-0.443833
0.638677
-0.339810
-1.713802
-0.576511
0.841817
1.000649
0.484008
0.076269
0.755251
-0.738117
-1.712636
1.518939
-0.816337
0.008620
-0.949137
1.218075
0.838777
1.005229
-1.645008
0.381189
-1.195684
0.725075
0.586891
0.264192
0.267211
-1.645212
-0.505021
0.598050
1.289954
0.333509
0.681367
-1.247416
1.336802
0.114940
0.119398
0.906855
-0.678064
1.093939
0.143869
-0.876336
-0.685747
1.029596
1.530565
0.196439
-2.188108
2.111541
-0.167483
-0.750713
-0.154410
1.684678
-2.040684
1.250822
-1.655418
-0.394284
-2.900591
-0.177587
0.324807
-0.173010
2.103687
-0.873033
0.124259
-0.523791
-0.311688
0.287936
-0.532551
-1.006629
1.146133
-1.765232
-0.647686
-0.690241
-1.136487
-0.199182
0.936054
-1.163601
-0.765419
-0.835619
-0.676874
1.060738
0.466877
-0.170477
0.754531
-0.788770
0.555533
0.979125
-1.489984
-0.756156
-1.894347
1.073540
-0.725455
0.499770
-0.293552
1.499088
3.309438
0.428265
1.753908
0.073164
-1.291126
-0.590196
2.655275
0.370834
-0.327889
-0.110301
-1.327362
-0.778714
1.336738
-1.839144
0.901458
-1.836330
0.352949
-1.969934
0.515564
1.210321
-0.540303
-0.604698
-0.099241
-0.153993
-1.400989
-0.096486
-0.859838
0.727735
-1.073886
-0.006682
0.870834
-0.316981
-0.116422
0.895949
1.328802
-0.773142
-0.400032
1.446122
-0.463522
-1.460825
0.553155
0.503645
-0.774428
-0.002806
2.096656
-1.554872
1.211502
0.138497
-0.698816
-2.003635
0.440219
-0.230498
1.272759
0.744331
-1.160063
0.036552
-0.040734
-1.480835
-0.511639
-0.084619
-0.565695
0.137074
0.284141
0.325391
-1.692684
-0.434866
1.802095
0.748089
1.202189
-0.932978
-0.663635
-0.437241
0.574799
-0.811474
0.697899
-0.947974
-2.125292
0.228035
0.183089
0.801663
0.899531
-0.071342
-1.705542
1.129353
0.724125
1.124383
-0.067840
0.295818
-1.625927
0.711844
0.815330
-0.296671
-0.203949
0.842994
-0.835691
-0.354695
1.620607
-2.448366
-0.823363
1.542966
1.897422
0.780249
0.757400
-1.168809
0.298152
-0.747707
-0.776685
1.820660
-1.683183
0.428214
-0.829592
1.976200
0.281146
0.948762
-0.626221
1.439648
-0.249788
-0.633790
2.263604
1.529133
-0.765429
1.788314
1.587969
-0.609504
-0.780210
-1.354981
2.179627
0.458220
0.783073
0.115793
-1.060664
-0.653133
0.980204
1.445158
0.759700
-0.330062
0.541677
1.059059
-0.155326
0.906307
1.562374
-0.357146
0.117651
-1.441071
1.023519
-0.082149
-1.113167
1.297853
0.060531
0.248174
-0.883432
-0.463606
-0.540690
-0.303035
-0.554207
1.311054
1.150619
-0.553962
1.151031
-0.374585
-0.332187
-0.324959
-0.663902
-1.232293
-0.365287
-0.604833
0.172738
1.440190
0.897732
0.886954
0.350211
-0.374934
-0.165486
2.229887
-0.159672
0.557340
1.183298
-0.369011
-0.975358
0.861926
1.435170
1.902885
-1.389849
-0.019663
0.582449
-1.230119
-0.111106
-0.796562
0.423228
-0.796133
-0.623779
0.333363
-1.008372
-1.181575
0.388014
0.862549
-0.137524
-0.973039
-1.741217
-0.035666
0.466798
0.225718
-0.947751
-0.042365
0.424151
-0.142277
1.216789
0.424476
-2.645055
-0.382945
1.798801
0.631588
-1.645287
1.606186
-0.289996
-0.322363
-0.587407
-0.273943
-1.922118
-0.597240
-0.173408
-0.204589
-0.149231
0.773003
-0.386069
0.528032
-0.679590
-1.683565
0.639298
0.533579
-0.714397
0.999474
0.477193
-0.366516
-2.278466
1.103541
0.591523
1.648465
-0.434900
-0.037828
0.072472
-0.969073
-0.335895
-2.307223
0.103376
-0.146740
-0.650147
-1.930020
-0.544712
-0.128620
-0.132627
0.847884
-0.617004
-1.799612
1.556269
-1.103299
0.406608
-0.165481
-0.906056
0.307607
0.698471
0.528849
-0.336130
0.490172
-0.175344
1.424019
0.267069
-0.235919
-1.882665
0.200731
-1.167782
-1.075678
2.047694
0.954680
-1.146216
-1.370575
1.429215
-2.136034
-0.829981
0.366425
-1.317799
-0.979996
0.842382
-0.595209
-2.086368
-1.645276
-0.067875
-0.277273
0.859377
0.043089
0.383951
0.297189
-0.461198
2.021683
-0.632484
-0.021269
0.529301
0.761378
-0.137358
-0.865645
-0.469400
0.584389
-0.800336
0.900840
0.840084
0.258001
-0.799968
0.106592
0.446949
-0.659313
-2.514789
-0.190018
0.058624
-1.324769
0.286746
-0.797040
1.201112
-0.897855
0.335928
0.411091
-0.601077
-0.941480
-0.739082
0.735546
1.469412
-0.351601
-0.449045
1.325738
0.097315
0.352281
-0.449074
0.297465
-1.930065
-0.245432
1.002445
0.094031
0.875973
1.318648
-0.548670
-2.150884
-0.765122
1.509216
1.886196
0.458872
-1.484208
0.226191
-0.548396
0.203144
0.331532
-0.654564
0.833593
-1.141154
0.632240
-0.351829
1.922599
0.256322
0.133263
-0.371841
0.527416
-0.015916
-1.365294
-1.159762
0.485767
-0.849020
1.279986
-1.372602
0.159100
0.168101
1.037620
-0.813953
1.169514
-1.373859
0.051610
0.298681
-0.905431
-0.458355
0.696772
0.430614
-0.607294
-0.243323
0.668389
0.436381
-0.967892
0.206460
0.026810
0.204593
-0.919707
-0.927768
0.157714
-0.451354
1.843862
0.624902
-0.383698
-0.497675
0.413357
1.254473
0.369528
0.761028
0.616444
2.068439
0.449344
1.472967
-0.265947
1.230957
0.488606
-0.638036
-1.746760
-1.365859
-0.379791
-0.406857
0.251795
-0.300973
-1.770216
-0.354369
0.393792
0.547791
-0.954142
1.235826
-0.800972
-0.476734
0.581795
-0.332006
-1.760376
0.072425
0.506323
-0.176230
-0.018222
0.417821
0.556044
0.445265
-0.536581
0.088223
-0.995351
-1.791073
-0.343703
-0.565771
0.098543
-0.673887
-1.003539
2.048039
1.442512
-0.069353
0.125559
-1.154261
0.433798
0.014257
-0.152208
-1.835486
-0.236189
0.945292
-0.067440
0.039842
-0.210711
-0.184775
0.327208
-0.733003
0.346604
-0.372102
-0.293859
0.233657
-1.195138
1.406978
0.320784
-0.324099
0.123651
-2.437300
0.441887
0.501135
0.654450
-0.452614
0.922766
1.470050
0.203638
-0.048674
0.554802
-0.212203
-1.336412
-0.542553
0.045915
-2.568362
-3.141103
0.811056
-1.975500
-0.062893
-0.254944
0.852113
1.277784
1.090023
-1.489018
1.502765
-1.153159
-0.117333
0.944690
0.256908
-0.268229
1.028422
2.511451
1.408869
2.487199
-1.769289
0.471056
1.764247
-0.440575
-1.196912
-1.403029
-3.087465
-0.709265
-0.808192
1.704021
-0.590116
-0.001604
-0.414494
1.050053
1.308091
0.729348
-0.605772
-0.405405
-0.959246
0.715287
-0.056763
-1.101210
0.938135
2.048073
1.087595
-0.952282
0.781895
0.950091
2.174334
1.407198
2.342505
0.658237
0.961124
1.202801
-0.420060
1.145496
-0.224233
0.355802
-0.265776
-0.219157
-0.536988
0.169231
0.614368
0.027838
-0.118385
-0.387121
0.417122
-3.873453
-0.953713
1.187195
0.830347
-1.633120
0.986414
0.048138
0.364986
0.325654
-0.279351
0.407553
0.933825
0.469320
0.535586
-0.657975
1.176677
-0.735140
-1.294804
0.064994
0.207854
0.755161
1.662086
1.565867
0.088181
0.279666
0.488318
-0.142091
1.727467
-1.107903
0.083352
-0.936732
1.174217
0.833574
1.985320
0.386489
-0.031517
0.798171
-0.321915
1.876056
0.609704
-2.177946
-0.753394
0.320885
-1.047584
-0.031442
-0.484900
-0.919866
-0.980308
-0.416484
-1.603034
2.423206
-1.119397
1.438951
-0.572379
-0.128479
-0.170635
-0.877255
-0.538581
0.990262
1.224060
-0.996503
-1.389706
-0.598513
0.215090
-0.337706
-1.034537
-1.627518
-0.568542
-0.028123
1.917727
0.330188
0.259058
-1.907456
-0.702691
1.663382
-1.299601
-0.358069
-0.302700
-0.461195
-1.204534
1.551611
0.866205
0.584878
2.154567
1.221792
-0.300190
-0.760079
0.994484
0.820479
-1.283845
3.673492
0.379632
-1.414423
-0.234557
-0.253302
-0.624462
-1.300913
-1.137178
-1.440591
-1.160178
-1.750558
0.412154
-0.663736
-1.011006
1.416167
0.309511
0.009040
-1.958274
0.462117
-0.811060
-2.532279
-0.351601
1.633957
-1.786915
-0.288494
-0.245868
-1.253735
0.156483
0.748487
0.319764
1.855519
-0.929882
-0.385485
2.009101
-1.689366
0.652556
-0.646821
2.054856
0.594889
-1.126910
-0.021698
0.656295
-0.393707
0.673948
-1.256111
0.250330
-1.039980
0.142328
0.418225
-0.541745
-2.148442
-0.026896
1.550121
0.000162
0.524031
0.083037
-0.205561
1.251350
-1.010231
0.502940
-0.108679
-0.080555
1.051400
0.316799
-1.486373
-1.198768
-0.634377
0.516915
-1.315644
-1.588492
-0.146056
-0.289334
0.206579
0.275691
-0.657569
0.423622
-0.029451
-1.592920
0.799937
0.370125
-0.285065
-0.049894
1.242512
-0.366807
-1.620566
1.055859
-0.416542
-0.014410
0.686990
0.277017
0.138995
-0.275497
-0.816214
1.664376
-0.523527
0.455972
0.986312
-2.214162
-0.390271
0.619219
-0.180664
0.956295
1.095234
0.576984
0.848655
0.884367
-0.262805
-0.955064
0.048068
-0.327177
-0.347115
0.465724
-0.370449
-0.983505
-0.948564
-0.868715
-1.121741
-1.089255
0.419832
-0.671432
-1.183894
1.089486
0.424897
-2.622054
-0.487378
0.113738
-1.167344
-1.751042
0.038571
0.386102
-0.544448
-0.965246
-1.006587
0.273017
-0.084264
1.550192
0.761498
-1.082745
0.644438
-0.230891
-0.780719
1.321603
-0.291984
-0.422402
0.636219
-0.385409
-0.971279
0.064730
-0.203795
-0.147832
0.918543
-1.847207
0.560547
0.993318
0.031757
-0.283706
-1.227808
0.886120
-0.381566
-0.978839
-0.269788
-2.095382
-1.328166
-0.823479
-0.136016
-0.292973
-1.576895
-0.470309
-0.330776
-0.739821
1.543916
-0.987427
0.292530
0.368046
1.148179
-0.423750
-0.910055
-0.499554
0.376509
0.935260
-0.076525
-0.861547
-0.497332
0.241690
-1.533041
0.604878
2.499422
-0.428261
1.285247
0.632128
-0.327166
0.288619
0.504115
1.968929
-0.584627
0.105565
-2.080181
-0.345054
1.294984
0.181608
-0.528946
0.754089
0.190535
-1.126732
-1.117031
0.466622
1.190059
0.082433
-0.285156
1.924404
-0.314845
0.050350
1.185351
-1.106720
-0.423601
0.087332
0.304524
-0.757885
1.333609
0.447456
-0.386311
-2.115933
-0.502388
1.357851
-0.024902
0.945741
-0.742970
1.318544
0.538621
0.386447
0.327260
-0.996404
0.091161
2.478821
-1.194219
-0.289990
-0.361708
-0.829145
-0.072609
1.102689
-1.003588
-1.403117
-0.498851
0.271107
-1.064952
-0.177707
0.781469
0.449695
-1.425548
0.368962
0.176879
-0.608504
0.111481
-1.179688
-2.059201
-0.079506
0.331836
0.939645
0.250427
-1.352177
1.330117
0.701457
0.546839
-0.760209
2.161544
-2.489174
-0.546602
0.230566
-0.397476
0.027631
-0.464041
-0.839431
0.175469
1.518028
0.221501
-0.563673
0.454595
-0.115509
0.497543
0.936140
-0.496768
1.071667
0.115520
0.420470
1.056634
-0.897026
-1.119949
0.783077
1.204078
0.123362
0.839123
0.885928
-0.920216
-1.052153
0.159316
0.476266
0.057818
0.890700
-2.037532
-0.787749
0.182313
1.131944
-0.230568
0.458880
1.301041
-0.656530
0.090526
0.943403
-0.595232
1.731139
0.811943
1.421104
-0.549764
1.511039
-1.260608
-0.319236
1.359945
-0.735792
-1.104506
-1.111377
-0.559088
-0.519776
1.145791
1.446942
0.536695
1.658945
0.259000
1.144421
1.023650
0.709185
1.335519
1.145431
-0.183138
-2.190339
-1.190714
1.689278
1.266902
-1.362999
-0.610577
0.053981
-0.613953
1.026193
-0.498689
-0.931679
-0.674073
-1.639787
-1.770428
-0.673580
2.146016
-1.678545
-1.382504
-0.300604
0.965499
-1.765976
-0.560656
-0.568441
-0.648978
-1.781125
0.907701
0.575874
-0.559291
0.345427
0.017506
-0.838140
0.728745
0.324867
0.943655
-0.444727
1.771897
-0.150921
1.544846
-1.231728
0.825266
1.849871
0.288721
-0.688437
-1.066314
-0.158805
0.518773
-1.456583
-0.093304
-0.076074
0.062946
0.390970
-1.372483
0.687342
-2.954299
1.691168
-0.961055
-1.491155
-1.411966
0.042178
-0.007351
-0.968038
-0.550495
0.825165
-0.737756
-0.567831
0.268038
-0.615278
-1.204235
0.706052
0.505458
2.490419
-0.249276
0.551064
2.812961
-0.853694
1.404534
1.525349
-1.049083
-0.301234
0.136106
-0.747192
-2.039070
-0.308522
-0.032618
0.914252
0.425340
-0.308345
-0.760576
1.197821
0.593429
1.064884
-0.486591
-1.059242
-2.026322
0.576739
-1.167053
-1.154344
-1.695434
-0.264923
1.036192
1.284840
-0.039716
0.766758
0.860647
0.040266
1.273633
-0.362062
1.040352
1.394627
1.021245
-0.808507
0.351329
0.018622
-1.088599
0.197328
0.344719
0.337524
0.948448
1.086006
-1.024307
0.437515
-1.024027
-0.624307
0.086931
0.012109
-0.415569
-0.114910
-0.451101
0.586412
-0.869553
0.080781
1.948726
-1.882520
0.155203
-1.166859
-0.511462
0.604528
-0.167072
-0.192110
-1.178046
0.155349
-0.248138
1.776751
-0.135583
0.733075
-1.276620
1.151461
0.457703
0.420625
-0.398452
-1.410526
-2.196837
0.396803
1.294028
1.259755
0.704898
-0.956915
-0.495704
-0.102338
-0.374793
-1.726625
0.642063
0.035484
-0.125561
0.615134
-2.162868
-1.257855
-0.036716
0.478102
-0.309122
0.128459
-1.791825
-0.734626
0.877799
0.205050
-0.247369
0.646804
1.685626
-0.753325
0.616830
-0.620209
0.600591
-0.081254
-0.365676
0.820435
0.478942
1.583398
-0.853096
1.098679
0.835591
-0.498119
2.554225
0.900933
-1.220116
0.221829
-0.128092
0.571773
-0.783564
-0.519322
-1.441690
-0.417219
-1.406310
1.181952
-0.057534
1.234990
-0.023819
0.014716
-1.343227
-0.689698
-1.158728
0.577937
0.438825
-1.473724
-0.274004
-1.188323
-0.416072
0.070888
1.032367
1.702800
1.186832
-0.388223
0.465327
0.222534
-0.312558
0.014424
-0.043566
-1.363559
-0.181963
0.991980
-0.212260
-0.313470
0.937090
-0.225822
1.776510
0.774784
-0.216424
-1.260653
-0.150411
1.060295
-0.898196
-0.301661
0.392434
1.407732
-1.040554
1.199657
-1.268929
-0.750219
-1.845440
-0.643437
-2.343378
-1.035577
-0.561606
0.315301
-0.137666
0.951493
-0.936936
0.252992
-0.240769
-0.853839
-0.899333
-1.883539
-0.461345
1.454893
-0.832239
-2.145970
-0.137104
0.784904
1.416720
0.256817
-0.361583
1.173305
-0.630036
-0.294361
0.070161
1.421395
-1.726319
-0.584572
-1.093911
-0.326226
-0.256949
-0.514986
0.838289
0.075815
0.077397
0.311214
0.993911
1.240319
0.041820
-0.377768
0.582573
-1.886717
-0.793422
-0.212661
0.979615
0.841389
-0.937600
0.293491
-0.003202
-0.662399
0.325470
-1.041855
-0.621094
0.192066
1.174325
-0.003979
-0.113513
-0.494625
0.736859
1.763146
0.875483
-2.029793
1.794541
0.160498
-0.532672
2.605994
2.433620
1.664582
0.925553
-0.050883
-0.579884
1.595004
-0.769961
0.788967
0.225764
1.710387
-1.850487
0.742293
-0.099632
0.411450
-1.771747
-0.681894
-0.331878
-0.530003
-0.748152
1.058365
1.637381
-1.904602
-0.203739
-1.049585
-1.908627
0.174892
-0.127319
-0.286321
2.023822
-0.356470
0.116273
1.083062
-0.921959
-0.633879
-0.274299
0.268882
0.557064
1.179676
-0.771009
-0.944208
-0.590523
0.262752
0.620632
0.632638
1.224312
1.395888
0.937337
0.384833
-0.098413
-0.671485
-1.911074
0.408697
-2.190080
0.207200
1.004782
-2.040788
0.210036
0.978286
0.513906
-0.353909
0.714130
-0.741345
-1.244225
0.772599
-0.341575
0.461427
-0.886369
1.198839
0.316437
1.366492
0.074698
0.618792
1.590577
0.590144
0.829246
0.151488
0.935792
1.682616
-1.997650
1.852502
0.591157
1.247429
0.268235
-0.300749
-1.218843
-1.411849
-1.487148
-0.273709
0.551091
0.117623
-0.541088
0.294917
1.558949
-1.202357
0.936352
-1.848159
-0.053562
-0.410362
0.304498
-0.482451
0.199752
-0.577815
-0.670952
0.516808
-1.017899
1.724469
0.402218
-0.085342
-1.768065
0.294720
0.273153
-0.189257
-0.766275
0.059761
-1.527152
0.572520
-0.822817
-1.603146
-0.165917
-1.015042
-0.208225
0.576285
-0.426360
0.342892
0.476641
0.513133
0.298052
0.260952
-0.249380
1.258200
-0.305508
-0.540793
1.336922
-0.769563
0.098586
-0.515197
0.306013
0.763505
-0.882075
1.618555
-0.098192
1.148393
-1.168645
-0.437949
-1.488134
0.268176
0.484412
-0.889344
0.037638
0.005821
-0.090115
-1.214694
0.751938
0.026656
-1.960445
-0.604665
-0.454607
-1.413980
-0.819201
-0.215772
-0.459760
-0.805588
-0.353740
-0.609063
-1.426265
-1.457353
-1.797192
-0.690187
1.077690
-0.010916
-0.979479
0.682375
-0.269498
-0.202191
-0.547420
-0.039205
0.914639
0.440650
1.489170
0.704151
0.581158
-1.537901
0.352339
-0.025830
1.008003
-1.038736
-1.196507
0.007133
-0.158569
-0.223679
-0.128179
-1.904265
-0.655487
0.243080
0.555606
1.401276
0.723847
-0.845788
0.346294
-1.165665
0.543630
-0.128927
-0.995180
-0.845864
1.717471
-0.889867
0.504722
-0.505291
0.627366
0.052966
-1.372922
-0.301411
-1.385305
0.120400
-1.202758
-1.026183
-1.084595
-0.343301
-0.010277
-0.738720
0.175468
1.354150
-0.678420
-0.587067
1.139694
-0.956728
-0.491862
0.011503
-1.047217
1.201436
-0.304641
1.630436
-0.268896
-2.266312
-1.140459
-0.464266
-1.551406
-0.055010
0.560844
0.496604
-1.677706
-0.789470
1.162034
1.010841
0.775833
-1.045058
0.262804
-0.250350
-0.729891
-1.106858
1.375335
-0.115716
0.545171
-0.773623
-0.163104
-0.539484
-1.709087
0.401404
0.155911
1.346124
0.575383
-0.957952
0.291498
-0.250833
-1.503629
-0.165665
-0.199406
0.506704
0.932664
1.106117
1.047120
-1.029262
0.470448
-0.367968
1.890777
-0.538957
0.848790
-0.269702
0.011293
-1.192052
-0.731974
0.177178
-1.926894
0.736236
0.788540
1.554121
0.683061
1.938709
-0.917398
-0.925256
0.523308
1.019415
-1.991623
1.972946
-1.528824
-0.684803
-0.140355
-1.294908
-1.606513
-2.073505
-0.061562
1.227990
-0.659673
-3.749241
0.015473
0.378938
-1.072088
-0.102513
-1.801598
-0.471833
-0.230262
1.377142
0.781968
0.621897
2.785304
-0.285308
-1.764850
0.856605
0.137966
0.864675
-1.519711
0.476225
0.331437
0.402217
-0.956867
-1.230608
-0.481571
0.741441
1.159230
-2.264229
-1.392652
-0.109919
-0.466221
1.228725
-1.064095
1.021710
-0.223786
0.739428
0.051550
0.816858
-0.577465
1.170665
-0.283048
-0.769163
1.264835
-0.385732
0.203707
-0.418677
-0.962874
1.303565
-0.515420
0.835851
3.249946
-0.814279
0.254353
-0.273383
-1.436555
1.026890
0.825901
-0.106291
-1.733600
0.161576
0.101022
0.214120
0.136436
0.852158
0.581385
-1.091277
-1.332224
1.192505
0.827650
-0.023902
-1.243544
0.645689
0.473345
1.903471
0.650933
-0.678012
0.260961
-0.793876
-1.758065
-1.334897
0.522872
-1.310498
-0.246313
2.023480
-0.647301
-1.625374
-0.497142
-0.427230
1.354189
-0.974892
0.267834
-0.987089
-0.702840
1.273911
-0.555965
-0.327604
0.819861
-0.371099
-0.676074
0.029519
1.590343
-0.386109
-0.548825
-0.302908
0.132724
-0.232230
-0.864614
1.274115
0.730788
0.047377
-0.551483
0.365378
-0.262735
-0.501877
0.605549
-0.745128
1.064533
1.338055
0.425974
0.056317
0.276335
0.536675
0.849277
0.021173
-1.302024
0.004130
-1.286461
1.844677
-0.283220
-0.871170
0.509324
-0.932978
-0.310527
1.416996
-0.490671
1.346834
-0.171855
-1.382265
-0.937963
1.372064
0.647576
2.599744
0.142499
0.401804
1.070141
0.074719
0.921067
-0.112166
0.542850
1.014745
0.890358
-1.067558
-0.088851
-0.027840
-0.861027
1.057762
0.239904
-1.037650
-0.153339
0.075797
-0.632191
1.318020
-1.065160
-0.394497
0.818971
-0.887498
-0.189254
-0.473093
-0.825681
-2.114029
-0.172596
0.073975
0.680649
-0.033061
0.811407
0.583603
-1.253801
-1.014783
-0.713666
-0.613455
-1.226569
-2.581803
-1.721253
-0.418566
-0.817599
-2.331079
0.242167
3.325268
0.071806
-0.211163
-1.120280
-0.875547
-0.230817
-1.843330
-1.774680
1.642371
-1.629914
1.908445
-1.580027
-1.090337
0.492098
-0.333792
0.408523
-1.178681
-1.230122
-0.435958
1.889504
-1.300567
-1.384643
1.152810
-0.410703
0.977011
-0.895982
0.813144
0.551845
-1.067326
0.820964
-1.380062
-1.057642
-1.003657
0.077685
-1.516810
-0.774899
-0.260574
0.422139
-0.257224
-0.361424
0.338969
1.753812
-1.297350
-1.065471
-1.608680
-0.045922
-1.119377
1.083729
-0.354343
-2.746936
-0.358215
-0.252295
-0.109616
-1.333152
-0.119236
0.484767
0.018351
0.951817
-1.362561
-1.251528
0.243903
-0.652937
-0.744781
-0.594312
1.647805
0.316186
-1.378902
0.036496
-0.422728
1.359438
-1.649586
1.015937
-0.344987
1.365094
-1.120290
-0.698768
-1.011442
0.140406
-0.093160
-0.702981
0.799224
-0.267635
-0.998395
0.232425
0.859973
-0.777321
-0.206641
-0.591713
-0.579345
-1.925634
0.472208
-0.737049
-0.474141
1.249407
-0.473322
-1.517812
0.053116
-1.315485
-1.157245
-0.354282
1.428008
-0.946214
0.765537
0.247357
0.233855
-0.347012
0.209272
-1.147310
0.953381
1.373441
-0.708792
-0.178235
-0.370562
0.576771
-1.168625
0.775075
-0.396406
-0.740464
1.982019
1.351147
0.873816
1.201991
-1.911233
-0.262209
-0.991088
-1.247745
0.677342
-0.100791
-1.457667
-0.254189
-0.483053
0.522709
-0.856803
0.388144
0.180315
-0.358084
-0.165503
0.819537
-1.215899
-0.511737
-1.809047
0.644954
-0.523662
-0.554217
-0.056018
-0.186528
0.077948
-0.308225
-0.033826
-1.052516
0.325153
-0.680054
1.948660
1.494651
0.273578
1.289047
0.534743
-2.044899
0.193072
-1.359078
-1.679656
0.732044
-0.858497
0.436230
-1.420957
1.208923
0.213105
-0.938181
-0.937427
-0.512418
-0.587684
-0.304891
-0.540961
-0.112561
0.872410
0.297086
0.106103
0.883609
-0.966388
0.734971
2.674483
0.114885
-0.456909
-1.396419
-1.275554
-0.121853
0.995989
-1.177215
-0.550350
-1.008152
0.096044
1.599578
0.140790
0.594236
-0.197313
-0.054746
0.077517
0.326595
-0.375119
0.188283
0.070480
2.042286
-0.245594
0.835867
-0.846598
-1.285072
-0.067882
1.035820
1.581567
0.359778
-0.176177
-0.648512
-0.725959
-0.050463
1.167546
-0.527272
-0.596484
0.381205
0.106434
-0.051794
0.558490
0.215656
1.542241
2.751386
0.604524
-0.316702
-0.346766
0.378804
-0.374634
1.735160
1.073707
-2.268230
-0.262471
0.503051
0.261050
1.337053
0.379142
-0.242873
0.608093
0.539597
-1.275479
0.912475
-0.504243
-0.828348
0.528184
-0.497657
-1.870213
0.628305
1.098315
-0.744847
-0.116462
0.642895
0.076468
-1.646853
-1.552020
0.141540
0.478243
0.597107
-1.117710
0.961662
-0.812553
0.296931
-2.059206
1.421316
1.562906
0.145931
-0.592848
0.641613
-0.319081
-0.507690
0.502811
0.131457
-0.487826
1.893201
-1.121021
-1.795644
-1.031399
-2.643666
0.091098
0.619694
0.442883
-1.037781
-0.042655
1.287309
0.342814
1.211635
-2.090177
0.397071
0.092563
-0.897852
-0.217089
0.455769
-0.319604
1.143286
0.718519
0.694662
0.481411
2.026477
-0.568636
-0.520626
0.484836
-0.638752
2.275678
0.213475
0.789802
2.332662
1.430226
0.323274
-1.053170
-0.671944
-1.439957
-0.057779
-0.615751
0.770466
0.519693
1.189795
-1.398260
0.281851
-0.313417
0.180698
1.664036
0.330670
0.385844
-1.052248
-0.467334
-0.445172
0.406565
0.550771
1.410339
-1.639706
1.304519
-1.493686
-2.676852
-1.202417
-1.658813
-1.196108
-0.111944
0.163384
1.011059
-0.460598
-0.764892
0.584730
-0.537161
-0.552607
0.408964
1.392735
-0.349333
0.261033
0.807164
-0.484164
0.054875
-0.300953
1.645867
0.548899
0.538213
-0.868805
0.377148
-0.622368
0.993923
-0.025067
0.039319
-0.158322
1.162461
0.099118
0.584278
-2.140164
0.149566
0.044812
-0.676153
1.949292
-1.347752
1.957260
0.790652
-0.225788
-0.466707
-0.722248
-0.066821
1.660735
-0.307444
-0.248151
-0.297314
1.058496
0.345636
0.145966
1.023567
-0.876410
4.006807
-1.222435
-1.278238
-0.288777
1.224472
1.319847
-0.990121
1.579373
-0.879118
1.004612
0.131292
0.354681
0.726807
-0.827051
-0.043716
-0.693907
-2.878246
1.458196
0.977536
0.425344
0.487635
0.611767
0.323068
0.016219
0.576327
-0.406786
-0.487753
-0.737803
0.666721
0.034502
0.757042
-1.073223
-0.305238
-0.929029
0.359039
-0.963448
0.803924
-0.428557
-1.233386
-0.376316
0.597386
1.094514
-0.001143
0.939847
1.010111
-1.349986
1.554229
-0.599594
0.558459
1.698562
0.197970
1.423676
0.221630
-2.018867
0.934893
-0.054962
-0.586072
-1.306234
0.792321
2.456328
-0.943074
-1.722387
0.304769
-1.258219
-1.649202
0.999033
2.073469
0.029006
0.259947
-0.214623
1.035024
-1.254778
0.283986
1.413980
0.695416
-0.500391
1.555563
-1.095349
-1.011054
0.190642
-1.316281
-1.474967
0.059779
-0.710587
0.161885
1.016172
-0.423645
0.333951
-0.115937
1.491344
-0.595094
0.428902
-0.410179
-2.423528
-0.887061
-0.813732
0.389296
-0.333151
0.115893
0.950858
-1.275361
-0.009130
0.521417
-0.429828
-0.255093
1.530764
0.476392
0.930462
1.403170
-0.937468
-1.247382
-0.454746
-1.312635
2.932138
-1.308476
-0.545990
-1.626260
-0.359306
1.365946
-0.498244
0.870184
0.125684
0.921506
0.438722
-0.520690
-0.095109
-0.409891
-0.796588
-0.727511
-0.480750
0.472798
-0.803982
-0.233054
-1.498928
0.304373
0.060511
0.957233
-0.546019
1.295274
0.257262
-1.504119
2.591983
0.043374
-0.716673
-0.588581
-0.132888
1.305053
-0.385373
1.622793
-1.115658
-0.914883
1.256512
0.259443
-0.904242
1.340462
0.675880
0.650847
0.063700
-0.706845
-0.903585
-1.111505
-0.143559
-0.126306
0.011368
-0.766111
1.541989
-1.271385
0.070087
-0.778937
0.021009
-0.287090
-0.183986
-0.674241
2.167538
1.898102
0.332684
0.419106
-0.955015
1.580002
-0.866234
0.328957
1.999892
-0.719802
0.357982
-0.456271
0.549914
-0.621402
-1.614465
-1.767986
0.913345
1.057314
2.149558
0.953736
0.394757
-0.070138
-1.269066
-1.467273
1.149494
-2.314899
1.149905
-0.800321
0.772886
0.384945
-0.835884
1.034353
1.704625
0.755391
-1.002430
1.119412
0.870704
0.280739
1.017245
0.785867
1.060259
0.282501
-0.709108
-1.744633
-1.725030
1.245028
-0.520312
0.895601
-0.252936
-2.014651
-0.367110
2.429817
0.028820
-0.614237
1.061115
1.342571
1.520700
-0.354124
-0.877251
-1.350903
0.163203
0.970558
-1.707295
-0.732008
-1.200480
-0.808065
-2.099350
-0.977306
-0.405016
-0.400396
1.011697
1.119158
-0.422575
-0.266131
0.748712
-0.033207
-1.270664
-1.423396
1.501239
0.997724
0.774826
-1.703968
-0.794352
1.581636
0.564199
-1.411185
0.163901
0.279296
-0.997081
1.977916
-0.598345
-0.874867
-2.316642
-0.869345
-0.487828
-0.841560
0.561318
-0.130841
2.468027
0.231893
-1.053203
-0.234609
0.145274
0.618816
-1.178803
0.197461
1.430658
0.561845
1.771147
0.552915
1.009564
0.723074
-0.375490
-0.532026
0.206155
1.373644
1.687315
-0.927365
-0.016846
0.043420
0.330601
1.505376
-0.973933
-0.804938
-0.724524
0.796867
0.099939
0.422749
-0.951456
-1.607933
0.959221
0.141543
-1.375916
0.550255
-0.658322
-0.133868
-1.108189
1.800893
0.526864
-0.425371
-0.206921
-1.041524
0.242853
-0.860969
-1.289740
-0.174959
-0.197485
0.025143
-0.058734
0.719438
0.853921
-0.222509
1.064984
-0.858164
3.647260
-1.224566
1.262196
-0.064042
-0.498838
0.906869
-0.810811
2.541867
1.000481
0.073304
0.186111
0.825450
0.109298
0.878831
0.405850
0.543928
-0.451074
0.321233
-0.203453
0.822156
0.261066
0.092467
0.319647
-1.432541
1.478165
-0.458684
1.750019
1.276756
0.549241
0.924691
-0.533762
0.838241
-0.685398
0.628139
0.185136
0.983091
-0.007804
1.310045
-1.669267
0.161819
-1.037072
-0.891386
0.738206
-0.394782
-1.661677
-1.754412
-0.552426
-0.355258
-0.033060
0.168091
-3.621894
0.892970
-0.391593
-0.437646
0.117624
1.106103
-1.174046
-1.907069
1.168976
0.637695
1.146120
1.431627
-1.367756
-1.433693
-0.331155
-0.546116
1.312409
-0.302588
-0.772256
0.820160
-0.637492
0.598546
0.246121
1.009129
0.823921
-1.034150
-1.303582
0.829935
-0.724689
0.349025
-1.068007
1.101802
0.291930
-0.642347
-0.648205
-1.078408
-0.886043
-0.678591
-0.255943
-1.679469
-0.208439
-0.846199
1.351085
-0.581521
-1.178548
0.006790
0.494034
-1.089799
-0.559866
1.551263
-1.400214
0.636787
-1.778816
0.468016
0.939760
-0.911822
0.672921
1.180116
-0.085949
-1.601446
-0.744648
0.061408
-0.883665
1.407840
0.174245
1.076754
0.525205
1.525090
-0.489372
-1.293837
-0.450621
-0.065137
0.685634
0.082174
0.429266
0.712236
-1.438861
0.637032
-1.493158
0.383431
-1.570257
0.328883
1.248926
-0.685199
1.508884
0.799801
-0.724253
-0.522129
2.360787
-0.247720
-0.592848
0.032181
0.032239
-1.172135
-1.103876
0.627408
-1.742353
0.027718
-0.342479
-0.055177
-0.667054
0.129072
1.256162
-0.561729
1.383209
-0.417100
0.130200
0.997646
1.566904
1.155125
-0.252001
-0.112931
0.519841
-0.129944
1.026855
-0.074786
-0.219080
-1.265799
0.979506
0.119831
1.257209
0.210821
0.567419
0.564390
1.790363
-0.786233
1.414858
-0.056951
0.274592
0.164945
0.032711
1.232808
-0.948843
0.396547
1.324409
0.018466
-0.038239
-0.383911
-0.137247
0.512671
-0.414443
1.235172
1.061161
-0.113946
-0.191717
1.277491
0.409973
0.704557
1.350075
-0.549002
0.030067
1.013742
-0.545768
-0.660106
-0.052064
-1.997882
0.193351
0.126332
0.146100
-1.853170
-0.207766
-0.190261
-0.204119
-0.800443
0.583519
-1.414156
0.652514
0.679309
-0.373016
0.362667
-1.668011
1.950020
-1.400274
-0.996345
-0.191690
0.578443
0.126240
-0.015508
0.049777
-2.355935
0.023590
1.466664
-0.154940
0.113486
0.255598
-0.164249
-0.901455
0.739730
0.107424
0.200856
1.484203
1.331958
-0.211934
0.838959
-0.122474
-0.190325
1.116404
-0.197456
0.635403
0.897698
-1.078387
-0.420964
0.699379
-0.915742
-0.111067
0.320414
-0.870850
-0.677998
1.218488
-2.026803
0.201356
0.736253
0.165831
-0.398481
-1.907258
0.411446
0.213278
0.019169
-0.890363
0.818228
-0.669609
-0.655035
0.512398
0.159098
-1.364317
1.432520
2.416693
-1.442538
0.539166
-0.639362
0.118089
0.784577
0.498849
0.811265
0.345472
0.142393
-0.320730
0.472999
0.269289
0.532416
0.202865
-1.207458
-0.333981
-0.376780
0.111222
1.430184
-0.689978
0.701182
-0.083014
-0.487627
-1.368459
1.329664
0.003712
-1.113640
-0.025009
-0.399003
0.699564
0.344415
-0.018026
0.579692
-0.069163
-0.801104
-0.587656
1.046756
-1.087647
0.829041
1.406418
-0.344181
0.532665
0.038181
0.489375
-1.015308
0.606379
-0.227847
-3.114074
1.262146
0.057728
-0.910278
-0.689309
-0.770445
-0.577713
-1.443549
-1.313474
1.134134
1.397142
-1.737602
0.609774
0.547790
-0.170407
1.462683
-1.281532
-0.410923
-0.671862
-0.524590
0.741372
-0.617979
0.415763
-0.299758
0.062782
0.628947
-0.652959
-0.491559
-1.740049
-1.190449
0.669407
-0.066092
-0.468797
-1.304183
-0.521291
0.420341
-1.387054
0.511347
-0.448545
-1.975436
-1.103753
-0.729956
-2.379618
1.114926
0.014538
-0.433586
0.874022
0.754200
-2.156574
-0.076186
-0.772366
1.257231
-0.693825
-1.529608
2.038714
-0.831062
0.329693
0.732262
-0.695988
0.661918
-1.609333
-1.487046
0.408222
-1.139293
0.882948
0.563114
-0.415494
-0.424105
0.494581
0.469519
0.442018
0.338183
-1.011662
0.098410
-0.928323
-0.644472
1.369476
0.707306
-1.536656
1.894339
-0.232496
-0.080951
-0.265341
-0.267440
-0.562128
2.093649
-0.475007
-1.534210
1.178204
-0.421012
1.462589
-1.158476
0.467025
-1.354642
-0.199674
1.546204
-1.882620
0.543291
-0.896593
0.248670
-0.836566
0.853549
0.409843
-0.681578
-0.783349
0.603921
1.553390
1.516987
-1.727666
1.141637
-0.101471
-0.084225
0.067433
-2.010854
-0.286589
0.340354
0.015670
1.232436
-0.665902
1.214284
-0.155779
2.254483
-0.057628
-1.048596
1.520778
0.738609
0.336729
-0.684263
0.707505
0.834420
-0.209608
-1.487498
0.051364
1.395948
-0.505869
0.775302
-0.261389
-0.949992
0.882962
0.344622
0.393831
0.461073
-1.824584
-1.554731
0.042293
-0.022065
-1.795801
-0.566661
2.897711
1.763578
0.187414
0.723692
0.615236
0.376969
0.445573
0.487261
-0.850451
1.581016
-0.961149
0.034053
0.731701
-1.911656
0.021219
0.587153
-1.145186
-0.296425
0.891797
0.588803
0.762721
-0.909011
1.166960
0.176572
0.444788
0.202992
-0.614125
-0.588536
-0.080109
-0.785251
-0.145512
-0.915276
-0.052508
-2.076538
0.269953
1.600183
1.107691
2.047485
1.043548
0.769219
-1.141660
1.163448
-0.013540
1.552695
0.963443
-1.085369
0.093987
1.649999
-0.765705
0.244169
0.023707
-1.063783
1.774672
1.192769
2.540287
0.781801
0.185260
-0.837061
0.043982
-0.160166
-1.231784
-0.836041
1.248411
0.686813
-0.340368
0.109680
0.251804
0.296030
-0.113612
0.483476
-0.719271
2.197824
2.047093
0.185338
0.986645
2.365522
-0.194515
-0.114903
0.461252
-1.849044
-0.087566
0.783848
-0.337449
-2.379563
0.608055
-0.142381
-0.194756
-0.397514
1.771773
-0.401103
0.394617
-2.430816
0.260800
-0.877056
-0.189355
1.202802
-2.484116
0.136432
0.381784
-0.411727
0.845084
-0.628170
1.083601
0.585300
0.106812
0.972981
-0.562196
-1.297349
-0.535927
0.492423
0.254702
-0.428598
1.029307
-0.426029
0.256989
-2.142234
0.811698
-2.799189
-0.714611
0.375550
0.241246
0.772378
-0.148774
-1.181726
-0.877465
-1.197018
1.598869
0.432558
-0.755034
0.987059
-2.318208
-0.026775
-0.408789
-0.565493
0.140517
-0.136129
0.600874
-1.851167
-0.981773
-1.474535
0.909368
-1.358174
1.231739
0.080179
0.345123
-1.464141
-0.764530
-0.209580
-0.367148
-0.178307
-1.099411
-0.248156
-1.721820
-1.305917
-2.681005
0.300281
-0.681575
0.211742
-0.758003
0.709047
0.849438
-0.140165
1.300831
1.404431
-0.166150
-0.407364
0.801733
-0.541280
0.529649
0.839613
-0.665264
-0.999329
0.171045
0.670830
1.382837
0.274459
1.301909
-0.655297
-1.564141
-0.773137
0.099271
3.038005
0.562302
-1.067379
0.668398
0.027744
-1.036865
-0.317417
-0.531097
-0.888634
-0.966824
-2.303560
-0.306095
0.244370
-0.861146
0.618470
-0.299113
0.354010
0.180058
-0.855890
-0.419937
-0.151398
0.484050
-0.148937
-0.849650
1.267190
-0.816459
0.469241
1.620912
-0.868672
-1.375149
-1.246452
-1.454874
0.816405
1.287408
-0.134981
-0.226123
-0.234347
-0.556310
-0.261735
1.004791
-0.533936
-0.854406
-1.596984
1.551192
-0.447232
-0.271101
1.920841
-0.529408
-1.305720
0.002210
-0.750860
0.743261
-0.074355
0.356565
0.450131
1.362900
0.178693
-0.086664
1.040606
0.602441
0.374377
0.545487
1.103129
0.215400
1.855771
-1.125723
-1.162708
1.834459
0.732599
0.097345
0.601465
-0.778500
-0.023384
-0.304218
-1.439091
0.644115
-0.931286
-0.302863
-0.230536
0.291497
0.399060
-0.155959
0.469201
0.445830
3.707171
0.379690
0.811638
-1.746132
-1.072413
0.099107
-0.595478
0.233484
1.360243
0.039633
-0.278262
-0.057113
0.499543
-0.244807
1.149831
-0.502184
-0.613977
-0.663920
0.011198
0.572182
0.668668
1.709540
-0.018393
0.564309
-1.463823
0.730811
-0.088949
-1.365611
-0.316488
0.835448
0.452030
1.818789
0.326317
0.261908
-0.167222
-0.747080
-1.058532
-1.045653
-0.151569
0.308956
0.718002
-2.079018
1.351385
-0.027322
-1.660380
0.707005
-0.518271
0.804956
0.223942
1.111503
-1.702770
-2.072007
1.237395
0.138694
0.851031
0.165803
-0.483075
0.682205
0.223618
-0.057276
1.480542
-0.335973
0.759496
0.649528
0.196849
-0.786066
-0.025666
-0.207569
-0.485657
-0.736140
0.873873
0.632827
-1.017535
-0.830089
0.068175
0.114928
0.477416
-1.297576
-0.367931
-0.179383
-0.720417
-2.205630
-1.653168
-1.681113
0.433213
-1.927163
0.338914
-0.472693
0.409903
0.623048
-0.344312
-0.691879
1.165412
-0.367917
1.519642
0.183468
-0.829506
0.337450
-0.674442
1.053800
0.669134
0.119046
0.782736
1.713014
-1.711342
0.606636
0.080980
-1.687946
0.648020
0.242697
1.119631
-1.197325
0.617760
-0.364284
-0.478493
-0.078100
-0.281479
-1.199566
-1.347519
0.664074
0.734643
0.120474
-0.246833
-0.458839
-0.450159
0.708581
0.456877
-0.040242
-0.340375
-0.830788
1.551253
-1.913910
-0.944514
0.168741
-0.646954
-0.743652
0.445283
-0.863921
-0.136626
-0.858360
-0.623263
-0.103037
0.497514
0.255148
-1.665113
1.325481
0.229802
-0.476113
-0.938915
-0.027806
0.317133
0.225320
0.742497
0.504898
-1.249595
-1.217882
-1.229753
-0.975016
-0.728611
0.159107
-0.551877
-0.062020
-0.464551
0.354790
0.239030
0.339731
-0.128427
0.225150
1.647962
-0.424871
2.078126
-1.196970
0.233385
-0.173446
0.698576
-2.484894
-0.675520
-0.087460
-1.172633
0.200095
0.018832
0.863665
1.066209
-0.396279
0.241921
1.269024
1.766264
0.926507
0.876846
-0.176897
1.095319
-0.351645
0.159023
0.005640
-0.654450
0.878727
-0.413619
-1.557919
-1.020399
-1.829303
-0.271767
1.227124
2.287992
1.568914
-0.030458
1.832390
0.168127
-0.238819
0.960140
1.829812
-0.791026
-0.437008
0.076929
-1.656647
-0.280886
0.927626
1.174052
1.627230
0.461273
-0.823525
0.086111
-0.963797
-0.361875
-1.443818
0.591045
-0.574532
-0.223776
-0.914397
1.039866
0.674391
-0.700985
-0.714215
-0.317521
-1.200056
0.982050
1.299421
1.491460
1.496246
-0.109567
-0.179576
-1.813415
-0.938843
-0.431562
1.391923
-0.398829
-0.722753
-0.203944
1.852109
0.850326
0.755525
0.273111
-1.495790
-2.337732
0.051812
0.899194
-1.253361
-1.128251
0.157683
-1.275254
1.135355
-0.172972
0.187226
1.733377
0.607310
0.602574
0.551490
-0.148506
0.230885
1.662396
-0.493360
1.523743
-0.151860
-0.437780
1.173465
0.403038
0.993739
-1.157943
-0.159599
0.351652
-1.871529
1.710636
0.428387
0.256965
-0.730813
-1.261644
1.323950
0.281221
0.502136
-0.763341
1.429271
2.443430
1.966859
0.952164
-2.360205
-1.113436
-0.614039
0.537473
-2.518384
1.089194
-0.534257
0.677180
-0.494007
-0.745374
-0.354928
-0.456051
-0.428750
-0.268065
-0.507778
-0.447021
-0.921403
-0.642387
-0.483517
0.465174
0.671250
0.042052
-0.198824
2.356937
1.085830
-0.867748
0.370818
0.019076
1.106307
1.088499
-1.009510
-0.387786
1.352893
1.581118
-1.001865
-0.609382
-0.555675
1.886807
0.668340
-1.347621
0.402033
-1.662858
0.007213
-0.682491
-2.490600
0.604794
2.107339
-1.210460
-1.393703
1.238426
1.191219
2.304610
-0.893523
-0.052838
0.941710
1.294002
-0.956396
1.877465
-0.412948
0.644279
-0.247653
-0.449069
0.137980
0.377654
-0.727296
0.952250
0.680283
0.452710
-1.258087
1.014594
1.343886
-0.309461
0.934090
-1.139665
1.257878
-0.138120
0.469464
1.193089
-1.301334
-0.207425
0.107050
-0.489240
-0.089645
-0.827672
-1.079300
0.097119
-0.487474
-1.260251
-0.351255
-0.311045
-0.538655
0.797661
0.997509
0.262296
-0.962871
-0.724540
0.851795
-0.619402
-0.301032
1.348117
-0.091378
0.738175
-2.110338
-0.756765
0.354378
-0.690083
-0.125614
0.224059
0.206355
-0.380613
-0.473774
-0.405829
0.448677
-1.251402
-0.817238
-0.872871
-1.106242
1.553847
-1.915969
0.941278
0.653721
0.766374
-0.522700
0.615586
0.886829
-1.045208
0.746993
1.525388
0.448080
-0.163446
-0.458464
-1.636362
-0.232080
0.537309
2.517358
0.191949
-0.537086
-0.236729
-0.299933
-1.665070
0.756296
0.402040
-0.918970
-0.750316
0.051749
-1.289603
-0.746536
0.328688
-0.913359
-0.146838
-0.268721
0.172121
0.029104
-1.272490
0.676396
-1.614824
-1.731372
0.194570
1.602237
-0.990176
0.192768
0.649266
0.398659
-1.134875
0.074416
1.138461
0.445957
0.143672
2.371541
1.472350
-0.584920
-0.953855
1.031520
-0.319135
-1.027569
-1.460364
0.405102
-0.397859
0.325185
-1.673293
0.528512
-0.370910
1.880798
-0.014091
0.515523
-0.621336
-1.574397
-1.099814
1.202959
1.343017
-1.556151
0.512612
0.996941
-0.974964
-0.926052
-1.891840
-2.676060
-1.328514
-0.192120
-0.152480
0.138730
0.893075
0.853328
-0.514963
1.041277
-0.937039
0.737786
0.406986
-0.275321
-0.342807
1.461144
-0.508178
-2.545584
0.192523
-1.221154
1.284837
0.024910
-1.104140
-0.898210
0.781301
0.520525
-0.234306
0.299934
-0.558897
0.317939
-1.933892
1.084191
0.318918
2.218996
-1.122802
0.518747
1.743128
0.242784
-1.100291
0.418365
-0.314632
-0.065682
0.421451
0.047956
1.960597
-0.902872
-0.850089
0.977649
-0.430607
-1.538605
0.774368
-0.212568
-0.718395
0.085520
1.371965
-0.957795
0.937812
-0.260480
-0.767739
-1.102862
0.406678
-0.731345
-0.778832
1.495960
-1.883807
0.150763
1.211358
-0.211039
-0.094849
0.698267
-2.083797
0.216482
-0.783906
0.441059
-0.178350
-0.784696
0.870987
1.272690
0.386124
0.000838
2.396362
-0.951869
-0.085625
0.939854
-0.618439
-1.373244
0.474029
1.037604
-1.261331
0.574073
1.020994
0.389426
-1.227537
-0.775861
1.777435
-1.955381
1.150132
-1.441289
1.493415
1.561144
1.662356
1.922252
-0.423460
0.768151
0.619205
0.055088
0.328084
-0.360523
0.896777
0.656319
-0.886600
0.447035
1.475931
1.081083
-0.096752
-0.197763
0.458751
1.494150
0.615456
-0.912450
-0.607774
0.419731
0.202448
0.464217
-0.356531
1.654530
-0.721142
-2.099606
1.579183
-2.046251
2.040688
-0.778446
-1.615259
0.081079
0.422538
0.633713
-0.259491
1.510624
-0.346843
-0.509291
1.286888
0.305417
0.410865
-0.254784
0.917216
-0.562980
0.342087
-1.478420
2.411353
-0.253802
-1.798886
0.018634
0.015531
-0.096197
0.241210
-1.116452
-0.113127
-0.576253
0.784885
0.433162
-1.627564
0.354817
0.880068
-0.843816
-0.409495
-0.303600
-0.976928
0.911366
-0.885158
1.893459
-0.719513
0.722780
0.961342
0.026705
2.125039
-0.842190
1.337266
0.625695
-2.532772
1.019800
0.719894
1.304997
-0.240322
1.403426
0.075399
0.014924
1.603277
-1.336282
-0.530745
0.592498
0.276383
1.775208
0.006467
-0.764241
-0.592289
-0.985192
0.235801
-1.322401
-1.997850
-0.119273
-0.168597
-1.530790
0.382927
0.283832
0.051079
0.751063
0.627113
-1.403991
-0.486593
1.069543
0.263953
-1.761673
1.612080
0.261436
-1.617341
-1.405580
1.050693
1.506408
0.269573
-0.602563
-1.046370
0.101012
1.671612
-1.553477
0.268311
-0.466447
-1.076234
1.943919
1.211107
0.460890
0.632666
0.163858
-0.322802
0.108969
-1.275806
-0.858055
-0.462988
-4.074198
-0.380592
0.492829
-0.700287
0.934248
0.572824
0.843431
0.132392
-0.163575
-0.547176
0.948811
-0.455605
0.639503
0.149980
-0.800961
-0.559257
0.729696
0.358179
-0.315500
0.108409
-0.941940
-0.046527
-1.241193
0.878216
0.312062
0.004819
-0.232531
0.470612
0.591772
-1.406558
-0.190319
-0.155766
-1.188979
-0.178167
-0.321843
-0.749586
0.518483
-1.936229
0.995936
1.467443
-0.056188
-2.265691
0.495913
-0.465237
0.635656
0.699380
-0.851226
0.249180
-1.293212
1.009439
0.546813
-0.486396
-1.065955
1.514582
1.125936
-1.278278
0.261562
2.143143
0.401510
-1.452578
-0.171529
0.322497
-0.259870
-0.244248
1.483767
-0.760417
0.503790
0.198648
-0.150173
0.191349
-1.455320
1.641979
-1.977463
-0.873816
1.390594
0.099676
0.242618
-0.016780
1.044098
-1.434562
-0.076081
-0.465567
-0.226267
1.681709
-1.186203
-1.616520
0.865160
1.194174
0.567034
-0.463842
-0.481624
-0.303182
-0.346303
0.104983
-1.118262
0.418580
0.195619
0.203076
0.999285
1.146491
0.621875
-1.124313
-1.226473
1.145179
-1.146361
-0.369732
-0.179104
0.084035
-0.300514
0.138186
0.346756
1.359739
-1.317098
0.459229
-0.159091
-0.186456
1.369961
-1.846569
-0.471392
-0.229939
-1.191649
0.306465
-0.315115
-0.562556
0.732013
-0.170342
0.050452
-0.292908
1.197687
0.699954
1.286118
-0.491851
0.531793
0.335609
-1.173442
1.940049
0.101632
-1.917953
-2.190876
2.197694
1.158634
-0.141684
-0.201164
0.847908
-0.979475
0.734596
-0.047910
-1.277396
0.556290
-0.418824
-0.055580
1.399869
2.734305
-1.237647
0.343580
-0.232326
-1.199369
1.226865
-0.485220
-0.222543
-1.212807
-0.773182
0.764519
-0.946784
-0.945940
1.170332
-0.082136
1.365657
-0.838134
-0.725928
-0.727537
-1.493495
-0.115046
-0.143324
1.640565
1.325896
-0.923798
0.350982
-0.620152
-1.493688
1.300119
1.112941
0.948855
1.316760
0.326992
0.316214
0.564554
1.009583
0.709107
0.506902
-0.065006
1.093451
-1.712024
-0.818684
-0.420987
-0.435809
0.372347
-1.276907
-0.615709
1.425747
1.333684
0.195310
-2.274721
1.187357
1.628774
0.379728
0.156700
-0.137251
-2.239044
-1.518482
-0.999431
0.949027
-0.903887
0.867721
-0.017661
-1.620848
-1.635164
0.092077
-0.430358
-0.034887
-1.111352
1.688559
-1.531221
0.025132
0.390724
-2.583879
0.832171
-0.839054
0.017347
0.444851
0.155240
-0.443729
1.803260
0.693132
-0.201638
1.434699
0.722051
1.142084
-1.505464
-0.772497
0.419044
-0.710530
0.003967
-0.081397
-0.835136
1.588259
1.675879
-0.067414
-0.639106
0.859764
-0.193261
0.597715
0.209961
1.055389
-0.589233
-0.643916
-0.046030
0.336953
1.088400
0.104098
-0.048725
0.461874
0.042973
-0.444609
0.100107
-0.452162
-0.811519
-0.674793
-1.233801
-0.701552
1.427311
0.540136
0.734846
-0.009409
0.455408
1.429056
1.302912
-2.874417
0.166625
-1.744858
-0.528095
-1.545893
-1.269122
1.646597
-0.386839
-1.035297
-0.443671
1.169097
-1.343174
0.263972
0.300672
0.477823
1.218789
0.898436
0.654175
0.721394
2.541811
0.793679
-0.662955
0.558628
0.206064
0.554555
0.200554
-0.161635
0.496302
-1.464770
-0.688769
0.521135
-1.389191
1.040679
1.277731
2.046814
0.428797
0.156505
-0.444809
1.144906
0.591283
0.599630
-1.308243
-0.478201
1.547792
1.310655
0.720201
0.186580
0.657224
0.736345
0.163457
0.666348
0.504174
-0.891254
-1.341197
0.299117
-0.565753
1.479123
0.778061
0.193748
1.153743
-1.418439
2.055393
-0.349866
0.580618
0.272377
0.628391
0.702231
-0.440062
-0.574450
0.212942
0.302193
0.578640
-0.284510
-1.175761
0.798151
1.074236
0.513139
1.836712
0.430422
1.231730
-1.133848
-0.209121
0.176429
-1.001421
1.115209
0.318694
0.264787
-0.695526
-1.031395
-1.649037
-0.984403
0.866647
-0.581227
-0.433462
0.543355
1.020683
-0.037611
0.298280
-0.711661
0.538989
-0.381959
-0.782576
0.589761
-3.047530
-0.714494
0.054804
0.983721
0.870553
0.807730
-0.649799
0.601039
0.490400
-0.787955
0.303461
-0.113274
-0.095075
0.395283
2.049474
-0.271285
-0.304295
-0.347917
-1.582239
0.007446
0.107889
1.739238
0.354240
-0.209707
0.223790
-1.670585
-0.635285
0.353639
-0.526590
0.003150
0.530354
-0.697198
-0.441915
-0.382275
-0.197196
-0.803286
0.907147
0.492777
0.121611
-0.071541
0.279268
0.776676
1.654136
-0.872670
1.554948
-0.640546
1.316851
2.748483
0.271380
-0.823053
-0.666138
-0.804256
-1.264003
-1.492532
1.216302
-0.680606
-1.802026
-0.515468
-0.320273
-0.307427
0.370262
-0.274536
-1.802923
-0.032459
1.070760
-0.310299
1.270559
0.303919
0.070524
-0.152684
-1.013752
1.396713
1.125562
-0.184161
1.339787
-0.906627
0.819481
1.442112
0.997718
1.611224
0.308161
0.811395
0.142327
0.068868
0.727338
-0.703897
0.318259
-0.494807
0.498848
0.971862
-1.585045
-0.818086
1.914661
-0.856992
0.134652
-1.547109
0.974594
-0.738580
-0.437439
-0.995672
0.679286
-0.215543
1.011456
-1.961555
0.936309
0.255464
-0.290977
0.763663
0.063022
-0.634302
0.938222
-0.738400
1.545383
-0.064231
-1.306006
0.722637
-0.535833
-0.545326
-1.498439
-0.995108
-2.419964
-0.476180
-1.550701
-0.337117
2.134925
-0.682915
-0.436845
0.507648
-0.320196
-0.185538
0.964132
0.396328
-0.702307
-1.715433
1.561519
-0.511704
-2.182678
1.632734
-1.239225
-1.209625
0.625766
0.527873
-0.246807
0.378802
-2.076611
0.620162
1.386056
-0.577230
-0.176493
0.671890
-0.235170
-0.798442
-0.848426
-1.591793
-0.743373
-1.812042
-2.604666
-0.621169
-0.782040
-0.652857
-0.358831
1.932278
-0.457976
0.802722
-0.214024
0.657778
-2.347697
-0.626028
-1.055447
-0.050073
-1.029916
0.722053
0.087662
0.916027
0.656800
-0.375726
-0.469037
-0.035898
0.056098
-2.266615
0.238204
-0.103852
-0.095758
0.473972
-2.058112
1.395406
0.218306
-0.607628
-0.605312
-1.699672
-1.251835
-1.852789
0.308398
-0.089788
-1.200391
0.642098
-0.822438
-0.092697
0.569357
-1.160490
-1.375979
-0.594678
-0.705499
-0.131175
-0.611638
-0.475185
0.190939
0.978871
0.114164
2.167941
-0.984369
1.060597
0.737426
-2.525902
0.159526
-0.117185
-0.480535
-0.729207
-0.990764
-0.760450
-2.645734
-0.260810
-0.155364
2.234078
-1.281358
0.990503
-0.956014
0.973330
-0.284201
-0.191592
-0.995251
-0.420486
-0.614568
0.014554
-0.170159
1.532037
0.809883
-0.254260
0.110660
0.145181
-1.292561
-1.708553
1.207167
-0.382929
0.495501
-0.513451
-0.824697
1.021338
0.505518
-0.731134
-1.030214
1.250283
-0.264225
1.892794
0.444893
-2.218612
2.084953
-0.221459
0.838342
-1.460522
-1.400022
-1.482901
-0.739815
0.489358
0.811921
0.561471
-0.815909
-1.187772
0.277859
-1.134051
-0.054642
-0.772473
0.194003
0.966972
-0.920278
0.065399
0.326406
0.544731
1.298262
-1.129335
-1.179911
0.327915
0.043549
0.026139
-1.368549
0.164552
0.147298
-0.862862
-0.996658
-1.384597
-0.761306
-0.530632
-0.590815
-2.368771
1.066259
-0.039384
-0.068456
-0.872210
-0.905214
0.472323
-1.105475
0.935410
0.583699
-0.382342
1.210184
1.091653
-0.138120
-0.994226
-0.948049
0.939966
-0.100198
-1.069213
0.971113
-1.077809
0.665882
1.142359
0.198178
-1.770622
0.319468
0.723014
1.603798
-1.217348
0.228522
-0.299197
-0.116225
0.264160
1.100444
-0.051228
-0.262834
0.296138
1.199851
-0.872966
-0.961265
1.267498
0.882363
-2.366183
-0.887717
-2.584107
0.528423
-2.295786
-0.280666
-0.734799
-1.023480
0.334781
0.576043
-0.623102
-1.674715
1.153969
-0.158558
-1.941221
0.443926
1.299005
-0.225751
-0.366013
0.612675
-0.955543
0.064816
-1.174186
0.934931
0.275727
-0.377553
1.090476
0.244059
1.373791
-0.732964
2.407565
1.805575
1.846747
0.294634
-0.158491
-0.211924
-0.185933
-0.389119
0.134357
-1.739454
0.199633
0.659203
0.602143
1.794342
-0.832976
1.478555
0.462213
-0.648747
0.647373
0.107740
-0.454630
0.397676
-2.654201
-0.484661
-1.167235
-0.703392
0.349280
0.273524
-0.723524
0.487902
-0.993517
1.165789
-0.217495
-1.341737
-0.475541
-1.610040
-0.241488
-1.236333
-0.146938
-1.786929
0.515078
0.684773
-0.668528
0.015911
2.871957
0.921895
1.707589
-0.439513
1.309089
1.122464
0.614469
0.120299
2.999484
-0.460012
0.379138
2.059249
0.591988
0.833994
-0.317077
1.224745
1.845620
-1.169836
-0.455335
-0.027702
0.453852
0.150454
-0.695108
0.051149
0.538826
-0.574240
0.274895
0.618370
1.197064
-0.465947
-0.211969
-0.425161
-0.394700
-2.662391
-1.286740
0.352180
0.621192
-0.199191
1.093911
0.261749
-0.677561
0.596351
-0.194578
0.509291
-0.289264
-0.498690
-0.594604
0.701576
0.258018
-0.408634
-0.232824
-0.147495
-0.036935
-0.337625
-0.003170
-0.607909
1.290218
-0.435058
1.268286
-0.171143
-0.702133
0.205430
-0.251954
-1.047172
-1.405208
-2.264739
1.081605
-0.929248
1.268378
-0.142076
-0.560229
-1.691405
-2.444741
0.376870
0.094934
-0.123379
-1.421047
-0.107868
0.540415
0.511837
-0.304895
-0.420285
-1.059696
-1.917697
-0.308149
-1.203943
-0.769502
-0.541555
-1.078795
-0.761165
-1.216384
-0.243709
-1.728004
-0.120061
1.539813
-1.775607
-0.476406
0.842048
-2.203311
-2.196387
-1.783526
0.573274
-0.058500
-0.923346
0.093558
1.095925
-0.695173
-0.305146
1.379756
-1.224801
1.423088
1.764508
-1.181470
0.760703
0.062902
-0.717508
1.063606
-1.533814
-1.664920
-0.515420
-0.322734
-1.070701
0.395801
-0.471105
0.594236
-2.380277
0.095795
0.385170
-0.930846
-0.427669
1.021311
0.453572
0.813472
0.064676
-0.709229
-0.355076
0.089752
-0.521323
0.598681
0.144495
2.084160
-0.788558
0.234951
-0.032182
1.598577
1.486611
-0.022155
0.426293
-1.433561
-0.369247
-0.312754
0.701855
-0.921669
-1.053316
1.998562
-0.003982
-0.984545
0.399463
-1.835363
0.689330
-0.050767
-0.141263
0.133990
1.409538
-0.818886
-1.085733
1.334974
1.135298
-2.147487
-1.086487
-0.522792
-1.134975
1.148722
0.687912
-0.784100
0.763714
0.379902
-0.522141
-0.736835
1.274576
-0.952497
-0.009593
-1.203461
0.410434
-0.570843
-0.170635
-0.202648
-0.163920
-0.081719
-0.424385
-1.213374
-1.211028
0.626438
-0.144670
0.219672
1.432228
-2.363374
-1.576272
0.832702
-1.863302
0.888550
-1.581858
1.353764
0.743482
-2.012339
0.545339
0.154789
0.762022
2.208179
0.817872
-0.220308
-0.289965
-0.088217
0.426999
1.227826
0.576925
0.732677
-0.287103
1.189195
1.933237
0.082298
2.123419
-0.863435
-0.507454
2.167525
0.561304
-1.159221
0.019132
-0.388523
-0.279164
-1.402345
1.860976
0.155382
0.766814
0.547681
0.511508
2.043009
-1.068998
0.382577
0.010859
0.791525
0.861463
0.617125
-1.776662
-0.029302
2.723995
2.021441
-1.744963
0.049571
-0.050183
1.624813
-0.798266
-1.698710
0.741529
0.324751
-0.862509
-1.255265
-0.610577
0.553301
-1.587147
-1.722586
0.706831
-1.394350
1.057948
-0.704434
-1.089145
0.336412
0.984952
1.321120
1.547096
0.077649
1.162756
1.478984
-0.254259
-0.025595
0.012468
0.525847
-0.880104
-0.650723
0.690339
0.170316
-0.050212
-0.297420
0.320385
-0.425654
-2.626414
1.685469
0.518145
-0.216403
-2.347412
0.079805
0.893828
-0.724636
0.552252
1.395523
-0.692793
0.733468
-0.020917
0.561437
1.389325
-1.720984
-0.251770
-1.205577
-1.683421
0.707908
-0.511663
0.655868
0.422548
1.015766
-1.225427
-1.500813
-1.540910
-0.278743
0.598278
-0.232576
0.839523
-1.396362
0.592322
-2.580224
0.614414
0.123616
-0.379314
-0.945443
0.103863
-0.689604
-0.205944
-0.779016
-2.484342
0.441008
2.421273
0.627465
-0.481276
0.407606
-0.954176
-0.231593
-0.167710
0.018983
1.151352
-1.553459
0.288036
0.702896
-0.138489
0.547490
0.395595
-0.586939
-0.404633
2.066556
0.316221
-0.158711
1.606958
-2.331064
-0.349128
0.276867
-0.242524
0.478478
0.050285
-1.468387
-0.945287
-0.154531
1.079904
-0.578673
0.879225
0.168742
0.932470
-0.014720
-1.942443
0.219494
-0.735181
-0.091968
-0.661073
-0.332523
0.427586
-0.985677
-0.917479
-1.814934
-0.879118
-0.075682
-1.311876
0.510228
-0.057904
0.240660
0.710249
-0.486217
-1.163231
2.814989
1.357394
-0.784768
-0.496062
0.173870
-0.194642
-0.210147
1.142263
0.510476
0.440059
0.616277
-1.554174
-0.390364
-0.166469
0.407619
-0.577851
-0.673316
1.119541
0.275748
2.409529
2.447663
-0.653266
-1.490443
-1.737923
-0.204536
-0.084797
-1.135619
-0.545659
-1.022853
0.327186
0.321505
-1.249042
0.355099
0.406539
-0.281210
1.034250
2.327246
-1.281981
1.445619
-1.912344
0.172880
0.148534
1.580825
0.243410
-1.494337
-0.114615
0.182348
0.757009
-1.203207
0.615727
0.610655
-0.103401
-0.289372
-0.583489
-0.951427
0.331944
0.757524
0.055578
0.129149
1.160147
0.571889
0.898208
1.431328
1.686563
0.075262
-1.974506
-1.014185
1.707592
1.138439
-0.419308
-0.434849
0.458498
-0.431306
-1.521294
1.200122
0.055627
0.565666
-0.541427
0.913829
0.693698
-1.094634
-0.010490
2.472185
-1.473486
-1.202442
-0.504442
1.627999
-0.051834
0.809822
-0.838180
-1.649264
-0.151154
-1.149507
0.453585
-1.102847
0.890711
-1.231361
0.921737
0.306527
0.141937
-0.311764
0.904097
-0.676780
-1.062518
1.265160
0.238368
2.003729
1.062400
-0.453704
0.481061
-1.713697
1.115885
0.001523
0.420797
-0.711591
-0.372803
0.445863
0.812220
1.094680
-0.323383
-0.281275
0.506731
-0.021069
0.113653
0.855936
-0.035085
-0.275007
-0.052715
0.328294
-1.134880
0.533255
0.600154
-1.490298
0.048505
0.986945
1.000508
-0.711614
1.562712
-0.889733
0.371913
0.194287
0.159164
-1.519430
0.938774
1.510509
0.636999
-0.348198
0.297009
-0.767508
0.638811
0.718777
-0.529726
1.346378
0.690538
0.698347
-0.741305
1.329122
-0.401681
1.004882
-0.011541
-0.226040
-1.218677
1.963035
0.044035
-2.475622
0.865575
0.148897
-1.661600
0.359096
-0.456933
-0.768809
-0.331496
-1.014744
-1.045971
-0.019931
0.285884
-1.074583
0.290452
-0.624913
1.358833
1.075630
0.061018
-0.524734
-0.170585
0.806973
-1.333202
-0.153723
1.499484
-0.707982
0.190494
0.224370
-0.972328
0.075534
0.322033
-0.796400
-0.819005
-1.837009
-1.308201
-0.552714
2.136249
-1.027015
0.561397
0.917757
-1.292119
-0.478191
-0.864854
1.282371
1.491736
-0.451028
0.253556
-0.526653
1.809884
0.681384
0.578322
-0.276298
0.189286
-0.664035
0.031051
-0.663698
-0.787215
0.589748
0.913417
0.205388
0.504268
2.089992
-1.062136
-1.632182
1.207363
-0.728112
0.695351
-2.940508
1.377005
0.655432
0.788203
-0.519235
-0.673869
-0.797314
-0.040786
-1.624861
2.128775
1.434061
-0.749540
-2.247357
-0.135969
1.940445
1.670787
0.964454
0.543015
-0.490796
-1.089673
0.054534
1.035757
1.547204
1.916484
-0.983780
-1.489526
-0.775334
-1.455368
0.476672
-0.702816
0.595011
-0.367233
0.044255
2.254903
1.552676
0.928080
1.605518
0.184060
0.084976
0.031441
0.133574
0.584137
2.161389
0.664084
-0.501811
2.000299
-0.431433
-2.543215
1.630607
0.768221
-0.622796
-1.127398
-0.169634
0.899399
0.455691
-0.120334
0.321825
-0.277298
1.248328
-0.500123
0.392538
0.211946
-0.827351
-0.036112
0.333747
-0.823685
0.349272
0.886380
-1.332228
1.226518
-0.381973
-0.662572
1.343908
-0.691698
-0.606337
1.599197
1.008739
-1.001319
-1.079966
0.026037
0.271688
0.488571
0.375783
0.005253
0.149026
-0.477713
1.090198
-0.251211
-1.582363
-0.050158
0.683106
0.273047
-0.396320
-0.185557
0.324902
0.369128
2.417557
-0.773768
-0.134896
0.307615
-0.006094
-0.210988
-1.105706
-1.231300
0.517465
0.029486
2.601477
-0.593408
0.426355
0.779567
0.160404
-1.217039
-1.286100
0.601264
-2.296870
-1.423096
-0.585435
-0.032864
0.215324
0.874281
1.422811
0.134675
0.128382
1.049612
0.410545
-0.560643
1.181532
-0.601564
-0.004308
-0.275639
0.458657
0.118131
0.174636
0.495588
0.263636
0.105015
0.216342
1.376500
-0.092671
-0.992639
0.403253
-0.669804
-0.503203
-1.049689
0.848484
0.524007
-0.173934
0.295754
-1.520023
-0.196270
0.340036
0.016255
-1.060261
-1.022552
1.314624
-1.426496
0.542678
-1.337267
0.727808
-1.266669
0.194904
0.366718
1.699397
0.769783
0.973293
0.124151
0.160735
-0.938003
0.632868
0.261575
0.674692
-0.076466
0.630107
2.515412
-1.247608
0.096263
-0.672735
0.086816
0.239730
2.548211
-1.189030
-1.528267
1.025272
-1.534738
-1.073696
-0.574479
-0.350356
-0.279771
0.274154
-0.922458
0.557156
-0.520907
1.013021
-1.105258
-0.719289
-1.330401
0.054037
1.542310
2.034745
-0.066844
0.408166
-0.748251
-0.903107
-0.509867
1.460261
-1.364310
-0.750497
2.869968
-0.035169
-0.482068
-0.009181
2.101369
0.083120
0.150072
0.263245
2.783098
0.673828
-1.690871
-0.387407
-0.686931
-1.126452
1.063982
0.898852
-0.494354
0.392572
-0.605724
-0.443838
-0.499887
1.838880
-0.919032
-1.578930
-0.408598
-0.890302
-1.112235
-1.230238
-0.613899
0.367310
0.604472
0.461357
2.518349
-1.035505
0.315998
-1.228016
1.571626
-2.966642
-1.408820
-0.826003
-0.799437
0.097973
-0.604524
-1.326438
-0.908769
0.981515
0.314668
-0.741828
-0.420281
-0.293763
-0.573252
-0.415178
1.434178
-0.804420
-2.273585
1.591356
0.448585
-1.465759
-0.616442
1.629533
-0.827895
-0.210673
-1.174400
0.062532
-0.073211
0.264340
-0.307972
0.954569
0.765688
0.744344
-1.032686
1.254053
0.452901
-1.719504
0.108749
-0.970019
-0.902848
0.789619
-1.423194
0.374369
-1.668320
-0.815362
0.203037
0.960189
0.250034
0.151510
0.622843
0.164950
-0.466258
0.163422
-0.135206
-0.438361
0.700385
-0.955665
1.002445
2.612794
0.361492
0.367886
2.243890
1.774231
-1.084880
-1.725194
0.277030
-1.693770
-0.407684
-1.939412
-0.092197
-0.885662
0.859126
1.517669
1.981414
-0.980400
-0.924198
0.401747
-0.338758
0.805790
-1.585687
1.532378
-0.060823
0.937993
-1.494592
2.498794
-0.436067
-1.510363
-0.235240
0.117484
2.148629
0.071209
-2.213077
-0.862614
0.318980
0.947811
2.721745
-0.961105
-0.539551
-0.765897
-0.207563
0.635681
0.108403
0.989133
0.837340
0.348709
-1.718086
1.916070
-2.067138
-1.420823
0.678311
-0.245588
-0.721158
0.813858
-0.877346
-0.009191
0.815956
-0.218050
-0.276626
1.097841
-0.466659
0.961123
0.847443
-0.135935
-0.444623
-0.745539
-0.357829
-0.958668
-1.546005
1.695992
0.155989
-0.489357
0.017784
-0.868373
-0.747324
0.305987
0.191985
-1.420440
-1.122766
1.465163
1.062622
0.386373
0.560272
-1.368198
0.509794
-0.917503
0.354574
-0.171388
-1.282533
0.044364
-1.037386
0.643665
0.672259
0.502950
-0.400335
-3.679585
0.358948
0.961603
1.218222
-0.011167
-1.458009
0.638733
0.292252
0.674551
1.121370
-1.484078
0.649361
0.728226
-1.599778
0.437763
-1.148349
0.591856
0.411815
-1.112411
-0.413242
-1.087716
-1.407323
-0.290041
-0.242340
1.363391
-1.472769
1.160987
-0.430720
0.260643
1.606528
1.815781
-1.157389
0.789492
1.320179
0.598659
-0.292281
-0.800258
0.259371
-1.516003
-0.868910
1.247178
-1.280061
0.259543
0.025589
0.271751
-0.116135
-0.144119
-1.289153
0.515030
-0.828424
1.039195
-0.002371
-0.161629
-1.513065
0.798521
1.748040
-0.648103
-1.974502
0.525049
-0.628878
-0.343844
1.453205
-0.213073
0.494504
-1.103750
0.025909
1.018969
-0.638404
-1.109782
1.138649
-1.425691
-0.411347
1.797053
-1.453351
0.186103
0.668438
-0.608832
-0.331956
-0.923998
0.946935
-1.165426
0.205754
0.424900
-1.177070
0.153007
-0.524298
-1.106370
1.626959
0.941538
1.764409
-1.101713
1.248447
0.946420
0.170981
1.175095
0.577554
0.447468
0.122816
-0.647813
-2.588216
-0.708899
-0.592842
0.320391
0.222364
0.160658
1.586085
1.523088
-0.797809
0.025810
0.535136
1.309744
1.029008
0.231783
-0.636748
0.870528
-1.004564
0.981063
0.838851
-0.714099
1.833305
0.855742
-0.840864
0.674412
0.110165
0.246005
-1.205487
0.520581
0.483968
1.126683
-0.532438
0.058189
-1.160336
2.791621
1.227300
-0.489150
-0.182630
-0.228735
-0.907955
-0.366508
1.390358
1.581455
-0.256487
1.109763
0.883238
-0.852436
-0.032541
1.429647
-0.446275
-0.614881
1.494703
-0.201251
0.674289
0.190063
1.075861
-0.525313
-0.143827
1.139013
-0.356096
0.615508
-0.385985
-0.007246
-1.560495
-0.160713
-0.269261
-0.159408
-1.307516
0.214777
0.113763
0.232851
-0.228516
-1.287081
-0.817157
0.731668
0.318782
-0.359528
0.257031
-1.950820
-0.078067
1.002384
0.704095
0.021279
-0.290177
1.036580
-1.444541
0.148859
0.025030
-0.283593
0.193697
-0.836263
-1.296001
-1.675698
0.886865
-0.410212
0.748356
0.577207
0.136538
1.985353
-1.072411
-1.340779
-0.152615
0.864272
-1.793931
-1.478514
1.724697
-1.997213
0.896385
-0.369081
-0.993234
-2.120130
-0.672951
1.469499
2.584893
1.552350
-1.352319
1.928073
-2.964446
1.912044
1.291529
0.097687
-0.810577
0.910690
0.867083
2.162461
1.033849
0.383934
1.552442
0.417090
0.333830
-2.135982
-0.669075
-1.255835
0.226331
-0.380847
-0.074491
1.888792
0.421022
-1.218661
-1.722795
-0.450260
0.632819
-0.026457
0.965694
-0.176915
-0.373768
0.898985
-0.745884
-0.887274
1.331881
1.865803
-1.239290
1.344358
0.162527
-0.746462
-1.082544
0.430818
1.026909
1.106774
-1.671316
1.186934
0.069433
-1.590559
-2.300913
0.032128
-0.080720
0.385043
1.959963
-0.257006
0.520518
-0.574759
0.323523
0.942446
-0.322507
-0.661834
-1.981821
2.539036
-0.201953
-0.219915
-0.817190
1.237664
0.526303
-0.182871
0.038232
0.653561
0.197678
-0.244306
0.654757
-2.005684
-0.845282
-0.661784
1.541325
-0.938984
-1.344816
0.134844
0.297930
1.086959
0.121776
0.687838
1.216190
-1.029702
-0.664962
-0.223829
0.005605
-1.500452
-0.280016
1.369275
0.403878
-0.858550
-0.210892
-0.406196
0.325569
0.471563
1.662207
0.323545
0.583988
-0.323832
-0.494246
0.458885
1.687276
1.861622
0.635532
1.288238
0.231385
-0.887861
-0.385843
1.531353
0.875558
-1.655288
-1.493432
-0.580340
-1.427378
-0.240759
0.431569
0.554736
0.596197
1.122452
-0.425191
0.310584
-0.375161
0.966843
0.522526
-0.946117
0.033833
-2.524032
-0.903379
-0.553333
-0.825425
-0.301736
0.162444
0.628805
-1.969049
0.340251
0.548286
0.209252
0.121373
-0.939987
1.086706
1.201662
1.042998
-0.562178
-1.605121
0.019512
-1.676776
1.238075
-0.326939
0.215870
0.279040
-1.271232
0.929079
1.063730
-0.586976
1.312061
1.137622
0.563961
-0.163881
0.761512
-0.100227
0.120434
1.198792
-2.436974
1.228687
0.681297
0.940096
0.353599
-0.483365
0.569932
-1.086812
-0.069912
1.287109
0.142787
-0.218363
1.339287
0.904917
-0.526479
-0.286942
0.093308
0.759912
0.583295
-0.786053
1.563590
-0.553600
-0.284869
-0.203208
-0.784819
-1.316483
-2.663002
1.651467
-1.008156
0.012763
-1.772720
-1.033879
-0.553372
-1.103028
-1.569218
-0.426021
1.714928
-0.401574
-1.388036
-2.280535
-0.337483
0.701024
1.484858
1.982712
0.077212
-2.162388
-0.632322
0.132734
1.293426
-0.963794
1.085980
-0.224555
1.564381
-0.188140
0.341754
1.103245
1.243122
-0.296582
-0.036405
0.104843
-1.147184
0.593562
-1.017440
0.169292
-0.050139
0.197049
1.150866
1.410591
-1.167067
0.296266
-1.941746
-2.030105
-0.616022
1.258459
1.180727
-0.615710
-0.923421
1.941564
-1.015935
0.321022
0.708692
-0.521694
1.296201
0.232906
-0.104088
-0.687209
0.378055
-0.223075
-1.046846
-1.691445
1.158740
1.832750
-0.586936
